~o
<STREAMINFO> 1 39
<VECSIZE> 39<NULLD><MFCC_E_D_A><DIAGC>
~h "Cha^m"
<BEGINHMM>
<NUMSTATES> 14
<STATE> 2
<MEAN> 39
 -8.495355e+00 -8.454103e+00 -1.812373e+00 -4.912180e+00 2.402696e+00 -2.978702e+00 6.017354e-01 -1.854914e+00 8.739705e-01 -1.297422e+00 2.358994e+00 -1.203014e+00 6.236760e-02 -1.967447e+00 1.614570e-01 -4.529513e-01 -3.277921e+00 -4.365385e-01 -1.628120e+00 -3.421204e-01 -4.388784e-02 -8.997101e-02 8.524839e-01 -5.079319e-01 -3.109972e-01 1.075655e-01 -1.303676e-01 -1.976531e-01 -1.559476e-01 -8.801689e-01 -8.047246e-01 -7.807493e-01 4.136179e-01 -5.520111e-03 1.777437e-01 1.477155e-01 -1.100511e-01 -1.014597e-01 3.856383e-02
<VARIANCE> 39
 3.265875e+01 2.657898e+00 4.777552e+00 4.839901e+01 1.400809e+01 2.123234e+01 1.327105e+01 1.076928e+01 1.064590e+01 9.090774e+00 1.013443e+01 1.679629e+01 5.000000e-02 2.198103e+00 1.176337e+00 7.914564e-01 5.473996e+00 3.396808e+00 3.784429e+00 1.045616e+00 1.598649e+00 2.477375e+00 9.861224e-01 9.230688e-01 2.167396e+00 5.000000e-02 9.927592e-01 3.588056e-01 1.361693e-01 8.462111e-01 7.983421e-01 5.248674e-01 3.584575e-01 2.629777e-01 4.046392e-01 2.802888e-01 2.827621e-01 4.318950e-01 5.000000e-02
<GCONST> 8.933041e+01
<STATE> 3
<MEAN> 39
 -1.106836e+01 -1.191624e+01 -6.152267e+00 -1.957359e+01 -8.414481e+00 -1.515844e+01 6.392292e+00 -6.874831e-01 2.395142e+00 2.758091e+00 -1.435690e-01 -4.578502e+00 7.414981e-01 1.022069e+00 -3.331387e+00 -1.677060e+00 -3.673467e-01 -2.548362e+00 -6.904044e-01 3.205377e+00 1.283410e+00 -8.124389e-02 -2.837328e-01 -8.967733e-01 -8.110887e-01 1.239965e-01 1.973553e-01 -5.246917e-01 -3.013823e-01 1.687682e+00 1.348435e+00 1.218991e+00 3.090422e-01 2.482658e-01 -5.852536e-01 -9.522148e-01 -2.899862e-01 3.785925e-01 -3.131316e-02
<VARIANCE> 39
 2.050264e+01 5.732468e+01 3.002304e+01 1.402963e+01 8.537905e+01 3.213201e+01 3.905820e+01 2.734913e+01 2.241677e+01 2.174621e+01 1.386409e+01 1.132795e+01 5.000000e-02 1.477164e+00 3.270073e+00 1.326775e+00 8.637266e+00 1.105883e+01 7.334832e+00 1.369595e+00 1.927565e+00 2.738444e+00 5.444248e+00 1.676086e+00 1.341535e+00 5.000000e-02 7.996359e-01 1.196512e+00 2.164747e-01 4.140859e-01 2.726479e+00 4.407279e-01 8.206474e-01 4.466360e-01 5.113797e-01 5.899812e-01 2.337308e-01 4.052145e-01 5.000000e-02
<GCONST> 1.080002e+02
<STATE> 4
<MEAN> 39
 -1.052907e+01 -2.358888e+01 -1.288665e+01 -1.076678e+01 -2.517989e+00 -7.846359e+00 1.580877e+01 3.430178e+00 -2.268215e+00 -6.317613e+00 -5.878346e+00 -1.993273e+00 9.557009e-01 -5.902774e-01 -1.025664e+00 -1.742973e+00 2.733093e+00 4.568801e+00 1.624113e+00 2.056296e-01 -5.325139e-01 -1.024134e+00 -1.944246e+00 -1.224381e+00 1.783442e+00 2.800294e-02 -1.529815e-01 8.222020e-01 2.690164e-01 -4.637908e-01 3.305137e-01 -3.096796e-01 -1.115051e+00 -8.910502e-01 6.951308e-01 7.670182e-01 3.618618e-01 -7.220934e-02 -1.407998e-02
<VARIANCE> 39
 1.993250e+01 5.607468e+00 1.960164e+01 2.540702e+01 3.292250e+01 2.227761e+01 1.147690e+01 2.901338e+01 1.374169e+01 1.404579e+01 1.542774e+01 1.912604e+01 5.000000e-02 3.370556e-01 1.485248e+00 6.723056e-01 1.297789e+00 5.988982e-01 1.054220e+00 2.596939e+00 1.561184e+00 1.971334e+00 3.136298e+00 1.157959e+00 6.158460e-01 5.000000e-02 1.611419e-01 1.657011e-01 8.836419e-02 4.601664e-01 1.150366e+00 2.137786e-01 1.836856e-01 1.797428e-01 2.570638e-01 3.671054e-01 1.547094e-01 5.338484e-01 5.000000e-02
<GCONST> 8.207481e+01
<STATE> 5
<MEAN> 39
 -1.189030e+01 -2.408122e+01 -1.737286e+01 -7.750619e+00 9.463839e+00 -4.924265e+00 1.112717e+01 -3.646905e+00 1.313944e+00 -5.340786e+00 -7.664567e+00 -1.314654e+00 9.696618e-01 -4.269797e-02 1.438720e-01 -6.401708e-01 -8.184887e-01 1.189559e+00 7.089537e-01 -1.105150e+00 -1.336480e+00 1.841726e+00 7.636180e-01 -7.179283e-02 -1.212921e+00 -1.295729e-02 2.755443e-01 2.272448e-01 2.671674e-01 -5.764862e-01 -8.620251e-01 -2.266173e-01 3.442850e-03 3.098157e-01 3.329345e-01 1.789580e-01 2.878311e-01 -4.787978e-01 -8.293052e-03
<VARIANCE> 39
 7.969961e+00 2.613755e+00 1.357548e+01 8.834177e+00 1.028009e+01 1.644770e+01 1.047643e+01 2.809399e+01 3.977665e+01 1.320997e+01 1.079905e+01 6.695100e+00 5.000000e-02 2.823880e-01 3.238426e-01 2.752060e-01 9.805616e-01 1.349975e+00 5.389498e-01 2.851610e-01 1.242884e+00 9.119644e-01 4.347969e-01 4.241478e-01 6.542918e-01 5.000000e-02 5.000211e-02 6.684465e-02 6.637710e-02 1.813506e-01 1.175772e-01 1.493650e-01 1.432250e-01 1.961806e-01 2.009819e-01 1.703503e-01 7.509121e-02 1.623036e-01 5.000000e-02
<GCONST> 5.909282e+01
<STATE> 6
<MEAN> 39
 -9.228377e+00 -2.125130e+01 -1.736910e+01 -1.435259e+01 7.456745e+00 -4.889251e+00 6.559719e+00 -5.572959e+00 1.074253e+01 -1.795688e+00 -4.647737e+00 -8.437433e+00 8.391352e-01 2.008201e+00 8.991641e-01 1.748703e+00 -7.381846e-01 -2.406918e+00 -2.354153e+00 -1.300865e+00 -8.609781e-01 7.912091e-01 1.001350e-01 1.271635e+00 -9.077470e-01 -5.619820e-02 4.956881e-01 -2.245961e-01 7.583233e-01 6.915648e-01 -6.316284e-01 -5.719271e-01 -6.010203e-02 -4.728870e-01 -9.393180e-01 -4.428916e-01 -2.464736e-01 6.027489e-01 -7.244308e-03
<VARIANCE> 39
 8.476446e+00 4.516837e+00 8.228095e+00 1.061168e+01 2.326615e+01 1.983216e+01 1.846135e+01 1.960084e+01 1.571688e+01 1.914798e+01 2.181908e+01 7.323620e+00 5.000000e-02 7.739034e-01 3.898124e-01 2.145408e+00 1.889639e+00 2.265571e+00 3.022929e+00 1.800072e+00 1.497623e+00 3.414690e+00 9.415920e-01 8.198707e-01 1.204842e+00 5.000000e-02 1.267526e-01 9.342975e-02 9.678323e-02 1.647721e-01 3.466807e-01 7.001103e-01 2.546339e-01 2.191650e-01 3.621126e-01 1.081858e-01 3.510476e-01 1.227754e-01 5.000000e-02
<GCONST> 7.862350e+01
<STATE> 7
<MEAN> 39
 6.809023e-01 -2.097012e+01 -6.926557e+00 -1.072734e+01 -3.703581e+00 -1.334717e+01 3.206150e+00 -1.348489e+01 5.668266e+00 -5.671668e+00 -4.498847e+00 -6.685955e+00 6.143619e-01 1.986238e+00 -5.751442e-01 1.895750e+00 1.227963e+00 -2.052436e+00 2.098712e-01 -7.459792e-01 -7.124345e-01 -1.337489e+00 -2.260287e-01 -1.178093e+00 8.596439e-01 -2.971928e-02 -5.319058e-01 -9.266472e-02 -5.669490e-01 -2.186770e-01 7.873580e-01 7.556279e-01 1.566326e-01 7.441559e-01 9.217009e-02 4.153436e-01 -2.302374e-01 -1.771886e-02 1.358422e-02
<VARIANCE> 39
 1.605674e+01 4.218836e+00 6.554379e+00 6.792898e+00 1.711019e+01 1.502732e+01 2.302058e+01 1.927715e+01 1.686811e+01 1.776272e+01 1.268590e+01 1.156645e+01 5.000000e-02 9.725676e-01 1.665416e-01 1.314512e+00 5.954499e-01 2.259495e+00 2.724720e+00 1.317575e+00 3.832173e+00 2.669624e+00 1.527352e+00 4.013916e-01 7.418128e-01 5.000000e-02 1.399359e-01 9.019966e-02 1.199758e-01 3.049422e-01 3.494979e-01 6.999476e-01 2.964000e-01 3.791615e-01 5.687584e-01 1.331998e-01 2.240192e-01 3.277959e-01 5.000000e-02
<GCONST> 7.813728e+01
<STATE> 8
<MEAN> 39
 3.151664e+00 -2.165853e+01 -4.220576e+00 -1.165103e+01 -4.418481e+00 -1.268550e+01 5.005370e-02 -8.324391e+00 2.776636e+00 -1.653550e+00 -9.479643e+00 -6.650553e+00 6.156324e-01 -3.153825e-01 8.893774e-02 1.087498e-01 -3.880999e-01 2.050983e-01 -1.624674e-01 4.581743e-02 6.658593e-01 3.476517e-01 5.393954e-02 -4.249890e-01 1.739916e-01 -1.166216e-02 -1.240563e-01 5.021755e-02 -2.495509e-01 1.936911e-01 -4.210585e-02 8.027475e-02 9.605361e-02 -1.567243e-01 2.179786e-01 -2.015502e-01 3.225238e-01 1.027293e-01 -5.439055e-03
<VARIANCE> 39
 6.816001e+00 5.776769e+00 3.023373e+00 8.161465e+00 6.584850e+00 1.713018e+01 1.321258e+01 1.841479e+01 2.697892e+01 2.741051e+01 6.838865e+00 1.506788e+01 5.000000e-02 2.867580e-01 1.949830e-01 3.395594e-01 5.403863e-01 9.811651e-01 1.294603e+00 1.097711e+00 1.693233e+00 2.167320e+00 1.771884e+00 7.177749e-01 1.418184e+00 5.000000e-02 1.206267e-01 5.000000e-02 1.165729e-01 2.646855e-01 2.333435e-01 3.560956e-01 1.388452e-01 4.935679e-01 4.680075e-01 2.891773e-01 1.289491e-01 2.703816e-01 5.000000e-02
<GCONST> 6.955910e+01
<STATE> 9
<MEAN> 39
 2.062722e+00 -2.200784e+01 -5.180949e+00 -8.177646e+00 -5.754937e+00 -8.581672e+00 9.507846e-01 -7.866442e+00 5.995454e+00 -3.282485e+00 -7.211818e+00 -3.108546e+00 4.686790e-01 2.555293e-01 3.698064e-02 -9.854131e-01 2.203220e+00 4.259301e-01 1.245655e+00 -2.870574e-02 6.307129e-01 -8.086934e-01 -1.612546e-01 1.593964e+00 7.311038e-01 -4.833231e-02 -1.624871e-02 -4.413953e-02 -3.197727e-01 1.416211e-01 3.203399e-01 -1.555238e-01 1.825747e-01 2.855160e-01 -4.299799e-01 -5.158219e-02 1.280004e-01 3.154292e-02 -2.075503e-04
<VARIANCE> 39
 3.823511e+00 7.998143e+00 7.569810e+00 1.540294e+01 5.188875e+00 2.005007e+01 1.284692e+01 2.236383e+01 7.597665e+00 1.109963e+01 1.714679e+01 6.575950e+00 5.000000e-02 5.968357e-02 3.620914e-01 1.125949e+00 1.340697e+00 9.042065e-01 2.266418e+00 5.906305e-01 3.324173e+00 1.348198e+00 1.532582e+00 1.889201e+00 1.032106e+00 5.000000e-02 5.000000e-02 6.405663e-02 1.128815e-01 5.248884e-01 8.754592e-02 3.727319e-01 1.043579e-01 4.427020e-01 2.838981e-01 4.847142e-01 4.779196e-01 8.159417e-02 5.000000e-02
<GCONST> 6.940266e+01
<STATE> 10
<MEAN> 39
 1.299601e+00 -2.211925e+01 -1.068232e+01 -2.840778e+00 -2.296250e+00 -7.838574e+00 1.708016e+00 -4.314867e+00 2.138858e+00 -4.723894e+00 -2.902547e+00 -2.342315e-01 3.237258e-01 -6.231981e-01 -5.555202e-02 -4.816713e-01 8.971242e-01 7.654800e-01 3.444304e-01 2.315777e-01 4.256689e-01 -5.503721e-01 -6.142023e-01 5.929364e-02 5.108079e-01 -2.928028e-02 -1.020213e-01 1.939131e-01 4.901774e-01 -9.271864e-02 1.493748e-01 4.512509e-02 4.770926e-03 -1.289347e-01 1.196494e-01 3.596256e-03 -2.981725e-01 -2.553575e-01 2.017838e-03
<VARIANCE> 39
 4.132218e+00 9.935266e+00 6.061778e+00 4.349585e+00 7.361089e+00 6.855859e+00 9.173428e+00 9.432074e+00 7.580771e+00 1.098357e+01 1.108127e+01 1.073905e+01 5.000000e-02 3.805442e-01 5.331965e-01 1.405597e+00 7.167953e-01 7.049009e-01 1.502679e+00 6.774798e-01 3.886148e-01 9.299638e-01 1.320056e+00 1.968873e+00 8.779593e-01 5.000000e-02 6.627905e-02 1.739592e-01 1.087599e-01 1.499104e-01 1.364587e-01 3.197504e-01 1.150245e-01 1.486739e-01 1.278781e-01 2.960018e-01 3.910977e-01 1.021930e-01 5.000000e-02
<GCONST> 6.287427e+01
<STATE> 11
<MEAN> 39
 -1.442259e+00 -1.932297e+01 -7.968755e+00 9.990892e-01 2.332904e+00 -5.362471e+00 3.923412e+00 -2.001330e+00 2.259409e+00 -5.762592e+00 -4.163141e+00 -1.942111e+00 1.942162e-01 -3.980004e-01 3.709455e-01 4.542257e-02 2.682263e-01 7.015286e-01 3.218410e-01 7.610057e-02 3.642522e-01 8.040497e-02 3.021282e-01 1.341072e-01 -4.416574e-01 -1.894513e-02 -2.446249e-02 -1.405402e-01 -1.521193e-01 -1.574717e-01 -1.237394e-01 -7.862966e-02 -8.891573e-02 -3.087967e-02 -6.207906e-02 1.453272e-02 8.497829e-02 1.184896e-01 9.584076e-04
<VARIANCE> 39
 3.761566e+00 1.615771e+01 6.220182e+00 5.077540e+00 4.963061e+00 8.624937e+00 1.709016e+01 1.362133e+01 1.150645e+01 1.153946e+01 1.184635e+01 8.609303e+00 5.000000e-02 5.115752e-01 2.035619e+00 1.201521e+00 3.044752e-01 5.301279e-01 8.754865e-01 2.557618e+00 1.876363e+00 1.346826e+00 1.506830e+00 1.136585e+00 7.013463e-01 5.000000e-02 1.216327e-01 3.224660e-01 1.866746e-01 5.925327e-02 6.793158e-02 2.018333e-01 4.646465e-01 2.613401e-01 3.104948e-01 4.186980e-01 2.513683e-01 2.041252e-01 5.000000e-02
<GCONST> 7.013616e+01
<STATE> 12
<MEAN> 39
 -3.531984e+00 -2.121313e+01 -1.028529e+01 2.034835e+00 5.067585e+00 -4.152328e+00 2.797487e+00 -1.202181e+00 -3.124022e-01 -5.948560e+00 -2.790782e+00 -1.160689e+00 1.330328e-01 -6.453905e-01 1.112018e+00 7.437715e-01 -3.119817e-01 1.156172e-02 3.170337e-01 7.116113e-01 6.692706e-01 1.979103e-01 1.697973e-01 8.193143e-01 6.430379e-01 -3.661250e-02 8.928330e-03 7.941720e-01 5.274227e-01 -4.219088e-01 -2.949594e-01 1.105566e-01 2.138666e-01 1.687254e-01 5.893755e-01 4.452896e-01 2.383064e-01 -1.003407e-02 -8.710004e-03
<VARIANCE> 39
 1.178458e+00 1.341098e+01 4.645539e+00 6.631536e+00 6.492217e+00 1.612048e+01 1.936370e+01 1.210349e+01 1.390368e+01 9.057827e+00 1.036062e+01 7.878934e+00 5.000000e-02 2.066942e-01 2.353962e+00 1.044351e+00 9.735335e-01 3.485018e-01 1.902113e+00 1.350098e+00 8.254512e-01 2.116595e+00 1.618279e+00 3.819720e-01 9.355551e-01 5.000000e-02 5.000000e-02 2.319602e-01 8.114664e-02 7.741497e-02 5.945278e-02 3.492579e-01 4.038007e-01 3.760346e-01 2.905433e-01 3.657530e-01 1.746765e-01 1.306179e-01 5.000000e-02
<GCONST> 6.611060e+01
<STATE> 13
<MEAN> 39
 -5.301354e+00 -1.287106e+01 -4.696771e+00 -1.622352e+00 3.670097e+00 -2.708935e+00 4.940410e+00 1.103584e+00 4.845649e+00 -1.337309e+00 4.679053e-01 -6.286354e-01 -1.102088e-02 -2.454339e-01 1.393740e+00 8.781215e-01 -7.927319e-01 -4.204600e-01 9.719568e-02 -3.639100e-01 -3.236211e-02 1.886603e-01 5.927288e-01 3.899189e-01 -4.940000e-01 -2.307556e-02 1.728490e-01 -4.523828e-01 -3.062861e-01 1.971576e-01 -2.196650e-04 -1.583154e-01 -3.827421e-01 -3.609489e-01 -5.746256e-01 -4.233456e-01 -2.067642e-01 -1.584436e-01 8.226464e-03
<VARIANCE> 39
 1.692331e+00 4.534356e+00 6.268116e+00 3.934463e+00 3.351160e+00 1.086913e+01 1.156741e+01 8.722239e+00 1.578881e+01 1.318226e+01 1.278655e+01 1.765723e+01 5.000000e-02 2.949083e-01 1.227855e+00 8.030150e-01 6.106365e-01 3.110586e-01 1.915181e+00 2.158843e+00 1.815130e+00 3.206478e+00 3.182841e+00 1.336265e+00 1.933625e+00 5.000000e-02 5.000000e-02 1.543224e-01 1.502198e-01 1.027578e-01 5.000000e-02 3.741102e-01 3.928370e-01 3.079349e-01 4.099009e-01 5.477411e-01 1.715307e-01 3.935071e-01 5.000000e-02
<GCONST> 6.997549e+01
<TRANSP> 14
 0.000000e+00 1.000000e+00 0.000000e+00 0.000000e+00 0.000000e+00 0.000000e+00 0.000000e+00 0.000000e+00 0.000000e+00 0.000000e+00 0.000000e+00 0.000000e+00 0.000000e+00 0.000000e+00
 0.000000e+00 7.499610e-01 2.500390e-01 0.000000e+00 0.000000e+00 0.000000e+00 0.000000e+00 0.000000e+00 0.000000e+00 0.000000e+00 0.000000e+00 0.000000e+00 0.000000e+00 0.000000e+00
 0.000000e+00 0.000000e+00 7.504920e-01 2.495081e-01 0.000000e+00 0.000000e+00 0.000000e+00 0.000000e+00 0.000000e+00 0.000000e+00 0.000000e+00 0.000000e+00 0.000000e+00 0.000000e+00
 0.000000e+00 0.000000e+00 0.000000e+00 6.867222e-01 3.132778e-01 0.000000e+00 0.000000e+00 0.000000e+00 0.000000e+00 0.000000e+00 0.000000e+00 0.000000e+00 0.000000e+00 0.000000e+00
 0.000000e+00 0.000000e+00 0.000000e+00 0.000000e+00 8.000001e-01 1.999999e-01 0.000000e+00 0.000000e+00 0.000000e+00 0.000000e+00 0.000000e+00 0.000000e+00 0.000000e+00 0.000000e+00
 0.000000e+00 0.000000e+00 0.000000e+00 0.000000e+00 0.000000e+00 7.221420e-01 2.778580e-01 0.000000e+00 0.000000e+00 0.000000e+00 0.000000e+00 0.000000e+00 0.000000e+00 0.000000e+00
 0.000000e+00 0.000000e+00 0.000000e+00 0.000000e+00 0.000000e+00 0.000000e+00 7.368584e-01 2.631416e-01 0.000000e+00 0.000000e+00 0.000000e+00 0.000000e+00 0.000000e+00 0.000000e+00
 0.000000e+00 0.000000e+00 0.000000e+00 0.000000e+00 0.000000e+00 0.000000e+00 0.000000e+00 8.147739e-01 1.852262e-01 0.000000e+00 0.000000e+00 0.000000e+00 0.000000e+00 0.000000e+00
 0.000000e+00 0.000000e+00 0.000000e+00 0.000000e+00 0.000000e+00 0.000000e+00 0.000000e+00 0.000000e+00 6.677994e-01 3.322006e-01 0.000000e+00 0.000000e+00 0.000000e+00 0.000000e+00
 0.000000e+00 0.000000e+00 0.000000e+00 0.000000e+00 0.000000e+00 0.000000e+00 0.000000e+00 0.000000e+00 0.000000e+00 7.908157e-01 2.091843e-01 0.000000e+00 0.000000e+00 0.000000e+00
 0.000000e+00 0.000000e+00 0.000000e+00 0.000000e+00 0.000000e+00 0.000000e+00 0.000000e+00 0.000000e+00 0.000000e+00 0.000000e+00 8.336493e-01 1.663507e-01 0.000000e+00 0.000000e+00
 0.000000e+00 0.000000e+00 0.000000e+00 0.000000e+00 0.000000e+00 0.000000e+00 0.000000e+00 0.000000e+00 0.000000e+00 0.000000e+00 0.000000e+00 6.154250e-01 3.845750e-01 0.000000e+00
 0.000000e+00 0.000000e+00 0.000000e+00 0.000000e+00 0.000000e+00 0.000000e+00 0.000000e+00 0.000000e+00 0.000000e+00 0.000000e+00 0.000000e+00 0.000000e+00 7.176981e-01 2.823019e-01
 0.000000e+00 0.000000e+00 0.000000e+00 0.000000e+00 0.000000e+00 0.000000e+00 0.000000e+00 0.000000e+00 0.000000e+00 0.000000e+00 0.000000e+00 0.000000e+00 0.000000e+00 0.000000e+00
<ENDHMM>
