~o
<STREAMINFO> 1 39
<VECSIZE> 39<NULLD><MFCC_E_D_A><DIAGC>
~h "D~ung"
<BEGINHMM>
<NUMSTATES> 9
<STATE> 2
<MEAN> 39
 -4.635009e+00 -7.200678e+00 -2.887501e+00 -3.782012e+00 -2.142860e-01 -5.511662e+00 9.043478e-01 -8.893464e-01 1.284892e-01 -4.579960e+00 1.045565e+00 -1.290004e+00 9.016728e-02 1.649211e+00 1.211067e-01 -1.013731e+00 -1.269124e+00 -1.618421e+00 -1.836062e+00 -1.911602e-01 1.278362e-01 -4.752817e-01 -1.078184e+00 -1.462513e+00 -4.938444e-01 7.522801e-02 2.821434e-01 -1.128412e-01 -3.540456e-02 -2.033868e-01 -1.155183e-01 -3.784813e-01 -2.032918e-01 -1.454671e-01 -1.908474e-01 -2.770863e-01 -3.760396e-01 -2.828380e-01 2.412368e-02
<VARIANCE> 39
 2.744629e+01 9.183732e+00 8.958346e+00 1.660531e+01 1.571741e+01 1.431540e+01 7.730992e+00 6.875812e+00 1.206220e+01 1.234061e+01 1.292640e+01 6.296421e+00 5.000000e-02 3.555724e+00 1.127656e+00 1.538172e+00 9.463705e-01 1.908427e+00 3.020113e+00 1.530534e+00 1.169524e+00 2.370321e+00 2.004088e+00 2.225931e+00 1.333363e+00 5.000000e-02 7.861277e-01 2.879919e-01 4.091387e-01 1.749061e-01 5.022271e-01 4.000376e-01 3.147215e-01 1.953557e-01 3.966631e-01 2.561375e-01 2.489523e-01 1.983198e-01 5.000000e-02
<GCONST> 8.494595e+01
<STATE> 3
<MEAN> 39
 1.746932e+00 -1.485337e+01 -8.990450e+00 -1.188660e+01 -7.548026e+00 -1.311109e+01 -5.627769e+00 2.239339e+00 1.147308e+00 -6.184746e+00 -9.166295e+00 -7.063593e+00 8.124867e-01 -5.979548e-01 -1.270683e+00 -1.297388e+00 -1.096974e+00 7.870510e-01 1.023966e+00 -3.961743e-01 1.997318e-01 1.125973e+00 2.233738e+00 -5.371463e-01 -8.579827e-01 6.440822e-02 -1.989310e-01 1.469097e-01 -4.317677e-02 -6.104511e-02 4.508727e-01 6.335639e-01 1.882068e-01 -2.484933e-01 2.376217e-02 5.408273e-01 3.968162e-01 1.960718e-01 -1.653408e-02
<VARIANCE> 39
 3.380242e+01 5.255138e+01 5.113911e+01 2.156355e+01 4.150832e+01 4.620817e+01 6.040724e+01 4.046650e+01 4.084555e+01 7.916996e+01 2.436245e+01 3.172450e+01 5.000000e-02 2.428812e+00 6.023489e+00 6.517173e+00 2.034002e+00 7.561074e+00 5.428993e+00 7.478352e+00 8.277667e+00 2.798121e+00 9.960584e+00 4.881064e+00 4.677753e+00 5.000000e-02 7.400264e-01 1.352727e+00 1.550835e+00 4.454268e-01 1.205924e+00 1.023193e+00 1.429719e+00 1.858635e+00 1.058803e+00 1.723298e+00 9.606702e-01 1.122333e+00 5.000000e-02
<GCONST> 1.283290e+02
<STATE> 4
<MEAN> 39
 -2.059049e-01 -1.618980e+01 -1.811677e+01 -2.296498e+01 -6.381369e-02 3.661079e+00 -7.535554e+00 1.835335e+00 -1.989981e-01 7.363935e+00 -7.490919e+00 -2.723355e+00 9.639819e-01 6.136523e-01 1.372258e-01 2.057468e-01 -8.736018e-01 -8.876638e-01 2.094447e+00 -4.297077e-01 1.249070e+00 -1.398017e+00 -1.741407e+00 8.683363e-01 1.532516e+00 -1.399647e-02 1.874558e-01 -2.592991e-01 4.024658e-01 4.183531e-01 -7.651643e-01 -6.665828e-01 -1.175183e-02 4.058549e-01 3.159401e-01 -7.038589e-01 -1.172454e-01 1.044897e-02 -6.499632e-03
<VARIANCE> 39
 3.234378e+00 3.745430e+00 5.321075e+00 1.640011e+01 1.619923e+01 3.970758e+01 2.932111e+01 4.543707e+01 3.767885e+01 5.005102e+01 2.846758e+01 7.537281e+01 5.000000e-02 2.158548e-01 5.790071e-01 1.465263e+00 1.103131e+00 2.889798e+00 2.907637e+00 2.520455e+00 7.931565e+00 6.483748e+00 5.352089e+00 1.762292e+00 3.035125e+00 5.000000e-02 5.000000e-02 5.277966e-02 1.160737e-01 1.525933e-01 5.071201e-01 7.451932e-01 8.073901e-01 2.402128e+00 1.365511e+00 1.297090e+00 6.185588e-01 9.378626e-01 5.000000e-02
<GCONST> 9.702145e+01
<STATE> 5
<MEAN> 39
 6.412501e+00 -1.802407e+01 -1.166438e+01 -1.881959e+01 -9.070208e+00 -2.248257e+00 -7.494503e+00 -1.656291e+00 -3.128961e+00 -7.788923e+00 -5.186635e+00 -2.938523e+00 7.875438e-01 2.945259e-01 -7.274202e-02 8.476845e-01 2.138413e-01 3.078574e-02 -1.540221e+00 -5.687038e-01 -1.994938e+00 -4.565244e-01 -8.646636e-01 3.610677e-02 -4.755400e-01 -2.351056e-02 -2.403130e-01 7.821729e-02 -1.331344e-02 -1.378119e-01 4.542613e-01 1.090854e-01 -8.967678e-02 1.109694e-02 -9.672408e-02 3.515897e-01 9.559452e-02 -1.990618e-01 -2.640685e-04
<VARIANCE> 39
 5.985102e+00 4.745224e+00 8.778050e+00 2.332708e+01 2.886354e+01 3.256714e+01 3.722714e+01 8.272554e+01 3.363142e+01 2.130669e+01 9.171465e+00 9.979998e+00 5.000000e-02 1.162556e+00 5.980773e-01 1.271583e+00 3.029300e+00 5.276061e+00 2.836196e+00 1.978937e+00 5.261119e+00 3.183622e+00 3.670283e+00 1.275477e+00 1.423851e+00 5.000000e-02 8.920816e-02 1.259525e-01 2.786132e-01 5.306627e-01 9.255022e-01 5.494171e-01 4.862031e-01 1.747404e+00 9.388772e-01 5.661560e-01 2.136806e-01 2.352527e-01 5.000000e-02
<GCONST> 9.555473e+01
<STATE> 6
<MEAN> 39
 2.951185e+00 -1.777442e+01 -5.424911e+00 -2.225976e+01 -1.673890e+00 -5.171440e+00 -1.393440e+01 -3.516306e+00 -2.718293e+00 -8.208360e+00 -2.238996e+00 -7.008225e+00 6.081255e-01 -5.190743e-01 4.683128e-01 2.427101e-01 7.944695e-01 9.333788e-01 -1.246072e-01 7.563082e-01 1.028700e+00 9.907029e-01 9.862701e-01 5.703028e-01 -1.845171e-01 -4.209308e-02 2.553747e-01 2.917826e-01 -6.351988e-01 8.030091e-01 -1.304113e-01 9.588967e-02 4.966981e-01 2.335638e-02 2.366964e-01 -5.588543e-02 -4.204973e-02 4.606056e-01 -6.400071e-03
<VARIANCE> 39
 6.218042e+00 4.700306e+00 9.583448e+00 2.746359e+01 1.269384e+01 1.741751e+01 4.542580e+01 2.788402e+01 2.108198e+01 3.681800e+01 7.489236e+00 1.769561e+01 5.000000e-02 9.013941e-01 1.184926e+00 2.858715e+00 6.839685e+00 1.809829e+00 1.591433e+00 2.726143e+00 1.930432e+00 2.040645e+00 2.250719e+00 4.853890e-01 1.580037e+00 5.000000e-02 2.135700e-01 2.287486e-01 5.035571e-01 1.495057e+00 3.176143e-01 4.216650e-01 5.134860e-01 5.510399e-01 2.877012e-01 7.227412e-01 8.999860e-02 2.312811e-01 5.000000e-02
<GCONST> 9.072016e+01
<STATE> 7
<MEAN> 39
 1.861956e+00 -1.267056e+01 -1.139395e+01 -9.737943e+00 -1.104636e+00 -6.104652e+00 -1.766914e+00 -2.106259e+00 2.199571e+00 -2.592206e+00 1.467858e-01 -3.369751e+00 3.055158e-01 -4.850339e-01 7.262544e-01 -5.801208e-02 1.294084e+00 -7.203626e-02 4.106257e-02 1.043109e+00 1.150654e-01 4.920658e-01 3.718039e-01 3.464229e-01 4.874186e-01 -4.295436e-02 -1.955867e-01 -1.600934e-01 5.092073e-01 -4.173865e-01 -2.923122e-03 2.503374e-02 -3.809745e-01 -1.056461e-01 -2.906782e-01 -1.042305e-01 -1.859651e-02 -1.302247e-01 4.141314e-03
<VARIANCE> 39
 6.585106e+00 6.735582e+00 9.589085e+00 1.073240e+01 6.790673e+00 1.269658e+01 2.021112e+01 1.614436e+01 1.092416e+01 1.277443e+01 1.941274e+01 9.251535e+00 5.000000e-02 7.643104e-01 1.174445e+00 3.442987e+00 5.470750e+00 1.226770e+00 1.827075e+00 3.292426e+00 1.434114e+00 7.463301e-01 1.805044e+00 1.447686e+00 1.365897e+00 5.000000e-02 1.134122e-01 2.297621e-01 2.600445e-01 9.654268e-01 2.981597e-01 3.318989e-01 3.038560e-01 3.025676e-01 1.101990e-01 2.531216e-01 3.387477e-01 2.616216e-01 5.000000e-02
<GCONST> 8.192482e+01
<STATE> 8
<MEAN> 39
 -4.041756e+00 -1.022012e+01 -4.843337e+00 -5.475360e+00 4.930061e-01 -5.017026e+00 -3.778362e-01 -1.824566e+00 1.749517e+00 -1.059790e+00 2.545789e+00 -2.519211e+00 4.774742e-02 -5.287464e-01 6.194648e-02 4.384937e-01 5.377936e-01 3.206392e-01 2.273021e-01 5.476046e-02 -1.083958e-01 -3.994075e-02 9.506787e-02 1.607252e-01 -3.726274e-02 -2.026249e-02 7.505680e-02 -1.824220e-02 -1.385618e-01 -1.058248e-01 -6.113507e-02 1.814933e-02 4.892667e-02 6.365587e-03 -2.945516e-02 -6.941409e-02 -6.038254e-02 3.549824e-02 2.816848e-03
<VARIANCE> 39
 3.485903e+00 3.926446e+00 1.173480e+01 7.829019e+00 1.087398e+01 1.096541e+01 5.688904e+00 8.547977e+00 9.030734e+00 1.418937e+01 9.420206e+00 1.145529e+01 5.000000e-02 4.027951e-01 5.059727e-01 1.536802e+00 1.277672e+00 1.089104e+00 1.055247e+00 5.279549e-01 7.767038e-01 1.143884e+00 1.694110e+00 1.277877e+00 1.568724e+00 5.000000e-02 7.848842e-02 1.286664e-01 3.141883e-01 2.643609e-01 2.115230e-01 2.477447e-01 1.140379e-01 8.598351e-02 1.941496e-01 3.212082e-01 2.641752e-01 3.590393e-01 5.000000e-02
<GCONST> 6.792812e+01
<TRANSP> 9
 0.000000e+00 1.000000e+00 0.000000e+00 0.000000e+00 0.000000e+00 0.000000e+00 0.000000e+00 0.000000e+00 0.000000e+00
 0.000000e+00 8.275980e-01 1.724021e-01 0.000000e+00 0.000000e+00 0.000000e+00 0.000000e+00 0.000000e+00 0.000000e+00
 0.000000e+00 0.000000e+00 8.780128e-01 1.219872e-01 0.000000e+00 0.000000e+00 0.000000e+00 0.000000e+00 0.000000e+00
 0.000000e+00 0.000000e+00 0.000000e+00 8.437798e-01 1.562203e-01 0.000000e+00 0.000000e+00 0.000000e+00 0.000000e+00
 0.000000e+00 0.000000e+00 0.000000e+00 0.000000e+00 8.834232e-01 1.165768e-01 0.000000e+00 0.000000e+00 0.000000e+00
 0.000000e+00 0.000000e+00 0.000000e+00 0.000000e+00 0.000000e+00 8.085556e-01 1.914444e-01 0.000000e+00 0.000000e+00
 0.000000e+00 0.000000e+00 0.000000e+00 0.000000e+00 0.000000e+00 0.000000e+00 8.490960e-01 1.509040e-01 0.000000e+00
 0.000000e+00 0.000000e+00 0.000000e+00 0.000000e+00 0.000000e+00 0.000000e+00 0.000000e+00 8.900614e-01 1.099385e-01
 0.000000e+00 0.000000e+00 0.000000e+00 0.000000e+00 0.000000e+00 0.000000e+00 0.000000e+00 0.000000e+00 0.000000e+00
<ENDHMM>
