~o
<STREAMINFO> 1 39
<VECSIZE> 39<NULLD><MFCC_E_D_A><DIAGC>
~h "Lu*u"
<BEGINHMM>
<NUMSTATES> 19
<STATE> 2
<MEAN> 39
 -6.645488e+00 -9.265504e+00 -1.558090e+00 -1.297595e+00 9.859561e-01 -3.744117e+00 1.526781e+00 -2.066474e+00 1.370990e+00 -2.780488e+00 2.280989e+00 -4.788683e+00 -3.785776e-02 1.356647e+00 -8.487606e-03 -2.135802e+00 -1.485202e+00 -1.727798e+00 -1.918418e+00 -5.735813e-01 -2.592916e-01 1.314449e+00 -3.858143e-01 -7.957194e-01 -4.535206e-01 7.233439e-02 7.959800e-01 1.357500e-01 -9.531494e-01 -3.925536e-01 -4.889980e-01 -8.113176e-01 -3.014327e-01 1.205781e-01 7.680972e-01 -8.155543e-02 -4.013938e-01 9.987453e-02 4.380628e-02
<VARIANCE> 39
 3.937777e+00 3.611399e+00 1.021341e+01 7.719171e+00 8.476823e+00 8.680899e+00 4.197199e+00 1.353383e+01 9.674245e+00 1.107090e+01 8.491035e+00 6.578558e+00 5.000000e-02 2.112050e+00 5.306755e-01 3.873201e+00 1.404446e+00 1.008306e+00 3.951301e+00 1.046990e+00 2.542599e+00 2.589815e+00 1.440665e+00 1.459922e+00 6.710312e-01 5.000000e-02 1.752463e-01 7.491058e-02 1.933852e-01 3.124120e-01 1.466786e-01 2.037180e-01 2.132538e-01 6.414731e-01 5.081935e-01 2.811550e-01 3.562105e-01 1.110046e-01 5.000000e-02
<GCONST> 7.439666e+01
<STATE> 3
<MEAN> 39
 3.940443e+00 -8.334658e+00 -1.406165e+01 -6.960776e+00 -6.921917e+00 -1.583645e+01 -2.559971e+00 -3.319007e+00 1.086599e+01 -4.832788e+00 -2.448409e+00 -4.291853e+00 5.498341e-01 1.227865e+00 1.561685e-02 -1.912160e+00 -1.929220e-01 -1.306815e+00 -2.171947e+00 -9.945666e-01 -5.174792e-01 2.427749e+00 3.888975e-01 -9.223995e-01 8.149015e-01 1.352500e-01 -1.187122e+00 -1.842213e-01 7.226031e-01 2.257575e-01 4.176933e-01 6.074591e-01 1.341330e-01 2.362999e-01 -3.185539e-01 4.485518e-01 2.259763e-01 3.059238e-01 -2.083739e-02
<VARIANCE> 39
 1.225104e+01 5.924010e+00 2.547128e+01 1.008814e+01 1.604316e+01 4.748472e+01 1.925380e+01 4.504744e+01 5.071003e+01 1.754939e+01 1.523092e+01 1.310339e+01 5.000000e-02 5.142042e+00 4.748710e-01 3.159810e+00 8.224841e-01 1.911345e+00 3.316183e+00 1.787337e+00 5.590568e+00 4.301195e+00 4.121550e+00 3.614310e+00 6.531140e-01 5.000000e-02 3.960525e-01 8.371212e-02 4.695440e-01 4.166789e-01 3.901744e-01 5.540942e-01 2.550937e-01 1.565174e+00 1.193358e+00 5.010250e-01 5.231326e-01 1.098190e-01 5.000000e-02
<GCONST> 9.688336e+01
<STATE> 4
<MEAN> 39
 -7.903496e-01 -8.784659e+00 -1.561814e+01 -7.622286e+00 -9.000866e+00 -1.796232e+01 -6.319244e+00 -3.132432e+00 1.672945e+01 -6.909839e-02 -4.888817e+00 1.834094e-01 8.017250e-01 -2.704449e+00 -8.413833e-01 -5.290319e-01 -1.662845e+00 -4.556110e-01 -6.906868e-01 -5.800802e-01 1.610784e+00 3.350413e-01 8.225670e-01 -1.228754e-01 1.103285e+00 6.484693e-02 -1.126399e-01 -3.608474e-01 2.047635e-01 -3.917915e-01 5.118456e-01 4.375577e-01 2.270208e-01 6.639914e-01 -9.668350e-01 -5.634873e-01 6.359521e-02 -3.847545e-01 -1.507183e-02
<VARIANCE> 39
 2.831717e+01 9.902089e+00 3.157105e+00 1.222015e+01 2.072304e+01 2.084383e+01 2.752113e+01 2.785845e+01 3.898030e+01 3.923656e+01 2.933086e+01 1.169554e+01 5.000000e-02 2.585410e-01 9.016181e-01 2.562712e+00 2.991093e+00 3.051633e+00 1.316247e+00 1.211189e+00 6.612672e+00 7.207531e+00 1.621409e+00 1.347643e+00 1.281879e+00 5.000000e-02 4.770070e-01 8.502391e-02 2.449879e-01 2.515300e-01 6.315311e-01 1.438810e-01 3.380651e-01 6.097247e-01 6.072956e-01 7.573351e-01 3.885232e-01 1.218517e-01 5.000000e-02
<GCONST> 9.111999e+01
<STATE> 5
<MEAN> 39
 -5.881943e+00 -1.315933e+01 -1.711038e+01 -1.202509e+01 -7.063529e+00 -1.776196e+01 -4.185597e+00 4.416397e+00 1.208745e+01 -1.697565e+00 -4.090423e+00 -3.256892e-01 9.070938e-01 -7.560455e-01 -1.306211e+00 5.248467e-01 -1.754521e+00 1.733791e+00 1.248488e+00 -5.042621e-01 1.081687e+00 -1.243068e+00 -1.407957e-01 -9.312894e-01 -7.531132e-01 1.488623e-02 6.472510e-01 1.298839e-01 2.055963e-01 -1.866193e-01 3.176162e-01 3.451911e-01 -2.506993e-01 -7.722721e-01 2.146247e-01 3.986045e-01 -2.187993e-01 -4.500342e-01 -1.048774e-02
<VARIANCE> 39
 6.123093e+00 6.878181e+00 1.954820e+01 1.742330e+01 9.201848e+00 1.057384e+01 1.359192e+01 2.573682e+01 1.494522e+01 6.712435e+00 2.173251e+01 1.275959e+01 5.000000e-02 1.076039e+00 4.933932e-01 9.987559e-01 1.720587e+00 9.079169e-01 1.444490e+00 1.994401e+00 2.698182e+00 2.388493e+00 3.606975e+00 1.165971e+00 1.414428e+00 5.000000e-02 1.010488e-01 1.079381e-01 3.138202e-01 4.684896e-01 2.936566e-01 2.447941e-01 2.053995e-01 3.848737e-01 7.193768e-01 6.888644e-01 1.936228e-01 3.450285e-01 5.000000e-02
<GCONST> 8.243200e+01
<STATE> 6
<MEAN> 39
 -5.869640e+00 -1.597222e+01 -1.421128e+01 -2.024057e+01 -7.214833e-01 -1.216652e+01 -9.253384e+00 2.261967e+00 1.194652e+01 2.152310e+00 -9.145031e+00 -4.110516e+00 9.445823e-01 4.070402e-01 4.862313e-02 -7.332092e-02 -1.393906e+00 6.699382e-01 1.313252e+00 -7.499252e-01 -1.499961e-01 -3.104123e-01 1.691864e+00 1.483517e-01 -4.939450e-01 8.349099e-03 1.253391e-01 2.882390e-01 -1.045606e-01 2.669213e-01 -3.817017e-01 3.310072e-02 1.290194e-01 4.945642e-02 6.240672e-02 1.587573e-01 4.329834e-01 3.452013e-01 2.054343e-04
<VARIANCE> 39
 5.901284e+00 1.050666e+01 1.525659e+01 1.506301e+01 9.001459e+00 7.686740e+00 8.970091e+00 1.188292e+01 1.489362e+01 2.821786e+01 7.314232e+00 8.477626e+00 5.000000e-02 1.708972e-01 3.305866e-01 3.739180e-01 6.638001e-01 1.014944e+00 4.075270e-01 6.032642e-01 5.179037e-01 8.473648e-01 1.268716e+00 1.128840e+00 8.600229e-01 5.000000e-02 5.000000e-02 5.000000e-02 1.045627e-01 1.389939e-01 1.417461e-01 1.193193e-01 1.595110e-01 8.802228e-02 1.951585e-01 2.367608e-01 1.035102e-01 2.060151e-01 5.000000e-02
<GCONST> 5.956720e+01
<STATE> 7
<MEAN> 39
 -3.307473e+00 -1.286674e+01 -1.531007e+01 -2.336573e+01 -1.638048e+00 -5.404677e+00 -1.189662e+01 3.803500e+00 1.046232e+01 9.986845e+00 -5.295989e+00 -2.046326e+00 9.755732e-01 6.501853e-01 6.690841e-01 -4.406242e-02 -2.980914e-01 -2.397176e-01 8.208480e-01 -3.122231e-01 -1.139002e-01 1.777558e-01 1.707683e+00 6.278322e-01 7.066032e-01 8.105136e-03 -1.372168e-01 1.748536e-02 -2.710813e-02 4.198644e-02 1.898980e-01 -4.906486e-01 1.270905e-03 -2.753361e-01 1.762697e-01 -2.053672e-01 -2.110848e-01 -2.758880e-01 -1.321891e-03
<VARIANCE> 39
 4.140686e+00 1.405923e+01 1.072440e+01 7.568100e+00 6.102798e+00 8.034914e+00 8.820517e+00 1.247616e+01 9.341952e+00 1.341652e+01 1.846054e+01 1.114817e+01 5.000000e-02 8.624744e-02 5.000000e-02 1.640111e-01 7.956136e-01 4.078133e-01 1.248654e+00 1.104378e+00 1.138224e+00 1.596851e+00 5.752557e-01 7.876213e-01 2.113892e+00 5.000000e-02 5.000000e-02 5.000000e-02 5.000000e-02 1.062061e-01 8.145331e-02 6.346562e-02 5.931700e-02 1.034855e-01 2.892725e-01 1.617121e-01 6.264304e-02 2.377892e-01 5.000000e-02
<GCONST> 5.354124e+01
<STATE> 8
<MEAN> 39
 -1.980859e+00 -1.118164e+01 -1.580722e+01 -2.506189e+01 -1.460418e-01 -7.192725e+00 -1.136388e+01 9.328100e-01 1.122037e+01 1.385934e+01 -2.871182e+00 -3.362858e+00 9.935653e-01 2.744539e-01 4.776356e-01 2.546256e-02 -2.469223e-01 2.235350e-01 -3.242225e-01 -5.969030e-01 -4.069369e-01 3.437964e-01 2.899563e-01 5.007714e-01 -3.941353e-01 -2.631115e-04 1.280401e-01 -1.786434e-01 1.965324e-01 2.504194e-01 -2.719861e-01 -3.189043e-02 -1.177279e-01 3.151034e-01 -2.111184e-01 -1.628045e-01 -1.269431e-01 2.468936e-01 -2.989343e-03
<VARIANCE> 39
 2.909490e+00 1.382280e+01 5.824611e+00 5.485207e+00 1.384561e+01 1.499653e+01 1.755117e+01 1.547728e+01 2.402510e+01 1.434479e+01 4.278514e+01 3.860448e+01 5.000000e-02 2.228502e-01 3.826844e-01 3.365366e-01 4.686976e-01 7.491086e-01 6.184309e-01 1.150392e+00 1.416664e+00 2.443373e+00 1.879072e+00 6.588886e-01 1.126214e+00 5.000000e-02 5.000000e-02 5.000000e-02 5.000000e-02 6.696390e-02 1.642117e-01 1.104082e-01 2.357969e-01 2.480651e-01 5.325465e-01 4.381149e-01 1.416818e-01 4.586644e-01 5.000000e-02
<GCONST> 6.794811e+01
<STATE> 9
<MEAN> 39
 7.953273e-01 -1.105141e+01 -1.375464e+01 -2.374537e+01 -2.756803e+00 -7.159724e+00 -1.494800e+01 2.588089e+00 1.074101e+01 1.632277e+01 -2.275366e+00 -1.834553e+00 9.746091e-01 9.143484e-01 -5.134239e-02 9.427010e-01 1.867983e-01 -7.586480e-01 -6.323610e-01 2.239975e-01 4.001482e-01 -5.020409e-01 2.987911e-02 2.244620e-01 1.187893e+00 -9.969929e-03 5.810151e-02 -8.926731e-03 2.493407e-02 -1.094900e-02 -2.998791e-02 -2.697465e-01 5.427752e-01 3.873211e-02 -3.408334e-01 -5.781795e-01 3.462251e-01 1.941446e-01 -3.312891e-03
<VARIANCE> 39
 6.643235e+00 9.233858e+00 3.060825e+00 6.242144e+00 2.404881e+01 2.103610e+01 1.919598e+01 1.326162e+01 2.755459e+01 2.188778e+01 3.944973e+01 9.304565e+00 5.000000e-02 1.085715e-01 2.943692e-01 2.472958e-01 4.197413e-01 1.770109e+00 1.504755e+00 1.932952e+00 2.456578e+00 1.631056e+00 2.476316e+00 8.923153e-01 3.334762e-01 5.000000e-02 5.000000e-02 5.000000e-02 1.590222e-01 1.136540e-01 3.557262e-01 1.850854e-01 3.405774e-01 5.734221e-01 4.831398e-01 5.622677e-01 1.220272e-01 1.352434e-01 5.000000e-02
<GCONST> 7.107688e+01
<STATE> 10
<MEAN> 39
 2.426826e+00 -1.062935e+01 -1.131016e+01 -2.399064e+01 -4.102301e+00 -1.122489e+01 -1.167390e+01 3.001992e+00 7.968992e+00 1.183656e+01 4.027069e-01 2.572930e+00 9.246339e-01 1.019895e+00 -7.437219e-01 4.923734e-02 4.503275e-01 -6.921686e-01 -1.220232e+00 6.376885e-01 3.806764e-01 -1.930509e+00 -1.886699e+00 1.432894e+00 1.485647e+00 -2.390937e-02 1.924874e-01 -2.981401e-01 -5.109814e-01 5.214883e-01 3.537391e-02 1.815339e-01 -1.422917e-01 -3.050651e-01 -2.040163e-02 -2.470075e-01 -8.444845e-02 -2.275549e-01 -5.184856e-03
<VARIANCE> 39
 7.299292e+00 9.076557e+00 2.141788e+00 2.680864e+00 1.223830e+01 1.020981e+01 8.787760e+00 4.843904e+01 1.502282e+01 4.178818e+00 4.166072e+01 6.907123e+00 5.000000e-02 3.864201e-01 9.364852e-01 1.557995e+00 6.638020e-01 9.557371e-01 6.283370e-01 2.873745e+00 2.081853e+00 4.215656e-01 1.714733e+00 9.692083e-01 1.085405e+00 5.000000e-02 5.000000e-02 1.431795e-01 6.712096e-02 2.009243e-01 3.875840e-01 3.040026e-01 4.634434e-01 7.027896e-01 4.356218e-01 2.482990e-01 1.251767e-01 2.389645e-01 5.000000e-02
<GCONST> 7.109747e+01
<STATE> 11
<MEAN> 39
 6.718147e+00 -1.361049e+01 -1.297672e+01 -2.039552e+01 -4.382111e+00 -1.307670e+01 -1.114738e+01 2.410740e+00 2.837953e+00 7.477706e+00 2.956253e+00 4.891711e+00 8.459860e-01 1.477753e+00 -3.895940e-01 -9.939830e-01 2.049216e+00 -2.455564e-01 -4.436472e-01 9.118346e-01 -1.099687e+00 -1.153631e+00 -2.406722e+00 4.437475e-01 -6.553724e-01 -3.718961e-02 -2.265725e-01 3.138300e-01 5.843089e-02 3.380507e-01 -6.444178e-02 3.041748e-01 8.287561e-02 -4.290618e-01 4.837665e-01 -2.848949e-01 -4.604943e-01 -5.181425e-01 -5.730916e-03
<VARIANCE> 39
 8.825628e+00 8.183308e+00 1.394764e+01 1.321772e+01 1.325690e+01 7.826423e+00 1.228698e+01 4.100773e+01 1.928428e+01 7.572922e+00 4.065783e+01 1.251243e+01 5.000000e-02 3.815321e-01 7.093203e-01 1.183005e+00 1.208326e+00 1.809720e+00 1.227982e+00 1.651779e+00 2.209793e+00 3.330300e+00 1.219003e+00 1.649595e+00 2.794370e+00 5.000000e-02 1.342405e-01 1.377601e-01 4.878843e-01 1.888494e-01 1.455918e-01 1.509611e-01 2.636478e-01 3.619334e-01 4.371913e-01 1.725262e-01 1.841148e-01 4.410837e-01 5.000000e-02
<GCONST> 8.070229e+01
<STATE> 12
<MEAN> 39
 9.912749e+00 -1.361778e+01 -1.533519e+01 -1.393418e+01 -8.251460e+00 -1.296749e+01 -7.363073e+00 -2.127988e+00 2.691235e+00 -1.200132e+00 1.710979e+00 1.950964e+00 7.214962e-01 -2.817629e-02 2.537722e-01 6.881717e-01 1.919428e+00 -2.080823e-01 7.167149e-01 8.284431e-01 -1.183555e+00 5.174786e-01 -2.151725e+00 -7.735818e-01 -7.762335e-01 -5.646587e-02 -5.137646e-01 8.278748e-02 5.902039e-01 -3.186692e-01 5.261885e-01 2.580918e-01 -1.158044e-01 2.842064e-01 1.492809e-01 7.163246e-01 -1.076970e-01 -2.160076e-01 -5.236769e-03
<VARIANCE> 39
 1.524579e+00 2.393823e+00 5.705029e+00 5.675548e+00 1.483000e+01 6.043119e+00 2.379703e+01 1.088066e+01 1.137196e+01 6.334741e+00 1.242509e+01 1.681913e+01 5.000000e-02 5.323761e-01 4.012373e-01 1.497170e+00 1.392673e+00 5.949521e-01 1.309266e+00 1.188698e+00 1.478335e+00 1.345145e+00 1.045167e+00 1.195299e+00 2.570839e+00 5.000000e-02 5.000000e-02 5.000000e-02 2.155817e-01 1.996721e-01 5.794578e-02 2.263138e-01 4.272613e-01 2.402029e-01 3.266868e-01 1.884425e-01 1.952310e-01 4.656130e-01 5.000000e-02
<GCONST> 6.716879e+01
<STATE> 13
<MEAN> 39
 6.965083e+00 -1.245323e+01 -1.048043e+01 -9.603639e+00 -4.185892e+00 -1.094953e+01 -5.627613e+00 -3.274027e+00 3.024334e+00 -3.098566e+00 -7.658811e-01 -2.541424e+00 5.228765e-01 -9.194293e-01 1.154596e-01 1.019394e+00 1.611774e+00 1.452120e+00 5.505203e-01 1.946898e-01 -6.461553e-01 -1.200234e-01 4.143811e-01 -2.932025e-01 -1.592186e+00 -5.958075e-02 -6.956030e-02 -7.472919e-02 -2.333318e-01 -1.261501e-01 9.252465e-02 -2.338955e-01 -3.516943e-01 4.889056e-02 -1.169103e-01 5.319974e-01 3.289023e-01 1.688527e-01 4.167737e-03
<VARIANCE> 39
 4.036206e+00 1.006545e+01 7.005764e+00 5.032774e+00 7.897230e+00 1.704149e+01 1.473764e+01 8.855730e+00 1.194990e+01 1.158911e+01 1.104728e+01 2.214572e+01 5.000000e-02 5.000000e-02 6.081403e-01 1.121600e+00 4.693032e-01 7.746606e-01 8.618878e-01 1.720673e+00 1.036745e+00 1.193873e+00 1.689250e+00 8.664260e-01 1.151613e+00 5.000000e-02 5.000000e-02 1.642217e-01 3.527174e-01 1.368490e-01 2.568449e-01 4.189838e-01 2.833187e-01 9.368499e-02 2.387132e-01 4.545507e-01 1.770184e-01 4.435532e-01 5.000000e-02
<GCONST> 6.844380e+01
<STATE> 14
<MEAN> 39
 4.314534e+00 -1.170984e+01 -9.030072e+00 -5.816047e+00 -1.355562e+00 -1.117985e+01 -7.412212e+00 -5.411294e+00 3.482471e+00 9.714990e-01 2.140311e+00 -4.267679e+00 3.834449e-01 -8.017454e-01 4.139580e-01 2.117861e-02 -5.375802e-01 -5.385778e-02 -2.305424e-01 1.583764e-01 5.691586e-01 1.970512e-01 8.121492e-01 9.183439e-01 6.382086e-01 -2.994081e-02 6.190545e-02 2.275586e-02 -2.790303e-01 -5.967736e-01 -3.029489e-01 1.587204e-01 3.196685e-01 4.276306e-01 2.165779e-01 -1.346105e-01 -8.506075e-03 3.396259e-01 6.272256e-03
<VARIANCE> 39
 3.409288e+00 6.408830e+00 7.569960e+00 7.095083e+00 8.753551e+00 1.121446e+01 8.642121e+00 8.656004e+00 2.167911e+01 9.654162e+00 8.870177e+00 9.441227e+00 5.000000e-02 2.486357e-01 3.711178e-01 1.311226e+00 1.514484e+00 7.375432e-01 2.777336e+00 2.259297e+00 9.980115e-01 1.381586e+00 1.431785e+00 1.752871e+00 2.053473e+00 5.000000e-02 5.000000e-02 1.044199e-01 1.426617e-01 2.927020e-01 2.172329e-01 3.327593e-01 3.374113e-01 2.422935e-01 3.902239e-01 2.422094e-01 2.364009e-01 3.923128e-01 5.000000e-02
<GCONST> 7.192793e+01
<STATE> 15
<MEAN> 39
 1.668985e+00 -1.157733e+01 -1.114010e+01 -1.068940e+01 -1.647166e+00 -9.670704e+00 -4.803748e+00 -3.090311e-02 7.492807e+00 3.821302e+00 4.805624e+00 -7.361369e-01 2.967510e-01 -4.323929e-01 1.607899e-01 -2.842275e-01 -3.551860e-01 -1.836217e-04 2.731649e-01 3.406128e-01 3.272889e-01 4.497643e-01 6.312453e-01 6.271565e-01 2.383010e-01 -1.705701e-02 -9.154224e-04 -1.499206e-03 3.003198e-01 5.236488e-01 6.717896e-02 -6.597283e-02 -1.587376e-01 -5.001526e-01 -3.507915e-01 -1.886606e-01 -1.501896e-01 -2.647246e-01 -2.891848e-03
<VARIANCE> 39
 6.006946e+00 1.013528e+01 1.444717e+01 4.911498e+00 8.309563e+00 1.558076e+01 6.556650e+00 8.094172e+00 2.064782e+01 2.758971e+01 3.199695e+01 8.799130e+00 5.000000e-02 2.319230e-01 3.141047e-01 7.696145e-01 9.217269e-01 1.197147e+00 1.360395e+00 7.423428e-01 1.733465e+00 2.004335e+00 1.626227e+00 2.490870e+00 1.091936e+00 5.000000e-02 6.223307e-02 5.000000e-02 1.787727e-01 1.851094e-01 2.247990e-01 3.369616e-01 1.282604e-01 1.350859e-01 4.242142e-01 5.235199e-01 7.896084e-01 3.195315e-01 5.000000e-02
<GCONST> 7.314200e+01
<STATE> 16
<MEAN> 39
 -5.885122e-01 -1.005802e+01 -7.652966e+00 -7.176641e+00 -1.514165e+00 -8.392087e+00 -3.799568e+00 -3.544828e+00 3.446975e+00 1.295195e+00 4.148400e+00 -2.399613e+00 1.777781e-01 -5.414771e-01 1.863400e-01 1.335021e+00 1.354363e+00 -1.436352e-01 -1.711343e-01 3.027792e-02 -1.361326e-01 -8.012905e-02 -6.993296e-01 -6.160761e-01 -4.481597e-01 -2.336537e-02 7.472844e-02 -9.397624e-02 -1.671802e-01 -2.942378e-01 -1.112105e-01 -2.029644e-01 -1.932221e-02 4.499529e-01 4.910389e-01 2.718648e-01 6.145678e-02 1.142095e-01 5.993137e-03
<VARIANCE> 39
 7.681037e+00 3.751661e+00 1.885961e+01 1.265127e+01 1.145539e+01 7.042800e+00 9.635542e+00 5.677613e+00 5.060368e+00 1.229086e+01 8.509786e+00 7.673012e+00 5.000000e-02 6.500323e-01 6.369172e-01 2.088571e+00 1.337006e+00 6.075295e-01 1.008026e+00 4.897454e-01 1.203550e+00 2.508090e+00 2.384252e+00 1.440953e+00 1.299369e+00 5.000000e-02 1.127164e-01 6.101227e-02 5.358506e-01 5.575618e-01 1.882126e-01 1.298268e-01 1.214817e-01 9.282840e-02 5.236182e-02 5.577754e-01 4.617833e-01 2.176234e-01 5.000000e-02
<GCONST> 6.955373e+01
<STATE> 17
<MEAN> 39
 -1.341720e+00 -1.034702e+01 -7.029822e+00 -7.353987e+00 -3.229847e+00 -1.107155e+01 -4.000276e+00 -5.489159e-01 7.206958e+00 4.216524e+00 5.288074e+00 -2.505486e+00 1.651882e-01 -5.936643e-01 1.340894e-01 9.973613e-02 -1.488998e-01 -3.738690e-03 3.330752e-01 5.516630e-01 3.142363e-01 1.175493e-01 1.396484e-01 3.320002e-02 1.292752e-01 -2.682798e-02 -2.092401e-01 1.033347e-01 2.515235e-01 3.664664e-01 3.550396e-01 4.536062e-01 2.339349e-01 -2.244169e-01 -4.570359e-01 -4.084372e-01 -2.033748e-01 1.285587e-01 -1.097601e-02
<VARIANCE> 39
 7.404225e+00 6.508257e+00 8.104483e+00 7.807909e+00 1.025289e+01 8.294509e+00 1.247472e+01 1.017610e+01 1.398853e+01 1.682842e+01 1.341952e+01 1.526378e+01 5.000000e-02 6.499960e-01 5.877402e-01 1.032066e+00 1.552689e+00 6.307316e-01 1.219856e+00 8.739957e-01 7.483593e-01 1.805071e+00 4.053109e+00 1.930750e+00 1.322219e+00 5.000000e-02 1.094322e-01 1.172168e-01 2.381765e-01 2.627117e-01 9.176089e-02 1.234025e-01 9.647346e-02 1.368776e-01 1.453571e-01 5.025785e-01 3.560250e-01 2.582933e-01 5.000000e-02
<GCONST> 7.159434e+01
<STATE> 18
<MEAN> 39
 -4.663780e+00 -9.169054e+00 -4.105281e+00 -3.244817e+00 -1.395617e-01 -7.192875e+00 -8.393229e-01 -1.482697e+00 4.669949e+00 1.442005e+00 3.416322e+00 -1.870086e+00 -2.759208e-03 -7.438439e-01 9.135009e-02 7.596397e-01 7.665504e-01 7.034438e-01 7.686884e-01 4.991989e-01 -2.602630e-01 -8.481823e-01 -4.054126e-01 -5.945554e-02 6.647008e-02 -3.496474e-02 1.920246e-01 -6.399561e-02 -1.181790e-01 -2.903948e-01 -1.850828e-01 -1.587490e-01 -2.698588e-01 -6.952381e-02 -4.561343e-02 1.084887e-01 1.355657e-01 -1.167596e-01 8.881637e-03
<VARIANCE> 39
 2.948834e+00 1.910235e+00 7.593494e+00 5.524465e+00 8.262403e+00 1.055932e+01 1.139340e+01 2.604397e+00 8.948505e+00 1.758441e+01 1.322038e+01 8.685021e+00 5.000000e-02 7.048874e-01 2.588282e-01 3.544541e-01 1.271044e+00 7.135239e-01 1.086407e+00 9.320802e-01 6.747446e-01 6.570444e-01 1.555374e+00 1.851195e+00 1.070169e+00 5.000000e-02 6.317417e-02 5.318369e-02 8.264209e-02 2.297673e-01 1.300149e-01 1.956286e-01 1.421194e-01 6.388503e-02 1.592975e-01 4.019962e-01 2.395650e-01 1.460994e-01 5.000000e-02
<GCONST> 5.917035e+01
<TRANSP> 19
 0.000000e+00 1.000000e+00 0.000000e+00 0.000000e+00 0.000000e+00 0.000000e+00 0.000000e+00 0.000000e+00 0.000000e+00 0.000000e+00 0.000000e+00 0.000000e+00 0.000000e+00 0.000000e+00 0.000000e+00 0.000000e+00 0.000000e+00 0.000000e+00 0.000000e+00
 0.000000e+00 7.058390e-01 2.941609e-01 0.000000e+00 0.000000e+00 0.000000e+00 0.000000e+00 0.000000e+00 0.000000e+00 0.000000e+00 0.000000e+00 0.000000e+00 0.000000e+00 0.000000e+00 0.000000e+00 0.000000e+00 0.000000e+00 0.000000e+00 0.000000e+00
 0.000000e+00 0.000000e+00 7.360523e-01 2.639478e-01 0.000000e+00 0.000000e+00 0.000000e+00 0.000000e+00 0.000000e+00 0.000000e+00 0.000000e+00 0.000000e+00 0.000000e+00 0.000000e+00 0.000000e+00 0.000000e+00 0.000000e+00 0.000000e+00 0.000000e+00
 0.000000e+00 0.000000e+00 0.000000e+00 5.852993e-01 4.147007e-01 0.000000e+00 0.000000e+00 0.000000e+00 0.000000e+00 0.000000e+00 0.000000e+00 0.000000e+00 0.000000e+00 0.000000e+00 0.000000e+00 0.000000e+00 0.000000e+00 0.000000e+00 0.000000e+00
 0.000000e+00 0.000000e+00 0.000000e+00 0.000000e+00 6.853502e-01 3.146497e-01 0.000000e+00 0.000000e+00 0.000000e+00 0.000000e+00 0.000000e+00 0.000000e+00 0.000000e+00 0.000000e+00 0.000000e+00 0.000000e+00 0.000000e+00 0.000000e+00 0.000000e+00
 0.000000e+00 0.000000e+00 0.000000e+00 0.000000e+00 0.000000e+00 8.009274e-01 1.990726e-01 0.000000e+00 0.000000e+00 0.000000e+00 0.000000e+00 0.000000e+00 0.000000e+00 0.000000e+00 0.000000e+00 0.000000e+00 0.000000e+00 0.000000e+00 0.000000e+00
 0.000000e+00 0.000000e+00 0.000000e+00 0.000000e+00 0.000000e+00 0.000000e+00 6.890731e-01 3.109269e-01 0.000000e+00 0.000000e+00 0.000000e+00 0.000000e+00 0.000000e+00 0.000000e+00 0.000000e+00 0.000000e+00 0.000000e+00 0.000000e+00 0.000000e+00
 0.000000e+00 0.000000e+00 0.000000e+00 0.000000e+00 0.000000e+00 0.000000e+00 0.000000e+00 7.212485e-01 2.787515e-01 0.000000e+00 0.000000e+00 0.000000e+00 0.000000e+00 0.000000e+00 0.000000e+00 0.000000e+00 0.000000e+00 0.000000e+00 0.000000e+00
 0.000000e+00 0.000000e+00 0.000000e+00 0.000000e+00 0.000000e+00 0.000000e+00 0.000000e+00 0.000000e+00 7.225379e-01 2.774622e-01 0.000000e+00 0.000000e+00 0.000000e+00 0.000000e+00 0.000000e+00 0.000000e+00 0.000000e+00 0.000000e+00 0.000000e+00
 0.000000e+00 0.000000e+00 0.000000e+00 0.000000e+00 0.000000e+00 0.000000e+00 0.000000e+00 0.000000e+00 0.000000e+00 5.813558e-01 4.186443e-01 0.000000e+00 0.000000e+00 0.000000e+00 0.000000e+00 0.000000e+00 0.000000e+00 0.000000e+00 0.000000e+00
 0.000000e+00 0.000000e+00 0.000000e+00 0.000000e+00 0.000000e+00 0.000000e+00 0.000000e+00 0.000000e+00 0.000000e+00 0.000000e+00 6.429974e-01 3.570025e-01 0.000000e+00 0.000000e+00 0.000000e+00 0.000000e+00 0.000000e+00 0.000000e+00 0.000000e+00
 0.000000e+00 0.000000e+00 0.000000e+00 0.000000e+00 0.000000e+00 0.000000e+00 0.000000e+00 0.000000e+00 0.000000e+00 0.000000e+00 0.000000e+00 6.430705e-01 3.569295e-01 0.000000e+00 0.000000e+00 0.000000e+00 0.000000e+00 0.000000e+00 0.000000e+00
 0.000000e+00 0.000000e+00 0.000000e+00 0.000000e+00 0.000000e+00 0.000000e+00 0.000000e+00 0.000000e+00 0.000000e+00 0.000000e+00 0.000000e+00 0.000000e+00 6.888730e-01 3.111270e-01 0.000000e+00 0.000000e+00 0.000000e+00 0.000000e+00 0.000000e+00
 0.000000e+00 0.000000e+00 0.000000e+00 0.000000e+00 0.000000e+00 0.000000e+00 0.000000e+00 0.000000e+00 0.000000e+00 0.000000e+00 0.000000e+00 0.000000e+00 0.000000e+00 7.341525e-01 2.658475e-01 0.000000e+00 0.000000e+00 0.000000e+00 0.000000e+00
 0.000000e+00 0.000000e+00 0.000000e+00 0.000000e+00 0.000000e+00 0.000000e+00 0.000000e+00 0.000000e+00 0.000000e+00 0.000000e+00 0.000000e+00 0.000000e+00 0.000000e+00 0.000000e+00 7.393688e-01 2.606312e-01 0.000000e+00 0.000000e+00 0.000000e+00
 0.000000e+00 0.000000e+00 0.000000e+00 0.000000e+00 0.000000e+00 0.000000e+00 0.000000e+00 0.000000e+00 0.000000e+00 0.000000e+00 0.000000e+00 0.000000e+00 0.000000e+00 0.000000e+00 0.000000e+00 6.652055e-01 3.347945e-01 0.000000e+00 0.000000e+00
 0.000000e+00 0.000000e+00 0.000000e+00 0.000000e+00 0.000000e+00 0.000000e+00 0.000000e+00 0.000000e+00 0.000000e+00 0.000000e+00 0.000000e+00 0.000000e+00 0.000000e+00 0.000000e+00 0.000000e+00 0.000000e+00 6.694493e-01 3.305507e-01 0.000000e+00
 0.000000e+00 0.000000e+00 0.000000e+00 0.000000e+00 0.000000e+00 0.000000e+00 0.000000e+00 0.000000e+00 0.000000e+00 0.000000e+00 0.000000e+00 0.000000e+00 0.000000e+00 0.000000e+00 0.000000e+00 0.000000e+00 0.000000e+00 7.602753e-01 2.397247e-01
 0.000000e+00 0.000000e+00 0.000000e+00 0.000000e+00 0.000000e+00 0.000000e+00 0.000000e+00 0.000000e+00 0.000000e+00 0.000000e+00 0.000000e+00 0.000000e+00 0.000000e+00 0.000000e+00 0.000000e+00 0.000000e+00 0.000000e+00 0.000000e+00 0.000000e+00
<ENDHMM>
