~o
<STREAMINFO> 1 39
<VECSIZE> 39<NULLD><MFCC_E_D_A><DIAGC>
~h "Sau"
<BEGINHMM>
<NUMSTATES> 40
<STATE> 2
<MEAN> 39
 -7.536378e+00 -8.265105e+00 -2.546664e+00 -2.490844e+00 1.425738e-01 -4.485902e+00 2.840026e+00 -1.857627e+00 -3.351047e-01 -4.245491e+00 3.783294e+00 -1.691916e+00 -9.257863e-02 -1.095124e+00 1.001833e+00 -9.288273e-01 2.769710e-01 -8.224847e-01 5.071415e-01 8.109851e-01 5.733799e-01 8.431814e-01 -5.428372e-02 1.034982e+00 -6.864333e-01 5.878202e-03 -3.864015e-01 5.708287e-01 -4.519725e-01 2.807025e-01 -7.713121e-02 9.974927e-02 4.142926e-02 2.771771e-01 2.596770e-01 5.169532e-02 -1.003663e-01 -2.185666e-01 1.237171e-02
<VARIANCE> 39
 4.039943e+00 3.855854e+00 4.099738e+00 5.680819e+00 5.770355e+00 4.816659e+00 9.095554e+00 8.126654e+00 7.390254e+00 1.368523e+01 6.372738e+00 5.439411e+00 5.000000e-02 6.163614e-01 4.453451e-01 9.538041e-01 9.775400e-01 1.719864e+00 5.364111e-01 3.600475e-01 2.389402e+00 7.080594e-01 6.757612e-01 6.721860e-01 4.550120e-01 5.000000e-02 2.078734e-01 7.827324e-02 1.559598e-01 4.065860e-01 2.486505e-01 5.864600e-02 1.994112e-01 3.782651e-01 1.633178e-01 1.041585e-01 4.700260e-01 5.000000e-02 5.000000e-02
<GCONST> 5.934447e+01
<STATE> 3
<MEAN> 39
 -1.101320e+01 -3.359858e+00 -6.512938e+00 7.665823e-01 -2.231708e+00 -1.885037e+00 3.507447e+00 3.221470e-02 1.515874e+00 -5.011379e+00 4.286554e+00 -5.122311e+00 -3.855594e-02 -1.739501e+00 2.316556e+00 -2.362588e+00 9.591027e-01 -4.104023e-01 7.566867e-01 2.806763e-02 4.576885e-01 2.847432e-01 -4.110382e-01 -4.851508e-01 8.210789e-02 5.921481e-02 -3.076988e-01 1.618760e-01 -5.399004e-01 6.539527e-02 7.769874e-02 -1.871621e-01 -2.652490e-02 -3.692172e-01 -1.307854e-01 2.911516e-02 -2.517130e-01 4.457254e-01 1.886077e-02
<VARIANCE> 39
 8.628383e+00 7.428375e+00 1.245004e+01 3.183377e+01 2.346277e+01 1.418956e+01 1.590436e+01 3.065388e+01 4.457765e+00 1.123150e+01 9.531669e+00 5.742165e+00 5.000000e-02 2.588354e+00 9.033502e-01 2.912888e+00 5.202605e+00 2.340113e+00 7.011791e-01 1.296080e+00 1.912144e+00 9.287143e-01 8.707653e-01 2.606454e+00 8.228667e-01 5.000000e-02 1.224974e-01 1.746910e-01 1.565594e-01 2.700933e-01 4.724287e-01 2.025348e-01 2.481981e-01 2.968379e-01 1.045772e-01 7.235586e-02 2.243187e-01 9.737754e-02 5.000000e-02
<GCONST> 7.759650e+01
<STATE> 4
<MEAN> 39
 -1.695263e+01 3.637330e+00 -1.793147e+01 4.023439e+00 -2.649784e+00 -8.716561e-01 5.364884e+00 -2.118119e+00 2.861958e+00 -4.980502e+00 1.200760e+00 -1.761948e+00 1.980255e-01 -2.714484e+00 2.164154e+00 -3.067700e+00 8.211869e-01 -2.593749e-01 -5.611988e-01 9.042924e-01 -7.881853e-01 6.913922e-01 6.388237e-01 1.547500e-01 5.943615e-01 9.614384e-02 1.280965e-01 -6.977850e-01 9.881033e-01 1.088165e-01 2.525351e-03 -3.464462e-01 -2.537497e-01 1.008418e-01 -1.523049e-01 2.288740e-01 4.732238e-01 -1.310663e-01 -1.169556e-02
<VARIANCE> 39
 2.314608e+01 1.201783e+01 6.063009e+01 8.918410e+01 1.939790e+01 2.079128e+01 1.485393e+01 3.677502e+01 2.041195e+01 1.297478e+01 2.094755e+01 2.098063e+00 5.000000e-02 8.454769e-01 1.175959e+00 2.274175e+00 3.686841e+00 3.108974e+00 1.269373e+00 2.522035e+00 1.592554e+00 1.030862e-01 4.718859e-01 1.099541e+00 1.290750e+00 5.000000e-02 2.937159e-01 8.762443e-02 5.852085e-01 5.560082e-01 2.088040e-01 1.288235e-01 1.734335e-01 7.869340e-01 9.884309e-02 2.856175e-01 5.269354e-01 2.204656e-01 5.000000e-02
<GCONST> 8.467955e+01
<STATE> 5
<MEAN> 39
 -2.174703e+01 5.196151e+00 -1.686328e+01 3.183089e+00 -3.648985e+00 -4.645066e+00 5.317260e+00 -9.923655e-01 3.027500e+00 -3.546552e+00 4.870307e+00 -2.632875e+00 3.187418e-01 -1.580936e+00 -2.569949e-01 9.749795e-03 1.430598e+00 -5.532218e-01 -5.307897e-01 -8.516181e-01 -2.040340e-01 -3.424248e-01 3.954701e-01 4.933158e-01 3.366238e-01 2.603286e-02 1.244665e+00 -1.103204e+00 9.668139e-01 -7.884549e-02 1.163974e-01 2.988039e-01 -4.556144e-01 1.836002e-01 -2.895746e-01 -8.825558e-02 -2.788656e-01 -2.309609e-02 -2.627666e-02
<VARIANCE> 39
 3.610374e+01 2.452433e+01 5.928315e+01 1.433659e+02 5.989865e+01 1.435002e+01 3.309485e+01 4.101067e+01 3.948483e+00 1.134658e+01 1.609485e+01 2.626683e+01 5.000000e-02 8.157710e-01 8.493885e-01 2.974281e+00 9.287638e-01 1.941919e+00 1.447778e+00 9.517376e-01 3.601124e+00 4.203667e-01 2.406107e+00 2.385190e+00 8.298801e-01 5.000000e-02 6.597098e-01 4.476461e-01 5.268295e-01 1.369001e+00 1.129963e+00 2.504207e-01 5.196887e-01 6.733236e-01 9.006345e-02 5.307152e-01 2.995418e-01 3.851496e-01 5.000000e-02
<GCONST> 9.689198e+01
<STATE> 6
<MEAN> 39
 -2.134950e+01 2.682770e+00 -1.558601e+01 7.229599e+00 -4.091295e+00 -8.844656e-01 5.305285e-01 -1.799050e+00 5.553091e-01 -3.135246e+00 4.020324e+00 -1.845432e+00 2.890364e-01 1.764446e+00 -2.123825e+00 1.867297e+00 -5.219060e-01 -1.905657e-01 6.181861e-01 -1.269975e+00 1.608595e-01 -2.934855e-01 -4.313496e-01 -3.533966e-01 6.243195e-01 -1.462724e-02 1.381062e+00 -1.144674e+00 -7.715076e-02 -1.364425e+00 2.116953e-01 -2.533932e-01 3.997391e-01 4.177721e-01 2.440366e-01 -5.783775e-01 -7.380797e-01 3.573130e-02 1.779098e-02
<VARIANCE> 39
 3.297955e+01 1.741706e+01 5.144838e+01 7.551679e+01 7.058323e+01 2.814091e+01 2.973622e+01 1.019656e+01 1.300800e+01 2.340895e+01 3.010312e+01 8.358644e+00 5.000000e-02 3.735317e+00 3.575119e+00 3.663375e+00 4.457278e+00 3.897771e+00 2.651451e+00 1.849976e+00 5.127687e+00 2.222235e+00 3.115578e+00 2.795070e+00 1.067191e+00 5.000000e-02 6.972072e-01 4.241886e-01 1.208675e+00 4.169370e-01 9.004622e-01 7.432433e-01 4.617788e-01 9.756960e-01 2.784716e-01 4.027407e-01 9.140813e-01 2.431683e-01 5.000000e-02
<GCONST> 1.080671e+02
<STATE> 7
<MEAN> 39
 -1.543982e+01 -6.127549e+00 -1.057671e+01 1.545781e+00 -4.074346e+00 -2.077890e+00 -8.631042e-01 -3.145374e-01 1.507597e+00 -5.807869e+00 3.079979e+00 5.486071e-01 2.360877e-01 4.927180e+00 -5.287389e+00 -7.316837e-01 -4.701461e+00 8.623969e-01 -1.361339e+00 1.164455e+00 1.480383e+00 5.892078e-01 -1.678396e+00 -3.111008e+00 1.492283e-01 1.131711e-01 2.450818e-01 -6.403107e-01 -1.681323e+00 1.207498e-01 4.168927e-01 -4.766667e-01 1.282130e+00 -7.257200e-01 2.526715e-01 -4.188973e-01 -7.190847e-01 -2.877626e-01 5.023827e-02
<VARIANCE> 39
 1.345677e+01 1.311045e+01 2.728146e+01 4.013083e+01 2.768759e+01 4.195139e+01 5.849451e+01 3.497902e+01 4.599422e+01 1.390369e+01 1.448270e+01 7.621184e+00 5.000000e-02 4.313784e+00 1.227636e+00 4.950596e+00 4.590859e+00 4.283407e+00 2.332314e+00 3.187914e+00 2.364599e+00 2.575501e+00 1.202480e+00 4.354458e+00 1.964416e+00 5.000000e-02 5.183012e-01 2.624227e-01 5.310258e-01 8.309112e-01 4.472034e-01 2.785000e-01 3.660971e-01 2.122792e+00 4.889163e-01 3.245459e-01 9.850184e-01 1.749921e-01 5.000000e-02
<GCONST> 1.043485e+02
<STATE> 8
<MEAN> 39
 -1.578774e+00 -1.698391e+01 -1.586704e+01 -8.718799e+00 -2.594272e+00 -7.101514e+00 6.806046e+00 5.193844e+00 3.330675e+00 -9.212640e+00 -8.152940e+00 -1.422795e+00 6.875301e-01 3.085094e+00 -4.964304e+00 -3.826334e+00 -6.800311e-01 1.281336e+00 -1.098883e+00 2.886794e+00 -1.854416e+00 6.384116e-01 -2.676042e+00 -3.749962e+00 -7.309789e-01 1.715348e-01 -1.719294e+00 8.422838e-01 -2.085732e-01 1.751579e+00 5.307527e-01 6.135023e-01 -2.419011e-01 -1.726878e+00 4.636039e-02 4.623837e-01 1.326384e+00 -1.790169e-01 -1.124277e-02
<VARIANCE> 39
 9.016064e+00 2.437949e+01 1.529525e+01 6.636092e+00 1.297370e+01 5.373108e+01 2.288555e+01 2.840775e+01 2.615413e+01 1.572542e+01 3.473615e+01 2.770577e+00 5.000000e-02 2.683306e+00 1.300283e+00 1.320673e+00 3.731654e+00 3.412859e+00 1.840335e+00 1.554911e+00 1.714850e+01 2.451278e+00 6.211205e-01 3.328592e+00 1.283410e+00 5.000000e-02 4.072483e-01 3.233666e-01 5.916079e-01 9.321205e-01 5.994161e-01 6.201666e-01 6.086601e-01 6.469508e-01 3.673840e-01 1.459882e-01 9.328246e-01 5.657093e-02 5.000000e-02
<GCONST> 9.573951e+01
<STATE> 9
<MEAN> 39
 -4.775723e+00 -2.158889e+01 -2.456067e+01 -2.628241e+00 2.822726e+00 -7.189579e+00 1.155835e+01 -7.110171e+00 5.327065e+00 -1.529853e+01 -8.442359e+00 -1.306487e+00 8.546245e-01 -3.388766e-01 -3.100670e+00 -2.636777e+00 2.093298e+00 2.000631e+00 2.568510e-02 1.384049e+00 -4.310102e+00 7.567614e-01 -2.271214e-01 1.450979e+00 -3.615943e-01 8.509101e-02 -7.926194e-01 9.087462e-01 1.241931e+00 7.543346e-01 -1.526060e-01 7.890866e-01 -1.489938e+00 1.794336e-02 -2.470704e-01 1.465043e+00 1.539972e+00 -6.828853e-02 -3.991272e-02
<VARIANCE> 39
 5.758364e+00 1.636998e+01 3.258106e+01 2.156017e+01 2.091222e+01 2.561112e+01 2.884532e+01 1.218871e+02 4.395568e+01 1.384015e+01 2.130309e+01 1.775478e+01 5.000000e-02 9.930116e-01 1.912168e+00 2.548321e+00 7.304488e-01 8.458061e-01 2.606294e+00 4.144355e+00 4.159012e+00 2.393938e+00 2.317481e+00 2.514125e+00 4.566538e-01 5.000000e-02 3.996270e-01 2.662032e-01 3.234041e-01 1.053794e+00 7.171526e-01 1.458602e-01 1.488229e-01 3.517905e+00 2.122826e-01 5.000000e-02 5.319805e-01 1.915056e-01 5.000000e-02
<GCONST> 9.428549e+01
<STATE> 10
<MEAN> 39
 -4.034328e+00 -2.484500e+01 -2.416662e+01 -3.172843e-01 3.545923e+00 -5.323374e+00 9.700125e+00 -1.215106e+01 4.765627e+00 -1.148308e+01 -4.042583e+00 -2.332036e+00 9.049174e-01 1.289021e-01 -1.694776e+00 4.059604e-01 1.402196e+00 1.461169e+00 1.783797e+00 -1.959019e+00 -1.472730e+00 -6.484296e-01 2.186058e+00 2.076167e+00 -4.054626e-01 3.111523e-02 -1.387299e-01 7.230876e-01 1.064926e+00 -3.527026e-01 -5.244511e-02 4.018962e-01 -9.191063e-01 8.604708e-01 -1.678535e-01 7.303550e-01 1.950008e-01 -9.541214e-02 -2.455279e-02
<VARIANCE> 39
 1.250448e+01 2.429863e+00 1.134691e+01 1.209599e+01 1.253610e+01 1.845469e+00 5.827576e+00 9.374223e+01 6.107604e+01 3.471146e+01 1.675647e+01 7.983172e+00 5.000000e-02 8.197590e-01 1.057936e+00 1.581191e+00 3.596350e+00 4.108124e+00 2.650700e+00 2.888006e+00 8.762562e+00 1.548331e+00 1.882361e+00 2.804428e-01 1.903329e-01 5.000000e-02 1.562566e-01 3.628254e-01 1.831313e-01 2.903762e-01 1.472867e-01 4.293044e-01 5.078492e-01 1.916365e+00 6.368126e-01 2.928444e-01 1.139356e+00 5.000000e-02 5.000000e-02
<GCONST> 8.524242e+01
<STATE> 11
<MEAN> 39
 -4.547956e+00 -2.682476e+01 -2.292177e+01 4.774142e-01 5.411621e+00 -3.203277e+00 5.348420e+00 -1.133160e+01 3.239990e+00 -5.844694e+00 -1.053396e+00 -3.345006e+00 9.339513e-01 6.922407e-02 -6.631664e-01 6.016604e-01 1.355857e-01 1.077600e+00 9.911025e-01 -1.372885e+00 -1.359761e+00 8.793504e-01 1.294883e+00 8.338722e-01 -1.087532e+00 1.564877e-02 8.617176e-02 5.811599e-01 3.192717e-01 -5.774927e-01 -1.146715e-01 -1.884083e-01 2.389926e-01 4.544761e-01 4.499094e-01 -4.350643e-01 -2.728378e-01 -1.508483e-01 -8.547135e-03
<VARIANCE> 39
 1.500833e+01 2.326642e+00 1.094113e+01 2.702644e+01 1.682366e+01 2.241466e+01 1.936033e+00 5.603038e+01 7.844873e+01 4.135606e+01 8.803843e+00 2.415862e+01 5.000000e-02 2.053682e-01 6.556070e-01 7.497295e-01 1.484489e+00 3.220695e-01 1.930283e+00 6.549679e-01 6.521636e+00 3.001887e+00 1.383193e+00 1.388654e+00 8.333371e-01 5.000000e-02 5.000000e-02 1.557857e-01 2.815828e-01 3.499190e-01 1.940580e-01 3.430535e-01 5.252912e-01 6.820939e-01 3.861310e-01 4.678978e-01 9.028002e-02 1.362008e-01 5.000000e-02
<GCONST> 7.962629e+01
<STATE> 12
<MEAN> 39
 -5.161306e+00 -2.718139e+01 -1.876418e+01 -7.896315e-01 7.791366e+00 -6.264810e-01 1.700426e+00 -1.325075e+01 9.483889e+00 -7.555218e+00 -3.871886e-01 -4.406738e+00 9.620631e-01 2.923279e-01 -4.356210e-01 1.180959e+00 -7.800640e-01 9.429026e-01 7.737289e-01 -9.605644e-01 -2.309671e-02 7.298593e-01 8.124738e-01 6.337035e-01 -9.750152e-01 1.234578e-02 5.756272e-02 8.045617e-02 -8.695183e-02 -3.543121e-01 -4.034533e-01 -4.851832e-02 2.481919e-01 3.981209e-01 -2.220388e-01 -2.892892e-01 -4.285795e-01 9.023093e-02 -4.344927e-03
<VARIANCE> 39
 5.075107e+00 5.135006e+00 1.356752e+01 7.520899e+00 6.935969e+00 1.485855e+01 7.733562e+00 1.949928e+01 4.235611e+01 3.191804e+01 1.099192e+01 1.329625e+01 5.000000e-02 1.755755e-01 9.470561e-02 5.137755e-01 9.303963e-01 1.096171e+00 6.095570e-01 1.070501e+00 2.513093e+00 1.824727e+00 1.684882e+00 4.593583e-01 1.073042e+00 5.000000e-02 6.839659e-02 7.136702e-02 1.315294e-01 1.680800e-01 1.023142e-01 1.769831e-01 8.840973e-02 3.441297e-01 4.039999e-01 2.120620e-01 1.127833e-01 1.701158e-01 5.000000e-02
<GCONST> 6.553942e+01
<STATE> 13
<MEAN> 39
 -2.124365e+00 -2.745603e+01 -1.838272e+01 -1.979445e+00 9.513074e+00 6.101873e-02 3.968598e+00 -1.194529e+01 7.250280e+00 -4.287586e+00 -2.838630e-01 -7.309305e+00 9.777975e-01 4.268044e-01 -2.411328e-01 2.602592e-01 -1.100523e+00 1.750554e-01 4.679019e-01 -6.088297e-02 -8.156028e-02 7.793365e-01 -2.484913e-01 -1.173064e-01 -9.425201e-02 9.864612e-03 -1.060361e-01 1.678668e-01 -2.611218e-01 -1.332376e-01 -3.291216e-01 1.290578e-01 8.220205e-02 1.721099e-01 -4.286399e-01 -2.964811e-01 -1.355252e-01 3.201222e-01 -1.642645e-03
<VARIANCE> 39
 2.135899e+01 4.977742e+00 5.591318e+00 1.314793e+01 1.496763e+01 5.774063e+01 2.117973e+01 1.305205e+00 2.563366e+01 2.233401e+01 1.765155e+01 1.251128e+01 5.000000e-02 8.935727e-01 4.807757e-01 8.048791e-01 1.183522e+00 4.729796e-01 5.219609e-01 3.909706e-01 1.554254e+00 2.680836e+00 3.927341e+00 1.025869e+00 8.826452e-01 5.000000e-02 9.939256e-02 5.000000e-02 1.225064e-01 2.493484e-01 2.413512e-01 4.867567e-01 1.898246e-01 3.808851e-01 1.982882e-01 7.888125e-02 2.330551e-01 1.377789e-01 5.000000e-02
<GCONST> 7.178928e+01
<STATE> 14
<MEAN> 39
 -1.991309e+00 -2.756633e+01 -1.877864e+01 -5.750857e+00 9.560158e+00 7.455720e-01 2.355343e+00 -1.033219e+01 5.748221e+00 -3.887212e+00 -1.569530e+00 -7.236772e+00 9.930102e-01 1.978846e-03 2.520185e-01 8.138736e-02 -9.106919e-01 -1.854765e-01 1.257766e+00 7.570104e-02 3.866246e-01 -4.643748e-01 -6.184572e-01 -4.609824e-02 2.557928e-02 5.459333e-03 -2.117842e-01 4.792720e-02 -1.852862e-01 1.741968e-02 -1.810431e-01 1.087966e-01 2.069144e-01 -1.075983e-01 -5.004821e-01 -1.442541e-01 -1.316951e-01 -1.237882e-01 -3.998498e-03
<VARIANCE> 39
 1.417966e+01 5.387722e+00 1.812289e+01 1.046796e+01 5.989841e+00 2.900698e+01 1.669553e+01 1.269469e+01 2.893053e+01 4.615651e+01 3.135874e+01 1.650401e+01 5.000000e-02 7.234926e-01 4.696833e-01 3.099503e-01 2.846160e+00 6.712635e-01 2.180283e+00 4.570123e-01 3.792003e-01 1.303903e+00 1.176752e+00 1.578092e+00 6.647537e-01 5.000000e-02 6.444024e-02 8.351976e-02 5.000000e-02 7.853235e-02 1.807137e-01 1.505797e-01 1.306088e-01 2.170315e-01 1.234944e-01 5.677609e-01 1.715516e-01 2.655243e-01 5.000000e-02
<GCONST> 7.045222e+01
<STATE> 15
<MEAN> 39
 -4.775762e+00 -2.833718e+01 -1.675720e+01 -7.736234e+00 8.003033e+00 3.473424e+00 1.929121e+00 -1.293220e+01 6.709310e+00 -8.777191e+00 -2.882544e+00 -8.378573e+00 9.805549e-01 -5.977257e-01 4.924018e-01 -2.530473e-01 -1.127585e+00 3.053133e-01 6.378729e-01 6.920037e-01 -2.469493e-01 -6.852921e-01 -3.561000e-01 -8.527780e-02 -3.981996e-01 -6.227359e-03 7.005124e-02 1.045187e-01 1.258963e-01 -6.608263e-03 2.006699e-01 1.026562e-01 -9.727143e-02 1.755981e-01 -1.187515e-01 4.221834e-01 2.437037e-02 5.187998e-02 -2.705121e-03
<VARIANCE> 39
 1.294284e+01 5.200896e+00 4.053440e+01 5.409516e+00 3.344128e+00 8.759176e+00 1.019440e+01 7.375551e+00 2.327414e+01 1.341584e+01 1.719873e+01 1.193481e+01 5.000000e-02 2.314455e-01 4.918452e-01 1.928119e-01 4.314859e-01 1.172801e+00 6.931635e-01 9.920457e-01 7.081602e-01 8.933983e-01 1.005998e+00 1.083905e+00 5.870520e-01 5.000000e-02 1.169965e-01 1.130978e-01 1.743832e-01 1.100344e-01 5.000000e-02 1.247824e-01 1.170032e-01 2.495342e-01 4.268982e-01 2.333530e-01 3.156547e-01 1.719953e-01 5.000000e-02
<GCONST> 6.316751e+01
<STATE> 16
<MEAN> 39
 -4.780160e+00 -2.605390e+01 -1.921343e+01 -6.626267e+00 7.864042e+00 4.847546e+00 3.942369e+00 -1.154586e+01 6.198102e+00 -6.935930e+00 -1.078385e-01 -6.562510e+00 9.766117e-01 4.790843e-01 -4.164510e-01 7.230248e-01 -1.663297e+00 1.006681e-01 1.367679e+00 -6.569524e-01 7.785369e-01 -1.689412e+00 1.375828e+00 -1.058967e+00 -5.562104e-01 -6.403063e-03 2.950087e-01 -2.795411e-01 1.659010e-01 -4.766514e-01 7.679517e-02 -2.384626e-01 -2.371100e-01 2.383977e-01 -1.308558e-01 4.897794e-01 -4.438637e-01 -1.529227e-01 -6.400480e-05
<VARIANCE> 39
 8.941353e+00 3.219000e+00 1.248291e+01 2.124998e+01 1.354633e+01 1.200764e+01 1.596556e+01 1.567221e+00 2.053808e+01 1.381911e+01 9.096809e+00 2.568516e+01 5.000000e-02 4.120987e-01 6.679668e-01 8.202922e-01 1.655563e+00 1.485458e+00 1.013021e+00 4.601051e-01 3.426139e-01 1.095005e+00 3.363884e-01 8.120019e-01 6.164657e-01 5.000000e-02 6.461654e-02 1.055387e-01 8.975427e-02 5.000000e-02 8.011927e-02 5.000000e-02 2.617382e-01 5.000000e-02 5.917166e-02 6.182209e-02 1.625848e-01 5.000000e-02 5.000000e-02
<GCONST> 5.625696e+01
<STATE> 17
<MEAN> 39
 -3.018397e+00 -2.803792e+01 -1.636981e+01 -1.450992e+01 1.090927e+01 6.565936e+00 1.272775e+00 -8.868094e+00 -5.696493e-01 -9.126197e-01 -4.818732e+00 -9.164873e+00 9.636335e-01 9.093770e-01 -1.203323e-01 9.939027e-01 -1.917494e+00 1.991325e-01 7.027438e-01 -9.752039e-01 1.157825e+00 -1.386463e+00 1.795186e+00 -1.834650e+00 -3.563821e-01 -5.915534e-03 2.344325e-01 3.753683e-01 -2.331486e-01 3.787207e-01 -4.407901e-01 -1.082646e-01 2.367343e-01 1.862668e-01 5.315536e-01 -3.737324e-01 -6.276386e-02 4.164615e-01 -5.152279e-04
<VARIANCE> 39
 8.702837e+00 4.302621e+00 7.108552e+00 3.400683e+01 1.824717e+01 3.991399e+00 5.640542e+00 5.482855e+00 4.593718e+01 1.281256e+01 5.228967e+00 9.988625e+00 5.000000e-02 4.576637e-01 1.056713e+00 9.517208e-01 2.253451e-01 1.004029e+00 1.402032e-01 1.530705e+00 2.447562e-01 1.285096e+00 2.605767e-01 7.993597e-01 8.814545e-01 5.000000e-02 7.058068e-02 1.192458e-01 1.110949e-01 3.007451e-01 2.200533e-01 7.714907e-02 9.856004e-02 1.048853e-01 3.215892e-01 1.888380e-01 1.613844e-01 1.081860e-01 5.000000e-02
<GCONST> 5.952768e+01
<STATE> 18
<MEAN> 39
 -8.484659e-01 -2.741106e+01 -1.642110e+01 -1.487059e+01 7.934483e+00 7.703990e+00 7.442650e-01 -7.946530e+00 4.419129e-01 -6.225863e-01 -6.674799e+00 -9.182064e+00 9.531019e-01 8.813553e-01 7.499931e-01 -2.392764e-01 -7.150355e-01 -6.161821e-01 4.672865e-01 4.330435e-01 1.103752e+00 2.076363e-02 -3.000838e-02 -9.375824e-01 4.072604e-01 -6.749190e-03 -1.496354e-02 3.288596e-01 -2.855411e-01 3.331641e-01 -5.101483e-02 -1.739395e-01 2.105281e-01 -2.554428e-01 3.231948e-01 -4.027570e-01 5.448577e-01 4.450308e-01 -1.124358e-03
<VARIANCE> 39
 6.419544e+00 1.032703e+01 1.278215e+01 2.326314e+01 2.444792e+01 5.598354e+00 1.767376e+01 3.074446e+00 2.368256e+01 1.681512e+01 2.484399e+01 2.013471e+01 5.000000e-02 2.308248e-01 4.771757e-01 5.812437e-01 1.163350e+00 9.728460e-01 2.660404e-01 4.617450e-01 1.314792e+00 3.093276e+00 1.012852e+00 3.591901e-01 1.280037e+00 5.000000e-02 5.000000e-02 1.792574e-01 1.937954e-01 1.500792e-01 4.697195e-01 5.909427e-02 1.012730e-01 1.353626e-01 2.112936e-01 1.936356e-01 2.754441e-01 1.653182e-01 5.000000e-02
<GCONST> 6.720068e+01
<STATE> 19
<MEAN> 39
 -6.727446e-01 -2.555404e+01 -1.702343e+01 -1.463889e+01 7.772335e+00 8.009690e+00 3.314591e+00 -5.900777e+00 2.593372e+00 -4.048887e+00 -6.952320e+00 -7.356005e+00 9.403852e-01 8.391200e-01 1.007980e+00 -1.135874e-01 -8.490321e-01 -3.064874e-01 4.185130e-01 -2.076582e-01 3.547576e-01 -1.520467e-01 2.110459e-01 1.717822e-01 1.177302e+00 -1.101644e-02 2.579753e-02 -1.226579e-01 2.361944e-02 -1.429902e-01 1.772578e-01 -2.094300e-01 -3.579811e-01 -2.190007e-01 -1.055681e-01 2.650051e-01 2.082837e-01 6.134872e-02 -3.738161e-03
<VARIANCE> 39
 1.542456e+01 4.360448e+00 6.767503e+00 2.746623e+01 2.001615e+01 5.784575e+00 1.358555e+01 1.551081e+01 2.295590e+01 1.728293e+01 1.325017e+01 1.729692e+01 5.000000e-02 2.682144e-01 3.075953e-01 4.007063e-01 1.577504e+00 3.222150e+00 7.742062e-01 7.398516e-01 1.530911e+00 7.964979e-01 1.527316e+00 1.255938e+00 1.703359e+00 5.000000e-02 5.000000e-02 5.000000e-02 9.277346e-02 1.198054e-01 2.143539e-01 8.676842e-02 5.000000e-02 3.330683e-01 4.927682e-01 2.962831e-01 1.947550e-01 2.130714e-01 5.000000e-02
<GCONST> 6.900822e+01
<STATE> 20
<MEAN> 39
 1.978728e+00 -2.320128e+01 -1.736729e+01 -1.770705e+01 8.258011e+00 8.088454e+00 1.176127e-01 -7.065673e+00 -9.414944e-01 5.526525e-01 -6.175148e+00 -5.146698e+00 9.084768e-01 9.517449e-01 1.651666e-01 -4.268837e-01 -8.939399e-01 -1.354522e-01 -4.716724e-01 -4.692914e-01 3.905881e-01 1.063051e-01 7.143800e-01 -5.802211e-02 5.457965e-01 -1.715552e-02 -6.441340e-02 -2.574632e-01 3.274449e-02 3.931332e-02 -2.224537e-01 -2.027190e-01 3.732516e-01 4.801819e-01 8.900895e-02 -2.397103e-01 -1.970574e-01 -2.166007e-01 -3.291819e-03
<VARIANCE> 39
 1.066822e+01 1.920538e+00 1.099597e+01 1.838222e+01 1.523713e+01 1.750715e+01 2.282363e+01 9.114241e+00 3.339319e+01 2.325760e+01 9.158630e+00 6.389685e+00 5.000000e-02 6.480473e-02 1.250449e-01 6.964761e-01 2.395727e+00 1.511259e+00 6.855370e-01 7.402169e-01 1.480002e+00 1.828109e+00 2.519440e+00 1.257643e+00 9.030176e-01 5.000000e-02 5.353966e-02 5.000000e-02 5.000000e-02 2.465263e-01 2.402528e-01 3.360286e-01 7.901029e-02 2.297942e-01 3.324534e-01 3.260380e-01 9.700081e-02 3.097589e-01 5.000000e-02
<GCONST> 6.757335e+01
<STATE> 21
<MEAN> 39
 3.814928e+00 -2.444990e+01 -1.850007e+01 -1.838282e+01 6.345049e+00 7.660870e+00 2.053974e+00 -3.580709e+00 2.138448e+00 -1.820396e-01 -7.129745e+00 -4.865821e+00 8.614234e-01 4.778088e-01 -1.896482e-01 -1.873201e-02 -9.589375e-01 -1.110886e+00 -4.486944e-01 1.010574e+00 2.134981e+00 1.852074e-02 -2.897413e-01 -5.849258e-01 1.808766e-01 -2.508762e-02 -2.982444e-01 -1.052669e-02 1.262674e-01 6.816752e-02 -1.354029e-01 -2.672098e-01 1.719630e-01 6.567215e-02 -2.142609e-01 -1.426445e-01 -6.806392e-02 -3.802352e-02 -3.087254e-03
<VARIANCE> 39
 1.541634e+01 4.054002e+00 1.301903e+01 1.619456e+01 2.740543e+01 6.034019e+00 3.161033e+01 1.842670e+01 7.777226e+00 3.995157e+00 4.137778e+00 3.542533e+00 5.000000e-02 2.698246e-01 4.400946e-01 5.242901e-01 1.395450e+00 1.464395e+00 1.820503e+00 3.243307e-01 9.198603e-01 1.758071e+00 1.911479e+00 4.341781e-01 6.415165e-01 5.000000e-02 5.000000e-02 5.000000e-02 7.994066e-02 3.753716e-01 2.312805e-01 9.457843e-02 1.944975e-01 1.258161e-01 2.114350e-01 2.754158e-01 2.195383e-01 2.418448e-01 5.000000e-02
<GCONST> 6.422511e+01
<STATE> 22
<MEAN> 39
 3.131364e+00 -2.464333e+01 -1.655278e+01 -2.205113e+01 5.113334e+00 5.271716e+00 2.858148e+00 9.677130e-01 -2.168779e-02 -1.376638e+00 -8.689133e+00 -3.602915e+00 8.158922e-01 -5.025735e-02 7.882091e-02 1.722023e-02 -3.369870e-01 -6.745047e-01 -1.516766e+00 3.882368e-02 5.712308e-01 -4.965717e-01 9.995461e-02 1.293014e-02 7.617446e-01 -2.883571e-02 -2.757543e-01 1.017528e-02 -9.885121e-02 4.273356e-01 3.117363e-01 -1.867256e-01 -6.753681e-01 -5.413088e-01 1.231299e-01 1.620297e-01 3.485152e-01 -1.523583e-01 -4.584631e-03
<VARIANCE> 39
 8.566845e+00 5.048076e+00 1.015408e+01 1.093092e+01 2.564442e+01 7.800581e+00 3.784876e+01 1.169282e+01 4.385612e+00 7.448142e+00 7.122070e+00 4.802383e+00 5.000000e-02 4.322318e-01 2.835703e-01 1.354169e-01 7.891025e-01 4.481783e-01 7.002251e-01 1.744906e+00 1.405639e+00 9.501742e-01 7.738944e-01 1.063194e+00 1.005880e+00 5.000000e-02 5.000000e-02 7.358716e-02 5.000000e-02 2.478402e-01 2.594640e-01 3.430251e-01 3.034624e-01 2.687730e-01 2.452311e-01 3.638790e-01 1.780276e-01 1.937197e-01 5.000000e-02
<GCONST> 6.403387e+01
<STATE> 23
<MEAN> 39
 2.869162e+00 -2.350112e+01 -1.844613e+01 -2.064023e+01 5.974262e+00 2.103618e+00 1.240497e+00 -3.252144e+00 -4.660297e-01 -1.505793e-01 -7.522261e+00 -2.392785e+00 7.616256e-01 -4.257489e-01 -8.550669e-02 -4.219042e-01 4.009917e-01 2.666311e-01 -1.028998e+00 -1.449721e+00 2.844914e-01 2.366627e-01 4.901437e-01 2.557224e-01 -6.410477e-01 -4.071536e-02 -5.483444e-02 -1.987655e-01 -1.207242e-02 4.366907e-01 2.870021e-02 3.930762e-01 -3.045568e-01 6.906141e-02 4.816125e-01 -1.138391e-01 4.598942e-02 -5.151778e-01 -7.003499e-03
<VARIANCE> 39
 3.743431e+00 5.444030e+00 9.212805e+00 1.528161e+01 2.078607e+01 1.469836e+01 2.952845e+01 1.689434e+01 1.307406e+00 5.966094e+00 9.107378e+00 1.028430e+01 5.000000e-02 1.203507e-01 3.635827e-01 5.795372e-01 1.512697e+00 9.989659e-01 1.354315e+00 4.720042e+00 2.068539e+00 1.599880e+00 1.039713e+00 1.069838e+00 7.668971e-01 5.000000e-02 5.000000e-02 1.079570e-01 5.713918e-02 5.591735e-01 1.626641e-01 2.011415e-01 4.759204e-01 4.106088e-01 4.415862e-01 1.303449e-01 2.072564e-01 1.374520e-01 5.000000e-02
<GCONST> 6.868015e+01
<STATE> 24
<MEAN> 39
 1.567982e+00 -2.487715e+01 -1.735509e+01 -2.223945e+01 5.120905e+00 2.324570e+00 -1.360581e+00 1.636659e+00 -3.748137e-01 -4.986215e-01 -7.656077e+00 -5.417459e+00 6.972502e-01 -3.100398e-01 -3.640375e-01 -7.736997e-03 1.282234e+00 -7.191533e-01 -2.536593e-01 -4.552856e-01 2.257907e-01 8.305445e-01 -5.030234e-01 1.863989e-01 -4.607016e-01 -5.317296e-02 3.377922e-01 1.904459e-01 -9.374782e-02 1.238827e+00 -1.925469e-01 2.858545e-01 4.332440e-01 -7.570136e-01 1.865585e-01 -3.956266e-01 1.815970e-01 3.120710e-01 -5.466701e-03
<VARIANCE> 39
 4.270403e+00 3.777124e+00 1.713317e+01 2.264839e+01 1.581383e+01 5.629234e+00 3.867033e+01 1.079197e+01 1.569717e+01 1.158841e+01 7.529894e+00 1.660492e+01 5.000000e-02 3.632855e-01 2.933587e-01 4.360781e-01 5.781286e+00 1.474201e+00 1.569443e+00 2.931938e+00 1.494712e+00 3.050178e+00 7.098073e-01 6.288114e-01 1.224226e+00 5.000000e-02 5.000000e-02 8.384348e-02 1.719524e-01 6.266137e-01 1.117172e-01 1.388074e-01 7.102532e-01 2.784264e-01 3.380589e-01 2.916355e-01 1.367563e-01 3.360542e-01 5.000000e-02
<GCONST> 7.461308e+01
<STATE> 25
<MEAN> 39
 2.704823e+00 -2.538845e+01 -1.896650e+01 -1.140573e+01 2.014876e+00 1.722643e+00 -2.964445e-02 -1.068552e+00 5.505671e+00 -1.020079e+00 -5.902535e+00 -4.769068e+00 5.347315e-01 8.058444e-01 7.768356e-01 -3.877702e-01 4.027163e+00 -8.059276e-02 -7.224682e-02 -1.315083e-01 -2.267652e+00 7.221963e-02 -1.333939e+00 7.542300e-01 1.341903e-01 -5.132012e-02 2.050217e-01 4.098480e-01 3.765452e-02 -3.140706e-01 3.834146e-01 -1.985566e-01 -2.985304e-02 -2.615564e-01 -7.722602e-01 -9.565880e-02 1.237539e-01 1.683772e-01 1.001520e-02
<VARIANCE> 39
 3.575483e+00 5.948087e+00 1.005785e+01 2.854305e+01 1.757424e+00 2.016754e+01 6.678110e+00 5.237420e+00 1.649443e+01 7.858621e+00 4.402186e+00 8.889530e+00 5.000000e-02 8.307707e-02 6.552879e-01 9.151784e-01 2.481071e+00 1.865967e+00 3.632568e-01 3.024787e+00 6.330875e-01 2.635005e+00 1.095530e+00 2.778048e-01 1.825983e+00 5.000000e-02 5.000000e-02 8.130102e-02 1.199642e-01 7.309667e-01 3.445711e-01 4.559612e-01 1.991058e-01 1.729796e-01 5.235708e-01 2.035164e-01 9.324818e-02 9.596099e-02 5.000000e-02
<GCONST> 6.549879e+01
<STATE> 26
<MEAN> 39
 4.997672e+00 -2.152861e+01 -1.983314e+01 -9.205463e+00 3.093854e+00 1.121904e+00 -6.008098e-01 -5.847086e+00 5.350181e-01 -4.861613e+00 -4.603185e+00 -4.902406e+00 4.929811e-01 4.372492e-01 9.409474e-01 3.528179e-02 1.626781e+00 3.827001e-01 -5.088397e-01 -8.636393e-02 -1.058738e+00 -6.693510e-01 -4.032187e-01 1.271790e+00 3.759754e-01 -2.545861e-02 -3.113388e-01 -2.210190e-01 9.630376e-02 -5.749459e-01 1.040533e-01 -4.236335e-02 9.910955e-02 5.496373e-01 2.213702e-01 5.503909e-01 7.557670e-02 2.789650e-02 4.128965e-03
<VARIANCE> 39
 1.413535e+00 1.009850e+01 5.932811e+00 9.286000e+00 1.083306e+01 8.944362e+00 4.895720e+00 1.845376e+00 1.157590e+01 1.074463e+01 4.415759e+00 6.429172e+00 5.000000e-02 4.101774e-01 8.809228e-01 4.570920e-01 6.475109e+00 1.665047e+00 1.376112e+00 6.215652e-01 7.912998e-01 1.844216e+00 1.249647e+00 3.936697e-01 5.070005e-01 5.000000e-02 5.000000e-02 1.463360e-01 7.607286e-02 2.072242e-01 2.768917e-01 1.331218e-01 4.070708e-01 5.000000e-02 1.658595e-01 1.443443e-01 6.584220e-02 1.340523e-01 5.000000e-02
<GCONST> 5.898671e+01
<STATE> 27
<MEAN> 39
 3.858283e+00 -2.267604e+01 -1.903715e+01 -5.526635e+00 3.620660e+00 -1.130985e+00 -1.033953e+00 -4.444415e+00 2.299872e+00 -4.040943e+00 -3.412671e+00 -4.125362e+00 4.465069e-01 -4.398395e-01 -7.237234e-02 -2.591466e-01 6.545109e-01 2.354542e-01 -5.934886e-01 2.116148e-01 1.059639e-01 1.304894e-01 3.976300e-01 9.078018e-01 9.172431e-02 -3.386893e-02 -2.322972e-01 -8.451386e-02 8.348900e-02 -8.912811e-01 2.619840e-02 1.126390e-01 8.150290e-02 2.478290e-01 2.646247e-02 1.982706e-01 -2.311459e-01 -9.407683e-02 4.774016e-03
<VARIANCE> 39
 3.349860e-01 3.981322e+00 6.820719e+00 4.012006e+00 6.785620e+00 2.989466e+00 3.105843e+00 8.591382e+00 4.389201e+00 7.123467e+00 3.440732e+00 4.429563e+00 5.000000e-02 2.723629e-01 4.439686e-01 4.209034e-01 1.675299e+00 5.209265e-01 1.746786e+00 1.466903e+00 3.193313e-01 2.675366e-01 1.195388e+00 5.108639e-01 8.039778e-01 5.000000e-02 5.000000e-02 7.511555e-02 5.000000e-02 6.630638e-01 1.713356e-01 2.493986e-01 7.263382e-02 1.338181e-01 1.724364e-01 2.500475e-01 5.000000e-02 1.825429e-01 5.000000e-02
<GCONST> 4.878526e+01
<STATE> 28
<MEAN> 39
 3.071758e+00 -2.095566e+01 -1.928714e+01 -7.567018e+00 5.318095e+00 1.143599e+00 7.440363e-01 -5.851434e+00 1.364157e+00 -2.552209e+00 -6.980121e-01 -3.960085e+00 3.918236e-01 -1.860859e-01 4.233114e-01 1.195778e-01 1.034841e-01 9.691080e-02 -5.571663e-01 -1.459933e-01 -2.130567e-01 2.188787e-01 8.807367e-02 -1.020180e-01 -1.929054e-01 -2.290882e-02 5.350183e-02 -1.006424e-01 -1.186677e-02 3.553347e-03 -1.914237e-01 -1.918952e-01 -3.273481e-02 2.753536e-01 -7.618609e-02 -4.278356e-02 -4.577268e-01 -7.538580e-02 3.580057e-03
<VARIANCE> 39
 1.492471e+00 3.707937e+00 7.052565e+00 1.270226e+01 5.356973e+00 2.190274e+00 1.200704e+01 7.833451e+00 4.187196e+00 4.301084e+00 9.063419e+00 6.088064e+00 5.000000e-02 5.000000e-02 2.310471e-01 5.655441e-01 1.854004e-01 3.406072e-01 8.889905e-01 7.021132e-01 6.852050e-01 7.176231e-01 7.771273e-01 4.506087e-01 3.779144e-01 5.000000e-02 5.000000e-02 1.156384e-01 5.000000e-02 5.000000e-02 9.935123e-02 1.222389e-01 2.119103e-01 6.341294e-02 1.360040e-01 1.377056e-01 1.691238e-01 1.465434e-01 5.000000e-02
<GCONST> 4.426690e+01
<STATE> 29
<MEAN> 39
 3.125437e+00 -2.135442e+01 -1.904195e+01 -5.303033e+00 4.093811e+00 -3.773275e+00 -1.810983e+00 -6.211592e+00 1.654504e+00 -2.796180e+00 -2.436885e+00 -3.758342e+00 3.660868e-01 -2.447470e-01 -1.590167e-02 1.729350e-01 5.137415e-01 8.024532e-02 -6.270882e-01 3.676188e-01 7.625952e-01 -6.128788e-02 2.755593e-01 -5.540165e-01 2.558940e-01 -1.589955e-02 1.150369e-02 6.885640e-02 2.925307e-01 1.490070e-01 1.181158e-01 2.639379e-01 9.838162e-02 3.113161e-01 -3.370398e-02 -1.080687e-02 -1.556693e-02 5.875459e-02 3.157573e-03
<VARIANCE> 39
 1.174377e+00 5.797838e+00 1.299501e+01 9.451286e+00 5.724120e+00 9.658361e+00 7.656450e+00 7.836629e+00 1.616740e+01 6.297955e+00 3.672868e+00 3.434172e+00 5.000000e-02 5.905405e-02 2.010807e-01 5.188628e-01 3.193149e-01 3.461256e-01 1.018038e+00 3.410594e-01 5.372284e-01 1.177596e+00 8.751835e-01 7.642961e-01 5.779427e-01 5.000000e-02 5.000000e-02 9.311441e-02 1.556514e-01 8.233190e-02 5.795069e-02 1.541956e-01 8.745745e-02 9.670364e-02 3.689640e-01 2.953458e-01 1.632567e-01 7.890823e-02 5.000000e-02
<GCONST> 4.913994e+01
<STATE> 30
<MEAN> 39
 2.297403e+00 -2.174700e+01 -1.874339e+01 -5.800358e+00 4.326698e+00 -1.481631e+00 1.973792e+00 -1.634945e+00 1.353317e+00 -1.188802e+00 -2.731217e+00 -3.502605e+00 3.348162e-01 -1.119323e-01 6.750616e-01 9.527982e-01 5.056901e-01 3.171418e-01 2.068357e-01 1.560835e-01 6.416622e-01 3.741788e-02 2.325408e-01 2.093610e-01 1.323823e-01 -1.121431e-02 6.273948e-02 2.669181e-01 2.519069e-01 -1.391933e-02 2.270988e-01 3.347023e-01 -1.518695e-01 -4.567465e-01 1.112057e-01 -2.844409e-01 2.821800e-01 -1.580766e-01 1.450519e-03
<VARIANCE> 39
 1.074244e+00 2.664555e+00 1.203892e+01 1.561667e+01 2.508701e+00 1.708612e+01 7.641972e+00 5.309036e+00 1.665185e+01 6.515400e+00 2.853778e+00 5.412481e+00 5.000000e-02 1.187838e-01 8.040380e-01 1.516225e+00 6.549691e-01 4.787465e-01 4.879068e-01 7.473301e-01 1.338606e+00 2.075013e+00 1.406914e+00 6.340389e-01 5.627864e-01 5.000000e-02 5.000000e-02 5.000000e-02 2.972189e-01 1.276827e-01 7.932154e-02 2.503228e-01 1.103759e-01 1.483989e-01 3.622787e-01 1.449704e-01 5.000000e-02 7.956184e-02 5.000000e-02
<GCONST> 5.432735e+01
<STATE> 31
<MEAN> 39
 2.261487e+00 -1.926531e+01 -1.563890e+01 -3.333169e+00 6.055629e+00 -3.355538e+00 -4.004290e-01 -2.789594e+00 1.974877e+00 -3.000746e+00 -2.766163e+00 -4.122134e+00 3.233571e-01 -9.923357e-02 6.137148e-01 1.070388e+00 4.319016e-01 7.637398e-01 1.025900e+00 -1.188951e-01 -3.244420e-01 1.554315e-01 -3.265292e-01 7.601552e-01 -2.234173e-01 -1.181135e-02 -1.437255e-01 -2.096681e-01 -1.955595e-01 -2.278339e-01 -1.930910e-01 1.771478e-01 -4.019224e-02 -1.973755e-01 -2.030397e-01 -6.073892e-02 1.234537e-01 -2.157816e-02 -2.277956e-03
<VARIANCE> 39
 1.637479e+00 8.367375e+00 1.874414e+01 8.476160e+00 5.163483e+00 5.081921e+00 1.210412e+01 1.328920e+01 1.179783e+01 1.242135e+01 8.317844e+00 5.690023e+00 5.000000e-02 1.838763e-01 7.100584e-01 2.604142e+00 7.163132e-01 4.227339e-01 1.151296e+00 6.397091e-01 1.165200e+00 1.735605e+00 1.019659e+00 4.420084e-01 1.614344e-01 5.000000e-02 5.000000e-02 2.188520e-01 1.845037e-01 1.759877e-01 6.137281e-02 1.431700e-01 1.870161e-01 2.165452e-01 2.341278e-01 2.392676e-01 1.370589e-01 5.000000e-02 5.000000e-02
<GCONST> 5.932353e+01
<STATE> 32
<MEAN> 39
 2.326050e+00 -1.905496e+01 -1.405708e+01 -3.877392e+00 6.818043e+00 1.907299e+00 7.701854e-01 -3.414921e+00 1.624438e+00 -3.557834e+00 6.046243e-02 -4.469108e+00 3.081307e-01 -6.893648e-01 -1.900692e-01 -1.863903e-02 -3.688219e-01 -1.178512e-01 1.865186e-01 1.391188e-01 9.501767e-02 -5.708557e-01 -4.777740e-01 1.038910e-01 -2.090825e-01 -1.979513e-02 -1.424585e-01 -8.943617e-02 -3.350053e-01 -2.840909e-01 -2.453124e-01 -4.833893e-01 1.577976e-01 1.363092e-01 -1.943882e-01 8.225588e-02 -3.897074e-01 1.518239e-01 -4.738121e-03
<VARIANCE> 39
 1.585336e+00 9.021072e+00 2.035581e+01 4.577674e+00 4.831791e+00 5.992172e+00 9.188115e+00 1.116594e+01 2.749663e+00 6.902307e+00 1.072064e+01 5.057486e+00 5.000000e-02 8.490816e-02 1.130515e+00 6.368827e-01 7.268372e-01 3.474522e-01 1.009542e+00 1.576367e+00 1.266200e+00 5.328937e-01 2.825118e-01 4.525858e-01 3.937125e-01 5.000000e-02 5.000000e-02 1.045329e-01 5.275435e-01 1.679088e-01 1.228204e-01 5.873979e-02 2.916903e-01 3.928825e-01 3.346986e-01 1.340876e-01 5.000000e-02 5.000000e-02 5.000000e-02
<GCONST> 5.385806e+01
<STATE> 33
<MEAN> 39
 2.519128e-01 -1.912601e+01 -1.488612e+01 -5.343667e+00 5.447533e+00 -1.324309e+00 -3.323311e-02 -3.599409e+00 -2.010889e-01 -3.329213e+00 -2.001620e+00 -4.350806e+00 2.442594e-01 -5.819910e-01 5.521950e-01 6.396189e-02 -6.200992e-01 -2.824367e-01 -4.979036e-01 2.128754e-01 -2.466093e-01 -4.536825e-01 -8.356126e-02 -5.659107e-01 2.460455e-01 -2.780303e-02 6.783245e-02 1.451886e-01 4.125791e-02 1.480053e-01 -7.807429e-02 -5.104812e-02 -1.457921e-01 -5.337287e-02 3.008818e-01 1.828926e-01 -1.360569e-02 -1.246295e-02 -1.499537e-03
<VARIANCE> 39
 1.003324e+00 7.990952e+00 6.020597e+00 6.632382e+00 5.005590e+00 4.972595e+00 1.082213e+01 7.037401e+00 1.283143e+01 8.415567e+00 1.057405e+01 1.092506e+01 5.000000e-02 2.578089e-01 2.884720e-01 1.817833e+00 6.743145e-01 6.323102e-01 4.719140e-01 2.188902e+00 2.165146e+00 1.592846e+00 8.722661e-01 2.322292e-01 3.173055e-01 5.000000e-02 5.000000e-02 7.239453e-02 1.241062e-01 1.258256e-01 1.114260e-01 1.955326e-01 4.556474e-01 2.337408e-01 1.907999e-01 1.145429e-01 2.082186e-01 7.472784e-02 5.000000e-02
<GCONST> 5.727671e+01
<STATE> 34
<MEAN> 39
 -1.111830e-02 -1.829946e+01 -1.548909e+01 -5.367148e+00 6.383039e+00 1.628443e-01 1.993491e+00 -3.199074e+00 5.137510e-01 -4.387969e+00 -2.824354e+00 -3.887055e+00 2.221315e-01 -3.451336e-01 3.767421e-01 3.037240e-01 1.955648e-01 -1.717815e-01 -1.034764e-01 -4.230316e-02 2.851779e-01 5.536236e-01 1.412936e-01 2.825475e-01 -6.010125e-02 -2.091696e-02 -1.349356e-01 -4.922560e-02 1.972771e-01 2.023477e-01 -4.068035e-02 6.388190e-02 -1.868917e-01 4.492503e-03 9.907488e-02 1.728757e-01 2.698023e-01 -3.331776e-02 -5.341536e-03
<VARIANCE> 39
 2.821238e+00 2.782270e+00 3.065611e+00 8.407119e+00 2.562041e+00 6.894788e+00 1.544387e+01 1.156064e+01 1.278133e+01 7.905668e+00 1.542086e+01 3.785752e+00 5.000000e-02 1.120544e-01 5.621712e-02 1.281576e+00 4.412085e-01 6.491147e-01 9.622923e-01 9.781091e-01 6.673269e-01 9.798897e-01 7.945884e-01 1.140805e+00 3.645898e-01 5.000000e-02 5.201460e-02 5.000000e-02 1.248914e-01 2.233975e-01 7.132225e-02 1.374130e-01 4.268951e-01 3.862548e-01 1.465850e-01 7.187144e-02 8.127777e-02 5.000000e-02 5.000000e-02
<GCONST> 5.105906e+01
<STATE> 35
<MEAN> 39
 -1.706737e+00 -1.733956e+01 -1.358557e+01 -4.496609e+00 4.306240e+00 -2.179561e+00 -1.222998e+00 -3.858811e+00 1.757960e+00 -3.103416e+00 -1.142615e+00 -4.014281e+00 1.231870e-01 -8.703316e-01 2.798839e-01 4.886912e-01 4.061917e-01 -4.082795e-01 9.997338e-02 -6.487539e-01 -6.892994e-01 -3.424989e-01 5.349761e-01 1.556316e-01 -1.203779e-01 -4.204880e-02 -7.524344e-02 1.521802e-01 1.859134e-01 6.004137e-02 2.460407e-01 2.563110e-01 3.353042e-01 -7.060235e-02 -2.115868e-01 -1.679629e-02 7.216883e-02 2.614197e-01 -6.077226e-04
<VARIANCE> 39
 2.630891e+00 6.726733e+00 7.046797e+00 6.395140e+00 5.888872e+00 1.119773e+01 8.460094e+00 6.684690e+00 6.356972e+00 8.515806e+00 2.561728e+00 4.756331e+00 5.000000e-02 9.826353e-02 3.874903e-01 1.601166e-01 6.881950e-01 2.404754e-01 4.725732e-01 9.477665e-01 7.644120e-01 2.059099e+00 5.004593e-01 7.071419e-01 2.089206e-01 5.000000e-02 5.000000e-02 7.036988e-02 1.379310e-01 1.101923e-01 5.864419e-02 1.132107e-01 2.573689e-01 9.466559e-02 1.262985e-01 1.044281e-01 1.157132e-01 5.521161e-02 5.000000e-02
<GCONST> 4.628685e+01
<STATE> 36
<MEAN> 39
 -3.380632e+00 -1.662889e+01 -1.288604e+01 -5.142342e+00 5.090795e+00 4.516146e-01 -2.398791e-01 -4.790658e+00 -4.492688e-01 -7.996210e-01 -5.800719e-01 -4.616258e+00 6.380067e-02 -9.788249e-01 9.711784e-01 1.370809e+00 3.633960e-01 6.849740e-01 6.671938e-01 8.110257e-01 -2.230027e-01 -2.715926e-01 -7.949866e-02 6.248685e-01 1.366525e+00 -3.809527e-02 9.291657e-02 2.836425e-01 3.937853e-01 6.764716e-03 7.791323e-02 -4.557101e-03 2.179869e-01 3.075066e-01 3.213056e-01 -3.959445e-01 -2.599378e-02 3.315569e-01 2.767097e-03
<VARIANCE> 39
 1.958946e+00 5.858286e+00 8.440831e+00 2.868459e+00 7.139656e+00 1.017491e+00 2.375302e+00 1.556988e+01 4.791909e+01 1.765530e+01 1.066702e+01 1.177846e+01 5.000000e-02 1.920987e-01 4.783650e-01 5.112259e-01 2.817418e-01 5.121117e-01 5.596108e-01 9.809949e-01 3.011252e-01 1.051566e+00 1.257508e+00 1.843986e+00 1.036502e+00 5.000000e-02 5.116012e-02 1.160901e-01 1.738407e-01 1.357705e-01 1.123461e-01 5.000000e-02 1.441371e-01 3.347568e-01 1.106781e+00 3.180785e-01 2.845261e-01 1.134772e-01 5.000000e-02
<GCONST> 5.805487e+01
<STATE> 37
<MEAN> 39
 -5.199569e+00 -1.453975e+01 -9.698133e+00 -3.506172e+00 5.636748e+00 1.177566e+00 2.017733e+00 -4.781527e+00 5.977724e-01 -2.552860e+00 1.785843e+00 4.700790e-01 -2.557667e-03 -5.569247e-01 1.250345e+00 1.745960e+00 5.416304e-01 1.402718e-01 3.165780e-01 3.997281e-01 4.454619e-01 8.110710e-01 -4.957915e-01 2.500708e-01 1.251003e+00 -2.726859e-02 2.828486e-01 1.268600e-01 5.132547e-02 -9.364264e-02 -2.290688e-01 -4.314103e-01 -1.569168e-01 2.545353e-01 1.505569e-01 4.779504e-02 -2.349519e-01 -5.193591e-01 7.929883e-03
<VARIANCE> 39
 3.034372e+00 3.406895e+00 7.670632e+00 8.461616e+00 1.337496e+01 1.042161e+01 4.351276e+00 3.542016e+00 7.039059e+00 3.052168e+00 2.873391e+01 1.860461e+01 5.000000e-02 2.856239e-01 7.929289e-01 1.588533e+00 5.737863e-01 6.349700e-01 4.177200e-01 1.619952e+00 2.746054e+00 5.771303e+00 1.853494e+00 1.625148e+00 4.908088e-01 5.000000e-02 6.899757e-02 5.000000e-02 1.108425e-01 1.534927e-01 1.357063e-01 1.286481e-01 1.588436e-01 2.189721e-01 2.481124e-01 1.225019e-01 4.462150e-01 2.049570e-01 5.000000e-02
<GCONST> 6.391635e+01
<STATE> 38
<MEAN> 39
 -4.554899e+00 -1.124772e+01 -5.710700e+00 -2.512590e+00 6.352893e+00 2.262926e-01 8.749960e-01 -4.333562e+00 1.989114e+00 -3.160014e+00 -9.695265e-01 -2.354840e-01 -4.726826e-03 -4.123915e-02 1.148142e+00 1.381132e+00 -1.412202e-01 -4.496349e-01 -9.404593e-01 1.683979e-01 7.099316e-01 5.689253e-02 6.368399e-02 -1.306653e-01 -3.730976e-01 -9.076457e-03 -1.272996e-02 -3.949480e-01 -5.310428e-01 -1.875993e-01 -1.406877e-01 -9.694014e-02 8.139299e-02 1.354479e-01 -3.588448e-01 1.021363e-01 1.247420e-01 -3.146838e-01 3.300301e-03
<VARIANCE> 39
 3.521484e+00 8.271255e+00 8.131225e+00 4.110997e+00 5.054396e+00 6.513200e+00 6.829283e+00 8.752156e+00 7.845387e+00 9.744740e+00 7.567765e+00 4.224267e+00 5.000000e-02 4.118114e-01 8.617408e-01 1.440120e+00 6.676379e-01 4.420497e-01 9.737824e-01 7.714608e-01 1.264446e+00 4.825349e-01 5.728568e-01 9.501921e-01 9.244112e-01 5.000000e-02 5.000000e-02 1.385218e-01 2.990187e-01 1.402888e-01 9.018191e-02 1.250838e-01 1.046520e-01 2.470993e-01 3.712010e-01 2.415200e-01 2.863582e-01 1.134506e-01 5.000000e-02
<GCONST> 5.947628e+01
<STATE> 39
<MEAN> 39
 -5.125754e+00 -1.160057e+01 -6.456813e+00 -4.112943e+00 3.923310e+00 -1.633308e+00 2.714192e+00 4.368114e-02 3.937897e-01 -2.473066e+00 2.766193e+00 -1.995942e+00 -3.769508e-02 -2.840255e-01 1.352162e-01 -3.361014e-02 -2.155628e-01 -9.164502e-02 -2.146185e-01 2.698730e-01 7.639161e-01 -3.457587e-01 2.440101e-01 9.284691e-01 -1.030022e-01 -1.722683e-02 1.047902e-01 -1.477305e-01 -1.438737e-01 6.450872e-03 3.683461e-02 1.386065e-01 -2.368106e-01 -4.924300e-01 -5.544959e-02 -7.698738e-02 -1.500359e-01 1.547508e-02 2.913881e-03
<VARIANCE> 39
 7.111405e-01 1.269779e+00 4.991196e+00 2.182839e+00 5.217701e+00 6.488351e+00 6.012119e+00 6.821948e+00 1.479129e+00 1.078371e+01 1.227952e+01 8.331066e+00 5.000000e-02 1.720735e-01 3.298596e-01 5.774024e-01 5.928157e-01 6.177700e-01 4.947739e-01 5.526231e-01 3.775725e-01 6.764365e-01 7.518054e-01 4.706326e-01 6.840866e-01 5.000000e-02 5.417572e-02 5.000000e-02 1.164592e-01 5.000000e-02 6.734866e-02 1.753763e-01 1.219417e-01 5.555316e-02 5.000000e-02 1.759114e-01 2.432082e-01 1.647131e-01 5.000000e-02
<GCONST> 4.266534e+01
<TRANSP> 40
 0.000000e+00 1.000000e+00 0.000000e+00 0.000000e+00 0.000000e+00 0.000000e+00 0.000000e+00 0.000000e+00 0.000000e+00 0.000000e+00 0.000000e+00 0.000000e+00 0.000000e+00 0.000000e+00 0.000000e+00 0.000000e+00 0.000000e+00 0.000000e+00 0.000000e+00 0.000000e+00 0.000000e+00 0.000000e+00 0.000000e+00 0.000000e+00 0.000000e+00 0.000000e+00 0.000000e+00 0.000000e+00 0.000000e+00 0.000000e+00 0.000000e+00 0.000000e+00 0.000000e+00 0.000000e+00 0.000000e+00 0.000000e+00 0.000000e+00 0.000000e+00 0.000000e+00 0.000000e+00
 0.000000e+00 5.546324e-01 4.453675e-01 0.000000e+00 0.000000e+00 0.000000e+00 0.000000e+00 0.000000e+00 0.000000e+00 0.000000e+00 0.000000e+00 0.000000e+00 0.000000e+00 0.000000e+00 0.000000e+00 0.000000e+00 0.000000e+00 0.000000e+00 0.000000e+00 0.000000e+00 0.000000e+00 0.000000e+00 0.000000e+00 0.000000e+00 0.000000e+00 0.000000e+00 0.000000e+00 0.000000e+00 0.000000e+00 0.000000e+00 0.000000e+00 0.000000e+00 0.000000e+00 0.000000e+00 0.000000e+00 0.000000e+00 0.000000e+00 0.000000e+00 0.000000e+00 0.000000e+00
 0.000000e+00 0.000000e+00 6.436201e-01 3.563798e-01 0.000000e+00 0.000000e+00 0.000000e+00 0.000000e+00 0.000000e+00 0.000000e+00 0.000000e+00 0.000000e+00 0.000000e+00 0.000000e+00 0.000000e+00 0.000000e+00 0.000000e+00 0.000000e+00 0.000000e+00 0.000000e+00 0.000000e+00 0.000000e+00 0.000000e+00 0.000000e+00 0.000000e+00 0.000000e+00 0.000000e+00 0.000000e+00 0.000000e+00 0.000000e+00 0.000000e+00 0.000000e+00 0.000000e+00 0.000000e+00 0.000000e+00 0.000000e+00 0.000000e+00 0.000000e+00 0.000000e+00 0.000000e+00
 0.000000e+00 0.000000e+00 0.000000e+00 4.444481e-01 5.555519e-01 0.000000e+00 0.000000e+00 0.000000e+00 0.000000e+00 0.000000e+00 0.000000e+00 0.000000e+00 0.000000e+00 0.000000e+00 0.000000e+00 0.000000e+00 0.000000e+00 0.000000e+00 0.000000e+00 0.000000e+00 0.000000e+00 0.000000e+00 0.000000e+00 0.000000e+00 0.000000e+00 0.000000e+00 0.000000e+00 0.000000e+00 0.000000e+00 0.000000e+00 0.000000e+00 0.000000e+00 0.000000e+00 0.000000e+00 0.000000e+00 0.000000e+00 0.000000e+00 0.000000e+00 0.000000e+00 0.000000e+00
 0.000000e+00 0.000000e+00 0.000000e+00 0.000000e+00 5.001531e-01 4.998469e-01 0.000000e+00 0.000000e+00 0.000000e+00 0.000000e+00 0.000000e+00 0.000000e+00 0.000000e+00 0.000000e+00 0.000000e+00 0.000000e+00 0.000000e+00 0.000000e+00 0.000000e+00 0.000000e+00 0.000000e+00 0.000000e+00 0.000000e+00 0.000000e+00 0.000000e+00 0.000000e+00 0.000000e+00 0.000000e+00 0.000000e+00 0.000000e+00 0.000000e+00 0.000000e+00 0.000000e+00 0.000000e+00 0.000000e+00 0.000000e+00 0.000000e+00 0.000000e+00 0.000000e+00 0.000000e+00
 0.000000e+00 0.000000e+00 0.000000e+00 0.000000e+00 0.000000e+00 5.834071e-01 4.165929e-01 0.000000e+00 0.000000e+00 0.000000e+00 0.000000e+00 0.000000e+00 0.000000e+00 0.000000e+00 0.000000e+00 0.000000e+00 0.000000e+00 0.000000e+00 0.000000e+00 0.000000e+00 0.000000e+00 0.000000e+00 0.000000e+00 0.000000e+00 0.000000e+00 0.000000e+00 0.000000e+00 0.000000e+00 0.000000e+00 0.000000e+00 0.000000e+00 0.000000e+00 0.000000e+00 0.000000e+00 0.000000e+00 0.000000e+00 0.000000e+00 0.000000e+00 0.000000e+00 0.000000e+00
 0.000000e+00 0.000000e+00 0.000000e+00 0.000000e+00 0.000000e+00 0.000000e+00 4.441232e-01 5.558768e-01 0.000000e+00 0.000000e+00 0.000000e+00 0.000000e+00 0.000000e+00 0.000000e+00 0.000000e+00 0.000000e+00 0.000000e+00 0.000000e+00 0.000000e+00 0.000000e+00 0.000000e+00 0.000000e+00 0.000000e+00 0.000000e+00 0.000000e+00 0.000000e+00 0.000000e+00 0.000000e+00 0.000000e+00 0.000000e+00 0.000000e+00 0.000000e+00 0.000000e+00 0.000000e+00 0.000000e+00 0.000000e+00 0.000000e+00 0.000000e+00 0.000000e+00 0.000000e+00
 0.000000e+00 0.000000e+00 0.000000e+00 0.000000e+00 0.000000e+00 0.000000e+00 0.000000e+00 3.750027e-01 6.249973e-01 0.000000e+00 0.000000e+00 0.000000e+00 0.000000e+00 0.000000e+00 0.000000e+00 0.000000e+00 0.000000e+00 0.000000e+00 0.000000e+00 0.000000e+00 0.000000e+00 0.000000e+00 0.000000e+00 0.000000e+00 0.000000e+00 0.000000e+00 0.000000e+00 0.000000e+00 0.000000e+00 0.000000e+00 0.000000e+00 0.000000e+00 0.000000e+00 0.000000e+00 0.000000e+00 0.000000e+00 0.000000e+00 0.000000e+00 0.000000e+00 0.000000e+00
 0.000000e+00 0.000000e+00 0.000000e+00 0.000000e+00 0.000000e+00 0.000000e+00 0.000000e+00 0.000000e+00 2.865293e-01 7.134706e-01 0.000000e+00 0.000000e+00 0.000000e+00 0.000000e+00 0.000000e+00 0.000000e+00 0.000000e+00 0.000000e+00 0.000000e+00 0.000000e+00 0.000000e+00 0.000000e+00 0.000000e+00 0.000000e+00 0.000000e+00 0.000000e+00 0.000000e+00 0.000000e+00 0.000000e+00 0.000000e+00 0.000000e+00 0.000000e+00 0.000000e+00 0.000000e+00 0.000000e+00 0.000000e+00 0.000000e+00 0.000000e+00 0.000000e+00 0.000000e+00
 0.000000e+00 0.000000e+00 0.000000e+00 0.000000e+00 0.000000e+00 0.000000e+00 0.000000e+00 0.000000e+00 0.000000e+00 1.672628e-01 8.327371e-01 0.000000e+00 0.000000e+00 0.000000e+00 0.000000e+00 0.000000e+00 0.000000e+00 0.000000e+00 0.000000e+00 0.000000e+00 0.000000e+00 0.000000e+00 0.000000e+00 0.000000e+00 0.000000e+00 0.000000e+00 0.000000e+00 0.000000e+00 0.000000e+00 0.000000e+00 0.000000e+00 0.000000e+00 0.000000e+00 0.000000e+00 0.000000e+00 0.000000e+00 0.000000e+00 0.000000e+00 0.000000e+00 0.000000e+00
 0.000000e+00 0.000000e+00 0.000000e+00 0.000000e+00 0.000000e+00 0.000000e+00 0.000000e+00 0.000000e+00 0.000000e+00 0.000000e+00 5.001431e-01 4.998569e-01 0.000000e+00 0.000000e+00 0.000000e+00 0.000000e+00 0.000000e+00 0.000000e+00 0.000000e+00 0.000000e+00 0.000000e+00 0.000000e+00 0.000000e+00 0.000000e+00 0.000000e+00 0.000000e+00 0.000000e+00 0.000000e+00 0.000000e+00 0.000000e+00 0.000000e+00 0.000000e+00 0.000000e+00 0.000000e+00 0.000000e+00 0.000000e+00 0.000000e+00 0.000000e+00 0.000000e+00 0.000000e+00
 0.000000e+00 0.000000e+00 0.000000e+00 0.000000e+00 0.000000e+00 0.000000e+00 0.000000e+00 0.000000e+00 0.000000e+00 0.000000e+00 0.000000e+00 5.448196e-01 4.551804e-01 0.000000e+00 0.000000e+00 0.000000e+00 0.000000e+00 0.000000e+00 0.000000e+00 0.000000e+00 0.000000e+00 0.000000e+00 0.000000e+00 0.000000e+00 0.000000e+00 0.000000e+00 0.000000e+00 0.000000e+00 0.000000e+00 0.000000e+00 0.000000e+00 0.000000e+00 0.000000e+00 0.000000e+00 0.000000e+00 0.000000e+00 0.000000e+00 0.000000e+00 0.000000e+00 0.000000e+00
 0.000000e+00 0.000000e+00 0.000000e+00 0.000000e+00 0.000000e+00 0.000000e+00 0.000000e+00 0.000000e+00 0.000000e+00 0.000000e+00 0.000000e+00 0.000000e+00 2.857139e-01 7.142861e-01 0.000000e+00 0.000000e+00 0.000000e+00 0.000000e+00 0.000000e+00 0.000000e+00 0.000000e+00 0.000000e+00 0.000000e+00 0.000000e+00 0.000000e+00 0.000000e+00 0.000000e+00 0.000000e+00 0.000000e+00 0.000000e+00 0.000000e+00 0.000000e+00 0.000000e+00 0.000000e+00 0.000000e+00 0.000000e+00 0.000000e+00 0.000000e+00 0.000000e+00 0.000000e+00
 0.000000e+00 0.000000e+00 0.000000e+00 0.000000e+00 0.000000e+00 0.000000e+00 0.000000e+00 0.000000e+00 0.000000e+00 0.000000e+00 0.000000e+00 0.000000e+00 0.000000e+00 3.167092e-01 6.832908e-01 0.000000e+00 0.000000e+00 0.000000e+00 0.000000e+00 0.000000e+00 0.000000e+00 0.000000e+00 0.000000e+00 0.000000e+00 0.000000e+00 0.000000e+00 0.000000e+00 0.000000e+00 0.000000e+00 0.000000e+00 0.000000e+00 0.000000e+00 0.000000e+00 0.000000e+00 0.000000e+00 0.000000e+00 0.000000e+00 0.000000e+00 0.000000e+00 0.000000e+00
 0.000000e+00 0.000000e+00 0.000000e+00 0.000000e+00 0.000000e+00 0.000000e+00 0.000000e+00 0.000000e+00 0.000000e+00 0.000000e+00 0.000000e+00 0.000000e+00 0.000000e+00 0.000000e+00 5.716661e-01 4.283339e-01 0.000000e+00 0.000000e+00 0.000000e+00 0.000000e+00 0.000000e+00 0.000000e+00 0.000000e+00 0.000000e+00 0.000000e+00 0.000000e+00 0.000000e+00 0.000000e+00 0.000000e+00 0.000000e+00 0.000000e+00 0.000000e+00 0.000000e+00 0.000000e+00 0.000000e+00 0.000000e+00 0.000000e+00 0.000000e+00 0.000000e+00 0.000000e+00
 0.000000e+00 0.000000e+00 0.000000e+00 0.000000e+00 0.000000e+00 0.000000e+00 0.000000e+00 0.000000e+00 0.000000e+00 0.000000e+00 0.000000e+00 0.000000e+00 0.000000e+00 0.000000e+00 0.000000e+00 4.450325e-01 5.549675e-01 0.000000e+00 0.000000e+00 0.000000e+00 0.000000e+00 0.000000e+00 0.000000e+00 0.000000e+00 0.000000e+00 0.000000e+00 0.000000e+00 0.000000e+00 0.000000e+00 0.000000e+00 0.000000e+00 0.000000e+00 0.000000e+00 0.000000e+00 0.000000e+00 0.000000e+00 0.000000e+00 0.000000e+00 0.000000e+00 0.000000e+00
 0.000000e+00 0.000000e+00 0.000000e+00 0.000000e+00 0.000000e+00 0.000000e+00 0.000000e+00 0.000000e+00 0.000000e+00 0.000000e+00 0.000000e+00 0.000000e+00 0.000000e+00 0.000000e+00 0.000000e+00 0.000000e+00 2.927756e-01 7.072244e-01 0.000000e+00 0.000000e+00 0.000000e+00 0.000000e+00 0.000000e+00 0.000000e+00 0.000000e+00 0.000000e+00 0.000000e+00 0.000000e+00 0.000000e+00 0.000000e+00 0.000000e+00 0.000000e+00 0.000000e+00 0.000000e+00 0.000000e+00 0.000000e+00 0.000000e+00 0.000000e+00 0.000000e+00 0.000000e+00
 0.000000e+00 0.000000e+00 0.000000e+00 0.000000e+00 0.000000e+00 0.000000e+00 0.000000e+00 0.000000e+00 0.000000e+00 0.000000e+00 0.000000e+00 0.000000e+00 0.000000e+00 0.000000e+00 0.000000e+00 0.000000e+00 0.000000e+00 4.401142e-01 5.598858e-01 0.000000e+00 0.000000e+00 0.000000e+00 0.000000e+00 0.000000e+00 0.000000e+00 0.000000e+00 0.000000e+00 0.000000e+00 0.000000e+00 0.000000e+00 0.000000e+00 0.000000e+00 0.000000e+00 0.000000e+00 0.000000e+00 0.000000e+00 0.000000e+00 0.000000e+00 0.000000e+00 0.000000e+00
 0.000000e+00 0.000000e+00 0.000000e+00 0.000000e+00 0.000000e+00 0.000000e+00 0.000000e+00 0.000000e+00 0.000000e+00 0.000000e+00 0.000000e+00 0.000000e+00 0.000000e+00 0.000000e+00 0.000000e+00 0.000000e+00 0.000000e+00 0.000000e+00 4.467545e-01 5.532455e-01 0.000000e+00 0.000000e+00 0.000000e+00 0.000000e+00 0.000000e+00 0.000000e+00 0.000000e+00 0.000000e+00 0.000000e+00 0.000000e+00 0.000000e+00 0.000000e+00 0.000000e+00 0.000000e+00 0.000000e+00 0.000000e+00 0.000000e+00 0.000000e+00 0.000000e+00 0.000000e+00
 0.000000e+00 0.000000e+00 0.000000e+00 0.000000e+00 0.000000e+00 0.000000e+00 0.000000e+00 0.000000e+00 0.000000e+00 0.000000e+00 0.000000e+00 0.000000e+00 0.000000e+00 0.000000e+00 0.000000e+00 0.000000e+00 0.000000e+00 0.000000e+00 0.000000e+00 5.434560e-01 4.565440e-01 0.000000e+00 0.000000e+00 0.000000e+00 0.000000e+00 0.000000e+00 0.000000e+00 0.000000e+00 0.000000e+00 0.000000e+00 0.000000e+00 0.000000e+00 0.000000e+00 0.000000e+00 0.000000e+00 0.000000e+00 0.000000e+00 0.000000e+00 0.000000e+00 0.000000e+00
 0.000000e+00 0.000000e+00 0.000000e+00 0.000000e+00 0.000000e+00 0.000000e+00 0.000000e+00 0.000000e+00 0.000000e+00 0.000000e+00 0.000000e+00 0.000000e+00 0.000000e+00 0.000000e+00 0.000000e+00 0.000000e+00 0.000000e+00 0.000000e+00 0.000000e+00 0.000000e+00 4.459539e-01 5.540461e-01 0.000000e+00 0.000000e+00 0.000000e+00 0.000000e+00 0.000000e+00 0.000000e+00 0.000000e+00 0.000000e+00 0.000000e+00 0.000000e+00 0.000000e+00 0.000000e+00 0.000000e+00 0.000000e+00 0.000000e+00 0.000000e+00 0.000000e+00 0.000000e+00
 0.000000e+00 0.000000e+00 0.000000e+00 0.000000e+00 0.000000e+00 0.000000e+00 0.000000e+00 0.000000e+00 0.000000e+00 0.000000e+00 0.000000e+00 0.000000e+00 0.000000e+00 0.000000e+00 0.000000e+00 0.000000e+00 0.000000e+00 0.000000e+00 0.000000e+00 0.000000e+00 0.000000e+00 4.986393e-01 5.013607e-01 0.000000e+00 0.000000e+00 0.000000e+00 0.000000e+00 0.000000e+00 0.000000e+00 0.000000e+00 0.000000e+00 0.000000e+00 0.000000e+00 0.000000e+00 0.000000e+00 0.000000e+00 0.000000e+00 0.000000e+00 0.000000e+00 0.000000e+00
 0.000000e+00 0.000000e+00 0.000000e+00 0.000000e+00 0.000000e+00 0.000000e+00 0.000000e+00 0.000000e+00 0.000000e+00 0.000000e+00 0.000000e+00 0.000000e+00 0.000000e+00 0.000000e+00 0.000000e+00 0.000000e+00 0.000000e+00 0.000000e+00 0.000000e+00 0.000000e+00 0.000000e+00 0.000000e+00 2.870760e-01 7.129240e-01 0.000000e+00 0.000000e+00 0.000000e+00 0.000000e+00 0.000000e+00 0.000000e+00 0.000000e+00 0.000000e+00 0.000000e+00 0.000000e+00 0.000000e+00 0.000000e+00 0.000000e+00 0.000000e+00 0.000000e+00 0.000000e+00
 0.000000e+00 0.000000e+00 0.000000e+00 0.000000e+00 0.000000e+00 0.000000e+00 0.000000e+00 0.000000e+00 0.000000e+00 0.000000e+00 0.000000e+00 0.000000e+00 0.000000e+00 0.000000e+00 0.000000e+00 0.000000e+00 0.000000e+00 0.000000e+00 0.000000e+00 0.000000e+00 0.000000e+00 0.000000e+00 0.000000e+00 5.454484e-01 4.545516e-01 0.000000e+00 0.000000e+00 0.000000e+00 0.000000e+00 0.000000e+00 0.000000e+00 0.000000e+00 0.000000e+00 0.000000e+00 0.000000e+00 0.000000e+00 0.000000e+00 0.000000e+00 0.000000e+00 0.000000e+00
 0.000000e+00 0.000000e+00 0.000000e+00 0.000000e+00 0.000000e+00 0.000000e+00 0.000000e+00 0.000000e+00 0.000000e+00 0.000000e+00 0.000000e+00 0.000000e+00 0.000000e+00 0.000000e+00 0.000000e+00 0.000000e+00 0.000000e+00 0.000000e+00 0.000000e+00 0.000000e+00 0.000000e+00 0.000000e+00 0.000000e+00 0.000000e+00 3.747629e-01 6.252370e-01 0.000000e+00 0.000000e+00 0.000000e+00 0.000000e+00 0.000000e+00 0.000000e+00 0.000000e+00 0.000000e+00 0.000000e+00 0.000000e+00 0.000000e+00 0.000000e+00 0.000000e+00 0.000000e+00
 0.000000e+00 0.000000e+00 0.000000e+00 0.000000e+00 0.000000e+00 0.000000e+00 0.000000e+00 0.000000e+00 0.000000e+00 0.000000e+00 0.000000e+00 0.000000e+00 0.000000e+00 0.000000e+00 0.000000e+00 0.000000e+00 0.000000e+00 0.000000e+00 0.000000e+00 0.000000e+00 0.000000e+00 0.000000e+00 0.000000e+00 0.000000e+00 0.000000e+00 4.446346e-01 5.553654e-01 0.000000e+00 0.000000e+00 0.000000e+00 0.000000e+00 0.000000e+00 0.000000e+00 0.000000e+00 0.000000e+00 0.000000e+00 0.000000e+00 0.000000e+00 0.000000e+00 0.000000e+00
 0.000000e+00 0.000000e+00 0.000000e+00 0.000000e+00 0.000000e+00 0.000000e+00 0.000000e+00 0.000000e+00 0.000000e+00 0.000000e+00 0.000000e+00 0.000000e+00 0.000000e+00 0.000000e+00 0.000000e+00 0.000000e+00 0.000000e+00 0.000000e+00 0.000000e+00 0.000000e+00 0.000000e+00 0.000000e+00 0.000000e+00 0.000000e+00 0.000000e+00 0.000000e+00 4.444081e-01 5.555919e-01 0.000000e+00 0.000000e+00 0.000000e+00 0.000000e+00 0.000000e+00 0.000000e+00 0.000000e+00 0.000000e+00 0.000000e+00 0.000000e+00 0.000000e+00 0.000000e+00
 0.000000e+00 0.000000e+00 0.000000e+00 0.000000e+00 0.000000e+00 0.000000e+00 0.000000e+00 0.000000e+00 0.000000e+00 0.000000e+00 0.000000e+00 0.000000e+00 0.000000e+00 0.000000e+00 0.000000e+00 0.000000e+00 0.000000e+00 0.000000e+00 0.000000e+00 0.000000e+00 0.000000e+00 0.000000e+00 0.000000e+00 0.000000e+00 0.000000e+00 0.000000e+00 0.000000e+00 4.448024e-01 5.551976e-01 0.000000e+00 0.000000e+00 0.000000e+00 0.000000e+00 0.000000e+00 0.000000e+00 0.000000e+00 0.000000e+00 0.000000e+00 0.000000e+00 0.000000e+00
 0.000000e+00 0.000000e+00 0.000000e+00 0.000000e+00 0.000000e+00 0.000000e+00 0.000000e+00 0.000000e+00 0.000000e+00 0.000000e+00 0.000000e+00 0.000000e+00 0.000000e+00 0.000000e+00 0.000000e+00 0.000000e+00 0.000000e+00 0.000000e+00 0.000000e+00 0.000000e+00 0.000000e+00 0.000000e+00 0.000000e+00 0.000000e+00 0.000000e+00 0.000000e+00 0.000000e+00 0.000000e+00 4.415071e-01 5.584929e-01 0.000000e+00 0.000000e+00 0.000000e+00 0.000000e+00 0.000000e+00 0.000000e+00 0.000000e+00 0.000000e+00 0.000000e+00 0.000000e+00
 0.000000e+00 0.000000e+00 0.000000e+00 0.000000e+00 0.000000e+00 0.000000e+00 0.000000e+00 0.000000e+00 0.000000e+00 0.000000e+00 0.000000e+00 0.000000e+00 0.000000e+00 0.000000e+00 0.000000e+00 0.000000e+00 0.000000e+00 0.000000e+00 0.000000e+00 0.000000e+00 0.000000e+00 0.000000e+00 0.000000e+00 0.000000e+00 0.000000e+00 0.000000e+00 0.000000e+00 0.000000e+00 0.000000e+00 4.943042e-01 5.056958e-01 0.000000e+00 0.000000e+00 0.000000e+00 0.000000e+00 0.000000e+00 0.000000e+00 0.000000e+00 0.000000e+00 0.000000e+00
 0.000000e+00 0.000000e+00 0.000000e+00 0.000000e+00 0.000000e+00 0.000000e+00 0.000000e+00 0.000000e+00 0.000000e+00 0.000000e+00 0.000000e+00 0.000000e+00 0.000000e+00 0.000000e+00 0.000000e+00 0.000000e+00 0.000000e+00 0.000000e+00 0.000000e+00 0.000000e+00 0.000000e+00 0.000000e+00 0.000000e+00 0.000000e+00 0.000000e+00 0.000000e+00 0.000000e+00 0.000000e+00 0.000000e+00 0.000000e+00 4.540025e-01 5.459975e-01 0.000000e+00 0.000000e+00 0.000000e+00 0.000000e+00 0.000000e+00 0.000000e+00 0.000000e+00 0.000000e+00
 0.000000e+00 0.000000e+00 0.000000e+00 0.000000e+00 0.000000e+00 0.000000e+00 0.000000e+00 0.000000e+00 0.000000e+00 0.000000e+00 0.000000e+00 0.000000e+00 0.000000e+00 0.000000e+00 0.000000e+00 0.000000e+00 0.000000e+00 0.000000e+00 0.000000e+00 0.000000e+00 0.000000e+00 0.000000e+00 0.000000e+00 0.000000e+00 0.000000e+00 0.000000e+00 0.000000e+00 0.000000e+00 0.000000e+00 0.000000e+00 0.000000e+00 4.451334e-01 5.548666e-01 0.000000e+00 0.000000e+00 0.000000e+00 0.000000e+00 0.000000e+00 0.000000e+00 0.000000e+00
 0.000000e+00 0.000000e+00 0.000000e+00 0.000000e+00 0.000000e+00 0.000000e+00 0.000000e+00 0.000000e+00 0.000000e+00 0.000000e+00 0.000000e+00 0.000000e+00 0.000000e+00 0.000000e+00 0.000000e+00 0.000000e+00 0.000000e+00 0.000000e+00 0.000000e+00 0.000000e+00 0.000000e+00 0.000000e+00 0.000000e+00 0.000000e+00 0.000000e+00 0.000000e+00 0.000000e+00 0.000000e+00 0.000000e+00 0.000000e+00 0.000000e+00 0.000000e+00 4.449114e-01 5.550886e-01 0.000000e+00 0.000000e+00 0.000000e+00 0.000000e+00 0.000000e+00 0.000000e+00
 0.000000e+00 0.000000e+00 0.000000e+00 0.000000e+00 0.000000e+00 0.000000e+00 0.000000e+00 0.000000e+00 0.000000e+00 0.000000e+00 0.000000e+00 0.000000e+00 0.000000e+00 0.000000e+00 0.000000e+00 0.000000e+00 0.000000e+00 0.000000e+00 0.000000e+00 0.000000e+00 0.000000e+00 0.000000e+00 0.000000e+00 0.000000e+00 0.000000e+00 0.000000e+00 0.000000e+00 0.000000e+00 0.000000e+00 0.000000e+00 0.000000e+00 0.000000e+00 0.000000e+00 4.471913e-01 5.528088e-01 0.000000e+00 0.000000e+00 0.000000e+00 0.000000e+00 0.000000e+00
 0.000000e+00 0.000000e+00 0.000000e+00 0.000000e+00 0.000000e+00 0.000000e+00 0.000000e+00 0.000000e+00 0.000000e+00 0.000000e+00 0.000000e+00 0.000000e+00 0.000000e+00 0.000000e+00 0.000000e+00 0.000000e+00 0.000000e+00 0.000000e+00 0.000000e+00 0.000000e+00 0.000000e+00 0.000000e+00 0.000000e+00 0.000000e+00 0.000000e+00 0.000000e+00 0.000000e+00 0.000000e+00 0.000000e+00 0.000000e+00 0.000000e+00 0.000000e+00 0.000000e+00 0.000000e+00 5.425258e-01 4.574743e-01 0.000000e+00 0.000000e+00 0.000000e+00 0.000000e+00
 0.000000e+00 0.000000e+00 0.000000e+00 0.000000e+00 0.000000e+00 0.000000e+00 0.000000e+00 0.000000e+00 0.000000e+00 0.000000e+00 0.000000e+00 0.000000e+00 0.000000e+00 0.000000e+00 0.000000e+00 0.000000e+00 0.000000e+00 0.000000e+00 0.000000e+00 0.000000e+00 0.000000e+00 0.000000e+00 0.000000e+00 0.000000e+00 0.000000e+00 0.000000e+00 0.000000e+00 0.000000e+00 0.000000e+00 0.000000e+00 0.000000e+00 0.000000e+00 0.000000e+00 0.000000e+00 0.000000e+00 3.752026e-01 6.247975e-01 0.000000e+00 0.000000e+00 0.000000e+00
 0.000000e+00 0.000000e+00 0.000000e+00 0.000000e+00 0.000000e+00 0.000000e+00 0.000000e+00 0.000000e+00 0.000000e+00 0.000000e+00 0.000000e+00 0.000000e+00 0.000000e+00 0.000000e+00 0.000000e+00 0.000000e+00 0.000000e+00 0.000000e+00 0.000000e+00 0.000000e+00 0.000000e+00 0.000000e+00 0.000000e+00 0.000000e+00 0.000000e+00 0.000000e+00 0.000000e+00 0.000000e+00 0.000000e+00 0.000000e+00 0.000000e+00 0.000000e+00 0.000000e+00 0.000000e+00 0.000000e+00 0.000000e+00 2.858910e-01 7.141090e-01 0.000000e+00 0.000000e+00
 0.000000e+00 0.000000e+00 0.000000e+00 0.000000e+00 0.000000e+00 0.000000e+00 0.000000e+00 0.000000e+00 0.000000e+00 0.000000e+00 0.000000e+00 0.000000e+00 0.000000e+00 0.000000e+00 0.000000e+00 0.000000e+00 0.000000e+00 0.000000e+00 0.000000e+00 0.000000e+00 0.000000e+00 0.000000e+00 0.000000e+00 0.000000e+00 0.000000e+00 0.000000e+00 0.000000e+00 0.000000e+00 0.000000e+00 0.000000e+00 0.000000e+00 0.000000e+00 0.000000e+00 0.000000e+00 0.000000e+00 0.000000e+00 0.000000e+00 4.997174e-01 5.002826e-01 0.000000e+00
 0.000000e+00 0.000000e+00 0.000000e+00 0.000000e+00 0.000000e+00 0.000000e+00 0.000000e+00 0.000000e+00 0.000000e+00 0.000000e+00 0.000000e+00 0.000000e+00 0.000000e+00 0.000000e+00 0.000000e+00 0.000000e+00 0.000000e+00 0.000000e+00 0.000000e+00 0.000000e+00 0.000000e+00 0.000000e+00 0.000000e+00 0.000000e+00 0.000000e+00 0.000000e+00 0.000000e+00 0.000000e+00 0.000000e+00 0.000000e+00 0.000000e+00 0.000000e+00 0.000000e+00 0.000000e+00 0.000000e+00 0.000000e+00 0.000000e+00 0.000000e+00 5.501278e-01 4.498722e-01
 0.000000e+00 0.000000e+00 0.000000e+00 0.000000e+00 0.000000e+00 0.000000e+00 0.000000e+00 0.000000e+00 0.000000e+00 0.000000e+00 0.000000e+00 0.000000e+00 0.000000e+00 0.000000e+00 0.000000e+00 0.000000e+00 0.000000e+00 0.000000e+00 0.000000e+00 0.000000e+00 0.000000e+00 0.000000e+00 0.000000e+00 0.000000e+00 0.000000e+00 0.000000e+00 0.000000e+00 0.000000e+00 0.000000e+00 0.000000e+00 0.000000e+00 0.000000e+00 0.000000e+00 0.000000e+00 0.000000e+00 0.000000e+00 0.000000e+00 0.000000e+00 0.000000e+00 0.000000e+00
<ENDHMM>
