~o
<STREAMINFO> 1 39
<VECSIZE> 39<NULLD><MFCC_E_D_A><DIAGC>
~h "Tie^p"
<BEGINHMM>
<NUMSTATES> 22
<STATE> 2
<MEAN> 39
 -5.428048e+00 -6.790808e+00 5.516098e-01 -6.273659e-01 6.921532e-01 -4.801651e+00 1.423261e+00 -2.007989e+00 1.807136e+00 -2.759264e+00 3.084939e+00 -3.288242e+00 1.887559e-02 -1.840405e-01 4.899209e-01 -1.924032e+00 -2.366805e-01 -3.403550e-02 -9.450324e-01 9.236408e-01 -4.657422e-01 -4.440911e-01 -6.592720e-01 1.041039e+00 -3.405654e-01 9.742171e-02 -3.683160e-01 -4.314046e-01 -9.245595e-01 -6.575819e-01 -9.326743e-01 -9.161119e-01 3.682037e-01 -3.185913e-02 3.045238e-01 3.232635e-01 1.964653e-01 3.948658e-01 5.929486e-02
<VARIANCE> 39
 2.476750e+00 1.759349e+00 2.701180e+00 5.701297e+00 1.224032e+01 9.005045e+00 4.429079e+00 1.197291e+01 7.377347e+00 3.744154e+00 9.022544e+00 8.257573e+00 5.000000e-02 8.406208e-01 3.646097e-01 4.359922e+00 1.867005e+00 2.009105e+00 2.107569e+00 2.089498e+00 2.652559e+00 7.485359e-01 1.474976e+00 1.376589e+00 1.193156e+00 5.000000e-02 8.120514e-02 1.316678e-01 2.127661e-01 4.929947e-01 7.854566e-01 2.542400e-01 3.081568e-01 3.768360e-01 5.650252e-02 3.767070e-01 3.343810e-01 2.655899e-01 5.000000e-02
<GCONST> 7.103609e+01
<STATE> 3
<MEAN> 39
 -8.425296e+00 -6.823281e+00 -9.859862e+00 -2.820492e+00 -2.454241e+00 -9.786608e+00 4.320021e+00 -5.878808e+00 3.203248e-01 -5.009147e+00 6.758974e+00 -1.943255e+00 4.481579e-01 -8.034679e-01 -1.688834e+00 -2.366353e+00 -3.276906e+00 -5.129467e+00 -4.148496e+00 1.325320e+00 6.096145e-01 8.149081e-01 1.880046e+00 6.340380e-01 6.144421e-01 2.358596e-01 5.610637e-02 -7.668908e-01 1.080181e+00 -8.993894e-01 -8.563879e-01 -1.498093e-01 -2.741623e-02 6.918567e-01 6.065741e-01 1.474784e+00 -7.114251e-01 -5.113612e-02 5.115857e-03
<VARIANCE> 39
 1.361672e+01 6.792728e+00 5.165563e+01 1.627093e+01 6.525753e+01 5.538912e+01 2.653312e+01 1.258531e+01 3.368851e+00 1.346204e+01 1.019146e+01 1.844590e+01 7.726347e-02 5.221479e-01 7.479912e-01 1.872003e+00 1.299149e+00 2.483634e+00 2.846941e+00 1.365764e+00 1.952894e+00 9.960594e-01 2.794291e+00 2.824592e+00 1.837927e+00 5.000000e-02 2.215224e-01 1.349715e-01 8.286243e-01 5.910693e-01 1.086533e+00 7.720209e-01 2.394307e-01 7.888123e-01 1.027953e-01 7.216918e-01 2.098861e-01 5.277053e-01 5.000000e-02
<GCONST> 9.212920e+01
<STATE> 4
<MEAN> 39
 -8.640404e+00 -1.451575e+01 -7.197312e+00 -1.508786e+01 -1.750288e+01 -1.911487e+01 6.848648e+00 2.481952e+00 5.102890e+00 6.385950e+00 3.869088e+00 -9.160314e-01 9.230419e-01 -4.558178e-01 -2.209028e+00 1.782157e+00 -3.664260e+00 -2.848313e+00 -1.001397e+00 6.529983e-01 1.806437e+00 1.271185e+00 4.711295e+00 -1.740958e+00 -2.850132e-01 1.118070e-01 1.343823e-01 4.735424e-01 7.808090e-01 7.879551e-01 1.407335e+00 1.371279e+00 -1.977517e-01 -5.038467e-01 -2.083462e-01 -3.460372e-01 -4.290827e-01 -4.031128e-01 -5.732317e-02
<VARIANCE> 39
 6.956738e+00 5.256131e+00 2.088202e+01 1.201091e+01 1.855241e+01 3.112926e+01 3.330928e+01 1.687946e+01 5.785383e+00 3.223596e+01 2.824862e+01 1.641571e+01 5.000000e-02 1.015664e+00 1.225264e+00 1.215690e+00 1.900171e+00 4.843929e+00 2.408108e+00 1.602839e+00 3.333130e+00 5.213599e-01 3.953313e+00 1.085607e+00 2.617700e+00 5.000000e-02 1.087312e-01 1.987959e-01 5.424852e-01 3.011617e-01 3.437701e-01 2.753543e-01 1.623576e-01 4.014445e-01 7.759779e-02 1.081199e+00 4.540659e-01 3.162512e-01 5.000000e-02
<GCONST> 8.767503e+01
<STATE> 5
<MEAN> 39
 -9.072820e+00 -1.591980e+01 -3.655163e+00 -1.803967e+01 -1.579227e+01 -1.684709e+01 8.966228e+00 1.510756e+00 5.936767e+00 1.286765e+01 8.756292e-01 -2.463986e+00 9.921109e-01 -4.716770e-02 -2.472427e-01 1.484825e+00 -1.003933e+00 1.936510e-03 1.442739e+00 4.161296e-01 -1.450850e-01 3.126986e-01 2.672076e-01 -1.219334e+00 -5.599301e-01 1.006789e-02 -1.249909e-02 5.429669e-01 -4.095730e-01 6.418576e-01 4.224314e-01 4.089415e-01 -2.871394e-01 -3.928380e-01 -3.329966e-01 -1.483177e+00 1.529588e-01 9.129285e-03 -2.415654e-02
<VARIANCE> 39
 2.918160e+00 3.084213e+00 1.366490e+01 9.674554e+00 1.799905e+01 5.221606e+01 2.950492e+01 2.185941e+01 7.254647e+00 1.548190e+01 1.777236e+01 3.636429e+00 5.000000e-02 1.731654e-01 9.635075e-01 6.908283e-01 3.014744e-01 2.479232e-01 3.151000e-01 6.981378e-01 5.471528e-01 2.700183e-01 2.434986e+00 7.139486e-01 3.880698e-01 5.000000e-02 6.762229e-02 2.399092e-01 1.429972e-01 1.452875e-01 4.731805e-01 4.597836e-01 9.141744e-02 1.158408e-01 5.000000e-02 5.850762e-01 1.347913e-01 1.778013e-01 5.000000e-02
<GCONST> 6.207083e+01
<STATE> 6
<MEAN> 39
 -1.012533e+01 -1.541876e+01 -2.147674e+00 -1.982627e+01 -1.631486e+01 -1.261808e+01 7.885449e+00 1.085650e+00 5.346194e+00 8.350186e+00 -2.673768e+00 -4.587453e+00 9.618409e-01 -1.984327e-01 8.439156e-02 1.083842e-01 -9.009492e-02 1.977957e-01 8.525712e-01 -3.561131e-01 -8.813757e-01 -5.613003e-01 -1.113114e+00 -9.531050e-01 -7.268422e-01 -8.952857e-03 1.163532e-01 4.150622e-02 -1.469191e-01 1.553112e-01 2.243914e-01 -2.685443e-01 4.417607e-02 9.425002e-02 -1.893105e-01 1.238669e-01 4.149835e-02 -8.188853e-02 -1.863228e-03
<VARIANCE> 39
 5.226379e+00 3.049642e+00 8.330942e+00 7.468197e+00 2.170372e+01 2.586350e+01 3.498699e+01 1.879795e+01 8.460305e+00 9.858873e+00 1.358914e+01 1.142044e+01 5.000000e-02 2.585692e-01 4.294033e-01 1.947806e-01 5.211585e-01 7.631522e-01 1.049359e+00 8.250745e-01 3.318126e-01 6.110190e-01 7.986458e-01 6.738532e-01 3.817582e-01 5.000000e-02 6.031715e-02 1.507539e-01 1.060418e-01 9.344851e-02 5.000000e-02 8.755185e-02 8.961510e-02 1.772276e-01 5.000000e-02 2.273130e-01 1.555669e-01 5.594753e-02 5.000000e-02
<GCONST> 5.568903e+01
<STATE> 7
<MEAN> 39
 -1.017635e+01 -1.531521e+01 -2.106071e+00 -1.945100e+01 -1.595933e+01 -1.259422e+01 6.495088e+00 -2.651076e+00 4.039869e+00 7.728817e+00 -3.818950e+00 -5.571642e+00 9.571134e-01 5.959934e-02 2.576956e-01 7.308848e-02 -1.593660e-01 3.878839e-01 -7.578448e-02 2.779690e-01 9.217926e-02 -4.447410e-01 -1.028253e-01 -1.031367e+00 -1.153565e+00 -2.232408e-03 1.523630e-01 -4.488151e-02 6.484744e-02 3.805968e-02 1.384208e-02 5.332799e-02 3.026171e-01 5.027684e-01 3.451121e-02 -6.244552e-02 1.187209e-01 1.285366e-01 -1.951616e-03
<VARIANCE> 39
 4.318347e+00 1.369645e+00 8.854671e+00 1.400231e+01 2.951498e+01 1.498240e+01 1.013352e+01 1.368304e+01 1.479578e+01 5.884295e+00 1.046900e+01 1.366575e+01 5.000000e-02 2.071065e-01 2.442949e-01 2.135491e-01 1.657120e-01 1.381894e+00 1.076447e+00 1.119946e-01 6.932153e-01 4.489646e-01 4.210128e-01 2.770087e-01 3.499799e-01 5.000000e-02 5.000000e-02 1.229834e-01 6.993807e-02 7.516832e-02 9.135385e-02 7.149485e-02 1.148302e-01 6.204270e-02 7.645567e-02 1.032878e-01 1.324512e-01 9.529545e-02 5.000000e-02
<GCONST> 4.772935e+01
<STATE> 8
<MEAN> 39
 -9.984864e+00 -1.545104e+01 -1.225627e+00 -1.891842e+01 -1.654585e+01 -9.405935e+00 8.954006e+00 -1.201803e+00 1.956792e+00 6.682221e+00 -6.481102e+00 -6.952814e+00 9.464502e-01 5.611780e-01 -4.319403e-01 3.697442e-01 6.886986e-02 8.456046e-01 2.664053e-01 7.134926e-01 4.243848e-02 -6.618518e-01 -9.255702e-01 -6.983153e-01 -4.474180e-01 -1.320930e-02 2.585657e-01 -2.760606e-01 5.719734e-02 9.174605e-02 5.816897e-02 -2.875127e-01 -2.163792e-01 2.167765e-02 -1.610124e-02 -4.053156e-01 1.470100e-01 2.737947e-01 -6.300569e-03
<VARIANCE> 39
 1.667033e+00 5.833189e+00 2.608136e+01 2.564124e+01 3.126670e+01 1.686791e+01 8.380849e+00 2.287269e+01 2.432869e+01 1.223207e+01 1.713967e+01 1.394548e+01 5.000000e-02 1.811349e-01 7.461305e-01 4.474101e-01 5.822670e-01 1.210376e+00 1.666589e+00 4.337306e-01 1.122327e+00 9.678061e-01 8.060691e-01 5.524742e-01 4.703218e-01 5.000000e-02 5.000000e-02 5.000000e-02 6.786241e-02 5.914961e-02 2.548778e-01 4.348218e-01 9.996168e-02 2.126165e-01 1.600535e-01 8.768763e-02 6.771516e-02 1.150533e-01 5.000000e-02
<GCONST> 6.252400e+01
<STATE> 9
<MEAN> 39
 -8.753575e+00 -1.696954e+01 -6.758260e-01 -1.972388e+01 -1.291947e+01 -1.207057e+01 9.243725e+00 -1.982570e+00 1.316973e+00 4.182325e+00 -7.291310e+00 -8.604549e+00 9.110805e-01 1.189071e+00 -1.044491e+00 3.674834e-01 3.318453e-01 5.973712e-01 -1.310097e+00 -8.236790e-02 8.496241e-01 -5.107266e-01 -1.805418e+00 -8.985206e-02 2.745247e-01 -2.558883e-02 4.211358e-01 -4.677230e-02 2.605272e-01 3.244650e-01 -5.256695e-01 2.174045e-01 -7.882999e-01 -2.538871e-01 9.827715e-03 -3.332075e-02 3.478638e-01 4.535945e-01 -1.349014e-02
<VARIANCE> 39
 4.730287e+00 6.948615e+00 2.044284e+01 4.797234e+01 2.501771e+01 1.269876e+01 4.032910e+00 1.942321e+01 4.931648e+01 1.042567e+01 3.080058e+01 2.186340e+01 5.000000e-02 3.392043e-01 1.075882e+00 5.215557e-01 1.145267e+00 3.159625e+00 2.915627e+00 3.996117e-01 2.100160e+00 6.877762e-01 7.045969e-01 1.784553e-01 1.708129e-01 5.000000e-02 5.069662e-02 6.352996e-02 1.527863e-01 3.244808e-01 3.641483e-01 1.631462e-01 1.309159e-01 3.597473e-01 6.357591e-01 1.328204e-01 1.033359e-01 1.448240e-01 5.000000e-02
<GCONST> 7.095972e+01
<STATE> 10
<MEAN> 39
 -5.132303e+00 -2.033665e+01 2.968800e-01 -1.857546e+01 -1.098153e+01 -1.484250e+01 8.306003e+00 1.289623e+00 3.195291e-01 2.563966e-01 -7.315207e+00 -6.685293e+00 8.418873e-01 2.090575e+00 -5.635248e-01 1.177787e+00 1.388201e+00 -8.641232e-01 5.052665e-01 -2.291003e+00 -5.506757e-01 -2.539417e-02 -1.090599e+00 3.917135e-01 1.036542e+00 -5.951726e-02 -1.272917e-02 4.611363e-01 4.687465e-01 4.075792e-01 -7.786992e-01 1.121224e+00 -4.026430e-01 -5.833054e-01 4.295117e-01 6.436097e-01 5.762616e-01 3.009827e-01 -1.688687e-02
<VARIANCE> 39
 9.587685e+00 1.426845e+01 2.785062e+01 4.854270e+01 2.315662e+01 1.616498e+01 1.142574e+01 1.728177e+01 3.713765e+01 2.055387e+01 1.638621e+01 1.159548e+01 5.000000e-02 7.206644e-01 1.066032e+00 1.343098e+00 2.738513e+00 2.038090e+00 2.785833e+00 1.853430e+00 2.303603e+00 2.305466e+00 1.176177e+00 8.259010e-01 4.714279e-01 5.000000e-02 7.379783e-02 1.748145e-01 2.436863e-01 5.025960e-01 7.587799e-01 2.760134e-01 2.617310e-01 4.577766e-01 5.077507e-01 4.460143e-01 1.346115e-01 1.482653e-01 5.000000e-02
<GCONST> 8.665957e+01
<STATE> 11
<MEAN> 39
 -3.299979e-02 -1.824735e+01 5.598824e+00 -1.277140e+01 -1.709044e+01 -7.281819e+00 1.312626e+00 -4.623262e+00 1.847585e+00 8.285001e-01 -4.081680e+00 -4.488893e+00 6.402643e-01 7.680496e-01 6.516029e-01 2.053792e+00 1.676541e+00 -2.019390e+00 2.942039e+00 -8.464504e-01 -1.410667e+00 9.065124e-01 8.254521e-01 2.090654e+00 1.100100e+00 -8.514189e-02 -6.019836e-01 2.318325e-01 -4.847694e-01 -2.974095e-01 2.666512e-01 -5.896532e-03 1.127264e+00 3.511829e-01 -9.502076e-02 1.797073e-01 -1.236141e-01 -2.922324e-01 8.063210e-03
<VARIANCE> 39
 1.520802e+01 8.598960e+00 2.266385e+01 1.610731e+01 2.126908e+01 2.721602e+01 1.566143e+01 2.378190e+01 1.803477e+01 1.501578e+01 2.191024e+01 7.023263e+00 5.000000e-02 5.095927e-01 8.062035e-01 2.399542e+00 2.535475e+00 2.902025e+00 8.344815e-01 2.693205e+00 1.685821e+00 3.093180e+00 2.451855e+00 1.912050e+00 1.089789e+00 5.000000e-02 9.398292e-02 1.310460e-01 2.608345e-01 2.817410e-01 4.627451e-01 3.037307e-01 4.410916e-01 5.208409e-01 4.847612e-01 3.331511e-01 4.144772e-01 1.045353e-01 5.000000e-02
<GCONST> 8.705330e+01
<STATE> 12
<MEAN> 39
 -1.359492e+00 -1.865060e+01 5.629563e+00 -1.204333e+01 -2.125775e+01 -5.416796e+00 3.705336e+00 -5.008691e+00 3.929200e+00 3.266125e+00 7.225535e-01 -1.424128e+00 5.473158e-01 -9.453817e-02 4.557915e-01 -2.164127e-02 2.720642e-01 3.837416e-01 6.935459e-01 1.203205e+00 6.704991e-01 -3.372053e-01 -5.693304e-01 1.821910e-01 4.784432e-02 -3.546254e-02 -1.925512e-01 8.797662e-02 -5.961816e-01 -6.013715e-02 1.041484e+00 -5.630994e-01 4.913048e-01 2.978402e-01 -1.331700e-01 -3.261726e-01 -4.425797e-01 -7.089076e-01 1.089969e-02
<VARIANCE> 39
 1.582984e+01 9.685383e+00 1.141127e+01 1.926745e+01 3.049288e+01 3.114119e+01 1.130231e+01 6.890716e+00 7.886789e+00 1.064213e+01 9.559539e-01 5.456240e+00 5.000000e-02 1.537406e-01 2.616122e-01 8.655600e-02 9.795247e-01 2.937536e+00 4.657356e-01 1.376810e+00 1.846701e+00 2.726183e+00 1.862552e+00 6.930317e-01 1.565482e+00 5.000000e-02 5.000000e-02 7.857222e-02 1.802657e-01 5.812984e-01 4.641743e-01 2.787928e-01 2.976283e-01 2.559862e-01 9.756990e-02 4.828930e-01 3.333636e-01 2.229542e-01 5.000000e-02
<GCONST> 6.961136e+01
<STATE> 13
<MEAN> 39
 -4.437955e-01 -1.662150e+01 7.391200e+00 -9.383867e+00 -1.621528e+01 -2.018729e+00 7.103311e+00 -4.296845e+00 3.328401e+00 1.473644e+00 -1.543843e+00 -4.241914e+00 4.396763e-01 -9.758622e-02 4.363920e-01 -6.926543e-01 3.776416e-01 4.175585e-01 1.387633e-01 2.160438e-01 -2.483628e-01 5.343765e-01 3.980124e-01 1.749410e-01 -4.916413e-01 -2.280327e-02 -9.334504e-02 -4.640513e-02 -2.478568e-01 -2.511628e-01 -1.282641e-01 -4.033116e-01 -4.444192e-01 -6.094289e-05 1.878437e-02 1.932100e-01 -5.132930e-02 -1.301285e-01 2.965386e-03
<VARIANCE> 39
 1.043563e+01 4.638203e+00 1.849121e+01 1.749841e+01 1.356836e+01 2.543480e+01 1.686084e+01 1.534765e+01 1.456275e+01 1.226097e+01 1.409315e+01 9.148808e+00 5.000000e-02 2.088529e-01 2.788525e-01 4.849501e-01 7.225744e-01 2.373700e+00 1.495335e+00 4.789716e+00 2.638620e+00 7.666429e-01 1.904329e+00 1.715881e+00 7.231466e-01 5.000000e-02 5.136739e-02 5.000000e-02 5.000000e-02 1.390428e-01 6.287370e-01 2.613918e-01 7.848834e-01 6.493284e-01 2.098871e-01 3.927866e-01 3.375414e-01 1.288170e-01 5.000000e-02
<GCONST> 7.525474e+01
<STATE> 14
<MEAN> 39
 -4.568830e+00 -1.558404e+01 2.874186e+00 -1.260896e+01 -1.602680e+01 -6.339528e+00 4.368243e+00 -5.137234e+00 3.168392e+00 1.930057e+00 -1.981541e+00 -8.600892e+00 5.284101e-01 1.575267e-01 5.202265e-02 -6.509501e-01 -1.724869e-01 4.237821e-01 -6.710724e-01 8.254015e-02 1.364964e-01 -4.052007e-01 -1.180299e-01 -6.076040e-01 -7.761667e-01 -2.176844e-02 2.583948e-01 -1.584802e-01 2.728269e-01 1.630923e-02 8.537728e-02 -8.008390e-02 3.438702e-01 3.511588e-01 -1.948158e-02 -4.770889e-03 -1.032651e-01 5.676895e-01 1.509392e-03
<VARIANCE> 39
 2.272534e+01 4.095195e+00 1.043887e+01 3.320678e+01 6.312923e+00 8.080723e+00 1.487782e+01 1.184636e+01 9.193469e+00 6.785630e+00 1.319769e+01 2.464903e+01 7.915703e-02 8.565366e-01 2.202128e+00 8.039630e-01 1.170920e+00 2.159407e+00 1.998115e+00 2.914063e+00 1.967690e+00 2.676411e-01 5.241142e-01 7.817160e-01 1.963342e+00 5.000000e-02 1.004980e-01 6.278454e-02 6.206363e-02 1.480030e-01 3.009180e-01 5.589950e-01 8.172360e-01 5.160936e-01 2.691427e-01 1.564346e-01 5.715312e-02 4.450111e-01 5.000000e-02
<GCONST> 7.555898e+01
<STATE> 15
<MEAN> 39
 -9.162412e-01 -1.583806e+01 1.934357e+00 -1.262395e+01 -1.372124e+01 -8.063216e+00 4.490050e+00 -4.082748e+00 3.433536e+00 2.598970e+00 -4.193410e+00 -6.928860e+00 4.849669e-01 5.489293e-01 1.700433e-01 1.567659e-01 1.049700e+00 -3.545142e-01 -4.769754e-01 -1.520106e-01 5.159301e-01 -5.443780e-02 2.413362e-01 4.911130e-01 7.729960e-01 -4.342878e-02 -1.940403e-01 6.552652e-02 2.363864e-01 4.109396e-01 -1.643928e-01 4.652123e-01 7.422742e-02 -2.370818e-01 -1.875564e-02 -1.212798e-01 4.541039e-01 9.346901e-02 -3.547366e-03
<VARIANCE> 39
 6.671555e+00 5.809308e+01 6.607999e+00 2.040496e+01 1.706784e+01 4.481630e+01 1.453282e+01 6.649174e+00 6.091736e+00 3.316931e+00 1.627466e+01 4.735641e+00 5.843414e-02 1.857477e+00 1.770940e+00 3.584117e-01 2.189498e+00 2.582919e+00 4.614530e+00 2.028742e+00 1.270835e+00 7.817129e-01 2.187029e-01 8.424011e-01 2.355822e+00 5.000000e-02 1.066853e-01 5.036362e-01 6.279723e-02 2.631081e-01 7.309104e-01 8.769313e-01 3.245874e-01 1.443935e-01 8.625844e-02 5.000000e-02 7.509727e-02 4.596427e-01 5.000000e-02
<GCONST> 7.621942e+01
<STATE> 16
<MEAN> 39
 -1.237182e+00 -1.573475e+01 3.944956e+00 -8.051064e+00 -1.727298e+01 -4.886453e+00 7.846861e+00 -1.936709e+00 4.229141e+00 3.130838e+00 -1.849643e-01 -4.435894e+00 3.134708e-01 -3.228565e-01 7.508097e-01 2.142155e-02 6.209799e-01 9.884100e-01 5.834332e-01 -2.300313e-01 -4.890926e-01 -1.197018e-01 7.339633e-02 5.609429e-01 7.501250e-01 -2.876071e-02 -9.361979e-02 1.362532e-01 -1.422527e-01 -1.503509e-02 6.349664e-01 -1.997904e-01 -3.997425e-01 -3.046573e-01 -2.151840e-01 -5.208464e-02 -6.365045e-02 1.876756e-02 6.577368e-04
<VARIANCE> 39
 3.749211e+00 1.040670e+01 1.150501e+01 6.236873e+00 1.854336e+01 8.741562e+00 7.900206e+00 4.630956e+00 2.361353e+01 9.673038e+00 1.612482e+01 6.850643e+00 5.000000e-02 1.698021e-01 7.445168e-01 4.577864e-01 1.707714e+00 2.618205e+00 2.265463e+00 2.870100e+00 2.299719e+00 3.637438e+00 8.622324e-01 7.358345e-01 8.287013e-01 5.000000e-02 5.000000e-02 1.319394e-01 7.554953e-02 2.137037e-01 3.362525e-01 4.767698e-01 3.990377e-01 3.044069e-01 5.330226e-01 1.070823e-01 1.650288e-01 1.392172e-01 5.000000e-02
<GCONST> 7.172975e+01
<STATE> 17
<MEAN> 39
 -1.374603e+00 -1.262947e+01 1.430317e+00 -7.054183e+00 -1.265309e+01 -6.025735e+00 3.442935e+00 -6.659905e+00 1.696998e+00 4.176270e+00 1.422883e+00 -2.065214e+00 2.576680e-01 -6.713008e-01 6.799897e-01 -5.577528e-01 1.947927e-01 1.302356e+00 -6.545275e-01 -5.029073e-01 2.217811e-01 -3.855412e-01 -2.084942e-01 5.235326e-01 -3.317502e-02 -3.768676e-02 -6.345365e-02 7.639901e-03 1.154716e-01 1.597451e-01 -5.523338e-03 2.133196e-02 1.726656e-01 5.822111e-01 4.440769e-01 2.180821e-02 -3.150868e-02 -3.402555e-01 -1.919374e-03
<VARIANCE> 39
 2.786816e+00 2.199906e+01 5.600121e+00 1.627959e+01 3.262402e+01 1.598497e+01 2.715690e+01 2.975707e+01 2.438389e+01 1.897793e+01 1.516402e+01 3.950901e+00 5.000000e-02 1.210838e-01 7.612422e-01 5.887166e-01 1.309368e+00 3.058926e+00 1.117939e+00 9.395559e-01 1.494766e+00 1.673409e+00 1.035582e+00 1.559142e+00 3.214103e-01 5.000000e-02 5.000000e-02 1.118596e-01 1.035111e-01 3.102646e-01 3.617108e-01 3.925615e-01 4.232373e-01 2.894967e-01 4.157089e-01 2.987706e-01 1.915189e-01 1.541781e-01 5.000000e-02
<GCONST> 7.499952e+01
<STATE> 18
<MEAN> 39
 -3.934131e+00 -1.120819e+01 1.163133e+00 -4.323871e+00 -7.700538e+00 -7.509330e+00 4.305778e+00 -9.334077e-01 4.049379e+00 3.814739e+00 2.725315e+00 -3.730124e+00 1.277379e-01 -3.195201e-01 2.958279e-01 2.245850e-01 1.247473e+00 1.815883e+00 5.467756e-01 4.480693e-01 6.852888e-01 5.308169e-01 -4.462453e-02 4.810723e-01 7.326201e-02 -1.939277e-02 9.296551e-02 -1.771858e-01 3.089002e-02 -1.295407e-01 -3.884981e-01 1.710400e-01 6.853504e-02 -3.124171e-01 -1.420658e-01 -1.318082e-01 -1.729156e-01 7.181902e-02 5.181261e-03
<VARIANCE> 39
 3.360598e+00 6.498277e+00 6.137585e+00 7.688303e+00 2.016884e+01 1.362806e+01 8.162020e+00 6.635908e+00 4.674734e+00 1.963042e+01 1.016002e+01 4.703643e+00 5.000000e-02 3.684875e-01 2.753007e-01 2.503685e-01 4.283797e-01 1.402089e+00 1.472255e+00 1.074181e+00 1.410587e+00 1.292858e+00 1.883944e+00 1.293045e+00 1.800000e+00 5.000000e-02 9.930106e-02 6.863070e-02 9.589717e-02 1.514388e-01 4.701519e-01 2.760246e-01 2.395255e-01 1.656177e-01 1.792671e-01 2.262217e-01 2.351584e-01 2.392755e-01 5.000000e-02
<GCONST> 6.540407e+01
<STATE> 19
<MEAN> 39
 -4.831315e+00 -9.871037e+00 1.308919e+00 -3.195223e+00 -5.023856e+00 -4.261883e+00 4.304347e+00 -3.434264e+00 2.656821e+00 1.506079e+00 2.866342e+00 -3.596226e+00 6.852689e-02 -3.271426e-01 1.543660e-01 -2.644780e-01 -9.442312e-04 -3.662852e-01 -1.465059e-01 -4.763734e-01 -6.254851e-01 -4.236315e-01 -7.229028e-01 -8.619456e-01 -3.166667e-01 -2.355789e-02 4.144634e-02 -3.821531e-02 -7.544404e-02 -2.016914e-01 -1.644923e-01 -1.436478e-01 -5.393752e-02 -7.775645e-02 3.161104e-02 5.372042e-02 -1.934647e-01 -2.400345e-02 5.625891e-04
<VARIANCE> 39
 3.946177e+00 3.058047e+00 8.717375e+00 5.792453e+00 6.571075e+00 1.511403e+01 1.573063e+01 7.180500e+00 1.116273e+01 1.514240e+01 1.844231e+01 2.852730e+01 5.000000e-02 4.550351e-01 2.884388e-01 3.694200e-01 3.223850e-01 7.303718e-01 6.910518e-01 1.033650e+00 8.637480e-01 9.899898e-01 1.409108e+00 1.222234e+00 1.091033e+00 5.000000e-02 5.998393e-02 5.000000e-02 5.259483e-02 9.287252e-02 3.320345e-01 2.713161e-01 2.613316e-01 2.122738e-01 3.572325e-01 4.457924e-01 2.825773e-01 3.866663e-01 5.000000e-02
<GCONST> 6.500719e+01
<STATE> 20
<MEAN> 39
 -5.757496e+00 -9.559210e+00 6.924680e-01 -2.831555e+00 -5.719302e+00 -6.403030e+00 3.916677e+00 -3.676892e+00 3.266229e+00 5.563889e-01 4.660409e-01 -4.253724e+00 -6.573294e-03 -2.778883e-01 2.847055e-01 -1.308553e-01 2.916849e-01 8.720449e-01 1.815314e-01 1.791676e-01 6.089126e-01 8.660834e-01 7.283922e-01 1.360470e-01 -2.624005e-01 -1.252858e-02 9.062172e-03 -8.369361e-02 -3.992201e-02 -8.433890e-02 1.872927e-01 2.696214e-01 -3.760757e-02 1.787277e-01 -8.000100e-02 2.651900e-01 4.654776e-01 1.825297e-01 3.276339e-03
<VARIANCE> 39
 2.024321e+00 6.098110e+00 4.738589e+00 3.885424e+00 8.216602e+00 4.756860e+00 1.739429e+00 5.066006e+00 5.360099e+00 3.684273e+00 2.227054e+00 6.794319e+00 5.000000e-02 1.360637e-01 1.353002e-01 7.276753e-02 1.257630e-01 9.820918e-01 1.601009e+00 3.585281e-01 6.481884e-01 9.174542e-01 1.314891e+00 5.039016e-01 1.215561e+00 5.000000e-02 5.000000e-02 7.050555e-02 5.000000e-02 1.054590e-01 3.020339e-01 2.138048e-01 5.000000e-02 1.744950e-01 3.340284e-01 1.313580e-01 1.199044e-01 1.386042e-01 5.000000e-02
<GCONST> 4.406180e+01
<STATE> 21
<MEAN> 39
 -6.402574e+00 -9.136459e+00 6.309904e-01 -2.653134e+00 -3.628167e+00 -5.000933e+00 2.712911e+00 -2.232489e+00 4.325753e+00 3.980664e+00 2.344140e+00 -4.265271e+00 -1.956738e-02 -2.412964e-01 -2.618230e-01 -3.381176e-01 -3.994630e-01 3.424610e-01 4.217598e-01 -2.786244e-01 -1.885580e-02 -8.185458e-01 -2.069142e-01 8.030170e-01 3.694168e-01 -1.349253e-02 6.513960e-02 -4.182144e-02 2.310978e-02 -7.212972e-02 -3.025504e-01 -1.893259e-01 8.574654e-02 -9.399464e-02 -3.019106e-01 -5.582272e-01 -7.463896e-02 2.605419e-02 2.569091e-03
<VARIANCE> 39
 1.378187e+00 6.514785e+00 3.731206e+00 2.939560e+00 5.419557e+00 9.917604e+00 5.005760e+00 7.933650e+00 8.982404e+00 9.671782e+00 7.170676e+00 8.963719e+00 5.000000e-02 6.202136e-02 2.275554e-01 1.784881e-01 3.761173e-01 7.893248e-01 6.798668e-01 7.784002e-01 4.964887e-01 9.355745e-01 1.290909e+00 1.069055e+00 5.706466e-01 5.000000e-02 5.000000e-02 5.991316e-02 6.577066e-02 9.049273e-02 1.552452e-01 2.102469e-01 1.472503e-01 1.227686e-01 1.725302e-01 1.253157e-01 2.100961e-01 1.276284e-01 5.000000e-02
<GCONST> 4.891034e+01
<TRANSP> 22
 0.000000e+00 1.000000e+00 0.000000e+00 0.000000e+00 0.000000e+00 0.000000e+00 0.000000e+00 0.000000e+00 0.000000e+00 0.000000e+00 0.000000e+00 0.000000e+00 0.000000e+00 0.000000e+00 0.000000e+00 0.000000e+00 0.000000e+00 0.000000e+00 0.000000e+00 0.000000e+00 0.000000e+00 0.000000e+00
 0.000000e+00 5.454635e-01 4.545365e-01 0.000000e+00 0.000000e+00 0.000000e+00 0.000000e+00 0.000000e+00 0.000000e+00 0.000000e+00 0.000000e+00 0.000000e+00 0.000000e+00 0.000000e+00 0.000000e+00 0.000000e+00 0.000000e+00 0.000000e+00 0.000000e+00 0.000000e+00 0.000000e+00 0.000000e+00
 0.000000e+00 0.000000e+00 5.459111e-01 4.540890e-01 0.000000e+00 0.000000e+00 0.000000e+00 0.000000e+00 0.000000e+00 0.000000e+00 0.000000e+00 0.000000e+00 0.000000e+00 0.000000e+00 0.000000e+00 0.000000e+00 0.000000e+00 0.000000e+00 0.000000e+00 0.000000e+00 0.000000e+00 0.000000e+00
 0.000000e+00 0.000000e+00 0.000000e+00 5.456996e-01 4.543004e-01 0.000000e+00 0.000000e+00 0.000000e+00 0.000000e+00 0.000000e+00 0.000000e+00 0.000000e+00 0.000000e+00 0.000000e+00 0.000000e+00 0.000000e+00 0.000000e+00 0.000000e+00 0.000000e+00 0.000000e+00 0.000000e+00 0.000000e+00
 0.000000e+00 0.000000e+00 0.000000e+00 0.000000e+00 5.440785e-01 4.559216e-01 0.000000e+00 0.000000e+00 0.000000e+00 0.000000e+00 0.000000e+00 0.000000e+00 0.000000e+00 0.000000e+00 0.000000e+00 0.000000e+00 0.000000e+00 0.000000e+00 0.000000e+00 0.000000e+00 0.000000e+00 0.000000e+00
 0.000000e+00 0.000000e+00 0.000000e+00 0.000000e+00 0.000000e+00 6.672717e-01 3.327283e-01 0.000000e+00 0.000000e+00 0.000000e+00 0.000000e+00 0.000000e+00 0.000000e+00 0.000000e+00 0.000000e+00 0.000000e+00 0.000000e+00 0.000000e+00 0.000000e+00 0.000000e+00 0.000000e+00 0.000000e+00
 0.000000e+00 0.000000e+00 0.000000e+00 0.000000e+00 0.000000e+00 0.000000e+00 1.332605e-08 1.000000e+00 0.000000e+00 0.000000e+00 0.000000e+00 0.000000e+00 0.000000e+00 0.000000e+00 0.000000e+00 0.000000e+00 0.000000e+00 0.000000e+00 0.000000e+00 0.000000e+00 0.000000e+00 0.000000e+00
 0.000000e+00 0.000000e+00 0.000000e+00 0.000000e+00 0.000000e+00 0.000000e+00 0.000000e+00 6.666679e-01 3.333321e-01 0.000000e+00 0.000000e+00 0.000000e+00 0.000000e+00 0.000000e+00 0.000000e+00 0.000000e+00 0.000000e+00 0.000000e+00 0.000000e+00 0.000000e+00 0.000000e+00 0.000000e+00
 0.000000e+00 0.000000e+00 0.000000e+00 0.000000e+00 0.000000e+00 0.000000e+00 0.000000e+00 0.000000e+00 3.272001e-08 9.999999e-01 0.000000e+00 0.000000e+00 0.000000e+00 0.000000e+00 0.000000e+00 0.000000e+00 0.000000e+00 0.000000e+00 0.000000e+00 0.000000e+00 0.000000e+00 0.000000e+00
 0.000000e+00 0.000000e+00 0.000000e+00 0.000000e+00 0.000000e+00 0.000000e+00 0.000000e+00 0.000000e+00 0.000000e+00 5.000004e-01 4.999996e-01 0.000000e+00 0.000000e+00 0.000000e+00 0.000000e+00 0.000000e+00 0.000000e+00 0.000000e+00 0.000000e+00 0.000000e+00 0.000000e+00 0.000000e+00
 0.000000e+00 0.000000e+00 0.000000e+00 0.000000e+00 0.000000e+00 0.000000e+00 0.000000e+00 0.000000e+00 0.000000e+00 0.000000e+00 5.000001e-01 4.999999e-01 0.000000e+00 0.000000e+00 0.000000e+00 0.000000e+00 0.000000e+00 0.000000e+00 0.000000e+00 0.000000e+00 0.000000e+00 0.000000e+00
 0.000000e+00 0.000000e+00 0.000000e+00 0.000000e+00 0.000000e+00 0.000000e+00 0.000000e+00 0.000000e+00 0.000000e+00 0.000000e+00 0.000000e+00 2.858116e-01 7.141884e-01 0.000000e+00 0.000000e+00 0.000000e+00 0.000000e+00 0.000000e+00 0.000000e+00 0.000000e+00 0.000000e+00 0.000000e+00
 0.000000e+00 0.000000e+00 0.000000e+00 0.000000e+00 0.000000e+00 0.000000e+00 0.000000e+00 0.000000e+00 0.000000e+00 0.000000e+00 0.000000e+00 0.000000e+00 7.058946e-01 2.941054e-01 0.000000e+00 0.000000e+00 0.000000e+00 0.000000e+00 0.000000e+00 0.000000e+00 0.000000e+00 0.000000e+00
 0.000000e+00 0.000000e+00 0.000000e+00 0.000000e+00 0.000000e+00 0.000000e+00 0.000000e+00 0.000000e+00 0.000000e+00 0.000000e+00 0.000000e+00 0.000000e+00 0.000000e+00 5.453734e-01 4.546266e-01 0.000000e+00 0.000000e+00 0.000000e+00 0.000000e+00 0.000000e+00 0.000000e+00 0.000000e+00
 0.000000e+00 0.000000e+00 0.000000e+00 0.000000e+00 0.000000e+00 0.000000e+00 0.000000e+00 0.000000e+00 0.000000e+00 0.000000e+00 0.000000e+00 0.000000e+00 0.000000e+00 0.000000e+00 5.013116e-01 4.986884e-01 0.000000e+00 0.000000e+00 0.000000e+00 0.000000e+00 0.000000e+00 0.000000e+00
 0.000000e+00 0.000000e+00 0.000000e+00 0.000000e+00 0.000000e+00 0.000000e+00 0.000000e+00 0.000000e+00 0.000000e+00 0.000000e+00 0.000000e+00 0.000000e+00 0.000000e+00 0.000000e+00 0.000000e+00 6.865484e-01 3.134517e-01 0.000000e+00 0.000000e+00 0.000000e+00 0.000000e+00 0.000000e+00
 0.000000e+00 0.000000e+00 0.000000e+00 0.000000e+00 0.000000e+00 0.000000e+00 0.000000e+00 0.000000e+00 0.000000e+00 0.000000e+00 0.000000e+00 0.000000e+00 0.000000e+00 0.000000e+00 0.000000e+00 0.000000e+00 6.174843e-01 3.825157e-01 0.000000e+00 0.000000e+00 0.000000e+00 0.000000e+00
 0.000000e+00 0.000000e+00 0.000000e+00 0.000000e+00 0.000000e+00 0.000000e+00 0.000000e+00 0.000000e+00 0.000000e+00 0.000000e+00 0.000000e+00 0.000000e+00 0.000000e+00 0.000000e+00 0.000000e+00 0.000000e+00 0.000000e+00 6.415384e-01 3.584616e-01 0.000000e+00 0.000000e+00 0.000000e+00
 0.000000e+00 0.000000e+00 0.000000e+00 0.000000e+00 0.000000e+00 0.000000e+00 0.000000e+00 0.000000e+00 0.000000e+00 0.000000e+00 0.000000e+00 0.000000e+00 0.000000e+00 0.000000e+00 0.000000e+00 0.000000e+00 0.000000e+00 0.000000e+00 6.667433e-01 3.332567e-01 0.000000e+00 0.000000e+00
 0.000000e+00 0.000000e+00 0.000000e+00 0.000000e+00 0.000000e+00 0.000000e+00 0.000000e+00 0.000000e+00 0.000000e+00 0.000000e+00 0.000000e+00 0.000000e+00 0.000000e+00 0.000000e+00 0.000000e+00 0.000000e+00 0.000000e+00 0.000000e+00 0.000000e+00 5.453802e-01 4.546198e-01 0.000000e+00
 0.000000e+00 0.000000e+00 0.000000e+00 0.000000e+00 0.000000e+00 0.000000e+00 0.000000e+00 0.000000e+00 0.000000e+00 0.000000e+00 0.000000e+00 0.000000e+00 0.000000e+00 0.000000e+00 0.000000e+00 0.000000e+00 0.000000e+00 0.000000e+00 0.000000e+00 0.000000e+00 5.491850e-01 4.508150e-01
 0.000000e+00 0.000000e+00 0.000000e+00 0.000000e+00 0.000000e+00 0.000000e+00 0.000000e+00 0.000000e+00 0.000000e+00 0.000000e+00 0.000000e+00 0.000000e+00 0.000000e+00 0.000000e+00 0.000000e+00 0.000000e+00 0.000000e+00 0.000000e+00 0.000000e+00 0.000000e+00 0.000000e+00 0.000000e+00
<ENDHMM>
