~o
<STREAMINFO> 1 39
<VECSIZE> 39<NULLD><MFCC_E_D_A><DIAGC>
~h "Tru*o*c"
<BEGINHMM>
<NUMSTATES> 7
<STATE> 2
<MEAN> 39
 -1.269650e+01 -8.449942e+00 -2.066042e-01 -9.806567e+00 -2.277159e+00 -5.255006e+00 -2.212718e+00 -1.977000e+00 -3.506796e-02 -4.552230e+00 5.374841e+00 -2.748754e+00 4.336877e-01 -4.815466e-01 -1.081737e+00 -5.903616e-01 -2.470469e+00 -2.415061e+00 -2.332246e+00 1.639580e-01 9.534419e-01 9.006083e-01 -5.977207e-02 -7.473873e-02 -5.039987e-01 1.423236e-01 7.717759e-01 -5.256664e-01 -3.377812e-02 -1.042718e-02 -1.898630e-01 -7.880751e-01 4.536447e-01 6.664482e-01 5.473893e-01 4.595080e-01 -3.398666e-01 1.371423e-01 1.337116e-03
<VARIANCE> 39
 4.800239e+01 1.315392e+01 1.513010e+01 4.505585e+01 5.784013e+01 5.840510e+01 1.490096e+01 1.855216e+01 1.545921e+01 2.377480e+01 9.544323e+00 8.520684e+00 1.053703e-01 1.167491e+01 2.795411e+00 1.772315e+00 2.546837e+00 3.800225e+00 1.119131e+01 3.792690e+00 4.988712e+00 3.518291e+00 5.149672e+00 1.560747e+00 1.185582e+00 5.000000e-02 1.795222e+00 3.787165e-01 3.344711e-01 8.054503e-01 1.458892e+00 1.364039e+00 4.791007e-01 4.657244e-01 2.985490e-01 1.162482e+00 1.793246e-01 9.383997e-02 5.000000e-02
<GCONST> 1.080034e+02
<STATE> 3
<MEAN> 39
 -4.315216e+00 -2.112521e+01 -5.364846e+00 -2.011096e+01 -3.910908e+00 -1.909529e+01 3.280351e-01 9.107979e+00 9.149651e+00 5.694177e+00 -4.853542e+00 -1.780736e+00 9.437271e-01 6.094250e-01 -7.138153e-01 -1.067611e+00 -4.297684e-01 1.094529e+00 8.228927e-01 -8.053359e-01 5.169992e-01 4.585668e-01 1.336175e+00 -1.782894e+00 1.489380e-01 1.785501e-02 -3.820414e-01 5.714473e-01 -1.769609e-01 2.684353e-01 7.797876e-02 7.781101e-01 -2.917846e-01 -4.599188e-01 -1.813411e-01 -3.931947e-01 2.253122e-01 -2.768820e-01 -9.628008e-03
<VARIANCE> 39
 4.339961e+00 8.433608e+00 4.226022e+01 9.994454e+00 4.945686e+01 2.560568e+01 1.984786e+01 1.654845e+01 1.517336e+01 2.899936e+01 5.768546e+01 1.672270e+01 5.000000e-02 1.417270e+00 3.219085e+00 1.325807e+00 1.534118e+00 2.714038e+00 4.563227e+00 1.942580e+00 2.859745e+00 3.383974e+00 3.405363e+00 2.351257e+00 2.305704e+00 5.000000e-02 2.372837e-01 1.617952e-01 2.228753e-01 1.815845e-01 1.068958e+00 6.481649e-01 3.903348e-01 3.947756e-01 6.222684e-01 6.348684e-01 4.647108e-01 5.100024e-01 5.000000e-02
<GCONST> 9.775400e+01
<STATE> 4
<MEAN> 39
 -2.117653e+00 -1.746100e+01 -1.270256e+01 -1.809867e+01 -7.263809e-01 -5.678419e+00 -7.164370e+00 5.209163e+00 8.159746e+00 3.929122e+00 -8.734075e+00 -9.685799e+00 8.759093e-01 7.263812e-01 1.741268e-01 3.424767e-02 8.208939e-01 -6.012783e-02 8.925585e-02 -1.313461e-01 -3.694867e-01 -3.608905e-01 -5.336936e-01 3.676847e-01 -4.330785e-01 -3.258572e-02 1.047977e-01 -1.753774e-01 1.167750e-01 2.242298e-01 -1.579911e-01 -3.325628e-01 1.992511e-01 6.630182e-02 2.707463e-02 4.054141e-02 6.351195e-02 3.168992e-01 -5.783698e-03
<VARIANCE> 39
 9.833489e+00 4.859380e+00 1.611973e+01 1.581864e+01 2.779150e+01 3.667980e+01 3.107967e+01 1.512052e+01 3.709886e+01 1.638573e+01 3.102457e+01 3.065719e+01 5.000000e-02 7.338024e-01 9.282359e-01 1.798908e+00 4.475912e+00 3.435954e+00 3.237641e+00 2.726768e+00 2.088811e+00 4.324794e+00 1.391121e+00 1.733866e+00 4.300117e+00 5.000000e-02 1.074622e-01 1.354535e-01 3.411821e-01 6.542525e-01 7.157957e-01 3.392357e-01 6.901202e-01 3.338808e-01 1.051663e+00 2.484115e-01 3.141963e-01 4.613537e-01 5.000000e-02
<GCONST> 9.621311e+01
<STATE> 5
<MEAN> 39
 3.746331e+00 -1.892879e+01 -1.075161e+01 -5.281067e+00 -5.047721e+00 -1.218105e+01 -3.330756e+00 3.358985e+00 9.331717e+00 1.450175e+00 -3.887627e+00 -5.775209e+00 4.265128e-01 -2.677275e-01 7.003096e-02 9.586490e-02 6.640688e-01 -1.532169e-01 -6.817891e-02 5.638006e-01 -4.570868e-01 4.694133e-01 -4.684572e-01 5.304478e-01 2.418154e-01 -3.722760e-02 -1.491916e-01 1.978322e-01 1.807757e-01 -3.525994e-01 3.578476e-01 2.844408e-01 -1.087286e-01 -1.238670e-01 -2.346185e-01 2.137255e-02 -1.135575e-02 -7.629275e-02 3.811223e-03
<VARIANCE> 39
 4.109100e+00 5.711243e+00 7.128410e+00 7.302528e+00 1.123950e+01 1.028696e+01 1.226162e+01 1.805234e+01 1.457143e+01 1.153807e+01 1.007401e+01 7.227353e+00 5.000000e-02 4.624471e-01 8.412615e-01 1.119163e+00 1.496417e+00 2.040629e+00 2.313453e+00 3.124102e+00 1.865589e+00 3.000674e+00 1.545619e+00 1.347362e+00 9.977072e-01 5.000000e-02 1.256526e-01 1.497009e-01 1.967594e-01 2.672362e-01 3.321496e-01 3.778376e-01 5.703362e-01 4.359186e-01 5.693607e-01 3.484129e-01 2.488563e-01 2.599296e-01 5.000000e-02
<GCONST> 7.933511e+01
<STATE> 6
<MEAN> 39
 -1.080474e+00 -1.245571e+01 -5.666679e+00 -3.602465e+00 -7.535425e-01 -7.682016e+00 -9.620706e-01 9.972314e-01 7.490359e+00 -4.100477e-01 -6.737154e-01 -4.257493e+00 1.680423e-01 -4.264311e-01 6.321895e-01 5.915335e-01 2.310443e-01 3.585694e-01 3.564732e-01 2.551429e-01 -5.695114e-02 -2.226819e-01 2.006784e-02 2.630498e-01 7.651467e-02 -1.990100e-02 -2.143355e-03 -6.581102e-02 -5.815326e-02 -2.201211e-02 -1.046739e-02 -3.391838e-02 -4.042795e-02 3.985974e-02 1.936382e-03 2.117055e-02 -4.422720e-02 -2.820839e-02 1.213008e-03
<VARIANCE> 39
 1.063922e+01 9.923938e+00 1.401200e+01 8.625983e+00 9.080295e+00 1.086918e+01 1.191525e+01 1.153933e+01 1.767131e+01 1.037751e+01 8.124739e+00 7.398931e+00 5.000000e-02 5.441308e-01 7.002240e-01 1.278413e+00 8.416329e-01 9.799405e-01 1.442688e+00 1.548747e+00 1.869016e+00 1.575781e+00 1.140543e+00 9.122525e-01 6.829644e-01 5.000000e-02 1.174113e-01 1.335118e-01 2.388601e-01 1.656888e-01 1.628498e-01 2.720331e-01 3.568368e-01 4.183439e-01 3.204585e-01 2.324646e-01 2.067847e-01 1.276185e-01 5.000000e-02
<GCONST> 7.296250e+01
<TRANSP> 7
 0.000000e+00 1.000000e+00 0.000000e+00 0.000000e+00 0.000000e+00 0.000000e+00 0.000000e+00
 0.000000e+00 8.269228e-01 1.730772e-01 0.000000e+00 0.000000e+00 0.000000e+00 0.000000e+00
 0.000000e+00 0.000000e+00 8.805141e-01 1.194858e-01 0.000000e+00 0.000000e+00 0.000000e+00
 0.000000e+00 0.000000e+00 0.000000e+00 9.078181e-01 9.218190e-02 0.000000e+00 0.000000e+00
 0.000000e+00 0.000000e+00 0.000000e+00 0.000000e+00 8.755746e-01 1.244253e-01 0.000000e+00
 0.000000e+00 0.000000e+00 0.000000e+00 0.000000e+00 0.000000e+00 9.275084e-01 7.249159e-02
 0.000000e+00 0.000000e+00 0.000000e+00 0.000000e+00 0.000000e+00 0.000000e+00 0.000000e+00
<ENDHMM>
