~o
<STREAMINFO> 1 39
<VECSIZE> 39<NULLD><MFCC_E_D_A><DIAGC>
~h "Tu*o*i"
<BEGINHMM>
<NUMSTATES> 11
<STATE> 2
<MEAN> 39
 -8.182759e+00 -9.265082e+00 -6.007123e+00 -4.701624e+00 -1.125497e+00 -8.147319e+00 3.536496e+00 1.422242e+00 2.607544e+00 -5.872227e+00 1.556010e+00 -1.967141e+00 3.223775e-01 -3.017955e-01 -9.722105e-01 -2.851281e+00 -2.413715e+00 -2.373319e+00 -3.445855e+00 -2.315196e-01 1.064629e+00 2.091357e+00 -4.393549e-01 -7.932200e-01 5.404776e-01 1.881792e-01 4.198362e-01 -3.954950e-01 -2.702082e-01 -4.744671e-01 -3.393357e-01 -7.008879e-01 -4.867683e-01 -3.292031e-02 5.366009e-01 6.769054e-01 -3.783022e-01 1.625409e-01 2.248457e-02
<VARIANCE> 39
 1.605892e+01 4.117774e+00 4.184940e+01 2.997895e+01 2.501068e+01 6.847594e+01 1.379397e+01 3.057131e+01 1.815993e+01 2.683980e+01 1.960393e+01 1.370659e+01 9.992531e-02 1.745976e+00 7.540262e-01 1.565017e+00 2.680961e+00 1.965120e+00 7.291320e+00 1.700555e+00 2.884122e+00 2.434628e+00 2.938739e+00 1.642628e+00 1.230947e+00 5.000000e-02 1.789549e-01 6.556509e-02 7.843257e-01 5.850194e-01 7.918894e-01 1.739517e+00 2.685995e-01 3.548505e-01 3.463937e-01 7.365331e-01 3.221113e-01 3.266612e-01 5.000000e-02
<GCONST> 9.774232e+01
<STATE> 3
<MEAN> 39
 -5.208394e+00 -1.514407e+01 -1.414277e+01 -1.492578e+01 -7.063591e+00 -1.968003e+01 -2.753581e+00 2.901867e+00 1.311195e+01 1.249450e+00 -6.182214e+00 -1.067561e-01 9.275787e-01 9.759579e-01 -3.973130e-01 -6.292875e-01 -1.492273e+00 1.078769e+00 2.272871e-01 -1.812545e+00 -3.397493e-01 1.394053e+00 2.783702e+00 -1.645482e+00 -4.485708e-01 4.507696e-02 -2.904443e-03 4.849892e-01 4.283660e-01 2.130194e-01 7.622128e-01 9.220799e-01 7.280224e-02 -2.491594e-01 -6.465734e-01 9.877261e-02 4.377898e-01 -2.679787e-01 -3.301932e-02
<VARIANCE> 39
 1.316078e+01 2.703508e+00 1.567268e+01 1.745533e+01 2.338457e+01 1.825452e+01 1.825579e+01 4.579690e+01 1.532966e+01 4.327944e+01 1.729676e+01 1.045781e+01 5.000000e-02 4.198759e-01 1.050163e+00 4.868532e-01 1.251011e+00 3.858915e+00 4.325135e+00 9.391122e-01 1.741833e+00 1.989660e+00 2.744843e+00 1.693133e+00 1.413271e+00 5.000000e-02 6.124511e-02 6.761205e-02 1.292647e-01 3.383300e-01 8.824791e-01 9.648860e-01 3.571316e-01 6.223853e-01 3.698470e-01 6.357302e-01 3.488769e-01 1.977697e-01 5.000000e-02
<GCONST> 8.651390e+01
<STATE> 4
<MEAN> 39
 -2.229406e+00 -1.276656e+01 -1.367214e+01 -2.202605e+01 -2.126717e-01 -1.360270e+01 -6.335215e+00 1.638807e+00 1.242220e+01 1.085949e+01 -6.407510e+00 -2.692253e+00 9.775684e-01 7.035440e-02 1.814467e-01 1.912498e-02 -3.775606e-01 3.247704e-01 3.102753e-01 3.875763e-01 5.776843e-02 -1.783812e-01 7.538702e-02 2.508298e-01 -2.057126e-01 2.572442e-03 -1.438234e-01 -1.204930e-01 -5.198760e-02 4.082538e-01 -2.401331e-01 -2.541716e-01 2.294325e-01 1.172901e-01 5.190362e-02 -4.932840e-01 -5.504175e-02 7.239079e-02 -1.387689e-03
<VARIANCE> 39
 1.496926e+01 3.526722e+00 1.061446e+01 1.548785e+01 1.249484e+01 3.281495e+01 3.254867e+01 1.855004e+01 2.547587e+01 4.855649e+01 6.636704e+00 7.372669e+00 5.000000e-02 2.424051e-01 5.759278e-01 4.787090e-01 1.581595e+00 8.931758e-01 1.128358e+00 2.132533e+00 2.539494e+00 2.034149e+00 3.734998e+00 1.059699e+00 4.547947e-01 5.000000e-02 5.000000e-02 1.049279e-01 1.105441e-01 1.052583e-01 1.072117e-01 1.531370e-01 4.010591e-01 3.751845e-01 4.210578e-01 6.137196e-01 2.319974e-01 1.001134e-01 5.000000e-02
<GCONST> 7.511382e+01
<STATE> 5
<MEAN> 39
 -3.207611e+00 -1.420014e+01 -1.543572e+01 -1.549791e+01 -2.845759e+00 -1.654471e+01 -1.731261e+00 3.614048e+00 1.166679e+01 3.336089e+00 -6.794365e+00 -3.544701e+00 9.715819e-01 -4.633539e-01 -6.081718e-01 5.191208e-01 1.804945e+00 -2.029089e+00 -1.232791e+00 7.644386e-01 4.594457e-01 -1.246419e+00 -1.709148e+00 4.992670e-01 6.479561e-01 -2.773451e-03 2.641545e-02 -1.297371e-03 5.412912e-01 -2.111171e-01 -4.791949e-01 -2.038199e-01 1.607754e-01 -1.056805e-01 -6.164348e-01 5.011769e-01 5.283036e-01 1.795190e-01 -5.228850e-05
<VARIANCE> 39
 9.169986e+00 3.158445e+00 1.134626e+01 1.659668e+01 1.879225e+01 3.454874e+01 3.398403e+01 1.012491e+01 3.501945e+01 3.797240e+01 7.513407e+00 1.334439e+01 5.000000e-02 2.657956e-01 3.818112e-01 1.146533e+00 8.550283e-01 1.509147e+00 1.176568e+00 2.394109e+00 1.322043e+00 2.483432e+00 2.718227e+00 1.846638e+00 8.574983e-01 5.000000e-02 5.000000e-02 9.732555e-02 7.655377e-02 1.603349e-01 3.045929e-01 2.184945e-01 4.570128e-01 2.408600e-01 3.196104e-01 4.495797e-01 2.715790e-01 1.781356e-01 5.000000e-02
<GCONST> 7.758835e+01
<STATE> 6
<MEAN> 39
 -4.300407e+00 -1.596905e+01 -6.857155e+00 -1.273468e+01 -1.389093e+01 -2.337168e+01 4.710257e+00 1.609177e+00 2.186718e+00 5.419477e+00 -1.063945e+00 -6.006339e-01 9.392930e-01 1.712321e-01 -2.405975e-01 2.245992e+00 -7.702542e-01 -1.286974e+00 -2.524057e-01 7.039173e-01 -1.070140e+00 -1.358078e+00 2.211758e+00 -3.202730e-01 8.687352e-02 -1.680660e-02 1.953281e-01 -2.050596e-02 -3.641198e-02 -3.944351e-01 5.081768e-01 6.012022e-01 -3.310561e-01 -1.767431e-01 3.970739e-01 1.134530e-01 -7.712776e-01 -6.147652e-02 -5.480330e-03
<VARIANCE> 39
 7.060148e+00 2.041895e+00 3.788726e+01 1.505018e+01 1.735719e+01 3.472268e+01 5.773122e+01 4.084805e+01 2.476014e+01 6.377012e+01 1.320698e+01 1.275893e+01 5.000000e-02 2.285196e-01 1.404016e-01 8.193890e-01 1.438150e+00 1.871267e+00 3.005497e+00 2.822443e+00 2.366510e+00 3.116482e+00 7.381405e-01 4.204864e+00 2.182551e+00 5.000000e-02 5.000000e-02 5.000000e-02 2.210478e-01 2.604207e-01 2.237764e-01 4.441435e-01 3.324041e-01 6.538926e-01 3.915608e-01 7.098788e-01 3.027152e-01 3.772447e-01 5.000000e-02
<GCONST> 8.563225e+01
<STATE> 7
<MEAN> 39
 -1.027112e+00 -1.747155e+01 2.209316e+00 -1.921139e+01 -1.355067e+01 -1.805941e+01 1.578080e+00 -2.545696e+00 2.939770e-02 1.119876e+01 -1.141705e+01 4.717460e-01 7.524296e-01 1.056951e+00 -7.986334e-02 2.567015e-01 7.843244e-01 6.413478e-01 1.333480e+00 -8.767610e-01 -2.472645e-01 4.043168e-01 -1.824356e+00 -5.461378e-01 3.091545e-02 -4.536836e-02 -1.323069e-03 8.881167e-02 -3.675513e-01 7.964319e-01 7.368047e-03 4.736246e-02 -4.999179e-02 1.809903e-01 1.620555e-01 -6.858560e-01 5.945951e-01 -2.227087e-01 -3.691051e-03
<VARIANCE> 39
 1.278676e+01 2.667854e+00 1.291548e+01 5.695692e+00 8.451813e+00 3.476380e+01 1.374984e+01 1.144401e+01 3.976274e+01 2.070460e+01 2.701194e+01 1.816897e+01 5.000000e-02 2.646058e-01 4.565884e-01 7.250699e-01 3.878033e+00 5.626146e-01 2.632566e+00 1.994088e+00 2.992135e+00 2.498026e+00 2.711159e+00 4.347961e+00 1.962250e+00 5.000000e-02 5.937925e-02 5.000000e-02 1.296513e-01 1.645423e-01 1.199831e-01 4.474608e-01 4.394771e-01 4.250139e-01 5.941250e-01 3.370160e-01 4.642527e-01 4.319644e-01 5.000000e-02
<GCONST> 8.184012e+01
<STATE> 8
<MEAN> 39
 3.002609e+00 -1.683264e+01 -1.310192e+00 -5.998362e+00 -1.111543e+01 -1.299879e+01 -2.478778e+00 -3.065102e+00 2.961063e+00 -2.370978e+00 -6.631128e+00 -3.160115e+00 4.802459e-01 -1.831140e-01 3.573008e-01 -1.009406e+00 1.586325e+00 6.512169e-01 -2.477861e-01 -1.977044e-01 3.391090e-01 2.215465e-01 -4.967280e-01 1.367465e+00 -3.038821e-01 -4.288027e-02 -1.956721e-01 8.216962e-02 -2.099280e-02 -5.066359e-01 1.151886e-01 -2.897682e-01 2.207746e-01 1.596137e-01 -6.944700e-02 6.970155e-01 2.883867e-01 3.459257e-01 6.172874e-03
<VARIANCE> 39
 6.625842e+00 8.640773e+00 1.590536e+01 1.093120e+01 1.056316e+01 1.184502e+01 1.832339e+01 1.036807e+01 2.388720e+01 8.329356e+00 1.126531e+01 1.455320e+01 5.000000e-02 4.247540e-01 7.660315e-01 5.830537e-01 1.928434e+00 1.608671e+00 2.256019e+00 1.775475e+00 1.880108e+00 1.020617e+00 3.592438e+00 3.258786e+00 2.728046e+00 5.000000e-02 7.585216e-02 1.539221e-01 1.259829e-01 1.965736e-01 3.062866e-01 6.734154e-01 3.729923e-01 4.891043e-01 1.852535e-01 3.689077e-01 4.621029e-01 3.576178e-01 5.000000e-02
<GCONST> 8.142555e+01
<STATE> 9
<MEAN> 39
 1.583139e+00 -1.280635e+01 -5.335790e+00 -5.262769e+00 -6.418327e+00 -1.314258e+01 -2.266036e-01 9.185746e-01 4.028122e+00 8.857375e-01 2.358896e+00 -3.313502e-01 3.432588e-01 -2.878363e-01 4.121555e-01 -9.285717e-02 -2.477088e-01 5.616511e-01 5.762941e-01 1.220727e-01 2.764602e-02 4.410902e-02 2.351632e-01 5.672740e-01 9.003470e-02 -1.778492e-02 -1.842548e-01 -7.800756e-02 9.535144e-02 -7.851552e-03 -5.247894e-02 3.338684e-02 -1.234288e-01 -1.954949e-01 3.370897e-02 -1.343783e-01 -3.140131e-01 -1.674185e-01 -6.993040e-03
<VARIANCE> 39
 3.477357e+00 1.019278e+01 7.374443e+00 8.977321e+00 9.844885e+00 1.007386e+01 1.239200e+01 9.353197e+00 1.411634e+01 1.169159e+01 1.216646e+01 7.381848e+00 5.000000e-02 6.871425e-01 6.316720e-01 5.658782e-01 7.362298e-01 1.199240e+00 1.355482e+00 1.488302e+00 1.399729e+00 1.063991e+00 1.439873e+00 1.967598e+00 8.432696e-01 5.000000e-02 1.721465e-01 1.738314e-01 1.460750e-01 1.472253e-01 3.045080e-01 2.856120e-01 2.868319e-01 1.950457e-01 1.590961e-01 2.630716e-01 3.836403e-01 1.499414e-01 5.000000e-02
<GCONST> 7.114352e+01
<STATE> 10
<MEAN> 39
 -5.294055e+00 -1.164690e+01 -3.786764e+00 -4.432025e+00 -3.196569e+00 -1.065824e+01 -1.137328e+00 -6.776144e-02 6.266866e+00 2.041044e+00 3.991808e+00 -1.266512e+00 5.114781e-02 -9.070907e-01 2.031958e-01 2.172867e-01 3.565788e-01 4.446103e-01 3.151217e-01 4.063750e-01 2.053823e-01 1.903834e-01 1.425772e-02 1.300144e-01 1.490177e-01 -4.043206e-02 2.195877e-01 2.174003e-02 -2.579553e-02 -3.905456e-03 -3.029165e-02 6.866908e-02 9.968343e-02 3.952579e-02 -1.395138e-01 -3.496867e-02 -8.875057e-02 1.931504e-03 8.931149e-03
<VARIANCE> 39
 4.601190e+00 4.230919e+00 1.996287e+00 9.179502e+00 5.725895e+00 1.452277e+01 8.591386e+00 1.157762e+01 1.120125e+01 9.106989e+00 9.436337e+00 8.971800e+00 5.000000e-02 8.202984e-01 5.046957e-01 3.327595e-01 5.100055e-01 1.113923e+00 1.541098e+00 9.951208e-01 1.029025e+00 1.683356e+00 8.927675e-01 9.815481e-01 7.177619e-01 5.000000e-02 6.410189e-02 7.549318e-02 5.509135e-02 7.329547e-02 1.789754e-01 3.620693e-01 1.624147e-01 2.218869e-01 3.320650e-01 2.133822e-01 1.589447e-01 1.655684e-01 5.000000e-02
<GCONST> 6.142964e+01
<TRANSP> 11
 0.000000e+00 1.000000e+00 0.000000e+00 0.000000e+00 0.000000e+00 0.000000e+00 0.000000e+00 0.000000e+00 0.000000e+00 0.000000e+00 0.000000e+00
 0.000000e+00 7.369656e-01 2.630344e-01 0.000000e+00 0.000000e+00 0.000000e+00 0.000000e+00 0.000000e+00 0.000000e+00 0.000000e+00 0.000000e+00
 0.000000e+00 0.000000e+00 7.806520e-01 2.193480e-01 0.000000e+00 0.000000e+00 0.000000e+00 0.000000e+00 0.000000e+00 0.000000e+00 0.000000e+00
 0.000000e+00 0.000000e+00 0.000000e+00 8.732779e-01 1.267221e-01 0.000000e+00 0.000000e+00 0.000000e+00 0.000000e+00 0.000000e+00 0.000000e+00
 0.000000e+00 0.000000e+00 0.000000e+00 0.000000e+00 7.702170e-01 2.297830e-01 0.000000e+00 0.000000e+00 0.000000e+00 0.000000e+00 0.000000e+00
 0.000000e+00 0.000000e+00 0.000000e+00 0.000000e+00 0.000000e+00 8.210868e-01 1.789132e-01 0.000000e+00 0.000000e+00 0.000000e+00 0.000000e+00
 0.000000e+00 0.000000e+00 0.000000e+00 0.000000e+00 0.000000e+00 0.000000e+00 8.278375e-01 1.721625e-01 0.000000e+00 0.000000e+00 0.000000e+00
 0.000000e+00 0.000000e+00 0.000000e+00 0.000000e+00 0.000000e+00 0.000000e+00 0.000000e+00 8.212701e-01 1.787299e-01 0.000000e+00 0.000000e+00
 0.000000e+00 0.000000e+00 0.000000e+00 0.000000e+00 0.000000e+00 0.000000e+00 0.000000e+00 0.000000e+00 8.573881e-01 1.426119e-01 0.000000e+00
 0.000000e+00 0.000000e+00 0.000000e+00 0.000000e+00 0.000000e+00 0.000000e+00 0.000000e+00 0.000000e+00 0.000000e+00 8.398228e-01 1.601772e-01
 0.000000e+00 0.000000e+00 0.000000e+00 0.000000e+00 0.000000e+00 0.000000e+00 0.000000e+00 0.000000e+00 0.000000e+00 0.000000e+00 0.000000e+00
<ENDHMM>
