~o
<STREAMINFO> 1 13
<VECSIZE> 13<NULLD><MFCC_E><DIAGC>
~h "Ba"
<BEGINHMM>
<NUMSTATES> 38
<STATE> 2
<MEAN> 13
 -6.406732e+00 -8.650190e+00 -2.104649e+00 -1.816677e+00 7.196558e-02 -5.241038e+00 1.878538e+00 -7.308598e-01 3.109716e-02 -1.555905e+00 8.891896e-01 -4.131987e+00 -1.206843e-01
<VARIANCE> 13
 2.631898e+00 2.981211e+00 2.356997e+00 1.787409e+00 5.698385e+00 4.534362e+00 7.183321e+00 5.753622e+00 8.984178e+00 1.003817e+01 5.868230e+00 6.595941e+00 1.000000e-02
<GCONST> 3.791675e+01
<STATE> 3
<MEAN> 13
 -4.107340e+00 -6.953840e+00 -2.243040e+00 -4.838971e+00 -1.434071e+00 -4.783400e+00 2.368234e+00 -4.667398e-01 6.711304e-01 -2.913489e+00 8.307423e-02 -2.260446e+00 8.455887e-03
<VARIANCE> 13
 5.005263e+00 7.396739e+00 4.042300e+00 5.988378e+00 7.339274e+00 1.508114e+01 1.737695e+01 1.755914e+01 3.515441e+00 2.811969e+01 2.731762e+00 9.377986e+00 2.174941e-02
<GCONST> 4.512675e+01
<STATE> 4
<MEAN> 13
 3.633492e+00 -7.972370e+00 -7.159026e+00 -7.228566e+00 -2.896637e+00 -1.082107e+01 -2.631033e+00 -3.766336e+00 -4.169015e-01 -7.038575e+00 -4.388451e+00 -5.640514e+00 3.153526e-01
<VARIANCE> 13
 1.392568e+01 1.477170e+00 4.566692e+00 2.783260e+00 1.333104e+01 4.945117e+00 7.482570e-01 2.581702e+00 1.341856e+01 2.380686e+01 1.671896e+00 4.399300e+00 2.789974e-02
<GCONST> 3.848849e+01
<STATE> 5
<MEAN> 13
 8.680487e+00 -1.157820e+01 -1.149680e+01 -7.159425e+00 -6.968896e+00 -1.321829e+01 -4.487305e+00 -5.772030e+00 -3.524807e+00 -8.316395e+00 -7.622687e+00 -9.178359e+00 5.610232e-01
<VARIANCE> 13
 6.255994e+00 2.026262e+00 2.632126e+00 2.548424e+00 9.683167e+00 1.503438e+01 2.496374e+00 3.843073e+00 6.074810e+00 7.780549e+00 1.120498e+01 5.814630e+00 1.000000e-02
<GCONST> 3.900459e+01
<STATE> 6
<MEAN> 13
 2.003743e-01 -1.730733e+01 -1.752484e+01 -7.052231e+00 -3.290313e+00 -9.763258e+00 7.133359e-01 -6.342367e+00 5.866397e+00 -7.782750e+00 -7.476045e+00 -1.090078e+01 7.616421e-01
<VARIANCE> 13
 3.726071e+01 1.036130e+01 1.209230e+01 4.976065e+00 8.579306e+00 2.376708e+01 5.277856e+01 3.418466e+01 9.105432e+00 1.876027e+01 6.757389e+00 1.008555e+01 1.000000e-02
<GCONST> 5.151834e+01
<STATE> 7
<MEAN> 13
 -1.641549e+00 -1.975991e+01 -2.502241e+01 -9.823168e-01 2.562648e+00 -1.033627e+01 1.792328e+01 -9.019378e+00 7.396309e+00 -1.241781e+01 -3.779352e+00 -1.799847e+00 8.569453e-01
<VARIANCE> 13
 2.755634e+01 1.498606e+00 1.909615e+01 5.740816e+00 2.328633e+01 1.388492e+01 2.850409e+01 2.636114e+01 2.072895e+01 8.040858e+00 2.004181e+00 1.379491e+01 1.000000e-02
<GCONST> 4.854130e+01
<STATE> 8
<MEAN> 13
 -5.516686e+00 -2.171346e+01 -2.602185e+01 -1.204711e+00 3.297866e+00 -1.020708e+01 1.387895e+01 -1.195942e+01 3.972386e+00 -1.443021e+01 -4.257590e+00 -1.199484e+00 9.215312e-01
<VARIANCE> 13
 1.460661e+01 1.072786e+00 2.442608e+01 7.381570e+00 2.200136e+01 5.082798e+01 6.332561e+01 2.028493e+01 8.230024e+00 2.156040e+01 5.972329e+00 5.707075e+00 1.000000e-02
<GCONST> 5.011881e+01
<STATE> 9
<MEAN> 13
 -5.993508e+00 -2.163648e+01 -2.567437e+01 -8.614964e-01 4.283309e+00 -9.087123e+00 1.263050e+01 -1.052855e+01 5.065159e+00 -1.301976e+01 -1.703059e+00 4.410568e-01 9.426821e-01
<VARIANCE> 13
 1.543844e+01 5.662485e+00 1.650985e+01 1.122113e+01 2.662144e+01 3.690720e+01 2.948656e+01 1.498524e+01 5.319340e+00 1.383123e+01 6.800477e+00 5.697686e+00 1.000000e-02
<GCONST> 4.991616e+01
<STATE> 10
<MEAN> 13
 -6.626272e+00 -2.208960e+01 -2.391699e+01 -1.199350e-01 4.244127e+00 -6.810567e+00 1.241609e+01 -9.624135e+00 5.526893e+00 -1.046229e+01 -1.866957e+00 1.068862e+00 9.723026e-01
<VARIANCE> 13
 7.071610e+00 2.367770e+00 2.262896e+01 6.540194e+00 3.810836e+01 3.195304e+01 3.269556e+01 7.651351e+00 1.463034e+01 1.267383e+01 6.984751e+00 2.286471e+01 1.000000e-02
<GCONST> 5.002525e+01
<STATE> 11
<MEAN> 13
 -4.816404e+00 -2.157468e+01 -2.545527e+01 4.593586e-01 7.286004e+00 -7.882205e+00 1.131043e+01 -8.243638e+00 5.781109e+00 -1.292968e+01 -3.435791e+00 2.071700e+00 9.781737e-01
<VARIANCE> 13
 9.391899e+00 4.880313e-01 4.207793e+01 4.117758e+00 2.505280e+01 4.752493e+01 1.700567e+01 7.838790e+00 1.412975e+01 1.564461e+01 1.586013e+01 5.212512e+00 1.000000e-02
<GCONST> 4.775269e+01
<STATE> 12
<MEAN> 13
 -8.870948e+00 -2.483906e+01 -2.033522e+01 -1.601448e+00 1.004015e+00 1.602869e-01 7.860569e+00 -5.799044e+00 5.388063e+00 -1.384813e+01 -7.438412e-01 8.322204e-01 9.868813e-01
<VARIANCE> 13
 6.393167e+00 4.678741e+00 6.320694e+00 5.123986e+00 2.119866e+01 1.879420e+01 1.020671e+01 5.035691e+00 7.433706e+00 1.200241e+01 3.318090e+00 5.324133e+00 1.000000e-02
<GCONST> 4.345310e+01
<STATE> 13
<MEAN> 13
 -6.529562e+00 -2.270747e+01 -2.261487e+01 4.756748e-01 6.976293e+00 -3.956139e+00 1.332390e+01 -6.969976e+00 2.794248e+00 -1.573960e+01 1.183422e+00 -5.464740e-01 9.894511e-01
<VARIANCE> 13
 6.405031e+00 8.708486e-01 1.368581e+01 1.590770e+00 3.048970e+01 4.406392e+01 1.696167e+01 2.107763e+00 2.616244e+01 1.302131e+01 1.208386e+01 1.017050e+01 1.000000e-02
<GCONST> 4.550850e+01
<STATE> 14
<MEAN> 13
 -7.123449e+00 -2.288289e+01 -2.420350e+01 7.412294e-01 4.636608e+00 -3.488838e+00 1.120388e+01 -9.148541e+00 5.135530e+00 -1.763793e+01 -1.622965e+00 -1.288051e+00 9.763147e-01
<VARIANCE> 13
 1.207059e+01 6.047785e-01 3.029321e+01 1.654464e+01 3.276910e+01 3.868963e+01 1.747284e+01 8.475635e+00 3.135128e+01 1.236991e+01 1.932779e+01 1.476729e+01 1.000000e-02
<GCONST> 5.124948e+01
<STATE> 15
<MEAN> 13
 -9.284855e+00 -2.248873e+01 -1.971541e+01 -2.977802e+00 7.883412e-01 -3.463651e-01 8.309259e+00 -7.187948e+00 2.156508e+00 -1.720308e+01 -7.865989e-01 -1.479044e-01 9.249741e-01
<VARIANCE> 13
 7.250757e+00 2.858592e+00 1.986579e+01 1.112481e+01 1.360068e+01 1.170982e+01 9.305724e+00 2.206324e+00 1.571976e+01 4.129645e+00 3.357763e+00 6.625376e+00 1.000000e-02
<GCONST> 4.308463e+01
<STATE> 16
<MEAN> 13
 -9.289792e+00 -2.260613e+01 -2.218923e+01 -1.798361e+00 5.070399e-01 -1.423651e-01 1.052137e+01 -6.863359e+00 6.014833e+00 -1.671210e+01 2.382617e+00 1.351875e+00 9.294466e-01
<VARIANCE> 13
 7.160141e+00 1.478243e+00 1.826960e+01 8.373094e+00 2.797188e+01 2.832599e+01 1.019924e+01 4.632281e+00 3.277880e+01 1.166959e+01 1.869807e+01 2.675348e+01 1.000000e-02
<GCONST> 4.936907e+01
<STATE> 17
<MEAN> 13
 -5.593427e+00 -2.167913e+01 -2.546943e+01 2.865100e+00 6.015738e+00 -5.191931e+00 1.294614e+01 -8.274710e+00 5.462670e+00 -1.956306e+01 -2.438954e-01 -1.013935e+00 9.297628e-01
<VARIANCE> 13
 1.514214e+01 7.632163e-01 2.673451e+01 2.399253e+01 2.068302e+01 2.068882e+01 8.741813e+00 9.172272e+00 2.775291e+01 3.648797e+00 1.162887e+01 1.021968e+01 1.000000e-02
<GCONST> 4.803695e+01
<STATE> 18
<MEAN> 13
 -8.006590e+00 -2.173938e+01 -2.244771e+01 -8.791280e-01 3.031578e+00 -3.856588e+00 1.204142e+01 -7.344641e+00 6.670891e+00 -1.802637e+01 2.306447e+00 6.709596e-01 8.800311e-01
<VARIANCE> 13
 2.006494e+01 1.812295e+00 3.683100e+01 2.644176e+01 2.375776e+01 2.505451e+01 1.479405e+01 6.244765e+00 1.538536e+01 8.633121e+00 1.105931e+01 1.080873e+01 1.000000e-02
<GCONST> 5.034967e+01
<STATE> 19
<MEAN> 13
 -7.346509e+00 -2.154917e+01 -2.188740e+01 -1.358775e+00 3.305431e+00 -4.171179e+00 1.170009e+01 -8.551838e+00 5.490394e+00 -2.013877e+01 6.855889e-01 -6.472556e-01 8.672442e-01
<VARIANCE> 13
 8.772718e+00 4.925643e+00 1.896373e+01 1.358923e+01 3.426422e+01 1.490942e+01 1.761244e+01 2.765595e+00 8.358205e+00 2.171930e+01 7.701444e+00 3.687829e+01 1.000000e-02
<GCONST> 4.957758e+01
<STATE> 20
<MEAN> 13
 -7.476123e+00 -2.104868e+01 -2.173633e+01 -1.763083e+00 5.889381e-01 -5.765073e+00 7.839442e+00 -9.549568e+00 8.700529e+00 -1.848901e+01 3.131248e+00 7.017091e-01 7.763562e-01
<VARIANCE> 13
 1.151742e+01 1.149150e+01 7.072996e+00 1.599124e+01 1.343424e+01 8.686327e+00 2.730633e+01 4.635676e+00 1.205170e+01 1.467732e+01 1.162431e+01 3.185616e+01 1.000000e-02
<GCONST> 4.959132e+01
<STATE> 21
<MEAN> 13
 -3.839942e+00 -2.111123e+01 -2.245338e+01 1.750039e+00 4.297544e+00 -9.246347e+00 1.288323e+01 -1.142563e+01 6.558721e+00 -2.132737e+01 2.076292e+00 -9.490616e-01 7.646612e-01
<VARIANCE> 13
 1.829038e+01 5.759938e+00 2.084430e+01 2.161448e+01 1.576898e+01 2.959627e+01 1.703652e+01 1.407726e+01 1.617563e+01 5.560342e+00 1.921155e+01 2.105747e+01 1.000000e-02
<GCONST> 5.218253e+01
<STATE> 22
<MEAN> 13
 -5.721486e+00 -2.145727e+01 -1.915606e+01 -1.094473e+00 4.207082e-01 -3.649480e+00 9.456627e+00 -8.717447e+00 1.076826e+01 -2.316753e+01 4.089324e+00 2.389363e+00 6.828192e-01
<VARIANCE> 13
 9.910610e+00 1.074631e+01 5.821404e+00 1.318913e+01 2.622938e+01 3.764893e+01 1.046398e+01 1.087904e+01 1.858386e+01 5.844526e+00 1.374351e+00 4.162571e+00 1.000000e-02
<GCONST> 4.635821e+01
<STATE> 23
<MEAN> 13
 -6.192039e+00 -2.218624e+01 -2.056230e+01 -1.339298e+00 4.250133e+00 -7.704880e+00 1.316722e+01 -9.892139e+00 6.978796e+00 -2.573755e+01 8.886943e-01 -2.081515e+00 6.336194e-01
<VARIANCE> 13
 1.860603e+01 6.467943e+00 2.270409e+01 1.064724e+01 2.689089e+01 5.956067e+01 3.207716e+01 1.309598e+01 1.437695e+01 1.139905e+01 6.779654e+00 9.976612e+00 1.000000e-02
<GCONST> 5.229797e+01
<STATE> 24
<MEAN> 13
 -5.269491e+00 -2.160958e+01 -1.603462e+01 -4.828075e-01 -4.464564e-01 -2.512168e+00 7.847696e+00 -7.673166e+00 7.657739e+00 -2.455245e+01 -5.807192e-01 3.121513e+00 5.374048e-01
<VARIANCE> 13
 1.485246e+01 1.135124e+01 2.988469e+01 7.199605e+00 1.252577e+01 4.615033e+01 3.151128e+01 9.401790e+00 1.126154e+01 4.655383e+00 5.414346e+00 3.073863e+00 1.000000e-02
<GCONST> 4.860844e+01
<STATE> 25
<MEAN> 13
 -8.190634e-01 -2.533665e+01 -1.195182e+01 -9.221819e-01 1.307485e+00 3.737005e-01 7.884672e+00 -2.355195e-01 1.878070e+00 -1.863635e+01 1.080245e+00 5.778333e+00 4.705324e-01
<VARIANCE> 13
 1.975311e+00 7.382838e+00 1.759493e+01 8.959222e+00 3.314638e+00 2.963907e+01 1.058208e+01 1.044450e+01 2.779718e+01 1.621455e+01 2.017628e+01 1.013091e+01 1.000000e-02
<GCONST> 4.775103e+01
<STATE> 26
<MEAN> 13
 2.872142e-01 -2.564820e+01 -1.401359e+01 -2.037424e-01 -5.946257e-01 -3.202485e+00 4.792662e+00 -2.983237e+00 -3.444330e+00 -1.709793e+01 1.271622e-01 5.885922e+00 4.425649e-01
<VARIANCE> 13
 3.585030e+00 2.579144e+00 5.167996e+00 7.403817e+00 4.978097e+00 5.292040e+01 1.357383e+01 5.423935e+00 1.277465e+01 6.392541e+00 6.490608e+00 1.472446e+01 1.000000e-02
<GCONST> 4.399120e+01
<STATE> 27
<MEAN> 13
 3.622019e-01 -2.412500e+01 -1.188935e+01 -1.054958e+00 9.771227e-01 -5.229134e+00 3.321490e+00 -8.830842e-01 -7.591868e-01 -1.420406e+01 3.063484e-01 3.494505e+00 3.795155e-01
<VARIANCE> 13
 3.743679e+00 3.790047e+00 6.681036e+00 1.983844e+01 3.361823e+00 2.887541e+01 1.924682e+01 7.632164e+00 1.795586e+00 1.090487e+01 1.264382e+01 2.540017e+01 1.000000e-02
<GCONST> 4.513823e+01
<STATE> 28
<MEAN> 13
 3.627548e-02 -2.487154e+01 -1.302398e+01 5.705910e-01 3.118581e+00 -2.449889e+00 3.361274e+00 -1.471085e+00 -2.444893e-02 -1.389523e+01 -1.777316e-01 5.679553e+00 3.727906e-01
<VARIANCE> 13
 1.005765e+01 1.304024e+01 3.206944e+00 9.384246e+00 6.226075e+00 1.073376e+01 1.242905e+01 3.364525e+00 3.306379e+01 1.637614e+01 8.173145e+00 1.122733e+01 1.000000e-02
<GCONST> 4.631689e+01
<STATE> 29
<MEAN> 13
 -3.795263e-01 -2.545852e+01 -1.431307e+01 9.875129e-01 4.714381e-01 -3.199197e+00 7.033945e+00 8.052775e-01 -2.160235e-01 -1.114900e+01 2.509154e+00 4.869483e+00 3.253011e-01
<VARIANCE> 13
 1.553349e+00 7.822365e-01 5.061847e+00 1.889289e+00 1.548453e+01 1.595563e+01 7.416580e+00 1.601838e+01 2.435622e+00 4.902089e+00 3.287435e+00 9.689039e+00 1.000000e-02
<GCONST> 3.796805e+01
<STATE> 30
<MEAN> 13
 -4.123420e-01 -2.454282e+01 -1.374870e+01 8.310252e-01 3.701848e+00 -3.647644e+00 5.538918e+00 1.025569e+00 -1.822791e+00 -1.122955e+01 -6.500937e-01 3.697983e+00 2.982971e-01
<VARIANCE> 13
 2.889006e+00 2.377059e+00 6.748004e+00 3.325248e+00 1.150509e+01 7.399868e+00 1.474455e+01 7.906199e+00 1.551053e+01 1.920457e+01 1.073290e+01 4.514026e+00 1.000000e-02
<GCONST> 4.310474e+01
<STATE> 31
<MEAN> 13
 -1.345163e+00 -2.425641e+01 -1.413939e+01 5.224130e-01 2.932320e+00 -4.997864e+00 3.472986e+00 7.906234e-01 -1.623670e+00 -1.029796e+01 1.849349e+00 4.004794e+00 2.487792e-01
<VARIANCE> 13
 1.201891e+00 1.241087e+00 2.370192e+00 5.117325e-01 3.619693e+00 3.922200e+00 7.565349e+00 3.676208e+00 5.279307e+00 5.389863e+00 1.025209e+01 2.180994e+01 1.000000e-02
<GCONST> 3.461680e+01
<STATE> 32
<MEAN> 13
 -1.709074e+00 -2.337611e+01 -1.411718e+01 1.227685e+00 2.379713e+00 -3.842258e+00 6.624831e+00 1.375765e+00 -7.386584e-01 -1.032601e+01 3.069479e+00 4.905676e+00 2.228334e-01
<VARIANCE> 13
 6.801810e-01 2.794763e+00 7.374147e+00 1.393985e+01 6.152576e+00 2.468780e+00 1.611430e+00 5.257771e+00 1.439203e+01 1.323070e+01 6.928635e+00 5.783306e+00 1.000000e-02
<GCONST> 3.835959e+01
<STATE> 33
<MEAN> 13
 -1.563814e-01 -1.950070e+01 -1.042391e+01 1.986843e-01 2.385205e+00 -7.205900e+00 7.106797e-01 -3.047262e+00 -4.188983e+00 -9.183317e+00 -9.469337e-01 1.558002e+00 2.121328e-01
<VARIANCE> 13
 2.476842e+00 9.958809e+00 4.434236e+00 3.948791e+00 2.694681e+00 1.260816e+01 6.479064e+00 8.708225e+00 1.828004e+01 8.725352e+00 1.136045e+01 7.884951e+00 1.000000e-02
<GCONST> 4.248104e+01
<STATE> 34
<MEAN> 13
 -7.949733e-01 -1.876873e+01 -8.343789e+00 2.343287e+00 5.719075e+00 -5.135110e+00 2.577964e+00 -2.565575e+00 -2.414998e+00 -8.865253e+00 -9.384840e-01 2.910529e+00 2.061509e-01
<VARIANCE> 13
 7.291017e+00 8.855697e+00 5.308826e+00 4.008189e+00 4.238883e+00 1.038018e+01 5.224828e+00 4.011031e+00 5.159461e+00 2.653871e+00 2.741717e+00 2.463628e+00 1.000000e-02
<GCONST> 3.786639e+01
<STATE> 35
<MEAN> 13
 -9.045910e-01 -1.905379e+01 -8.644198e+00 2.225806e+00 4.005035e+00 -5.347818e+00 3.457157e+00 -1.861490e+00 -4.336587e+00 -1.120027e+01 8.669378e-02 2.561086e+00 1.632740e-01
<VARIANCE> 13
 5.063731e+00 2.672670e+00 1.888870e+00 2.251312e+00 6.679863e+00 1.161988e+01 5.650564e+00 5.480649e+00 1.175072e+01 1.397548e+01 6.638734e+00 2.602708e+00 1.000000e-02
<GCONST> 3.907540e+01
<STATE> 36
<MEAN> 13
 -4.723678e+00 -1.618749e+01 -8.463947e+00 -1.668991e+00 2.505812e+00 -4.672646e+00 2.974010e+00 -8.620026e-01 -2.574169e+00 -1.109984e+01 -1.167555e+00 2.956435e+00 1.164498e-02
<VARIANCE> 13
 6.223449e+00 1.991821e+00 2.693723e+00 2.184207e+00 1.511809e+01 1.691413e+01 9.306993e+00 1.619378e+01 1.128399e+01 5.839690e+00 5.395116e+00 6.097200e+00 1.000000e-02
<GCONST> 4.181760e+01
<STATE> 37
<MEAN> 13
 -5.805565e+00 -1.270937e+01 -5.455927e+00 5.548112e-01 4.263966e+00 -3.095644e+00 4.001091e+00 8.167601e-02 -1.667282e+00 -6.061148e+00 7.747528e-01 1.202386e+00 -7.295673e-02
<VARIANCE> 13
 4.375629e-01 9.051364e-01 2.717317e+00 2.170190e+00 1.651914e+00 2.999011e+00 5.235499e+00 3.937175e+00 4.251555e+00 1.772163e+01 1.742274e+01 9.291410e+00 1.000000e-02
<GCONST> 3.417057e+01
<TRANSP> 38
 0.000000e+00 1.000000e+00 0.000000e+00 0.000000e+00 0.000000e+00 0.000000e+00 0.000000e+00 0.000000e+00 0.000000e+00 0.000000e+00 0.000000e+00 0.000000e+00 0.000000e+00 0.000000e+00 0.000000e+00 0.000000e+00 0.000000e+00 0.000000e+00 0.000000e+00 0.000000e+00 0.000000e+00 0.000000e+00 0.000000e+00 0.000000e+00 0.000000e+00 0.000000e+00 0.000000e+00 0.000000e+00 0.000000e+00 0.000000e+00 0.000000e+00 0.000000e+00 0.000000e+00 0.000000e+00 0.000000e+00 0.000000e+00 0.000000e+00 0.000000e+00
 0.000000e+00 5.000000e-01 5.000000e-01 0.000000e+00 0.000000e+00 0.000000e+00 0.000000e+00 0.000000e+00 0.000000e+00 0.000000e+00 0.000000e+00 0.000000e+00 0.000000e+00 0.000000e+00 0.000000e+00 0.000000e+00 0.000000e+00 0.000000e+00 0.000000e+00 0.000000e+00 0.000000e+00 0.000000e+00 0.000000e+00 0.000000e+00 0.000000e+00 0.000000e+00 0.000000e+00 0.000000e+00 0.000000e+00 0.000000e+00 0.000000e+00 0.000000e+00 0.000000e+00 0.000000e+00 0.000000e+00 0.000000e+00 0.000000e+00 0.000000e+00
 0.000000e+00 0.000000e+00 2.857143e-01 7.142857e-01 0.000000e+00 0.000000e+00 0.000000e+00 0.000000e+00 0.000000e+00 0.000000e+00 0.000000e+00 0.000000e+00 0.000000e+00 0.000000e+00 0.000000e+00 0.000000e+00 0.000000e+00 0.000000e+00 0.000000e+00 0.000000e+00 0.000000e+00 0.000000e+00 0.000000e+00 0.000000e+00 0.000000e+00 0.000000e+00 0.000000e+00 0.000000e+00 0.000000e+00 0.000000e+00 0.000000e+00 0.000000e+00 0.000000e+00 0.000000e+00 0.000000e+00 0.000000e+00 0.000000e+00 0.000000e+00
 0.000000e+00 0.000000e+00 0.000000e+00 4.444444e-01 5.555556e-01 0.000000e+00 0.000000e+00 0.000000e+00 0.000000e+00 0.000000e+00 0.000000e+00 0.000000e+00 0.000000e+00 0.000000e+00 0.000000e+00 0.000000e+00 0.000000e+00 0.000000e+00 0.000000e+00 0.000000e+00 0.000000e+00 0.000000e+00 0.000000e+00 0.000000e+00 0.000000e+00 0.000000e+00 0.000000e+00 0.000000e+00 0.000000e+00 0.000000e+00 0.000000e+00 0.000000e+00 0.000000e+00 0.000000e+00 0.000000e+00 0.000000e+00 0.000000e+00 0.000000e+00
 0.000000e+00 0.000000e+00 0.000000e+00 0.000000e+00 2.857143e-01 7.142857e-01 0.000000e+00 0.000000e+00 0.000000e+00 0.000000e+00 0.000000e+00 0.000000e+00 0.000000e+00 0.000000e+00 0.000000e+00 0.000000e+00 0.000000e+00 0.000000e+00 0.000000e+00 0.000000e+00 0.000000e+00 0.000000e+00 0.000000e+00 0.000000e+00 0.000000e+00 0.000000e+00 0.000000e+00 0.000000e+00 0.000000e+00 0.000000e+00 0.000000e+00 0.000000e+00 0.000000e+00 0.000000e+00 0.000000e+00 0.000000e+00 0.000000e+00 0.000000e+00
 0.000000e+00 0.000000e+00 0.000000e+00 0.000000e+00 0.000000e+00 3.750000e-01 6.250000e-01 0.000000e+00 0.000000e+00 0.000000e+00 0.000000e+00 0.000000e+00 0.000000e+00 0.000000e+00 0.000000e+00 0.000000e+00 0.000000e+00 0.000000e+00 0.000000e+00 0.000000e+00 0.000000e+00 0.000000e+00 0.000000e+00 0.000000e+00 0.000000e+00 0.000000e+00 0.000000e+00 0.000000e+00 0.000000e+00 0.000000e+00 0.000000e+00 0.000000e+00 0.000000e+00 0.000000e+00 0.000000e+00 0.000000e+00 0.000000e+00 0.000000e+00
 0.000000e+00 0.000000e+00 0.000000e+00 0.000000e+00 0.000000e+00 0.000000e+00 2.857143e-01 7.142857e-01 0.000000e+00 0.000000e+00 0.000000e+00 0.000000e+00 0.000000e+00 0.000000e+00 0.000000e+00 0.000000e+00 0.000000e+00 0.000000e+00 0.000000e+00 0.000000e+00 0.000000e+00 0.000000e+00 0.000000e+00 0.000000e+00 0.000000e+00 0.000000e+00 0.000000e+00 0.000000e+00 0.000000e+00 0.000000e+00 0.000000e+00 0.000000e+00 0.000000e+00 0.000000e+00 0.000000e+00 0.000000e+00 0.000000e+00 0.000000e+00
 0.000000e+00 0.000000e+00 0.000000e+00 0.000000e+00 0.000000e+00 0.000000e+00 0.000000e+00 3.750000e-01 6.250000e-01 0.000000e+00 0.000000e+00 0.000000e+00 0.000000e+00 0.000000e+00 0.000000e+00 0.000000e+00 0.000000e+00 0.000000e+00 0.000000e+00 0.000000e+00 0.000000e+00 0.000000e+00 0.000000e+00 0.000000e+00 0.000000e+00 0.000000e+00 0.000000e+00 0.000000e+00 0.000000e+00 0.000000e+00 0.000000e+00 0.000000e+00 0.000000e+00 0.000000e+00 0.000000e+00 0.000000e+00 0.000000e+00 0.000000e+00
 0.000000e+00 0.000000e+00 0.000000e+00 0.000000e+00 0.000000e+00 0.000000e+00 0.000000e+00 0.000000e+00 1.666667e-01 8.333333e-01 0.000000e+00 0.000000e+00 0.000000e+00 0.000000e+00 0.000000e+00 0.000000e+00 0.000000e+00 0.000000e+00 0.000000e+00 0.000000e+00 0.000000e+00 0.000000e+00 0.000000e+00 0.000000e+00 0.000000e+00 0.000000e+00 0.000000e+00 0.000000e+00 0.000000e+00 0.000000e+00 0.000000e+00 0.000000e+00 0.000000e+00 0.000000e+00 0.000000e+00 0.000000e+00 0.000000e+00 0.000000e+00
 0.000000e+00 0.000000e+00 0.000000e+00 0.000000e+00 0.000000e+00 0.000000e+00 0.000000e+00 0.000000e+00 0.000000e+00 4.444444e-01 5.555556e-01 0.000000e+00 0.000000e+00 0.000000e+00 0.000000e+00 0.000000e+00 0.000000e+00 0.000000e+00 0.000000e+00 0.000000e+00 0.000000e+00 0.000000e+00 0.000000e+00 0.000000e+00 0.000000e+00 0.000000e+00 0.000000e+00 0.000000e+00 0.000000e+00 0.000000e+00 0.000000e+00 0.000000e+00 0.000000e+00 0.000000e+00 0.000000e+00 0.000000e+00 0.000000e+00 0.000000e+00
 0.000000e+00 0.000000e+00 0.000000e+00 0.000000e+00 0.000000e+00 0.000000e+00 0.000000e+00 0.000000e+00 0.000000e+00 0.000000e+00 2.857143e-01 7.142857e-01 0.000000e+00 0.000000e+00 0.000000e+00 0.000000e+00 0.000000e+00 0.000000e+00 0.000000e+00 0.000000e+00 0.000000e+00 0.000000e+00 0.000000e+00 0.000000e+00 0.000000e+00 0.000000e+00 0.000000e+00 0.000000e+00 0.000000e+00 0.000000e+00 0.000000e+00 0.000000e+00 0.000000e+00 0.000000e+00 0.000000e+00 0.000000e+00 0.000000e+00 0.000000e+00
 0.000000e+00 0.000000e+00 0.000000e+00 0.000000e+00 0.000000e+00 0.000000e+00 0.000000e+00 0.000000e+00 0.000000e+00 0.000000e+00 0.000000e+00 6.666667e-01 3.333333e-01 0.000000e+00 0.000000e+00 0.000000e+00 0.000000e+00 0.000000e+00 0.000000e+00 0.000000e+00 0.000000e+00 0.000000e+00 0.000000e+00 0.000000e+00 0.000000e+00 0.000000e+00 0.000000e+00 0.000000e+00 0.000000e+00 0.000000e+00 0.000000e+00 0.000000e+00 0.000000e+00 0.000000e+00 0.000000e+00 0.000000e+00 0.000000e+00 0.000000e+00
 0.000000e+00 0.000000e+00 0.000000e+00 0.000000e+00 0.000000e+00 0.000000e+00 0.000000e+00 0.000000e+00 0.000000e+00 0.000000e+00 0.000000e+00 0.000000e+00 3.750000e-01 6.250000e-01 0.000000e+00 0.000000e+00 0.000000e+00 0.000000e+00 0.000000e+00 0.000000e+00 0.000000e+00 0.000000e+00 0.000000e+00 0.000000e+00 0.000000e+00 0.000000e+00 0.000000e+00 0.000000e+00 0.000000e+00 0.000000e+00 0.000000e+00 0.000000e+00 0.000000e+00 0.000000e+00 0.000000e+00 0.000000e+00 0.000000e+00 0.000000e+00
 0.000000e+00 0.000000e+00 0.000000e+00 0.000000e+00 0.000000e+00 0.000000e+00 0.000000e+00 0.000000e+00 0.000000e+00 0.000000e+00 0.000000e+00 0.000000e+00 0.000000e+00 1.666667e-01 8.333333e-01 0.000000e+00 0.000000e+00 0.000000e+00 0.000000e+00 0.000000e+00 0.000000e+00 0.000000e+00 0.000000e+00 0.000000e+00 0.000000e+00 0.000000e+00 0.000000e+00 0.000000e+00 0.000000e+00 0.000000e+00 0.000000e+00 0.000000e+00 0.000000e+00 0.000000e+00 0.000000e+00 0.000000e+00 0.000000e+00 0.000000e+00
 0.000000e+00 0.000000e+00 0.000000e+00 0.000000e+00 0.000000e+00 0.000000e+00 0.000000e+00 0.000000e+00 0.000000e+00 0.000000e+00 0.000000e+00 0.000000e+00 0.000000e+00 0.000000e+00 5.454546e-01 4.545455e-01 0.000000e+00 0.000000e+00 0.000000e+00 0.000000e+00 0.000000e+00 0.000000e+00 0.000000e+00 0.000000e+00 0.000000e+00 0.000000e+00 0.000000e+00 0.000000e+00 0.000000e+00 0.000000e+00 0.000000e+00 0.000000e+00 0.000000e+00 0.000000e+00 0.000000e+00 0.000000e+00 0.000000e+00 0.000000e+00
 0.000000e+00 0.000000e+00 0.000000e+00 0.000000e+00 0.000000e+00 0.000000e+00 0.000000e+00 0.000000e+00 0.000000e+00 0.000000e+00 0.000000e+00 0.000000e+00 0.000000e+00 0.000000e+00 0.000000e+00 3.750000e-01 6.250000e-01 0.000000e+00 0.000000e+00 0.000000e+00 0.000000e+00 0.000000e+00 0.000000e+00 0.000000e+00 0.000000e+00 0.000000e+00 0.000000e+00 0.000000e+00 0.000000e+00 0.000000e+00 0.000000e+00 0.000000e+00 0.000000e+00 0.000000e+00 0.000000e+00 0.000000e+00 0.000000e+00 0.000000e+00
 0.000000e+00 0.000000e+00 0.000000e+00 0.000000e+00 0.000000e+00 0.000000e+00 0.000000e+00 0.000000e+00 0.000000e+00 0.000000e+00 0.000000e+00 0.000000e+00 0.000000e+00 0.000000e+00 0.000000e+00 0.000000e+00 5.000000e-01 5.000000e-01 0.000000e+00 0.000000e+00 0.000000e+00 0.000000e+00 0.000000e+00 0.000000e+00 0.000000e+00 0.000000e+00 0.000000e+00 0.000000e+00 0.000000e+00 0.000000e+00 0.000000e+00 0.000000e+00 0.000000e+00 0.000000e+00 0.000000e+00 0.000000e+00 0.000000e+00 0.000000e+00
 0.000000e+00 0.000000e+00 0.000000e+00 0.000000e+00 0.000000e+00 0.000000e+00 0.000000e+00 0.000000e+00 0.000000e+00 0.000000e+00 0.000000e+00 0.000000e+00 0.000000e+00 0.000000e+00 0.000000e+00 0.000000e+00 0.000000e+00 0.000000e+00 1.000000e+00 0.000000e+00 0.000000e+00 0.000000e+00 0.000000e+00 0.000000e+00 0.000000e+00 0.000000e+00 0.000000e+00 0.000000e+00 0.000000e+00 0.000000e+00 0.000000e+00 0.000000e+00 0.000000e+00 0.000000e+00 0.000000e+00 0.000000e+00 0.000000e+00 0.000000e+00
 0.000000e+00 0.000000e+00 0.000000e+00 0.000000e+00 0.000000e+00 0.000000e+00 0.000000e+00 0.000000e+00 0.000000e+00 0.000000e+00 0.000000e+00 0.000000e+00 0.000000e+00 0.000000e+00 0.000000e+00 0.000000e+00 0.000000e+00 0.000000e+00 2.857143e-01 7.142857e-01 0.000000e+00 0.000000e+00 0.000000e+00 0.000000e+00 0.000000e+00 0.000000e+00 0.000000e+00 0.000000e+00 0.000000e+00 0.000000e+00 0.000000e+00 0.000000e+00 0.000000e+00 0.000000e+00 0.000000e+00 0.000000e+00 0.000000e+00 0.000000e+00
 0.000000e+00 0.000000e+00 0.000000e+00 0.000000e+00 0.000000e+00 0.000000e+00 0.000000e+00 0.000000e+00 0.000000e+00 0.000000e+00 0.000000e+00 0.000000e+00 0.000000e+00 0.000000e+00 0.000000e+00 0.000000e+00 0.000000e+00 0.000000e+00 0.000000e+00 5.000000e-01 5.000000e-01 0.000000e+00 0.000000e+00 0.000000e+00 0.000000e+00 0.000000e+00 0.000000e+00 0.000000e+00 0.000000e+00 0.000000e+00 0.000000e+00 0.000000e+00 0.000000e+00 0.000000e+00 0.000000e+00 0.000000e+00 0.000000e+00 0.000000e+00
 0.000000e+00 0.000000e+00 0.000000e+00 0.000000e+00 0.000000e+00 0.000000e+00 0.000000e+00 0.000000e+00 0.000000e+00 0.000000e+00 0.000000e+00 0.000000e+00 0.000000e+00 0.000000e+00 0.000000e+00 0.000000e+00 0.000000e+00 0.000000e+00 0.000000e+00 0.000000e+00 4.444444e-01 5.555556e-01 0.000000e+00 0.000000e+00 0.000000e+00 0.000000e+00 0.000000e+00 0.000000e+00 0.000000e+00 0.000000e+00 0.000000e+00 0.000000e+00 0.000000e+00 0.000000e+00 0.000000e+00 0.000000e+00 0.000000e+00 0.000000e+00
 0.000000e+00 0.000000e+00 0.000000e+00 0.000000e+00 0.000000e+00 0.000000e+00 0.000000e+00 0.000000e+00 0.000000e+00 0.000000e+00 0.000000e+00 0.000000e+00 0.000000e+00 0.000000e+00 0.000000e+00 0.000000e+00 0.000000e+00 0.000000e+00 0.000000e+00 0.000000e+00 0.000000e+00 3.750000e-01 6.250000e-01 0.000000e+00 0.000000e+00 0.000000e+00 0.000000e+00 0.000000e+00 0.000000e+00 0.000000e+00 0.000000e+00 0.000000e+00 0.000000e+00 0.000000e+00 0.000000e+00 0.000000e+00 0.000000e+00 0.000000e+00
 0.000000e+00 0.000000e+00 0.000000e+00 0.000000e+00 0.000000e+00 0.000000e+00 0.000000e+00 0.000000e+00 0.000000e+00 0.000000e+00 0.000000e+00 0.000000e+00 0.000000e+00 0.000000e+00 0.000000e+00 0.000000e+00 0.000000e+00 0.000000e+00 0.000000e+00 0.000000e+00 0.000000e+00 0.000000e+00 4.444444e-01 5.555556e-01 0.000000e+00 0.000000e+00 0.000000e+00 0.000000e+00 0.000000e+00 0.000000e+00 0.000000e+00 0.000000e+00 0.000000e+00 0.000000e+00 0.000000e+00 0.000000e+00 0.000000e+00 0.000000e+00
 0.000000e+00 0.000000e+00 0.000000e+00 0.000000e+00 0.000000e+00 0.000000e+00 0.000000e+00 0.000000e+00 0.000000e+00 0.000000e+00 0.000000e+00 0.000000e+00 0.000000e+00 0.000000e+00 0.000000e+00 0.000000e+00 0.000000e+00 0.000000e+00 0.000000e+00 0.000000e+00 0.000000e+00 0.000000e+00 0.000000e+00 2.857143e-01 7.142857e-01 0.000000e+00 0.000000e+00 0.000000e+00 0.000000e+00 0.000000e+00 0.000000e+00 0.000000e+00 0.000000e+00 0.000000e+00 0.000000e+00 0.000000e+00 0.000000e+00 0.000000e+00
 0.000000e+00 0.000000e+00 0.000000e+00 0.000000e+00 0.000000e+00 0.000000e+00 0.000000e+00 0.000000e+00 0.000000e+00 0.000000e+00 0.000000e+00 0.000000e+00 0.000000e+00 0.000000e+00 0.000000e+00 0.000000e+00 0.000000e+00 0.000000e+00 0.000000e+00 0.000000e+00 0.000000e+00 0.000000e+00 0.000000e+00 0.000000e+00 4.444444e-01 5.555556e-01 0.000000e+00 0.000000e+00 0.000000e+00 0.000000e+00 0.000000e+00 0.000000e+00 0.000000e+00 0.000000e+00 0.000000e+00 0.000000e+00 0.000000e+00 0.000000e+00
 0.000000e+00 0.000000e+00 0.000000e+00 0.000000e+00 0.000000e+00 0.000000e+00 0.000000e+00 0.000000e+00 0.000000e+00 0.000000e+00 0.000000e+00 0.000000e+00 0.000000e+00 0.000000e+00 0.000000e+00 0.000000e+00 0.000000e+00 0.000000e+00 0.000000e+00 0.000000e+00 0.000000e+00 0.000000e+00 0.000000e+00 0.000000e+00 0.000000e+00 3.750000e-01 6.250000e-01 0.000000e+00 0.000000e+00 0.000000e+00 0.000000e+00 0.000000e+00 0.000000e+00 0.000000e+00 0.000000e+00 0.000000e+00 0.000000e+00 0.000000e+00
 0.000000e+00 0.000000e+00 0.000000e+00 0.000000e+00 0.000000e+00 0.000000e+00 0.000000e+00 0.000000e+00 0.000000e+00 0.000000e+00 0.000000e+00 0.000000e+00 0.000000e+00 0.000000e+00 0.000000e+00 0.000000e+00 0.000000e+00 0.000000e+00 0.000000e+00 0.000000e+00 0.000000e+00 0.000000e+00 0.000000e+00 0.000000e+00 0.000000e+00 0.000000e+00 1.666667e-01 8.333333e-01 0.000000e+00 0.000000e+00 0.000000e+00 0.000000e+00 0.000000e+00 0.000000e+00 0.000000e+00 0.000000e+00 0.000000e+00 0.000000e+00
 0.000000e+00 0.000000e+00 0.000000e+00 0.000000e+00 0.000000e+00 0.000000e+00 0.000000e+00 0.000000e+00 0.000000e+00 0.000000e+00 0.000000e+00 0.000000e+00 0.000000e+00 0.000000e+00 0.000000e+00 0.000000e+00 0.000000e+00 0.000000e+00 0.000000e+00 0.000000e+00 0.000000e+00 0.000000e+00 0.000000e+00 0.000000e+00 0.000000e+00 0.000000e+00 0.000000e+00 3.750000e-01 6.250000e-01 0.000000e+00 0.000000e+00 0.000000e+00 0.000000e+00 0.000000e+00 0.000000e+00 0.000000e+00 0.000000e+00 0.000000e+00
 0.000000e+00 0.000000e+00 0.000000e+00 0.000000e+00 0.000000e+00 0.000000e+00 0.000000e+00 0.000000e+00 0.000000e+00 0.000000e+00 0.000000e+00 0.000000e+00 0.000000e+00 0.000000e+00 0.000000e+00 0.000000e+00 0.000000e+00 0.000000e+00 0.000000e+00 0.000000e+00 0.000000e+00 0.000000e+00 0.000000e+00 0.000000e+00 0.000000e+00 0.000000e+00 0.000000e+00 0.000000e+00 4.444444e-01 5.555556e-01 0.000000e+00 0.000000e+00 0.000000e+00 0.000000e+00 0.000000e+00 0.000000e+00 0.000000e+00 0.000000e+00
 0.000000e+00 0.000000e+00 0.000000e+00 0.000000e+00 0.000000e+00 0.000000e+00 0.000000e+00 0.000000e+00 0.000000e+00 0.000000e+00 0.000000e+00 0.000000e+00 0.000000e+00 0.000000e+00 0.000000e+00 0.000000e+00 0.000000e+00 0.000000e+00 0.000000e+00 0.000000e+00 0.000000e+00 0.000000e+00 0.000000e+00 0.000000e+00 0.000000e+00 0.000000e+00 0.000000e+00 0.000000e+00 0.000000e+00 5.454546e-01 4.545455e-01 0.000000e+00 0.000000e+00 0.000000e+00 0.000000e+00 0.000000e+00 0.000000e+00 0.000000e+00
 0.000000e+00 0.000000e+00 0.000000e+00 0.000000e+00 0.000000e+00 0.000000e+00 0.000000e+00 0.000000e+00 0.000000e+00 0.000000e+00 0.000000e+00 0.000000e+00 0.000000e+00 0.000000e+00 0.000000e+00 0.000000e+00 0.000000e+00 0.000000e+00 0.000000e+00 0.000000e+00 0.000000e+00 0.000000e+00 0.000000e+00 0.000000e+00 0.000000e+00 0.000000e+00 0.000000e+00 0.000000e+00 0.000000e+00 0.000000e+00 2.857143e-01 7.142857e-01 0.000000e+00 0.000000e+00 0.000000e+00 0.000000e+00 0.000000e+00 0.000000e+00
 0.000000e+00 0.000000e+00 0.000000e+00 0.000000e+00 0.000000e+00 0.000000e+00 0.000000e+00 0.000000e+00 0.000000e+00 0.000000e+00 0.000000e+00 0.000000e+00 0.000000e+00 0.000000e+00 0.000000e+00 0.000000e+00 0.000000e+00 0.000000e+00 0.000000e+00 0.000000e+00 0.000000e+00 0.000000e+00 0.000000e+00 0.000000e+00 0.000000e+00 0.000000e+00 0.000000e+00 0.000000e+00 0.000000e+00 0.000000e+00 0.000000e+00 2.857143e-01 7.142857e-01 0.000000e+00 0.000000e+00 0.000000e+00 0.000000e+00 0.000000e+00
 0.000000e+00 0.000000e+00 0.000000e+00 0.000000e+00 0.000000e+00 0.000000e+00 0.000000e+00 0.000000e+00 0.000000e+00 0.000000e+00 0.000000e+00 0.000000e+00 0.000000e+00 0.000000e+00 0.000000e+00 0.000000e+00 0.000000e+00 0.000000e+00 0.000000e+00 0.000000e+00 0.000000e+00 0.000000e+00 0.000000e+00 0.000000e+00 0.000000e+00 0.000000e+00 0.000000e+00 0.000000e+00 0.000000e+00 0.000000e+00 0.000000e+00 0.000000e+00 4.444444e-01 5.555556e-01 0.000000e+00 0.000000e+00 0.000000e+00 0.000000e+00
 0.000000e+00 0.000000e+00 0.000000e+00 0.000000e+00 0.000000e+00 0.000000e+00 0.000000e+00 0.000000e+00 0.000000e+00 0.000000e+00 0.000000e+00 0.000000e+00 0.000000e+00 0.000000e+00 0.000000e+00 0.000000e+00 0.000000e+00 0.000000e+00 0.000000e+00 0.000000e+00 0.000000e+00 0.000000e+00 0.000000e+00 0.000000e+00 0.000000e+00 0.000000e+00 0.000000e+00 0.000000e+00 0.000000e+00 0.000000e+00 0.000000e+00 0.000000e+00 0.000000e+00 2.857143e-01 7.142857e-01 0.000000e+00 0.000000e+00 0.000000e+00
 0.000000e+00 0.000000e+00 0.000000e+00 0.000000e+00 0.000000e+00 0.000000e+00 0.000000e+00 0.000000e+00 0.000000e+00 0.000000e+00 0.000000e+00 0.000000e+00 0.000000e+00 0.000000e+00 0.000000e+00 0.000000e+00 0.000000e+00 0.000000e+00 0.000000e+00 0.000000e+00 0.000000e+00 0.000000e+00 0.000000e+00 0.000000e+00 0.000000e+00 0.000000e+00 0.000000e+00 0.000000e+00 0.000000e+00 0.000000e+00 0.000000e+00 0.000000e+00 0.000000e+00 0.000000e+00 5.000000e-01 5.000000e-01 0.000000e+00 0.000000e+00
 0.000000e+00 0.000000e+00 0.000000e+00 0.000000e+00 0.000000e+00 0.000000e+00 0.000000e+00 0.000000e+00 0.000000e+00 0.000000e+00 0.000000e+00 0.000000e+00 0.000000e+00 0.000000e+00 0.000000e+00 0.000000e+00 0.000000e+00 0.000000e+00 0.000000e+00 0.000000e+00 0.000000e+00 0.000000e+00 0.000000e+00 0.000000e+00 0.000000e+00 0.000000e+00 0.000000e+00 0.000000e+00 0.000000e+00 0.000000e+00 0.000000e+00 0.000000e+00 0.000000e+00 0.000000e+00 0.000000e+00 4.444444e-01 5.555556e-01 0.000000e+00
 0.000000e+00 0.000000e+00 0.000000e+00 0.000000e+00 0.000000e+00 0.000000e+00 0.000000e+00 0.000000e+00 0.000000e+00 0.000000e+00 0.000000e+00 0.000000e+00 0.000000e+00 0.000000e+00 0.000000e+00 0.000000e+00 0.000000e+00 0.000000e+00 0.000000e+00 0.000000e+00 0.000000e+00 0.000000e+00 0.000000e+00 0.000000e+00 0.000000e+00 0.000000e+00 0.000000e+00 0.000000e+00 0.000000e+00 0.000000e+00 0.000000e+00 0.000000e+00 0.000000e+00 0.000000e+00 0.000000e+00 0.000000e+00 0.000000e+00 1.000000e+00
 0.000000e+00 0.000000e+00 0.000000e+00 0.000000e+00 0.000000e+00 0.000000e+00 0.000000e+00 0.000000e+00 0.000000e+00 0.000000e+00 0.000000e+00 0.000000e+00 0.000000e+00 0.000000e+00 0.000000e+00 0.000000e+00 0.000000e+00 0.000000e+00 0.000000e+00 0.000000e+00 0.000000e+00 0.000000e+00 0.000000e+00 0.000000e+00 0.000000e+00 0.000000e+00 0.000000e+00 0.000000e+00 0.000000e+00 0.000000e+00 0.000000e+00 0.000000e+00 0.000000e+00 0.000000e+00 0.000000e+00 0.000000e+00 0.000000e+00 0.000000e+00
<ENDHMM>
