~o
<STREAMINFO> 1 39
<VECSIZE> 39<NULLD><MFCC_E_D_A><DIAGC>
~h "Ba"
<BEGINHMM>
<NUMSTATES> 27
<STATE> 2
<MEAN> 39
 -5.979415e+00 -8.463389e+00 -2.151284e+00 -2.455372e+00 -3.474649e-01 -4.341513e+00 2.891032e+00 9.833940e-02 3.577756e-01 -2.297589e+00 6.013109e-01 -3.382847e+00 -1.008521e-01 1.282475e+00 4.296269e-01 -4.529907e-01 -8.015284e-01 -3.779137e-01 -4.911349e-01 -4.215077e-01 -2.949925e-01 1.586391e-01 -5.121494e-01 -1.981403e-01 -2.296163e-01 6.568976e-02 8.499923e-01 -1.717200e-01 -5.701388e-01 -3.799073e-01 -2.995287e-01 -5.977215e-01 -5.759360e-01 -3.649894e-01 -1.444007e-01 -5.281184e-01 -3.506749e-01 -1.239727e-01 4.118507e-02
<VARIANCE> 39
 2.845706e+00 3.754003e+00 3.459972e+00 2.835501e+00 7.458413e+00 5.734208e+00 7.316238e+00 7.522916e+00 7.667438e+00 1.497718e+01 5.331771e+00 9.654408e+00 1.000000e-02 2.248050e+00 2.481874e-01 4.554706e-01 4.692102e-01 9.549343e-01 1.353217e+00 1.598853e+00 1.127514e+00 8.596356e-01 2.698189e+00 1.086226e+00 4.361779e-01 1.000000e-02 1.423773e-01 1.696278e-01 1.539085e-01 8.649256e-02 2.076121e-01 2.129662e-01 1.463749e-01 1.185836e-01 1.727413e-01 4.248171e-01 2.863526e-01 2.489474e-01 1.000000e-02
<GCONST> 5.730762e+01
<STATE> 3
<MEAN> 39
 2.688542e+00 -7.270842e+00 -6.264523e+00 -7.296916e+00 -2.743327e+00 -1.074192e+01 -2.880159e+00 -4.177081e+00 -3.736239e-01 -5.894256e+00 -3.549301e+00 -5.196810e+00 2.912094e-01 3.181917e+00 -1.221105e+00 -2.489375e+00 -9.337145e-01 -1.282385e+00 -1.727296e+00 -1.827628e+00 -1.143310e+00 -4.699786e-01 -1.415229e+00 -2.129427e+00 -1.858894e+00 1.714714e-01 -8.248687e-01 -8.856103e-01 -6.715165e-01 4.704145e-01 1.549253e-01 4.057849e-01 8.882444e-01 9.705075e-03 5.139872e-01 1.090269e-01 -2.497647e-02 -1.860403e-01 6.434381e-03
<VARIANCE> 39
 1.596031e+01 3.763631e+00 7.339875e+00 3.033095e+00 1.107536e+01 4.191577e+00 9.720839e-01 3.027519e+00 1.104332e+01 3.227057e+01 4.560005e+00 4.590174e+00 2.936339e-02 1.311607e+00 7.786022e-01 6.847184e-01 8.340700e-01 1.652226e+00 2.775694e+00 3.473560e-01 9.598770e-01 5.231622e-01 8.383338e-01 3.803385e-01 1.547647e+00 1.000000e-02 6.785324e-01 3.185911e-02 1.162159e-01 9.408581e-02 3.015487e-01 1.771734e-01 5.944928e-01 1.434084e-01 2.406163e-01 4.075304e-01 1.984559e-01 2.685109e-01 1.000000e-02
<GCONST> 5.950713e+01
<STATE> 4
<MEAN> 39
 6.431057e+00 -1.307720e+01 -1.307314e+01 -7.003474e+00 -5.908568e+00 -1.218761e+01 -3.660986e+00 -6.791695e+00 1.045808e-01 -7.489905e+00 -8.146638e+00 -1.075749e+01 6.269421e-01 -1.515795e+00 -2.965193e+00 -3.964495e+00 8.329653e-01 9.234290e-01 1.861290e-01 4.017883e+00 -9.613546e-01 2.369358e+00 -1.104012e+00 -1.791317e-01 -6.571925e-02 1.185645e-01 -1.561243e+00 -1.147917e-01 -1.874698e-01 6.688290e-01 9.648255e-01 5.734930e-01 1.748382e+00 1.307807e-02 3.520129e-01 -2.395733e-01 9.636269e-01 1.393289e+00 -2.514303e-02
<VARIANCE> 39
 2.123374e+01 6.125865e+00 6.525229e+00 2.373936e+00 9.627198e+00 2.285287e+01 2.368045e+01 1.914324e+01 2.484146e+01 1.419507e+01 7.848816e+00 7.969885e+00 1.000000e-02 3.874362e+00 3.812559e-01 6.792502e-01 1.098516e+00 3.093521e+00 9.773071e-01 7.093742e+00 1.914345e+00 2.937001e+00 2.118865e+00 1.633523e+00 3.065331e+00 1.000000e-02 2.790656e-01 1.849607e-01 2.999744e-01 8.978259e-02 4.601964e-01 2.939464e-01 8.780313e-01 1.813478e-01 6.981895e-01 4.334217e-01 7.542466e-02 2.248627e-01 1.000000e-02
<GCONST> 7.854474e+01
<STATE> 5
<MEAN> 39
 -3.153610e+00 -2.044318e+01 -2.344815e+01 -2.689261e+00 7.403581e-01 -9.413804e+00 1.406273e+01 -6.808403e+00 6.697617e+00 -1.240838e+01 -3.723314e+00 -2.882671e+00 8.495784e-01 -2.676982e+00 -1.573544e+00 -2.753943e+00 1.769558e+00 1.846777e+00 7.991816e-01 4.016417e+00 -1.275043e+00 3.803700e-01 -1.616590e+00 1.259833e+00 3.154359e+00 6.562471e-02 4.470582e-01 6.497189e-01 9.538576e-01 -2.195469e-01 -1.679298e-01 -2.854784e-02 -1.462557e+00 -3.618549e-02 -7.249500e-01 5.356669e-01 -3.192199e-02 -2.429778e-02 -2.274700e-02
<VARIANCE> 39
 2.753895e+01 2.614248e-01 1.718281e+01 1.477788e+01 1.297851e+01 2.304831e+01 5.938802e+01 2.712441e+01 1.950262e+01 1.584929e+01 5.027807e+00 1.919647e+01 1.000000e-02 1.911470e+00 6.013815e-01 1.788212e+00 3.706059e-01 2.917737e+00 1.318181e+00 4.784277e+00 1.293792e+00 2.393475e+00 2.282393e+00 4.894425e-01 8.487777e-01 1.000000e-02 2.552257e-01 6.525663e-02 1.598737e-01 1.647479e-01 3.380915e-01 8.427574e-02 9.950813e-01 3.249935e-01 6.952193e-01 2.546377e-01 1.632969e-01 5.174782e-01 1.000000e-02
<GCONST> 7.585783e+01
<STATE> 6
<MEAN> 39
 -6.202673e+00 -2.120635e+01 -2.532537e+01 -7.370543e-01 2.247568e+00 -7.910607e+00 1.302140e+01 -1.089191e+01 4.724369e+00 -1.275892e+01 -2.667638e+00 5.140971e-01 9.277471e-01 -7.941061e-01 -7.083695e-01 -7.312352e-03 1.940765e-01 9.064562e-01 4.582441e-01 -8.677899e-01 -4.465695e-01 -1.752583e-01 5.366906e-01 1.752212e-01 6.660289e-01 2.552194e-02 5.904559e-01 2.352366e-01 8.553891e-01 -3.874548e-01 -2.041050e-01 1.128085e-02 -1.079365e+00 6.444875e-01 -1.354704e-02 3.792827e-01 -3.008227e-01 -7.019935e-01 -1.100856e-02
<VARIANCE> 39
 1.386987e+01 3.633891e+00 1.579869e+01 7.821571e+00 2.859531e+01 3.476253e+01 3.733996e+01 1.618938e+01 7.311046e+00 1.896381e+01 7.882242e+00 6.489192e+00 1.000000e-02 8.080761e-01 2.362579e-01 1.291510e+00 1.087628e-01 8.287418e-01 5.871508e-01 1.340439e+00 9.484621e-01 1.453362e+00 5.857627e-01 5.676597e-01 6.150312e-01 1.000000e-02 2.053517e-01 1.072000e-01 1.567521e-01 5.920302e-02 2.750584e-01 8.455253e-02 5.605975e-01 6.969777e-02 2.770221e-01 3.719921e-01 1.627502e-01 5.256562e-02 1.000000e-02
<GCONST> 6.092598e+01
<STATE> 7
<MEAN> 39
 -5.697511e+00 -2.239379e+01 -2.461733e+01 -4.166803e-01 6.116699e+00 -7.958346e+00 1.169752e+01 -9.583881e+00 5.186308e+00 -1.224587e+01 -3.460008e+00 9.925614e-02 9.660113e-01 -7.790522e-02 -2.450452e-01 4.557853e-01 2.290814e-01 5.014648e-01 6.923116e-01 -5.815346e-01 9.943191e-01 5.391485e-02 -2.730215e-01 2.826746e-01 7.488951e-02 1.198087e-02 1.379732e-01 1.397031e-01 7.047547e-02 3.004855e-02 -2.368202e-01 1.802411e-01 2.685947e-01 1.199403e-01 -9.622947e-02 -3.838374e-01 9.658927e-02 -1.859686e-01 -4.333356e-03
<VARIANCE> 39
 9.718405e+00 4.544101e+00 3.977613e+01 7.700695e+00 2.172273e+01 5.653481e+01 3.856414e+01 1.535773e+01 4.026898e+00 1.107857e+01 7.863411e+00 1.064309e+01 1.000000e-02 1.213953e-01 1.920264e-01 6.568255e-01 5.913472e-01 9.765821e-01 1.144085e-01 8.959557e-01 9.278929e-01 1.328488e+00 9.187306e-01 1.122505e+00 6.058551e-01 1.000000e-02 6.751316e-02 3.273875e-02 1.418136e-01 3.776716e-02 2.949288e-02 4.662423e-02 1.559106e-01 1.613242e-01 2.104735e-01 1.043064e-01 9.415174e-02 1.103286e-01 1.000000e-02
<GCONST> 5.182708e+01
<STATE> 8
<MEAN> 39
 -7.487259e+00 -2.360796e+01 -2.196453e+01 -5.744277e-01 2.723681e+00 -3.038565e+00 9.955325e+00 -7.396285e+00 5.299486e+00 -1.233715e+01 -6.327817e-01 1.048469e+00 9.884962e-01 -2.335304e-01 -1.914846e-01 4.105194e-01 -9.110830e-02 -1.976632e-01 1.033102e+00 -3.429247e-01 4.380233e-01 -2.365886e-01 -5.583232e-01 3.447337e-01 3.513722e-02 3.254142e-03 -5.357561e-02 4.664794e-02 -8.944868e-02 -1.586733e-01 -9.469654e-02 -1.683397e-01 7.097940e-02 -1.629994e-01 6.263725e-02 -4.042294e-02 -4.225835e-03 -4.110636e-02 -2.970730e-03
<VARIANCE> 39
 8.363377e+00 3.328115e+00 1.950439e+01 5.005975e+00 2.483145e+01 3.541755e+01 2.147762e+01 1.194981e+01 1.780954e+01 1.323420e+01 5.652118e+00 1.380043e+01 1.000000e-02 1.071841e-02 9.229471e-02 3.796312e-01 3.218591e-01 1.617842e-01 2.259465e-01 7.549160e-01 3.308549e-01 8.545212e-01 4.602941e-01 2.005561e-01 4.003860e-01 1.000000e-02 1.000000e-02 1.607331e-02 5.698414e-02 5.360116e-02 8.668193e-02 4.336947e-02 5.073204e-02 1.151232e-01 1.563155e-01 7.954802e-02 5.570297e-02 1.047128e-01 1.000000e-02
<GCONST> 3.595862e+01
<STATE> 9
<MEAN> 39
 -7.084787e+00 -2.326814e+01 -2.235803e+01 -1.032148e+00 6.146478e+00 -3.638098e+00 1.067579e+01 -7.198631e+00 3.564682e+00 -1.596989e+01 -1.861515e+00 -6.029845e-01 9.853697e-01 -2.676708e-01 9.031994e-02 2.000408e-01 -1.577104e-01 -3.461670e-02 2.095542e-01 2.252681e-01 -5.953780e-02 -1.359190e-02 -7.153182e-01 2.974189e-01 -4.104553e-01 -4.642650e-03 3.287027e-02 6.412641e-02 -1.979678e-01 1.479262e-01 -2.478810e-01 -1.249517e-01 2.028467e-02 -1.938893e-01 1.290798e-01 1.262098e-03 1.553965e-02 7.592236e-02 -2.574522e-03
<VARIANCE> 39
 1.209953e+01 6.201474e+00 2.262098e+01 7.318933e+00 4.999895e+01 5.117373e+01 2.076081e+01 2.513330e+00 1.396874e+01 7.969550e+00 1.422944e+01 4.907352e+00 1.000000e-02 1.256105e-01 2.268444e-01 4.345330e-01 7.001720e-01 6.549757e-01 4.571795e-01 2.915213e-01 4.960725e-01 4.713137e-01 3.850846e-01 1.539483e-01 6.347268e-01 1.000000e-02 2.041739e-02 4.807962e-02 7.801845e-02 1.425899e-01 1.332421e-01 5.558632e-02 1.482824e-01 8.721010e-02 8.233906e-02 4.675424e-02 8.177166e-02 1.526295e-01 1.000000e-02
<GCONST> 4.550803e+01
<STATE> 10
<MEAN> 39
 -7.530057e+00 -2.269844e+01 -2.158839e+01 2.256904e-01 3.636818e+00 -3.741531e-01 1.107543e+01 -7.047032e+00 5.882386e+00 -1.757571e+01 -2.139965e-01 8.682710e-01 9.704805e-01 -2.061065e-01 -3.587571e-03 -3.669650e-01 5.412206e-02 -8.187552e-01 1.992746e-01 -4.988274e-02 -2.608047e-01 2.855356e-01 -5.137814e-01 5.156146e-01 2.584741e-01 -8.035881e-03 -5.659271e-02 -2.666790e-02 -1.321616e-01 -1.526815e-01 -1.005581e-01 -2.012727e-01 -1.323118e-01 2.048093e-03 -1.848914e-01 1.860268e-01 -6.772449e-02 -4.212828e-02 -1.783615e-03
<VARIANCE> 39
 1.030646e+01 1.432215e+00 2.777447e+01 1.137644e+01 2.735286e+01 3.693983e+01 1.305097e+01 8.154074e+00 2.241794e+01 1.659857e+01 1.728908e+01 1.033940e+01 1.000000e-02 2.427462e-01 3.858901e-01 1.854126e-01 8.950688e-01 6.450984e-01 4.821156e-01 4.216629e-01 2.521189e-01 2.256978e-01 1.590022e-01 6.586340e-01 4.130770e-01 1.000000e-02 1.468561e-02 4.318590e-02 2.919943e-02 6.414751e-02 7.257775e-02 7.390663e-02 1.663333e-02 2.870293e-02 4.301727e-02 3.460070e-02 7.784087e-02 5.902393e-02 1.000000e-02
<GCONST> 3.838627e+01
<STATE> 11
<MEAN> 39
 -8.423344e+00 -2.299761e+01 -2.351249e+01 -1.755017e+00 2.417878e+00 -3.484645e+00 1.000621e+01 -8.277680e+00 2.490667e+00 -1.760456e+01 -6.153600e-01 -1.693282e+00 9.447576e-01 -4.612701e-02 2.596534e-01 -1.477596e-01 6.660797e-02 -2.960963e-01 -1.892067e-02 7.255008e-02 -8.315040e-02 -2.019657e-01 -2.791952e-01 3.056249e-02 -2.253608e-01 -1.027642e-02 1.713400e-01 1.132421e-01 1.851294e-01 2.206930e-01 2.855062e-01 6.937944e-02 2.588575e-01 1.493001e-01 2.085247e-01 2.492909e-02 8.180560e-02 1.898944e-01 -6.512894e-04
<VARIANCE> 39
 1.114808e+01 2.399535e+00 2.804482e+01 1.825506e+01 2.781565e+01 2.578812e+01 1.689270e+01 3.571170e+00 2.747345e+01 7.537732e+00 6.546542e+00 1.472501e+01 1.000000e-02 1.195661e-01 1.038220e-01 1.463725e-01 3.784333e-01 2.067362e-01 5.157734e-01 5.244604e-01 4.886935e-01 3.826985e-01 3.150167e-01 7.051408e-01 5.363273e-01 1.000000e-02 1.000000e-02 1.838884e-02 1.593730e-02 2.944909e-02 4.845013e-02 8.234633e-02 2.519114e-02 6.921501e-02 7.826003e-02 4.336443e-02 1.153473e-01 1.434577e-01 1.000000e-02
<GCONST> 3.606474e+01
<STATE> 12
<MEAN> 39
 -6.724828e+00 -2.221202e+01 -2.382260e+01 1.719955e+00 3.028416e+00 -2.631696e+00 1.196909e+01 -7.766133e+00 6.401757e+00 -1.731037e+01 8.878337e-01 5.873064e-01 9.365011e-01 2.954549e-01 3.740492e-01 4.259241e-01 5.060901e-01 4.071031e-01 2.058614e-01 4.332010e-01 4.183512e-01 8.277209e-01 -6.313810e-02 8.645694e-01 7.929567e-01 -1.122808e-02 -5.096396e-02 -6.220410e-02 2.113241e-02 -2.713415e-01 1.110633e-01 -2.355705e-01 -8.119744e-02 -1.007121e-01 1.096471e-02 2.110454e-02 -7.339920e-03 -1.282986e-01 -2.436581e-03
<VARIANCE> 39
 1.320367e+01 5.478396e-01 2.361935e+01 2.174144e+01 2.432841e+01 2.546732e+01 1.552771e+01 1.189264e+01 3.526653e+01 1.391372e+01 1.549418e+01 1.594363e+01 1.000000e-02 2.991710e-02 1.361875e-01 1.578666e-01 2.069449e-01 1.661838e-01 3.509456e-01 4.019738e-01 2.093215e-01 4.381438e-01 8.506367e-02 1.844612e-01 2.308808e-01 1.000000e-02 1.000000e-02 1.768529e-02 2.353846e-02 5.850304e-02 6.529303e-02 5.229611e-02 2.617224e-02 1.560849e-01 2.548659e-01 1.295541e-01 1.349835e-01 2.415627e-01 1.000000e-02
<GCONST> 3.550549e+01
<STATE> 13
<MEAN> 39
 -9.047004e+00 -2.157546e+01 -2.109638e+01 -2.016558e+00 2.234099e+00 -1.984074e+00 1.012238e+01 -6.856558e+00 6.494639e+00 -1.743305e+01 2.345195e+00 1.802697e+00 8.792242e-01 1.333186e-01 1.220168e-01 9.540489e-02 -3.783953e-01 1.173720e-01 -1.032174e+00 -4.132907e-01 -5.403121e-01 4.061064e-01 -3.865420e-01 -1.172603e-01 -2.112899e-01 -2.503809e-02 1.038672e-01 -4.330666e-02 -6.370135e-02 -2.592078e-02 -1.898513e-01 -2.064169e-01 -2.014833e-01 -1.810274e-01 -1.275914e-01 -1.481288e-01 -8.774960e-02 -2.222272e-01 -3.213089e-03
<VARIANCE> 39
 1.215479e+01 2.705688e+00 1.069468e+01 1.312869e+01 2.397679e+01 1.097302e+01 7.928406e+00 1.789576e+00 1.509843e+01 7.164708e+00 1.373512e+01 1.174869e+01 1.000000e-02 2.311922e-01 5.146316e-01 8.683468e-02 8.215635e-01 4.966030e-01 5.714411e-01 1.144794e+00 4.310332e-01 1.795651e+00 8.153574e-01 9.040638e-01 1.792798e+00 1.000000e-02 2.871336e-02 3.391969e-02 3.049583e-02 1.291097e-01 7.764996e-02 1.248248e-01 1.444416e-01 6.398719e-02 5.759611e-02 6.046192e-02 1.156632e-01 1.534019e-01 1.000000e-02
<GCONST> 4.693732e+01
<STATE> 14
<MEAN> 39
 -5.405003e+00 -2.149949e+01 -2.351227e+01 7.550938e-01 3.859368e+00 -6.685312e+00 1.245998e+01 -9.843614e+00 7.372470e+00 -2.011810e+01 2.577005e+00 -1.059609e+00 8.400239e-01 4.987462e-01 1.966412e-02 2.095625e-01 4.857291e-02 -3.145528e-01 -7.690602e-01 1.227807e-01 -6.313423e-01 3.303529e-01 -5.593137e-01 5.143066e-01 -1.394755e-01 -2.430204e-02 -1.697332e-02 -6.907032e-03 9.190472e-02 6.547974e-02 -1.129618e-02 8.968078e-02 -5.051543e-02 2.788640e-02 -1.937915e-03 -3.364588e-02 -7.166561e-02 1.821499e-01 -2.936102e-03
<VARIANCE> 39
 1.251095e+01 4.221978e+00 2.602933e+01 2.809627e+01 3.045636e+01 2.085136e+01 3.492253e+01 4.626357e+00 1.469113e+01 1.901451e+01 8.396920e+00 3.983326e+01 1.000000e-02 1.317297e-01 2.688435e-01 3.276494e-01 1.853858e-01 1.369710e+00 8.832761e-01 1.299774e+00 6.615097e-01 5.368755e-01 1.067044e+00 7.334531e-01 5.349342e-01 1.000000e-02 4.059361e-02 4.101960e-02 1.871950e-02 4.762083e-02 2.385569e-01 2.153841e-01 4.281325e-01 1.821407e-01 1.953199e-01 2.820963e-01 6.793454e-02 4.065244e-01 1.000000e-02
<GCONST> 5.838384e+01
<STATE> 15
<MEAN> 39
 -6.529232e+00 -2.045416e+01 -2.029916e+01 -9.852577e-01 2.559081e+00 -6.007568e+00 9.888124e+00 -9.580227e+00 6.691825e+00 -2.033066e+01 1.667272e+00 4.427423e-02 7.192616e-01 1.548222e-01 5.245254e-02 7.080344e-01 -3.513245e-02 1.980509e-01 3.127097e-01 2.913688e-01 2.867965e-01 1.993193e-01 -6.324823e-01 2.019566e-01 3.727994e-01 -3.422131e-02 -8.131601e-02 -2.132849e-01 1.415675e-01 -8.135036e-02 -4.444140e-02 3.772794e-01 1.130803e-01 1.705242e-01 -1.867213e-03 -2.740093e-01 -7.271390e-02 -4.732029e-03 -1.595666e-03
<VARIANCE> 39
 1.529322e+01 1.332525e+01 6.518077e+00 1.495624e+01 2.241539e+01 2.842508e+01 1.466589e+01 1.078630e+01 1.302966e+01 2.364903e+00 1.791601e+01 1.483789e+01 1.000000e-02 9.464655e-01 6.936156e-01 5.656259e-01 5.693687e-01 2.006905e+00 1.647211e+00 3.119747e+00 6.566728e-01 1.166232e+00 9.386705e-01 1.533938e+00 1.765030e+00 1.000000e-02 1.941758e-01 2.560760e-01 1.166196e-01 6.334817e-02 3.553620e-01 2.742813e-01 3.810855e-01 2.048094e-01 2.650032e-01 1.111531e-01 3.097527e-01 1.534111e-01 1.000000e-02
<GCONST> 7.037628e+01
<STATE> 16
<MEAN> 39
 -5.199181e+00 -2.183715e+01 -2.074893e+01 -4.281590e-01 1.732786e+00 -7.083293e+00 1.157484e+01 -1.005957e+01 9.236739e+00 -2.488344e+01 2.915919e+00 5.644379e-01 6.699190e-01 1.180631e-02 -2.504002e-01 6.655281e-01 1.346609e-03 -2.513328e-01 4.818124e-01 -2.816295e-01 4.929137e-01 -5.684751e-01 -1.242775e+00 -9.277579e-01 -1.806141e-01 -4.077454e-02 2.059500e-01 -7.279781e-02 3.616950e-01 2.049209e-02 -5.570566e-02 2.141226e-01 -3.048675e-01 4.434903e-01 -5.539025e-01 6.356170e-01 -2.505297e-01 1.919951e-01 -4.309980e-03
<VARIANCE> 39
 1.796873e+01 6.682334e+00 1.671421e+01 1.263297e+01 2.303682e+01 6.038726e+01 2.584499e+01 1.720741e+01 2.166403e+01 7.603971e+00 5.106071e+00 9.462455e+00 1.000000e-02 1.141488e+00 1.928550e+00 1.476824e+00 6.018900e-01 1.340192e+00 7.182829e-01 8.447261e-01 1.042318e+00 3.102625e+00 9.707080e-01 6.479737e-01 1.656642e+00 1.000000e-02 2.351374e-01 8.482164e-02 1.738446e-01 5.711639e-02 5.801951e-01 2.183734e-01 5.078006e-01 2.447486e-01 8.681909e-01 3.800142e-01 1.671404e-01 3.997034e-01 1.000000e-02
<GCONST> 7.550610e+01
<STATE> 17
<MEAN> 39
 -4.697692e+00 -2.265940e+01 -1.428918e+01 -7.851308e-01 1.096411e+00 -1.947457e+00 8.033369e+00 -6.377918e+00 6.541450e+00 -2.447356e+01 -1.145736e+00 2.421014e+00 5.206265e-01 1.626087e+00 -8.810678e-01 1.745010e+00 -6.667442e-03 -3.941312e-01 9.924759e-01 -9.883496e-01 2.033194e+00 -1.322251e+00 1.849550e+00 -2.958771e-01 1.690221e+00 -4.108499e-02 1.898014e-01 -1.134899e-01 -3.376136e-01 -1.231594e-01 1.432116e-02 -1.278609e-01 -5.806620e-02 2.182337e-01 -3.785604e-01 7.798285e-01 3.902517e-01 9.382493e-02 5.491022e-03
<VARIANCE> 39
 1.478404e+01 1.006477e+01 4.125505e+01 6.691822e+00 1.708697e+01 3.960044e+01 2.599840e+01 2.060738e+01 1.962916e+01 8.963902e+00 8.995568e+00 1.360776e+01 1.000000e-02 9.504474e-01 4.576164e-01 1.333108e+00 4.823957e-01 2.874923e+00 1.863287e+00 2.987223e+00 2.682668e+00 5.058123e+00 1.694632e+00 1.687184e+00 2.372359e+00 1.000000e-02 3.164873e-01 3.356049e-01 6.580198e-01 1.722559e-01 3.177871e-01 2.756616e-01 4.410068e-01 3.847656e-01 5.084364e-01 1.906967e-01 2.916324e-01 4.336168e-01 1.000000e-02
<GCONST> 8.425460e+01
<STATE> 18
<MEAN> 39
 1.345346e-01 -2.554058e+01 -1.420699e+01 -1.170762e+00 -2.954524e-01 -1.365628e+00 8.110723e+00 -1.025331e+00 -7.567368e-01 -1.738515e+01 1.553285e+00 5.658919e+00 4.691926e-01 7.560651e-01 -6.734683e-01 5.575841e-02 -1.132651e-01 -3.712188e-01 -1.711155e-01 -1.156130e+00 1.074141e+00 -2.622231e+00 2.234812e+00 3.232658e-01 4.399290e-01 -2.831958e-02 -4.004819e-01 2.723199e-01 -2.343429e-01 2.542717e-01 3.067474e-01 -4.976352e-01 -1.180316e-01 -5.950006e-01 5.913326e-01 -3.123705e-01 -5.605365e-02 -4.779555e-01 2.769894e-03
<VARIANCE> 39
 3.305033e+00 6.790928e+00 3.011282e+00 9.777214e+00 5.080029e+00 3.930387e+01 1.566285e+01 1.161616e+01 2.659475e+01 4.894880e+00 1.185896e+01 1.212148e+01 1.000000e-02 3.036460e-01 4.554629e-01 4.241521e+00 1.032939e+00 1.550014e+00 2.114161e+00 2.534228e+00 1.387239e+00 1.613071e+00 1.350971e+00 2.550872e+00 1.649342e+00 1.000000e-02 1.924268e-01 1.525784e-01 1.874842e-01 1.348016e-01 3.868333e-01 2.187734e-01 3.805755e-01 6.271236e-01 5.257738e-01 3.203007e-01 1.583718e-01 2.684808e-01 1.000000e-02
<GCONST> 7.280389e+01
<STATE> 19
<MEAN> 39
 1.293479e-01 -2.494778e+01 -1.295782e+01 -4.753452e-01 6.587180e-01 -4.559274e+00 3.566974e+00 -1.578869e+00 -2.270887e+00 -1.525444e+01 4.978088e-01 4.549061e+00 4.122702e-01 1.214057e-01 3.035245e-01 5.489287e-01 5.249192e-01 6.321039e-01 -2.923633e-01 -1.063915e+00 3.355610e-01 1.262944e-01 1.168536e+00 1.313009e-02 -9.541428e-02 -2.660178e-02 -2.077048e-01 1.242977e-01 -1.768761e-01 7.634767e-02 1.817825e-01 1.965180e-01 5.508060e-01 -1.345841e-01 6.642056e-01 -2.697610e-01 8.000116e-03 -5.083517e-02 2.644056e-03
<VARIANCE> 39
 3.275790e+00 4.201896e+00 7.002304e+00 1.357207e+01 2.523249e+00 4.236649e+01 1.246688e+01 7.676856e+00 7.576826e+00 9.253864e+00 1.012797e+01 2.346782e+01 1.000000e-02 5.670711e-01 1.725177e+00 9.083284e-01 1.176257e+00 1.010739e+00 3.318411e+00 1.154337e+00 1.627020e+00 1.247572e+00 1.233681e+00 4.974142e-01 1.259245e+00 1.000000e-02 7.960274e-02 1.610179e-01 3.414463e-01 2.720325e-01 1.387862e-01 3.450126e-01 1.562652e-01 2.224681e-01 2.589814e-01 2.063868e-01 3.711936e-01 3.696698e-01 1.000000e-02
<GCONST> 6.779368e+01
<STATE> 20
<MEAN> 39
 -4.080765e-01 -2.510689e+01 -1.363478e+01 9.644758e-01 2.440468e+00 -2.195066e+00 5.060602e+00 -6.952559e-01 5.603696e-01 -1.201604e+01 1.202787e+00 5.850815e+00 3.461663e-01 -3.033579e-02 -1.005851e-02 -3.558353e-01 2.742289e-01 4.090373e-01 2.649037e-01 7.906940e-01 3.266523e-01 6.276971e-02 7.688111e-01 -5.388444e-02 -2.623779e-01 -1.800517e-02 -1.912795e-02 3.956185e-02 -5.834366e-02 -1.273195e-01 -1.273989e-01 -1.111992e-01 9.487328e-02 3.167759e-02 -2.844355e-01 -2.397978e-01 -1.067992e-01 -1.176959e-01 1.682061e-03
<VARIANCE> 39
 6.850091e+00 8.533913e+00 3.382503e+00 6.775286e+00 1.413493e+01 1.292663e+01 1.619693e+01 1.390074e+01 1.652949e+01 1.157876e+01 8.606380e+00 1.131376e+01 1.000000e-02 1.771414e-01 2.917992e-01 2.552627e-01 8.918508e-01 5.090703e-01 1.556213e+00 9.215870e-01 9.275408e-01 1.268781e+00 5.876694e-01 1.180715e+00 1.054579e+00 1.000000e-02 1.119481e-01 2.159000e-01 1.029484e-01 1.674398e-01 2.512732e-01 4.353214e-01 2.505782e-01 1.737673e-01 2.124389e-01 2.772960e-01 4.263633e-02 2.531805e-01 1.000000e-02
<GCONST> 6.012227e+01
<STATE> 21
<MEAN> 39
 3.350996e-01 -2.434925e+01 -1.311729e+01 -2.176787e-01 7.412527e-01 -3.436816e+00 4.787533e+00 2.600830e-01 -1.763843e+00 -1.273272e+01 3.131374e-02 3.418678e+00 3.316120e-01 -3.751537e-01 -3.689165e-02 -4.054910e-01 -2.194338e-01 4.331696e-01 -2.580813e-01 1.258025e-01 5.210438e-01 -8.111426e-01 3.811355e-01 2.413253e-01 -1.562566e-01 -1.810066e-02 -1.147093e-01 5.688622e-02 2.264121e-02 4.535224e-02 3.732253e-02 -1.784364e-01 -3.097289e-02 -5.755206e-02 4.034744e-02 8.691074e-02 2.464249e-01 1.264779e-01 -2.081382e-03
<VARIANCE> 39
 1.804053e+00 1.395232e+00 8.567878e+00 1.349089e+00 8.833344e+00 8.277760e+00 1.208486e+01 1.589988e+00 1.069404e+01 1.278815e+01 6.899005e+00 1.503426e+00 1.000000e-02 3.594462e-01 3.353067e-01 5.791667e-01 2.273062e-01 1.056463e+00 6.503730e-01 1.200287e+00 5.618410e-01 1.140904e+00 1.556274e+00 1.028550e+00 1.116214e+00 1.000000e-02 1.624152e-02 3.890491e-02 1.000145e-01 4.700383e-02 1.429870e-01 1.974309e-01 3.260640e-01 1.785666e-01 3.484841e-01 1.152777e-01 2.681723e-01 7.817248e-02 1.000000e-02
<GCONST> 4.531962e+01
<STATE> 22
<MEAN> 39
 -1.636635e+00 -2.421328e+01 -1.399363e+01 2.128437e+00 4.665109e+00 -4.221792e+00 5.870335e+00 2.151796e+00 -8.965809e-01 -9.711608e+00 1.601296e+00 4.851682e+00 2.322780e-01 -1.007329e-01 8.976506e-01 4.321467e-01 3.506901e-02 -3.678365e-01 -7.571321e-01 -6.986650e-01 -4.394206e-01 3.551079e-01 5.310962e-01 -9.680734e-02 -2.562309e-01 -2.510457e-02 1.612242e-01 2.990716e-01 3.574768e-01 -8.179645e-02 -1.531515e-01 4.424618e-04 -3.354741e-01 -5.181510e-01 -1.312606e-01 -1.352938e-01 -2.113873e-01 -1.736924e-01 4.190610e-03
<VARIANCE> 39
 1.000809e+00 3.441210e+00 4.864632e+00 2.683257e+00 3.674936e+00 4.556510e+00 8.136648e+00 6.590213e+00 9.489713e+00 1.305915e+01 1.277609e+01 1.570526e+01 1.000000e-02 4.074073e-01 6.844701e-01 3.304201e-01 3.190528e-01 8.023866e-01 8.867100e-01 7.129472e-01 1.218576e+00 1.254324e+00 1.128477e+00 5.880036e-01 1.168607e+00 1.000000e-02 7.444481e-02 8.064357e-02 5.651384e-02 3.386820e-02 1.401706e-01 3.496009e-02 1.108549e-01 1.529929e-01 3.585949e-01 2.784012e-01 1.004143e-01 2.354033e-01 1.000000e-02
<GCONST> 4.773458e+01
<STATE> 23
<MEAN> 39
 -7.621392e-01 -2.107638e+01 -1.247839e+01 -1.256652e-01 1.661042e+00 -6.750068e+00 1.837572e+00 -2.172117e+00 -2.070130e+00 -9.600948e+00 -2.217619e-01 2.283616e+00 2.221471e-01 1.940846e-01 1.027394e+00 1.273655e+00 6.070844e-02 3.705052e-01 -2.501660e-01 -7.410495e-01 -1.059657e+00 -1.029954e+00 2.817629e-01 -3.714804e-01 -4.039609e-01 -4.306129e-03 3.828207e-02 -7.372430e-02 1.530475e-01 1.950975e-01 3.117322e-01 3.262054e-01 2.713313e-01 2.399625e-01 -6.738088e-02 -2.003730e-01 -3.703885e-03 1.567369e-01 2.113022e-03
<VARIANCE> 39
 1.119692e+00 1.037734e+01 8.889204e+00 6.014886e+00 3.364910e+00 9.004194e+00 1.221345e+01 4.034977e+00 1.556056e+01 4.410682e+00 1.574036e+01 4.744565e+00 1.000000e-02 4.332388e-01 8.301637e-01 5.133508e-01 3.617447e-01 1.814746e-01 5.360371e-01 9.630439e-01 8.368970e-01 4.941997e-01 6.913125e-01 5.270664e-01 3.058274e-01 1.000000e-02 1.117119e-01 2.874430e-01 2.496365e-01 4.970674e-02 6.119003e-02 7.789291e-02 2.292011e-01 1.145483e-01 1.400240e-01 1.167366e-01 2.020686e-01 1.811209e-02 1.000000e-02
<GCONST> 4.545469e+01
<STATE> 24
<MEAN> 39
 -5.571592e-02 -1.889273e+01 -8.637510e+00 1.431078e+00 4.694132e+00 -4.807600e+00 2.961252e+00 -2.709296e+00 -4.812757e+00 -1.020283e+01 -2.956772e-01 2.638606e+00 2.174001e-01 -1.069230e-01 4.989702e-01 7.838248e-01 3.961177e-01 2.688802e-01 9.510940e-02 2.177815e-01 -1.586181e-02 -2.795078e-01 -6.161627e-01 -2.465548e-01 9.075375e-02 -1.735375e-02 -4.494034e-01 -1.354864e-01 -3.584619e-01 -2.467891e-01 -2.852725e-01 1.258785e-02 1.835254e-01 4.366974e-01 4.432503e-01 3.178133e-02 1.710669e-01 1.561372e-01 -1.465306e-02
<VARIANCE> 39
 6.715961e+00 1.030506e+01 5.183979e+00 6.307191e+00 5.590193e+00 1.044489e+01 6.779206e+00 7.702904e+00 1.036706e+01 9.967375e+00 4.637785e+00 5.426579e+00 1.000000e-02 6.323815e-01 1.198628e+00 1.017345e+00 4.534466e-01 5.517741e-01 1.050007e+00 7.948209e-01 8.637670e-01 7.615643e-01 4.961252e-01 9.362739e-01 3.896191e-01 1.000000e-02 1.085793e-01 2.384252e-01 1.057303e-01 1.294695e-01 8.698401e-02 2.060799e-01 9.339856e-02 1.468965e-01 5.813437e-02 2.835400e-01 1.215607e-01 7.470633e-02 1.000000e-02
<GCONST> 5.245522e+01
<STATE> 25
<MEAN> 39
 -1.845258e+00 -1.890952e+01 -8.900331e+00 1.188805e+00 2.425065e+00 -7.061419e+00 2.528838e+00 -2.247492e+00 -3.935515e+00 -1.062809e+01 -6.553306e-01 2.424787e+00 1.264904e-01 -1.523834e+00 1.082434e+00 2.730082e-01 -9.584456e-01 -3.761650e-01 3.734723e-01 2.522357e-01 7.312763e-01 7.691433e-01 4.815789e-01 2.026992e-01 1.353064e-02 -6.621943e-02 -1.797337e-01 4.179711e-01 1.044096e-01 -2.012764e-01 3.979323e-02 1.751997e-01 -1.662269e-01 5.565695e-02 1.849998e-01 4.143205e-01 8.825593e-02 -1.395334e-01 -8.550545e-03
<VARIANCE> 39
 2.780812e+00 2.316674e+00 2.122682e+00 5.680264e+00 9.120218e+00 9.543197e+00 4.269684e+00 8.932904e+00 1.158956e+01 1.157662e+01 6.723054e+00 1.437616e+00 1.000000e-02 2.048268e-01 8.027396e-01 3.889143e-01 1.635881e-01 1.119516e+00 1.362711e+00 3.997294e-01 5.099162e-01 5.055195e-01 1.700537e+00 7.134763e-01 3.000147e-01 1.000000e-02 7.773683e-02 5.478472e-02 6.408909e-02 7.454182e-02 1.463624e-01 2.241018e-01 2.285755e-01 2.011136e-01 5.101242e-02 1.428129e-01 3.376634e-01 1.331951e-01 1.000000e-02
<GCONST> 4.474520e+01
<STATE> 26
<MEAN> 39
 -6.020110e+00 -1.436433e+01 -7.104959e+00 -6.864662e-01 4.105412e+00 -2.886928e+00 3.900748e+00 4.318442e-01 -1.362890e+00 -8.494739e+00 7.647344e-02 2.155270e+00 -5.148110e-02 -9.433394e-01 1.345996e+00 4.577953e-01 -5.048891e-01 5.686581e-02 5.520211e-01 -3.705284e-01 2.832153e-01 5.999959e-01 1.066851e+00 3.014402e-01 -1.658748e-01 -4.963420e-02 3.769917e-01 -2.596871e-01 -1.781855e-02 2.946216e-01 1.537913e-01 -7.530192e-02 -1.867270e-01 -4.522629e-01 -2.913425e-01 8.020861e-02 1.985652e-01 1.507167e-01 1.439995e-02
<VARIANCE> 39
 1.054713e+00 3.932244e+00 5.113736e+00 2.836516e+00 9.051226e+00 8.938621e+00 7.494131e+00 7.507263e+00 6.326686e+00 1.656984e+01 1.195336e+01 9.954736e+00 1.000000e-02 3.427324e-01 3.968021e-01 3.223737e-01 3.639874e-01 5.735375e-01 6.144395e-01 1.160795e+00 1.162969e+00 5.657251e-01 1.117061e+00 1.507231e+00 6.202707e-01 1.000000e-02 1.357671e-02 6.229434e-02 6.286634e-02 2.391480e-02 2.157087e-01 1.745967e-01 1.814979e-01 6.139314e-02 1.157329e-01 2.755196e-01 2.869855e-01 1.042104e-01 1.000000e-02
<GCONST> 4.609981e+01
<TRANSP> 27
 0.000000e+00 1.000000e+00 0.000000e+00 0.000000e+00 0.000000e+00 0.000000e+00 0.000000e+00 0.000000e+00 0.000000e+00 0.000000e+00 0.000000e+00 0.000000e+00 0.000000e+00 0.000000e+00 0.000000e+00 0.000000e+00 0.000000e+00 0.000000e+00 0.000000e+00 0.000000e+00 0.000000e+00 0.000000e+00 0.000000e+00 0.000000e+00 0.000000e+00 0.000000e+00 0.000000e+00
 0.000000e+00 6.666667e-01 3.333333e-01 0.000000e+00 0.000000e+00 0.000000e+00 0.000000e+00 0.000000e+00 0.000000e+00 0.000000e+00 0.000000e+00 0.000000e+00 0.000000e+00 0.000000e+00 0.000000e+00 0.000000e+00 0.000000e+00 0.000000e+00 0.000000e+00 0.000000e+00 0.000000e+00 0.000000e+00 0.000000e+00 0.000000e+00 0.000000e+00 0.000000e+00 0.000000e+00
 0.000000e+00 0.000000e+00 5.454546e-01 4.545455e-01 0.000000e+00 0.000000e+00 0.000000e+00 0.000000e+00 0.000000e+00 0.000000e+00 0.000000e+00 0.000000e+00 0.000000e+00 0.000000e+00 0.000000e+00 0.000000e+00 0.000000e+00 0.000000e+00 0.000000e+00 0.000000e+00 0.000000e+00 0.000000e+00 0.000000e+00 0.000000e+00 0.000000e+00 0.000000e+00 0.000000e+00
 0.000000e+00 0.000000e+00 0.000000e+00 5.833333e-01 4.166667e-01 0.000000e+00 0.000000e+00 0.000000e+00 0.000000e+00 0.000000e+00 0.000000e+00 0.000000e+00 0.000000e+00 0.000000e+00 0.000000e+00 0.000000e+00 0.000000e+00 0.000000e+00 0.000000e+00 0.000000e+00 0.000000e+00 0.000000e+00 0.000000e+00 0.000000e+00 0.000000e+00 0.000000e+00 0.000000e+00
 0.000000e+00 0.000000e+00 0.000000e+00 0.000000e+00 5.454546e-01 4.545455e-01 0.000000e+00 0.000000e+00 0.000000e+00 0.000000e+00 0.000000e+00 0.000000e+00 0.000000e+00 0.000000e+00 0.000000e+00 0.000000e+00 0.000000e+00 0.000000e+00 0.000000e+00 0.000000e+00 0.000000e+00 0.000000e+00 0.000000e+00 0.000000e+00 0.000000e+00 0.000000e+00 0.000000e+00
 0.000000e+00 0.000000e+00 0.000000e+00 0.000000e+00 0.000000e+00 5.454546e-01 4.545455e-01 0.000000e+00 0.000000e+00 0.000000e+00 0.000000e+00 0.000000e+00 0.000000e+00 0.000000e+00 0.000000e+00 0.000000e+00 0.000000e+00 0.000000e+00 0.000000e+00 0.000000e+00 0.000000e+00 0.000000e+00 0.000000e+00 0.000000e+00 0.000000e+00 0.000000e+00 0.000000e+00
 0.000000e+00 0.000000e+00 0.000000e+00 0.000000e+00 0.000000e+00 0.000000e+00 5.833333e-01 4.166667e-01 0.000000e+00 0.000000e+00 0.000000e+00 0.000000e+00 0.000000e+00 0.000000e+00 0.000000e+00 0.000000e+00 0.000000e+00 0.000000e+00 0.000000e+00 0.000000e+00 0.000000e+00 0.000000e+00 0.000000e+00 0.000000e+00 0.000000e+00 0.000000e+00 0.000000e+00
 0.000000e+00 0.000000e+00 0.000000e+00 0.000000e+00 0.000000e+00 0.000000e+00 0.000000e+00 6.666667e-01 3.333333e-01 0.000000e+00 0.000000e+00 0.000000e+00 0.000000e+00 0.000000e+00 0.000000e+00 0.000000e+00 0.000000e+00 0.000000e+00 0.000000e+00 0.000000e+00 0.000000e+00 0.000000e+00 0.000000e+00 0.000000e+00 0.000000e+00 0.000000e+00 0.000000e+00
 0.000000e+00 0.000000e+00 0.000000e+00 0.000000e+00 0.000000e+00 0.000000e+00 0.000000e+00 0.000000e+00 5.454546e-01 4.545455e-01 0.000000e+00 0.000000e+00 0.000000e+00 0.000000e+00 0.000000e+00 0.000000e+00 0.000000e+00 0.000000e+00 0.000000e+00 0.000000e+00 0.000000e+00 0.000000e+00 0.000000e+00 0.000000e+00 0.000000e+00 0.000000e+00 0.000000e+00
 0.000000e+00 0.000000e+00 0.000000e+00 0.000000e+00 0.000000e+00 0.000000e+00 0.000000e+00 0.000000e+00 0.000000e+00 4.444444e-01 5.555556e-01 0.000000e+00 0.000000e+00 0.000000e+00 0.000000e+00 0.000000e+00 0.000000e+00 0.000000e+00 0.000000e+00 0.000000e+00 0.000000e+00 0.000000e+00 0.000000e+00 0.000000e+00 0.000000e+00 0.000000e+00 0.000000e+00
 0.000000e+00 0.000000e+00 0.000000e+00 0.000000e+00 0.000000e+00 0.000000e+00 0.000000e+00 0.000000e+00 0.000000e+00 0.000000e+00 6.666667e-01 3.333333e-01 0.000000e+00 0.000000e+00 0.000000e+00 0.000000e+00 0.000000e+00 0.000000e+00 0.000000e+00 0.000000e+00 0.000000e+00 0.000000e+00 0.000000e+00 0.000000e+00 0.000000e+00 0.000000e+00 0.000000e+00
 0.000000e+00 0.000000e+00 0.000000e+00 0.000000e+00 0.000000e+00 0.000000e+00 0.000000e+00 0.000000e+00 0.000000e+00 0.000000e+00 0.000000e+00 3.750000e-01 6.250000e-01 0.000000e+00 0.000000e+00 0.000000e+00 0.000000e+00 0.000000e+00 0.000000e+00 0.000000e+00 0.000000e+00 0.000000e+00 0.000000e+00 0.000000e+00 0.000000e+00 0.000000e+00 0.000000e+00
 0.000000e+00 0.000000e+00 0.000000e+00 0.000000e+00 0.000000e+00 0.000000e+00 0.000000e+00 0.000000e+00 0.000000e+00 0.000000e+00 0.000000e+00 0.000000e+00 6.153846e-01 3.846154e-01 0.000000e+00 0.000000e+00 0.000000e+00 0.000000e+00 0.000000e+00 0.000000e+00 0.000000e+00 0.000000e+00 0.000000e+00 0.000000e+00 0.000000e+00 0.000000e+00 0.000000e+00
 0.000000e+00 0.000000e+00 0.000000e+00 0.000000e+00 0.000000e+00 0.000000e+00 0.000000e+00 0.000000e+00 0.000000e+00 0.000000e+00 0.000000e+00 0.000000e+00 0.000000e+00 6.428571e-01 3.571429e-01 0.000000e+00 0.000000e+00 0.000000e+00 0.000000e+00 0.000000e+00 0.000000e+00 0.000000e+00 0.000000e+00 0.000000e+00 0.000000e+00 0.000000e+00 0.000000e+00
 0.000000e+00 0.000000e+00 0.000000e+00 0.000000e+00 0.000000e+00 0.000000e+00 0.000000e+00 0.000000e+00 0.000000e+00 0.000000e+00 0.000000e+00 0.000000e+00 0.000000e+00 0.000000e+00 5.454546e-01 4.545455e-01 0.000000e+00 0.000000e+00 0.000000e+00 0.000000e+00 0.000000e+00 0.000000e+00 0.000000e+00 0.000000e+00 0.000000e+00 0.000000e+00 0.000000e+00
 0.000000e+00 0.000000e+00 0.000000e+00 0.000000e+00 0.000000e+00 0.000000e+00 0.000000e+00 0.000000e+00 0.000000e+00 0.000000e+00 0.000000e+00 0.000000e+00 0.000000e+00 0.000000e+00 0.000000e+00 6.428571e-01 3.571429e-01 0.000000e+00 0.000000e+00 0.000000e+00 0.000000e+00 0.000000e+00 0.000000e+00 0.000000e+00 0.000000e+00 0.000000e+00 0.000000e+00
 0.000000e+00 0.000000e+00 0.000000e+00 0.000000e+00 0.000000e+00 0.000000e+00 0.000000e+00 0.000000e+00 0.000000e+00 0.000000e+00 0.000000e+00 0.000000e+00 0.000000e+00 0.000000e+00 0.000000e+00 0.000000e+00 5.833333e-01 4.166667e-01 0.000000e+00 0.000000e+00 0.000000e+00 0.000000e+00 0.000000e+00 0.000000e+00 0.000000e+00 0.000000e+00 0.000000e+00
 0.000000e+00 0.000000e+00 0.000000e+00 0.000000e+00 0.000000e+00 0.000000e+00 0.000000e+00 0.000000e+00 0.000000e+00 0.000000e+00 0.000000e+00 0.000000e+00 0.000000e+00 0.000000e+00 0.000000e+00 0.000000e+00 0.000000e+00 4.444444e-01 5.555556e-01 0.000000e+00 0.000000e+00 0.000000e+00 0.000000e+00 0.000000e+00 0.000000e+00 0.000000e+00 0.000000e+00
 0.000000e+00 0.000000e+00 0.000000e+00 0.000000e+00 0.000000e+00 0.000000e+00 0.000000e+00 0.000000e+00 0.000000e+00 0.000000e+00 0.000000e+00 0.000000e+00 0.000000e+00 0.000000e+00 0.000000e+00 0.000000e+00 0.000000e+00 0.000000e+00 5.833333e-01 4.166667e-01 0.000000e+00 0.000000e+00 0.000000e+00 0.000000e+00 0.000000e+00 0.000000e+00 0.000000e+00
 0.000000e+00 0.000000e+00 0.000000e+00 0.000000e+00 0.000000e+00 0.000000e+00 0.000000e+00 0.000000e+00 0.000000e+00 0.000000e+00 0.000000e+00 0.000000e+00 0.000000e+00 0.000000e+00 0.000000e+00 0.000000e+00 0.000000e+00 0.000000e+00 0.000000e+00 6.153846e-01 3.846154e-01 0.000000e+00 0.000000e+00 0.000000e+00 0.000000e+00 0.000000e+00 0.000000e+00
 0.000000e+00 0.000000e+00 0.000000e+00 0.000000e+00 0.000000e+00 0.000000e+00 0.000000e+00 0.000000e+00 0.000000e+00 0.000000e+00 0.000000e+00 0.000000e+00 0.000000e+00 0.000000e+00 0.000000e+00 0.000000e+00 0.000000e+00 0.000000e+00 0.000000e+00 0.000000e+00 5.000000e-01 5.000000e-01 0.000000e+00 0.000000e+00 0.000000e+00 0.000000e+00 0.000000e+00
 0.000000e+00 0.000000e+00 0.000000e+00 0.000000e+00 0.000000e+00 0.000000e+00 0.000000e+00 0.000000e+00 0.000000e+00 0.000000e+00 0.000000e+00 0.000000e+00 0.000000e+00 0.000000e+00 0.000000e+00 0.000000e+00 0.000000e+00 0.000000e+00 0.000000e+00 0.000000e+00 0.000000e+00 6.428571e-01 3.571429e-01 0.000000e+00 0.000000e+00 0.000000e+00 0.000000e+00
 0.000000e+00 0.000000e+00 0.000000e+00 0.000000e+00 0.000000e+00 0.000000e+00 0.000000e+00 0.000000e+00 0.000000e+00 0.000000e+00 0.000000e+00 0.000000e+00 0.000000e+00 0.000000e+00 0.000000e+00 0.000000e+00 0.000000e+00 0.000000e+00 0.000000e+00 0.000000e+00 0.000000e+00 0.000000e+00 5.000000e-01 5.000000e-01 0.000000e+00 0.000000e+00 0.000000e+00
 0.000000e+00 0.000000e+00 0.000000e+00 0.000000e+00 0.000000e+00 0.000000e+00 0.000000e+00 0.000000e+00 0.000000e+00 0.000000e+00 0.000000e+00 0.000000e+00 0.000000e+00 0.000000e+00 0.000000e+00 0.000000e+00 0.000000e+00 0.000000e+00 0.000000e+00 0.000000e+00 0.000000e+00 0.000000e+00 0.000000e+00 6.153846e-01 3.846154e-01 0.000000e+00 0.000000e+00
 0.000000e+00 0.000000e+00 0.000000e+00 0.000000e+00 0.000000e+00 0.000000e+00 0.000000e+00 0.000000e+00 0.000000e+00 0.000000e+00 0.000000e+00 0.000000e+00 0.000000e+00 0.000000e+00 0.000000e+00 0.000000e+00 0.000000e+00 0.000000e+00 0.000000e+00 0.000000e+00 0.000000e+00 0.000000e+00 0.000000e+00 0.000000e+00 5.000000e-01 5.000000e-01 0.000000e+00
 0.000000e+00 0.000000e+00 0.000000e+00 0.000000e+00 0.000000e+00 0.000000e+00 0.000000e+00 0.000000e+00 0.000000e+00 0.000000e+00 0.000000e+00 0.000000e+00 0.000000e+00 0.000000e+00 0.000000e+00 0.000000e+00 0.000000e+00 0.000000e+00 0.000000e+00 0.000000e+00 0.000000e+00 0.000000e+00 0.000000e+00 0.000000e+00 0.000000e+00 5.454546e-01 4.545455e-01
 0.000000e+00 0.000000e+00 0.000000e+00 0.000000e+00 0.000000e+00 0.000000e+00 0.000000e+00 0.000000e+00 0.000000e+00 0.000000e+00 0.000000e+00 0.000000e+00 0.000000e+00 0.000000e+00 0.000000e+00 0.000000e+00 0.000000e+00 0.000000e+00 0.000000e+00 0.000000e+00 0.000000e+00 0.000000e+00 0.000000e+00 0.000000e+00 0.000000e+00 0.000000e+00 0.000000e+00
<ENDHMM>
