~o
<STREAMINFO> 1 39
<VECSIZE> 39<NULLD><MFCC_E_D_A><DIAGC>
~h "Chay"
<BEGINHMM>
<NUMSTATES> 47
<STATE> 2
<MEAN> 39
 -6.276573e+00 -8.661541e+00 -1.184296e+00 -1.842038e+00 -9.119548e-01 -5.090411e+00 1.431740e+00 -2.277647e+00 2.431366e-01 -2.659535e+00 1.817446e+00 -1.328898e+00 -9.783933e-02 -6.738680e-01 -1.673451e-01 -3.054954e-01 -4.511733e-01 -3.816690e-01 -3.597009e-01 -2.779501e-01 3.609416e-01 7.355662e-01 7.686409e-01 -2.792595e-01 -2.690679e-01 -1.331083e-03 -4.014581e-01 2.810824e-01 -3.502363e-01 -1.148291e+00 4.506935e-01 -5.381591e-02 -6.011527e-02 2.891723e-01 6.070490e-01 4.304615e-01 -2.427599e-01 1.548727e-02 4.441406e-02
<VARIANCE> 39
 2.815998e+00 2.086955e+00 2.743696e+00 3.757329e+00 6.176839e+00 4.884131e+00 2.507981e+00 4.487941e+00 7.170265e+00 9.745327e+00 1.340992e+01 1.866558e+01 1.000000e-02 2.435419e-01 4.950995e-01 7.896630e-01 1.603652e+00 7.977989e-01 1.017796e+00 6.289803e-01 1.202301e+00 7.263632e-01 6.022723e-01 6.971193e-01 6.943525e-01 1.000000e-02 1.269508e-01 6.859174e-02 2.090855e-01 5.764953e-01 3.058657e-01 4.854187e-01 2.023013e-01 3.124406e-01 8.903328e-02 1.370570e-01 2.434797e-01 4.255268e-01 1.000000e-02
<GCONST> 5.544219e+01
<STATE> 3
<MEAN> 39
 -7.403173e+00 -8.930362e+00 -2.267666e+00 -2.072017e+00 2.984720e-01 -4.657160e+00 3.902873e-01 -1.937004e+00 8.003236e-04 -1.699161e+00 1.004571e-01 -3.794806e+00 -8.609842e-02 -1.662796e+00 1.103262e+00 -1.049075e+00 -3.178460e+00 1.379505e+00 -1.885696e-01 -5.240343e-01 5.017401e-01 1.049701e+00 6.359070e-01 -7.818902e-01 2.526852e-01 1.172088e-01 -2.956747e-01 2.034460e-01 -3.525447e-01 -1.410987e+00 -4.172215e-01 -5.129997e-01 2.829966e-01 -2.064418e-01 2.106287e-01 1.242551e-01 -1.523651e-01 1.288118e-01 6.364688e-02
<VARIANCE> 39
 1.343638e+00 1.375993e+00 3.497432e+00 2.636303e+00 5.899001e+00 4.188062e+00 5.719182e+00 2.160149e-01 8.885829e+00 2.533387e+00 7.169670e+00 8.900419e+00 1.000000e-02 6.223156e-01 5.433908e-01 1.051629e+00 4.664901e+00 2.149441e+00 1.421065e+00 1.855960e+00 2.271134e+00 7.963885e-02 1.093057e+00 2.098328e+00 3.403664e+00 1.000000e-02 8.268981e-02 1.668381e-01 2.577007e-01 5.744579e-02 2.721489e-01 7.195077e-01 1.461873e-01 2.288416e-01 1.890353e-01 2.089512e-01 2.982291e-02 2.494799e-01 1.000000e-02
<GCONST> 5.231548e+01
<STATE> 4
<MEAN> 39
 -7.747131e+00 -8.426581e+00 -2.010779e+00 -6.958966e+00 1.050372e+00 -3.300078e+00 -7.028832e-01 5.973644e-01 3.553707e+00 -2.158820e+00 8.146946e-01 -1.054695e+00 7.089145e-02 -2.160266e+00 1.347205e+00 -1.751125e+00 -5.043272e+00 1.356544e-01 -1.785499e+00 1.160049e-01 -3.839823e-01 1.429354e+00 7.976620e-01 -1.378789e+00 -1.907768e-01 1.854440e-01 9.411965e-02 -5.218835e-01 -1.766093e-01 -5.322863e-01 -1.467865e+00 -5.137591e-01 5.765836e-01 -2.737397e-01 -2.148938e-01 7.611015e-02 2.571802e-02 -1.764814e-01 4.217565e-02
<VARIANCE> 39
 3.675395e+00 9.597054e+00 6.588664e+00 5.640244e+01 3.866669e+00 5.080358e+00 4.305283e+01 1.057494e+01 1.402093e+01 1.426339e+01 2.433056e+01 6.207125e+00 6.556068e-02 1.532505e+00 2.629413e-01 1.348069e+00 1.702665e+00 3.661042e+00 5.400041e+00 2.215261e+00 2.073043e+00 2.538107e-01 1.992783e+00 8.653581e-01 2.930204e+00 1.000000e-02 4.485249e-02 3.564839e-01 7.659105e-02 9.553291e-01 1.094357e-01 1.709047e-01 3.415426e-01 1.202346e-01 1.114167e-01 1.330233e-01 2.253767e-01 1.269222e-01 1.000000e-02
<GCONST> 7.162841e+01
<STATE> 5
<MEAN> 39
 -1.505832e+01 -3.478618e+00 -7.008359e+00 -1.713955e+01 4.135624e+00 -8.735119e+00 -2.779221e-01 -3.218980e+00 4.283984e+00 5.054050e-01 -2.823146e+00 -9.992653e-01 4.347864e-01 -1.142172e+00 -4.345374e-01 -1.138640e+00 -4.698004e+00 -3.740715e+00 -2.059394e+00 9.350417e-01 -4.663535e-01 6.432089e-01 1.205368e+00 -5.149248e-01 -1.492079e-01 2.155971e-01 8.929434e-01 -1.575807e+00 7.313555e-02 1.132781e+00 -1.618762e+00 5.687755e-01 9.792963e-01 3.499683e-01 -6.567847e-01 -3.459418e-01 2.288443e-01 -4.108936e-01 -6.658727e-03
<VARIANCE> 39
 1.189021e+01 7.158486e+00 8.280047e+00 2.857224e+01 2.391488e+01 4.012138e+01 1.872554e+01 2.587463e+01 2.462039e+00 2.916482e+01 1.209880e+01 2.097274e+01 1.351322e-02 7.284660e-01 1.783891e+00 1.294958e+00 5.981682e-01 2.361133e+00 4.696681e+00 7.396001e-01 5.323933e-01 2.030443e+00 9.914927e-01 4.884192e-01 7.546800e-01 1.000000e-02 8.151071e-02 1.277023e-01 8.897660e-02 8.366101e-01 5.177851e-01 4.599302e-01 3.116066e-01 5.923915e-01 7.215612e-02 2.724498e-01 2.295863e-01 3.646530e-01 1.000000e-02
<GCONST> 7.541830e+01
<STATE> 6
<MEAN> 39
 -1.156467e+01 -7.129075e+00 -6.013302e+00 -2.050499e+01 -1.094176e+01 -1.367094e+01 3.251584e+00 -2.687268e+00 5.834604e+00 1.885923e+00 -8.468050e-01 -2.567457e+00 6.948563e-01 7.424536e-01 -4.007829e+00 -1.043455e+00 -8.082761e-01 -5.940495e+00 -2.339611e-01 2.793279e+00 6.787979e-01 -2.668625e-01 3.727881e-01 -1.896141e-01 -1.501397e+00 1.349020e-01 5.402857e-01 -1.370790e+00 -1.991712e-01 2.205835e+00 8.861622e-01 1.353680e+00 7.979855e-01 3.654714e-01 -1.083976e+00 -1.069686e+00 1.422442e-01 -1.925745e-01 -4.256535e-02
<VARIANCE> 39
 6.499025e+00 8.035480e+00 2.536149e+01 5.986020e+00 1.856359e+01 5.114230e+01 2.593275e+01 1.236513e+01 7.616999e+00 2.961945e+00 1.218369e+01 7.942281e+00 1.000000e-02 3.011732e-01 6.667565e-01 5.575020e-01 8.315452e-01 1.195989e+00 1.673491e+00 1.726666e+00 1.114839e+00 7.522196e-01 3.749860e-01 5.089569e-01 3.626966e-01 1.000000e-02 2.101720e-02 1.870687e-01 3.517108e-01 1.758522e-02 9.745370e-02 7.424450e-01 2.584665e-01 4.099246e-01 1.878543e-01 2.695667e-01 7.027435e-02 2.454052e-01 1.000000e-02
<GCONST> 6.063554e+01
<STATE> 7
<MEAN> 39
 -1.056666e+01 -1.472472e+01 -5.773712e+00 -1.925809e+01 -1.550854e+01 -8.751921e+00 5.046563e+00 4.789323e-02 4.250986e+00 4.503656e+00 -5.990282e-01 -2.596312e+00 8.018967e-01 1.174436e+00 -4.731137e+00 -1.346664e+00 1.461064e+00 -2.823522e+00 1.898370e+00 3.934177e+00 1.541264e+00 -1.921791e+00 -1.459837e+00 -3.094129e-01 -1.466069e+00 1.029607e-01 7.223945e-02 -3.307233e-01 -3.543401e-01 1.785737e+00 2.421432e+00 9.588671e-01 1.165372e-01 -1.129489e-01 -9.443758e-01 -1.331782e+00 2.484020e-01 3.715268e-01 -4.197992e-02
<VARIANCE> 39
 9.645301e+00 8.323390e-01 1.093412e+01 2.683272e+00 1.234735e+01 3.716346e+01 1.417420e+01 9.156203e+00 7.815421e+00 6.230027e-01 1.579478e+00 6.613554e+00 1.000000e-02 4.856864e-01 1.747046e-01 2.405275e-01 5.639497e-01 1.742480e+00 3.333043e-01 1.402839e+00 2.837871e+00 3.214087e-01 1.948066e+00 7.754110e-01 4.852455e-01 1.000000e-02 1.000000e-02 1.885815e-01 2.095365e-01 6.010101e-02 9.158942e-02 4.641015e-01 8.904217e-02 1.607294e-01 2.203741e-01 6.805043e-02 4.421386e-02 1.209526e-01 1.000000e-02
<GCONST> 4.569148e+01
<STATE> 8
<MEAN> 39
 -1.068406e+01 -1.928936e+01 -1.135548e+01 -1.618131e+01 -1.398502e+01 -5.086976e+00 1.142811e+01 7.585659e-01 -4.827698e-01 -4.270177e+00 -4.147846e+00 -7.470372e+00 8.864941e-01 1.136325e-01 -3.513953e+00 -2.314634e+00 2.699110e+00 2.330286e+00 2.280031e+00 2.540293e+00 -1.574444e-01 -2.960609e+00 -3.363035e+00 5.487989e-02 3.212579e-01 5.272716e-02 -2.578831e-01 6.851822e-01 -5.946957e-02 7.495298e-01 2.399470e+00 -1.363108e-01 -9.015381e-01 -5.188142e-01 8.897580e-02 1.357347e-04 5.307559e-01 1.027934e+00 -2.431028e-02
<VARIANCE> 39
 2.155550e+01 1.437260e+00 7.741165e+00 1.403672e+01 1.981919e+01 3.723592e+01 1.594728e+01 5.751027e+00 9.902847e+00 2.906490e+01 3.379756e+00 6.568082e+00 1.000000e-02 3.209778e-01 1.414736e+00 6.781880e-01 4.539127e-01 2.136370e+00 7.973336e-01 1.401693e+00 1.621455e+00 4.090714e-01 8.902250e-01 8.048853e-01 8.838980e-01 1.000000e-02 3.028321e-02 6.223312e-02 5.310478e-02 1.777005e-01 2.957128e-01 2.778747e-01 2.994023e-01 4.902224e-01 2.828761e-01 5.917968e-01 1.031570e-02 4.142173e-02 1.000000e-02
<GCONST> 5.900330e+01
<STATE> 9
<MEAN> 39
 -1.026882e+01 -2.242960e+01 -1.345043e+01 -1.181668e+01 -6.440394e+00 -3.389662e+00 1.558453e+01 -3.465568e-01 -4.939681e+00 -7.006265e+00 -1.782149e+00 -3.438687e+00 9.323543e-01 -7.980689e-04 -2.421285e+00 -1.731436e+00 3.347461e+00 4.322516e+00 1.005255e+00 1.053945e+00 -5.138463e-01 -1.552083e+00 -1.746669e+00 1.551400e+00 1.917647e+00 3.326965e-02 -1.463301e-01 8.858219e-01 3.204373e-01 7.071028e-02 8.100349e-01 -6.433286e-01 -1.282511e+00 -3.007159e-01 8.379025e-01 7.577024e-01 3.307980e-01 5.416949e-01 -1.492106e-02
<VARIANCE> 39
 2.344584e+01 2.093863e+00 4.384985e+00 2.302835e+01 3.273209e+01 2.263345e+01 4.495792e+01 1.085766e+01 1.390576e+01 2.950762e+01 5.826891e+00 1.560441e+01 1.000000e-02 1.023876e-01 9.138839e-01 4.631177e-01 3.341377e-01 6.639670e-01 4.091305e-01 1.984482e+00 1.608158e+00 5.278962e-01 1.359459e+00 3.978637e-01 9.438068e-01 1.000000e-02 8.867837e-02 4.930535e-02 2.219011e-02 3.410100e-01 4.716442e-01 2.573510e-01 2.215531e-01 1.823871e-01 3.968538e-01 7.497335e-01 1.595981e-01 1.460213e-01 1.000000e-02
<GCONST> 6.340132e+01
<STATE> 10
<MEAN> 39
 -1.002788e+01 -2.637778e+01 -1.568459e+01 -9.038568e+00 -2.721060e+00 -4.371204e+00 1.379286e+01 -7.496767e-01 -5.606645e+00 -8.814108e+00 1.085495e+00 -1.596635e+00 9.632775e-01 -1.299471e-01 -1.613117e+00 -1.087291e+00 2.777959e+00 4.077607e+00 3.093709e-01 -9.444734e-01 -7.461762e-01 -6.684865e-01 -3.481709e-01 1.625392e+00 2.208584e+00 2.222599e-02 -2.323228e-02 8.522834e-01 3.955011e-01 -4.756725e-01 -7.543156e-02 -5.189393e-01 -8.761244e-01 -1.170433e-01 8.295127e-01 8.119318e-01 -3.375674e-01 -1.455555e-01 -9.878031e-03
<VARIANCE> 39
 2.121004e+01 3.384525e+00 4.213508e+00 1.431484e+01 2.806094e+01 3.029268e+01 3.437385e+01 1.094839e+01 6.669272e+00 1.105000e+01 5.664873e+00 1.101163e+01 1.000000e-02 8.192616e-02 5.896197e-01 2.760606e-01 6.936374e-01 2.669774e-01 1.575314e+00 1.511923e+00 7.487661e-01 1.598011e+00 2.018430e+00 4.380353e-01 4.944288e-02 1.000000e-02 4.123193e-02 1.525001e-01 1.532909e-01 1.796795e-01 3.329183e-01 1.067734e-01 1.771818e-01 1.978624e-01 1.128583e-01 2.310284e-01 1.748142e-01 1.692294e-01 1.000000e-02
<GCONST> 5.674118e+01
<STATE> 11
<MEAN> 39
 -1.109567e+01 -2.693032e+01 -1.571513e+01 -4.188395e+00 1.532990e+00 -1.801735e+00 1.228403e+01 -1.260722e+00 -4.087103e+00 -5.889340e+00 2.725665e+00 2.017381e+00 9.782241e-01 2.674397e-01 -3.857946e-01 -5.974398e-01 2.138374e+00 3.622480e+00 3.768821e-02 -9.505332e-01 -4.219735e-01 4.053460e-01 -1.737489e-01 9.515413e-02 9.820977e-01 1.557453e-02 7.499191e-03 7.039410e-01 2.364218e-01 -8.542927e-01 -7.300153e-01 -3.284763e-01 -1.906535e-01 -4.522863e-02 6.965541e-01 2.629102e-01 -7.437165e-01 -7.468684e-01 -7.404987e-03
<VARIANCE> 39
 1.489869e+01 1.043831e+01 4.817208e+00 7.988322e+00 3.909459e+01 3.489919e+01 3.604372e+01 8.341378e+00 8.369649e+00 4.074990e+00 7.924347e+00 5.102065e+00 1.000000e-02 3.319690e-01 3.340726e-01 6.902977e-01 1.545245e+00 7.382987e-01 1.156122e+00 2.296024e-01 4.621557e-01 1.508933e+00 2.541987e+00 6.837845e-01 2.848922e-02 1.000000e-02 2.400096e-02 9.052328e-02 1.421092e-01 2.744954e-02 1.921171e-01 9.413604e-02 2.007321e-01 2.142431e-01 6.091535e-02 4.989924e-02 1.417715e-01 5.737403e-02 1.000000e-02
<GCONST> 5.013678e+01
<STATE> 12
<MEAN> 39
 -1.096037e+01 -2.472693e+01 -1.661572e+01 -3.284033e+00 4.951731e+00 -1.730229e+00 8.511735e+00 -3.060191e+00 -3.072734e+00 -7.299034e+00 1.096959e+00 2.327915e+00 9.964878e-01 -4.236965e-02 2.328641e-01 -1.059040e+00 4.629748e-01 1.733772e+00 -3.436459e-01 -7.154992e-01 -9.163062e-01 1.131810e+00 5.938558e-02 -5.786021e-01 -2.469880e-01 4.441679e-03 -1.618705e-01 1.347382e-01 1.882758e-01 -7.378236e-01 -8.342050e-01 2.563458e-02 4.112782e-01 -1.161167e-02 1.089139e-01 -1.185371e-01 -4.308674e-01 -5.675801e-01 -6.086673e-03
<VARIANCE> 39
 1.733444e+01 6.767139e+00 4.015996e+00 9.213223e+00 3.280999e+01 3.932024e+01 5.299671e+01 7.442853e+00 2.056994e+01 6.292226e+00 4.902195e+00 7.996882e+00 1.000000e-02 2.680359e-01 3.701281e-01 3.657447e-01 5.953106e-01 1.056395e+00 1.288021e+00 2.320385e-01 9.764318e-01 3.822624e-01 7.908682e-01 8.995537e-01 1.666386e-01 1.000000e-02 2.459463e-02 7.403499e-02 5.185710e-02 7.977880e-02 8.574051e-02 2.371448e-01 1.553121e-01 1.171374e-01 3.065937e-01 8.754461e-02 1.016941e-01 2.960850e-02 1.000000e-02
<GCONST> 5.068162e+01
<STATE> 13
<MEAN> 39
 -1.061377e+01 -2.600127e+01 -1.805812e+01 -4.305691e+00 7.687831e+00 -4.032902e+00 9.851768e+00 -3.860982e+00 -2.165983e+00 -8.215424e+00 -6.562044e-01 2.001279e-01 9.945959e-01 -2.817245e-01 6.225992e-02 -3.605068e-01 -8.048788e-02 1.162773e+00 1.102611e-02 -1.545765e-01 -5.278872e-01 1.061221e+00 -1.593650e-01 -1.094010e+00 -5.791382e-01 -2.221337e-03 -2.720344e-01 9.427264e-02 2.614133e-01 -2.112619e-01 -7.245727e-01 8.338930e-02 2.886592e-01 7.340934e-02 -1.759464e-02 -1.028977e-01 2.937753e-02 -1.352610e-01 -6.112305e-03
<VARIANCE> 39
 1.305637e+01 1.430557e+01 8.609007e+00 1.037032e+01 4.129634e+01 6.325838e+01 3.083285e+01 1.183292e+01 2.088423e+01 5.270546e+00 4.520786e+00 1.135468e+01 1.000000e-02 5.696138e-01 3.152801e-01 4.593467e-01 2.373776e-01 7.045596e-01 5.136491e-01 1.083162e+00 8.701173e-02 4.774975e-01 2.944760e-01 3.285025e-01 2.648482e-01 1.000000e-02 5.267435e-02 1.219171e-01 1.132329e-01 1.369331e-01 1.745516e-01 2.825450e-01 1.211083e-02 1.477657e-01 2.681100e-01 9.387543e-02 1.632527e-01 9.477250e-02 1.000000e-02
<GCONST> 5.187463e+01
<STATE> 14
<MEAN> 39
 -1.075395e+01 -2.575016e+01 -1.939294e+01 -3.625588e+00 8.223926e+00 -5.392649e+00 1.040665e+01 -4.844699e+00 -1.149499e+00 -7.810867e+00 -9.718186e-01 -5.830097e-01 9.884096e-01 -9.522024e-01 3.567813e-02 -1.022847e-01 4.731777e-02 4.761943e-01 4.466252e-02 7.910186e-02 -6.727955e-01 9.982956e-01 -1.569423e-01 -6.617262e-01 -4.471288e-01 -1.038743e-02 -1.775224e-01 1.028387e-01 3.067887e-01 3.450106e-02 -5.217463e-01 -3.121592e-02 2.938811e-01 1.359787e-01 -1.532476e-01 -1.555146e-01 3.331473e-01 5.020914e-02 -5.058428e-03
<VARIANCE> 39
 1.045087e+01 7.582433e+00 6.855297e+00 7.335883e+00 3.551997e+01 5.079114e+01 2.386868e+01 9.554452e+00 1.433996e+01 1.138538e+01 1.608138e+00 1.483101e+01 1.000000e-02 5.140308e-01 1.527551e-01 1.997419e-01 3.409508e-01 4.534806e-01 8.097401e-01 2.623732e-01 2.319300e-01 9.236932e-01 2.413978e-01 4.101149e-01 3.148311e-01 1.000000e-02 1.147132e-01 5.583028e-02 7.537846e-02 8.167744e-02 6.664317e-02 1.264279e-01 3.203875e-02 6.357423e-02 1.685348e-01 1.031673e-01 1.068916e-01 8.632512e-02 1.000000e-02
<GCONST> 4.491514e+01
<STATE> 15
<MEAN> 39
 -1.270101e+01 -2.555581e+01 -1.744712e+01 -3.483597e+00 7.171889e+00 -1.016071e+00 1.001736e+01 -4.867238e+00 7.158988e-02 -8.048475e+00 -1.609748e+00 1.347397e-01 9.717081e-01 -9.676244e-01 3.406802e-01 1.721548e-01 1.365214e-01 -1.132949e-01 -3.718850e-01 3.811329e-01 -3.447447e-01 4.596001e-01 -4.918992e-01 2.617078e-03 -2.925606e-01 -1.404877e-02 1.496188e-03 4.466782e-02 1.600390e-01 -5.864421e-02 -6.172416e-01 -1.885972e-01 9.450452e-02 2.734311e-01 -4.221858e-01 -1.671999e-01 3.145306e-01 1.684573e-01 -1.361259e-03
<VARIANCE> 39
 6.580876e+00 5.463435e+00 6.087686e+00 9.462661e+00 2.882498e+01 4.396177e+01 2.309021e+01 6.359486e+00 1.468384e+01 8.701237e+00 7.398502e-01 4.995919e+00 1.000000e-02 4.388208e-01 6.524587e-01 2.464567e-01 4.811725e-01 6.161796e-01 6.447007e-01 5.689220e-02 5.456595e-01 9.636673e-01 3.824795e-01 5.301444e-01 6.106902e-01 1.000000e-02 1.366161e-01 4.120661e-02 5.823473e-02 3.584405e-02 6.284317e-02 9.389651e-02 2.359046e-02 1.739476e-02 1.028245e-01 1.399024e-01 3.708440e-02 5.637741e-02 1.000000e-02
<GCONST> 3.919028e+01
<STATE> 16
<MEAN> 39
 -1.336763e+01 -2.474196e+01 -1.725922e+01 -3.497887e+00 8.803864e+00 -5.293028e+00 1.096803e+01 -5.743196e+00 1.816907e-01 -9.231028e+00 -8.813620e-01 -4.821306e-01 9.494693e-01 -5.763384e-01 3.155016e-01 4.598791e-01 -7.923110e-02 -1.007358e+00 -5.858478e-01 4.224671e-01 8.460734e-02 -4.125896e-01 -1.165392e+00 3.373018e-01 9.276550e-02 -1.022573e-02 3.393342e-01 -3.970422e-02 2.496635e-01 -3.039906e-01 -5.576466e-01 -3.471022e-02 2.689059e-01 3.943498e-01 -5.299394e-01 -1.073440e-01 7.966425e-02 2.500931e-02 1.803711e-03
<VARIANCE> 39
 6.878423e+00 3.381314e+00 9.822997e+00 3.081407e+00 3.930424e+01 4.455452e+01 1.358574e+01 6.568095e+00 1.078596e+01 2.842884e+00 1.700773e+00 1.074752e+01 1.000000e-02 3.688790e-01 1.295396e-01 5.951465e-01 3.802028e-01 2.746249e-01 4.782088e-01 1.065611e-01 1.856611e-01 1.262354e+00 4.586314e-01 3.124078e-01 4.583537e-01 1.000000e-02 6.641494e-02 6.526660e-02 2.298660e-02 9.258791e-02 5.179155e-02 8.725133e-02 1.609915e-02 8.710735e-02 1.205594e-01 9.740008e-02 5.696175e-02 1.116974e-01 1.000000e-02
<GCONST> 3.667199e+01
<STATE> 17
<MEAN> 39
 -1.473283e+01 -2.506203e+01 -1.781546e+01 -4.148441e+00 5.575863e+00 -5.062419e+00 1.136078e+01 -4.377547e+00 5.410185e-02 -1.010907e+01 -3.732312e-01 -8.547723e-01 9.375658e-01 1.087941e-01 2.788904e-01 7.184802e-01 -5.354447e-01 -1.762453e+00 -4.018165e-01 9.884176e-01 8.847104e-01 -1.033199e+00 -6.583495e-01 2.922515e-01 1.583866e-01 -7.893192e-03 4.787187e-01 -2.413260e-02 3.773337e-01 -3.838718e-01 -3.914452e-01 1.047901e-01 2.728224e-01 2.550805e-01 -2.727148e-01 2.216254e-01 -7.700372e-02 -1.686647e-01 -3.306737e-05
<VARIANCE> 39
 6.741628e+00 6.716001e+00 6.307096e+00 1.153325e+01 4.279031e+01 3.485961e+01 2.235703e+01 4.933190e+00 1.101380e+01 3.347346e+00 3.730255e+00 1.101317e+01 1.000000e-02 9.614126e-02 1.203878e-01 4.577222e-01 2.847455e-01 1.699225e-01 4.368227e-01 1.913514e-01 3.983626e-01 2.483867e-01 2.385853e-01 2.677186e-01 8.857816e-02 1.000000e-02 1.089184e-01 4.598183e-02 3.808295e-02 1.125205e-01 3.255212e-02 3.324552e-02 2.965946e-02 7.253025e-02 2.584219e-01 1.851584e-01 8.436351e-02 2.268437e-01 1.000000e-02
<GCONST> 3.634069e+01
<STATE> 18
<MEAN> 39
 -1.395053e+01 -2.486290e+01 -1.574768e+01 -4.657230e+00 3.985713e+00 -6.315753e+00 1.304717e+01 -4.120560e+00 -2.687929e+00 -1.218929e+01 -7.505299e-01 -4.299013e-01 9.357855e-01 6.467749e-01 1.321127e-01 1.383654e+00 -1.013253e+00 -1.765378e+00 -5.579930e-03 1.456775e+00 8.158008e-01 -1.286751e+00 -6.471343e-01 1.639534e-01 -4.501359e-01 -8.516660e-03 2.856350e-01 6.193100e-02 3.202988e-01 -4.349861e-01 -3.402974e-01 9.587754e-02 7.037912e-02 1.553341e-01 2.076176e-01 5.358431e-01 -1.607802e-01 -3.840139e-01 -3.255827e-03
<VARIANCE> 39
 3.874245e+00 6.243478e+00 1.020590e+01 9.343731e+00 2.876308e+01 2.997252e+01 1.470355e+01 9.585272e+00 9.253172e+00 6.394653e+00 6.179675e+00 1.514317e+01 1.000000e-02 1.914843e-01 2.222829e-01 5.035416e-01 6.246657e-01 5.364766e-01 3.420362e-01 2.186225e-01 1.505138e-01 3.588471e-01 6.985062e-01 3.428544e-01 9.261063e-01 1.000000e-02 9.596278e-02 5.514739e-02 9.094907e-02 1.075996e-01 2.532120e-02 1.127267e-02 5.065241e-02 6.885723e-02 1.562633e-01 1.364805e-01 1.392102e-01 2.235878e-01 1.000000e-02
<GCONST> 4.297243e+01
<STATE> 19
<MEAN> 39
 -1.240338e+01 -2.358692e+01 -1.444911e+01 -5.527860e+00 3.000906e-01 -3.367131e+00 1.413539e+01 -2.098512e+00 -3.731588e+00 -1.000401e+01 4.442208e-01 -5.222328e-02 9.165455e-01 7.347153e-01 3.140122e-01 1.724288e+00 -1.723530e+00 -2.173817e+00 -3.678014e-01 1.253475e+00 6.881409e-01 -4.623224e-01 3.661097e-01 -1.854850e-01 -8.358597e-01 -1.767794e-02 -4.382632e-02 1.838295e-01 2.191687e-01 -3.379767e-01 -3.917069e-01 -2.712542e-01 -3.659480e-01 -7.535769e-02 6.966500e-01 7.598362e-01 -2.268385e-01 -4.682760e-01 -4.657840e-03
<VARIANCE> 39
 5.424574e+00 3.987925e+00 7.218488e+00 7.087655e+00 3.893659e+01 2.225879e+01 2.115621e+01 1.407980e+01 8.758204e+00 9.723194e+00 3.479597e+00 3.108866e+00 1.000000e-02 2.358731e-01 2.238421e-01 1.933280e-01 1.175339e+00 2.248280e-01 2.447541e-01 3.207123e-01 4.159418e-01 7.697608e-01 1.104046e+00 6.244539e-01 1.148502e+00 1.000000e-02 3.987574e-02 6.137140e-02 6.988577e-02 5.843619e-02 3.344248e-02 5.061169e-02 1.182787e-01 1.027690e-01 3.834325e-02 7.135201e-02 7.566135e-02 1.000000e-02 1.000000e-02
<GCONST> 3.893244e+01
<STATE> 20
<MEAN> 39
 -1.162607e+01 -2.430961e+01 -1.199766e+01 -7.634505e+00 -2.571869e-01 -5.907907e+00 1.653495e+01 -2.055299e+00 -3.762707e+00 -1.219856e+01 -5.907843e-01 -2.510399e+00 8.913533e-01 4.712312e-01 6.222072e-01 1.662509e+00 -1.721220e+00 -3.000454e+00 -7.367979e-01 5.447898e-01 1.049569e+00 6.805781e-01 1.318667e+00 -2.975075e-01 -1.764554e+00 -2.593539e-02 -1.642596e-01 3.074052e-01 4.805710e-02 -1.301162e-01 -3.120961e-01 -3.327285e-01 -6.323931e-01 -1.243828e-01 8.366944e-01 1.121228e+00 7.904555e-02 -2.055573e-01 -4.579571e-03
<VARIANCE> 39
 5.595978e+00 6.400070e+00 9.241323e+00 1.453454e+01 5.200266e+01 1.405102e+01 1.568667e+01 6.347012e+00 1.307349e+01 2.043791e+01 9.109784e+00 4.807374e+00 1.000000e-02 3.501032e-01 4.750024e-01 4.435076e-01 6.272951e-01 4.410450e-01 5.136127e-01 1.749447e-01 1.032862e+00 4.511492e-01 4.579551e-01 8.450841e-01 7.683573e-01 1.000000e-02 1.318530e-02 2.565072e-02 4.128372e-02 1.345095e-01 1.311551e-01 8.366417e-02 1.741300e-01 9.906333e-02 4.628742e-02 1.031980e-01 3.842777e-02 1.852081e-01 1.000000e-02
<GCONST> 4.657783e+01
<STATE> 21
<MEAN> 39
 -1.177679e+01 -2.265550e+01 -1.038664e+01 -1.181199e+01 -6.132372e+00 -9.044020e+00 1.680861e+01 5.293342e-02 -1.546172e+00 -8.066721e+00 -1.993614e+00 -6.473277e+00 8.507290e-01 1.087527e-01 1.216415e+00 1.636277e+00 -1.911218e+00 -3.348444e+00 -1.298838e+00 -9.662259e-01 6.672186e-01 1.910554e+00 3.809531e+00 1.689557e-01 -1.194473e+00 -2.621144e-02 7.971451e-04 1.308212e-01 1.690491e-02 7.573450e-02 3.302125e-01 -3.239568e-01 -6.692979e-01 -3.699551e-01 5.181526e-01 6.858965e-01 4.642135e-01 5.710226e-01 3.764154e-03
<VARIANCE> 39
 8.585403e+00 2.440149e+00 1.631755e+01 1.225186e+01 1.506302e+01 2.222502e+01 1.696270e+01 2.361117e+01 1.247682e+01 1.948914e+01 1.317033e+01 2.214092e+00 1.000000e-02 6.660435e-02 1.484844e-01 1.429266e-01 2.282388e-01 2.681613e-01 7.075842e-01 7.027264e-01 7.787930e-01 3.464498e-01 4.563319e-01 5.210417e-01 5.644907e-01 1.000000e-02 5.112187e-02 3.276215e-02 7.662693e-02 2.175364e-01 8.751233e-02 6.633496e-02 9.414310e-02 1.415052e-01 1.362688e-01 2.629229e-01 1.170538e-01 1.157275e-01 1.000000e-02
<GCONST> 4.591799e+01
<STATE> 22
<MEAN> 39
 -1.139446e+01 -1.907592e+01 -6.208857e+00 -1.342719e+01 -1.178143e+01 -8.883409e+00 1.235472e+01 -8.773037e-01 2.491356e+00 8.044780e-01 -9.562343e-01 -7.265615e+00 8.062504e-01 2.106232e-01 1.168767e+00 1.656884e+00 -1.309482e+00 -1.792605e+00 -1.720058e+00 -1.877493e+00 -2.926694e-01 2.682844e+00 3.937105e+00 9.442166e-01 1.645953e-02 -1.552459e-02 -6.654939e-02 -2.162335e-01 -2.297747e-01 1.488977e-01 8.176656e-01 1.140282e-02 -1.777487e-01 -3.905886e-01 -2.437683e-01 -5.992524e-01 2.416835e-01 7.982781e-01 3.136200e-03
<VARIANCE> 39
 5.654636e+00 2.886449e+00 1.311222e+01 5.302417e+00 3.218449e+01 1.788888e+01 3.435199e+01 2.195462e+01 1.743612e+01 2.294196e+01 7.821779e+00 6.427007e+00 1.000000e-02 1.038727e-01 1.123798e-01 3.911330e-01 4.287759e-01 5.828102e-01 1.047968e+00 8.094135e-01 4.005917e-01 1.131460e+00 8.085626e-01 8.293881e-01 3.294326e-01 1.000000e-02 2.821886e-02 2.023772e-02 7.259387e-02 1.167676e-01 8.891067e-02 3.485832e-01 2.441435e-01 1.807531e-01 3.928950e-01 2.427290e-01 3.211455e-02 9.815162e-02 1.000000e-02
<GCONST> 5.160168e+01
<STATE> 23
<MEAN> 39
 -1.115293e+01 -1.987835e+01 -5.567566e+00 -1.511220e+01 -1.231006e+01 -1.229008e+01 1.058353e+01 -1.130650e+00 4.974905e+00 3.540764e+00 1.349726e+00 -5.513436e+00 7.993146e-01 1.379114e-01 5.619671e-01 1.317871e+00 -1.704206e+00 -9.999128e-01 -1.868489e+00 -1.719175e+00 -1.087521e+00 1.551027e+00 2.292538e+00 1.007205e+00 7.719658e-01 -1.220890e-02 -1.392188e-01 -1.809056e-01 -2.553554e-01 2.737901e-02 7.323242e-01 1.833865e-01 9.264434e-02 -4.140415e-01 -6.510352e-01 -1.166103e+00 -1.796670e-01 4.974767e-01 6.438808e-04
<VARIANCE> 39
 7.162623e+00 4.706262e+00 6.598243e+00 3.703759e+00 1.499219e+01 2.890936e+01 5.902436e+01 1.392160e+01 6.640358e+00 8.905882e+00 1.397822e+01 1.930819e+00 1.000000e-02 1.953572e-01 2.805862e-01 3.413697e-01 1.040675e+00 9.453980e-01 1.953050e+00 6.839758e-01 2.400596e-01 1.453263e+00 1.945345e+00 1.013300e-01 6.485711e-01 1.000000e-02 1.245771e-02 2.643271e-02 5.329362e-02 2.279033e-02 1.742023e-01 2.326504e-01 3.308988e-01 1.057513e-01 3.522203e-01 2.261322e-01 6.613468e-02 6.592475e-02 1.000000e-02
<GCONST> 4.866301e+01
<STATE> 24
<MEAN> 39
 -1.096864e+01 -1.961903e+01 -3.695790e+00 -1.738081e+01 -1.399432e+01 -1.369643e+01 1.005089e+01 -2.017560e+00 7.998811e+00 5.589526e+00 2.938024e+00 -5.136118e+00 7.928094e-01 -1.589291e-01 6.245484e-01 9.237279e-01 -1.569313e+00 -6.535388e-01 -1.410767e+00 -1.138051e+00 -1.007489e+00 1.021277e+00 7.862517e-01 2.834185e-01 9.315260e-01 -1.284760e-02 -2.094796e-01 4.091104e-02 -2.854495e-01 2.234393e-01 5.906282e-01 5.551353e-01 1.713633e-01 -1.621695e-01 -7.804590e-01 -1.089051e+00 -3.964350e-01 3.989441e-01 -3.321298e-03
<VARIANCE> 39
 3.699591e+00 6.936540e+00 5.717039e+00 4.168810e+00 8.621924e+00 4.439430e+01 2.718283e+01 2.449758e+01 2.699443e+00 4.783818e+00 5.421465e+00 7.466259e+00 1.000000e-02 2.406849e-01 7.370491e-02 3.027702e-01 3.000168e-01 1.250954e+00 2.343932e+00 6.300570e-01 1.662847e-01 3.001147e+00 1.294089e+00 1.585403e-01 1.375819e+00 1.000000e-02 4.613509e-02 5.900238e-02 8.688560e-02 5.448509e-02 5.489700e-02 1.577937e-01 1.377920e-01 1.245319e-01 9.541243e-02 2.606438e-01 1.298824e-01 2.381581e-02 1.000000e-02
<GCONST> 4.566263e+01
<STATE> 25
<MEAN> 39
 -1.127988e+01 -1.790326e+01 -3.414051e+00 -1.878229e+01 -1.307379e+01 -1.480284e+01 8.842710e+00 -3.122299e+00 6.687603e+00 4.504704e+00 1.441908e+00 -4.064232e+00 7.785365e-01 -4.770162e-01 7.597305e-01 5.623642e-01 -1.235108e+00 3.730102e-01 -1.875106e-01 -1.220961e+00 -1.210225e+00 -5.596084e-01 -3.881617e-01 2.147635e-02 1.623176e+00 -2.275624e-02 -8.174250e-03 2.223441e-02 -2.247898e-01 4.906280e-01 4.201533e-01 5.227760e-01 1.340536e-01 7.107210e-03 -6.449610e-01 -6.828796e-01 -1.973242e-01 1.927589e-01 -7.064731e-03
<VARIANCE> 39
 4.723405e+00 2.499589e+00 8.805593e+00 9.578699e-01 1.435098e+01 5.236834e+01 1.086104e+01 1.374768e+01 2.293022e+01 4.474362e+00 8.143993e+00 4.989120e+00 1.000000e-02 4.709324e-01 2.415990e-01 3.848866e-01 2.255051e-01 5.526279e-01 5.556290e-01 9.503673e-01 4.332531e-01 3.695966e-01 4.814668e-01 3.352491e-01 7.813237e-01 1.000000e-02 7.334174e-02 1.460231e-02 9.382518e-02 6.454298e-02 4.226566e-02 5.224217e-01 1.606981e-01 6.723210e-02 3.856606e-01 2.769703e-01 7.064847e-02 1.924011e-01 1.000000e-02
<GCONST> 4.585282e+01
<STATE> 26
<MEAN> 39
 -1.212236e+01 -1.703958e+01 -2.569256e+00 -2.010575e+01 -1.186810e+01 -1.445912e+01 6.615342e+00 -4.336807e+00 4.573989e+00 5.138895e+00 2.548445e+00 -2.802113e-01 7.494517e-01 -1.431999e-01 8.163329e-01 7.345647e-01 -2.157765e-01 6.810512e-01 -1.881458e-01 -1.176779e+00 -1.126398e+00 -3.225858e-01 -3.905690e-01 5.765357e-02 1.391375e+00 -2.918080e-02 2.355135e-01 -2.075211e-01 -2.917099e-01 4.021748e-01 1.072386e-01 -7.516945e-02 5.135758e-02 1.392338e-01 -1.234113e-01 -4.982991e-01 -3.059172e-01 -2.707589e-01 -5.134349e-03
<VARIANCE> 39
 7.318670e+00 3.182722e+00 9.666137e+00 5.608295e+00 1.987635e+01 4.671453e+01 1.971666e+01 1.355014e+01 8.392495e+00 1.080316e+01 1.642003e+01 2.085829e+01 1.000000e-02 7.324077e-01 9.261771e-02 5.486757e-01 9.948792e-01 9.672229e-01 1.338378e+00 7.626148e-01 7.646372e-01 4.611367e-01 1.062592e+00 8.121908e-01 4.999514e-01 1.000000e-02 1.583007e-01 1.556593e-01 1.494650e-01 1.074443e-01 1.308250e-01 4.724783e-01 4.921162e-02 3.007142e-02 2.657211e-01 1.731598e-01 7.601309e-02 3.220646e-01 1.000000e-02
<GCONST> 5.865269e+01
<STATE> 27
<MEAN> 39
 -1.198569e+01 -1.487566e+01 -9.904048e-01 -1.967421e+01 -1.092800e+01 -1.386925e+01 5.489541e+00 -6.428772e+00 5.024282e+00 2.896169e+00 1.889522e+00 3.022874e-01 6.935542e-01 4.318692e-01 1.298096e-01 -2.913996e-01 2.672195e-01 4.918776e-01 -5.340198e-01 -6.683280e-01 -6.165065e-01 -1.061292e+00 -2.025471e+00 -9.325123e-01 8.599902e-01 -4.058576e-02 4.714190e-01 -5.495385e-01 -3.636257e-01 4.538121e-01 -5.193011e-02 2.232566e-01 2.718426e-01 3.981499e-01 -1.969818e-01 -1.513148e-01 -8.249989e-02 -1.228855e-01 -8.034714e-03
<VARIANCE> 39
 5.556688e+00 6.552491e+00 1.983186e+01 9.954785e+00 1.135810e+01 6.747696e+01 5.587935e+00 9.098350e+00 1.035152e+00 8.748350e+00 1.163189e+01 9.733949e+00 1.000000e-02 1.425230e+00 1.021546e+00 1.187377e+00 1.104249e+00 6.775949e-01 2.831057e+00 7.522928e-01 3.380902e-01 1.115933e+00 8.232501e-01 2.721775e-01 1.763184e+00 1.000000e-02 2.451882e-02 1.804142e-01 1.011145e-01 2.128213e-01 2.452443e-01 1.641664e-01 4.512209e-02 5.654189e-02 6.430800e-02 1.723721e-01 8.367370e-02 2.085586e-01 1.000000e-02
<GCONST> 5.636133e+01
<STATE> 28
<MEAN> 39
 -1.192679e+01 -1.591491e+01 -1.828329e+00 -1.858967e+01 -9.793047e+00 -1.645706e+01 4.464572e+00 -6.883246e+00 4.788275e+00 8.929018e-01 6.917140e-01 1.168141e+00 6.475279e-01 9.963748e-01 -5.421981e-01 -5.848637e-01 5.247880e-01 6.571933e-01 -3.152882e-01 -6.147534e-01 -4.106077e-01 -9.528499e-01 -1.624178e+00 -6.486937e-01 8.731577e-01 -4.971601e-02 5.236856e-01 -5.578432e-01 -1.686358e-01 5.109590e-01 -2.804327e-01 6.880120e-01 2.807120e-01 5.259892e-01 -2.450594e-02 2.342768e-01 1.187497e-01 -2.490167e-01 -5.540881e-03
<VARIANCE> 39
 7.880423e+00 8.986470e-01 1.792500e+01 2.586676e+01 9.504037e+00 4.294861e+01 2.727693e+01 5.570094e+00 4.059279e+00 5.120316e+00 1.701333e+01 6.578867e+00 1.000000e-02 1.379690e+00 2.238351e+00 6.883294e-01 8.685082e-01 7.884613e-01 1.802471e+00 8.651638e-01 7.765094e-01 4.832497e-01 1.494694e+00 1.371501e-01 1.972343e+00 1.000000e-02 1.184988e-01 9.857447e-02 2.115910e-01 2.437177e-01 2.384975e-01 1.812814e-01 2.770963e-01 3.141173e-02 1.949098e-01 4.438701e-02 8.707847e-02 1.667972e-01 1.000000e-02
<GCONST> 5.939808e+01
<STATE> 29
<MEAN> 39
 -9.642900e+00 -1.871507e+01 -4.568772e+00 -1.775738e+01 -1.209409e+01 -1.509890e+01 3.688036e+00 -6.605268e+00 2.412938e+00 -1.867012e+00 -7.804539e-01 2.554960e+00 5.511189e-01 1.500872e+00 -8.852779e-01 -2.292026e-01 1.367562e+00 1.835332e-01 1.354337e+00 -1.265330e-01 7.104030e-01 -6.002017e-01 -6.079030e-01 -3.478023e-01 3.853327e-01 -5.089648e-02 4.337138e-01 -3.994236e-01 1.865128e-01 6.833847e-01 2.899734e-02 1.028209e+00 4.101101e-01 2.619894e-01 1.395775e-01 2.380570e-01 1.668977e-01 -1.922680e-01 1.790555e-03
<VARIANCE> 39
 1.960298e+01 1.014437e+01 7.067058e+00 2.365217e+01 9.668841e+00 2.735238e+01 1.312061e+01 1.680517e+00 7.471630e+00 1.566641e+01 2.069013e+01 1.667795e+00 1.047731e-02 4.130531e-01 1.948674e+00 5.569358e-01 7.682977e-01 1.569402e+00 8.322471e-01 6.771128e-01 1.398619e+00 7.743907e-01 2.667275e-01 5.962541e-01 1.838904e+00 1.000000e-02 4.408141e-01 2.853981e-01 2.325711e-01 1.030996e-01 2.259371e-01 1.160570e-01 2.710940e-01 1.583956e-01 2.257932e-01 3.203644e-01 1.279722e-01 2.173767e-01 1.000000e-02
<GCONST> 6.415499e+01
<STATE> 30
<MEAN> 39
 -8.613771e+00 -1.684496e+01 -2.858479e+00 -1.629292e+01 -8.901915e+00 -1.311219e+01 3.908778e+00 -4.875037e+00 3.512679e+00 1.467748e+00 3.595675e-01 1.918692e+00 5.164740e-01 2.145167e+00 -1.617385e+00 -1.492077e-01 2.424000e+00 1.671408e-01 2.900278e+00 5.429900e-01 7.800687e-01 -5.187988e-01 -6.923193e-01 1.423519e-01 4.553106e-01 -4.588315e-02 2.896897e-01 -5.275632e-01 -1.334739e-01 7.158656e-01 -3.210934e-02 5.710505e-01 3.466406e-01 1.758958e-01 1.031930e-02 -7.673512e-02 5.057979e-02 -1.243506e-01 2.267707e-03
<VARIANCE> 39
 8.870193e+00 1.115072e+01 4.951655e+00 2.466427e+01 1.981717e+01 5.018356e+01 7.643941e+00 2.346191e+01 4.536638e+00 1.046826e+01 9.243067e+00 9.895906e+00 1.077406e-02 1.227867e+00 1.125477e+00 1.630076e+00 9.091570e-01 2.151871e+00 2.611778e-01 2.754227e+00 3.133613e-01 1.191136e+00 1.442589e+00 1.926520e+00 5.290923e-01 1.000000e-02 2.782015e-01 4.912370e-01 1.040876e-01 1.975703e-01 3.864619e-01 4.422077e-01 2.392452e-01 4.681691e-01 3.311605e-01 1.867226e-01 1.000000e-02 5.786299e-01 1.000000e-02
<GCONST> 7.059160e+01
<STATE> 31
<MEAN> 39
 -4.622665e+00 -2.094156e+01 -2.807743e+00 -1.306654e+01 -1.031725e+01 -8.410592e+00 4.587669e+00 -5.162693e+00 -5.152646e-01 -2.368092e+00 -3.646004e-01 2.492317e+00 4.851462e-01 2.133746e+00 -2.132157e+00 -4.763770e-01 3.479655e+00 2.011163e-01 2.877661e+00 5.314507e-01 5.800077e-01 -6.876799e-01 -1.036219e+00 -4.413427e-01 -4.686940e-01 -4.302085e-02 -2.616171e-01 -2.393231e-03 -1.625587e-01 7.284090e-02 1.774857e-01 -3.737424e-01 1.841673e-01 7.086208e-02 2.770272e-01 1.982994e-02 4.079146e-02 2.631857e-02 3.400035e-03
<VARIANCE> 39
 1.094611e+01 2.088591e+01 3.342324e+00 3.985158e+01 7.650507e+00 4.881430e+01 7.265387e+00 6.449022e+00 3.365317e+00 4.308059e+00 7.129914e+00 1.149061e+01 1.000000e-02 2.081754e+00 9.160858e-01 8.633022e-01 1.822351e-01 2.780339e+00 1.467831e+00 1.732947e+00 1.054031e+00 1.472498e+00 1.301377e+00 2.412024e-01 1.736527e+00 1.000000e-02 2.154801e-01 5.224835e-01 1.181608e-01 5.416878e-01 2.051450e-01 5.484900e-01 2.321617e-01 3.295598e-01 2.210834e-01 2.911546e-01 7.296982e-02 2.670770e-01 1.000000e-02
<GCONST> 6.925153e+01
<STATE> 32
<MEAN> 39
 -2.021065e+00 -2.434508e+01 -3.850408e+00 -8.121932e+00 -9.873226e+00 -6.833070e+00 6.934259e+00 -3.815111e+00 2.140933e+00 -4.334648e+00 -1.647100e+00 1.960989e+00 4.226923e-01 1.857518e+00 -2.209558e+00 -7.283601e-01 2.881610e+00 5.352175e-01 1.906400e+00 1.071645e+00 6.275313e-01 -3.316077e-01 -1.267632e+00 -9.617500e-02 7.228223e-01 -3.914791e-02 -5.487037e-01 3.837512e-01 -2.885425e-01 -6.666135e-01 7.866041e-02 -8.190297e-01 -7.015913e-02 1.793390e-01 1.351312e-01 3.802707e-01 1.529676e-01 1.832687e-01 4.785645e-03
<VARIANCE> 39
 1.157174e+01 1.879206e+01 7.981588e+00 3.689030e+01 9.744478e+00 3.247321e+01 1.110216e+01 1.477619e+00 2.075946e+01 1.391828e+01 1.618871e+01 2.049440e+01 1.000000e-02 1.894141e+00 1.768563e+00 8.435495e-01 1.300110e+00 2.216177e+00 6.162465e+00 1.811127e+00 2.303695e+00 1.448822e+00 5.095415e-01 6.901320e-01 2.287153e+00 1.000000e-02 2.400782e-01 2.734620e-01 7.389782e-02 5.179087e-01 3.527414e-01 1.401388e-01 4.621713e-01 5.790803e-02 2.223470e-01 6.255350e-01 2.852367e-01 6.249781e-01 1.000000e-02
<GCONST> 7.813964e+01
<STATE> 33
<MEAN> 39
 -6.821362e-01 -2.534342e+01 -5.317303e+00 -4.367590e+00 -7.115939e+00 -3.003083e+00 7.969677e+00 -2.832599e+00 7.828116e-01 -4.170179e+00 1.740080e-01 2.810159e+00 3.759535e-01 2.766394e-01 -6.119200e-01 -9.257379e-01 7.478834e-01 4.885618e-01 1.043365e-01 2.510413e-01 1.387110e+00 2.140409e-01 6.064637e-01 -2.008517e-03 2.213614e-01 -2.830431e-02 -5.766668e-01 4.891258e-01 -1.196572e-01 -6.086326e-01 -1.590993e-01 -5.869207e-01 -3.044366e-01 1.181051e-02 2.097595e-01 4.426824e-01 7.799261e-02 -1.731352e-01 3.529669e-03
<VARIANCE> 39
 3.811862e+00 5.291879e+00 5.907275e+00 1.150624e+01 1.472638e+01 1.430692e+01 1.281707e+01 1.332420e+01 1.073924e+01 1.421404e+01 5.300518e+00 1.199165e+01 1.000000e-02 1.850589e+00 2.691722e+00 1.877710e-01 4.816292e+00 1.333529e+00 4.190575e+00 1.490981e+00 1.529096e+00 7.752112e-01 3.758223e+00 1.220634e+00 2.553782e+00 1.000000e-02 3.251705e-01 2.095287e-01 1.138585e-01 4.308930e-01 4.963601e-01 8.265095e-01 4.253752e-01 1.852396e-01 4.041295e-01 3.695311e-01 1.382429e-01 5.901256e-01 1.000000e-02
<GCONST> 7.747157e+01
<STATE> 34
<MEAN> 39
 -2.069788e+00 -2.547979e+01 -6.334716e+00 -6.848510e+00 -9.630919e+00 -6.927054e+00 6.206449e+00 -4.648149e-01 2.032075e+00 -2.149204e+00 -6.477025e-01 5.237746e+00 3.375019e-01 1.324301e-01 -2.663635e-01 -1.068105e+00 8.432361e-01 5.275651e-01 7.284713e-02 2.641134e-01 5.901781e-01 -6.903432e-02 -2.604524e-03 2.813202e-01 3.532941e-01 -2.743497e-02 -1.674420e-01 3.875532e-01 1.553086e-01 -6.977458e-02 1.370462e-01 -3.767639e-01 -1.088022e-01 -7.560501e-01 -4.363415e-01 -3.440883e-01 3.810997e-03 -3.604665e-01 4.573736e-03
<VARIANCE> 39
 7.555420e+00 8.777647e+00 1.053148e+01 9.091798e+00 1.731284e+01 2.796757e+00 3.250311e+00 1.800956e+01 1.345240e+01 3.838279e+01 6.766232e+00 8.317360e+00 1.000000e-02 8.041586e-01 6.526349e-01 1.067803e-01 2.264873e+00 1.850081e+00 2.136094e+00 1.213712e+00 4.352497e-01 1.742550e+00 1.087011e+00 2.063584e+00 2.596952e+00 1.000000e-02 2.696608e-01 3.067238e-01 1.184005e-01 7.405968e-01 3.964097e-01 5.509741e-01 1.256970e-01 4.717502e-01 4.334835e-01 8.016269e-01 9.206077e-02 1.016344e-01 1.000000e-02
<GCONST> 7.083234e+01
<STATE> 35
<MEAN> 39
 -1.001892e+00 -2.596621e+01 -8.207448e+00 -4.949667e+00 -7.155744e+00 -4.812434e+00 7.867086e+00 -6.347755e-01 1.663232e+00 -3.469294e+00 -1.508809e+00 2.301232e+00 3.244599e-01 1.773341e-01 -1.442315e-01 -7.331581e-01 1.143900e+00 3.639253e-01 -2.106705e-01 -5.650837e-02 -3.401652e-01 -7.032640e-01 -6.444366e-01 1.550646e-01 -6.090542e-01 -2.186213e-02 -1.551400e-01 2.926829e-01 3.514980e-01 2.273552e-02 -3.554025e-02 -1.196644e-01 -1.809646e-01 -5.308996e-01 -1.808158e-01 -2.925404e-01 3.096293e-02 -4.767742e-02 1.531737e-03
<VARIANCE> 39
 9.167811e-01 4.383355e-01 3.175002e+00 3.759880e+00 2.279372e+01 1.869857e+01 3.438689e+00 1.424509e+01 2.375318e+01 4.206140e+00 8.650517e+00 1.469789e+01 1.000000e-02 4.780286e-01 3.732623e-01 3.781974e-01 1.950396e+00 1.742461e+00 1.070548e+00 1.318992e+00 1.690555e+00 3.053587e+00 2.289206e+00 8.984327e-01 1.652217e+00 1.000000e-02 1.956259e-01 1.150196e-01 3.456213e-02 3.197427e-01 2.393522e-01 4.221275e-01 1.372102e-01 8.376622e-02 1.243652e-01 2.378977e-01 2.755263e-01 4.131196e-01 1.000000e-02
<GCONST> 5.981161e+01
<STATE> 36
<MEAN> 39
 -8.174231e-01 -2.557416e+01 -7.750153e+00 -2.365160e+00 -7.065682e+00 -4.795733e+00 7.908088e+00 -1.977587e+00 -2.054231e-01 -3.758382e+00 6.740122e-01 2.152852e+00 3.072560e-01 -5.471770e-02 4.067582e-01 1.210040e-01 1.444581e+00 3.763816e-01 -9.574752e-02 -1.671761e-01 -9.341308e-01 -4.870017e-01 -7.148845e-01 -1.573229e-01 -5.689317e-01 -2.541781e-02 -1.799974e-01 4.550539e-01 5.503188e-01 -1.846218e-01 7.244844e-02 -8.053879e-02 -2.395548e-01 -7.363141e-02 7.978149e-02 1.317081e-01 -4.035554e-02 7.024321e-02 -7.626162e-04
<VARIANCE> 39
 2.480640e+00 9.934584e-01 7.442923e+00 9.568755e+00 8.604933e+00 3.673683e+00 4.963135e+00 5.713287e+00 9.874891e+00 1.129001e+01 9.017426e+00 1.076757e+01 1.000000e-02 5.284676e-01 8.606991e-01 9.906415e-01 1.243585e+00 1.028266e+00 1.528891e+00 7.252703e-01 1.006617e+00 1.418047e+00 2.931120e+00 7.698555e-01 5.867395e-01 1.000000e-02 1.209783e-01 1.089487e-01 2.307464e-02 3.709202e-01 2.255044e-01 2.416734e-01 1.541720e-01 1.408785e-01 7.228597e-01 1.607472e-01 1.445189e-01 3.843628e-01 1.000000e-02
<GCONST> 5.843403e+01
<STATE> 37
<MEAN> 39
 -1.644841e+00 -2.487952e+01 -8.083601e+00 -1.223865e+00 -6.633039e+00 -6.758181e+00 6.078575e+00 -6.087298e+00 -2.044113e+00 -6.545464e+00 -1.070583e+00 1.397615e+00 2.565280e-01 -3.991753e-01 1.082784e+00 8.461132e-01 6.382270e-01 8.506618e-01 -1.461393e-01 -5.771712e-01 -4.109296e-01 -3.933316e-01 -3.239558e-01 8.670419e-02 1.048356e-01 -2.668233e-02 8.352456e-02 3.091671e-01 4.761488e-01 -1.854529e-01 9.744048e-03 4.342842e-02 2.030629e-02 4.655168e-01 2.819436e-01 3.956825e-01 2.137828e-02 2.058804e-01 3.942258e-03
<VARIANCE> 39
 1.114346e+00 7.131034e+00 5.973320e+00 6.012376e+00 5.095466e+00 5.902274e+00 1.451143e+01 1.021903e+01 3.581325e+00 1.789374e+01 1.065114e+01 1.394394e+01 1.000000e-02 3.246195e-01 1.361338e+00 5.939742e-01 1.143156e+00 1.319739e-01 4.541922e-01 9.335715e-01 4.793726e-01 2.795743e+00 1.023545e+00 5.468001e-01 2.230316e+00 1.000000e-02 5.729299e-02 1.034581e-01 2.287710e-01 5.110846e-01 1.514044e-01 1.845686e-01 1.296313e-01 3.328199e-01 5.343813e-01 6.147372e-01 2.212009e-01 1.342815e-01 1.000000e-02
<GCONST> 5.888213e+01
<STATE> 38
<MEAN> 39
 -2.328604e+00 -2.310493e+01 -6.760625e+00 -2.216460e+00 -5.665478e+00 -6.036885e+00 6.435231e+00 -2.444094e+00 -1.268511e-01 -5.604769e+00 2.398344e-02 3.487386e+00 2.279382e-01 -1.379720e-01 1.065555e+00 1.390690e+00 8.537749e-01 7.787879e-01 1.326093e-01 -2.368607e-01 3.048651e-01 6.674036e-02 2.510029e-01 -5.007013e-02 4.537400e-01 -1.816197e-02 2.599778e-01 1.093206e-01 2.398959e-01 8.430190e-02 -3.571708e-02 -1.857403e-02 5.395325e-02 3.441885e-01 2.042552e-01 1.506780e-01 -2.027772e-01 -3.766309e-01 6.821760e-03
<VARIANCE> 39
 5.803305e-01 1.382944e+01 4.170606e+00 7.349521e+00 9.585484e+00 9.694254e+00 1.510884e+01 4.548912e+00 2.412020e+00 1.326919e+01 6.173198e+00 1.560095e+01 1.000000e-02 4.435703e-01 9.681657e-01 4.029585e-01 2.300782e+00 1.056069e+00 4.660605e-01 4.033899e-01 1.194501e+00 2.430521e+00 1.374926e+00 7.999379e-01 1.275602e+00 1.000000e-02 1.907787e-02 2.655205e-01 2.838636e-01 4.485043e-01 1.442365e-01 1.338657e-01 1.365664e-01 1.223880e-01 2.596225e-01 4.988563e-01 1.038851e-01 2.219463e-01 1.000000e-02
<GCONST> 5.783033e+01
<STATE> 39
<MEAN> 39
 -2.344435e+00 -2.253304e+01 -3.992176e+00 1.446438e+00 -3.483701e+00 -5.011682e+00 6.210245e+00 -1.397309e+00 7.195524e-01 -3.466627e+00 1.679992e-01 3.224681e+00 2.052754e-01 4.963222e-01 1.491529e+00 1.482173e+00 8.826539e-01 4.586862e-01 -3.346991e-01 -2.842453e-01 5.318226e-01 6.309953e-02 3.953196e-01 -3.503680e-04 -5.737485e-01 -6.737757e-03 1.358346e-01 -8.043122e-02 -3.500313e-01 -2.203538e-01 -1.519508e-01 -1.588674e-01 1.428528e-01 1.533339e-02 1.175041e-01 1.881467e-02 -1.252933e-01 -3.619790e-01 4.791709e-03
<VARIANCE> 39
 1.237381e+00 2.059285e+01 1.517183e+01 6.883081e+00 6.431290e+00 3.619788e+00 1.022350e+01 4.691407e+00 2.314729e+01 1.375138e+01 9.997896e+00 4.101527e+01 1.000000e-02 2.803586e-01 1.153682e+00 9.913568e-01 2.252035e+00 1.584557e+00 7.113124e-01 6.648673e-01 1.163627e+00 1.733488e+00 2.460552e+00 3.408192e-01 1.419643e+00 1.000000e-02 6.035673e-02 2.456286e-01 8.152714e-02 2.404859e-01 8.818437e-02 5.981065e-02 2.081476e-01 1.390092e-01 5.383708e-01 3.927718e-01 6.618744e-02 1.537607e-01 1.000000e-02
<GCONST> 6.173517e+01
<STATE> 40
<MEAN> 39
 -2.803346e-01 -2.013044e+01 -3.303846e+00 6.829826e-01 -5.154369e+00 -7.287769e+00 5.547556e+00 -2.596334e+00 -7.842219e-01 -4.091142e+00 -5.113105e-01 1.157565e+00 2.155622e-01 3.170627e-01 7.273907e-01 4.650923e-01 5.696477e-01 2.016896e-01 -4.467632e-01 -3.867375e-02 1.074789e-01 4.317998e-01 5.311006e-01 -5.703323e-01 -1.260497e+00 -2.735446e-03 -3.708507e-01 -1.513089e-01 -4.185616e-01 -1.756911e-01 2.018846e-01 1.550096e-01 4.388269e-02 -1.563600e-01 -1.660184e-01 -1.329129e-01 -2.595750e-02 -1.600669e-01 -7.451594e-03
<VARIANCE> 39
 3.432979e+00 1.039791e+01 5.356387e+00 1.578016e+01 1.478121e+01 9.323889e+00 8.885732e+00 1.292394e+01 1.429575e+01 1.299782e+01 1.855571e+00 1.595515e+00 1.000000e-02 4.779337e-01 9.957628e-01 7.834291e-01 9.667713e-01 6.763798e-01 1.590585e-01 4.483302e-01 1.022006e+00 6.829215e-01 1.145804e+00 3.227872e-01 7.392580e-01 1.000000e-02 1.265491e-01 1.969027e-01 8.855122e-02 3.582616e-01 2.759666e-01 2.164801e-01 1.628112e-01 2.673724e-01 5.598132e-01 2.477746e-01 9.666108e-02 1.174032e-01 1.000000e-02
<GCONST> 5.659599e+01
<STATE> 41
<MEAN> 39
 -5.090504e-01 -1.901423e+01 -2.568573e+00 5.074489e-01 -5.028918e+00 -6.626839e+00 5.387621e+00 -3.504103e+00 -1.851770e-01 -4.423848e+00 -2.328808e+00 -1.415197e+00 2.302568e-01 -5.838832e-01 7.389977e-01 -3.373589e-01 5.884059e-02 1.255200e+00 1.722945e-02 1.225188e-01 3.912687e-01 -2.175850e-01 -6.210418e-01 -2.993276e-01 -7.904385e-01 -2.603797e-02 -5.500689e-01 -4.064746e-02 -2.787691e-01 -2.900544e-01 1.972816e-01 2.367189e-01 -6.356647e-02 1.541112e-01 -1.067958e-01 -6.024032e-02 3.349917e-01 5.199786e-01 -1.717916e-02
<VARIANCE> 39
 5.862807e+00 1.107585e+01 1.708796e+01 1.250007e+01 9.791084e+00 2.701132e+00 6.260587e+00 8.098149e+00 5.529480e+00 9.366517e+00 7.590329e+00 1.410773e+01 1.167791e-02 1.013890e+00 5.180097e-01 5.091471e-01 8.500343e-01 1.241089e+00 9.708272e-01 6.833434e-01 1.042613e+00 1.865912e+00 1.205356e+00 4.329707e-01 4.025612e-01 1.000000e-02 1.382800e-01 2.453819e-01 2.535581e-01 3.244418e-01 2.018614e-01 1.361333e-01 1.679014e-01 2.906149e-01 1.580479e-01 4.083376e-01 3.227054e-02 1.185067e-01 1.000000e-02
<GCONST> 6.000307e+01
<STATE> 42
<MEAN> 39
 -2.573588e+00 -1.958538e+01 -3.798513e+00 2.583667e+00 -1.487783e+00 -7.408560e+00 6.673329e+00 -7.049003e-01 9.734209e-01 -4.666019e+00 -1.380482e+00 1.751936e-01 1.596359e-01 -1.428603e+00 8.970910e-01 -1.838460e-01 -7.595863e-01 6.001706e-01 2.415351e-01 -6.736174e-01 -1.255696e-01 -5.274259e-01 2.422481e-01 3.848330e-01 2.763800e-01 -5.708816e-02 -2.946274e-01 1.805633e-01 -3.306487e-02 -4.258868e-01 -4.735390e-02 4.504985e-01 -7.252903e-02 -2.561122e-01 -1.871585e-01 1.388657e-01 2.412104e-01 3.383632e-01 -1.430098e-02
<VARIANCE> 39
 5.742198e+00 1.254671e+01 1.444973e+01 5.934984e+00 7.585629e+00 4.754088e+00 5.717832e+00 1.229316e+01 1.209095e+01 5.045011e+00 4.840841e+00 2.141528e+01 1.000000e-02 6.803902e-01 4.841718e-01 4.743673e-01 1.438870e+00 1.053868e+00 1.148955e+00 1.753493e+00 1.728825e+00 1.301576e+00 1.719237e-01 5.078729e-01 8.350976e-01 1.000000e-02 1.202843e-01 4.679844e-02 1.328902e-01 1.614731e-01 1.949033e-01 5.945748e-02 1.290698e-01 2.237818e-01 3.618709e-01 3.228505e-01 3.996442e-02 1.293702e-01 1.000000e-02
<GCONST> 5.619809e+01
<STATE> 43
<MEAN> 39
 -5.030644e+00 -1.683815e+01 -4.061343e+00 -7.310761e-01 -1.525800e+00 -5.670995e+00 4.603434e+00 -1.555243e+00 -1.927841e+00 -4.670800e+00 -3.209451e-01 -2.675377e-01 4.646845e-02 -1.186033e+00 1.357435e+00 2.050525e-01 -6.834525e-01 1.036199e+00 1.037719e+00 -7.226278e-01 -2.231580e-01 -2.287782e-01 2.654340e-03 5.697486e-01 5.659028e-01 -6.476106e-02 1.902228e-01 2.973204e-02 1.000219e-01 8.336404e-02 -2.187861e-01 1.244705e-01 1.205113e-01 -9.282181e-02 3.158342e-01 1.973272e-01 -7.533714e-02 -1.447949e-01 3.982272e-03
<VARIANCE> 39
 8.856530e+00 4.650227e+00 6.729783e+00 2.503351e+01 7.736385e+00 1.177740e+01 7.259003e+00 1.003449e+01 2.121068e+00 2.718566e+00 6.500174e+00 8.146663e+00 1.000000e-02 6.745234e-01 6.431283e-01 7.296853e-01 7.761273e-01 1.145832e-01 2.556663e-01 5.487722e-01 1.451527e+00 2.035013e+00 1.278198e+00 3.769489e-01 2.328157e+00 1.000000e-02 2.392472e-01 3.806337e-02 1.169521e-01 4.902103e-01 1.626258e-01 1.683529e-01 3.021302e-01 2.356475e-01 1.288943e-01 3.408868e-02 2.440318e-01 5.168647e-01 1.000000e-02
<GCONST> 5.559626e+01
<STATE> 44
<MEAN> 39
 -5.658969e+00 -1.534826e+01 -2.817691e+00 -6.601797e-01 -7.312396e-01 -5.171685e+00 3.086196e+00 -3.614557e+00 -2.489447e+00 -3.828597e+00 2.971606e-01 3.607421e-01 -1.367504e-02 -1.132421e+00 1.186694e+00 -1.819398e-01 -7.197490e-01 2.642117e-01 1.399944e+00 2.028601e-01 -2.752683e-01 2.147186e-01 5.531224e-01 1.697675e-01 -3.521935e-01 -5.415214e-02 3.055544e-01 -1.511176e-01 7.010975e-03 1.361097e-01 -2.986577e-01 -1.217306e-01 2.889245e-01 1.015114e-01 2.935824e-01 6.636311e-02 -3.828959e-02 -8.872622e-02 1.330112e-02
<VARIANCE> 39
 2.868413e+00 2.080389e-01 4.152296e+00 5.567018e+00 2.136342e+00 4.662422e+00 4.825980e+00 3.890744e+00 6.247283e+00 3.908559e+00 1.427390e+01 8.112692e+00 1.000000e-02 9.165765e-01 1.096205e+00 6.904598e-01 2.141893e+00 6.309692e-01 3.875911e-01 5.039523e-01 4.044479e-01 1.350413e+00 5.220424e-01 1.074765e+00 1.944001e+00 1.000000e-02 1.227883e-01 1.083662e-01 9.204239e-02 7.913791e-02 1.376187e-02 1.018810e-01 2.360676e-01 3.574009e-01 1.895094e-01 2.603241e-01 1.107444e-01 4.503576e-01 1.000000e-02
<GCONST> 4.715750e+01
<STATE> 45
<MEAN> 39
 -6.584379e+00 -1.463465e+01 -4.133440e+00 -9.146092e-01 1.126282e+00 -2.371857e+00 4.043961e+00 -1.661338e+00 6.316672e-01 -4.495314e+00 -8.910514e-01 -3.143012e-01 -6.285299e-02 -6.817550e-01 8.260058e-01 -1.748060e-02 -4.543543e-01 -3.283667e-02 5.268744e-01 3.641645e-01 1.948841e-01 7.450356e-01 6.068196e-01 2.983437e-01 -1.127045e-02 -3.328847e-02 3.966531e-01 -2.187572e-01 1.295982e-01 3.093055e-01 -1.637926e-01 -3.406358e-01 1.907695e-01 1.562542e-01 2.982813e-03 -5.786466e-02 2.301301e-02 4.827954e-02 1.917873e-02
<VARIANCE> 39
 1.052665e+00 2.531033e+00 1.203782e+00 3.458289e+00 1.657632e+00 5.079769e+00 2.021395e+01 1.027994e+00 8.847017e+00 1.764132e+01 1.252574e+01 2.362624e+00 1.000000e-02 8.742404e-01 8.893125e-02 8.382982e-01 1.016039e+00 3.774306e-01 6.212457e-01 1.544661e+00 1.283385e+00 7.611235e-01 1.179076e+00 1.887040e+00 3.611095e+00 1.000000e-02 1.567266e-01 1.900348e-01 1.364516e-01 1.211843e-01 7.308900e-02 9.207009e-02 1.278882e-01 1.500957e-01 2.242311e-01 3.576103e-01 1.304397e-01 3.212476e-01 1.000000e-02
<GCONST> 4.993419e+01
<STATE> 46
<MEAN> 39
 -7.313083e+00 -1.361425e+01 -3.808004e+00 -2.210753e+00 -1.299948e+00 -2.001422e+00 7.183949e+00 -2.499783e+00 3.456492e-02 -2.392912e+00 -5.224485e-02 -3.567799e-01 -7.141273e-02 -9.003829e-02 4.884718e-01 1.714218e-01 2.440743e-01 1.969802e-01 9.620001e-02 2.791162e-01 1.181404e-01 1.629403e-01 2.462500e-01 4.592943e-01 8.711725e-02 -8.079601e-03 4.011044e-01 -1.501111e-01 2.284066e-01 3.587131e-01 1.089130e-01 -4.319161e-01 -1.937482e-01 1.699708e-01 -2.494488e-01 -2.836898e-01 -5.025032e-02 1.083408e-01 1.619516e-02
<VARIANCE> 39
 1.177123e+00 3.480535e+00 2.045346e+00 1.664728e+00 2.414044e+00 8.376104e+00 9.003782e+00 5.002866e-01 4.210063e+00 2.325796e+00 6.893200e+00 1.809531e+01 1.000000e-02 2.656558e-01 3.079559e-01 5.828113e-02 5.366324e-02 3.317285e-01 3.804262e-01 7.218393e-01 4.456556e-01 3.831276e-01 1.493968e+00 1.907774e-01 9.862610e-01 1.000000e-02 1.538527e-01 1.464825e-01 1.149262e-01 1.673382e-01 4.023162e-02 1.546155e-01 2.732723e-01 5.222359e-02 2.049327e-01 3.173881e-02 2.907733e-01 4.320244e-01 1.000000e-02
<GCONST> 3.423032e+01
<TRANSP> 47
 0.000000e+00 1.000000e+00 0.000000e+00 0.000000e+00 0.000000e+00 0.000000e+00 0.000000e+00 0.000000e+00 0.000000e+00 0.000000e+00 0.000000e+00 0.000000e+00 0.000000e+00 0.000000e+00 0.000000e+00 0.000000e+00 0.000000e+00 0.000000e+00 0.000000e+00 0.000000e+00 0.000000e+00 0.000000e+00 0.000000e+00 0.000000e+00 0.000000e+00 0.000000e+00 0.000000e+00 0.000000e+00 0.000000e+00 0.000000e+00 0.000000e+00 0.000000e+00 0.000000e+00 0.000000e+00 0.000000e+00 0.000000e+00 0.000000e+00 0.000000e+00 0.000000e+00 0.000000e+00 0.000000e+00 0.000000e+00 0.000000e+00 0.000000e+00 0.000000e+00 0.000000e+00 0.000000e+00
 0.000000e+00 5.000000e-01 5.000000e-01 0.000000e+00 0.000000e+00 0.000000e+00 0.000000e+00 0.000000e+00 0.000000e+00 0.000000e+00 0.000000e+00 0.000000e+00 0.000000e+00 0.000000e+00 0.000000e+00 0.000000e+00 0.000000e+00 0.000000e+00 0.000000e+00 0.000000e+00 0.000000e+00 0.000000e+00 0.000000e+00 0.000000e+00 0.000000e+00 0.000000e+00 0.000000e+00 0.000000e+00 0.000000e+00 0.000000e+00 0.000000e+00 0.000000e+00 0.000000e+00 0.000000e+00 0.000000e+00 0.000000e+00 0.000000e+00 0.000000e+00 0.000000e+00 0.000000e+00 0.000000e+00 0.000000e+00 0.000000e+00 0.000000e+00 0.000000e+00 0.000000e+00 0.000000e+00
 0.000000e+00 0.000000e+00 0.000000e+00 1.000000e+00 0.000000e+00 0.000000e+00 0.000000e+00 0.000000e+00 0.000000e+00 0.000000e+00 0.000000e+00 0.000000e+00 0.000000e+00 0.000000e+00 0.000000e+00 0.000000e+00 0.000000e+00 0.000000e+00 0.000000e+00 0.000000e+00 0.000000e+00 0.000000e+00 0.000000e+00 0.000000e+00 0.000000e+00 0.000000e+00 0.000000e+00 0.000000e+00 0.000000e+00 0.000000e+00 0.000000e+00 0.000000e+00 0.000000e+00 0.000000e+00 0.000000e+00 0.000000e+00 0.000000e+00 0.000000e+00 0.000000e+00 0.000000e+00 0.000000e+00 0.000000e+00 0.000000e+00 0.000000e+00 0.000000e+00 0.000000e+00 0.000000e+00
 0.000000e+00 0.000000e+00 0.000000e+00 0.000000e+00 1.000000e+00 0.000000e+00 0.000000e+00 0.000000e+00 0.000000e+00 0.000000e+00 0.000000e+00 0.000000e+00 0.000000e+00 0.000000e+00 0.000000e+00 0.000000e+00 0.000000e+00 0.000000e+00 0.000000e+00 0.000000e+00 0.000000e+00 0.000000e+00 0.000000e+00 0.000000e+00 0.000000e+00 0.000000e+00 0.000000e+00 0.000000e+00 0.000000e+00 0.000000e+00 0.000000e+00 0.000000e+00 0.000000e+00 0.000000e+00 0.000000e+00 0.000000e+00 0.000000e+00 0.000000e+00 0.000000e+00 0.000000e+00 0.000000e+00 0.000000e+00 0.000000e+00 0.000000e+00 0.000000e+00 0.000000e+00 0.000000e+00
 0.000000e+00 0.000000e+00 0.000000e+00 0.000000e+00 3.750000e-01 6.250000e-01 0.000000e+00 0.000000e+00 0.000000e+00 0.000000e+00 0.000000e+00 0.000000e+00 0.000000e+00 0.000000e+00 0.000000e+00 0.000000e+00 0.000000e+00 0.000000e+00 0.000000e+00 0.000000e+00 0.000000e+00 0.000000e+00 0.000000e+00 0.000000e+00 0.000000e+00 0.000000e+00 0.000000e+00 0.000000e+00 0.000000e+00 0.000000e+00 0.000000e+00 0.000000e+00 0.000000e+00 0.000000e+00 0.000000e+00 0.000000e+00 0.000000e+00 0.000000e+00 0.000000e+00 0.000000e+00 0.000000e+00 0.000000e+00 0.000000e+00 0.000000e+00 0.000000e+00 0.000000e+00 0.000000e+00
 0.000000e+00 0.000000e+00 0.000000e+00 0.000000e+00 0.000000e+00 0.000000e+00 1.000000e+00 0.000000e+00 0.000000e+00 0.000000e+00 0.000000e+00 0.000000e+00 0.000000e+00 0.000000e+00 0.000000e+00 0.000000e+00 0.000000e+00 0.000000e+00 0.000000e+00 0.000000e+00 0.000000e+00 0.000000e+00 0.000000e+00 0.000000e+00 0.000000e+00 0.000000e+00 0.000000e+00 0.000000e+00 0.000000e+00 0.000000e+00 0.000000e+00 0.000000e+00 0.000000e+00 0.000000e+00 0.000000e+00 0.000000e+00 0.000000e+00 0.000000e+00 0.000000e+00 0.000000e+00 0.000000e+00 0.000000e+00 0.000000e+00 0.000000e+00 0.000000e+00 0.000000e+00 0.000000e+00
 0.000000e+00 0.000000e+00 0.000000e+00 0.000000e+00 0.000000e+00 0.000000e+00 0.000000e+00 1.000000e+00 0.000000e+00 0.000000e+00 0.000000e+00 0.000000e+00 0.000000e+00 0.000000e+00 0.000000e+00 0.000000e+00 0.000000e+00 0.000000e+00 0.000000e+00 0.000000e+00 0.000000e+00 0.000000e+00 0.000000e+00 0.000000e+00 0.000000e+00 0.000000e+00 0.000000e+00 0.000000e+00 0.000000e+00 0.000000e+00 0.000000e+00 0.000000e+00 0.000000e+00 0.000000e+00 0.000000e+00 0.000000e+00 0.000000e+00 0.000000e+00 0.000000e+00 0.000000e+00 0.000000e+00 0.000000e+00 0.000000e+00 0.000000e+00 0.000000e+00 0.000000e+00 0.000000e+00
 0.000000e+00 0.000000e+00 0.000000e+00 0.000000e+00 0.000000e+00 0.000000e+00 0.000000e+00 3.750000e-01 6.250000e-01 0.000000e+00 0.000000e+00 0.000000e+00 0.000000e+00 0.000000e+00 0.000000e+00 0.000000e+00 0.000000e+00 0.000000e+00 0.000000e+00 0.000000e+00 0.000000e+00 0.000000e+00 0.000000e+00 0.000000e+00 0.000000e+00 0.000000e+00 0.000000e+00 0.000000e+00 0.000000e+00 0.000000e+00 0.000000e+00 0.000000e+00 0.000000e+00 0.000000e+00 0.000000e+00 0.000000e+00 0.000000e+00 0.000000e+00 0.000000e+00 0.000000e+00 0.000000e+00 0.000000e+00 0.000000e+00 0.000000e+00 0.000000e+00 0.000000e+00 0.000000e+00
 0.000000e+00 0.000000e+00 0.000000e+00 0.000000e+00 0.000000e+00 0.000000e+00 0.000000e+00 0.000000e+00 0.000000e+00 1.000000e+00 0.000000e+00 0.000000e+00 0.000000e+00 0.000000e+00 0.000000e+00 0.000000e+00 0.000000e+00 0.000000e+00 0.000000e+00 0.000000e+00 0.000000e+00 0.000000e+00 0.000000e+00 0.000000e+00 0.000000e+00 0.000000e+00 0.000000e+00 0.000000e+00 0.000000e+00 0.000000e+00 0.000000e+00 0.000000e+00 0.000000e+00 0.000000e+00 0.000000e+00 0.000000e+00 0.000000e+00 0.000000e+00 0.000000e+00 0.000000e+00 0.000000e+00 0.000000e+00 0.000000e+00 0.000000e+00 0.000000e+00 0.000000e+00 0.000000e+00
 0.000000e+00 0.000000e+00 0.000000e+00 0.000000e+00 0.000000e+00 0.000000e+00 0.000000e+00 0.000000e+00 0.000000e+00 1.666667e-01 8.333333e-01 0.000000e+00 0.000000e+00 0.000000e+00 0.000000e+00 0.000000e+00 0.000000e+00 0.000000e+00 0.000000e+00 0.000000e+00 0.000000e+00 0.000000e+00 0.000000e+00 0.000000e+00 0.000000e+00 0.000000e+00 0.000000e+00 0.000000e+00 0.000000e+00 0.000000e+00 0.000000e+00 0.000000e+00 0.000000e+00 0.000000e+00 0.000000e+00 0.000000e+00 0.000000e+00 0.000000e+00 0.000000e+00 0.000000e+00 0.000000e+00 0.000000e+00 0.000000e+00 0.000000e+00 0.000000e+00 0.000000e+00 0.000000e+00
 0.000000e+00 0.000000e+00 0.000000e+00 0.000000e+00 0.000000e+00 0.000000e+00 0.000000e+00 0.000000e+00 0.000000e+00 0.000000e+00 1.666667e-01 8.333333e-01 0.000000e+00 0.000000e+00 0.000000e+00 0.000000e+00 0.000000e+00 0.000000e+00 0.000000e+00 0.000000e+00 0.000000e+00 0.000000e+00 0.000000e+00 0.000000e+00 0.000000e+00 0.000000e+00 0.000000e+00 0.000000e+00 0.000000e+00 0.000000e+00 0.000000e+00 0.000000e+00 0.000000e+00 0.000000e+00 0.000000e+00 0.000000e+00 0.000000e+00 0.000000e+00 0.000000e+00 0.000000e+00 0.000000e+00 0.000000e+00 0.000000e+00 0.000000e+00 0.000000e+00 0.000000e+00 0.000000e+00
 0.000000e+00 0.000000e+00 0.000000e+00 0.000000e+00 0.000000e+00 0.000000e+00 0.000000e+00 0.000000e+00 0.000000e+00 0.000000e+00 0.000000e+00 2.857143e-01 7.142857e-01 0.000000e+00 0.000000e+00 0.000000e+00 0.000000e+00 0.000000e+00 0.000000e+00 0.000000e+00 0.000000e+00 0.000000e+00 0.000000e+00 0.000000e+00 0.000000e+00 0.000000e+00 0.000000e+00 0.000000e+00 0.000000e+00 0.000000e+00 0.000000e+00 0.000000e+00 0.000000e+00 0.000000e+00 0.000000e+00 0.000000e+00 0.000000e+00 0.000000e+00 0.000000e+00 0.000000e+00 0.000000e+00 0.000000e+00 0.000000e+00 0.000000e+00 0.000000e+00 0.000000e+00 0.000000e+00
 0.000000e+00 0.000000e+00 0.000000e+00 0.000000e+00 0.000000e+00 0.000000e+00 0.000000e+00 0.000000e+00 0.000000e+00 0.000000e+00 0.000000e+00 0.000000e+00 0.000000e+00 1.000000e+00 0.000000e+00 0.000000e+00 0.000000e+00 0.000000e+00 0.000000e+00 0.000000e+00 0.000000e+00 0.000000e+00 0.000000e+00 0.000000e+00 0.000000e+00 0.000000e+00 0.000000e+00 0.000000e+00 0.000000e+00 0.000000e+00 0.000000e+00 0.000000e+00 0.000000e+00 0.000000e+00 0.000000e+00 0.000000e+00 0.000000e+00 0.000000e+00 0.000000e+00 0.000000e+00 0.000000e+00 0.000000e+00 0.000000e+00 0.000000e+00 0.000000e+00 0.000000e+00 0.000000e+00
 0.000000e+00 0.000000e+00 0.000000e+00 0.000000e+00 0.000000e+00 0.000000e+00 0.000000e+00 0.000000e+00 0.000000e+00 0.000000e+00 0.000000e+00 0.000000e+00 0.000000e+00 1.666667e-01 8.333333e-01 0.000000e+00 0.000000e+00 0.000000e+00 0.000000e+00 0.000000e+00 0.000000e+00 0.000000e+00 0.000000e+00 0.000000e+00 0.000000e+00 0.000000e+00 0.000000e+00 0.000000e+00 0.000000e+00 0.000000e+00 0.000000e+00 0.000000e+00 0.000000e+00 0.000000e+00 0.000000e+00 0.000000e+00 0.000000e+00 0.000000e+00 0.000000e+00 0.000000e+00 0.000000e+00 0.000000e+00 0.000000e+00 0.000000e+00 0.000000e+00 0.000000e+00 0.000000e+00
 0.000000e+00 0.000000e+00 0.000000e+00 0.000000e+00 0.000000e+00 0.000000e+00 0.000000e+00 0.000000e+00 0.000000e+00 0.000000e+00 0.000000e+00 0.000000e+00 0.000000e+00 0.000000e+00 2.857143e-01 7.142857e-01 0.000000e+00 0.000000e+00 0.000000e+00 0.000000e+00 0.000000e+00 0.000000e+00 0.000000e+00 0.000000e+00 0.000000e+00 0.000000e+00 0.000000e+00 0.000000e+00 0.000000e+00 0.000000e+00 0.000000e+00 0.000000e+00 0.000000e+00 0.000000e+00 0.000000e+00 0.000000e+00 0.000000e+00 0.000000e+00 0.000000e+00 0.000000e+00 0.000000e+00 0.000000e+00 0.000000e+00 0.000000e+00 0.000000e+00 0.000000e+00 0.000000e+00
 0.000000e+00 0.000000e+00 0.000000e+00 0.000000e+00 0.000000e+00 0.000000e+00 0.000000e+00 0.000000e+00 0.000000e+00 0.000000e+00 0.000000e+00 0.000000e+00 0.000000e+00 0.000000e+00 0.000000e+00 2.857143e-01 7.142857e-01 0.000000e+00 0.000000e+00 0.000000e+00 0.000000e+00 0.000000e+00 0.000000e+00 0.000000e+00 0.000000e+00 0.000000e+00 0.000000e+00 0.000000e+00 0.000000e+00 0.000000e+00 0.000000e+00 0.000000e+00 0.000000e+00 0.000000e+00 0.000000e+00 0.000000e+00 0.000000e+00 0.000000e+00 0.000000e+00 0.000000e+00 0.000000e+00 0.000000e+00 0.000000e+00 0.000000e+00 0.000000e+00 0.000000e+00 0.000000e+00
 0.000000e+00 0.000000e+00 0.000000e+00 0.000000e+00 0.000000e+00 0.000000e+00 0.000000e+00 0.000000e+00 0.000000e+00 0.000000e+00 0.000000e+00 0.000000e+00 0.000000e+00 0.000000e+00 0.000000e+00 0.000000e+00 0.000000e+00 1.000000e+00 0.000000e+00 0.000000e+00 0.000000e+00 0.000000e+00 0.000000e+00 0.000000e+00 0.000000e+00 0.000000e+00 0.000000e+00 0.000000e+00 0.000000e+00 0.000000e+00 0.000000e+00 0.000000e+00 0.000000e+00 0.000000e+00 0.000000e+00 0.000000e+00 0.000000e+00 0.000000e+00 0.000000e+00 0.000000e+00 0.000000e+00 0.000000e+00 0.000000e+00 0.000000e+00 0.000000e+00 0.000000e+00 0.000000e+00
 0.000000e+00 0.000000e+00 0.000000e+00 0.000000e+00 0.000000e+00 0.000000e+00 0.000000e+00 0.000000e+00 0.000000e+00 0.000000e+00 0.000000e+00 0.000000e+00 0.000000e+00 0.000000e+00 0.000000e+00 0.000000e+00 0.000000e+00 0.000000e+00 1.000000e+00 0.000000e+00 0.000000e+00 0.000000e+00 0.000000e+00 0.000000e+00 0.000000e+00 0.000000e+00 0.000000e+00 0.000000e+00 0.000000e+00 0.000000e+00 0.000000e+00 0.000000e+00 0.000000e+00 0.000000e+00 0.000000e+00 0.000000e+00 0.000000e+00 0.000000e+00 0.000000e+00 0.000000e+00 0.000000e+00 0.000000e+00 0.000000e+00 0.000000e+00 0.000000e+00 0.000000e+00 0.000000e+00
 0.000000e+00 0.000000e+00 0.000000e+00 0.000000e+00 0.000000e+00 0.000000e+00 0.000000e+00 0.000000e+00 0.000000e+00 0.000000e+00 0.000000e+00 0.000000e+00 0.000000e+00 0.000000e+00 0.000000e+00 0.000000e+00 0.000000e+00 0.000000e+00 1.666667e-01 8.333333e-01 0.000000e+00 0.000000e+00 0.000000e+00 0.000000e+00 0.000000e+00 0.000000e+00 0.000000e+00 0.000000e+00 0.000000e+00 0.000000e+00 0.000000e+00 0.000000e+00 0.000000e+00 0.000000e+00 0.000000e+00 0.000000e+00 0.000000e+00 0.000000e+00 0.000000e+00 0.000000e+00 0.000000e+00 0.000000e+00 0.000000e+00 0.000000e+00 0.000000e+00 0.000000e+00 0.000000e+00
 0.000000e+00 0.000000e+00 0.000000e+00 0.000000e+00 0.000000e+00 0.000000e+00 0.000000e+00 0.000000e+00 0.000000e+00 0.000000e+00 0.000000e+00 0.000000e+00 0.000000e+00 0.000000e+00 0.000000e+00 0.000000e+00 0.000000e+00 0.000000e+00 0.000000e+00 2.857143e-01 7.142857e-01 0.000000e+00 0.000000e+00 0.000000e+00 0.000000e+00 0.000000e+00 0.000000e+00 0.000000e+00 0.000000e+00 0.000000e+00 0.000000e+00 0.000000e+00 0.000000e+00 0.000000e+00 0.000000e+00 0.000000e+00 0.000000e+00 0.000000e+00 0.000000e+00 0.000000e+00 0.000000e+00 0.000000e+00 0.000000e+00 0.000000e+00 0.000000e+00 0.000000e+00 0.000000e+00
 0.000000e+00 0.000000e+00 0.000000e+00 0.000000e+00 0.000000e+00 0.000000e+00 0.000000e+00 0.000000e+00 0.000000e+00 0.000000e+00 0.000000e+00 0.000000e+00 0.000000e+00 0.000000e+00 0.000000e+00 0.000000e+00 0.000000e+00 0.000000e+00 0.000000e+00 0.000000e+00 3.750000e-01 6.250000e-01 0.000000e+00 0.000000e+00 0.000000e+00 0.000000e+00 0.000000e+00 0.000000e+00 0.000000e+00 0.000000e+00 0.000000e+00 0.000000e+00 0.000000e+00 0.000000e+00 0.000000e+00 0.000000e+00 0.000000e+00 0.000000e+00 0.000000e+00 0.000000e+00 0.000000e+00 0.000000e+00 0.000000e+00 0.000000e+00 0.000000e+00 0.000000e+00 0.000000e+00
 0.000000e+00 0.000000e+00 0.000000e+00 0.000000e+00 0.000000e+00 0.000000e+00 0.000000e+00 0.000000e+00 0.000000e+00 0.000000e+00 0.000000e+00 0.000000e+00 0.000000e+00 0.000000e+00 0.000000e+00 0.000000e+00 0.000000e+00 0.000000e+00 0.000000e+00 0.000000e+00 0.000000e+00 1.666667e-01 8.333333e-01 0.000000e+00 0.000000e+00 0.000000e+00 0.000000e+00 0.000000e+00 0.000000e+00 0.000000e+00 0.000000e+00 0.000000e+00 0.000000e+00 0.000000e+00 0.000000e+00 0.000000e+00 0.000000e+00 0.000000e+00 0.000000e+00 0.000000e+00 0.000000e+00 0.000000e+00 0.000000e+00 0.000000e+00 0.000000e+00 0.000000e+00 0.000000e+00
 0.000000e+00 0.000000e+00 0.000000e+00 0.000000e+00 0.000000e+00 0.000000e+00 0.000000e+00 0.000000e+00 0.000000e+00 0.000000e+00 0.000000e+00 0.000000e+00 0.000000e+00 0.000000e+00 0.000000e+00 0.000000e+00 0.000000e+00 0.000000e+00 0.000000e+00 0.000000e+00 0.000000e+00 0.000000e+00 0.000000e+00 1.000000e+00 0.000000e+00 0.000000e+00 0.000000e+00 0.000000e+00 0.000000e+00 0.000000e+00 0.000000e+00 0.000000e+00 0.000000e+00 0.000000e+00 0.000000e+00 0.000000e+00 0.000000e+00 0.000000e+00 0.000000e+00 0.000000e+00 0.000000e+00 0.000000e+00 0.000000e+00 0.000000e+00 0.000000e+00 0.000000e+00 0.000000e+00
 0.000000e+00 0.000000e+00 0.000000e+00 0.000000e+00 0.000000e+00 0.000000e+00 0.000000e+00 0.000000e+00 0.000000e+00 0.000000e+00 0.000000e+00 0.000000e+00 0.000000e+00 0.000000e+00 0.000000e+00 0.000000e+00 0.000000e+00 0.000000e+00 0.000000e+00 0.000000e+00 0.000000e+00 0.000000e+00 0.000000e+00 1.666667e-01 8.333333e-01 0.000000e+00 0.000000e+00 0.000000e+00 0.000000e+00 0.000000e+00 0.000000e+00 0.000000e+00 0.000000e+00 0.000000e+00 0.000000e+00 0.000000e+00 0.000000e+00 0.000000e+00 0.000000e+00 0.000000e+00 0.000000e+00 0.000000e+00 0.000000e+00 0.000000e+00 0.000000e+00 0.000000e+00 0.000000e+00
 0.000000e+00 0.000000e+00 0.000000e+00 0.000000e+00 0.000000e+00 0.000000e+00 0.000000e+00 0.000000e+00 0.000000e+00 0.000000e+00 0.000000e+00 0.000000e+00 0.000000e+00 0.000000e+00 0.000000e+00 0.000000e+00 0.000000e+00 0.000000e+00 0.000000e+00 0.000000e+00 0.000000e+00 0.000000e+00 0.000000e+00 0.000000e+00 0.000000e+00 1.000000e+00 0.000000e+00 0.000000e+00 0.000000e+00 0.000000e+00 0.000000e+00 0.000000e+00 0.000000e+00 0.000000e+00 0.000000e+00 0.000000e+00 0.000000e+00 0.000000e+00 0.000000e+00 0.000000e+00 0.000000e+00 0.000000e+00 0.000000e+00 0.000000e+00 0.000000e+00 0.000000e+00 0.000000e+00
 0.000000e+00 0.000000e+00 0.000000e+00 0.000000e+00 0.000000e+00 0.000000e+00 0.000000e+00 0.000000e+00 0.000000e+00 0.000000e+00 0.000000e+00 0.000000e+00 0.000000e+00 0.000000e+00 0.000000e+00 0.000000e+00 0.000000e+00 0.000000e+00 0.000000e+00 0.000000e+00 0.000000e+00 0.000000e+00 0.000000e+00 0.000000e+00 0.000000e+00 4.444444e-01 5.555556e-01 0.000000e+00 0.000000e+00 0.000000e+00 0.000000e+00 0.000000e+00 0.000000e+00 0.000000e+00 0.000000e+00 0.000000e+00 0.000000e+00 0.000000e+00 0.000000e+00 0.000000e+00 0.000000e+00 0.000000e+00 0.000000e+00 0.000000e+00 0.000000e+00 0.000000e+00 0.000000e+00
 0.000000e+00 0.000000e+00 0.000000e+00 0.000000e+00 0.000000e+00 0.000000e+00 0.000000e+00 0.000000e+00 0.000000e+00 0.000000e+00 0.000000e+00 0.000000e+00 0.000000e+00 0.000000e+00 0.000000e+00 0.000000e+00 0.000000e+00 0.000000e+00 0.000000e+00 0.000000e+00 0.000000e+00 0.000000e+00 0.000000e+00 0.000000e+00 0.000000e+00 0.000000e+00 0.000000e+00 1.000000e+00 0.000000e+00 0.000000e+00 0.000000e+00 0.000000e+00 0.000000e+00 0.000000e+00 0.000000e+00 0.000000e+00 0.000000e+00 0.000000e+00 0.000000e+00 0.000000e+00 0.000000e+00 0.000000e+00 0.000000e+00 0.000000e+00 0.000000e+00 0.000000e+00 0.000000e+00
 0.000000e+00 0.000000e+00 0.000000e+00 0.000000e+00 0.000000e+00 0.000000e+00 0.000000e+00 0.000000e+00 0.000000e+00 0.000000e+00 0.000000e+00 0.000000e+00 0.000000e+00 0.000000e+00 0.000000e+00 0.000000e+00 0.000000e+00 0.000000e+00 0.000000e+00 0.000000e+00 0.000000e+00 0.000000e+00 0.000000e+00 0.000000e+00 0.000000e+00 0.000000e+00 0.000000e+00 0.000000e+00 1.000000e+00 0.000000e+00 0.000000e+00 0.000000e+00 0.000000e+00 0.000000e+00 0.000000e+00 0.000000e+00 0.000000e+00 0.000000e+00 0.000000e+00 0.000000e+00 0.000000e+00 0.000000e+00 0.000000e+00 0.000000e+00 0.000000e+00 0.000000e+00 0.000000e+00
 0.000000e+00 0.000000e+00 0.000000e+00 0.000000e+00 0.000000e+00 0.000000e+00 0.000000e+00 0.000000e+00 0.000000e+00 0.000000e+00 0.000000e+00 0.000000e+00 0.000000e+00 0.000000e+00 0.000000e+00 0.000000e+00 0.000000e+00 0.000000e+00 0.000000e+00 0.000000e+00 0.000000e+00 0.000000e+00 0.000000e+00 0.000000e+00 0.000000e+00 0.000000e+00 0.000000e+00 0.000000e+00 2.857143e-01 7.142857e-01 0.000000e+00 0.000000e+00 0.000000e+00 0.000000e+00 0.000000e+00 0.000000e+00 0.000000e+00 0.000000e+00 0.000000e+00 0.000000e+00 0.000000e+00 0.000000e+00 0.000000e+00 0.000000e+00 0.000000e+00 0.000000e+00 0.000000e+00
 0.000000e+00 0.000000e+00 0.000000e+00 0.000000e+00 0.000000e+00 0.000000e+00 0.000000e+00 0.000000e+00 0.000000e+00 0.000000e+00 0.000000e+00 0.000000e+00 0.000000e+00 0.000000e+00 0.000000e+00 0.000000e+00 0.000000e+00 0.000000e+00 0.000000e+00 0.000000e+00 0.000000e+00 0.000000e+00 0.000000e+00 0.000000e+00 0.000000e+00 0.000000e+00 0.000000e+00 0.000000e+00 0.000000e+00 0.000000e+00 1.000000e+00 0.000000e+00 0.000000e+00 0.000000e+00 0.000000e+00 0.000000e+00 0.000000e+00 0.000000e+00 0.000000e+00 0.000000e+00 0.000000e+00 0.000000e+00 0.000000e+00 0.000000e+00 0.000000e+00 0.000000e+00 0.000000e+00
 0.000000e+00 0.000000e+00 0.000000e+00 0.000000e+00 0.000000e+00 0.000000e+00 0.000000e+00 0.000000e+00 0.000000e+00 0.000000e+00 0.000000e+00 0.000000e+00 0.000000e+00 0.000000e+00 0.000000e+00 0.000000e+00 0.000000e+00 0.000000e+00 0.000000e+00 0.000000e+00 0.000000e+00 0.000000e+00 0.000000e+00 0.000000e+00 0.000000e+00 0.000000e+00 0.000000e+00 0.000000e+00 0.000000e+00 0.000000e+00 1.666667e-01 8.333333e-01 0.000000e+00 0.000000e+00 0.000000e+00 0.000000e+00 0.000000e+00 0.000000e+00 0.000000e+00 0.000000e+00 0.000000e+00 0.000000e+00 0.000000e+00 0.000000e+00 0.000000e+00 0.000000e+00 0.000000e+00
 0.000000e+00 0.000000e+00 0.000000e+00 0.000000e+00 0.000000e+00 0.000000e+00 0.000000e+00 0.000000e+00 0.000000e+00 0.000000e+00 0.000000e+00 0.000000e+00 0.000000e+00 0.000000e+00 0.000000e+00 0.000000e+00 0.000000e+00 0.000000e+00 0.000000e+00 0.000000e+00 0.000000e+00 0.000000e+00 0.000000e+00 0.000000e+00 0.000000e+00 0.000000e+00 0.000000e+00 0.000000e+00 0.000000e+00 0.000000e+00 0.000000e+00 0.000000e+00 1.000000e+00 0.000000e+00 0.000000e+00 0.000000e+00 0.000000e+00 0.000000e+00 0.000000e+00 0.000000e+00 0.000000e+00 0.000000e+00 0.000000e+00 0.000000e+00 0.000000e+00 0.000000e+00 0.000000e+00
 0.000000e+00 0.000000e+00 0.000000e+00 0.000000e+00 0.000000e+00 0.000000e+00 0.000000e+00 0.000000e+00 0.000000e+00 0.000000e+00 0.000000e+00 0.000000e+00 0.000000e+00 0.000000e+00 0.000000e+00 0.000000e+00 0.000000e+00 0.000000e+00 0.000000e+00 0.000000e+00 0.000000e+00 0.000000e+00 0.000000e+00 0.000000e+00 0.000000e+00 0.000000e+00 0.000000e+00 0.000000e+00 0.000000e+00 0.000000e+00 0.000000e+00 0.000000e+00 2.857143e-01 7.142857e-01 0.000000e+00 0.000000e+00 0.000000e+00 0.000000e+00 0.000000e+00 0.000000e+00 0.000000e+00 0.000000e+00 0.000000e+00 0.000000e+00 0.000000e+00 0.000000e+00 0.000000e+00
 0.000000e+00 0.000000e+00 0.000000e+00 0.000000e+00 0.000000e+00 0.000000e+00 0.000000e+00 0.000000e+00 0.000000e+00 0.000000e+00 0.000000e+00 0.000000e+00 0.000000e+00 0.000000e+00 0.000000e+00 0.000000e+00 0.000000e+00 0.000000e+00 0.000000e+00 0.000000e+00 0.000000e+00 0.000000e+00 0.000000e+00 0.000000e+00 0.000000e+00 0.000000e+00 0.000000e+00 0.000000e+00 0.000000e+00 0.000000e+00 0.000000e+00 0.000000e+00 0.000000e+00 1.666667e-01 8.333333e-01 0.000000e+00 0.000000e+00 0.000000e+00 0.000000e+00 0.000000e+00 0.000000e+00 0.000000e+00 0.000000e+00 0.000000e+00 0.000000e+00 0.000000e+00 0.000000e+00
 0.000000e+00 0.000000e+00 0.000000e+00 0.000000e+00 0.000000e+00 0.000000e+00 0.000000e+00 0.000000e+00 0.000000e+00 0.000000e+00 0.000000e+00 0.000000e+00 0.000000e+00 0.000000e+00 0.000000e+00 0.000000e+00 0.000000e+00 0.000000e+00 0.000000e+00 0.000000e+00 0.000000e+00 0.000000e+00 0.000000e+00 0.000000e+00 0.000000e+00 0.000000e+00 0.000000e+00 0.000000e+00 0.000000e+00 0.000000e+00 0.000000e+00 0.000000e+00 0.000000e+00 0.000000e+00 0.000000e+00 1.000000e+00 0.000000e+00 0.000000e+00 0.000000e+00 0.000000e+00 0.000000e+00 0.000000e+00 0.000000e+00 0.000000e+00 0.000000e+00 0.000000e+00 0.000000e+00
 0.000000e+00 0.000000e+00 0.000000e+00 0.000000e+00 0.000000e+00 0.000000e+00 0.000000e+00 0.000000e+00 0.000000e+00 0.000000e+00 0.000000e+00 0.000000e+00 0.000000e+00 0.000000e+00 0.000000e+00 0.000000e+00 0.000000e+00 0.000000e+00 0.000000e+00 0.000000e+00 0.000000e+00 0.000000e+00 0.000000e+00 0.000000e+00 0.000000e+00 0.000000e+00 0.000000e+00 0.000000e+00 0.000000e+00 0.000000e+00 0.000000e+00 0.000000e+00 0.000000e+00 0.000000e+00 0.000000e+00 3.750000e-01 6.250000e-01 0.000000e+00 0.000000e+00 0.000000e+00 0.000000e+00 0.000000e+00 0.000000e+00 0.000000e+00 0.000000e+00 0.000000e+00 0.000000e+00
 0.000000e+00 0.000000e+00 0.000000e+00 0.000000e+00 0.000000e+00 0.000000e+00 0.000000e+00 0.000000e+00 0.000000e+00 0.000000e+00 0.000000e+00 0.000000e+00 0.000000e+00 0.000000e+00 0.000000e+00 0.000000e+00 0.000000e+00 0.000000e+00 0.000000e+00 0.000000e+00 0.000000e+00 0.000000e+00 0.000000e+00 0.000000e+00 0.000000e+00 0.000000e+00 0.000000e+00 0.000000e+00 0.000000e+00 0.000000e+00 0.000000e+00 0.000000e+00 0.000000e+00 0.000000e+00 0.000000e+00 0.000000e+00 0.000000e+00 1.000000e+00 0.000000e+00 0.000000e+00 0.000000e+00 0.000000e+00 0.000000e+00 0.000000e+00 0.000000e+00 0.000000e+00 0.000000e+00
 0.000000e+00 0.000000e+00 0.000000e+00 0.000000e+00 0.000000e+00 0.000000e+00 0.000000e+00 0.000000e+00 0.000000e+00 0.000000e+00 0.000000e+00 0.000000e+00 0.000000e+00 0.000000e+00 0.000000e+00 0.000000e+00 0.000000e+00 0.000000e+00 0.000000e+00 0.000000e+00 0.000000e+00 0.000000e+00 0.000000e+00 0.000000e+00 0.000000e+00 0.000000e+00 0.000000e+00 0.000000e+00 0.000000e+00 0.000000e+00 0.000000e+00 0.000000e+00 0.000000e+00 0.000000e+00 0.000000e+00 0.000000e+00 0.000000e+00 1.666667e-01 8.333333e-01 0.000000e+00 0.000000e+00 0.000000e+00 0.000000e+00 0.000000e+00 0.000000e+00 0.000000e+00 0.000000e+00
 0.000000e+00 0.000000e+00 0.000000e+00 0.000000e+00 0.000000e+00 0.000000e+00 0.000000e+00 0.000000e+00 0.000000e+00 0.000000e+00 0.000000e+00 0.000000e+00 0.000000e+00 0.000000e+00 0.000000e+00 0.000000e+00 0.000000e+00 0.000000e+00 0.000000e+00 0.000000e+00 0.000000e+00 0.000000e+00 0.000000e+00 0.000000e+00 0.000000e+00 0.000000e+00 0.000000e+00 0.000000e+00 0.000000e+00 0.000000e+00 0.000000e+00 0.000000e+00 0.000000e+00 0.000000e+00 0.000000e+00 0.000000e+00 0.000000e+00 0.000000e+00 0.000000e+00 1.000000e+00 0.000000e+00 0.000000e+00 0.000000e+00 0.000000e+00 0.000000e+00 0.000000e+00 0.000000e+00
 0.000000e+00 0.000000e+00 0.000000e+00 0.000000e+00 0.000000e+00 0.000000e+00 0.000000e+00 0.000000e+00 0.000000e+00 0.000000e+00 0.000000e+00 0.000000e+00 0.000000e+00 0.000000e+00 0.000000e+00 0.000000e+00 0.000000e+00 0.000000e+00 0.000000e+00 0.000000e+00 0.000000e+00 0.000000e+00 0.000000e+00 0.000000e+00 0.000000e+00 0.000000e+00 0.000000e+00 0.000000e+00 0.000000e+00 0.000000e+00 0.000000e+00 0.000000e+00 0.000000e+00 0.000000e+00 0.000000e+00 0.000000e+00 0.000000e+00 0.000000e+00 0.000000e+00 2.857143e-01 7.142857e-01 0.000000e+00 0.000000e+00 0.000000e+00 0.000000e+00 0.000000e+00 0.000000e+00
 0.000000e+00 0.000000e+00 0.000000e+00 0.000000e+00 0.000000e+00 0.000000e+00 0.000000e+00 0.000000e+00 0.000000e+00 0.000000e+00 0.000000e+00 0.000000e+00 0.000000e+00 0.000000e+00 0.000000e+00 0.000000e+00 0.000000e+00 0.000000e+00 0.000000e+00 0.000000e+00 0.000000e+00 0.000000e+00 0.000000e+00 0.000000e+00 0.000000e+00 0.000000e+00 0.000000e+00 0.000000e+00 0.000000e+00 0.000000e+00 0.000000e+00 0.000000e+00 0.000000e+00 0.000000e+00 0.000000e+00 0.000000e+00 0.000000e+00 0.000000e+00 0.000000e+00 0.000000e+00 2.857143e-01 7.142857e-01 0.000000e+00 0.000000e+00 0.000000e+00 0.000000e+00 0.000000e+00
 0.000000e+00 0.000000e+00 0.000000e+00 0.000000e+00 0.000000e+00 0.000000e+00 0.000000e+00 0.000000e+00 0.000000e+00 0.000000e+00 0.000000e+00 0.000000e+00 0.000000e+00 0.000000e+00 0.000000e+00 0.000000e+00 0.000000e+00 0.000000e+00 0.000000e+00 0.000000e+00 0.000000e+00 0.000000e+00 0.000000e+00 0.000000e+00 0.000000e+00 0.000000e+00 0.000000e+00 0.000000e+00 0.000000e+00 0.000000e+00 0.000000e+00 0.000000e+00 0.000000e+00 0.000000e+00 0.000000e+00 0.000000e+00 0.000000e+00 0.000000e+00 0.000000e+00 0.000000e+00 0.000000e+00 1.666667e-01 8.333333e-01 0.000000e+00 0.000000e+00 0.000000e+00 0.000000e+00
 0.000000e+00 0.000000e+00 0.000000e+00 0.000000e+00 0.000000e+00 0.000000e+00 0.000000e+00 0.000000e+00 0.000000e+00 0.000000e+00 0.000000e+00 0.000000e+00 0.000000e+00 0.000000e+00 0.000000e+00 0.000000e+00 0.000000e+00 0.000000e+00 0.000000e+00 0.000000e+00 0.000000e+00 0.000000e+00 0.000000e+00 0.000000e+00 0.000000e+00 0.000000e+00 0.000000e+00 0.000000e+00 0.000000e+00 0.000000e+00 0.000000e+00 0.000000e+00 0.000000e+00 0.000000e+00 0.000000e+00 0.000000e+00 0.000000e+00 0.000000e+00 0.000000e+00 0.000000e+00 0.000000e+00 0.000000e+00 1.666667e-01 8.333333e-01 0.000000e+00 0.000000e+00 0.000000e+00
 0.000000e+00 0.000000e+00 0.000000e+00 0.000000e+00 0.000000e+00 0.000000e+00 0.000000e+00 0.000000e+00 0.000000e+00 0.000000e+00 0.000000e+00 0.000000e+00 0.000000e+00 0.000000e+00 0.000000e+00 0.000000e+00 0.000000e+00 0.000000e+00 0.000000e+00 0.000000e+00 0.000000e+00 0.000000e+00 0.000000e+00 0.000000e+00 0.000000e+00 0.000000e+00 0.000000e+00 0.000000e+00 0.000000e+00 0.000000e+00 0.000000e+00 0.000000e+00 0.000000e+00 0.000000e+00 0.000000e+00 0.000000e+00 0.000000e+00 0.000000e+00 0.000000e+00 0.000000e+00 0.000000e+00 0.000000e+00 0.000000e+00 0.000000e+00 1.000000e+00 0.000000e+00 0.000000e+00
 0.000000e+00 0.000000e+00 0.000000e+00 0.000000e+00 0.000000e+00 0.000000e+00 0.000000e+00 0.000000e+00 0.000000e+00 0.000000e+00 0.000000e+00 0.000000e+00 0.000000e+00 0.000000e+00 0.000000e+00 0.000000e+00 0.000000e+00 0.000000e+00 0.000000e+00 0.000000e+00 0.000000e+00 0.000000e+00 0.000000e+00 0.000000e+00 0.000000e+00 0.000000e+00 0.000000e+00 0.000000e+00 0.000000e+00 0.000000e+00 0.000000e+00 0.000000e+00 0.000000e+00 0.000000e+00 0.000000e+00 0.000000e+00 0.000000e+00 0.000000e+00 0.000000e+00 0.000000e+00 0.000000e+00 0.000000e+00 0.000000e+00 0.000000e+00 0.000000e+00 1.000000e+00 0.000000e+00
 0.000000e+00 0.000000e+00 0.000000e+00 0.000000e+00 0.000000e+00 0.000000e+00 0.000000e+00 0.000000e+00 0.000000e+00 0.000000e+00 0.000000e+00 0.000000e+00 0.000000e+00 0.000000e+00 0.000000e+00 0.000000e+00 0.000000e+00 0.000000e+00 0.000000e+00 0.000000e+00 0.000000e+00 0.000000e+00 0.000000e+00 0.000000e+00 0.000000e+00 0.000000e+00 0.000000e+00 0.000000e+00 0.000000e+00 0.000000e+00 0.000000e+00 0.000000e+00 0.000000e+00 0.000000e+00 0.000000e+00 0.000000e+00 0.000000e+00 0.000000e+00 0.000000e+00 0.000000e+00 0.000000e+00 0.000000e+00 0.000000e+00 0.000000e+00 0.000000e+00 0.000000e+00 1.000000e+00
 0.000000e+00 0.000000e+00 0.000000e+00 0.000000e+00 0.000000e+00 0.000000e+00 0.000000e+00 0.000000e+00 0.000000e+00 0.000000e+00 0.000000e+00 0.000000e+00 0.000000e+00 0.000000e+00 0.000000e+00 0.000000e+00 0.000000e+00 0.000000e+00 0.000000e+00 0.000000e+00 0.000000e+00 0.000000e+00 0.000000e+00 0.000000e+00 0.000000e+00 0.000000e+00 0.000000e+00 0.000000e+00 0.000000e+00 0.000000e+00 0.000000e+00 0.000000e+00 0.000000e+00 0.000000e+00 0.000000e+00 0.000000e+00 0.000000e+00 0.000000e+00 0.000000e+00 0.000000e+00 0.000000e+00 0.000000e+00 0.000000e+00 0.000000e+00 0.000000e+00 0.000000e+00 0.000000e+00
<ENDHMM>
