~o
<STREAMINFO> 1 39
<VECSIZE> 39<NULLD><MFCC_E_D_A><DIAGC>
~h "Ke^"
<BEGINHMM>
<NUMSTATES> 22
<STATE> 2
<MEAN> 39
 -5.482965e+00 -8.367682e+00 -6.538075e-01 -5.837314e-01 3.217276e+00 -3.926346e+00 2.224471e+00 -1.885061e+00 1.443046e+00 -3.009110e+00 3.321725e+00 -1.754986e+00 6.572904e-02 -8.413893e-01 1.545601e-01 -4.943399e-02 -3.993365e-01 -1.891219e-01 -6.519035e-01 3.840851e-01 -1.697473e-01 -1.395368e-01 5.022300e-01 -8.594214e-01 -2.199408e-01 2.963821e-02 -2.917267e-01 1.251252e-01 -1.754249e-01 -8.702703e-01 -9.289014e-01 -5.682738e-01 1.688226e-01 -7.562543e-02 -2.026421e-01 5.825065e-01 -3.824136e-01 -1.202171e-01 3.828103e-02
<VARIANCE> 39
 3.521575e+00 1.262475e+00 3.929433e+00 4.189382e+00 5.435801e+00 6.621881e+00 1.488829e+01 7.966004e+00 2.092250e+01 1.091446e+01 1.315362e+01 7.390022e+00 1.000000e-02 1.263333e+00 6.574572e-01 5.428411e-01 1.330817e+00 1.670810e+00 2.694253e+00 2.772508e+00 1.295405e+00 1.040610e+00 2.091780e+00 9.532711e-01 8.997558e-01 1.000000e-02 2.648477e-01 8.163833e-02 1.965305e-01 4.074689e-01 4.756369e-01 5.061896e-01 5.763788e-01 3.904173e-01 3.328112e-01 3.750025e-01 2.421197e-01 1.976406e-01 1.000000e-02
<GCONST> 6.902331e+01
<STATE> 3
<MEAN> 39
 -1.060465e+01 -6.224586e+00 -1.891136e+00 -8.465108e+00 -3.948980e+00 -8.326313e+00 3.211587e+00 -3.711386e+00 -1.978478e+00 1.758172e+00 -2.213907e+00 -3.044957e+00 4.294164e-01 -1.100731e+00 -6.166012e-01 -1.876895e+00 -4.351492e+00 -4.929149e+00 -2.928815e+00 1.724946e-02 -5.375094e-01 -4.560601e-01 2.692429e+00 -1.338482e+00 -3.195781e-01 1.976912e-01 4.788090e-01 -8.800133e-01 -1.334108e-01 -1.698632e-01 -3.177729e-01 -2.013157e-01 -1.729443e-03 2.293420e-01 4.347180e-01 1.566967e-01 3.615902e-01 1.794288e-01 1.132492e-02
<VARIANCE> 39
 1.614225e+01 1.208271e+01 1.710776e+01 4.478583e+01 5.304762e+01 4.469812e+01 1.737952e+01 2.170185e+01 1.588573e+01 2.563516e+01 1.379782e+01 2.297346e+01 6.935700e-02 1.376840e+00 1.394423e+00 6.006073e-01 9.942151e-01 2.309839e+00 5.510245e+00 2.084578e+00 2.164293e+00 2.419674e+00 1.457616e+00 1.793250e+00 1.560644e+00 1.000000e-02 4.657290e-01 1.894197e-01 3.758830e-01 8.796019e-01 1.388469e+00 5.366040e-01 1.530864e-01 3.241722e-01 2.039959e-01 7.867250e-01 1.922715e-01 3.184134e-01 1.000000e-02
<GCONST> 9.220674e+01
<STATE> 4
<MEAN> 39
 -8.610714e+00 -1.273968e+01 -6.785408e+00 -1.828396e+01 -1.472968e+01 -1.808893e+01 4.379761e+00 -2.569618e+00 9.068019e-01 9.953697e+00 -1.784728e+00 -2.467136e+00 9.111893e-01 6.639513e-01 -2.975347e+00 -8.614225e-02 -1.555224e+00 -1.375179e+00 -5.691919e-01 6.697352e-01 6.599348e-01 9.604375e-01 7.076278e-01 -4.787875e-02 1.313656e-01 8.723877e-02 4.001888e-02 -6.404140e-02 6.452563e-01 1.262266e+00 1.283918e+00 1.496506e+00 1.384944e-01 2.113678e-01 -8.409487e-02 -1.364368e+00 9.080775e-02 -1.416076e-01 -5.069607e-02
<VARIANCE> 39
 9.558522e+00 1.381357e+01 2.477319e+01 6.164370e+00 4.234547e+01 8.550962e+01 5.615256e+01 8.738187e+00 1.390105e+01 1.172111e+01 1.854029e+01 9.313497e+00 1.000000e-02 1.268716e+00 9.968088e-01 2.866465e+00 1.888865e+00 2.142019e+00 3.107669e+00 1.310297e+00 7.675752e-01 3.026822e-01 4.578658e+00 5.909660e-01 1.239753e+00 1.000000e-02 2.488754e-01 2.083076e-01 2.615900e-01 9.477348e-02 4.892280e-01 4.996102e-01 2.887938e-01 2.018888e-01 3.304810e-01 1.662198e-01 2.029781e-01 1.196400e-01 1.000000e-02
<GCONST> 7.872156e+01
<STATE> 5
<MEAN> 39
 -9.195957e+00 -1.830453e+01 -5.017983e+00 -1.745293e+01 -1.437720e+01 -1.300515e+01 6.442872e+00 -1.932795e+00 5.585554e-01 4.988320e+00 -3.872808e+00 -3.809019e+00 9.550998e-01 -1.938022e-01 -1.268981e+00 3.094494e-01 8.414356e-01 3.785932e-01 2.124251e+00 7.901691e-01 6.012917e-01 -2.910950e-01 -2.331660e+00 -5.436690e-01 -6.486384e-01 3.072066e-03 -1.425724e-01 6.920622e-01 -1.486332e-01 4.029796e-01 3.350620e-01 1.542258e-01 1.669093e-02 7.822473e-03 -2.053373e-01 -2.997792e-01 4.470493e-02 -2.121267e-01 -1.457637e-02
<VARIANCE> 39
 4.694814e+00 3.447825e+00 2.116100e+01 2.599108e+00 1.924113e+01 5.411718e+01 3.052048e+01 5.576849e+00 3.131455e+00 1.552248e+01 9.442627e+00 1.983771e+01 1.000000e-02 2.695081e-01 7.230917e-01 3.506962e-01 4.459754e-01 7.487398e-01 7.183701e-01 4.961761e-01 6.182141e-01 1.058191e+00 1.050442e+00 6.343107e-01 6.153222e-01 1.000000e-02 4.863523e-02 7.746863e-02 1.562386e-01 1.188239e-01 1.817410e-01 2.427430e-01 8.965430e-02 4.840245e-02 7.012642e-02 3.914266e-01 1.418944e-01 1.478589e-01 1.000000e-02
<GCONST> 5.413914e+01
<STATE> 6
<MEAN> 39
 -9.978370e+00 -1.924954e+01 -3.032690e+00 -1.557310e+01 -1.736372e+01 -5.134339e+00 4.851837e+00 3.451816e-01 1.961841e+00 2.853347e+00 -4.314967e+00 -4.187891e+00 9.704488e-01 -1.475723e-01 -2.890922e-01 -5.486930e-01 3.769554e-01 1.320233e-01 4.889265e-01 7.551819e-01 1.228083e-02 2.400308e-01 -1.291764e+00 1.700002e-01 -9.660187e-01 5.278058e-03 -6.455163e-02 2.947080e-01 -1.879635e-01 -1.198930e-01 2.677736e-02 -4.467018e-01 -2.691861e-02 -2.432202e-01 -1.396827e-02 1.380281e-01 2.906142e-02 -1.354078e-02 -1.237884e-03
<VARIANCE> 39
 3.803327e+00 3.338911e+00 9.141961e+00 4.820148e+00 2.406505e+01 3.380664e+01 2.026892e+01 2.183079e+00 7.069869e+00 8.256278e+00 6.599033e+00 7.147618e+00 1.000000e-02 1.277036e-01 4.085617e-01 3.587233e-01 3.682959e-01 5.031601e-01 8.551904e-01 2.227671e-01 6.369542e-01 4.779913e-01 3.144695e-01 4.163693e-01 2.401711e-01 1.000000e-02 2.360791e-02 5.543166e-02 4.060327e-02 3.590563e-02 1.381504e-01 5.845040e-02 8.497179e-02 3.339763e-02 1.849063e-01 9.966845e-02 1.664809e-01 8.634744e-02 1.000000e-02
<GCONST> 3.854057e+01
<STATE> 7
<MEAN> 39
 -9.721234e+00 -1.982836e+01 -8.485357e+00 -1.467886e+01 -9.901361e+00 -1.270554e+01 1.343811e+01 -4.778720e-01 -7.235159e-01 -3.585849e+00 -1.340698e+00 -9.112921e+00 9.633305e-01 -1.583137e-01 2.295037e-01 -7.017417e-02 3.074804e-01 7.519790e-02 3.919301e-01 5.040879e-01 -2.117129e-02 -4.602999e-01 -5.259379e-01 1.164458e-01 -2.470912e-01 -3.563069e-03 4.407241e-02 9.887239e-02 9.133502e-02 -9.304673e-02 -9.246841e-02 5.622608e-02 -5.804107e-02 3.335046e-02 -8.664051e-02 3.392044e-01 -6.078450e-02 2.255766e-01 -1.947984e-03
<VARIANCE> 39
 2.712560e+00 5.045383e+00 9.087261e+00 7.643548e+00 4.356613e+01 3.809071e+01 4.224249e+01 5.389276e+00 9.428570e+00 8.254360e+00 2.584579e+01 4.662142e+00 1.000000e-02 3.463528e-02 1.868168e-01 3.266914e-01 2.974066e-01 7.632814e-01 5.255731e-01 5.365975e-01 3.402904e-01 4.369296e-01 7.505455e-01 1.459910e+00 3.452665e-01 1.000000e-02 1.000000e-02 6.673250e-02 4.135320e-02 8.058257e-02 1.468915e-01 1.616164e-01 1.010123e-01 1.315829e-01 6.392261e-02 1.287704e-01 2.182132e-01 3.276755e-02 1.000000e-02
<GCONST> 4.410329e+01
<STATE> 8
<MEAN> 39
 -1.066941e+01 -1.881413e+01 -6.284570e+00 -1.479929e+01 -1.353571e+01 -6.019710e+00 1.131131e+01 -3.073255e-01 -5.299521e-01 -2.454501e+00 -3.665532e+00 -7.388879e+00 9.542485e-01 -3.286313e-01 3.794056e-01 -4.266911e-01 -1.187426e-01 1.307727e-02 4.462536e-01 3.614658e-01 3.393788e-01 -6.204953e-01 1.686198e-01 -1.436267e-01 1.848027e-01 -5.858685e-03 -5.772289e-02 -1.232399e-01 -1.337064e-02 -1.473223e-01 -1.430366e-01 -5.206443e-02 -1.146434e-01 6.942964e-02 -2.144693e-02 2.002709e-01 -2.880225e-03 1.042873e-01 6.184207e-04
<VARIANCE> 39
 3.603215e+00 3.424788e+00 9.650090e+00 4.185913e+00 4.007954e+01 2.721158e+01 2.844273e+01 3.097274e+00 1.119324e+01 9.698205e+00 1.378815e+01 2.268938e+00 1.000000e-02 1.234787e-01 4.324062e-01 5.731769e-01 4.604078e-01 3.520595e-01 4.846946e-01 7.261340e-01 9.199376e-01 4.709692e-01 4.449134e-01 1.213792e+00 2.444568e-01 1.000000e-02 1.480929e-02 4.181483e-02 1.649016e-01 3.743826e-02 3.844795e-02 8.842968e-02 6.781621e-02 1.076707e-01 1.659964e-01 1.581713e-01 3.558414e-01 6.095866e-02 1.000000e-02
<GCONST> 4.391601e+01
<STATE> 9
<MEAN> 39
 -1.154143e+01 -1.804811e+01 -8.039848e+00 -1.510122e+01 -1.406143e+01 -6.702769e+00 1.197548e+01 5.938511e-01 -2.548739e+00 -8.053790e-01 -3.720007e+00 -6.870449e+00 9.385805e-01 -1.369890e-01 -1.371728e-01 1.358150e-01 -3.399747e-01 -1.021506e-02 2.638360e-01 1.692116e-01 1.798985e-01 -3.419956e-01 4.499727e-01 -4.608961e-01 6.389681e-01 -2.889722e-03 1.350763e-01 -1.199240e-02 9.471133e-02 1.078904e-01 1.494173e-01 -7.529515e-02 -1.439845e-01 -2.287185e-01 2.821498e-01 -1.367817e-01 8.461066e-02 -5.133294e-03 8.642991e-04
<VARIANCE> 39
 2.503966e+00 4.225923e+00 1.484418e+01 5.732658e+00 2.364581e+01 4.361959e+01 1.167852e+01 6.413402e+00 1.005900e+01 1.472382e+01 2.803408e+01 5.229477e+00 1.000000e-02 1.115553e-01 1.225297e-01 3.108316e-01 2.735126e-01 3.211331e-01 3.480191e-01 8.505584e-01 1.639361e-01 1.076798e+00 5.291974e-01 9.314107e-01 2.234532e-01 1.000000e-02 1.644650e-02 8.152372e-02 4.117754e-02 9.106146e-02 6.408461e-02 9.322340e-02 7.402314e-02 7.934163e-02 1.904062e-01 1.415460e-01 4.210365e-01 8.324403e-02 1.000000e-02
<GCONST> 4.343099e+01
<STATE> 10
<MEAN> 39
 -1.174708e+01 -1.812254e+01 -6.368078e+00 -1.537887e+01 -1.509826e+01 -4.930212e+00 1.098779e+01 -1.006117e+00 -1.626949e+00 -2.077654e+00 -4.701098e+00 -4.974086e+00 9.304853e-01 2.881713e-01 2.134427e-01 -3.033722e-01 4.502479e-01 3.984867e-02 -6.984989e-02 -4.743507e-01 -1.170873e+00 9.357963e-01 -1.547264e-01 5.572471e-01 -2.165091e-01 -2.803825e-03 1.188737e-01 1.090225e-01 -1.790095e-01 -7.611959e-02 6.476767e-03 -2.618637e-02 -1.755034e-01 -1.738004e-01 5.017883e-02 2.392775e-01 -2.174062e-01 -4.014805e-01 2.486500e-03
<VARIANCE> 39
 3.028256e+00 1.479177e+00 8.475796e+00 6.792847e+00 2.591519e+01 3.796576e+01 1.210898e+01 3.107324e+00 9.124290e+00 5.031012e+00 1.192109e+01 3.704575e+00 1.000000e-02 1.196249e-01 3.128047e-01 1.224580e-01 5.841496e-01 3.930518e-01 2.345469e-01 2.159960e-01 6.603553e-01 5.727332e-01 1.394589e+00 1.298088e+00 3.775520e-01 1.000000e-02 1.057859e-02 2.923230e-02 2.285850e-02 1.370762e-01 6.056106e-02 3.879274e-02 9.100764e-02 1.391148e-01 2.259158e-01 1.736348e-01 2.653147e-01 1.160215e-02 1.000000e-02
<GCONST> 3.706375e+01
<STATE> 11
<MEAN> 39
 -1.032733e+01 -1.682674e+01 -8.840390e+00 -1.511709e+01 -1.385838e+01 -4.895772e+00 9.675934e+00 -2.559361e+00 -1.092692e-01 1.249846e+00 -5.818697e+00 -7.525400e+00 9.423845e-01 3.705124e-01 2.995476e-01 -4.527565e-01 -6.427083e-01 1.651122e-01 2.755103e-01 -4.638143e-01 5.960909e-01 -1.715565e-01 3.360144e-01 -9.667828e-01 -7.039811e-01 3.434157e-03 -5.829381e-02 -2.195981e-02 1.292499e-01 -1.094491e-01 -5.195756e-03 7.532706e-02 1.185513e-01 4.796422e-01 -1.481851e-01 -1.024123e-01 -6.874401e-02 5.671103e-02 -1.679514e-03
<VARIANCE> 39
 3.070644e+00 4.259390e+00 1.201933e+01 1.062402e+01 2.499725e+01 3.198416e+01 1.516937e+01 1.553632e+01 9.916614e+00 6.647099e+00 8.732112e+00 5.807330e+00 1.000000e-02 3.856805e-02 2.099424e-01 2.614618e-01 6.992562e-01 5.959999e-01 6.180532e-01 6.679543e-01 1.505318e+00 4.309738e-01 1.039365e+00 7.740442e-01 1.717148e-01 1.000000e-02 1.700180e-02 2.849577e-02 1.203692e-01 1.082198e-01 9.538824e-02 9.897021e-02 9.673999e-02 2.126229e-01 5.793124e-02 2.533530e-01 2.520229e-01 5.566761e-02 1.000000e-02
<GCONST> 4.620553e+01
<STATE> 12
<MEAN> 39
 -9.887486e+00 -1.719541e+01 -9.635838e+00 -1.864332e+01 -9.898688e+00 -7.067241e+00 1.218404e+01 3.652172e+00 -2.793312e+00 2.000705e-01 -7.214079e+00 -8.813004e+00 9.441555e-01 -4.940341e-01 2.737946e-01 7.652130e-01 -1.240466e-01 3.793195e-01 6.093660e-01 6.016391e-02 6.541131e-01 4.742047e-01 1.881610e-01 1.337503e-02 4.938235e-01 -2.899415e-02 3.586914e-02 6.750971e-02 3.854849e-01 5.251526e-01 -1.235030e-01 2.081220e-01 -5.858980e-02 -3.938960e-01 2.809600e-01 1.308984e-01 3.996159e-01 3.110982e-01 -1.838536e-02
<VARIANCE> 39
 7.566650e+00 9.298574e+00 7.723900e+00 2.010329e+01 2.895868e+01 3.256879e+01 4.622965e+01 2.254079e+01 1.413019e+01 5.312852e+00 1.192462e+01 5.874960e+00 1.000000e-02 8.037241e-01 2.241442e-01 7.320058e-01 9.489183e-01 3.108112e-01 3.976075e-01 9.744456e-01 2.443371e+00 5.266459e-01 3.316843e-01 5.775528e-01 9.013848e-01 1.000000e-02 4.823359e-01 1.425305e-01 5.327792e-02 2.379031e-01 2.643523e-01 1.630633e-01 3.236680e-01 3.958060e-01 2.667118e-01 1.473357e-01 5.511846e-02 1.451644e-01 1.000000e-02
<GCONST> 6.351794e+01
<STATE> 13
<MEAN> 39
 -1.131907e+01 -1.435830e+01 -7.449359e+00 -1.695423e+01 -1.342508e+01 -2.365802e+00 8.016100e+00 3.312996e+00 2.170897e-01 1.397370e+00 -7.213344e+00 -8.313765e+00 8.249302e-01 4.164652e-01 4.004837e-01 1.399083e+00 1.060119e+00 -1.027822e+00 8.628989e-01 1.483262e-02 2.437178e-01 6.466533e-01 8.642665e-01 3.943198e-01 7.118633e-01 -6.351231e-02 6.949507e-01 -5.352776e-01 3.438763e-01 1.783846e-01 -5.097846e-01 5.823065e-02 6.864838e-02 -3.580340e-01 6.236450e-02 -2.325463e-01 1.033526e-01 1.650406e-01 -1.207635e-02
<VARIANCE> 39
 8.475317e+00 5.752121e+00 6.751401e+00 8.018877e+00 1.952571e+01 2.601567e+01 1.677662e+01 3.118395e+00 5.215735e+00 2.721915e+00 5.879703e+00 7.645524e+00 1.000000e-02 1.972225e+00 1.204467e+00 6.170884e-01 8.773026e-01 1.188419e+00 1.467908e+00 1.823452e+00 2.529760e+00 2.904855e+00 8.783034e-01 4.809985e-01 1.615907e-01 1.000000e-02 4.439862e-01 1.306652e-01 8.357877e-02 1.011293e-01 1.975160e-01 1.410065e-01 1.999826e-01 9.598013e-02 1.239674e-01 2.047652e-01 3.255940e-02 2.234582e-01 1.000000e-02
<GCONST> 5.935398e+01
<STATE> 14
<MEAN> 39
 -8.949632e+00 -1.489024e+01 -2.347552e+00 -1.433428e+01 -1.576323e+01 3.634766e-01 9.466586e+00 3.005541e+00 2.356542e+00 3.808971e+00 -7.568368e+00 -4.728721e+00 6.653818e-01 2.512611e+00 -1.690642e+00 1.830808e+00 1.034756e+00 -1.125303e+00 8.408603e-01 8.187472e-01 -5.886952e-01 3.045602e-01 -9.361966e-01 9.568797e-01 7.959704e-01 -7.783987e-02 5.611285e-01 -5.227023e-01 -2.632433e-01 5.190672e-02 4.083997e-02 -2.681293e-01 7.182518e-02 -4.405564e-01 -2.176969e-01 -5.679197e-01 3.154685e-01 -3.449279e-01 6.151780e-03
<VARIANCE> 39
 1.059417e+01 5.275361e+00 7.198628e+00 5.528569e+00 3.250549e+01 1.133836e+01 3.168270e+01 1.670499e+01 1.690806e+01 1.059391e+01 1.761694e+01 1.005368e+01 1.029162e-02 2.907942e+00 1.350269e+00 5.587278e-01 5.466735e-01 2.325616e+00 1.252198e+00 2.993351e+00 1.611024e+00 6.733279e-01 1.095690e+00 1.155409e+00 1.690088e+00 1.000000e-02 2.231473e-01 1.927142e-01 1.102878e-01 1.138526e-01 6.487209e-01 2.414060e-01 8.446347e-01 6.821296e-01 5.327218e-01 1.319365e-01 1.676791e-01 1.612572e-01 1.000000e-02
<GCONST> 7.513750e+01
<STATE> 15
<MEAN> 39
 -2.536826e-01 -2.193517e+01 4.098435e-01 -1.140126e+01 -1.743383e+01 5.441587e-01 1.144275e+01 -9.093452e-02 1.382434e+00 -1.885951e+00 -2.713010e+00 -5.111600e+00 5.080168e-01 1.803275e+00 -7.293223e-01 3.681777e-01 1.028187e+00 6.019378e-02 -1.115270e-01 -2.224595e-01 -1.400031e+00 -2.076007e-01 -7.365692e-01 1.032284e+00 -1.067430e-01 -3.702193e-02 -8.061302e-01 8.156570e-01 -6.798771e-01 -2.610475e-01 5.405156e-01 -3.668081e-01 -3.024355e-01 -1.591222e-02 -8.431523e-02 5.403273e-01 -2.707117e-01 -2.836050e-02 1.219665e-02
<VARIANCE> 39
 2.277846e+00 2.573965e+00 6.122638e+00 8.517413e+00 2.176607e+01 1.131392e+01 1.565137e+01 1.029727e+01 4.683764e+00 7.677577e+00 1.782762e+01 8.147119e+00 1.000000e-02 9.034511e-01 2.455851e+00 9.918277e-01 1.231508e+00 5.148550e+00 1.668224e+00 3.065305e+00 3.697150e+00 1.378368e+00 1.056671e+00 5.322812e-01 6.364925e-01 1.000000e-02 4.127811e-02 1.519715e-01 9.995099e-02 2.550825e-01 5.084640e-01 3.769292e-01 5.152845e-01 4.540052e-01 8.989130e-02 1.247393e-01 1.802271e-01 1.763107e-01 1.000000e-02
<GCONST> 6.781774e+01
<STATE> 16
<MEAN> 39
 8.384236e-01 -1.969059e+01 -3.041258e+00 -9.558134e+00 -1.450580e+01 -2.943156e+00 8.690106e+00 -3.534983e+00 8.328182e-01 -1.509383e+00 -1.999041e+00 -4.943291e+00 4.248391e-01 -1.001769e-01 8.211198e-01 -6.845413e-01 2.535967e-01 8.754672e-01 -1.117832e-01 -3.564435e-01 -5.374669e-01 1.531712e-01 5.126722e-01 -5.066389e-02 4.639395e-02 -2.912993e-02 -2.463299e-01 1.800624e-01 2.265462e-02 -4.405987e-03 1.692050e-01 2.044208e-01 2.340630e-01 5.307901e-01 8.803490e-02 5.496335e-02 -1.067332e-01 -1.097051e-03 8.649087e-04
<VARIANCE> 39
 2.765703e+00 8.060311e+00 2.216962e+01 1.905641e+01 1.041832e+01 9.601612e+00 9.542132e+00 1.874401e+01 4.332538e+00 7.724276e+00 3.445622e+00 5.675306e+00 1.000000e-02 3.916914e-01 8.512434e-01 1.377133e+00 1.754694e+00 1.320797e+00 1.019810e+00 8.913543e-01 1.346439e+00 2.917228e-01 1.473745e+00 5.766815e-01 3.324579e-01 1.000000e-02 6.078582e-02 2.429743e-01 3.567515e-01 3.980603e-01 4.775961e-01 1.240751e-01 1.974496e-01 3.095412e-01 1.308865e-01 2.840331e-01 9.671346e-02 1.067349e-01 1.000000e-02
<GCONST> 6.140297e+01
<STATE> 17
<MEAN> 39
 -7.647597e-02 -1.588572e+01 -2.640549e+00 -8.346734e+00 -1.206359e+01 -6.784161e-01 9.351136e+00 -2.062328e+00 2.708642e+00 1.937205e-01 -2.365425e+00 -5.150808e+00 3.496279e-01 -3.052450e-01 6.712064e-01 -4.434489e-01 6.351346e-01 6.613650e-01 -3.123436e-01 7.200714e-01 1.140301e+00 -3.387359e-01 -4.363675e-01 3.488570e-01 3.833284e-02 -2.231081e-02 -4.979905e-02 -9.836239e-02 8.360702e-02 -3.008164e-02 4.989726e-02 -1.964233e-01 1.441104e-01 3.977040e-02 -2.581677e-01 -2.770041e-01 1.427250e-01 1.376576e-01 1.239963e-03
<VARIANCE> 39
 5.934690e+00 1.407552e+01 1.393014e+01 8.796801e+00 2.631740e+01 1.307054e+01 1.514904e+01 2.390560e+01 4.024495e+00 2.190313e+01 8.370293e+00 8.609171e+00 1.000000e-02 5.224005e-01 6.071358e-01 1.901235e+00 1.778555e+00 1.309859e+00 9.857507e-01 1.450189e+00 7.900422e-01 5.957236e-01 2.016355e+00 7.935115e-01 1.173810e+00 1.000000e-02 6.964746e-02 1.509755e-01 3.190360e-01 1.734366e-01 3.787874e-01 9.802562e-02 1.632588e-01 2.404981e-01 5.679912e-02 4.810309e-01 1.327711e-01 1.962843e-01 1.000000e-02
<GCONST> 6.693095e+01
<STATE> 18
<MEAN> 39
 -1.718259e+00 -1.475627e+01 -3.594357e+00 -7.082027e+00 -7.693856e+00 -1.131645e-01 1.224836e+01 -1.454902e+00 -8.349197e-01 -2.773697e+00 -4.074177e-01 -3.863773e+00 2.291692e-01 1.676098e-02 9.193854e-01 3.970152e-01 4.385004e-01 1.173223e+00 -3.108992e-01 -3.264961e-01 -3.068300e-02 -1.218264e-01 -6.708102e-02 4.101426e-01 2.401429e-01 -1.314673e-02 2.284731e-02 1.570192e-02 1.771722e-01 6.372076e-03 -6.221439e-02 -5.403067e-02 -3.965121e-01 2.020854e-02 3.023376e-01 1.212812e-01 -1.790457e-01 -4.122667e-03 2.019036e-03
<VARIANCE> 39
 6.337356e+00 9.622211e+00 1.338493e+01 4.732378e+00 2.239160e+01 2.378884e+00 9.068601e+00 2.395442e+01 5.680489e+00 1.641219e+01 4.625809e+00 5.265656e+00 1.461105e-02 1.716966e-01 6.640155e-01 4.777427e-01 7.847758e-01 1.830452e+00 6.092726e-01 9.366454e-01 6.912358e-01 6.958104e-01 1.502965e+00 5.773864e-01 6.552403e-01 1.000000e-02 3.674112e-02 6.274585e-02 1.258071e-01 2.089930e-01 2.522776e-01 1.161855e-01 1.639202e-01 1.527605e-01 1.832318e-01 3.798274e-01 2.358540e-01 1.531263e-01 1.000000e-02
<GCONST> 5.626470e+01
<STATE> 19
<MEAN> 39
 -4.740879e-01 -1.294923e+01 -2.453525e+00 -7.010506e+00 -9.453436e+00 -5.442907e+00 8.245427e+00 -3.695670e-01 2.094839e+00 -1.426754e+00 9.453307e-02 -2.398987e+00 2.676059e-01 -2.461625e-01 6.029406e-01 8.490842e-01 7.809542e-01 6.190236e-01 -4.325254e-01 -1.270176e+00 4.484876e-01 8.285756e-01 -2.660244e-01 -6.794461e-01 9.274980e-02 -2.177105e-02 -1.335322e-01 -5.632333e-02 1.231767e-01 2.581006e-01 6.367115e-02 2.740515e-01 6.521057e-02 -1.939654e-01 -7.476775e-02 6.888959e-02 -2.335787e-01 -2.454456e-01 -4.928190e-03
<VARIANCE> 39
 1.748076e+00 8.151952e+00 1.136411e+01 1.185652e+01 1.320098e+01 1.057440e+01 2.219484e+01 1.377743e+01 2.878347e+00 1.234742e+01 2.117112e+00 3.568993e+00 1.000000e-02 5.840151e-01 5.000754e-01 9.633073e-01 1.149993e+00 2.828602e-01 8.524687e-01 1.029378e+00 1.815502e+00 9.471748e-01 1.677076e+00 5.719509e-01 1.343985e+00 1.000000e-02 3.083862e-02 1.457183e-01 1.855352e-01 2.144351e-01 3.909924e-01 9.761177e-02 2.559035e-01 9.454259e-02 9.303158e-02 3.025757e-01 1.085036e-01 1.438610e-01 1.000000e-02
<GCONST> 5.660366e+01
<STATE> 20
<MEAN> 39
 -2.378708e+00 -1.098044e+01 8.316711e-02 -3.554450e+00 -4.481393e+00 -2.527007e+00 7.396647e+00 -1.366496e-01 2.126825e+00 -1.221146e+00 -2.280774e+00 -4.509974e+00 1.786040e-01 -8.264604e-01 4.155433e-01 2.924745e-01 5.289606e-01 6.311026e-01 1.143870e-01 -1.064888e-01 -1.098127e-01 -2.881938e-01 -1.329082e-01 5.513575e-02 4.020734e-01 -3.392030e-02 -1.082188e-01 -1.451886e-01 -2.000314e-01 -3.233323e-01 -2.345418e-01 1.747299e-02 1.211541e-01 -2.349557e-01 -1.484762e-01 -2.412396e-02 3.962584e-01 3.064635e-01 3.216425e-04
<VARIANCE> 39
 5.255863e+00 5.777472e+00 4.578030e+00 5.669348e+00 7.271072e+00 1.266429e+01 6.500507e+00 2.040399e+01 1.030575e+01 5.491439e+00 5.994689e+00 7.205837e+00 1.000000e-02 5.510130e-01 6.391450e-01 7.677745e-01 8.261436e-01 2.125710e+00 7.786143e-01 7.983040e-01 1.153770e+00 8.181189e-01 1.139836e+00 9.692079e-01 1.516984e+00 1.000000e-02 1.056597e-01 8.388181e-02 1.591661e-01 1.349536e-01 2.399298e-01 1.929360e-01 1.209280e-01 4.537124e-01 2.618564e-01 2.666137e-01 1.099159e-01 2.511752e-01 1.000000e-02
<GCONST> 6.018797e+01
<STATE> 21
<MEAN> 39
 -5.200731e+00 -1.062066e+01 -8.818243e-01 -4.115914e+00 -3.874623e+00 -2.075842e+00 7.811019e+00 -1.231119e+00 5.781998e-01 -2.481906e+00 3.381345e-01 -9.750911e-01 7.893579e-02 -6.281160e-01 5.807782e-02 4.035290e-03 -4.222515e-01 3.435565e-01 3.382537e-01 -2.462726e-01 -1.199240e-01 5.278991e-01 4.478768e-01 6.195334e-01 4.556725e-01 -1.291520e-02 2.487928e-01 -1.455902e-02 5.615887e-02 1.649911e-02 1.113800e-01 1.147405e-02 -1.284525e-01 1.489750e-01 2.625411e-01 1.410002e-01 -1.706624e-01 -4.451362e-01 9.270702e-03
<VARIANCE> 39
 2.281064e+00 3.036706e+00 1.035504e+01 4.001756e+00 1.126782e+01 6.567647e+00 7.365451e+00 2.185855e+01 9.490018e+00 1.235767e+01 6.306321e+00 5.467927e+00 1.000000e-02 2.112422e-01 2.223546e-01 9.196577e-01 4.672675e-01 8.968874e-01 1.222705e+00 9.969380e-01 2.988275e+00 1.602300e+00 1.249934e+00 1.176559e+00 1.430525e+00 1.000000e-02 5.283618e-02 4.743795e-02 1.217041e-01 7.917163e-02 3.279323e-01 1.255423e-01 7.707689e-02 2.921891e-01 3.258704e-01 2.780472e-01 1.794231e-01 1.496322e-01 1.000000e-02
<GCONST> 5.607462e+01
<TRANSP> 22
 0.000000e+00 1.000000e+00 0.000000e+00 0.000000e+00 0.000000e+00 0.000000e+00 0.000000e+00 0.000000e+00 0.000000e+00 0.000000e+00 0.000000e+00 0.000000e+00 0.000000e+00 0.000000e+00 0.000000e+00 0.000000e+00 0.000000e+00 0.000000e+00 0.000000e+00 0.000000e+00 0.000000e+00 0.000000e+00
 0.000000e+00 7.058824e-01 2.941177e-01 0.000000e+00 0.000000e+00 0.000000e+00 0.000000e+00 0.000000e+00 0.000000e+00 0.000000e+00 0.000000e+00 0.000000e+00 0.000000e+00 0.000000e+00 0.000000e+00 0.000000e+00 0.000000e+00 0.000000e+00 0.000000e+00 0.000000e+00 0.000000e+00 0.000000e+00
 0.000000e+00 0.000000e+00 6.428571e-01 3.571429e-01 0.000000e+00 0.000000e+00 0.000000e+00 0.000000e+00 0.000000e+00 0.000000e+00 0.000000e+00 0.000000e+00 0.000000e+00 0.000000e+00 0.000000e+00 0.000000e+00 0.000000e+00 0.000000e+00 0.000000e+00 0.000000e+00 0.000000e+00 0.000000e+00
 0.000000e+00 0.000000e+00 0.000000e+00 5.833333e-01 4.166667e-01 0.000000e+00 0.000000e+00 0.000000e+00 0.000000e+00 0.000000e+00 0.000000e+00 0.000000e+00 0.000000e+00 0.000000e+00 0.000000e+00 0.000000e+00 0.000000e+00 0.000000e+00 0.000000e+00 0.000000e+00 0.000000e+00 0.000000e+00
 0.000000e+00 0.000000e+00 0.000000e+00 0.000000e+00 5.454546e-01 4.545455e-01 0.000000e+00 0.000000e+00 0.000000e+00 0.000000e+00 0.000000e+00 0.000000e+00 0.000000e+00 0.000000e+00 0.000000e+00 0.000000e+00 0.000000e+00 0.000000e+00 0.000000e+00 0.000000e+00 0.000000e+00 0.000000e+00
 0.000000e+00 0.000000e+00 0.000000e+00 0.000000e+00 0.000000e+00 6.428571e-01 3.571429e-01 0.000000e+00 0.000000e+00 0.000000e+00 0.000000e+00 0.000000e+00 0.000000e+00 0.000000e+00 0.000000e+00 0.000000e+00 0.000000e+00 0.000000e+00 0.000000e+00 0.000000e+00 0.000000e+00 0.000000e+00
 0.000000e+00 0.000000e+00 0.000000e+00 0.000000e+00 0.000000e+00 0.000000e+00 7.222222e-01 2.777778e-01 0.000000e+00 0.000000e+00 0.000000e+00 0.000000e+00 0.000000e+00 0.000000e+00 0.000000e+00 0.000000e+00 0.000000e+00 0.000000e+00 0.000000e+00 0.000000e+00 0.000000e+00 0.000000e+00
 0.000000e+00 0.000000e+00 0.000000e+00 0.000000e+00 0.000000e+00 0.000000e+00 0.000000e+00 5.833333e-01 4.166667e-01 0.000000e+00 0.000000e+00 0.000000e+00 0.000000e+00 0.000000e+00 0.000000e+00 0.000000e+00 0.000000e+00 0.000000e+00 0.000000e+00 0.000000e+00 0.000000e+00 0.000000e+00
 0.000000e+00 0.000000e+00 0.000000e+00 0.000000e+00 0.000000e+00 0.000000e+00 0.000000e+00 0.000000e+00 6.428571e-01 3.571429e-01 0.000000e+00 0.000000e+00 0.000000e+00 0.000000e+00 0.000000e+00 0.000000e+00 0.000000e+00 0.000000e+00 0.000000e+00 0.000000e+00 0.000000e+00 0.000000e+00
 0.000000e+00 0.000000e+00 0.000000e+00 0.000000e+00 0.000000e+00 0.000000e+00 0.000000e+00 0.000000e+00 0.000000e+00 5.454546e-01 4.545455e-01 0.000000e+00 0.000000e+00 0.000000e+00 0.000000e+00 0.000000e+00 0.000000e+00 0.000000e+00 0.000000e+00 0.000000e+00 0.000000e+00 0.000000e+00
 0.000000e+00 0.000000e+00 0.000000e+00 0.000000e+00 0.000000e+00 0.000000e+00 0.000000e+00 0.000000e+00 0.000000e+00 0.000000e+00 7.619048e-01 2.380952e-01 0.000000e+00 0.000000e+00 0.000000e+00 0.000000e+00 0.000000e+00 0.000000e+00 0.000000e+00 0.000000e+00 0.000000e+00 0.000000e+00
 0.000000e+00 0.000000e+00 0.000000e+00 0.000000e+00 0.000000e+00 0.000000e+00 0.000000e+00 0.000000e+00 0.000000e+00 0.000000e+00 0.000000e+00 6.153846e-01 3.846154e-01 0.000000e+00 0.000000e+00 0.000000e+00 0.000000e+00 0.000000e+00 0.000000e+00 0.000000e+00 0.000000e+00 0.000000e+00
 0.000000e+00 0.000000e+00 0.000000e+00 0.000000e+00 0.000000e+00 0.000000e+00 0.000000e+00 0.000000e+00 0.000000e+00 0.000000e+00 0.000000e+00 0.000000e+00 5.000000e-01 5.000000e-01 0.000000e+00 0.000000e+00 0.000000e+00 0.000000e+00 0.000000e+00 0.000000e+00 0.000000e+00 0.000000e+00
 0.000000e+00 0.000000e+00 0.000000e+00 0.000000e+00 0.000000e+00 0.000000e+00 0.000000e+00 0.000000e+00 0.000000e+00 0.000000e+00 0.000000e+00 0.000000e+00 0.000000e+00 5.454546e-01 4.545455e-01 0.000000e+00 0.000000e+00 0.000000e+00 0.000000e+00 0.000000e+00 0.000000e+00 0.000000e+00
 0.000000e+00 0.000000e+00 0.000000e+00 0.000000e+00 0.000000e+00 0.000000e+00 0.000000e+00 0.000000e+00 0.000000e+00 0.000000e+00 0.000000e+00 0.000000e+00 0.000000e+00 0.000000e+00 6.153846e-01 3.846154e-01 0.000000e+00 0.000000e+00 0.000000e+00 0.000000e+00 0.000000e+00 0.000000e+00
 0.000000e+00 0.000000e+00 0.000000e+00 0.000000e+00 0.000000e+00 0.000000e+00 0.000000e+00 0.000000e+00 0.000000e+00 0.000000e+00 0.000000e+00 0.000000e+00 0.000000e+00 0.000000e+00 0.000000e+00 7.222222e-01 2.777778e-01 0.000000e+00 0.000000e+00 0.000000e+00 0.000000e+00 0.000000e+00
 0.000000e+00 0.000000e+00 0.000000e+00 0.000000e+00 0.000000e+00 0.000000e+00 0.000000e+00 0.000000e+00 0.000000e+00 0.000000e+00 0.000000e+00 0.000000e+00 0.000000e+00 0.000000e+00 0.000000e+00 0.000000e+00 6.428571e-01 3.571429e-01 0.000000e+00 0.000000e+00 0.000000e+00 0.000000e+00
 0.000000e+00 0.000000e+00 0.000000e+00 0.000000e+00 0.000000e+00 0.000000e+00 0.000000e+00 0.000000e+00 0.000000e+00 0.000000e+00 0.000000e+00 0.000000e+00 0.000000e+00 0.000000e+00 0.000000e+00 0.000000e+00 0.000000e+00 6.875000e-01 3.125000e-01 0.000000e+00 0.000000e+00 0.000000e+00
 0.000000e+00 0.000000e+00 0.000000e+00 0.000000e+00 0.000000e+00 0.000000e+00 0.000000e+00 0.000000e+00 0.000000e+00 0.000000e+00 0.000000e+00 0.000000e+00 0.000000e+00 0.000000e+00 0.000000e+00 0.000000e+00 0.000000e+00 0.000000e+00 4.444444e-01 5.555556e-01 0.000000e+00 0.000000e+00
 0.000000e+00 0.000000e+00 0.000000e+00 0.000000e+00 0.000000e+00 0.000000e+00 0.000000e+00 0.000000e+00 0.000000e+00 0.000000e+00 0.000000e+00 0.000000e+00 0.000000e+00 0.000000e+00 0.000000e+00 0.000000e+00 0.000000e+00 0.000000e+00 0.000000e+00 6.875000e-01 3.125000e-01 0.000000e+00
 0.000000e+00 0.000000e+00 0.000000e+00 0.000000e+00 0.000000e+00 0.000000e+00 0.000000e+00 0.000000e+00 0.000000e+00 0.000000e+00 0.000000e+00 0.000000e+00 0.000000e+00 0.000000e+00 0.000000e+00 0.000000e+00 0.000000e+00 0.000000e+00 0.000000e+00 0.000000e+00 5.454546e-01 4.545455e-01
 0.000000e+00 0.000000e+00 0.000000e+00 0.000000e+00 0.000000e+00 0.000000e+00 0.000000e+00 0.000000e+00 0.000000e+00 0.000000e+00 0.000000e+00 0.000000e+00 0.000000e+00 0.000000e+00 0.000000e+00 0.000000e+00 0.000000e+00 0.000000e+00 0.000000e+00 0.000000e+00 0.000000e+00 0.000000e+00
<ENDHMM>
