~o
<STREAMINFO> 1 39
<VECSIZE> 39<NULLD><MFCC_E_D_A><DIAGC>
~h "Lai"
<BEGINHMM>
<NUMSTATES> 35
<STATE> 2
<MEAN> 39
 -6.084506e+00 -8.965084e+00 -1.150846e+00 -8.933737e-01 1.222272e+00 -4.255214e+00 1.195584e+00 -1.278775e+00 7.288346e-01 -1.020727e+00 3.913637e+00 4.221812e-01 -4.027345e-02 -4.105694e-01 1.259876e-01 -4.416639e-01 2.789279e-01 -2.609355e-01 -3.275550e-01 7.286549e-03 4.050783e-01 4.087599e-01 -4.289401e-01 -3.381770e-01 8.758824e-02 2.799893e-03 3.277101e-01 1.104833e-01 -7.683919e-01 -1.675451e-01 -4.699940e-01 -7.096742e-01 -1.301658e-01 1.928263e-01 1.557598e-01 -5.660503e-01 -2.794706e-01 -3.707832e-01 2.558758e-02
<VARIANCE> 39
 3.797617e+00 2.285126e+00 6.572854e+00 2.864345e+00 9.632569e+00 1.230590e+01 4.898434e+00 5.485237e+00 1.556745e+01 1.082524e+01 1.314984e+01 8.542371e+00 1.636126e-02 5.228258e-01 5.885909e-01 4.541839e-01 1.383683e+00 1.853994e+00 5.813143e-01 1.431060e+00 8.329604e-01 2.624432e+00 9.124333e-01 8.121163e-01 2.323396e+00 1.000000e-02 1.617441e-01 1.057483e-01 5.370007e-01 3.429351e-01 7.390918e-01 2.206637e-01 1.951079e-01 2.824272e-01 5.107577e-01 2.027152e-01 6.387458e-01 2.189593e-01 1.000000e-02
<GCONST> 6.677313e+01
<STATE> 3
<MEAN> 39
 -7.362111e+00 -6.920490e+00 -3.987640e+00 -1.021807e+00 6.449887e-01 -7.138337e+00 2.535301e+00 -1.313218e+00 1.185294e+00 -4.028634e+00 3.663709e+00 -9.916078e-01 -2.414633e-02 1.203946e+00 -1.839764e-02 -2.401909e+00 -5.044305e-01 -1.818503e+00 -2.613696e+00 -9.824094e-01 9.639388e-01 4.341576e-01 -1.797279e+00 -5.989231e-01 -5.048712e-01 8.317415e-02 5.312675e-01 -3.595774e-01 -3.070009e-01 -6.384943e-02 -4.004357e-01 -2.489534e-01 -1.625341e-01 -9.108942e-02 2.985912e-01 -2.750922e-02 -2.542036e-01 1.900526e-01 3.188424e-02
<VARIANCE> 39
 1.462796e+01 4.581229e+00 1.099496e+01 1.023872e+01 1.467882e+01 3.164634e+01 2.084817e+01 1.398006e+01 1.822200e+01 1.462908e+01 9.410185e+00 1.760546e+01 1.781677e-02 1.955017e+00 9.732774e-01 5.589843e+00 1.742058e+00 3.956614e+00 1.812639e+00 2.357031e+00 2.452929e+00 1.424924e+00 1.277367e+00 3.928223e+00 7.591047e-01 1.000000e-02 2.223002e-01 8.959434e-02 8.182967e-01 2.835639e-01 1.251945e-01 9.403810e-01 5.028450e-01 3.394175e-01 8.114443e-01 1.374773e-01 1.857355e-01 4.043266e-01 1.000000e-02
<GCONST> 8.414846e+01
<STATE> 4
<MEAN> 39
 2.652477e-01 -1.079797e+01 -1.321142e+01 -4.008410e+00 -6.832777e+00 -1.380449e+01 -3.819420e+00 4.522582e+00 3.680455e+00 -8.325015e+00 -9.804847e-01 -8.639486e-01 3.845207e-01 1.688115e+00 -1.135862e+00 -3.269503e+00 -4.246213e-02 -2.113711e+00 -2.480323e+00 -6.750016e-01 -5.404509e-01 2.371308e+00 -8.353965e-01 -1.262010e+00 7.803582e-01 1.519833e-01 -7.459281e-01 -3.368787e-01 4.732799e-01 2.974715e-01 7.931283e-01 1.218227e+00 1.133115e+00 -8.300095e-01 -2.215065e-01 2.991216e-01 -2.639939e-02 4.302166e-01 -2.486650e-03
<VARIANCE> 39
 2.920123e+01 8.245252e+00 3.813398e+01 1.638643e+01 3.079836e+01 1.648319e+01 2.634336e+01 1.673199e+01 1.361204e+01 1.957474e+01 2.558793e+01 5.607194e+00 6.567041e-02 1.492126e+00 3.284245e-01 8.990069e+00 1.020444e+00 2.181013e+00 4.562153e+00 2.379869e+00 2.508769e+00 5.141443e+00 5.327641e-01 5.103793e-01 1.161474e+00 1.000000e-02 3.792165e-01 2.929293e-01 4.129781e-01 3.667339e-01 5.565609e-01 9.316065e-01 5.862018e-01 1.875637e-01 5.638179e-01 3.603846e-01 7.255024e-01 4.201594e-01 1.000000e-02
<GCONST> 9.087604e+01
<STATE> 5
<MEAN> 39
 -9.353755e-01 -1.071166e+01 -1.227991e+01 -1.703039e+00 -6.660410e+00 -1.542945e+01 -5.906468e-01 -2.060928e+00 7.093546e+00 -7.569909e+00 3.429803e-01 2.416425e+00 5.328130e-01 -6.893515e-01 -1.841693e+00 -1.710786e+00 2.205671e-02 -2.847979e-01 1.763000e+00 2.405680e+00 -1.212660e+00 -5.653238e-03 -8.271092e-01 -1.837958e+00 1.174975e+00 1.091804e-01 -7.638371e-01 -3.033214e-01 9.998368e-02 -6.137760e-02 9.350957e-01 1.521605e+00 8.011219e-01 1.186987e-01 -9.757403e-01 -7.013803e-02 7.770238e-03 -1.424831e-01 -2.039014e-02
<VARIANCE> 39
 2.803372e+01 2.148457e+01 9.326311e+01 1.860707e+01 5.200203e+01 2.837427e+01 6.723029e+00 2.336928e+01 4.645898e+01 1.713019e+01 1.529717e+01 1.053290e+01 8.583252e-02 2.819546e+00 2.989270e+00 3.056055e+00 1.329447e+00 1.276103e+00 5.000726e+00 3.675980e+00 1.281746e+00 5.788486e+00 2.199723e+00 1.752174e+00 2.808764e+00 1.000000e-02 2.041007e-01 4.098315e-01 1.029288e+00 2.655438e-01 8.718568e-01 1.064049e+00 1.451610e-01 1.769872e-01 8.940346e-01 1.412883e-01 4.758433e-01 3.028954e-01 1.000000e-02
<GCONST> 9.754037e+01
<STATE> 6
<MEAN> 39
 -4.977035e+00 -1.536824e+01 -1.663119e+01 -2.029211e+00 -6.093846e+00 -5.545665e+00 6.450181e+00 -1.597139e+00 4.186100e+00 -1.134305e+01 -5.949297e+00 1.926172e+00 6.481949e-01 -1.290037e+00 -2.120132e+00 -1.329903e+00 -1.776415e-01 1.864996e+00 3.800085e+00 2.263424e+00 5.247232e-01 -1.949353e+00 -1.408597e+00 -7.379588e-01 9.078854e-02 4.586300e-02 6.111589e-02 1.614859e-01 3.577334e-01 8.467312e-02 9.061847e-01 -2.780221e-01 -7.410253e-01 1.767127e-01 -3.461722e-01 5.369338e-01 5.946828e-01 -2.843787e-01 -2.160424e-02
<VARIANCE> 39
 1.622812e+01 1.984355e+01 7.981580e+01 6.450427e-01 3.155572e+01 3.355923e+01 1.381750e+01 3.093816e+01 3.974775e+01 2.332591e+01 2.149617e+01 3.886851e+01 1.329093e-01 1.115966e+00 1.991193e+00 1.059599e+00 1.336454e+00 4.715767e+00 6.109362e+00 1.556522e+00 4.217083e-01 1.745104e+00 7.197657e-01 2.729902e+00 1.167334e+00 1.000000e-02 2.512183e-01 1.494146e-01 1.651243e-01 4.234700e-02 2.807873e-01 1.339887e+00 5.857070e-01 3.593875e-01 6.270468e-01 3.518988e-01 2.309150e-01 9.021403e-01 1.000000e-02
<GCONST> 8.835988e+01
<STATE> 7
<MEAN> 39
 -5.660161e+00 -1.939076e+01 -2.089360e+01 -2.299568e+00 -6.478447e-01 -2.202477e+00 8.118843e+00 -1.426320e+00 7.833339e-01 -1.269841e+01 -3.955783e+00 3.861627e+00 8.295273e-01 -8.167558e-01 -1.118345e+00 -4.448527e-01 2.186340e-01 3.435074e+00 1.294218e+00 1.716351e-01 -1.144145e+00 -1.269747e+00 1.551564e+00 5.436218e-01 -5.953853e-02 2.822272e-02 2.359927e-01 5.669010e-01 4.873690e-01 8.278101e-03 -3.838586e-02 -1.059268e+00 -6.532379e-01 -5.435768e-01 7.019469e-01 9.521626e-01 1.180800e-01 -2.177158e-01 -1.437136e-02
<VARIANCE> 39
 1.816155e+01 2.303603e+01 6.022846e+01 6.914447e+00 1.592144e+01 3.416490e+01 1.783421e+01 2.813896e+01 3.849313e+01 1.606222e+01 1.253805e+01 9.766382e+00 9.892412e-02 1.925863e-01 6.980854e-01 5.106957e-01 1.310414e+00 2.206169e+00 4.366623e+00 2.459013e+00 1.287615e+00 5.527595e-01 1.376213e+00 9.511573e-01 3.246316e+00 1.000000e-02 5.931136e-02 3.970847e-01 1.767209e-01 1.032595e-01 4.097091e-01 3.789805e-01 1.545196e-01 1.790248e-01 3.367452e-01 1.845261e-01 3.952284e-01 1.841060e-01 1.000000e-02
<GCONST> 7.923546e+01
<STATE> 8
<MEAN> 39
 -5.863080e+00 -1.856131e+01 -1.629804e+01 -1.876973e+00 4.885300e+00 -3.436223e+00 7.223267e+00 -4.569466e+00 -7.976187e-01 -5.994512e+00 -2.468014e+00 1.970551e+00 6.682832e-01 -4.413661e-01 -2.148140e-01 -2.647006e-03 -2.664235e-02 1.479033e+00 -1.509586e-02 1.032290e-01 -1.272728e+00 7.759579e-01 1.276004e+00 -3.349881e-01 -3.796530e-01 1.200137e-02 4.859962e-02 2.336187e-01 -3.118291e-03 -1.336127e-02 -7.620704e-01 -4.383247e-02 -1.568025e-01 1.383006e-01 7.267449e-01 -3.344429e-01 -1.763974e-01 -5.866996e-02 -5.366379e-03
<VARIANCE> 39
 1.500353e+01 4.778021e+01 1.162607e+02 1.724465e+01 9.403297e+00 2.978915e+01 2.149681e+01 3.085435e+01 2.432829e+01 1.828371e+01 1.938781e+01 4.932098e+00 2.097990e-01 1.800323e-01 6.661863e-01 2.298131e-01 1.251547e+00 1.854145e+00 2.916191e-01 1.666071e-01 2.602351e+00 1.367103e+00 1.626606e+00 5.434709e-01 7.567878e-01 1.000000e-02 2.023949e-02 7.947521e-02 5.572882e-02 1.301272e-01 2.016740e-01 3.201707e-01 1.303606e-01 1.624026e-01 1.149812e-01 1.966403e-01 1.443969e-01 1.766149e-01 1.000000e-02
<GCONST> 6.755476e+01
<STATE> 9
<MEAN> 39
 -7.630239e+00 -1.954419e+01 -1.968485e+01 -1.859177e+00 6.177078e+00 -2.510458e+00 7.743681e+00 -6.403162e+00 3.472380e+00 -6.159449e+00 -5.428280e+00 1.623316e+00 7.854006e-01 -5.349291e-01 -3.889115e-03 -2.126125e-01 2.137595e-01 1.216827e-01 8.173469e-01 -2.736910e-01 -3.147568e-01 1.359917e+00 4.283237e-01 -1.798453e-01 -6.947264e-02 -1.450099e-03 2.027671e-01 7.349593e-02 9.714860e-02 -3.683630e-03 -4.079698e-01 1.334788e-02 -2.215428e-01 4.880270e-01 -1.005264e-01 -3.726889e-01 2.046837e-01 2.427934e-01 2.425489e-03
<VARIANCE> 39
 1.844555e+01 3.433900e+01 8.997069e+01 2.142880e+01 1.110027e+01 2.886961e+01 2.441776e+01 2.301700e+01 1.448117e+01 1.166188e+01 1.552683e+01 8.537935e+00 1.600888e-01 2.400456e-01 2.802036e-01 1.632402e-01 3.225241e-01 4.072988e-01 7.363521e-01 6.388702e-01 1.385279e+00 8.418323e-01 1.396008e+00 4.487769e-01 3.500840e-01 1.000000e-02 1.663827e-01 5.793143e-02 9.883615e-02 3.031438e-01 8.515315e-02 2.063982e-01 1.159699e-01 1.449622e-01 1.370022e-01 2.243635e-01 1.765860e-02 1.745898e-01 1.000000e-02
<GCONST> 6.256785e+01
<STATE> 10
<MEAN> 39
 -9.315628e+00 -1.932642e+01 -1.717385e+01 -1.762494e+00 5.807925e+00 1.487798e+00 5.252277e+00 -6.976366e+00 5.926320e+00 -5.812543e+00 -3.740651e+00 1.710451e+00 7.875443e-01 3.907882e-01 -9.207660e-02 3.135794e-03 1.221398e-01 -6.352396e-02 -1.530211e-01 -8.687956e-01 3.640119e-02 5.423923e-01 -3.575347e-02 1.530281e-01 2.974585e-01 2.011481e-02 2.023232e-01 -2.112403e-01 -3.504676e-01 -2.561987e-01 -6.667977e-02 -5.466812e-01 -1.073106e-01 -9.068334e-02 -1.912027e-01 -2.438686e-01 -1.734169e-02 5.623670e-02 8.776226e-03
<VARIANCE> 39
 1.760232e+01 3.329270e+01 6.847668e+01 9.772404e+00 1.303418e+01 1.123134e+01 6.899098e+00 1.910424e+01 1.262626e+01 1.102612e+01 2.332588e+01 6.386290e+00 1.481954e-01 2.450906e+00 3.556223e-01 1.481574e+00 1.100095e+00 1.130899e+00 2.587545e+00 3.318375e-01 1.375696e+00 2.294848e-01 2.684800e-01 2.079312e-02 4.373683e-01 1.000000e-02 1.839957e-01 9.609488e-02 3.221452e-01 1.518426e-01 1.137347e-01 2.403329e-01 6.053162e-02 2.173380e-01 1.562340e-01 1.153109e-01 5.186488e-02 7.912447e-02 1.000000e-02
<GCONST> 6.190226e+01
<STATE> 11
<MEAN> 39
 -4.203809e+00 -1.999278e+01 -2.081250e+01 -2.508579e+00 3.858381e+00 -5.583747e+00 4.586339e+00 -4.178875e+00 5.080183e+00 -6.128313e+00 -4.434468e+00 2.545941e+00 8.504710e-01 3.146812e-01 -5.805824e-01 -1.483188e+00 -8.631479e-01 1.810901e-01 -1.746545e+00 -1.004745e+00 -1.281856e-01 3.392638e-01 -7.277668e-01 -7.052189e-02 -6.838470e-02 4.799946e-02 -2.287243e-01 5.360132e-02 -2.622056e-01 2.877066e-01 1.701264e-01 3.025461e-01 2.878073e-01 -9.243620e-02 -4.467029e-01 -1.429373e-01 -2.363622e-01 -2.107703e-01 -6.375943e-03
<VARIANCE> 39
 5.790147e+01 2.576329e+01 4.509532e+01 1.324024e+01 6.830603e+01 8.606673e+01 1.309969e+01 8.411077e+01 2.139228e+01 4.646133e+00 2.597354e+01 7.264830e-01 3.165181e-02 3.579051e+00 1.321531e+00 7.841199e+00 2.120017e+00 2.600329e+00 5.570447e+00 3.207937e-01 1.381976e+00 8.302849e-01 1.318549e+00 6.487740e-01 9.257730e-01 1.000000e-02 3.158681e-01 9.824116e-02 1.438928e-01 2.155326e-01 2.980967e-01 9.537845e-01 9.265419e-02 5.331567e-01 3.074409e-01 3.213734e-01 1.954981e-01 7.520576e-02 1.000000e-02
<GCONST> 8.399330e+01
<STATE> 12
<MEAN> 39
 -5.611848e+00 -1.989170e+01 -2.363215e+01 -1.532679e+00 6.410532e+00 -6.011815e+00 3.355703e+00 -6.080123e+00 5.006930e+00 -6.933258e+00 -4.180034e+00 2.519750e+00 8.837652e-01 -1.686712e-01 -3.468996e-01 -1.374817e+00 6.298969e-01 5.979335e-02 7.642789e-01 -5.485468e-02 -4.546278e-01 -6.947996e-01 -6.161297e-01 -7.603474e-01 -2.285132e-01 1.483410e-02 -8.639647e-02 -1.013594e-01 4.032775e-01 2.022571e-01 -1.298405e-01 8.426604e-01 4.076279e-01 3.782967e-02 -2.491751e-01 2.137991e-01 -1.662287e-01 -6.031359e-02 -4.538289e-03
<VARIANCE> 39
 5.834551e+01 1.574194e+01 1.052205e+01 1.394610e+01 6.562480e+01 1.196733e+02 6.942745e+00 4.319334e+01 1.904766e+01 2.095926e+01 2.157248e+01 1.241808e+01 1.308390e-02 2.545173e-01 1.140239e+00 3.128401e+00 1.692851e+00 1.376995e+00 3.029403e+00 9.065048e-01 1.556110e+00 2.474844e+00 2.746800e+00 2.422234e+00 3.403671e-01 1.000000e-02 2.937076e-01 8.107004e-02 5.459150e-01 1.978726e-01 3.590014e-01 1.052899e+00 1.474132e-01 3.685146e-01 1.501388e-01 1.350839e-01 1.264612e-01 1.212877e-01 1.000000e-02
<GCONST> 8.219557e+01
<STATE> 13
<MEAN> 39
 -5.004189e+00 -2.194346e+01 -2.476753e+01 -9.642040e-01 2.637055e+00 -1.414058e+00 4.588195e+00 -7.947803e+00 3.590174e+00 -9.477345e+00 -7.343006e+00 1.505852e+00 9.220071e-01 -7.742155e-02 -9.808598e-01 3.612440e-01 2.161295e-01 6.060365e-01 1.199056e+00 9.006806e-01 -3.886108e-01 -5.501623e-01 5.119755e-01 -2.663030e-01 8.526774e-02 1.926437e-02 9.146363e-03 1.923127e-01 5.226308e-01 -7.119542e-02 4.100690e-01 -3.988544e-01 3.225760e-01 2.386152e-01 9.999329e-02 3.930784e-01 3.829742e-01 1.776621e-01 -1.889344e-03
<VARIANCE> 39
 6.030450e+01 1.074104e+01 1.820753e+01 2.991477e+01 4.898383e+01 2.855959e+01 3.035630e+01 2.785199e+01 3.406781e+01 3.920150e+01 1.136220e+01 6.730584e+00 1.000000e-02 1.632407e-01 1.459622e+00 6.577606e-01 4.136746e-01 3.948907e+00 3.961083e+00 1.774596e+00 3.469102e+00 2.553389e-01 1.575107e+00 9.290940e-01 8.839437e-01 1.000000e-02 1.050990e-01 1.415650e-01 3.041551e-01 4.160112e-01 3.789341e-01 8.437441e-01 1.244921e-01 1.170323e-01 1.991739e-01 7.000659e-01 1.439218e-01 1.194133e-01 1.000000e-02
<GCONST> 7.919845e+01
<STATE> 14
<MEAN> 39
 -5.631265e+00 -2.323623e+01 -2.322480e+01 -5.019853e-01 8.590823e+00 -1.226458e+00 5.726067e+00 -6.237639e+00 1.479111e+00 -4.844324e+00 -6.996443e+00 2.378246e+00 9.578813e-01 -3.694262e-01 5.798391e-02 4.638511e-01 7.084069e-02 1.025057e+00 -6.099736e-02 9.929430e-01 2.753105e-01 -8.472271e-02 4.214762e-01 1.851726e-01 3.270776e-01 1.115992e-02 -2.271362e-01 3.127042e-01 -1.224867e-01 -2.812648e-02 -3.601376e-01 -2.783759e-01 1.727535e-01 -1.508230e-01 1.840494e-01 -7.042952e-01 1.832888e-01 -1.058753e-02 -1.462223e-03
<VARIANCE> 39
 4.773438e+01 4.587672e+00 1.102537e+01 1.438142e+01 2.193348e+01 6.845770e+01 4.291993e+01 7.481635e+00 3.406432e+01 1.438841e+01 7.293178e+00 8.893556e+00 1.000000e-02 6.489446e-01 6.171403e-01 1.324642e+00 1.198737e+00 3.618211e+00 1.299305e+00 6.930330e-01 1.377123e+00 3.299295e-01 1.805976e+00 4.040398e-01 4.947527e-01 1.000000e-02 4.156256e-02 9.576944e-02 1.696706e-02 4.252952e-02 3.970822e-01 3.628905e-01 2.377027e-01 4.431508e-02 3.674917e-01 2.294254e-01 5.113394e-02 1.904012e-01 1.000000e-02
<GCONST> 6.433458e+01
<STATE> 15
<MEAN> 39
 -9.442039e+00 -2.189584e+01 -2.146740e+01 -1.141403e+00 7.531296e+00 1.501136e-01 7.277701e+00 -8.374832e+00 4.791026e+00 -7.407940e+00 -5.785709e+00 3.086005e+00 9.748720e-01 -6.763895e-01 1.565821e-02 -1.977206e-02 -2.992167e-01 -8.976880e-01 -4.303191e-01 1.226932e+00 -1.487249e-01 -3.343484e-01 -1.318895e+00 5.709869e-01 2.494621e-01 4.016734e-03 -1.428441e-01 -2.303001e-01 3.896354e-02 -2.896982e-01 -5.352559e-01 -1.309808e-01 3.859245e-02 2.305782e-01 -2.078684e-01 -1.944703e-01 2.543998e-01 -1.056825e-01 -4.207970e-03
<VARIANCE> 39
 3.781929e+01 1.110882e+01 1.599094e+01 1.044479e+01 8.075473e+00 1.951767e+01 2.280322e+01 1.167537e+01 1.812193e+01 1.423641e+01 1.231136e+01 2.338576e+00 1.000000e-02 5.009455e-01 6.101007e-01 1.896946e-01 4.038349e-01 5.446429e-01 8.332700e-01 7.291724e-01 1.338280e+00 3.184326e+00 7.284949e-01 7.839021e-01 6.316963e-01 1.000000e-02 8.089115e-02 1.605233e-01 7.085859e-02 8.342171e-02 1.852000e-01 1.146378e-01 2.868425e-01 1.206555e-01 1.351699e-01 1.844334e-01 1.106270e-01 1.157829e-01 1.000000e-02
<GCONST> 5.940746e+01
<STATE> 16
<MEAN> 39
 -6.364199e+00 -2.301229e+01 -2.422224e+01 -2.437163e+00 9.898666e+00 -6.846531e+00 1.140579e+01 -8.959160e+00 8.333287e-01 -1.097833e+01 -1.798789e+00 1.182429e+00 9.794476e-01 -4.964131e-01 -8.075303e-02 6.853915e-01 -5.098500e-01 -7.233604e-01 -4.962071e-01 5.952010e-01 9.425080e-01 -7.040396e-01 -1.035195e-01 9.090338e-01 -8.816503e-02 -9.040066e-03 9.134649e-02 -4.167665e-02 2.181091e-01 -7.805526e-02 -3.743548e-01 -1.122144e-01 1.727290e-01 2.411129e-01 -2.130772e-02 2.655552e-01 -3.564393e-02 -1.341326e-01 -4.672422e-03
<VARIANCE> 39
 1.424729e+01 2.524570e+00 1.058815e+01 4.910302e+00 1.237912e+01 2.119211e+01 1.201983e+01 1.953716e+01 1.607440e+01 4.472930e+00 8.748774e+00 3.342962e+00 1.000000e-02 6.632622e-01 4.027095e-01 3.066272e-01 4.184347e-01 1.721732e+00 5.950820e-01 2.733673e+00 1.376947e+00 6.792185e-01 1.413912e+00 5.533361e-01 3.050302e-01 1.000000e-02 8.858344e-02 2.414072e-02 4.857740e-02 8.918824e-02 1.645814e-01 2.500578e-02 2.068998e-01 3.952553e-01 3.348103e-01 3.035806e-01 1.156946e-01 1.009936e-01 1.000000e-02
<GCONST> 5.390988e+01
<STATE> 17
<MEAN> 39
 -1.239527e+01 -2.406199e+01 -1.890378e+01 -5.040121e+00 1.246211e+00 -2.929523e+00 1.384277e+01 -3.799143e+00 -4.165337e-01 -9.496284e+00 2.488105e-01 2.684147e+00 9.245304e-01 -4.778100e-01 -2.420736e-01 1.374306e+00 -1.211879e+00 -3.210855e+00 -1.008987e+00 1.689366e+00 1.273940e+00 -2.946087e-01 3.968431e-01 5.822368e-01 -1.421238e+00 -2.679127e-02 8.669596e-02 4.073489e-01 2.253235e-01 -2.431416e-01 -2.238803e-01 -2.122594e-02 -3.147287e-01 -1.161467e-01 4.447412e-01 5.748120e-01 -4.929706e-01 -4.955559e-01 -4.635901e-03
<VARIANCE> 39
 1.313137e+01 3.522450e+00 9.430335e+00 8.239487e+00 1.577775e+01 2.594471e+01 1.092830e+01 1.084673e+01 1.975519e+01 4.071595e+00 4.211835e+00 9.532447e+00 1.000000e-02 1.144914e-01 1.704786e-01 8.638754e-02 2.028422e-01 4.102060e-01 8.503769e-02 2.587231e-01 2.490073e-01 4.035336e-01 6.663940e-01 1.411391e+00 5.617476e-01 1.000000e-02 1.060682e-02 2.700213e-02 2.510008e-02 4.560736e-02 1.197701e-01 6.275385e-02 6.203766e-02 6.330772e-02 9.802017e-02 1.358155e-01 5.499414e-02 9.569864e-02 1.000000e-02
<GCONST> 3.436714e+01
<STATE> 18
<MEAN> 39
 -1.352054e+01 -2.333587e+01 -1.490425e+01 -7.947987e+00 -6.575514e+00 -3.734611e+00 1.441625e+01 -1.708415e+00 1.191312e+00 -9.239961e+00 -2.700231e+00 -1.094968e+00 8.851715e-01 -1.325461e-01 1.009875e+00 1.645956e+00 -1.443380e+00 -2.478326e+00 -4.913951e-01 8.526340e-01 6.085420e-01 5.599381e-01 1.461764e+00 -3.816148e-01 -1.750201e+00 -2.820936e-02 -4.487979e-03 4.246683e-01 2.076144e-01 -7.905480e-02 3.170474e-01 -1.978081e-01 -7.617679e-01 -3.771509e-01 7.071998e-01 1.016231e+00 8.078656e-02 1.593657e-01 -2.046473e-03
<VARIANCE> 39
 9.720114e+00 3.532931e+00 8.839455e+00 1.018214e+01 1.167237e+01 2.162905e+01 1.275894e+01 7.226748e+00 1.119942e+01 2.821553e+00 1.904356e+01 1.275890e+01 1.000000e-02 8.498458e-02 3.149175e-01 8.355793e-02 1.015494e-01 5.046383e-01 5.889399e-01 5.026438e-01 9.879983e-01 8.644466e-01 1.577473e+00 2.702161e-01 1.900308e-01 1.000000e-02 2.121457e-02 4.569543e-02 1.375977e-02 3.327419e-02 1.000000e-02 1.014362e-01 5.378430e-02 5.128467e-02 1.117895e-01 1.450977e-01 2.181442e-01 2.527592e-01 1.000000e-02
<GCONST> 3.750304e+01
<STATE> 19
<MEAN> 39
 -1.058873e+01 -2.086712e+01 -1.432291e+01 -8.613323e+00 -5.722605e+00 -9.773439e+00 1.907288e+01 -2.198101e-01 2.059056e-01 -5.380453e+00 4.460511e-01 -4.121974e+00 8.121617e-01 -5.833912e-01 8.978367e-01 2.010245e+00 -1.792038e+00 -2.330660e+00 -1.432810e+00 -1.415869e+00 2.028355e-01 1.728606e+00 3.698437e+00 1.779638e-01 -8.268646e-01 -3.278311e-02 4.860727e-02 -3.590118e-03 1.808157e-01 -2.254113e-01 1.215232e-01 -2.652365e-01 -1.087617e+00 -4.683227e-01 2.850537e-01 7.533241e-01 1.995979e-01 5.862594e-01 2.308212e-03
<VARIANCE> 39
 1.433489e+01 1.023533e+00 1.749529e+01 1.244940e+01 1.804719e+01 6.852978e+01 1.151676e+01 2.112582e+01 8.929695e+00 9.988173e+00 7.407417e+00 4.481126e+00 1.000000e-02 6.637817e-02 4.947172e-01 8.403755e-02 1.762795e-01 4.928042e-01 4.184915e-01 1.624043e+00 3.314324e-01 5.726378e-01 3.889605e+00 3.967801e-01 1.039208e+00 1.000000e-02 1.880744e-02 2.063495e-02 3.274491e-02 6.011973e-02 8.955004e-02 1.796358e-01 7.188876e-02 3.358804e-01 1.474571e-01 3.433446e-01 5.520973e-02 5.381794e-02 1.000000e-02
<GCONST> 4.588725e+01
<STATE> 20
<MEAN> 39
 -1.403067e+01 -1.941055e+01 -8.598073e+00 -1.304043e+01 -1.308770e+01 -1.071797e+01 1.067963e+01 -9.167543e-01 6.764492e+00 5.054667e+00 1.022249e-01 -4.476080e+00 7.629940e-01 -4.058906e-02 9.148287e-01 2.211617e+00 -1.987708e+00 -2.027958e+00 -2.237046e+00 -2.474303e+00 -7.466868e-01 2.058138e+00 3.705060e+00 7.549094e-01 3.861358e-01 -2.268127e-02 6.466401e-01 -4.209830e-01 -4.682689e-01 4.069450e-01 6.858037e-01 2.378006e-01 -3.548753e-02 -4.016392e-01 -3.366976e-01 -9.259496e-01 -9.583748e-02 6.403991e-01 -1.813031e-03
<VARIANCE> 39
 9.716369e+00 3.217258e+00 1.231605e+01 7.238506e+00 7.489017e+00 3.217829e+01 1.546321e+01 1.320242e+01 2.711222e+01 3.440950e+01 1.075931e+01 1.081465e+01 1.000000e-02 2.609704e-01 1.772046e-01 2.214877e-01 6.188773e-01 4.972004e-01 5.003113e-01 2.922689e-01 2.784878e+00 1.042199e+00 1.286059e+00 7.332414e-01 4.346485e-01 1.000000e-02 5.765299e-02 5.733912e-02 5.983772e-02 2.186669e-01 8.539016e-02 2.232940e-01 2.525851e-01 3.025692e-01 4.171044e-01 5.902922e-01 4.561359e-02 1.842151e-01 1.000000e-02
<GCONST> 5.792375e+01
<STATE> 21
<MEAN> 39
 -1.286565e+01 -1.742829e+01 -5.528596e+00 -1.705631e+01 -1.600931e+01 -1.343844e+01 7.538146e+00 -3.871444e+00 8.324972e+00 8.009200e+00 1.388009e+00 -1.984965e+00 7.358294e-01 2.021028e+00 -3.795317e-01 2.140600e-01 -7.997462e-02 3.577620e-01 -3.088173e-01 -1.454988e+00 -1.343828e+00 1.742863e-01 3.930421e-01 -1.926513e-02 1.628476e+00 -4.085085e-02 8.836372e-01 -8.351815e-01 -5.983381e-01 1.317514e+00 1.050942e+00 1.294829e+00 5.122330e-01 -5.641924e-03 -7.414173e-01 -1.692256e+00 -2.862486e-01 1.758525e-01 -1.278743e-02
<VARIANCE> 39
 6.748019e+00 2.692384e+00 9.435946e+00 8.497366e+00 5.883228e+00 3.447062e+01 7.197372e+00 2.024904e+01 2.727230e+01 1.105909e+01 1.822703e+01 6.730425e+00 1.000000e-02 5.766809e-01 3.009639e-01 5.155052e-01 1.867562e+00 7.588133e-01 2.073858e+00 1.046114e+00 1.796130e+00 2.794956e+00 2.024473e+00 4.851894e-01 1.297964e+00 1.000000e-02 2.476640e-02 5.751182e-02 8.408114e-02 2.781794e-01 1.853547e-02 1.525946e-01 6.990601e-02 5.106577e-01 1.614060e-01 1.400454e-01 2.389238e-01 1.862401e-01 1.000000e-02
<GCONST> 6.011184e+01
<STATE> 22
<MEAN> 39
 -8.084278e+00 -2.019662e+01 -7.403575e+00 -1.490464e+01 -1.168810e+01 -1.189068e+01 5.237898e+00 -6.839551e+00 7.913703e+00 6.660374e+00 2.692111e-01 1.157299e+00 6.208278e-01 3.337245e+00 -2.209686e+00 -1.440079e-01 2.745881e+00 1.825591e+00 1.957124e+00 -5.141550e-01 -5.660502e-01 -5.246903e-01 -2.632278e+00 -4.341201e-01 8.960824e-01 -6.802442e-02 9.922061e-03 -3.641294e-01 5.523782e-03 8.481536e-01 3.227947e-01 7.964050e-01 4.153014e-01 4.075386e-01 -7.357828e-02 -6.761099e-01 -1.375677e-02 -3.712849e-01 -4.001798e-03
<VARIANCE> 39
 5.878391e+00 3.082317e+00 6.805145e+00 1.003957e+01 7.528821e+00 5.686201e+01 8.344133e+00 1.920396e+01 1.077283e+01 1.551644e+01 7.366102e+00 1.039676e+01 1.000000e-02 2.214595e-01 2.423530e-01 7.004650e-01 1.774232e+00 5.665302e-01 1.297733e+00 6.004389e-01 1.673809e+00 1.093213e+00 1.581878e+00 1.080433e+00 1.160005e+00 1.000000e-02 1.713667e-01 1.056198e-01 9.033119e-02 1.894722e-01 1.535180e-01 7.422285e-01 1.298984e-01 3.489027e-01 6.229827e-01 3.935752e-01 9.307146e-02 3.679295e-01 1.000000e-02
<GCONST> 6.521400e+01
<STATE> 23
<MEAN> 39
 -4.952008e-01 -2.538016e+01 -5.095729e+00 -5.563069e+00 -8.362928e+00 -5.712693e+00 5.349718e+00 -5.115383e+00 6.592360e+00 -1.219151e+00 -1.157230e+00 1.087544e+00 4.768894e-01 1.702485e+00 -1.657716e+00 1.488515e-01 2.759289e+00 1.661749e+00 2.557697e+00 2.382237e-01 1.339051e-01 -2.191846e-01 -2.061305e+00 -3.436937e-02 3.235593e-01 -5.545539e-02 -8.395705e-01 4.908006e-01 -2.322865e-01 -4.576551e-01 -3.596695e-01 -3.241180e-01 2.508233e-01 1.343542e-01 -2.653338e-01 4.819839e-01 1.120376e-01 -2.740293e-01 8.679898e-03
<VARIANCE> 39
 2.644003e+00 2.936950e+00 1.178763e+00 2.158038e+01 1.059656e+01 3.321910e+01 3.818388e+00 1.983773e+00 2.069439e+01 1.505263e+01 1.182358e+01 3.526800e+00 1.000000e-02 1.074957e+00 9.219010e-01 1.120680e+00 8.737769e-01 1.330201e+00 4.451068e+00 1.599517e+00 1.866806e+00 1.239562e+00 2.069501e+00 3.919396e-01 1.659246e+00 1.000000e-02 8.821809e-02 5.931417e-02 1.608607e-01 2.960623e-01 2.833798e-01 4.840753e-01 1.969581e-01 3.317550e-01 4.900320e-01 3.079557e-01 2.242659e-01 2.188566e-01 1.000000e-02
<GCONST> 6.594495e+01
<STATE> 24
<MEAN> 39
 -9.025539e-01 -2.661493e+01 -7.566447e+00 -4.413279e+00 -6.763873e+00 -2.773476e+00 7.669642e+00 -5.890570e+00 6.303634e+00 -2.268781e+00 6.101921e-01 1.775540e+00 4.081248e-01 2.654868e-01 -2.760991e-01 -4.788633e-01 1.266688e+00 3.572382e-01 6.548940e-01 -3.118850e-02 -1.622867e-01 -6.584904e-01 -9.197590e-01 -2.264955e-01 -2.177248e-01 -2.984397e-02 -3.404538e-01 5.411361e-01 -4.237912e-02 -3.108155e-01 -3.414967e-01 -8.177357e-01 -2.426273e-01 3.297217e-02 -3.274230e-01 2.673481e-01 -8.277655e-02 -3.357028e-01 1.131535e-02
<VARIANCE> 39
 1.671017e+00 2.818230e+00 6.402535e+00 1.337171e+01 1.273625e+01 1.555703e+01 1.175324e+01 1.175306e+01 1.051442e+01 2.385000e+01 4.237674e+00 1.231729e+01 1.000000e-02 7.832226e-01 3.158857e-01 9.926591e-01 6.322981e-01 1.573358e+00 6.053334e+00 1.347246e+00 9.371691e-01 1.434248e+00 2.679542e-01 1.375189e+00 7.866065e-01 1.000000e-02 6.389920e-02 1.863740e-01 3.247718e-01 8.399916e-02 2.809660e-01 3.428562e-01 3.045866e-01 3.335805e-01 4.415840e-01 1.496730e-01 2.688080e-02 2.396806e-01 1.000000e-02
<GCONST> 6.288445e+01
<STATE> 25
<MEAN> 39
 -4.428765e-01 -2.613442e+01 -6.392744e+00 -7.575621e-01 -6.097641e+00 -4.373945e+00 4.289794e+00 -7.050182e+00 4.841541e+00 -3.657784e+00 -5.326307e-01 9.475211e-01 3.913846e-01 3.609179e-01 2.291224e-01 -3.229913e-01 1.065887e+00 3.436996e-01 -1.730249e-01 -6.473817e-01 1.175484e-01 -1.662495e+00 -8.546125e-01 -2.564465e-01 -6.390055e-01 -1.597336e-02 -1.459685e-01 3.844307e-01 -3.231309e-02 -3.264540e-01 1.235342e-01 -2.958922e-01 2.720163e-01 2.881886e-01 -2.195772e-01 1.325235e-01 6.903324e-02 -2.417096e-01 4.206646e-03
<VARIANCE> 39
 9.851006e-01 2.035759e+00 5.695980e+00 1.236211e+01 2.570503e+00 1.119677e+01 1.028273e+01 1.238626e+01 1.646690e+01 2.430902e+01 1.214044e+01 1.151192e+01 1.000000e-02 2.373779e-01 2.323666e-01 1.543233e+00 1.067673e+00 1.224704e+00 3.412184e+00 8.865948e-01 1.073947e+00 2.678750e+00 1.141823e+00 6.485217e-01 5.104095e-01 1.000000e-02 8.612192e-02 1.826188e-01 2.167072e-01 8.830804e-02 9.917007e-02 4.506729e-01 3.901195e-01 1.638954e-01 1.421761e-01 1.518014e-01 1.120657e-01 2.608306e-01 1.000000e-02
<GCONST> 5.961141e+01
<STATE> 26
<MEAN> 39
 -4.331022e-01 -2.547968e+01 -8.594467e+00 -2.948779e+00 -6.751919e+00 -4.590868e+00 6.672835e+00 -4.995870e+00 2.595353e+00 -3.289042e+00 -1.350599e+00 4.873864e-01 3.748194e-01 8.616474e-02 7.835463e-01 -1.794580e-01 7.570848e-01 7.435373e-01 -4.109055e-01 2.935955e-01 1.056234e-01 -1.569550e+00 -6.334793e-01 4.935967e-02 -5.559048e-01 -1.991320e-02 -7.188167e-02 4.595823e-01 3.595655e-01 -4.910516e-02 4.365539e-01 9.665355e-02 3.290340e-01 2.947899e-01 1.626369e-01 -8.366480e-03 9.392665e-02 -2.656111e-02 8.523234e-04
<VARIANCE> 39
 1.524527e+00 2.171957e+00 6.431910e+00 1.970422e+01 7.812253e+00 7.150106e+00 3.883205e+00 1.664710e+01 1.417286e+01 5.096336e+01 7.471378e+00 2.328775e+01 1.000000e-02 3.149665e-01 3.645207e-01 9.316854e-01 1.261442e+00 7.963076e-01 1.266555e+00 1.124712e+00 5.931703e-01 9.464027e-01 5.178123e-01 7.280035e-02 1.288943e+00 1.000000e-02 1.140590e-01 6.551687e-02 3.546018e-01 6.372969e-02 2.899104e-01 5.775476e-01 4.572659e-02 1.440745e-01 4.953600e-01 7.391245e-01 9.440508e-02 1.166462e-01 1.000000e-02
<GCONST> 5.734612e+01
<STATE> 27
<MEAN> 39
 -3.176615e-01 -2.391528e+01 -8.381091e+00 -3.373876e-01 -4.170721e+00 -6.697124e+00 5.710939e+00 -4.220243e+00 -4.888532e-01 -5.983464e+00 -1.480891e+00 -1.784716e+00 3.336716e-01 4.099147e-01 1.439530e+00 3.823973e-01 6.190059e-01 1.107709e+00 4.588487e-01 7.362692e-01 9.643487e-01 -1.037772e+00 -2.262675e-01 1.478861e-01 -6.838636e-01 -1.800329e-02 -3.623976e-02 8.896018e-02 1.909156e-01 -7.539348e-02 3.210237e-02 4.222718e-01 6.146541e-02 1.351291e-02 3.922936e-01 -5.434383e-02 7.107403e-02 3.468616e-01 1.144901e-03
<VARIANCE> 39
 4.484677e+00 4.887794e+00 3.682940e+00 1.066682e+01 1.553134e+01 1.150482e+01 8.989439e+00 1.221084e+01 3.133293e+00 1.792857e+01 1.008036e+01 1.632586e+00 1.000000e-02 1.522714e-01 4.938710e-01 1.111764e+00 7.437378e-01 2.685733e-01 2.518909e-01 9.005895e-01 4.208916e-01 1.654776e+00 5.098062e+00 1.926986e-01 8.855942e-01 1.000000e-02 7.128289e-02 8.698275e-02 1.505298e-01 1.207327e-01 1.331584e-01 4.732874e-01 7.216004e-02 2.240096e-01 3.661081e-01 4.029931e-01 4.135295e-02 1.473902e-01 1.000000e-02
<GCONST> 5.226236e+01
<STATE> 28
<MEAN> 39
 1.061059e+00 -2.115152e+01 -5.800409e+00 7.133197e-01 -3.494802e+00 -3.104338e+00 7.235518e+00 -3.393683e+00 -2.237660e-01 -5.244211e+00 9.355547e-02 -1.061810e+00 3.435311e-01 -4.396787e-02 9.330488e-01 4.373456e-01 8.104990e-01 1.145438e+00 1.395451e+00 1.775296e-01 2.430697e-01 -3.722997e-01 -1.076110e+00 2.038040e-01 6.326156e-01 -1.900230e-02 -4.294688e-01 -5.596071e-01 -3.891477e-01 -1.645801e-01 2.946723e-02 -2.094023e-01 -2.343900e-01 -2.758657e-02 5.881271e-01 3.748208e-01 4.110743e-02 2.790063e-01 -4.467997e-03
<VARIANCE> 39
 2.334285e+00 4.848413e+00 2.749429e+00 5.143069e+00 4.397286e+00 6.503456e+00 8.578103e+00 1.327130e+01 8.691059e+00 2.851538e+01 6.690922e+00 9.242088e+00 1.000000e-02 2.344407e-01 4.813717e-01 9.140918e-01 5.987469e-01 1.297342e+00 1.584604e+00 4.260633e-01 1.718485e+00 7.635300e-01 2.416648e+00 1.345841e-01 5.320194e-01 1.000000e-02 4.889828e-02 3.838746e-02 1.734635e-01 9.502245e-02 3.096731e-02 1.028456e-01 4.060795e-02 2.335029e-01 1.234345e-01 5.074028e-01 5.286226e-02 1.784457e-01 1.000000e-02
<GCONST> 4.803773e+01
<STATE> 29
<MEAN> 39
 -4.854923e-01 -2.078874e+01 -6.799244e+00 1.460868e+00 2.484872e-01 -1.069393e+00 7.232314e+00 -3.292979e+00 -1.205597e+00 -7.583128e+00 -1.380794e+00 2.199930e-01 3.045154e-01 -9.513928e-01 -4.357446e-01 -8.097397e-01 -8.369032e-02 8.010600e-01 -3.363652e-01 1.486897e-01 6.364030e-01 6.183466e-01 6.309360e-01 3.529655e-01 -1.369582e-01 -2.914253e-02 -5.747730e-02 -2.257392e-01 -1.998759e-01 -3.111971e-01 -4.446453e-01 -6.432834e-01 -2.395740e-01 -1.993376e-01 8.938207e-02 6.479365e-01 2.805300e-01 -1.897762e-01 -4.134528e-05
<VARIANCE> 39
 3.129944e+00 1.166082e+01 1.148261e+01 1.515498e+01 2.565159e+00 4.826472e+00 1.230743e+01 5.570618e+00 1.263040e+01 2.318224e+01 5.840243e+00 6.668704e+00 1.267506e-02 2.591535e-01 7.500702e-01 1.419037e+00 6.762849e-01 1.255054e+00 5.765091e-01 5.725032e-01 1.188297e+00 7.423313e-01 3.505208e+00 4.954488e-01 1.148916e+00 1.000000e-02 5.976273e-02 2.397517e-01 3.693030e-01 1.360388e-01 4.140307e-01 1.300006e-01 1.756633e-01 3.969082e-01 1.986446e-01 5.612411e-01 6.898822e-02 2.409617e-01 1.000000e-02
<GCONST> 6.183309e+01
<STATE> 30
<MEAN> 39
 -2.196728e+00 -2.360294e+01 -1.019005e+01 9.534842e-01 1.049248e-02 -4.610188e+00 7.055815e+00 -2.285946e+00 1.765928e+00 -2.025089e+00 2.973361e+00 -8.171031e-01 2.438940e-01 -1.789452e-01 3.037651e-01 -5.225885e-02 1.393410e-01 -1.077921e-02 -6.324763e-01 -4.540421e-01 -1.549408e-01 -2.648116e-01 7.714875e-01 7.329859e-01 -2.882685e-01 -1.922201e-02 1.845469e-01 6.120765e-01 5.652507e-01 -5.968175e-02 -2.343630e-01 1.635363e-01 2.986172e-02 -1.023120e-01 -2.721261e-01 -3.496596e-01 -2.638985e-01 2.363944e-02 -1.323407e-03
<VARIANCE> 39
 2.200946e+00 6.745067e+00 8.044003e+00 8.876308e+00 1.373361e+01 5.802757e+00 8.939631e+00 1.383512e+01 1.392903e+01 1.075609e+01 7.793014e+00 6.186401e+00 1.000000e-02 2.790726e-01 1.354568e+00 1.652783e+00 1.050868e+00 2.331601e+00 1.646743e+00 2.072869e+00 1.136377e+00 1.212920e+00 2.387046e+00 1.279102e+00 1.682828e+00 1.000000e-02 4.115694e-02 2.140765e-01 2.819572e-01 1.513238e-01 3.190164e-01 1.153735e-01 2.241614e-01 4.408867e-01 4.048804e-01 4.019322e-01 9.318829e-02 2.980235e-01 1.000000e-02
<GCONST> 6.761784e+01
<STATE> 31
<MEAN> 39
 -2.096393e+00 -2.084069e+01 -7.718524e+00 -5.957685e-01 -2.965646e+00 -4.565281e+00 7.096805e+00 -2.734334e+00 -1.223165e+00 -4.462030e+00 1.541774e+00 -7.736795e-01 1.714726e-01 -2.517721e-01 1.419778e+00 7.327688e-01 -4.110718e-01 -1.800351e-01 -1.746902e-01 -2.103291e-01 1.625899e-01 -3.681339e-02 -2.084812e-01 -3.907669e-01 3.938985e-01 -3.266528e-02 -4.794809e-02 4.650581e-01 2.826772e-01 7.182506e-02 4.979415e-01 1.899063e-01 -2.704833e-01 -1.470340e-01 1.304958e-01 -1.813534e-02 -7.379489e-02 8.673044e-02 -2.239658e-03
<VARIANCE> 39
 2.617399e+00 7.562112e+00 1.117246e+01 3.376786e+00 2.110729e+01 1.281105e+01 2.241757e+01 9.576381e+00 6.558221e+00 8.644410e+00 1.321116e+01 5.705037e+00 1.569882e-02 2.225210e-01 1.685676e+00 2.337615e+00 6.114121e-01 9.761056e-01 4.288069e-01 1.179397e+00 2.989278e+00 2.730704e+00 9.318717e-01 3.578206e-01 3.504525e-01 1.000000e-02 2.877571e-02 6.981546e-02 1.700666e-01 1.107380e-01 2.454601e-01 3.946965e-01 5.957453e-01 5.765193e-01 3.106822e-01 4.300120e-01 3.201304e-01 2.092317e-01 1.000000e-02
<GCONST> 6.457945e+01
<STATE> 32
<MEAN> 39
 -2.700818e+00 -1.672221e+01 -5.864681e+00 3.273755e-01 7.131497e-01 -4.857136e+00 5.231820e+00 -2.658177e+00 2.537636e-01 -3.104311e+00 1.611961e+00 -8.980992e-02 1.223337e-01 -5.079773e-01 2.076212e+00 1.181737e+00 3.486777e-02 1.027830e+00 1.439007e-01 -7.723886e-01 -6.229118e-01 -5.465753e-02 6.474131e-01 2.196105e-01 1.010585e-01 -3.442644e-02 -1.909156e-01 -1.711835e-01 -4.706632e-02 -4.196008e-02 -4.357046e-02 2.372736e-01 -2.437533e-02 -1.206340e-02 6.106446e-03 4.613897e-02 7.593764e-02 5.825636e-02 -5.328717e-04
<VARIANCE> 39
 5.850507e+00 2.406125e+00 4.013943e+00 3.259167e+00 1.108810e+01 1.181648e+01 3.819705e+00 1.755230e+01 2.257740e+01 1.126868e+01 9.354878e+00 5.552587e+00 2.174491e-02 1.471258e-01 6.171074e-01 3.640409e-01 3.318804e-01 1.304416e+00 1.036739e+00 2.013216e+00 2.982258e+00 1.497994e+00 1.879605e+00 1.637217e+00 3.089145e-01 1.000000e-02 7.992999e-02 1.307054e-01 1.937817e-01 9.143559e-02 2.747272e-01 1.746390e-01 2.606254e-01 3.710414e-01 5.232097e-01 2.091515e-01 4.755248e-01 1.658482e-01 1.000000e-02
<GCONST> 6.163905e+01
<STATE> 33
<MEAN> 39
 -4.020687e+00 -1.293023e+01 -3.703005e+00 -1.206792e-01 1.914496e+00 -3.920939e+00 3.896713e+00 -4.181211e+00 -4.742197e-01 -7.350772e-01 2.581333e+00 -7.923380e-01 6.086241e-02 -7.923170e-01 9.077697e-01 6.180621e-01 -5.826897e-01 -1.481379e-01 5.672921e-01 -7.079332e-01 1.059169e-01 9.974495e-02 1.893195e-01 3.056688e-01 4.538480e-01 -3.133266e-02 -1.182001e-02 -5.649871e-01 -3.923076e-01 -7.047699e-02 -3.258797e-01 4.257749e-02 2.721376e-01 3.358559e-01 9.377450e-02 -2.599026e-01 -2.260539e-01 6.083636e-02 2.821606e-03
<VARIANCE> 39
 1.959259e+00 1.008339e+01 8.097027e+00 2.052253e+00 2.052135e+01 1.222056e+01 6.324683e+00 2.132070e+01 1.363217e+01 1.079692e+01 7.250015e+00 6.217744e+00 1.024234e-02 3.300726e-01 2.977487e-01 5.340032e-01 4.395393e-01 1.291559e+00 8.117101e-01 9.057592e-01 1.108575e+00 2.144776e+00 1.249017e+00 2.350779e+00 8.161093e-01 1.000000e-02 2.161423e-02 9.429280e-02 5.092070e-02 6.316738e-02 2.213697e-01 1.742312e-01 2.404418e-01 4.835409e-01 6.424252e-01 3.328472e-01 2.477934e-01 1.140561e-01 1.000000e-02
<GCONST> 5.837611e+01
<STATE> 34
<MEAN> 39
 -5.277460e+00 -1.297123e+01 -3.420894e+00 -1.561202e+00 -1.086589e-01 -2.927615e+00 2.556439e+00 -1.656581e+00 -2.257193e-01 -3.788553e+00 3.340249e+00 2.377876e+00 5.074074e-03 -6.414850e-01 7.390796e-03 -1.876193e-01 -1.924765e-01 -8.319809e-02 4.501191e-01 1.372829e-01 2.886736e-01 -2.590362e-01 -7.078195e-01 -7.192835e-01 5.463549e-01 -2.467233e-02 2.474873e-01 -1.729332e-01 -2.773743e-01 5.758677e-02 2.452234e-05 -1.975681e-01 2.705788e-01 -1.672459e-02 1.016054e-01 -8.209722e-02 -4.652146e-01 -4.432271e-01 7.118506e-03
<VARIANCE> 39
 8.361284e-01 8.156203e+00 6.756032e+00 1.744223e+00 5.042549e+00 4.334115e+00 1.337738e+01 8.278474e+00 1.097439e+01 5.546749e+00 2.100834e+01 1.202989e+01 1.000000e-02 1.411837e-01 3.038455e-01 1.669632e-01 7.673811e-02 9.382498e-01 1.115682e+00 8.153680e-01 1.967796e+00 3.933702e+00 1.395366e+00 6.241757e-01 8.590350e-01 1.000000e-02 2.602134e-02 1.008810e-01 9.604783e-02 1.068577e-01 1.293263e-01 1.377249e-01 1.578223e-01 2.592605e-01 2.248019e-01 1.466293e-01 5.279022e-01 1.915773e-01 1.000000e-02
<GCONST> 5.032307e+01
<TRANSP> 35
 0.000000e+00 1.000000e+00 0.000000e+00 0.000000e+00 0.000000e+00 0.000000e+00 0.000000e+00 0.000000e+00 0.000000e+00 0.000000e+00 0.000000e+00 0.000000e+00 0.000000e+00 0.000000e+00 0.000000e+00 0.000000e+00 0.000000e+00 0.000000e+00 0.000000e+00 0.000000e+00 0.000000e+00 0.000000e+00 0.000000e+00 0.000000e+00 0.000000e+00 0.000000e+00 0.000000e+00 0.000000e+00 0.000000e+00 0.000000e+00 0.000000e+00 0.000000e+00 0.000000e+00 0.000000e+00 0.000000e+00
 0.000000e+00 5.454546e-01 4.545455e-01 0.000000e+00 0.000000e+00 0.000000e+00 0.000000e+00 0.000000e+00 0.000000e+00 0.000000e+00 0.000000e+00 0.000000e+00 0.000000e+00 0.000000e+00 0.000000e+00 0.000000e+00 0.000000e+00 0.000000e+00 0.000000e+00 0.000000e+00 0.000000e+00 0.000000e+00 0.000000e+00 0.000000e+00 0.000000e+00 0.000000e+00 0.000000e+00 0.000000e+00 0.000000e+00 0.000000e+00 0.000000e+00 0.000000e+00 0.000000e+00 0.000000e+00 0.000000e+00
 0.000000e+00 0.000000e+00 5.454546e-01 4.545455e-01 0.000000e+00 0.000000e+00 0.000000e+00 0.000000e+00 0.000000e+00 0.000000e+00 0.000000e+00 0.000000e+00 0.000000e+00 0.000000e+00 0.000000e+00 0.000000e+00 0.000000e+00 0.000000e+00 0.000000e+00 0.000000e+00 0.000000e+00 0.000000e+00 0.000000e+00 0.000000e+00 0.000000e+00 0.000000e+00 0.000000e+00 0.000000e+00 0.000000e+00 0.000000e+00 0.000000e+00 0.000000e+00 0.000000e+00 0.000000e+00 0.000000e+00
 0.000000e+00 0.000000e+00 0.000000e+00 3.750000e-01 6.250000e-01 0.000000e+00 0.000000e+00 0.000000e+00 0.000000e+00 0.000000e+00 0.000000e+00 0.000000e+00 0.000000e+00 0.000000e+00 0.000000e+00 0.000000e+00 0.000000e+00 0.000000e+00 0.000000e+00 0.000000e+00 0.000000e+00 0.000000e+00 0.000000e+00 0.000000e+00 0.000000e+00 0.000000e+00 0.000000e+00 0.000000e+00 0.000000e+00 0.000000e+00 0.000000e+00 0.000000e+00 0.000000e+00 0.000000e+00 0.000000e+00
 0.000000e+00 0.000000e+00 0.000000e+00 0.000000e+00 5.000000e-01 5.000000e-01 0.000000e+00 0.000000e+00 0.000000e+00 0.000000e+00 0.000000e+00 0.000000e+00 0.000000e+00 0.000000e+00 0.000000e+00 0.000000e+00 0.000000e+00 0.000000e+00 0.000000e+00 0.000000e+00 0.000000e+00 0.000000e+00 0.000000e+00 0.000000e+00 0.000000e+00 0.000000e+00 0.000000e+00 0.000000e+00 0.000000e+00 0.000000e+00 0.000000e+00 0.000000e+00 0.000000e+00 0.000000e+00 0.000000e+00
 0.000000e+00 0.000000e+00 0.000000e+00 0.000000e+00 0.000000e+00 3.750000e-01 6.250000e-01 0.000000e+00 0.000000e+00 0.000000e+00 0.000000e+00 0.000000e+00 0.000000e+00 0.000000e+00 0.000000e+00 0.000000e+00 0.000000e+00 0.000000e+00 0.000000e+00 0.000000e+00 0.000000e+00 0.000000e+00 0.000000e+00 0.000000e+00 0.000000e+00 0.000000e+00 0.000000e+00 0.000000e+00 0.000000e+00 0.000000e+00 0.000000e+00 0.000000e+00 0.000000e+00 0.000000e+00 0.000000e+00
 0.000000e+00 0.000000e+00 0.000000e+00 0.000000e+00 0.000000e+00 0.000000e+00 4.444444e-01 5.555556e-01 0.000000e+00 0.000000e+00 0.000000e+00 0.000000e+00 0.000000e+00 0.000000e+00 0.000000e+00 0.000000e+00 0.000000e+00 0.000000e+00 0.000000e+00 0.000000e+00 0.000000e+00 0.000000e+00 0.000000e+00 0.000000e+00 0.000000e+00 0.000000e+00 0.000000e+00 0.000000e+00 0.000000e+00 0.000000e+00 0.000000e+00 0.000000e+00 0.000000e+00 0.000000e+00 0.000000e+00
 0.000000e+00 0.000000e+00 0.000000e+00 0.000000e+00 0.000000e+00 0.000000e+00 0.000000e+00 5.000000e-01 5.000000e-01 0.000000e+00 0.000000e+00 0.000000e+00 0.000000e+00 0.000000e+00 0.000000e+00 0.000000e+00 0.000000e+00 0.000000e+00 0.000000e+00 0.000000e+00 0.000000e+00 0.000000e+00 0.000000e+00 0.000000e+00 0.000000e+00 0.000000e+00 0.000000e+00 0.000000e+00 0.000000e+00 0.000000e+00 0.000000e+00 0.000000e+00 0.000000e+00 0.000000e+00 0.000000e+00
 0.000000e+00 0.000000e+00 0.000000e+00 0.000000e+00 0.000000e+00 0.000000e+00 0.000000e+00 0.000000e+00 5.000000e-01 5.000000e-01 0.000000e+00 0.000000e+00 0.000000e+00 0.000000e+00 0.000000e+00 0.000000e+00 0.000000e+00 0.000000e+00 0.000000e+00 0.000000e+00 0.000000e+00 0.000000e+00 0.000000e+00 0.000000e+00 0.000000e+00 0.000000e+00 0.000000e+00 0.000000e+00 0.000000e+00 0.000000e+00 0.000000e+00 0.000000e+00 0.000000e+00 0.000000e+00 0.000000e+00
 0.000000e+00 0.000000e+00 0.000000e+00 0.000000e+00 0.000000e+00 0.000000e+00 0.000000e+00 0.000000e+00 0.000000e+00 5.454546e-01 4.545455e-01 0.000000e+00 0.000000e+00 0.000000e+00 0.000000e+00 0.000000e+00 0.000000e+00 0.000000e+00 0.000000e+00 0.000000e+00 0.000000e+00 0.000000e+00 0.000000e+00 0.000000e+00 0.000000e+00 0.000000e+00 0.000000e+00 0.000000e+00 0.000000e+00 0.000000e+00 0.000000e+00 0.000000e+00 0.000000e+00 0.000000e+00 0.000000e+00
 0.000000e+00 0.000000e+00 0.000000e+00 0.000000e+00 0.000000e+00 0.000000e+00 0.000000e+00 0.000000e+00 0.000000e+00 0.000000e+00 2.857143e-01 7.142857e-01 0.000000e+00 0.000000e+00 0.000000e+00 0.000000e+00 0.000000e+00 0.000000e+00 0.000000e+00 0.000000e+00 0.000000e+00 0.000000e+00 0.000000e+00 0.000000e+00 0.000000e+00 0.000000e+00 0.000000e+00 0.000000e+00 0.000000e+00 0.000000e+00 0.000000e+00 0.000000e+00 0.000000e+00 0.000000e+00 0.000000e+00
 0.000000e+00 0.000000e+00 0.000000e+00 0.000000e+00 0.000000e+00 0.000000e+00 0.000000e+00 0.000000e+00 0.000000e+00 0.000000e+00 0.000000e+00 3.750000e-01 6.250000e-01 0.000000e+00 0.000000e+00 0.000000e+00 0.000000e+00 0.000000e+00 0.000000e+00 0.000000e+00 0.000000e+00 0.000000e+00 0.000000e+00 0.000000e+00 0.000000e+00 0.000000e+00 0.000000e+00 0.000000e+00 0.000000e+00 0.000000e+00 0.000000e+00 0.000000e+00 0.000000e+00 0.000000e+00 0.000000e+00
 0.000000e+00 0.000000e+00 0.000000e+00 0.000000e+00 0.000000e+00 0.000000e+00 0.000000e+00 0.000000e+00 0.000000e+00 0.000000e+00 0.000000e+00 0.000000e+00 4.444444e-01 5.555556e-01 0.000000e+00 0.000000e+00 0.000000e+00 0.000000e+00 0.000000e+00 0.000000e+00 0.000000e+00 0.000000e+00 0.000000e+00 0.000000e+00 0.000000e+00 0.000000e+00 0.000000e+00 0.000000e+00 0.000000e+00 0.000000e+00 0.000000e+00 0.000000e+00 0.000000e+00 0.000000e+00 0.000000e+00
 0.000000e+00 0.000000e+00 0.000000e+00 0.000000e+00 0.000000e+00 0.000000e+00 0.000000e+00 0.000000e+00 0.000000e+00 0.000000e+00 0.000000e+00 0.000000e+00 0.000000e+00 3.750000e-01 6.250000e-01 0.000000e+00 0.000000e+00 0.000000e+00 0.000000e+00 0.000000e+00 0.000000e+00 0.000000e+00 0.000000e+00 0.000000e+00 0.000000e+00 0.000000e+00 0.000000e+00 0.000000e+00 0.000000e+00 0.000000e+00 0.000000e+00 0.000000e+00 0.000000e+00 0.000000e+00 0.000000e+00
 0.000000e+00 0.000000e+00 0.000000e+00 0.000000e+00 0.000000e+00 0.000000e+00 0.000000e+00 0.000000e+00 0.000000e+00 0.000000e+00 0.000000e+00 0.000000e+00 0.000000e+00 0.000000e+00 6.153846e-01 3.846154e-01 0.000000e+00 0.000000e+00 0.000000e+00 0.000000e+00 0.000000e+00 0.000000e+00 0.000000e+00 0.000000e+00 0.000000e+00 0.000000e+00 0.000000e+00 0.000000e+00 0.000000e+00 0.000000e+00 0.000000e+00 0.000000e+00 0.000000e+00 0.000000e+00 0.000000e+00
 0.000000e+00 0.000000e+00 0.000000e+00 0.000000e+00 0.000000e+00 0.000000e+00 0.000000e+00 0.000000e+00 0.000000e+00 0.000000e+00 0.000000e+00 0.000000e+00 0.000000e+00 0.000000e+00 0.000000e+00 7.058824e-01 2.941177e-01 0.000000e+00 0.000000e+00 0.000000e+00 0.000000e+00 0.000000e+00 0.000000e+00 0.000000e+00 0.000000e+00 0.000000e+00 0.000000e+00 0.000000e+00 0.000000e+00 0.000000e+00 0.000000e+00 0.000000e+00 0.000000e+00 0.000000e+00 0.000000e+00
 0.000000e+00 0.000000e+00 0.000000e+00 0.000000e+00 0.000000e+00 0.000000e+00 0.000000e+00 0.000000e+00 0.000000e+00 0.000000e+00 0.000000e+00 0.000000e+00 0.000000e+00 0.000000e+00 0.000000e+00 0.000000e+00 4.444444e-01 5.555556e-01 0.000000e+00 0.000000e+00 0.000000e+00 0.000000e+00 0.000000e+00 0.000000e+00 0.000000e+00 0.000000e+00 0.000000e+00 0.000000e+00 0.000000e+00 0.000000e+00 0.000000e+00 0.000000e+00 0.000000e+00 0.000000e+00 0.000000e+00
 0.000000e+00 0.000000e+00 0.000000e+00 0.000000e+00 0.000000e+00 0.000000e+00 0.000000e+00 0.000000e+00 0.000000e+00 0.000000e+00 0.000000e+00 0.000000e+00 0.000000e+00 0.000000e+00 0.000000e+00 0.000000e+00 0.000000e+00 4.444444e-01 5.555556e-01 0.000000e+00 0.000000e+00 0.000000e+00 0.000000e+00 0.000000e+00 0.000000e+00 0.000000e+00 0.000000e+00 0.000000e+00 0.000000e+00 0.000000e+00 0.000000e+00 0.000000e+00 0.000000e+00 0.000000e+00 0.000000e+00
 0.000000e+00 0.000000e+00 0.000000e+00 0.000000e+00 0.000000e+00 0.000000e+00 0.000000e+00 0.000000e+00 0.000000e+00 0.000000e+00 0.000000e+00 0.000000e+00 0.000000e+00 0.000000e+00 0.000000e+00 0.000000e+00 0.000000e+00 0.000000e+00 3.750000e-01 6.250000e-01 0.000000e+00 0.000000e+00 0.000000e+00 0.000000e+00 0.000000e+00 0.000000e+00 0.000000e+00 0.000000e+00 0.000000e+00 0.000000e+00 0.000000e+00 0.000000e+00 0.000000e+00 0.000000e+00 0.000000e+00
 0.000000e+00 0.000000e+00 0.000000e+00 0.000000e+00 0.000000e+00 0.000000e+00 0.000000e+00 0.000000e+00 0.000000e+00 0.000000e+00 0.000000e+00 0.000000e+00 0.000000e+00 0.000000e+00 0.000000e+00 0.000000e+00 0.000000e+00 0.000000e+00 0.000000e+00 5.000000e-01 5.000000e-01 0.000000e+00 0.000000e+00 0.000000e+00 0.000000e+00 0.000000e+00 0.000000e+00 0.000000e+00 0.000000e+00 0.000000e+00 0.000000e+00 0.000000e+00 0.000000e+00 0.000000e+00 0.000000e+00
 0.000000e+00 0.000000e+00 0.000000e+00 0.000000e+00 0.000000e+00 0.000000e+00 0.000000e+00 0.000000e+00 0.000000e+00 0.000000e+00 0.000000e+00 0.000000e+00 0.000000e+00 0.000000e+00 0.000000e+00 0.000000e+00 0.000000e+00 0.000000e+00 0.000000e+00 0.000000e+00 4.444444e-01 5.555556e-01 0.000000e+00 0.000000e+00 0.000000e+00 0.000000e+00 0.000000e+00 0.000000e+00 0.000000e+00 0.000000e+00 0.000000e+00 0.000000e+00 0.000000e+00 0.000000e+00 0.000000e+00
 0.000000e+00 0.000000e+00 0.000000e+00 0.000000e+00 0.000000e+00 0.000000e+00 0.000000e+00 0.000000e+00 0.000000e+00 0.000000e+00 0.000000e+00 0.000000e+00 0.000000e+00 0.000000e+00 0.000000e+00 0.000000e+00 0.000000e+00 0.000000e+00 0.000000e+00 0.000000e+00 0.000000e+00 3.750000e-01 6.250000e-01 0.000000e+00 0.000000e+00 0.000000e+00 0.000000e+00 0.000000e+00 0.000000e+00 0.000000e+00 0.000000e+00 0.000000e+00 0.000000e+00 0.000000e+00 0.000000e+00
 0.000000e+00 0.000000e+00 0.000000e+00 0.000000e+00 0.000000e+00 0.000000e+00 0.000000e+00 0.000000e+00 0.000000e+00 0.000000e+00 0.000000e+00 0.000000e+00 0.000000e+00 0.000000e+00 0.000000e+00 0.000000e+00 0.000000e+00 0.000000e+00 0.000000e+00 0.000000e+00 0.000000e+00 0.000000e+00 4.444444e-01 5.555556e-01 0.000000e+00 0.000000e+00 0.000000e+00 0.000000e+00 0.000000e+00 0.000000e+00 0.000000e+00 0.000000e+00 0.000000e+00 0.000000e+00 0.000000e+00
 0.000000e+00 0.000000e+00 0.000000e+00 0.000000e+00 0.000000e+00 0.000000e+00 0.000000e+00 0.000000e+00 0.000000e+00 0.000000e+00 0.000000e+00 0.000000e+00 0.000000e+00 0.000000e+00 0.000000e+00 0.000000e+00 0.000000e+00 0.000000e+00 0.000000e+00 0.000000e+00 0.000000e+00 0.000000e+00 0.000000e+00 3.750000e-01 6.250000e-01 0.000000e+00 0.000000e+00 0.000000e+00 0.000000e+00 0.000000e+00 0.000000e+00 0.000000e+00 0.000000e+00 0.000000e+00 0.000000e+00
 0.000000e+00 0.000000e+00 0.000000e+00 0.000000e+00 0.000000e+00 0.000000e+00 0.000000e+00 0.000000e+00 0.000000e+00 0.000000e+00 0.000000e+00 0.000000e+00 0.000000e+00 0.000000e+00 0.000000e+00 0.000000e+00 0.000000e+00 0.000000e+00 0.000000e+00 0.000000e+00 0.000000e+00 0.000000e+00 0.000000e+00 0.000000e+00 2.857143e-01 7.142857e-01 0.000000e+00 0.000000e+00 0.000000e+00 0.000000e+00 0.000000e+00 0.000000e+00 0.000000e+00 0.000000e+00 0.000000e+00
 0.000000e+00 0.000000e+00 0.000000e+00 0.000000e+00 0.000000e+00 0.000000e+00 0.000000e+00 0.000000e+00 0.000000e+00 0.000000e+00 0.000000e+00 0.000000e+00 0.000000e+00 0.000000e+00 0.000000e+00 0.000000e+00 0.000000e+00 0.000000e+00 0.000000e+00 0.000000e+00 0.000000e+00 0.000000e+00 0.000000e+00 0.000000e+00 0.000000e+00 1.666667e-01 8.333333e-01 0.000000e+00 0.000000e+00 0.000000e+00 0.000000e+00 0.000000e+00 0.000000e+00 0.000000e+00 0.000000e+00
 0.000000e+00 0.000000e+00 0.000000e+00 0.000000e+00 0.000000e+00 0.000000e+00 0.000000e+00 0.000000e+00 0.000000e+00 0.000000e+00 0.000000e+00 0.000000e+00 0.000000e+00 0.000000e+00 0.000000e+00 0.000000e+00 0.000000e+00 0.000000e+00 0.000000e+00 0.000000e+00 0.000000e+00 0.000000e+00 0.000000e+00 0.000000e+00 0.000000e+00 0.000000e+00 3.750000e-01 6.250000e-01 0.000000e+00 0.000000e+00 0.000000e+00 0.000000e+00 0.000000e+00 0.000000e+00 0.000000e+00
 0.000000e+00 0.000000e+00 0.000000e+00 0.000000e+00 0.000000e+00 0.000000e+00 0.000000e+00 0.000000e+00 0.000000e+00 0.000000e+00 0.000000e+00 0.000000e+00 0.000000e+00 0.000000e+00 0.000000e+00 0.000000e+00 0.000000e+00 0.000000e+00 0.000000e+00 0.000000e+00 0.000000e+00 0.000000e+00 0.000000e+00 0.000000e+00 0.000000e+00 0.000000e+00 0.000000e+00 3.750000e-01 6.250000e-01 0.000000e+00 0.000000e+00 0.000000e+00 0.000000e+00 0.000000e+00 0.000000e+00
 0.000000e+00 0.000000e+00 0.000000e+00 0.000000e+00 0.000000e+00 0.000000e+00 0.000000e+00 0.000000e+00 0.000000e+00 0.000000e+00 0.000000e+00 0.000000e+00 0.000000e+00 0.000000e+00 0.000000e+00 0.000000e+00 0.000000e+00 0.000000e+00 0.000000e+00 0.000000e+00 0.000000e+00 0.000000e+00 0.000000e+00 0.000000e+00 0.000000e+00 0.000000e+00 0.000000e+00 0.000000e+00 5.000000e-01 5.000000e-01 0.000000e+00 0.000000e+00 0.000000e+00 0.000000e+00 0.000000e+00
 0.000000e+00 0.000000e+00 0.000000e+00 0.000000e+00 0.000000e+00 0.000000e+00 0.000000e+00 0.000000e+00 0.000000e+00 0.000000e+00 0.000000e+00 0.000000e+00 0.000000e+00 0.000000e+00 0.000000e+00 0.000000e+00 0.000000e+00 0.000000e+00 0.000000e+00 0.000000e+00 0.000000e+00 0.000000e+00 0.000000e+00 0.000000e+00 0.000000e+00 0.000000e+00 0.000000e+00 0.000000e+00 0.000000e+00 5.454546e-01 4.545455e-01 0.000000e+00 0.000000e+00 0.000000e+00 0.000000e+00
 0.000000e+00 0.000000e+00 0.000000e+00 0.000000e+00 0.000000e+00 0.000000e+00 0.000000e+00 0.000000e+00 0.000000e+00 0.000000e+00 0.000000e+00 0.000000e+00 0.000000e+00 0.000000e+00 0.000000e+00 0.000000e+00 0.000000e+00 0.000000e+00 0.000000e+00 0.000000e+00 0.000000e+00 0.000000e+00 0.000000e+00 0.000000e+00 0.000000e+00 0.000000e+00 0.000000e+00 0.000000e+00 0.000000e+00 0.000000e+00 3.750000e-01 6.250000e-01 0.000000e+00 0.000000e+00 0.000000e+00
 0.000000e+00 0.000000e+00 0.000000e+00 0.000000e+00 0.000000e+00 0.000000e+00 0.000000e+00 0.000000e+00 0.000000e+00 0.000000e+00 0.000000e+00 0.000000e+00 0.000000e+00 0.000000e+00 0.000000e+00 0.000000e+00 0.000000e+00 0.000000e+00 0.000000e+00 0.000000e+00 0.000000e+00 0.000000e+00 0.000000e+00 0.000000e+00 0.000000e+00 0.000000e+00 0.000000e+00 0.000000e+00 0.000000e+00 0.000000e+00 0.000000e+00 5.000000e-01 5.000000e-01 0.000000e+00 0.000000e+00
 0.000000e+00 0.000000e+00 0.000000e+00 0.000000e+00 0.000000e+00 0.000000e+00 0.000000e+00 0.000000e+00 0.000000e+00 0.000000e+00 0.000000e+00 0.000000e+00 0.000000e+00 0.000000e+00 0.000000e+00 0.000000e+00 0.000000e+00 0.000000e+00 0.000000e+00 0.000000e+00 0.000000e+00 0.000000e+00 0.000000e+00 0.000000e+00 0.000000e+00 0.000000e+00 0.000000e+00 0.000000e+00 0.000000e+00 0.000000e+00 0.000000e+00 0.000000e+00 5.000000e-01 5.000000e-01 0.000000e+00
 0.000000e+00 0.000000e+00 0.000000e+00 0.000000e+00 0.000000e+00 0.000000e+00 0.000000e+00 0.000000e+00 0.000000e+00 0.000000e+00 0.000000e+00 0.000000e+00 0.000000e+00 0.000000e+00 0.000000e+00 0.000000e+00 0.000000e+00 0.000000e+00 0.000000e+00 0.000000e+00 0.000000e+00 0.000000e+00 0.000000e+00 0.000000e+00 0.000000e+00 0.000000e+00 0.000000e+00 0.000000e+00 0.000000e+00 0.000000e+00 0.000000e+00 0.000000e+00 0.000000e+00 1.666667e-01 8.333333e-01
 0.000000e+00 0.000000e+00 0.000000e+00 0.000000e+00 0.000000e+00 0.000000e+00 0.000000e+00 0.000000e+00 0.000000e+00 0.000000e+00 0.000000e+00 0.000000e+00 0.000000e+00 0.000000e+00 0.000000e+00 0.000000e+00 0.000000e+00 0.000000e+00 0.000000e+00 0.000000e+00 0.000000e+00 0.000000e+00 0.000000e+00 0.000000e+00 0.000000e+00 0.000000e+00 0.000000e+00 0.000000e+00 0.000000e+00 0.000000e+00 0.000000e+00 0.000000e+00 0.000000e+00 0.000000e+00 0.000000e+00
<ENDHMM>
