~o
<STREAMINFO> 1 39
<VECSIZE> 39<NULLD><MFCC_E_D_A><DIAGC>
~h "Ngay"
<BEGINHMM>
<NUMSTATES> 14
<STATE> 2
<MEAN> 39
 -4.191650e+00 -7.711648e+00 -2.108775e+00 -4.242722e+00 7.066146e-02 -3.201930e+00 3.050644e+00 -1.838702e+00 2.203822e-01 -4.736666e+00 -8.551567e-01 -3.497125e+00 8.889879e-02 5.232054e-01 -2.262628e-01 -4.523489e-01 -1.184991e+00 -6.325538e-01 -5.602795e-01 1.706153e-01 -4.715958e-01 -1.062389e+00 -5.283452e-01 -9.888443e-01 -2.532316e-01 6.490978e-02 1.775712e-01 -1.820965e-01 -2.229702e-01 -2.785578e-01 -1.625323e-01 -3.167105e-01 -1.692086e-03 -1.173918e-01 -2.104237e-01 -8.171419e-02 -1.717455e-01 -2.839343e-02 2.055970e-02
<VARIANCE> 39
 4.407224e+00 3.643910e+00 4.650807e+00 1.306320e+01 9.207673e+00 8.685283e+00 7.506879e+00 8.536655e+00 2.605122e+01 1.250946e+01 1.334642e+01 8.215579e+00 2.447109e-02 1.702754e+00 5.664203e-01 1.810332e+00 3.835169e+00 2.430562e+00 2.313210e+00 1.609512e+00 1.059752e+00 3.686639e+00 1.955529e+00 1.948851e+00 1.386184e+00 1.000000e-02 2.119620e-01 1.630227e-01 2.769455e-01 5.182952e-01 2.493983e-01 1.587441e-01 4.549480e-01 1.676845e-01 6.742809e-01 2.707173e-01 5.195155e-01 2.003511e-01 1.000000e-02
<GCONST> 7.672479e+01
<STATE> 3
<MEAN> 39
 3.597875e-01 -1.118051e+01 -6.128730e+00 -1.281439e+01 -4.071409e+00 -9.519698e+00 7.361517e+00 -5.815614e+00 -3.682283e+00 -6.956822e+00 -8.177516e+00 -8.369690e+00 5.966282e-01 -9.381293e-01 -9.682389e-01 -1.012302e+00 -1.626909e-01 -1.441060e-01 -2.480416e-01 2.016530e+00 -5.018392e-01 5.780879e-04 -6.942878e-01 -5.744616e-01 -4.936481e-01 6.837568e-02 -5.343463e-01 -1.599062e-01 -1.544801e-01 6.594217e-01 3.968952e-01 1.611363e-01 2.428262e-01 1.351155e-01 2.003478e-01 -2.073177e-01 4.659913e-01 2.706152e-01 -1.031221e-02
<VARIANCE> 39
 5.354842e+01 1.644198e+01 4.030648e+01 4.629317e+01 2.846475e+01 6.172427e+01 4.837254e+01 1.589279e+01 3.150206e+01 2.271847e+01 1.862064e+01 2.321420e+01 1.948300e-02 9.483256e+00 8.784762e-01 3.477337e+00 3.589012e+00 2.079031e+00 5.066037e+00 5.910303e+00 1.735625e+00 2.133609e+00 2.674597e+00 2.327019e+00 2.744607e+00 1.000000e-02 1.644793e+00 1.390913e-01 8.201016e-01 6.817533e-01 4.091299e-01 9.865003e-01 1.407759e+00 3.639604e-01 5.273828e-01 6.186144e-01 2.035065e-01 5.497380e-01 1.000000e-02
<GCONST> 1.055785e+02
<STATE> 4
<MEAN> 39
 -8.415724e+00 -1.714323e+01 -1.452131e+01 -4.549251e+00 -4.701597e-01 -8.818050e+00 1.633511e+01 -6.623321e+00 -3.780082e+00 -1.477910e+01 -5.504742e+00 -5.506671e+00 8.392916e-01 -1.947933e-01 -2.136269e+00 -2.320402e+00 2.811336e+00 1.483171e+00 -1.320391e+00 4.428160e-01 -9.227289e-01 4.233431e-01 -1.880177e+00 9.152951e-01 1.306032e+00 4.931377e-02 5.774667e-01 3.134342e-03 1.929517e-01 -7.651451e-02 -8.586971e-02 -6.046716e-02 -7.818365e-01 -2.772203e-01 3.850363e-01 5.885699e-01 -2.442580e-01 3.306649e-02 -8.608423e-03
<VARIANCE> 39
 1.031390e+01 7.961462e+00 1.704113e+01 3.731700e+01 2.596936e+01 7.873840e+01 1.432810e+01 7.366198e+00 3.628489e+01 1.828671e+01 1.386767e+01 1.872986e+01 1.000000e-02 4.711400e-01 1.759226e-01 8.118119e-01 1.528361e+00 8.735368e-01 1.316920e+00 9.462531e-01 2.248473e+00 2.170877e+00 8.457178e-01 6.431894e-01 8.844660e-01 1.000000e-02 2.343155e-01 9.328620e-02 3.066760e-01 4.035987e-01 1.207066e-01 3.480153e-01 3.085568e-01 3.800717e-01 2.848103e-01 2.810410e-01 1.470040e-01 2.669647e-01 1.000000e-02
<GCONST> 7.473953e+01
<STATE> 5
<MEAN> 39
 -8.020411e+00 -2.391859e+01 -1.888305e+01 7.403371e-02 4.116377e+00 -1.192448e+01 1.239164e+01 -8.328425e+00 8.420130e-02 -1.388098e+01 -4.674185e+00 -1.963881e+00 9.661669e-01 -1.127209e-01 -6.531385e-01 -2.644675e-01 4.577942e-01 6.700543e-01 5.864253e-01 -1.259725e+00 4.968576e-01 9.270934e-01 7.595227e-01 -2.753530e-03 3.314191e-01 1.373728e-02 8.089949e-03 3.032249e-01 3.954020e-01 -3.423719e-01 -2.422947e-01 2.770633e-01 1.601966e-02 2.895441e-01 -1.180434e-01 9.779993e-02 -2.974949e-02 -1.633797e-01 -5.580412e-03
<VARIANCE> 39
 1.164729e+01 6.941075e+00 7.978930e+00 2.139409e+01 3.752169e+01 4.132137e+01 1.308309e+01 2.086851e+01 2.874912e+01 1.948223e+01 1.044817e+01 1.263392e+01 1.000000e-02 2.030247e-01 4.499731e-01 1.483593e+00 7.620615e-01 6.758206e-01 7.503442e-01 7.551388e-01 1.083895e+00 8.004566e-01 7.951280e-01 5.056417e-01 6.366941e-01 1.000000e-02 4.669051e-02 3.931219e-02 1.143231e-01 1.978431e-01 9.054576e-02 1.704958e-01 2.230339e-01 3.117830e-01 1.642251e-01 3.049308e-01 8.320188e-02 9.785123e-02 1.000000e-02
<GCONST> 6.209483e+01
<STATE> 6
<MEAN> 39
 -8.523433e+00 -2.484798e+01 -1.612716e+01 7.652789e-01 2.863297e+00 -8.023516e+00 9.958048e+00 -4.088520e+00 2.120752e+00 -1.201575e+01 -4.324545e+00 -4.000197e-01 9.743190e-01 -1.835650e-01 -1.672489e-03 8.217973e-01 -2.480504e-01 -1.120905e+00 2.756001e-01 5.625639e-01 7.412252e-01 -6.077249e-01 -2.650861e-01 -6.743476e-02 3.740917e-03 -6.893591e-03 -9.969283e-02 1.515390e-01 -2.858660e-03 -1.679100e-01 -3.380871e-01 6.407418e-03 3.535204e-01 -8.082343e-02 -2.029644e-01 -9.325363e-02 -1.218412e-01 -1.801266e-01 -3.555371e-03
<VARIANCE> 39
 7.230052e+00 8.149393e+00 2.018815e+01 1.327048e+01 3.038852e+01 3.859504e+01 4.938354e+00 1.115907e+01 2.161072e+01 1.168089e+01 6.719295e+00 1.744473e+01 1.000000e-02 2.488770e-01 3.722413e-01 2.792347e-01 1.049411e+00 4.605181e-01 6.324134e-01 8.154812e-01 3.066256e-01 8.491963e-01 6.841810e-01 8.474065e-01 5.921313e-01 1.000000e-02 3.584709e-02 7.361084e-02 7.669722e-02 1.044816e-01 5.918346e-02 1.742228e-01 1.061842e-01 8.487035e-02 1.829094e-01 1.658956e-01 1.059958e-01 1.044587e-01 1.000000e-02
<GCONST> 5.339505e+01
<STATE> 7
<MEAN> 39
 -1.030502e+01 -2.225891e+01 -1.228243e+01 -2.365713e+00 -5.670311e+00 -5.238601e+00 1.575572e+01 -2.512781e+00 -1.057040e+00 -1.292438e+01 -6.408743e+00 -3.750533e+00 9.034983e-01 -8.697117e-02 8.193399e-01 9.750019e-01 -1.620438e+00 -1.799839e+00 5.317526e-01 1.079323e+00 -3.643999e-01 4.727302e-01 1.711681e+00 -6.425821e-01 -1.110761e+00 -2.434731e-02 2.006555e-01 -4.933969e-02 8.082126e-02 -3.165826e-01 9.717463e-02 -3.397291e-01 -4.035255e-01 -2.316321e-01 5.553070e-01 9.082211e-01 9.527644e-03 7.969974e-02 -9.461680e-04
<VARIANCE> 39
 4.940374e+00 1.176535e+01 2.567268e+01 2.396028e+01 2.612820e+01 3.426964e+01 1.139194e+01 2.274180e+01 1.992286e+01 2.011528e+01 1.001888e+01 1.862920e+01 1.000000e-02 1.798966e-01 4.870037e-01 3.961184e-01 1.364671e+00 6.044874e-01 7.210030e-01 7.305353e-01 5.749663e-01 2.077692e+00 3.444250e+00 6.952165e-01 5.058153e-01 1.000000e-02 1.910906e-02 9.912416e-02 4.736137e-02 1.578019e-01 8.066712e-02 1.620757e-01 1.987267e-01 1.617896e-01 1.986273e-01 2.368884e-01 1.940614e-01 1.964455e-01 1.000000e-02
<GCONST> 6.283484e+01
<STATE> 8
<MEAN> 39
 -9.418554e+00 -1.927870e+01 -6.173529e+00 -1.274508e+01 -1.321801e+01 -6.647550e+00 1.294333e+01 -5.517246e+00 5.088014e+00 1.302598e-01 -8.526000e+00 -4.353980e+00 8.025813e-01 5.427049e-01 5.622337e-01 6.917709e-01 -1.313458e+00 -8.689390e-01 -7.600151e-01 -1.338946e+00 -3.120334e-02 5.225898e-01 1.642504e+00 -5.443618e-01 8.335681e-01 -2.003290e-02 1.751340e-01 -1.219487e-01 -1.432072e-02 2.905341e-01 3.166400e-01 3.566413e-04 -1.961517e-01 1.187093e-01 -3.828046e-01 -7.049493e-01 1.637969e-01 1.758869e-01 -1.709983e-03
<VARIANCE> 39
 5.529315e+00 7.189133e+00 4.074664e+01 2.596857e+01 2.124556e+01 2.537078e+01 1.819182e+01 2.036342e+01 2.009524e+01 2.929464e+01 1.311698e+01 1.867405e+01 1.000000e-02 2.301999e-01 3.272049e-01 4.659698e-01 1.209202e+00 1.313316e+00 1.103619e+00 1.000555e+00 1.218154e+00 2.464338e+00 4.407784e+00 9.887863e-01 8.312504e-01 1.000000e-02 4.074752e-02 6.179040e-02 9.086091e-02 1.319102e-01 1.614437e-01 1.753319e-01 2.825134e-01 2.177190e-01 4.207130e-01 6.487430e-01 2.757159e-01 2.204873e-01 1.000000e-02
<GCONST> 7.133004e+01
<STATE> 9
<MEAN> 39
 -3.006390e+00 -1.925968e+01 -3.842389e+00 -1.417209e+01 -1.126917e+01 -9.694427e+00 6.954675e+00 -3.502276e+00 2.609018e+00 5.266287e-01 -8.163664e+00 -5.824618e-01 6.639643e-01 1.766245e+00 -6.456271e-01 7.123717e-01 6.672103e-01 4.945823e-01 7.445094e-01 -1.041163e+00 3.915269e-01 -8.228534e-01 -8.213462e-01 1.053308e+00 -2.281303e-01 -3.123962e-02 1.969114e-02 -9.850227e-02 -2.181776e-01 4.086857e-01 -1.278803e-01 2.958842e-01 2.027852e-01 -6.954663e-03 -3.219575e-02 -1.165331e-01 3.445331e-02 -3.471982e-01 3.638354e-04
<VARIANCE> 39
 2.239654e+01 4.438986e+00 3.372627e+01 2.663024e+01 1.933287e+01 2.215898e+01 1.883578e+01 1.634902e+01 4.473579e+00 8.464719e+00 1.381660e+01 1.735149e+01 1.000000e-02 3.628313e-01 3.961988e-01 1.082617e+00 1.212473e+00 1.298088e+00 9.230999e-01 1.281250e+00 1.241492e+00 8.738255e-01 1.971402e+00 1.127183e+00 1.909334e+00 1.000000e-02 1.411584e-01 8.995186e-02 1.652880e-01 1.946696e-01 3.304940e-01 2.053807e-01 2.320552e-01 3.166146e-01 1.480186e-01 6.104214e-01 3.116522e-01 2.626779e-01 1.000000e-02
<GCONST> 7.244225e+01
<STATE> 10
<MEAN> 39
 1.765720e+00 -2.253449e+01 -2.900924e+00 -6.889473e+00 -1.252514e+01 -5.087519e+00 5.829785e+00 -4.001204e+00 -1.830268e+00 -4.358505e+00 -4.261699e+00 -2.908211e+00 5.020592e-01 -8.236644e-02 -2.059523e-01 -1.035356e-01 1.367661e+00 4.155620e-01 6.116333e-02 3.332787e-01 -1.296138e-02 -6.266852e-01 -8.369140e-01 2.568778e-01 -3.177818e-01 -2.838388e-02 -2.840718e-01 2.020358e-01 -4.947253e-02 6.701512e-02 4.069764e-01 -2.135902e-01 8.650525e-02 8.976655e-02 1.905605e-01 2.314216e-02 -1.187831e-01 8.550278e-02 -8.092763e-04
<VARIANCE> 39
 1.336093e+01 1.011075e+01 1.788689e+01 2.316869e+01 1.578793e+01 1.297951e+01 1.829501e+01 1.688033e+01 1.027285e+01 1.510869e+01 1.424868e+01 7.093137e+00 1.061476e-02 1.267987e+00 1.025038e+00 5.871161e-01 2.328147e+00 2.232492e+00 1.026805e+00 2.509682e+00 2.112076e+00 1.613236e+00 2.584061e+00 1.487622e+00 9.849496e-01 1.000000e-02 1.893486e-01 1.601570e-01 9.020170e-02 2.637452e-01 3.133628e-01 1.685795e-01 5.326483e-01 3.500774e-01 3.410666e-01 5.163764e-01 3.856830e-01 2.715178e-01 1.000000e-02
<GCONST> 7.860431e+01
<STATE> 11
<MEAN> 39
 5.513538e-01 -2.076344e+01 -3.626864e+00 -5.162347e-01 -5.575596e+00 -6.074821e+00 6.248106e+00 -1.419842e+00 -8.830888e-01 -7.347554e+00 -5.073114e+00 -6.037739e+00 3.741072e-01 -5.059861e-01 4.183358e-01 -7.612079e-01 8.850053e-01 1.383649e+00 -5.224422e-01 -4.231085e-01 4.432536e-01 4.999847e-01 -1.267990e-01 3.084849e-01 3.409618e-01 -3.564287e-02 -2.500892e-01 -1.219974e-01 -3.252331e-02 -3.952447e-01 -2.823641e-01 -9.830344e-03 -1.102375e-01 -1.093355e-01 -1.071961e-01 2.771659e-01 1.658587e-01 4.669414e-01 -3.906500e-03
<VARIANCE> 39
 1.020278e+01 1.592901e+01 1.652150e+01 1.020967e+01 2.021546e+01 1.426521e+01 1.045819e+01 7.334599e+00 1.352337e+01 1.043118e+01 2.224233e+01 2.828805e+01 1.000000e-02 3.986292e-01 5.536523e-01 3.364266e-01 1.799203e+00 1.704612e+00 9.233680e-01 6.573352e-01 6.011103e-01 4.643579e-01 2.375170e+00 2.517565e+00 2.873811e+00 1.000000e-02 7.888442e-02 1.376199e-01 1.492646e-01 2.085054e-01 2.465516e-01 1.547846e-01 1.633450e-01 1.523006e-01 3.108234e-01 4.837889e-01 4.705775e-01 3.534118e-01 1.000000e-02
<GCONST> 7.042630e+01
<STATE> 12
<MEAN> 39
 -3.875288e+00 -1.977056e+01 -5.794290e+00 6.770834e-01 -2.997658e+00 -7.268890e+00 5.117520e+00 1.163491e-01 -8.889334e-01 -6.879614e+00 -2.729681e+00 -1.118567e+00 1.770208e-01 -7.383608e-01 8.349212e-01 5.048535e-01 1.412887e-01 2.811605e-01 2.909887e-01 1.110083e-01 1.988561e-01 2.734963e-01 -6.708016e-02 4.464121e-01 4.849082e-01 -4.003377e-02 1.979073e-01 3.628459e-01 2.745207e-01 -1.752119e-01 -5.420948e-02 1.797645e-01 8.247450e-02 -9.372184e-02 4.299687e-02 8.317000e-02 1.085265e-01 -1.469506e-01 4.561780e-03
<VARIANCE> 39
 4.814075e+00 1.358437e+01 6.038513e+00 8.036971e+00 1.175773e+01 9.100728e+00 1.324779e+01 1.912973e+01 1.358969e+01 5.083255e+00 7.698203e+00 1.248399e+01 1.000000e-02 5.478889e-01 9.669272e-01 1.109700e+00 7.722540e-01 9.437003e-01 9.529799e-01 9.615095e-01 2.955045e+00 1.567549e+00 7.144302e-01 1.675709e+00 1.510907e+00 1.000000e-02 4.274581e-02 8.771419e-02 1.972040e-01 1.632674e-01 2.671158e-01 2.016500e-01 2.407843e-01 5.967526e-01 2.370588e-01 1.879842e-01 2.963889e-01 2.432396e-01 1.000000e-02
<GCONST> 6.649960e+01
<STATE> 13
<MEAN> 39
 -5.079148e+00 -1.237768e+01 -1.735796e+00 -9.712056e-01 -6.624439e-01 -4.532786e+00 4.851849e+00 -5.910999e-01 -6.105460e-01 -5.350940e+00 1.263357e+00 6.842837e-01 6.582020e-02 -3.141927e-01 8.957571e-01 2.640672e-01 -3.589140e-01 5.265875e-01 7.269716e-01 -1.869262e-01 -3.382176e-01 -3.282296e-01 4.868600e-01 5.731505e-01 1.560325e-02 -1.886569e-02 -7.309571e-02 -3.555928e-01 -2.315707e-01 1.112511e-01 -9.565488e-02 -1.287169e-01 -5.147739e-02 -6.374016e-02 3.349080e-02 8.376034e-02 -1.560519e-01 -1.522068e-01 7.699929e-04
<VARIANCE> 39
 2.188292e+00 6.346538e+00 9.023034e+00 4.374889e+00 9.405645e+00 1.146324e+01 6.694090e+00 1.260222e+01 4.260989e+00 7.694126e+00 1.061387e+01 5.498200e+00 1.000000e-02 3.154030e-01 1.777754e+00 1.092123e+00 5.842090e-01 7.715701e-01 1.242220e+00 6.439450e-01 1.270869e+00 7.593344e-01 1.134783e+00 1.040259e+00 3.417183e-01 1.000000e-02 5.008227e-02 1.433077e-01 1.753214e-01 1.070004e-01 1.576817e-01 2.953841e-01 5.589794e-02 2.517188e-01 1.920103e-01 2.403822e-01 1.748862e-01 7.493498e-02 1.000000e-02
<GCONST> 5.473280e+01
<TRANSP> 14
 0.000000e+00 1.000000e+00 0.000000e+00 0.000000e+00 0.000000e+00 0.000000e+00 0.000000e+00 0.000000e+00 0.000000e+00 0.000000e+00 0.000000e+00 0.000000e+00 0.000000e+00 0.000000e+00
 0.000000e+00 7.916667e-01 2.083333e-01 0.000000e+00 0.000000e+00 0.000000e+00 0.000000e+00 0.000000e+00 0.000000e+00 0.000000e+00 0.000000e+00 0.000000e+00 0.000000e+00 0.000000e+00
 0.000000e+00 0.000000e+00 8.275862e-01 1.724138e-01 0.000000e+00 0.000000e+00 0.000000e+00 0.000000e+00 0.000000e+00 0.000000e+00 0.000000e+00 0.000000e+00 0.000000e+00 0.000000e+00
 0.000000e+00 0.000000e+00 0.000000e+00 6.875000e-01 3.125000e-01 0.000000e+00 0.000000e+00 0.000000e+00 0.000000e+00 0.000000e+00 0.000000e+00 0.000000e+00 0.000000e+00 0.000000e+00
 0.000000e+00 0.000000e+00 0.000000e+00 0.000000e+00 8.076923e-01 1.923077e-01 0.000000e+00 0.000000e+00 0.000000e+00 0.000000e+00 0.000000e+00 0.000000e+00 0.000000e+00 0.000000e+00
 0.000000e+00 0.000000e+00 0.000000e+00 0.000000e+00 0.000000e+00 8.214286e-01 1.785714e-01 0.000000e+00 0.000000e+00 0.000000e+00 0.000000e+00 0.000000e+00 0.000000e+00 0.000000e+00
 0.000000e+00 0.000000e+00 0.000000e+00 0.000000e+00 0.000000e+00 0.000000e+00 7.500000e-01 2.500000e-01 0.000000e+00 0.000000e+00 0.000000e+00 0.000000e+00 0.000000e+00 0.000000e+00
 0.000000e+00 0.000000e+00 0.000000e+00 0.000000e+00 0.000000e+00 0.000000e+00 0.000000e+00 8.275862e-01 1.724138e-01 0.000000e+00 0.000000e+00 0.000000e+00 0.000000e+00 0.000000e+00
 0.000000e+00 0.000000e+00 0.000000e+00 0.000000e+00 0.000000e+00 0.000000e+00 0.000000e+00 0.000000e+00 7.826087e-01 2.173913e-01 0.000000e+00 0.000000e+00 0.000000e+00 0.000000e+00
 0.000000e+00 0.000000e+00 0.000000e+00 0.000000e+00 0.000000e+00 0.000000e+00 0.000000e+00 0.000000e+00 0.000000e+00 8.214286e-01 1.785714e-01 0.000000e+00 0.000000e+00 0.000000e+00
 0.000000e+00 0.000000e+00 0.000000e+00 0.000000e+00 0.000000e+00 0.000000e+00 0.000000e+00 0.000000e+00 0.000000e+00 0.000000e+00 7.368421e-01 2.631579e-01 0.000000e+00 0.000000e+00
 0.000000e+00 0.000000e+00 0.000000e+00 0.000000e+00 0.000000e+00 0.000000e+00 0.000000e+00 0.000000e+00 0.000000e+00 0.000000e+00 0.000000e+00 8.000000e-01 2.000000e-01 0.000000e+00
 0.000000e+00 0.000000e+00 0.000000e+00 0.000000e+00 0.000000e+00 0.000000e+00 0.000000e+00 0.000000e+00 0.000000e+00 0.000000e+00 0.000000e+00 0.000000e+00 7.916667e-01 2.083333e-01
 0.000000e+00 0.000000e+00 0.000000e+00 0.000000e+00 0.000000e+00 0.000000e+00 0.000000e+00 0.000000e+00 0.000000e+00 0.000000e+00 0.000000e+00 0.000000e+00 0.000000e+00 0.000000e+00
<ENDHMM>
