~o
<STREAMINFO> 1 39
<VECSIZE> 39<NULLD><MFCC_E_D_A><DIAGC>
~h "Ngu*ng"
<BEGINHMM>
<NUMSTATES> 38
<STATE> 2
<MEAN> 39
 -4.371379e+00 -7.316965e+00 4.967286e-02 -1.129823e+00 2.456425e+00 -3.490770e+00 1.106649e+00 -3.653879e+00 -1.355147e-01 -4.099614e+00 2.998612e+00 -1.633006e+00 1.553255e-01 -1.378109e+00 7.683554e-01 -1.037564e+00 1.043026e+00 -8.563544e-03 -2.238012e-02 4.419854e-01 3.275560e-01 2.262003e-02 -3.337792e-01 -3.283021e-01 -2.880480e-01 3.917749e-03 -1.725474e-01 1.364050e-01 -4.762741e-01 -2.374413e-01 -4.204646e-01 -1.176615e-01 -1.124319e-02 2.233755e-01 2.602063e-02 1.120139e-01 4.798738e-02 -2.283297e-01 9.160684e-03
<VARIANCE> 39
 2.916148e+00 2.235997e+00 4.200589e+00 3.714899e+00 4.207172e+00 7.128993e+00 9.603068e+00 5.809515e+00 1.142464e+01 1.089805e+01 7.321087e+00 7.651226e+00 1.000000e-02 2.015986e+00 3.971830e+00 2.339613e+00 2.366183e+00 1.142154e+00 1.076120e+00 1.984665e+00 5.175296e-01 1.158885e+00 1.202016e+00 2.666407e+00 1.829583e+00 1.000000e-02 5.283553e-01 2.429185e-01 2.773222e-01 5.088556e-01 1.112210e-01 1.091996e-01 4.409308e-01 2.226159e-01 2.754024e-01 2.114749e-01 4.619663e-01 2.771709e-01 1.000000e-02
<GCONST> 6.905595e+01
<STATE> 3
<MEAN> 39
 -1.172297e+01 -2.493050e+00 -5.947453e+00 3.343178e+00 7.037176e-01 -3.632856e+00 5.356579e+00 -1.485237e+00 2.160359e+00 -2.645980e+00 5.624961e+00 -2.988984e+00 2.009535e-01 4.170005e-01 1.615968e-01 -6.172734e-01 -7.907780e-01 -1.009502e+00 -2.561722e-01 -2.997376e-01 9.154269e-01 -3.654746e-01 -4.094319e-01 -2.716294e-01 -6.395606e-01 4.250859e-02 1.468190e+00 -6.856345e-01 4.546896e-01 -1.147980e+00 -2.049098e-01 -1.807001e-01 -6.505137e-01 -2.135812e-01 -2.510968e-01 -6.264277e-02 -7.346853e-01 2.761713e-02 1.235249e-02
<VARIANCE> 39
 2.322672e+01 7.366874e+01 6.004140e+01 4.018195e+01 1.356489e+01 2.657431e+01 2.469432e+01 2.682735e+00 2.293430e+01 5.349144e+00 3.083371e+01 1.798778e+01 1.668145e-02 2.589354e+00 1.098265e+00 1.493418e+00 3.453305e+00 1.061524e+00 8.024815e-01 2.517409e+00 1.637016e+00 1.401258e+00 1.296000e+00 2.441297e+00 1.122234e+00 1.000000e-02 8.717003e-02 1.642959e+00 1.624571e+00 5.197838e-01 5.071152e-01 2.837224e-01 3.384008e-01 1.886979e-01 1.539720e-01 1.771431e-01 3.057106e-01 3.178511e-01 1.000000e-02
<GCONST> 8.762579e+01
<STATE> 4
<MEAN> 39
 -5.413888e+00 -7.384924e+00 -2.078145e+00 -2.775863e+00 -1.301590e+00 -4.874208e+00 -4.060256e-01 -4.337129e-01 -1.860982e+00 -6.822543e+00 1.061030e+00 -3.962531e+00 2.096459e-01 2.977223e+00 -1.054701e+00 2.010210e-01 -2.932139e+00 -5.954922e-01 -1.025285e-01 -1.398263e+00 -2.323193e-01 -6.293482e-01 -2.456072e-02 -2.676805e+00 -5.344172e-01 4.166508e-02 4.583471e-01 -9.047790e-02 -2.400899e-01 -3.890291e-02 9.476380e-02 -1.582715e-01 6.519347e-03 -5.535501e-01 1.391561e-01 2.353924e-01 -2.398304e-01 3.092746e-02 1.056449e-02
<VARIANCE> 39
 7.153858e+00 3.849955e+00 2.818365e+00 1.803220e+01 1.000605e+01 5.788679e+00 1.443930e+01 1.859164e+01 1.029334e+01 9.940716e+00 4.064667e+01 1.133151e+01 1.488608e-02 1.411440e+00 6.616442e+00 8.680782e+00 1.313047e+00 2.603412e+00 1.038776e+00 1.378684e+00 1.918695e+00 9.946470e-01 1.414750e+00 1.188833e+00 1.263816e+00 1.000000e-02 2.774512e-01 2.373847e-01 2.327030e-01 3.419368e-01 9.238062e-02 7.456483e-02 2.504633e-01 5.653254e-01 3.727908e-02 1.320681e-01 4.100813e-01 2.602494e-01 1.000000e-02
<GCONST> 7.356464e+01
<STATE> 5
<MEAN> 39
 -1.519752e-01 -6.754231e+00 -3.879258e+00 -6.854953e+00 -1.678475e-01 -3.663960e+00 1.907918e-01 -1.802069e+00 1.079396e+00 -3.090988e+00 -4.236966e+00 -4.948849e+00 3.586151e-01 1.889679e+00 -6.743502e-01 -1.209831e+00 -9.171417e-01 -7.578757e-01 -8.125093e-01 -2.422732e-01 -1.408939e+00 -2.170056e-02 -9.410036e-02 -1.539005e+00 -5.985192e-01 6.092438e-02 -7.486231e-01 -1.934894e-02 -1.613587e-01 6.903473e-01 8.559726e-03 -2.870407e-01 4.873182e-01 -1.886826e-02 -2.247452e-01 -2.669905e-01 6.868438e-01 4.126643e-01 -4.603049e-03
<VARIANCE> 39
 4.803014e+01 3.895796e+00 1.365666e+01 2.970798e+01 8.326859e+00 8.785304e+00 7.700572e+00 1.263736e+01 1.827012e+01 6.446288e+00 2.782121e+01 9.311310e+00 6.749929e-02 3.389307e+00 6.756860e-01 1.947086e+00 9.828159e-01 1.117888e+00 1.212784e+00 8.663610e-01 2.027026e+00 4.720661e-01 7.438869e-01 1.447014e+00 5.285524e-01 1.000000e-02 3.067242e-01 5.012565e-01 3.582026e-01 2.172692e-01 2.286014e-01 1.990637e-01 1.463196e-01 3.728146e-01 1.193267e-01 2.345679e-01 1.600258e-01 1.189006e-01 1.000000e-02
<GCONST> 7.327332e+01
<STATE> 6
<MEAN> 39
 4.801018e-01 -1.012299e+01 -5.137303e+00 -5.716027e+00 -3.382054e+00 -6.677082e+00 2.863379e-01 -6.074271e+00 -2.215015e+00 -5.399202e+00 -2.043017e+00 -4.902400e+00 3.786373e-01 4.232738e-01 -6.466618e-01 -3.995375e-01 -8.152507e-02 -7.916811e-01 -1.221894e+00 8.339024e-02 -4.161996e-01 -1.391159e+00 -1.062735e+00 2.466572e-01 1.046900e+00 3.137932e-02 -8.728629e-01 1.944565e-01 3.773398e-01 3.210723e-01 4.000544e-01 -2.465603e-01 1.953132e-01 8.614011e-01 1.629760e-01 2.164736e-01 -1.596428e-02 2.253128e-01 -7.133804e-03
<VARIANCE> 39
 6.030891e+01 7.787672e+00 1.754684e+01 2.306734e+01 2.226810e+01 2.137015e+01 5.709539e+00 8.811716e+00 1.707168e+01 1.249297e+01 3.706084e+01 7.890638e+00 1.035597e-01 8.247795e-01 5.904570e-01 1.100699e+00 1.617971e-01 7.432669e-01 1.993473e+00 3.255309e-01 1.489831e+00 1.897867e-01 4.464784e-01 1.299969e+00 3.247715e-01 1.000000e-02 9.748663e-01 1.547535e-01 1.319459e-01 1.678053e-01 1.406262e-01 4.629880e-01 1.931011e-01 1.318539e-01 2.661071e-01 2.175004e-01 2.795516e-01 1.696542e-01 1.000000e-02
<GCONST> 6.937088e+01
<STATE> 7
<MEAN> 39
 5.144891e+00 -9.279669e+00 -8.842801e+00 -7.358410e+00 -5.119466e+00 -1.014529e+01 -5.568528e-01 -4.512360e+00 -5.826890e+00 -8.501122e+00 -5.919721e+00 -2.610217e+00 5.715283e-01 -2.230382e+00 -2.114872e-01 5.893026e-03 5.501234e-01 7.673112e-01 -2.809383e+00 1.216702e+00 1.878621e+00 -7.437712e-02 5.372960e-01 -1.478754e+00 5.459114e-01 3.881316e-02 -1.270344e+00 4.254527e-02 3.175415e-01 -4.711094e-02 5.362759e-01 3.887521e-01 1.095698e-01 6.624258e-01 8.547095e-01 6.369286e-01 -3.431392e-01 -2.715961e-01 -4.448941e-03
<VARIANCE> 39
 4.291772e+01 3.806971e+00 4.004373e+01 1.634813e+01 2.544295e+01 3.100373e+01 1.676489e+01 2.104081e+01 1.853851e+01 7.327213e+00 4.188042e+01 6.659101e+00 7.889362e-02 3.710656e+00 1.142631e+00 1.345268e+00 8.247884e-01 5.373051e-01 3.620436e+00 1.586635e+00 4.480367e-01 1.312899e+00 1.598740e+00 8.987830e-01 5.231635e-01 1.000000e-02 6.501011e-01 1.937917e-01 4.655505e-01 1.292856e-01 1.780858e-01 7.334962e-01 2.634712e-01 1.211946e-01 1.676164e-01 2.813833e-02 8.299450e-02 5.700093e-02 1.000000e-02
<GCONST> 7.537366e+01
<STATE> 8
<MEAN> 39
 -4.209274e+00 -8.535061e+00 -2.456274e+00 -3.613941e+00 -5.986575e-01 -9.443175e+00 8.195126e-01 -2.915204e+00 3.130464e-01 -3.949042e+00 -2.310905e+00 -3.862113e+00 3.103854e-01 -1.415411e+00 -3.702658e-01 -4.270074e-01 -2.987991e-01 2.951748e-01 -3.737610e-01 3.151457e-01 1.176436e+00 8.156480e-01 4.484004e-01 -5.727379e-01 1.929759e-02 -1.561294e-03 -1.967765e-01 -1.069747e-01 -1.119773e-01 -1.866713e-01 8.718275e-02 6.098185e-01 -5.169591e-02 1.291977e-01 1.939712e-01 -6.865138e-03 1.885023e-01 6.308287e-02 -6.789465e-03
<VARIANCE> 39
 2.593134e+00 3.871686e+00 2.828215e+01 2.231904e+01 6.737362e+00 5.529427e+01 9.413452e+00 1.251798e+01 3.035246e+01 8.298918e+00 5.372091e+01 7.516950e+00 7.384650e-02 4.180961e+00 8.224881e-01 1.971004e+00 8.043761e-01 6.768258e-01 1.764384e+00 1.171634e+00 1.769284e+00 1.414152e+00 2.146825e+00 1.648532e+00 1.071171e+00 1.000000e-02 1.938744e-02 1.104956e-01 2.668908e-01 1.390864e-01 1.192034e-01 8.399680e-01 2.736621e-01 7.405850e-02 3.416148e-01 2.423487e-01 1.764283e-01 3.695072e-01 1.000000e-02
<GCONST> 7.425507e+01
<STATE> 9
<MEAN> 39
 -7.646485e+00 -1.187738e+01 -5.854308e+00 -7.513615e+00 -7.448088e-01 -1.147461e+01 3.300702e+00 1.410427e+00 -6.059906e-01 -2.542522e+00 -8.106776e+00 -1.739845e+00 5.174630e-01 -2.536959e+00 -5.616613e-01 -6.898696e-02 -5.628589e-01 6.329098e-01 1.658318e+00 -2.223767e-01 1.883936e+00 1.636688e+00 1.105003e+00 -3.596439e-01 6.382219e-01 2.920749e-02 7.940643e-01 2.385400e-01 -2.985714e-01 -7.777061e-02 -5.662832e-02 8.546630e-01 -8.532414e-01 -4.641919e-01 1.278776e-01 -2.063798e-01 3.516915e-01 -2.722625e-01 4.788687e-03
<VARIANCE> 39
 4.127867e+00 1.080798e+01 2.631089e+01 4.093613e+01 1.208062e+01 4.910998e+01 5.458203e+00 1.127505e+01 1.784808e+01 2.213556e+01 9.643630e+01 4.287402e+00 1.621109e-01 2.924678e+00 8.324195e-01 1.101842e+00 1.554371e+00 9.915065e-01 6.405109e-01 6.472642e-01 1.157465e+00 1.114959e+00 3.831911e-01 7.324724e-01 1.204224e+00 1.000000e-02 1.228677e-01 1.233665e-01 3.403517e-01 1.364151e-01 1.802618e-01 7.863235e-01 1.114131e-01 3.287748e-02 3.064433e-01 4.298509e-01 1.195344e-01 7.663177e-02 1.000000e-02
<GCONST> 7.210338e+01
<STATE> 10
<MEAN> 39
 -9.371110e+00 -1.118028e+01 -9.360520e+00 -9.043299e+00 -3.408698e-01 -8.252841e+00 1.032369e+00 6.449900e+00 2.328285e+00 -4.080723e+00 -9.188176e+00 -2.320837e+00 6.636491e-01 -4.727412e-01 -1.573754e-01 -7.486042e-01 -5.284275e-01 1.151476e+00 2.180550e+00 -1.404896e+00 6.901955e-01 1.570568e+00 -1.822772e-02 2.434085e-02 -4.751551e-01 3.026154e-02 8.593574e-01 2.135655e-02 1.298482e-01 8.893338e-02 1.768788e-01 8.577772e-02 -2.461991e-01 -7.453511e-01 -2.654617e-01 -2.519039e-01 1.694554e-01 -3.315246e-01 -3.446841e-03
<VARIANCE> 39
 4.107644e+00 3.427214e+00 4.727337e+01 4.020992e+01 5.496602e+00 2.728767e+01 4.865847e+00 1.260788e+01 7.976092e+00 1.589062e+01 6.455630e+01 1.902276e+00 1.761835e-01 1.235643e+00 4.254952e-01 6.434434e-01 1.875492e-01 1.506130e+00 2.733681e+00 4.856217e-01 1.234703e+00 1.967819e+00 2.451409e-01 4.380813e-01 5.293316e-01 1.000000e-02 1.507960e-01 1.059495e-01 1.507960e-01 7.068387e-02 4.785851e-02 3.140326e-01 9.858473e-02 7.776102e-02 8.579574e-02 2.201513e-01 1.200543e-01 1.067921e-01 1.000000e-02
<GCONST> 5.958825e+01
<STATE> 11
<MEAN> 39
 -8.207478e+00 -1.135660e+01 -7.802781e+00 -9.317546e+00 2.759009e+00 -3.504363e+00 -3.149506e+00 2.919971e+00 3.917047e+00 -4.230282e+00 -5.923978e+00 -3.312415e+00 5.549498e-01 2.678565e-01 -1.002171e-01 -2.294023e-01 -1.787645e-01 9.217353e-01 9.335253e-01 -1.115323e+00 -6.193860e-01 3.282670e-01 -3.451168e-01 1.247192e-01 -8.353008e-01 1.263801e-02 8.582987e-02 3.795812e-02 1.009036e-01 1.226089e-01 -1.695407e-01 -5.189061e-01 2.779081e-01 -2.436879e-01 -2.887522e-01 -1.191671e-01 4.872861e-02 7.899562e-02 -7.061336e-03
<VARIANCE> 39
 8.758168e+00 6.585049e+00 4.346302e+01 3.482806e+01 1.087702e+01 2.042228e+01 6.592107e+00 2.758480e+01 6.414183e+00 1.338184e+01 8.988805e+01 1.146863e+01 1.946923e-01 2.507033e-01 2.673073e-01 5.986876e-01 3.115869e-01 8.936628e-01 1.786390e+00 7.247607e-01 3.761128e-01 9.550764e-01 1.231370e+00 4.017218e-01 3.095889e-01 1.000000e-02 1.277356e-01 8.365324e-02 3.891041e-02 5.145840e-02 2.635575e-01 1.282874e-01 1.102670e-01 1.280495e-01 8.369216e-02 1.959419e-01 6.699589e-02 1.059714e-01 1.000000e-02
<GCONST> 5.961063e+01
<STATE> 12
<MEAN> 39
 -7.863470e+00 -1.210032e+01 -8.171962e+00 -7.789613e+00 3.212862e+00 -4.413002e+00 -2.144747e+00 1.449523e+00 3.708354e+00 -4.531186e+00 -6.927570e+00 -3.906243e+00 5.661499e-01 -7.347753e-02 -1.933743e-01 -2.572977e-01 -2.530822e-01 6.903657e-01 2.600328e-01 -3.998934e-01 -2.485379e-01 1.073517e-01 -6.413181e-02 5.115495e-01 2.532379e-01 -7.895758e-03 5.417458e-02 1.653391e-01 1.637609e-01 -1.439949e-01 -2.796615e-01 -4.206569e-01 1.522984e-01 -2.895345e-02 -1.898637e-01 4.180334e-01 2.470886e-01 1.671419e-01 -5.275121e-03
<VARIANCE> 39
 1.110305e+01 7.896889e+00 6.443819e+01 4.285432e+01 1.125163e+01 1.283411e+01 1.241104e+01 3.630624e+01 1.696114e+01 1.023315e+01 8.338293e+01 1.005056e+01 1.852497e-01 1.854685e-01 3.374535e-01 9.159929e-01 7.832345e-01 1.619930e+00 2.232060e+00 6.763788e-01 4.990931e-01 5.389323e-01 1.603930e+00 7.366957e-01 6.821404e-01 1.000000e-02 9.076861e-02 7.142072e-02 1.040239e-01 1.108063e-01 3.388006e-01 2.339037e-01 9.480607e-02 3.663068e-01 5.571144e-01 2.708433e-01 8.701143e-02 1.653558e-01 1.000000e-02
<GCONST> 7.088143e+01
<STATE> 13
<MEAN> 39
 -7.788440e+00 -1.139615e+01 -7.828090e+00 -8.964117e+00 4.199488e+00 -4.071744e+00 -3.697471e+00 1.941998e+00 4.661812e+00 -3.965390e+00 -4.534907e+00 -3.056829e+00 5.416437e-01 4.160528e-01 5.675766e-01 7.081969e-01 -3.144659e-01 -6.743474e-02 -1.729866e-01 1.223953e-01 -4.396408e-01 -5.535555e-02 1.222108e+00 5.472059e-01 7.553579e-02 3.212250e-03 2.154119e-01 2.032875e-01 4.362267e-01 -4.196382e-02 -2.401797e-01 1.230595e-01 1.342874e-01 -1.312411e-01 -1.813564e-01 1.637238e-01 -1.833234e-01 -1.439874e-01 1.807500e-03
<VARIANCE> 39
 7.320735e+00 2.489802e+00 5.824109e+01 6.989960e+01 6.376040e+00 3.898075e+00 1.238715e+01 1.861279e+01 6.646999e+00 6.461001e+00 8.591884e+01 1.969618e+01 1.803079e-01 8.556242e-01 8.472962e-02 9.667926e-01 1.754685e+00 1.800921e+00 1.484338e+00 7.451069e-01 3.456973e+00 2.699171e+00 1.255969e+00 8.217190e-01 9.708951e-01 1.000000e-02 6.169232e-02 7.444683e-02 2.392258e-01 1.782799e-01 3.493096e-01 1.676083e-01 9.840246e-02 1.743817e-01 1.167046e-01 1.180180e-01 9.397791e-02 4.957660e-01 1.000000e-02
<GCONST> 6.985184e+01
<STATE> 14
<MEAN> 39
 -8.337560e+00 -1.111488e+01 -8.604362e+00 -1.143447e+01 4.691404e+00 -4.953661e+00 -3.576497e+00 1.449312e+00 3.541340e+00 -2.500080e+00 -5.999642e+00 -4.663685e+00 6.488879e-01 4.105644e-01 5.971997e-01 6.690828e-01 -7.426294e-01 -1.177856e-01 2.389654e-01 -3.705198e-01 -1.032597e+00 -4.666261e-01 5.753632e-01 -5.729672e-02 -1.017490e+00 -4.801591e-03 1.525233e-01 -1.290140e-01 1.568449e-01 -6.514236e-02 -3.930948e-01 1.878640e-01 -6.966768e-02 -2.311669e-01 -9.609922e-02 -5.943329e-02 -3.289577e-01 6.956203e-02 -6.955440e-03
<VARIANCE> 39
 1.244551e+01 6.108174e+00 8.420212e+01 1.150011e+02 9.232347e+00 1.142276e+01 1.906769e+01 8.030373e+00 5.778293e+00 6.250362e+00 8.648717e+01 1.817176e+01 1.348008e-01 5.063411e-01 1.427499e-01 1.461625e+00 1.514587e+00 2.793720e+00 4.095283e-01 1.031994e+00 2.137782e+00 7.336072e-01 9.066591e-01 6.688666e-01 2.273777e+00 1.000000e-02 6.469096e-02 3.859715e-02 3.227144e-01 4.665350e-01 1.696837e-01 1.615559e-01 4.829444e-02 3.061512e-01 4.768385e-01 3.893562e-01 1.767776e-01 1.533878e-01 1.000000e-02
<GCONST> 7.272464e+01
<STATE> 15
<MEAN> 39
 -5.496525e+00 -9.298079e+00 -3.847542e+00 -1.039295e+01 1.615197e+00 -3.815844e+00 -3.174763e+00 -9.508733e-01 3.142842e+00 -2.749015e-01 -5.201249e+00 -4.241216e+00 4.951417e-01 9.542481e-01 -4.778841e-02 6.375395e-01 -9.527025e-01 -1.346162e+00 9.254240e-01 -8.119932e-02 -7.382610e-01 -4.789289e-01 -1.559869e-01 -3.668040e-01 4.648996e-01 -1.768566e-02 2.354286e-01 -1.401372e-01 -1.188308e-01 2.440549e-02 -8.792061e-02 1.029671e-01 -1.694803e-01 2.719561e-02 1.742398e-01 -4.584878e-01 -6.498853e-02 4.356440e-02 5.347580e-03
<VARIANCE> 39
 7.740434e+00 4.997371e+00 4.960819e+01 8.306762e+01 2.544043e+01 3.034181e+00 1.312345e+01 1.385246e+01 1.086195e+01 1.580298e+00 5.510117e+01 2.622301e+01 1.212778e-01 1.003332e+00 5.418497e-01 4.077199e+00 1.837810e+00 2.119455e+00 7.253777e-01 6.044627e-01 9.853283e-01 1.565274e+00 2.290975e+00 1.781228e+00 2.176686e+00 1.000000e-02 7.352445e-02 4.263104e-02 3.122281e-01 1.830227e-01 3.184840e-01 2.480691e-01 6.390616e-02 3.309644e-01 1.963671e-01 2.468454e-01 3.237602e-01 4.830735e-01 1.000000e-02
<GCONST> 7.604890e+01
<STATE> 16
<MEAN> 39
 -4.693494e+00 -9.255587e+00 -3.456954e+00 -1.045717e+01 -5.051851e-02 -1.926131e+00 -2.104627e+00 -2.224155e+00 1.749822e+00 -3.713271e+00 -4.458386e+00 -3.929467e+00 4.348344e-01 1.406608e+00 2.173615e-01 4.293134e-01 -2.484648e-01 -9.854268e-01 -1.118611e-01 -8.801036e-01 -9.352905e-01 1.338491e-01 1.520751e-02 -4.289202e-01 -2.998158e-01 2.211057e-02 3.538682e-01 -8.278688e-02 -1.130599e-01 1.688089e-01 -1.354744e-02 -5.526827e-01 2.296545e-02 1.607231e-01 -1.159726e-01 2.276093e-01 1.310262e-03 -6.023161e-02 1.865855e-02
<VARIANCE> 39
 1.712550e+01 1.704115e+01 4.727735e+01 7.485111e+01 3.513625e+01 4.191303e+00 2.926855e+01 4.814779e+00 1.216225e+01 1.806345e+01 4.828881e+01 3.035710e+01 1.224610e-01 7.359930e-01 3.411610e-01 2.112791e+00 1.094886e+00 7.074053e-01 1.692414e+00 2.769795e-01 1.839427e+00 1.180018e+00 2.763448e+00 3.280324e+00 6.160969e-01 1.000000e-02 1.849182e-01 1.932697e-01 4.577811e-01 4.249228e-01 4.446813e-01 1.416562e-01 1.877704e-01 2.145320e-01 3.969597e-01 3.259557e-01 2.031070e-01 6.640370e-01 1.000000e-02
<GCONST> 8.269184e+01
<STATE> 17
<MEAN> 39
 2.691590e-01 -8.942746e+00 -4.432832e+00 -1.278178e+01 -2.532072e+00 -3.643914e+00 -4.840390e+00 -3.363811e+00 1.566832e+00 -2.511199e+00 -5.429004e+00 -4.959441e+00 6.058841e-01 2.126456e+00 -1.239341e-01 -6.712065e-01 -1.070856e+00 -7.055828e-01 -6.445622e-01 -4.295880e-01 -5.661464e-01 -1.354027e+00 -8.744498e-02 -1.024340e+00 -6.118364e-01 6.401997e-02 -1.954546e-01 -3.551505e-01 -1.462088e-01 -2.152249e-02 -5.138000e-02 -4.782162e-01 5.803874e-01 2.163460e-01 -2.938247e-01 -3.141147e-01 -2.788987e-01 3.785456e-01 4.096345e-03
<VARIANCE> 39
 2.607630e+01 1.585347e+01 2.805711e+01 4.989233e+01 3.805574e+01 3.148699e+01 2.269261e+01 1.648130e+01 2.476264e+01 2.499228e+01 5.106317e+01 1.454926e+01 6.383345e-02 1.514732e+00 9.532797e-01 4.664962e+00 3.167786e+00 1.649106e+00 2.020432e+00 7.152939e-01 1.403179e+00 4.259751e+00 1.425530e+00 2.294670e+00 2.744858e+00 1.000000e-02 8.275670e-01 1.129243e-01 6.448395e-01 4.817460e-01 2.370584e-01 2.542464e-01 2.039138e-01 6.532661e-01 3.928219e-01 6.267527e-01 3.756441e-01 3.876023e-01 1.000000e-02
<GCONST> 9.525450e+01
<STATE> 18
<MEAN> 39
 4.079854e-01 -1.147675e+01 -5.234538e+00 -1.619802e+01 -2.556360e+00 -6.476245e+00 -5.109280e+00 -2.886029e+00 -3.732897e+00 -8.137984e-03 -1.258344e+01 -4.678280e+00 7.817713e-01 3.686769e-01 -1.271742e+00 1.408889e+00 -2.921027e-01 -1.722280e+00 -1.501687e+00 1.462249e+00 3.553126e-01 -1.041757e-01 -1.101126e+00 -5.131044e-01 1.393212e+00 2.534660e-02 -2.770623e-01 -1.852625e-01 -1.695130e-01 1.995600e-01 7.758589e-02 1.264426e-01 1.366436e-02 5.840352e-02 9.713233e-01 -7.883280e-01 4.573339e-01 -4.970523e-04 -5.351548e-03
<VARIANCE> 39
 3.360503e+01 1.169610e+01 1.778622e+01 2.755107e+01 3.334816e+01 3.056889e+01 4.842752e+01 2.652878e+01 6.753394e+01 2.806855e+01 1.924002e+01 3.591958e+01 1.000000e-02 8.798617e+00 3.555021e-01 5.373379e+00 8.759371e-01 3.988855e-01 5.037885e-01 2.541786e+00 3.959727e+00 4.153240e+00 2.720467e+00 2.096344e+00 1.812607e+00 1.000000e-02 5.548441e-01 1.302892e-01 2.790117e-01 4.287513e-01 2.702019e-01 6.756769e-01 1.033494e+00 2.912584e-01 1.155856e+00 3.258723e-01 4.808239e-01 4.807361e-01 1.000000e-02
<GCONST> 9.526154e+01
<STATE> 19
<MEAN> 39
 3.348081e+00 -1.361835e+01 -4.788608e+00 -1.556620e+01 -7.950530e+00 -5.949990e+00 -2.672177e+00 -4.312151e+00 1.580769e+00 -6.859170e+00 -8.128516e+00 -4.329146e+00 8.320515e-01 8.584259e-01 -1.211936e+00 -4.617744e-01 4.174212e-01 -7.818189e-01 -4.023913e-01 -1.938741e-01 -5.179801e-01 1.085849e+00 -1.734919e+00 7.872822e-01 2.130324e-01 1.098824e-02 -2.929180e-01 3.725932e-02 -2.951954e-01 -4.924182e-02 6.448864e-01 2.884922e-02 -4.031965e-01 2.277261e-01 -2.520501e-01 6.144646e-01 9.199429e-02 -8.314368e-02 -8.834220e-03
<VARIANCE> 39
 4.627984e+01 2.039215e+01 2.302869e+01 2.148286e+01 2.922583e+01 2.984083e+01 8.914639e+00 1.279062e+01 4.578085e+01 1.255635e+01 3.810290e+00 1.271017e+01 1.000000e-02 1.461693e+00 3.431567e-01 2.538345e+00 9.033399e-01 1.109017e+00 3.169212e+00 5.143209e+00 9.541839e-01 5.674568e+00 1.074703e+00 2.069135e+00 1.402264e+00 1.000000e-02 1.004272e+00 8.504089e-02 4.085597e-01 2.236319e-01 2.990369e-01 4.046099e-01 5.260348e-01 3.912594e-01 2.389685e-01 2.724068e-01 4.830891e-01 3.723522e-01 1.000000e-02
<GCONST> 8.552459e+01
<STATE> 20
<MEAN> 39
 4.546288e+00 -1.447607e+01 -7.429754e+00 -1.439792e+01 -4.824216e+00 -1.301720e+01 -2.342282e+00 -2.190189e+00 -3.004085e+00 -7.573752e+00 -7.936629e+00 -2.658663e+00 8.334146e-01 -1.166531e+00 -8.175845e-01 -7.795215e-01 -4.338779e-01 2.042811e+00 -1.855382e+00 3.734919e-01 1.933071e+00 -3.941656e-01 1.091932e+00 -6.540300e-01 2.894356e-01 8.318027e-03 -5.296980e-01 2.947552e-01 -2.618735e-01 -1.243678e-01 6.001409e-01 4.922692e-01 -7.373925e-02 3.848650e-01 9.700502e-02 5.624028e-01 -4.641553e-01 -4.265103e-01 -2.786837e-03
<VARIANCE> 39
 3.506831e+01 1.363258e+01 3.389343e+01 1.671484e+01 4.439687e+01 8.251912e+01 2.564837e+01 4.983364e+01 1.073461e+02 2.044101e+01 3.495127e+01 6.938106e+00 1.000000e-02 4.524781e+00 7.977346e-01 9.051811e-01 3.921174e-01 4.771613e+00 5.394222e+00 5.122319e+00 7.041208e+00 2.984606e+00 2.676428e+00 1.757316e+00 8.244001e-01 1.000000e-02 4.848292e-01 3.115804e-02 1.785742e-01 8.511326e-02 5.402278e-01 1.158494e+00 6.833140e-01 7.504469e-01 1.214743e+00 5.248474e-01 4.322521e-01 3.743795e-01 1.000000e-02
<GCONST> 9.665770e+01
<STATE> 21
<MEAN> 39
 -1.400258e+00 -1.661996e+01 -9.274032e+00 -1.603508e+01 1.369835e+00 -1.016243e+01 -5.295197e+00 3.161112e+00 2.614603e+00 -3.827522e+00 -1.237886e+01 -4.149033e+00 8.978559e-01 -4.907199e-01 -2.513943e-01 -1.029504e+00 -4.836944e-01 1.397734e+00 1.018025e+00 -6.704199e-01 2.025456e-01 3.935615e-01 5.683629e-01 -7.786084e-01 -3.328589e-01 1.662345e-03 1.469706e-01 2.457197e-01 2.331433e-01 1.390508e-01 -5.182170e-01 5.562910e-01 -2.146061e-01 -5.018729e-01 -4.034157e-01 -2.304922e-01 1.729288e-02 6.519275e-02 -7.533304e-03
<VARIANCE> 39
 2.333697e+01 8.855567e+00 4.458131e+01 8.826190e+00 5.765553e+01 9.111145e+01 7.177999e+01 7.334549e+01 4.849253e+01 3.833027e+00 2.663229e+01 6.774604e+00 1.513728e-02 2.016057e+00 6.819842e-01 6.602574e-01 1.137643e+00 2.162552e+00 3.523758e+00 6.077359e-01 1.674113e+00 4.014861e+00 1.555689e+00 3.291684e+00 1.916448e+00 1.000000e-02 2.687657e-01 8.493321e-02 1.724024e-01 4.037279e-02 4.896657e-01 1.424624e+00 8.244921e-01 7.006257e-01 5.334937e-01 4.530957e-01 2.431002e-01 2.523522e-01 1.000000e-02
<GCONST> 8.902483e+01
<STATE> 22
<MEAN> 39
 -5.239893e-02 -1.581866e+01 -1.008517e+01 -1.653581e+01 -7.094569e-01 -6.000795e+00 -5.600101e+00 -3.636051e-01 2.103338e+00 -5.633384e+00 -1.096752e+01 -3.108350e+00 7.936623e-01 -3.011738e-02 1.604541e-01 2.084756e-01 2.390514e-01 1.800633e-01 9.737418e-01 -7.472829e-01 -3.888828e-01 -5.448288e-01 -2.746917e-01 -5.520557e-01 -2.345641e-01 -2.305396e-02 1.803700e-01 1.495788e-03 5.112060e-01 3.222896e-01 -1.381909e-01 -2.137623e-01 5.985304e-02 -3.197917e-02 -1.273713e-01 4.519956e-02 3.005421e-01 -2.074894e-01 -4.871542e-03
<VARIANCE> 39
 2.388017e+01 3.721209e+00 5.117968e+01 3.271793e+01 7.467506e+01 2.094203e+01 4.771383e+01 6.323207e+01 1.299071e+01 1.450458e+01 7.713848e+01 2.683696e+01 3.054779e-02 2.988854e-01 6.984904e-01 3.428535e-01 1.596352e+00 9.675611e-01 5.903947e+00 2.327067e+00 6.328996e-01 2.396000e+00 4.778485e-01 1.673244e+00 5.914950e-01 1.000000e-02 1.876707e-01 8.920985e-02 1.183555e-01 4.022714e-01 2.297040e-01 2.687534e-01 1.839177e-01 1.524658e-01 5.278233e-01 2.506011e-01 7.328589e-01 3.494097e-01 1.000000e-02
<GCONST> 8.233661e+01
<STATE> 23
<MEAN> 39
 -9.367503e-02 -1.666287e+01 -8.968234e+00 -1.654475e+01 1.143532e+00 -5.651734e+00 -7.002405e+00 -4.258404e-01 -1.058758e+00 -4.400098e+00 -1.307216e+01 -5.903097e+00 8.345352e-01 5.672661e-01 -1.423908e-01 6.797348e-01 3.614189e-01 -7.304515e-01 5.983163e-01 -4.947200e-01 -3.704023e-01 -1.844015e-01 5.119001e-01 1.363994e+00 -2.922997e-01 -2.100543e-02 1.595388e-01 7.352494e-02 3.768327e-02 2.656240e-01 -4.349751e-01 -1.406054e-01 4.401047e-01 -6.459720e-02 3.163918e-01 1.563311e-01 4.299091e-01 1.129268e-02 -2.024882e-03
<VARIANCE> 39
 2.170411e+01 3.808080e+00 5.760917e+01 3.707589e+01 7.213008e+01 8.791576e+00 3.086128e+01 6.686748e+01 1.077574e+01 4.235238e+00 1.934677e+01 1.327742e+01 2.677092e-02 6.911091e-01 1.766925e-01 6.663379e-01 2.003624e+00 1.997654e+00 1.662017e+00 1.251310e+00 6.602101e-01 8.414785e-01 7.565221e-01 1.907707e+00 1.006563e+00 1.000000e-02 2.602717e-02 6.586643e-02 3.168625e-02 2.411553e-01 4.039926e-01 2.609644e-01 1.089926e-01 1.343413e-01 3.447725e-01 1.245130e-01 2.262952e-01 8.460248e-02 1.000000e-02
<GCONST> 6.895711e+01
<STATE> 24
<MEAN> 39
 2.547027e+00 -1.699397e+01 -4.733604e+00 -1.323456e+01 -3.151747e+00 -4.247115e+00 -7.704566e+00 -2.945655e+00 2.210812e+00 -5.021398e+00 -7.297244e+00 -4.455093e+00 6.956914e-01 7.086641e-01 -6.750534e-02 3.718405e-01 1.684441e+00 -1.688015e+00 4.596813e-01 5.949804e-01 -1.101516e+00 3.854378e-01 -2.043468e-01 9.594597e-01 -3.421617e-01 -2.122037e-02 -3.151952e-02 1.716523e-01 -4.299245e-01 -3.069035e-01 1.421579e-01 -1.362627e-02 7.502441e-03 -9.200606e-02 1.319865e-01 1.149840e-01 -2.226398e-01 1.840606e-01 3.066964e-03
<VARIANCE> 39
 8.738399e+00 8.217627e+00 2.750333e+01 3.051816e+01 3.186814e+01 1.525966e+01 1.213263e+01 2.445111e+01 1.910798e+01 1.121264e+01 7.172588e+00 2.856292e+00 3.475845e-02 1.007486e+00 1.543625e-01 7.015141e-01 2.442653e+00 4.816562e+00 7.996882e-01 1.629400e+00 1.739010e+00 1.761275e+00 1.981555e+00 1.235251e+00 1.495606e+00 1.000000e-02 6.371925e-02 4.572174e-02 1.961609e-01 3.466786e-01 4.283006e-01 5.425865e-01 2.305533e-01 1.333084e-01 4.950130e-01 5.488649e-02 4.580422e-01 1.820697e-01 1.000000e-02
<GCONST> 7.375372e+01
<STATE> 25
<MEAN> 39
 4.141968e+00 -1.633462e+01 -5.957483e+00 -1.459697e+01 -6.469141e+00 -3.234246e+00 -6.172482e+00 -5.853540e+00 1.436618e+00 -3.433235e+00 -8.455202e+00 -5.551109e+00 7.271591e-01 6.058983e-01 4.735867e-01 -6.483892e-01 2.280858e-01 -3.381511e-01 -4.375377e-01 2.544329e-01 -5.126082e-01 3.966910e-01 5.614260e-01 2.390212e-02 -3.506161e-01 -2.160254e-02 4.950020e-02 1.370893e-01 -1.787688e-01 1.220219e-01 4.091251e-01 -3.165238e-01 1.138188e-01 1.449282e-01 4.460705e-02 -2.495393e-01 -2.131751e-01 9.920078e-02 -7.889443e-04
<VARIANCE> 39
 1.264260e+01 2.824028e+00 3.138119e+01 2.492299e+01 2.550655e+01 7.674110e+00 1.584070e+01 3.111856e+01 2.499255e+01 2.147200e+01 4.021087e+00 1.065786e+01 2.163146e-02 5.960078e-01 1.411022e-01 1.863168e+00 1.709440e+00 1.685185e+00 1.854419e+00 8.483693e-01 2.554402e+00 2.337060e+00 8.455639e-01 7.675400e-01 2.055218e-01 1.000000e-02 8.083846e-02 5.612135e-02 1.177140e-01 2.959769e-01 2.699333e-01 2.696690e-01 1.652863e-01 2.567521e-01 2.711736e-01 2.978332e-01 2.544187e-01 2.879269e-01 1.000000e-02
<GCONST> 7.015829e+01
<STATE> 26
<MEAN> 39
 5.288613e+00 -1.567211e+01 -8.585656e+00 -1.258460e+01 -5.868001e+00 -5.551528e+00 -5.667171e+00 -5.862743e+00 5.225997e+00 -5.263107e+00 -8.209681e+00 -5.446133e+00 6.583226e-01 4.302014e-01 3.457975e-01 2.890953e-01 9.472957e-01 -8.287019e-02 -5.410053e-01 6.916112e-01 2.123007e-01 1.005619e+00 -6.496802e-01 2.894806e-01 6.134430e-01 -2.077078e-02 -8.967405e-02 1.378169e-01 3.596762e-01 3.760134e-01 1.793190e-01 2.759403e-02 7.451443e-02 3.750649e-01 -1.466230e-01 -3.154733e-01 2.632306e-01 3.041929e-01 5.045707e-04
<VARIANCE> 39
 7.489369e+00 5.538490e+00 1.534095e+01 1.789945e+01 1.063890e+01 9.994533e+00 3.098739e+01 1.457713e+01 5.001159e+01 3.960955e+01 1.809092e+01 8.510715e+00 2.915780e-02 1.341626e+00 4.346129e-01 2.725123e+00 1.257360e+00 3.813699e+00 2.691509e+00 1.658614e-01 3.901275e+00 1.308303e+00 1.451938e+00 1.405402e+00 6.842279e-01 1.000000e-02 1.000000e-02 6.563104e-02 2.593861e-01 2.104413e-01 1.095806e-01 3.208716e-01 1.245786e-01 2.177923e-01 4.734431e-01 2.529396e-01 1.786636e-01 5.104366e-02 1.000000e-02
<GCONST> 7.085663e+01
<STATE> 27
<MEAN> 39
 7.074772e+00 -1.408649e+01 -6.767698e+00 -9.403042e+00 -6.411516e+00 -7.140175e+00 -3.930397e+00 -5.132231e+00 2.336015e+00 -5.246573e+00 -6.346549e+00 -4.150166e+00 6.569437e-01 5.035701e-01 1.337420e+00 -1.592935e-02 2.009847e+00 8.608624e-01 -2.813472e-01 7.054549e-01 8.256837e-01 -5.185723e-01 -1.168474e+00 9.648436e-01 5.099061e-01 -1.772016e-02 -4.315947e-01 1.887355e-02 -9.326738e-02 -3.253187e-01 2.310044e-01 -7.227992e-02 -1.109787e-01 3.716942e-03 -4.754911e-01 -7.015234e-02 -3.145671e-01 -3.705884e-01 -3.125115e-03
<VARIANCE> 39
 1.715547e+01 5.961371e+00 9.477160e+00 9.664164e+00 4.422032e+01 7.626956e+00 1.659189e+01 1.181870e+01 5.222760e+01 1.445889e+01 1.651936e+01 7.822037e+00 3.666878e-02 6.570061e-01 7.047936e-01 1.606445e+00 9.886308e-01 2.223381e+00 1.749931e+00 8.650422e-01 1.034085e+00 1.904787e+00 1.234120e+00 2.439289e-01 3.171620e-01 1.000000e-02 6.666151e-02 7.040259e-02 5.615720e-01 2.040116e-01 4.996513e-01 3.995295e-01 8.992123e-02 3.314403e-01 4.942842e-01 2.543506e-01 1.316980e-01 4.605442e-02 1.000000e-02
<GCONST> 7.029760e+01
<STATE> 28
<MEAN> 39
 5.083410e+00 -1.046064e+01 -4.801979e+00 -4.761876e+00 -2.992476e+00 -5.175880e+00 -7.815230e-01 -4.186432e+00 2.742612e+00 -6.436099e+00 -4.418449e+00 -3.798045e+00 5.370222e-01 -9.041061e-01 5.209731e-01 2.694694e-01 5.899773e-01 1.490063e-01 -7.997917e-01 2.085831e-01 2.281843e-01 -9.285020e-01 -1.026729e+00 -4.658049e-01 -4.684033e-01 -3.563628e-02 -3.625809e-01 -5.056497e-01 -1.888469e-01 -4.292758e-01 -1.403747e-01 -5.655360e-02 -3.742090e-01 -1.138140e-01 -2.136409e-02 -6.685755e-02 -4.356149e-01 -3.191732e-01 -7.300473e-03
<VARIANCE> 39
 2.315809e+01 1.071508e+01 1.597763e+01 9.577504e+00 2.709236e+01 1.872621e+01 1.916612e+01 1.204861e+01 3.780916e+01 8.470311e+00 1.127599e+01 2.841525e+00 3.699130e-02 7.581308e-01 5.127332e-01 1.978601e+00 1.298568e+00 7.144132e-01 9.067373e-01 7.432127e-01 4.647284e-01 2.042235e+00 6.461796e-01 2.178491e-01 4.768228e-01 1.000000e-02 9.147865e-02 1.859277e-01 1.741675e-01 1.211795e-01 1.391398e-01 4.143997e-01 8.277874e-02 2.985823e-01 1.530987e-01 2.104492e-01 1.307674e-01 7.711124e-02 1.000000e-02
<GCONST> 6.461831e+01
<STATE> 29
<MEAN> 39
 7.302771e+00 -1.294681e+01 -8.821873e+00 -8.987142e+00 -6.883554e+00 -1.039058e+01 -3.530201e+00 -4.644816e+00 -4.186504e-01 -8.998810e+00 -8.028756e+00 -6.253708e+00 6.575885e-01 -7.358950e-01 -1.858196e-02 -3.323306e-01 1.699903e-01 7.088285e-01 -3.695824e-01 -5.765966e-02 3.204694e-01 -5.061399e-01 -6.992497e-02 -2.223146e-02 -1.161930e-01 -3.267727e-02 -9.743919e-02 -1.301728e-01 -2.758993e-02 -6.739274e-03 1.876707e-01 2.582560e-01 1.512488e-01 9.129851e-02 1.152258e-01 2.054148e-01 2.150653e-01 1.089122e-01 -2.626681e-03
<VARIANCE> 39
 2.803498e+01 3.939346e+00 2.421488e+01 1.093014e+01 1.510454e+01 5.319208e+00 9.846527e+00 2.484741e+01 4.359481e+01 1.309725e+01 1.590134e+01 2.276078e+01 4.979158e-02 7.981429e-01 2.633112e-01 3.320101e-01 1.110044e+00 5.069975e-01 1.272757e+00 4.282060e-01 1.628918e+00 5.926367e-01 1.344742e+00 1.651057e+00 5.291252e-01 1.000000e-02 4.762526e-02 1.331146e-01 2.299549e-01 1.143311e-01 9.554260e-02 2.239050e-01 9.065168e-02 3.103880e-01 2.130894e-01 1.904673e-01 2.400376e-01 1.957140e-01 1.000000e-02
<GCONST> 6.577921e+01
<STATE> 30
<MEAN> 39
 7.651763e-01 -1.228548e+01 -6.250813e+00 -4.735616e+00 -1.400577e-04 -7.553199e+00 -3.707469e+00 -2.092987e+00 1.921923e+00 -9.172002e+00 -6.110116e+00 -4.605029e+00 3.684580e-01 -1.019055e+00 -2.467359e-01 -1.530166e-01 4.879866e-01 1.435846e+00 8.221191e-01 5.743405e-01 4.971449e-01 2.725427e-02 -2.317835e-01 -2.462415e-02 -1.871413e-01 -4.042948e-02 2.682661e-01 6.228506e-02 1.636009e-01 -5.272222e-02 -1.665047e-01 4.295746e-01 3.644846e-01 -3.269282e-02 4.686159e-01 4.297197e-01 1.287608e-01 2.751998e-01 8.824977e-03
<VARIANCE> 39
 2.122453e+01 5.179204e+00 1.928753e+01 2.121346e+01 1.269846e+01 1.605605e+01 1.510673e+01 1.633321e+00 2.099993e+01 2.905054e+00 1.408516e+01 1.137329e+01 3.704726e-02 4.773539e-01 9.920928e-01 6.405683e-01 6.747359e-01 7.111537e-01 1.317057e+00 1.304654e+00 1.463865e+00 9.664820e-01 9.999456e-01 2.080075e+00 1.982210e+00 1.000000e-02 4.631190e-02 8.887555e-02 1.856950e-01 3.148583e-01 2.444495e-01 2.180755e-01 8.996363e-02 2.741235e-01 1.316284e-01 3.479824e-01 1.370065e-01 1.794461e-01 1.000000e-02
<GCONST> 6.621833e+01
<STATE> 31
<MEAN> 39
 1.751557e+00 -1.233233e+01 -6.778868e+00 -6.866563e+00 -1.206913e+00 -6.357436e+00 -1.159134e-01 -3.686649e-01 7.802031e-01 -9.840310e+00 -5.161360e+00 -4.953520e+00 4.204466e-01 -3.708914e-01 4.200282e-01 7.819656e-01 2.277812e-01 2.917773e-02 6.631147e-01 5.253726e-01 9.835412e-02 4.605615e-01 3.935209e-01 5.193579e-01 6.910902e-01 -2.149940e-02 1.964655e-01 1.699700e-01 1.292154e-01 -2.214834e-02 -2.363609e-01 -8.796282e-02 -6.065346e-01 -4.794350e-01 1.873565e-01 2.902835e-01 7.664094e-02 2.515525e-01 6.686999e-03
<VARIANCE> 39
 3.103847e+01 3.816775e+00 1.743372e+01 1.157902e+01 2.462921e+01 4.005971e+01 5.127099e+00 7.802678e+00 2.618916e+01 4.366475e+00 3.221823e+01 1.402666e+01 5.080149e-02 2.314356e-01 6.086824e-01 7.963154e-01 8.988490e-01 8.009764e-01 1.012334e+00 2.572427e+00 1.040984e+00 1.047845e+00 1.162588e+00 2.993027e-01 2.989587e-01 1.000000e-02 2.421428e-02 7.866141e-02 1.087268e-01 1.492214e-01 2.199948e-01 2.695017e-01 7.017365e-01 2.679942e-01 1.537960e-01 1.170843e-01 3.351556e-01 2.958389e-01 1.000000e-02
<GCONST> 6.606098e+01
<STATE> 32
<MEAN> 39
 9.098565e-01 -1.091321e+01 -5.076009e+00 -3.770792e+00 6.890150e-01 -5.348635e+00 -1.512144e+00 -2.863796e+00 3.709453e+00 -6.260388e+00 -5.306401e+00 -2.318983e+00 3.583135e-01 -2.606468e-01 3.688422e-01 2.608238e-01 1.627886e-01 7.511289e-02 3.924009e-01 -3.828016e-01 -5.684296e-01 5.419015e-01 9.068297e-01 4.352568e-01 7.234438e-01 -1.483228e-02 -4.279738e-02 5.314367e-02 4.537867e-02 -1.250886e-01 -1.704362e-01 -2.926753e-01 -1.411456e-01 9.647063e-03 -2.858477e-01 -8.661330e-03 2.207292e-01 -1.483142e-01 -3.516473e-04
<VARIANCE> 39
 3.375879e+01 4.588026e+00 2.967829e+01 1.659387e+01 4.154944e+01 1.719896e+01 2.443056e+01 9.285723e+00 1.048065e+01 1.503585e+01 1.747339e+01 9.593946e+00 4.197428e-02 1.568787e-01 1.091408e-01 4.159400e-01 1.141814e+00 1.282777e+00 6.515918e-01 3.420298e+00 2.155596e+00 1.186605e+00 8.097218e-01 8.725803e-01 1.576802e+00 1.000000e-02 3.538459e-02 2.113487e-01 2.774718e-01 2.131798e-01 3.512315e-01 2.157397e-01 2.577136e-01 2.566150e-01 3.717045e-01 2.425721e-01 1.474058e-01 3.027608e-01 1.000000e-02
<GCONST> 7.146682e+01
<STATE> 33
<MEAN> 39
 9.500399e-01 -1.138572e+01 -5.491772e+00 -5.413346e+00 -5.588051e-01 -5.516280e+00 -3.432105e+00 -3.018044e+00 2.953517e+00 -7.048713e+00 -3.483918e+00 -1.915682e+00 3.684806e-01 -5.823336e-01 2.843761e-01 6.707255e-01 1.016313e-01 -1.161324e-01 -3.425942e-01 -1.552458e-01 2.067226e-01 -1.894931e-01 6.077909e-01 1.072675e+00 -8.763415e-02 -2.163596e-02 -1.257838e-01 1.825913e-01 3.238482e-01 1.316001e-01 -1.019355e-01 -3.258809e-01 2.717724e-01 2.075886e-01 -2.272596e-01 -1.162336e-01 4.579456e-02 -2.116782e-01 -3.277471e-03
<VARIANCE> 39
 3.134558e+01 3.389072e+00 3.200124e+01 1.105006e+01 2.555245e+01 4.606578e+01 3.118538e+01 1.549183e+01 4.526895e+01 1.649690e+01 1.535595e+01 2.256088e+01 4.764156e-02 3.466293e-01 1.052926e+00 1.441529e+00 8.170995e-01 1.347334e+00 9.815193e-01 3.115247e-01 4.283907e-01 2.386185e+00 4.272137e-01 2.733183e-01 1.046855e+00 1.000000e-02 3.937856e-02 5.455967e-02 2.445037e-01 1.741038e-01 1.945797e-01 1.715156e-01 4.798937e-01 4.122731e-01 2.502724e-01 2.547885e-01 2.114565e-01 1.898063e-01 1.000000e-02
<GCONST> 7.157249e+01
<STATE> 34
<MEAN> 39
 -4.453791e-01 -9.064139e+00 -2.661118e+00 -4.465478e+00 -9.319019e-01 -7.386335e+00 -2.521599e+00 -2.096309e+00 2.831929e+00 -6.017604e+00 -2.179418e+00 -2.563164e+00 3.208995e-01 -8.611358e-01 8.886034e-01 1.125796e+00 3.467838e-01 4.333788e-03 -2.627079e-01 2.275337e-01 -2.442930e-01 -3.195638e-01 4.285133e-02 1.558538e-01 -1.242100e-01 -3.360641e-02 -1.250549e-01 -1.107087e-01 -1.275974e-01 -6.143327e-02 8.562893e-02 2.930632e-01 1.500607e-01 -4.239472e-02 -2.275142e-02 -1.173390e-01 -8.070324e-02 -5.607515e-02 -4.574689e-03
<VARIANCE> 39
 2.344523e+01 8.526314e+00 1.182162e+01 5.724385e+00 1.521619e+01 2.626115e+01 2.883854e+01 1.744231e+00 2.909313e+01 4.138097e+00 3.112317e+00 1.202483e+01 2.719030e-02 1.417432e+00 4.925019e-01 1.997843e+00 9.214618e-01 1.073839e+00 1.416408e+00 2.073687e+00 1.410668e+00 1.295473e+00 1.749161e+00 1.919221e+00 6.937733e-01 1.000000e-02 1.152516e-01 1.990428e-01 1.892956e-01 1.326134e-01 8.356687e-02 1.233665e-01 1.646534e-01 6.429414e-02 2.928718e-01 1.021132e-01 1.353600e-01 2.106830e-01 1.000000e-02
<GCONST> 6.589451e+01
<STATE> 35
<MEAN> 39
 -2.725586e+00 -8.306632e+00 -8.819258e-01 -3.014292e+00 6.709751e-01 -5.813794e+00 -1.653350e+00 -3.277595e+00 1.621407e+00 -4.392872e+00 -1.330200e+00 -3.338748e+00 2.170825e-01 -6.622169e-01 1.649490e-01 3.803936e-01 3.435163e-01 1.641224e-01 5.179808e-01 7.156138e-01 2.480655e-01 1.517219e-01 4.367754e-01 9.657413e-01 7.834653e-02 -2.946296e-02 5.207790e-02 -3.550716e-01 -3.853333e-01 8.159593e-02 4.210042e-02 1.279828e-01 2.371842e-02 2.607938e-01 2.836654e-01 -1.137052e-02 -7.531391e-03 3.915499e-02 4.052079e-04
<VARIANCE> 39
 2.065639e+00 1.941740e+00 8.464894e+00 7.673147e+00 5.113305e+00 8.586024e+00 8.854745e+00 1.199403e+01 9.293260e+00 1.186531e+01 1.586967e+01 2.073749e+01 1.000000e-02 7.606131e-01 6.160194e-01 1.516858e+00 4.793847e-01 4.598832e-01 8.467128e-01 1.135448e+00 7.801335e-01 3.310193e-01 4.343956e-01 1.805188e+00 1.491003e+00 1.000000e-02 1.507924e-01 8.725575e-02 1.855188e-01 7.515614e-02 9.901346e-02 1.497888e-01 3.571289e-01 1.248026e-01 8.522311e-02 3.508222e-01 3.157738e-01 2.790749e-01 1.000000e-02
<GCONST> 5.741633e+01
<STATE> 36
<MEAN> 39
 -4.188649e+00 -8.713622e+00 -1.513029e+00 -3.192738e+00 -6.695977e-02 -5.124656e+00 6.273725e-01 -2.567447e+00 2.990429e+00 -4.348752e+00 3.870336e-01 -1.807465e+00 1.595223e-01 -7.724983e-01 -5.274940e-01 -3.593508e-01 3.973209e-01 7.397494e-02 3.587407e-01 3.949787e-01 8.019474e-01 3.963058e-01 4.851081e-01 8.139737e-01 2.347411e-02 -3.039133e-02 1.040728e-01 8.246255e-03 3.437244e-02 -1.089201e-02 7.144208e-02 7.116504e-02 -1.677224e-01 8.428419e-02 1.881645e-02 -2.230664e-03 -1.728140e-01 -5.813531e-02 5.070196e-03
<VARIANCE> 39
 1.561140e+00 5.030983e+00 9.214726e+00 9.804976e-01 3.487982e+00 2.232520e+00 1.101040e+01 1.134178e+01 1.067363e+01 7.931365e+00 1.905630e+01 1.580430e+01 1.000000e-02 9.982181e-02 5.610418e-01 7.931135e-01 1.077691e+00 9.906203e-01 7.156858e-01 1.073163e+00 3.646271e-01 4.870712e-01 9.248301e-01 2.941091e-01 8.552895e-01 1.000000e-02 3.764377e-02 1.006410e-01 2.151209e-01 6.223823e-02 6.655332e-02 8.021325e-02 2.008072e-01 2.501765e-01 5.800370e-02 9.737744e-02 2.162101e-01 2.692909e-01 1.000000e-02
<GCONST> 4.651797e+01
<STATE> 37
<MEAN> 39
 -5.954522e+00 -1.062889e+01 -1.925698e+00 -1.123104e+00 9.912595e-01 -4.131095e+00 -4.830457e-01 6.549358e-01 3.556467e+00 -4.088946e+00 -3.562495e-01 -3.570438e+00 9.799617e-02 -3.513118e-01 3.062818e-02 7.815006e-02 -1.427397e-01 6.566598e-02 7.059273e-01 -1.498813e-01 1.846602e-01 2.024254e-01 4.532664e-01 9.252419e-02 4.760103e-02 -1.511032e-02 3.035648e-01 3.377533e-01 1.516543e-01 -2.420172e-01 5.729349e-02 -1.419805e-01 -1.052253e-01 -4.691376e-01 -2.164301e-01 -9.693505e-02 -1.652783e-01 1.706587e-01 1.096188e-02
<VARIANCE> 39
 3.641908e+00 3.779717e+00 3.480303e+00 1.489320e+01 8.094770e+00 4.827298e+00 1.148225e+01 4.419712e+00 1.094065e+01 8.889968e+00 7.642907e+00 5.509557e+00 1.000000e-02 6.463577e-02 4.214401e-01 2.715326e-01 2.582279e-01 2.269810e-01 4.712906e-01 3.813464e-01 1.088175e+00 3.674951e-01 2.296296e-01 5.249738e-01 7.650369e-01 1.000000e-02 3.192379e-02 9.008894e-02 1.346391e-01 2.189669e-01 1.638623e-01 1.685685e-01 2.122451e-01 3.688402e-02 1.233592e-01 1.673461e-01 2.611927e-02 6.509904e-02 1.000000e-02
<GCONST> 3.951022e+01
<TRANSP> 38
 0.000000e+00 1.000000e+00 0.000000e+00 0.000000e+00 0.000000e+00 0.000000e+00 0.000000e+00 0.000000e+00 0.000000e+00 0.000000e+00 0.000000e+00 0.000000e+00 0.000000e+00 0.000000e+00 0.000000e+00 0.000000e+00 0.000000e+00 0.000000e+00 0.000000e+00 0.000000e+00 0.000000e+00 0.000000e+00 0.000000e+00 0.000000e+00 0.000000e+00 0.000000e+00 0.000000e+00 0.000000e+00 0.000000e+00 0.000000e+00 0.000000e+00 0.000000e+00 0.000000e+00 0.000000e+00 0.000000e+00 0.000000e+00 0.000000e+00 0.000000e+00
 0.000000e+00 5.833333e-01 4.166667e-01 0.000000e+00 0.000000e+00 0.000000e+00 0.000000e+00 0.000000e+00 0.000000e+00 0.000000e+00 0.000000e+00 0.000000e+00 0.000000e+00 0.000000e+00 0.000000e+00 0.000000e+00 0.000000e+00 0.000000e+00 0.000000e+00 0.000000e+00 0.000000e+00 0.000000e+00 0.000000e+00 0.000000e+00 0.000000e+00 0.000000e+00 0.000000e+00 0.000000e+00 0.000000e+00 0.000000e+00 0.000000e+00 0.000000e+00 0.000000e+00 0.000000e+00 0.000000e+00 0.000000e+00 0.000000e+00 0.000000e+00
 0.000000e+00 0.000000e+00 3.750000e-01 6.250000e-01 0.000000e+00 0.000000e+00 0.000000e+00 0.000000e+00 0.000000e+00 0.000000e+00 0.000000e+00 0.000000e+00 0.000000e+00 0.000000e+00 0.000000e+00 0.000000e+00 0.000000e+00 0.000000e+00 0.000000e+00 0.000000e+00 0.000000e+00 0.000000e+00 0.000000e+00 0.000000e+00 0.000000e+00 0.000000e+00 0.000000e+00 0.000000e+00 0.000000e+00 0.000000e+00 0.000000e+00 0.000000e+00 0.000000e+00 0.000000e+00 0.000000e+00 0.000000e+00 0.000000e+00 0.000000e+00
 0.000000e+00 0.000000e+00 0.000000e+00 3.750000e-01 6.250000e-01 0.000000e+00 0.000000e+00 0.000000e+00 0.000000e+00 0.000000e+00 0.000000e+00 0.000000e+00 0.000000e+00 0.000000e+00 0.000000e+00 0.000000e+00 0.000000e+00 0.000000e+00 0.000000e+00 0.000000e+00 0.000000e+00 0.000000e+00 0.000000e+00 0.000000e+00 0.000000e+00 0.000000e+00 0.000000e+00 0.000000e+00 0.000000e+00 0.000000e+00 0.000000e+00 0.000000e+00 0.000000e+00 0.000000e+00 0.000000e+00 0.000000e+00 0.000000e+00 0.000000e+00
 0.000000e+00 0.000000e+00 0.000000e+00 0.000000e+00 5.000000e-01 5.000000e-01 0.000000e+00 0.000000e+00 0.000000e+00 0.000000e+00 0.000000e+00 0.000000e+00 0.000000e+00 0.000000e+00 0.000000e+00 0.000000e+00 0.000000e+00 0.000000e+00 0.000000e+00 0.000000e+00 0.000000e+00 0.000000e+00 0.000000e+00 0.000000e+00 0.000000e+00 0.000000e+00 0.000000e+00 0.000000e+00 0.000000e+00 0.000000e+00 0.000000e+00 0.000000e+00 0.000000e+00 0.000000e+00 0.000000e+00 0.000000e+00 0.000000e+00 0.000000e+00
 0.000000e+00 0.000000e+00 0.000000e+00 0.000000e+00 0.000000e+00 4.444444e-01 5.555556e-01 0.000000e+00 0.000000e+00 0.000000e+00 0.000000e+00 0.000000e+00 0.000000e+00 0.000000e+00 0.000000e+00 0.000000e+00 0.000000e+00 0.000000e+00 0.000000e+00 0.000000e+00 0.000000e+00 0.000000e+00 0.000000e+00 0.000000e+00 0.000000e+00 0.000000e+00 0.000000e+00 0.000000e+00 0.000000e+00 0.000000e+00 0.000000e+00 0.000000e+00 0.000000e+00 0.000000e+00 0.000000e+00 0.000000e+00 0.000000e+00 0.000000e+00
 0.000000e+00 0.000000e+00 0.000000e+00 0.000000e+00 0.000000e+00 0.000000e+00 2.857143e-01 7.142857e-01 0.000000e+00 0.000000e+00 0.000000e+00 0.000000e+00 0.000000e+00 0.000000e+00 0.000000e+00 0.000000e+00 0.000000e+00 0.000000e+00 0.000000e+00 0.000000e+00 0.000000e+00 0.000000e+00 0.000000e+00 0.000000e+00 0.000000e+00 0.000000e+00 0.000000e+00 0.000000e+00 0.000000e+00 0.000000e+00 0.000000e+00 0.000000e+00 0.000000e+00 0.000000e+00 0.000000e+00 0.000000e+00 0.000000e+00 0.000000e+00
 0.000000e+00 0.000000e+00 0.000000e+00 0.000000e+00 0.000000e+00 0.000000e+00 0.000000e+00 6.153846e-01 3.846154e-01 0.000000e+00 0.000000e+00 0.000000e+00 0.000000e+00 0.000000e+00 0.000000e+00 0.000000e+00 0.000000e+00 0.000000e+00 0.000000e+00 0.000000e+00 0.000000e+00 0.000000e+00 0.000000e+00 0.000000e+00 0.000000e+00 0.000000e+00 0.000000e+00 0.000000e+00 0.000000e+00 0.000000e+00 0.000000e+00 0.000000e+00 0.000000e+00 0.000000e+00 0.000000e+00 0.000000e+00 0.000000e+00 0.000000e+00
 0.000000e+00 0.000000e+00 0.000000e+00 0.000000e+00 0.000000e+00 0.000000e+00 0.000000e+00 0.000000e+00 2.857143e-01 7.142857e-01 0.000000e+00 0.000000e+00 0.000000e+00 0.000000e+00 0.000000e+00 0.000000e+00 0.000000e+00 0.000000e+00 0.000000e+00 0.000000e+00 0.000000e+00 0.000000e+00 0.000000e+00 0.000000e+00 0.000000e+00 0.000000e+00 0.000000e+00 0.000000e+00 0.000000e+00 0.000000e+00 0.000000e+00 0.000000e+00 0.000000e+00 0.000000e+00 0.000000e+00 0.000000e+00 0.000000e+00 0.000000e+00
 0.000000e+00 0.000000e+00 0.000000e+00 0.000000e+00 0.000000e+00 0.000000e+00 0.000000e+00 0.000000e+00 0.000000e+00 4.444444e-01 5.555556e-01 0.000000e+00 0.000000e+00 0.000000e+00 0.000000e+00 0.000000e+00 0.000000e+00 0.000000e+00 0.000000e+00 0.000000e+00 0.000000e+00 0.000000e+00 0.000000e+00 0.000000e+00 0.000000e+00 0.000000e+00 0.000000e+00 0.000000e+00 0.000000e+00 0.000000e+00 0.000000e+00 0.000000e+00 0.000000e+00 0.000000e+00 0.000000e+00 0.000000e+00 0.000000e+00 0.000000e+00
 0.000000e+00 0.000000e+00 0.000000e+00 0.000000e+00 0.000000e+00 0.000000e+00 0.000000e+00 0.000000e+00 0.000000e+00 0.000000e+00 5.000000e-01 5.000000e-01 0.000000e+00 0.000000e+00 0.000000e+00 0.000000e+00 0.000000e+00 0.000000e+00 0.000000e+00 0.000000e+00 0.000000e+00 0.000000e+00 0.000000e+00 0.000000e+00 0.000000e+00 0.000000e+00 0.000000e+00 0.000000e+00 0.000000e+00 0.000000e+00 0.000000e+00 0.000000e+00 0.000000e+00 0.000000e+00 0.000000e+00 0.000000e+00 0.000000e+00 0.000000e+00
 0.000000e+00 0.000000e+00 0.000000e+00 0.000000e+00 0.000000e+00 0.000000e+00 0.000000e+00 0.000000e+00 0.000000e+00 0.000000e+00 0.000000e+00 5.000000e-01 5.000000e-01 0.000000e+00 0.000000e+00 0.000000e+00 0.000000e+00 0.000000e+00 0.000000e+00 0.000000e+00 0.000000e+00 0.000000e+00 0.000000e+00 0.000000e+00 0.000000e+00 0.000000e+00 0.000000e+00 0.000000e+00 0.000000e+00 0.000000e+00 0.000000e+00 0.000000e+00 0.000000e+00 0.000000e+00 0.000000e+00 0.000000e+00 0.000000e+00 0.000000e+00
 0.000000e+00 0.000000e+00 0.000000e+00 0.000000e+00 0.000000e+00 0.000000e+00 0.000000e+00 0.000000e+00 0.000000e+00 0.000000e+00 0.000000e+00 0.000000e+00 3.750000e-01 6.250000e-01 0.000000e+00 0.000000e+00 0.000000e+00 0.000000e+00 0.000000e+00 0.000000e+00 0.000000e+00 0.000000e+00 0.000000e+00 0.000000e+00 0.000000e+00 0.000000e+00 0.000000e+00 0.000000e+00 0.000000e+00 0.000000e+00 0.000000e+00 0.000000e+00 0.000000e+00 0.000000e+00 0.000000e+00 0.000000e+00 0.000000e+00 0.000000e+00
 0.000000e+00 0.000000e+00 0.000000e+00 0.000000e+00 0.000000e+00 0.000000e+00 0.000000e+00 0.000000e+00 0.000000e+00 0.000000e+00 0.000000e+00 0.000000e+00 0.000000e+00 5.000000e-01 5.000000e-01 0.000000e+00 0.000000e+00 0.000000e+00 0.000000e+00 0.000000e+00 0.000000e+00 0.000000e+00 0.000000e+00 0.000000e+00 0.000000e+00 0.000000e+00 0.000000e+00 0.000000e+00 0.000000e+00 0.000000e+00 0.000000e+00 0.000000e+00 0.000000e+00 0.000000e+00 0.000000e+00 0.000000e+00 0.000000e+00 0.000000e+00
 0.000000e+00 0.000000e+00 0.000000e+00 0.000000e+00 0.000000e+00 0.000000e+00 0.000000e+00 0.000000e+00 0.000000e+00 0.000000e+00 0.000000e+00 0.000000e+00 0.000000e+00 0.000000e+00 4.444444e-01 5.555556e-01 0.000000e+00 0.000000e+00 0.000000e+00 0.000000e+00 0.000000e+00 0.000000e+00 0.000000e+00 0.000000e+00 0.000000e+00 0.000000e+00 0.000000e+00 0.000000e+00 0.000000e+00 0.000000e+00 0.000000e+00 0.000000e+00 0.000000e+00 0.000000e+00 0.000000e+00 0.000000e+00 0.000000e+00 0.000000e+00
 0.000000e+00 0.000000e+00 0.000000e+00 0.000000e+00 0.000000e+00 0.000000e+00 0.000000e+00 0.000000e+00 0.000000e+00 0.000000e+00 0.000000e+00 0.000000e+00 0.000000e+00 0.000000e+00 0.000000e+00 3.750000e-01 6.250000e-01 0.000000e+00 0.000000e+00 0.000000e+00 0.000000e+00 0.000000e+00 0.000000e+00 0.000000e+00 0.000000e+00 0.000000e+00 0.000000e+00 0.000000e+00 0.000000e+00 0.000000e+00 0.000000e+00 0.000000e+00 0.000000e+00 0.000000e+00 0.000000e+00 0.000000e+00 0.000000e+00 0.000000e+00
 0.000000e+00 0.000000e+00 0.000000e+00 0.000000e+00 0.000000e+00 0.000000e+00 0.000000e+00 0.000000e+00 0.000000e+00 0.000000e+00 0.000000e+00 0.000000e+00 0.000000e+00 0.000000e+00 0.000000e+00 0.000000e+00 4.444444e-01 5.555556e-01 0.000000e+00 0.000000e+00 0.000000e+00 0.000000e+00 0.000000e+00 0.000000e+00 0.000000e+00 0.000000e+00 0.000000e+00 0.000000e+00 0.000000e+00 0.000000e+00 0.000000e+00 0.000000e+00 0.000000e+00 0.000000e+00 0.000000e+00 0.000000e+00 0.000000e+00 0.000000e+00
 0.000000e+00 0.000000e+00 0.000000e+00 0.000000e+00 0.000000e+00 0.000000e+00 0.000000e+00 0.000000e+00 0.000000e+00 0.000000e+00 0.000000e+00 0.000000e+00 0.000000e+00 0.000000e+00 0.000000e+00 0.000000e+00 0.000000e+00 4.444444e-01 5.555556e-01 0.000000e+00 0.000000e+00 0.000000e+00 0.000000e+00 0.000000e+00 0.000000e+00 0.000000e+00 0.000000e+00 0.000000e+00 0.000000e+00 0.000000e+00 0.000000e+00 0.000000e+00 0.000000e+00 0.000000e+00 0.000000e+00 0.000000e+00 0.000000e+00 0.000000e+00
 0.000000e+00 0.000000e+00 0.000000e+00 0.000000e+00 0.000000e+00 0.000000e+00 0.000000e+00 0.000000e+00 0.000000e+00 0.000000e+00 0.000000e+00 0.000000e+00 0.000000e+00 0.000000e+00 0.000000e+00 0.000000e+00 0.000000e+00 0.000000e+00 5.000000e-01 5.000000e-01 0.000000e+00 0.000000e+00 0.000000e+00 0.000000e+00 0.000000e+00 0.000000e+00 0.000000e+00 0.000000e+00 0.000000e+00 0.000000e+00 0.000000e+00 0.000000e+00 0.000000e+00 0.000000e+00 0.000000e+00 0.000000e+00 0.000000e+00 0.000000e+00
 0.000000e+00 0.000000e+00 0.000000e+00 0.000000e+00 0.000000e+00 0.000000e+00 0.000000e+00 0.000000e+00 0.000000e+00 0.000000e+00 0.000000e+00 0.000000e+00 0.000000e+00 0.000000e+00 0.000000e+00 0.000000e+00 0.000000e+00 0.000000e+00 0.000000e+00 2.857143e-01 7.142857e-01 0.000000e+00 0.000000e+00 0.000000e+00 0.000000e+00 0.000000e+00 0.000000e+00 0.000000e+00 0.000000e+00 0.000000e+00 0.000000e+00 0.000000e+00 0.000000e+00 0.000000e+00 0.000000e+00 0.000000e+00 0.000000e+00 0.000000e+00
 0.000000e+00 0.000000e+00 0.000000e+00 0.000000e+00 0.000000e+00 0.000000e+00 0.000000e+00 0.000000e+00 0.000000e+00 0.000000e+00 0.000000e+00 0.000000e+00 0.000000e+00 0.000000e+00 0.000000e+00 0.000000e+00 0.000000e+00 0.000000e+00 0.000000e+00 0.000000e+00 4.444444e-01 5.555556e-01 0.000000e+00 0.000000e+00 0.000000e+00 0.000000e+00 0.000000e+00 0.000000e+00 0.000000e+00 0.000000e+00 0.000000e+00 0.000000e+00 0.000000e+00 0.000000e+00 0.000000e+00 0.000000e+00 0.000000e+00 0.000000e+00
 0.000000e+00 0.000000e+00 0.000000e+00 0.000000e+00 0.000000e+00 0.000000e+00 0.000000e+00 0.000000e+00 0.000000e+00 0.000000e+00 0.000000e+00 0.000000e+00 0.000000e+00 0.000000e+00 0.000000e+00 0.000000e+00 0.000000e+00 0.000000e+00 0.000000e+00 0.000000e+00 0.000000e+00 4.444444e-01 5.555556e-01 0.000000e+00 0.000000e+00 0.000000e+00 0.000000e+00 0.000000e+00 0.000000e+00 0.000000e+00 0.000000e+00 0.000000e+00 0.000000e+00 0.000000e+00 0.000000e+00 0.000000e+00 0.000000e+00 0.000000e+00
 0.000000e+00 0.000000e+00 0.000000e+00 0.000000e+00 0.000000e+00 0.000000e+00 0.000000e+00 0.000000e+00 0.000000e+00 0.000000e+00 0.000000e+00 0.000000e+00 0.000000e+00 0.000000e+00 0.000000e+00 0.000000e+00 0.000000e+00 0.000000e+00 0.000000e+00 0.000000e+00 0.000000e+00 0.000000e+00 5.454546e-01 4.545455e-01 0.000000e+00 0.000000e+00 0.000000e+00 0.000000e+00 0.000000e+00 0.000000e+00 0.000000e+00 0.000000e+00 0.000000e+00 0.000000e+00 0.000000e+00 0.000000e+00 0.000000e+00 0.000000e+00
 0.000000e+00 0.000000e+00 0.000000e+00 0.000000e+00 0.000000e+00 0.000000e+00 0.000000e+00 0.000000e+00 0.000000e+00 0.000000e+00 0.000000e+00 0.000000e+00 0.000000e+00 0.000000e+00 0.000000e+00 0.000000e+00 0.000000e+00 0.000000e+00 0.000000e+00 0.000000e+00 0.000000e+00 0.000000e+00 0.000000e+00 3.750000e-01 6.250000e-01 0.000000e+00 0.000000e+00 0.000000e+00 0.000000e+00 0.000000e+00 0.000000e+00 0.000000e+00 0.000000e+00 0.000000e+00 0.000000e+00 0.000000e+00 0.000000e+00 0.000000e+00
 0.000000e+00 0.000000e+00 0.000000e+00 0.000000e+00 0.000000e+00 0.000000e+00 0.000000e+00 0.000000e+00 0.000000e+00 0.000000e+00 0.000000e+00 0.000000e+00 0.000000e+00 0.000000e+00 0.000000e+00 0.000000e+00 0.000000e+00 0.000000e+00 0.000000e+00 0.000000e+00 0.000000e+00 0.000000e+00 0.000000e+00 0.000000e+00 5.000000e-01 5.000000e-01 0.000000e+00 0.000000e+00 0.000000e+00 0.000000e+00 0.000000e+00 0.000000e+00 0.000000e+00 0.000000e+00 0.000000e+00 0.000000e+00 0.000000e+00 0.000000e+00
 0.000000e+00 0.000000e+00 0.000000e+00 0.000000e+00 0.000000e+00 0.000000e+00 0.000000e+00 0.000000e+00 0.000000e+00 0.000000e+00 0.000000e+00 0.000000e+00 0.000000e+00 0.000000e+00 0.000000e+00 0.000000e+00 0.000000e+00 0.000000e+00 0.000000e+00 0.000000e+00 0.000000e+00 0.000000e+00 0.000000e+00 0.000000e+00 0.000000e+00 5.454546e-01 4.545455e-01 0.000000e+00 0.000000e+00 0.000000e+00 0.000000e+00 0.000000e+00 0.000000e+00 0.000000e+00 0.000000e+00 0.000000e+00 0.000000e+00 0.000000e+00
 0.000000e+00 0.000000e+00 0.000000e+00 0.000000e+00 0.000000e+00 0.000000e+00 0.000000e+00 0.000000e+00 0.000000e+00 0.000000e+00 0.000000e+00 0.000000e+00 0.000000e+00 0.000000e+00 0.000000e+00 0.000000e+00 0.000000e+00 0.000000e+00 0.000000e+00 0.000000e+00 0.000000e+00 0.000000e+00 0.000000e+00 0.000000e+00 0.000000e+00 0.000000e+00 4.444444e-01 5.555556e-01 0.000000e+00 0.000000e+00 0.000000e+00 0.000000e+00 0.000000e+00 0.000000e+00 0.000000e+00 0.000000e+00 0.000000e+00 0.000000e+00
 0.000000e+00 0.000000e+00 0.000000e+00 0.000000e+00 0.000000e+00 0.000000e+00 0.000000e+00 0.000000e+00 0.000000e+00 0.000000e+00 0.000000e+00 0.000000e+00 0.000000e+00 0.000000e+00 0.000000e+00 0.000000e+00 0.000000e+00 0.000000e+00 0.000000e+00 0.000000e+00 0.000000e+00 0.000000e+00 0.000000e+00 0.000000e+00 0.000000e+00 0.000000e+00 0.000000e+00 2.857143e-01 7.142857e-01 0.000000e+00 0.000000e+00 0.000000e+00 0.000000e+00 0.000000e+00 0.000000e+00 0.000000e+00 0.000000e+00 0.000000e+00
 0.000000e+00 0.000000e+00 0.000000e+00 0.000000e+00 0.000000e+00 0.000000e+00 0.000000e+00 0.000000e+00 0.000000e+00 0.000000e+00 0.000000e+00 0.000000e+00 0.000000e+00 0.000000e+00 0.000000e+00 0.000000e+00 0.000000e+00 0.000000e+00 0.000000e+00 0.000000e+00 0.000000e+00 0.000000e+00 0.000000e+00 0.000000e+00 0.000000e+00 0.000000e+00 0.000000e+00 0.000000e+00 5.000000e-01 5.000000e-01 0.000000e+00 0.000000e+00 0.000000e+00 0.000000e+00 0.000000e+00 0.000000e+00 0.000000e+00 0.000000e+00
 0.000000e+00 0.000000e+00 0.000000e+00 0.000000e+00 0.000000e+00 0.000000e+00 0.000000e+00 0.000000e+00 0.000000e+00 0.000000e+00 0.000000e+00 0.000000e+00 0.000000e+00 0.000000e+00 0.000000e+00 0.000000e+00 0.000000e+00 0.000000e+00 0.000000e+00 0.000000e+00 0.000000e+00 0.000000e+00 0.000000e+00 0.000000e+00 0.000000e+00 0.000000e+00 0.000000e+00 0.000000e+00 0.000000e+00 4.444444e-01 5.555556e-01 0.000000e+00 0.000000e+00 0.000000e+00 0.000000e+00 0.000000e+00 0.000000e+00 0.000000e+00
 0.000000e+00 0.000000e+00 0.000000e+00 0.000000e+00 0.000000e+00 0.000000e+00 0.000000e+00 0.000000e+00 0.000000e+00 0.000000e+00 0.000000e+00 0.000000e+00 0.000000e+00 0.000000e+00 0.000000e+00 0.000000e+00 0.000000e+00 0.000000e+00 0.000000e+00 0.000000e+00 0.000000e+00 0.000000e+00 0.000000e+00 0.000000e+00 0.000000e+00 0.000000e+00 0.000000e+00 0.000000e+00 0.000000e+00 0.000000e+00 3.750000e-01 6.250000e-01 0.000000e+00 0.000000e+00 0.000000e+00 0.000000e+00 0.000000e+00 0.000000e+00
 0.000000e+00 0.000000e+00 0.000000e+00 0.000000e+00 0.000000e+00 0.000000e+00 0.000000e+00 0.000000e+00 0.000000e+00 0.000000e+00 0.000000e+00 0.000000e+00 0.000000e+00 0.000000e+00 0.000000e+00 0.000000e+00 0.000000e+00 0.000000e+00 0.000000e+00 0.000000e+00 0.000000e+00 0.000000e+00 0.000000e+00 0.000000e+00 0.000000e+00 0.000000e+00 0.000000e+00 0.000000e+00 0.000000e+00 0.000000e+00 0.000000e+00 5.000000e-01 5.000000e-01 0.000000e+00 0.000000e+00 0.000000e+00 0.000000e+00 0.000000e+00
 0.000000e+00 0.000000e+00 0.000000e+00 0.000000e+00 0.000000e+00 0.000000e+00 0.000000e+00 0.000000e+00 0.000000e+00 0.000000e+00 0.000000e+00 0.000000e+00 0.000000e+00 0.000000e+00 0.000000e+00 0.000000e+00 0.000000e+00 0.000000e+00 0.000000e+00 0.000000e+00 0.000000e+00 0.000000e+00 0.000000e+00 0.000000e+00 0.000000e+00 0.000000e+00 0.000000e+00 0.000000e+00 0.000000e+00 0.000000e+00 0.000000e+00 0.000000e+00 2.857143e-01 7.142857e-01 0.000000e+00 0.000000e+00 0.000000e+00 0.000000e+00
 0.000000e+00 0.000000e+00 0.000000e+00 0.000000e+00 0.000000e+00 0.000000e+00 0.000000e+00 0.000000e+00 0.000000e+00 0.000000e+00 0.000000e+00 0.000000e+00 0.000000e+00 0.000000e+00 0.000000e+00 0.000000e+00 0.000000e+00 0.000000e+00 0.000000e+00 0.000000e+00 0.000000e+00 0.000000e+00 0.000000e+00 0.000000e+00 0.000000e+00 0.000000e+00 0.000000e+00 0.000000e+00 0.000000e+00 0.000000e+00 0.000000e+00 0.000000e+00 0.000000e+00 5.000000e-01 5.000000e-01 0.000000e+00 0.000000e+00 0.000000e+00
 0.000000e+00 0.000000e+00 0.000000e+00 0.000000e+00 0.000000e+00 0.000000e+00 0.000000e+00 0.000000e+00 0.000000e+00 0.000000e+00 0.000000e+00 0.000000e+00 0.000000e+00 0.000000e+00 0.000000e+00 0.000000e+00 0.000000e+00 0.000000e+00 0.000000e+00 0.000000e+00 0.000000e+00 0.000000e+00 0.000000e+00 0.000000e+00 0.000000e+00 0.000000e+00 0.000000e+00 0.000000e+00 0.000000e+00 0.000000e+00 0.000000e+00 0.000000e+00 0.000000e+00 0.000000e+00 4.444444e-01 5.555556e-01 0.000000e+00 0.000000e+00
 0.000000e+00 0.000000e+00 0.000000e+00 0.000000e+00 0.000000e+00 0.000000e+00 0.000000e+00 0.000000e+00 0.000000e+00 0.000000e+00 0.000000e+00 0.000000e+00 0.000000e+00 0.000000e+00 0.000000e+00 0.000000e+00 0.000000e+00 0.000000e+00 0.000000e+00 0.000000e+00 0.000000e+00 0.000000e+00 0.000000e+00 0.000000e+00 0.000000e+00 0.000000e+00 0.000000e+00 0.000000e+00 0.000000e+00 0.000000e+00 0.000000e+00 0.000000e+00 0.000000e+00 0.000000e+00 0.000000e+00 4.444444e-01 5.555556e-01 0.000000e+00
 0.000000e+00 0.000000e+00 0.000000e+00 0.000000e+00 0.000000e+00 0.000000e+00 0.000000e+00 0.000000e+00 0.000000e+00 0.000000e+00 0.000000e+00 0.000000e+00 0.000000e+00 0.000000e+00 0.000000e+00 0.000000e+00 0.000000e+00 0.000000e+00 0.000000e+00 0.000000e+00 0.000000e+00 0.000000e+00 0.000000e+00 0.000000e+00 0.000000e+00 0.000000e+00 0.000000e+00 0.000000e+00 0.000000e+00 0.000000e+00 0.000000e+00 0.000000e+00 0.000000e+00 0.000000e+00 0.000000e+00 0.000000e+00 2.857143e-01 7.142857e-01
 0.000000e+00 0.000000e+00 0.000000e+00 0.000000e+00 0.000000e+00 0.000000e+00 0.000000e+00 0.000000e+00 0.000000e+00 0.000000e+00 0.000000e+00 0.000000e+00 0.000000e+00 0.000000e+00 0.000000e+00 0.000000e+00 0.000000e+00 0.000000e+00 0.000000e+00 0.000000e+00 0.000000e+00 0.000000e+00 0.000000e+00 0.000000e+00 0.000000e+00 0.000000e+00 0.000000e+00 0.000000e+00 0.000000e+00 0.000000e+00 0.000000e+00 0.000000e+00 0.000000e+00 0.000000e+00 0.000000e+00 0.000000e+00 0.000000e+00 0.000000e+00
<ENDHMM>
