~o
<STREAMINFO> 1 39
<VECSIZE> 39<NULLD><MFCC_E_D_A><DIAGC>
~h "Tam"
<BEGINHMM>
<NUMSTATES> 10
<STATE> 2
<MEAN> 39
 -8.375179e+00 -1.264073e+01 -1.176661e+01 -3.866751e+00 5.835640e-01 -6.558283e+00 6.714488e+00 -1.900354e-01 9.974466e-01 -7.933613e+00 -1.419320e+00 -1.501347e+00 3.981224e-01 -3.399995e-01 -1.902524e+00 -2.840587e+00 -1.975314e-01 8.978169e-02 -2.401575e-02 6.619472e-01 -6.792027e-01 4.038091e-01 -1.226298e+00 -2.463752e-01 1.731206e-01 1.301813e-01 3.267130e-02 -2.565349e-01 5.503043e-02 2.167376e-01 1.623464e-01 9.423725e-02 -2.186023e-01 -2.711438e-01 -3.635555e-02 7.233613e-02 9.961220e-02 -5.569365e-02 1.725753e-03
<VARIANCE> 39
 2.111362e+01 4.156345e+01 1.223395e+02 2.453473e+01 2.322989e+01 3.205306e+01 3.093369e+01 2.386164e+01 1.291475e+01 4.018879e+01 1.972633e+01 1.037879e+01 1.876900e-01 1.760694e+00 3.513941e+00 7.038590e+00 3.822319e+00 2.386582e+00 3.798281e+00 3.720110e+00 3.268382e+00 1.938521e+00 4.127946e+00 3.237333e+00 1.262553e+00 1.000000e-02 3.373952e-01 6.964070e-01 2.250777e+00 7.241572e-01 4.693916e-01 7.619944e-01 7.790308e-01 4.772379e-01 3.345566e-01 1.174645e+00 6.819761e-01 1.385682e-01 1.000000e-02
<GCONST> 1.074028e+02
<STATE> 3
<MEAN> 39
 -8.242599e+00 -2.528191e+01 -2.055408e+01 -2.910937e-01 5.054946e+00 -4.830848e+00 4.532089e+00 -7.842709e+00 3.138477e+00 -1.066736e+01 -5.556248e-01 -2.791630e+00 9.675971e-01 7.205471e-02 -7.164447e-01 7.358517e-01 3.448194e-01 3.404405e-01 3.818867e-01 -1.037049e+00 -9.149402e-02 3.682303e-01 4.004594e-01 1.557266e-01 -1.581794e-01 1.119761e-02 -3.770963e-02 2.765783e-01 2.905636e-02 -2.054579e-01 -1.599843e-01 -6.871096e-02 2.319698e-01 4.193255e-01 2.438421e-02 -1.859584e-01 -1.520304e-01 5.681060e-02 -6.065535e-03
<VARIANCE> 39
 1.702096e+01 4.452241e+00 1.594339e+01 4.476259e+00 9.585965e+00 2.022472e+01 1.951586e+01 1.510971e+01 1.085496e+01 7.055294e+00 1.016706e+01 2.326442e+01 1.000000e-02 1.328883e-01 2.985845e-01 2.239723e-01 4.187685e-01 9.309362e-01 3.461693e-01 7.852141e-01 9.174838e-01 1.065236e+00 1.396753e+00 9.180717e-01 4.907567e-01 1.000000e-02 7.468385e-02 1.016629e-01 7.503671e-02 1.539271e-01 2.138071e-01 1.645407e-01 1.615278e-01 1.485128e-01 3.600590e-01 2.187000e-01 1.487237e-01 1.345997e-01 1.000000e-02
<GCONST> 5.689002e+01
<STATE> 4
<MEAN> 39
 -1.041681e+01 -2.688689e+01 -1.652078e+01 -1.021875e+00 4.403732e+00 -3.161228e-01 2.146657e+00 -2.851203e+00 3.276774e+00 -1.488435e+01 -2.774613e-01 -2.588273e+00 9.491190e-01 -6.879015e-02 9.362701e-02 9.253328e-02 -2.807832e-01 -1.017888e-01 3.381435e-02 -2.213480e-02 4.286234e-01 -2.062599e-02 -8.894306e-01 -6.053158e-02 -2.608692e-01 -1.006169e-02 1.111921e-01 8.378538e-02 -4.834653e-02 -3.766140e-02 -6.988113e-02 -9.725749e-02 -9.809565e-03 -6.079781e-02 -2.410854e-02 -9.558707e-02 -3.945233e-02 -3.329341e-02 -1.893820e-03
<VARIANCE> 39
 1.217455e+01 2.902271e+00 1.324167e+01 1.002577e+01 1.812189e+01 3.003460e+01 1.564437e+01 1.759077e+01 2.122104e+01 1.197890e+01 1.130707e+01 2.418979e+01 1.000000e-02 2.999089e-01 3.139567e-01 5.851315e-01 7.533402e-01 8.448855e-01 6.385422e-01 4.692278e-01 6.074597e-01 1.456802e+00 9.825809e-01 8.796257e-01 5.338409e-01 1.000000e-02 7.182486e-02 5.012204e-02 1.010655e-01 1.964682e-01 1.500963e-01 7.734700e-02 9.227629e-02 1.188357e-01 3.145986e-01 1.803176e-01 1.954275e-01 9.937704e-02 1.000000e-02
<GCONST> 5.860421e+01
<STATE> 5
<MEAN> 39
 -6.275243e+00 -2.388496e+01 -1.656931e+01 -3.086036e+00 1.682254e+00 -2.038702e+00 1.557218e+00 -1.953592e+00 3.359491e+00 -2.234292e+01 -9.754199e-01 -4.781587e+00 8.377419e-01 2.452528e+00 2.579261e-01 9.809297e-01 -6.305899e-01 -2.056305e+00 -3.612315e-01 -1.109706e+00 -5.551805e-01 -6.593888e-01 5.932344e-01 -6.101351e-01 4.487654e-01 -4.049087e-02 4.099833e-01 -3.655723e-01 3.855581e-01 -1.324038e-01 -5.805370e-01 -1.661589e-01 -3.814808e-01 -3.069085e-01 -1.352786e-01 8.811996e-01 -4.222900e-01 2.740223e-01 -9.774424e-03
<VARIANCE> 39
 1.633957e+01 6.122255e+00 7.971892e+00 1.441143e+01 1.987675e+01 5.402692e+01 1.483850e+01 2.484771e+01 2.985104e+01 2.665118e+01 1.072366e+01 2.272114e+01 1.000000e-02 1.037847e+00 1.031716e+00 8.350525e-01 1.339826e+00 3.186109e+00 2.965172e+00 1.766853e+00 2.124868e+00 2.791280e+00 5.240550e+00 2.176221e+00 1.919649e+00 1.000000e-02 1.987709e-01 1.489862e-01 1.002950e-01 3.253472e-01 3.451501e-01 5.136875e-01 1.549450e-01 3.879845e-01 5.108031e-01 6.449429e-01 5.035973e-01 2.478820e-01 1.000000e-02
<GCONST> 8.546239e+01
<STATE> 6
<MEAN> 39
 3.371787e+00 -2.655085e+01 -9.735823e+00 -6.189750e+00 -9.027814e+00 -6.599298e+00 -4.354848e+00 -4.351424e+00 1.463670e+00 -1.269612e+01 -6.151948e+00 -2.695598e+00 5.870196e-01 1.367761e-01 -2.662621e-01 3.362227e-01 2.207042e-01 1.122029e-01 -2.722466e-01 5.002409e-02 4.689401e-01 -4.814783e-03 8.469316e-01 1.002550e-01 5.585734e-01 -3.224094e-02 -3.693358e-01 7.284465e-02 -2.950755e-01 3.455475e-01 6.623561e-01 2.265528e-01 3.841729e-01 1.756695e-01 1.947584e-02 -2.807557e-01 2.935099e-01 1.498479e-01 2.539782e-03
<VARIANCE> 39
 4.675744e+00 6.388087e+00 5.020078e+00 7.274480e+00 1.014343e+01 8.472801e+00 1.066123e+01 2.174331e+01 7.596630e+00 2.077929e+01 1.813344e+01 1.349136e+01 1.000000e-02 1.552591e+00 5.893277e-01 1.143190e+00 1.672822e+00 4.428636e+00 1.340599e+00 1.864757e+00 2.686630e+00 1.227546e+00 2.818681e+00 4.283185e+00 2.807098e+00 1.000000e-02 2.415404e-01 8.620239e-02 1.155065e-01 2.840658e-01 3.117707e-01 2.120939e-01 3.505757e-01 5.441558e-01 2.716834e-01 5.844176e-01 7.287254e-01 6.556095e-01 1.000000e-02
<GCONST> 7.875709e+01
<STATE> 7
<MEAN> 39
 1.089675e+00 -2.719471e+01 -1.174482e+01 1.719527e+00 8.844330e-01 -3.951229e+00 1.672190e+00 -1.169573e+00 -1.117130e-01 -1.021138e+01 -1.974984e+00 4.010133e+00 3.875003e-01 1.653440e-02 3.951528e-01 -1.471984e-01 8.953031e-01 9.418025e-01 -3.667518e-02 4.069626e-01 -1.664321e-01 -4.823298e-01 3.822481e-01 2.389462e-01 2.759888e-01 -2.024658e-02 -4.945338e-03 7.615256e-02 9.062064e-02 -2.750184e-01 -2.710875e-01 -1.349009e-01 -1.929489e-01 -4.885093e-02 -8.977117e-02 2.530280e-02 -1.152890e-03 -3.298458e-01 2.869522e-03
<VARIANCE> 39
 3.597226e+00 1.323247e+01 1.148347e+01 4.470510e+00 7.923328e+00 9.975941e+00 4.444623e+00 7.111786e+00 1.363615e+01 7.689394e+00 6.884936e+00 1.197803e+01 1.000000e-02 3.210538e-01 9.034132e-01 6.865697e-01 9.962689e-01 1.874656e+00 1.124008e+00 1.025496e+00 7.246801e-01 1.468993e+00 9.120520e-01 9.209243e-01 2.443919e+00 1.000000e-02 6.819961e-02 1.682519e-01 1.170441e-01 6.363550e-02 3.603647e-01 2.397037e-01 8.056649e-02 1.533765e-01 2.982129e-01 1.809427e-01 1.054505e-01 4.977407e-01 1.000000e-02
<GCONST> 6.040945e+01
<STATE> 8
<MEAN> 39
 -2.248923e-02 -2.343838e+01 -1.133467e+01 3.411315e+00 3.398602e+00 -5.850833e+00 1.591244e+00 -3.896615e-01 -1.427010e+00 -9.118428e+00 -5.368417e-01 1.937747e+00 2.749918e-01 -1.732436e-01 5.030597e-01 2.571473e-01 2.316846e-01 1.885367e-01 -4.694772e-02 1.538211e-02 6.439778e-02 7.348743e-02 -1.539001e-02 2.058109e-01 -2.608490e-01 -1.402682e-02 6.673559e-03 1.053509e-01 1.477679e-01 -2.735965e-02 -9.382542e-02 4.491865e-02 -2.347507e-02 -1.194429e-01 1.564390e-02 -1.938300e-02 -2.064675e-03 5.012652e-02 -2.698085e-04
<VARIANCE> 39
 2.589036e+00 8.420443e+00 1.133358e+01 4.215665e+00 4.716081e+00 1.049235e+01 1.090693e+01 1.510493e+01 1.409095e+01 1.467857e+01 1.077168e+01 8.053821e+00 1.000000e-02 3.471725e-01 1.112009e+00 1.286192e+00 5.284097e-01 5.630938e-01 9.987520e-01 1.020327e+00 1.611724e+00 1.789404e+00 2.256953e+00 7.726110e-01 1.062596e+00 1.000000e-02 9.202363e-02 2.445615e-01 2.646383e-01 1.201683e-01 1.733216e-01 2.581477e-01 1.728789e-01 3.474033e-01 3.823013e-01 5.132753e-01 2.336210e-01 2.188610e-01 1.000000e-02
<GCONST> 6.563040e+01
<STATE> 9
<MEAN> 39
 -3.094368e+00 -1.614221e+01 -6.809643e+00 1.604104e+00 3.464715e+00 -5.161266e+00 9.486795e-01 -1.544858e+00 -1.492822e+00 -7.654495e+00 1.463885e+00 1.901499e+00 7.148518e-02 -8.790025e-01 1.034366e+00 5.973153e-01 -6.637056e-01 -4.346783e-02 2.183236e-01 1.380320e-01 1.259862e-01 1.524315e-01 5.193540e-01 2.929702e-01 5.500514e-02 -4.265590e-02 -4.070624e-02 -1.593702e-01 -1.567824e-01 -3.584151e-03 3.289201e-02 -2.905557e-02 7.521756e-02 1.663395e-01 1.600257e-01 9.713123e-02 -5.493337e-02 -2.360275e-02 -7.036544e-04
<VARIANCE> 39
 9.838930e+00 1.150080e+01 9.804090e+00 1.200822e+01 9.234747e+00 1.150422e+01 8.825157e+00 1.171514e+01 1.071106e+01 1.376717e+01 9.469227e+00 7.736854e+00 2.025635e-02 8.285000e-01 8.547102e-01 1.054708e+00 1.046528e+00 1.001595e+00 1.084508e+00 1.049442e+00 1.850217e+00 1.178553e+00 1.755666e+00 9.860014e-01 6.729611e-01 1.000000e-02 2.101035e-01 1.586777e-01 1.422615e-01 2.717022e-01 2.544181e-01 2.296003e-01 2.140485e-01 3.393400e-01 2.170783e-01 4.386837e-01 1.987622e-01 1.729810e-01 1.000000e-02
<GCONST> 6.963502e+01
<TRANSP> 10
 0.000000e+00 1.000000e+00 0.000000e+00 0.000000e+00 0.000000e+00 0.000000e+00 0.000000e+00 0.000000e+00 0.000000e+00 0.000000e+00
 0.000000e+00 8.717949e-01 1.282051e-01 0.000000e+00 0.000000e+00 0.000000e+00 0.000000e+00 0.000000e+00 0.000000e+00 0.000000e+00
 0.000000e+00 0.000000e+00 8.275862e-01 1.724138e-01 0.000000e+00 0.000000e+00 0.000000e+00 0.000000e+00 0.000000e+00 0.000000e+00
 0.000000e+00 0.000000e+00 0.000000e+00 9.000000e-01 9.999999e-02 0.000000e+00 0.000000e+00 0.000000e+00 0.000000e+00 0.000000e+00
 0.000000e+00 0.000000e+00 0.000000e+00 0.000000e+00 7.500000e-01 2.500000e-01 0.000000e+00 0.000000e+00 0.000000e+00 0.000000e+00
 0.000000e+00 0.000000e+00 0.000000e+00 0.000000e+00 0.000000e+00 8.750000e-01 1.250000e-01 0.000000e+00 0.000000e+00 0.000000e+00
 0.000000e+00 0.000000e+00 0.000000e+00 0.000000e+00 0.000000e+00 0.000000e+00 8.529412e-01 1.470588e-01 0.000000e+00 0.000000e+00
 0.000000e+00 0.000000e+00 0.000000e+00 0.000000e+00 0.000000e+00 0.000000e+00 0.000000e+00 8.684211e-01 1.315790e-01 0.000000e+00
 0.000000e+00 0.000000e+00 0.000000e+00 0.000000e+00 0.000000e+00 0.000000e+00 0.000000e+00 0.000000e+00 8.529412e-01 1.470588e-01
 0.000000e+00 0.000000e+00 0.000000e+00 0.000000e+00 0.000000e+00 0.000000e+00 0.000000e+00 0.000000e+00 0.000000e+00 0.000000e+00
<ENDHMM>
