~o
<STREAMINFO> 1 39
<VECSIZE> 39<NULLD><MFCC_E_D_A><DIAGC>
~h "To"
<BEGINHMM>
<NUMSTATES> 13
<STATE> 2
<MEAN> 39
 -7.308535e+00 -7.460363e+00 -3.385526e+00 -2.819756e+00 1.898420e+00 -4.860616e+00 1.690236e+00 -2.763206e+00 3.094773e+00 -3.748777e+00 1.441071e+00 -1.808620e+00 -1.674152e-02 -3.183829e-01 -2.021062e-01 -1.736160e+00 -9.488435e-01 2.374596e-01 -7.859198e-01 4.538602e-01 4.115548e-01 3.695476e-01 -9.076548e-02 -3.723427e-01 -3.622572e-01 7.563476e-02 1.231710e-02 -4.365139e-01 -6.315427e-01 -1.737711e-01 5.300792e-02 -1.428539e-01 2.010791e-01 1.342288e-01 4.433961e-03 -1.410242e-01 -1.910115e-01 -4.259798e-02 2.854757e-02
<VARIANCE> 39
 8.221865e+00 1.018461e+01 1.718482e+01 1.834608e+01 1.068538e+01 2.441115e+01 1.659405e+01 1.595330e+01 1.950796e+01 1.074504e+01 1.036793e+01 1.378409e+01 3.043858e-02 1.264787e+00 3.084715e+00 7.859433e+00 1.778199e+00 2.213066e+00 3.189685e+00 1.665916e+00 1.819760e+00 1.750943e+00 1.875264e+00 1.743730e+00 1.354875e+00 1.087600e-02 2.565901e-01 7.786700e-01 9.043247e-01 2.618788e-01 4.121255e-01 6.006151e-01 2.944776e-01 4.396906e-01 3.951958e-01 3.962476e-01 2.835983e-01 2.197629e-01 1.000000e-02
<GCONST> 8.867989e+01
<STATE> 3
<MEAN> 39
 -8.552307e+00 -1.835249e+01 -2.370868e+01 -9.792387e+00 5.145284e+00 -1.087760e+01 7.513477e+00 -3.372306e-01 4.092109e+00 -8.012480e+00 -5.633013e+00 -4.755310e+00 8.308055e-01 8.479283e-01 -3.754889e+00 -2.526796e+00 6.408021e-04 1.978509e+00 1.366860e+00 9.067060e-01 -1.884269e+00 -1.436373e-01 -5.582114e-01 1.480420e-01 -1.023798e+00 1.353221e-01 4.432594e-01 5.030961e-01 1.682268e+00 3.323145e-01 2.143092e-01 1.303102e+00 -5.296186e-01 -7.442048e-01 -2.474086e-01 8.012719e-01 9.519734e-01 -1.836148e-01 -5.348575e-02
<VARIANCE> 39
 2.055041e+01 4.381364e+01 9.648333e+00 1.300306e+01 4.252016e+01 3.564614e+01 2.989469e+01 3.897516e+01 2.182423e+01 1.317347e+01 1.083397e+01 1.245762e+01 1.000000e-02 1.285558e+00 2.326828e+00 7.718959e+00 1.358213e+00 1.774236e+00 5.365672e+00 2.003947e+00 5.634758e+00 2.164184e+00 2.526392e+00 4.608025e+00 1.446756e+00 1.000000e-02 3.079368e-01 1.128398e+00 3.126836e-01 3.281901e-01 6.693892e-01 4.856887e-01 1.675749e-01 8.582339e-01 4.576292e-01 3.313614e-01 2.821759e-01 3.864204e-01 1.000000e-02
<GCONST> 9.566706e+01
<STATE> 4
<MEAN> 39
 -3.156285e+00 -2.264405e+01 -2.280009e+01 -1.067652e+01 1.188513e+01 -6.270908e-01 8.877360e+00 -9.396568e+00 1.399048e+00 -2.475241e+00 -1.862154e-02 -8.636522e+00 9.690569e-01 6.767424e-01 -1.580467e-01 5.866255e-01 -1.352185e+00 8.401314e-01 1.571739e+00 -1.639004e-01 -8.433872e-01 -7.906337e-01 1.581950e+00 9.753529e-01 -5.555912e-01 1.011183e-02 -3.092697e-01 3.574769e-01 4.882488e-02 -2.568316e-01 -2.857997e-01 -4.999084e-01 -4.304449e-04 3.409055e-01 7.281479e-02 -2.199325e-01 -1.994034e-01 1.152686e-01 -1.112072e-02
<VARIANCE> 39
 5.418408e+00 8.564538e+00 2.287119e+01 1.432917e+01 1.886693e+01 1.545422e+01 2.949647e+01 2.465569e+01 1.593589e+01 1.975959e+01 6.365946e+00 1.071233e+01 1.000000e-02 9.264697e-01 5.465740e-01 7.764060e-01 9.350137e-01 5.389110e-01 1.667989e+00 1.373762e+00 9.093470e-01 6.618651e-01 1.491145e+00 7.032539e-01 1.719870e+00 1.000000e-02 1.371157e-01 2.352881e-01 2.922067e-01 2.705206e-01 1.299329e-01 1.758532e-01 2.783376e-01 2.189294e-01 1.438849e-01 4.319127e-01 2.175303e-01 3.843504e-01 1.000000e-02
<GCONST> 7.121449e+01
<STATE> 5
<MEAN> 39
 -3.542055e+00 -2.019607e+01 -2.193058e+01 -1.709191e+01 1.356684e+01 2.856386e+00 8.246831e+00 -1.314549e+01 4.393732e-01 -1.911896e+00 3.851619e+00 -1.055095e+01 9.535690e-01 2.022809e-01 2.235305e-01 -3.832250e-02 -3.550128e-01 1.062043e-01 1.976700e-01 -4.840228e-02 -1.155614e-01 -4.295837e-02 1.824334e-02 1.426408e-02 -1.197413e-01 -4.246865e-03 6.173237e-02 -1.568189e-02 -6.930376e-03 1.193603e-01 -7.324432e-02 1.136085e-02 -2.852061e-02 1.301163e-01 7.101357e-03 3.800708e-02 -1.015446e-01 9.495084e-02 -8.104221e-04
<VARIANCE> 39
 1.083464e+01 7.373880e+00 2.062628e+01 1.203445e+01 3.839265e+01 2.103271e+01 6.649166e+00 1.992349e+01 1.951264e+01 1.385213e+01 1.691891e+01 6.409361e+00 1.000000e-02 2.895812e-01 3.185540e-01 3.362673e-01 9.618273e-01 3.216161e-01 7.804691e-01 5.139962e-01 7.954703e-01 7.029909e-01 1.348875e+00 7.480341e-01 6.418463e-01 1.000000e-02 2.774291e-02 5.704580e-02 4.590487e-02 1.720995e-01 6.803973e-02 9.414531e-02 8.467565e-02 9.167390e-02 1.321582e-01 1.880685e-01 1.006542e-01 1.174703e-01 1.000000e-02
<GCONST> 5.371632e+01
<STATE> 6
<MEAN> 39
 -3.342315e-02 -2.343827e+01 -1.810400e+01 -1.946997e+01 1.097034e+01 7.412386e+00 1.853431e+00 -6.809189e+00 -9.310873e-01 1.025601e+00 3.831518e-01 -7.416957e+00 9.213483e-01 4.707569e-01 1.820061e-02 -1.029734e-01 3.106825e-02 -1.935240e-01 9.421897e-02 -2.397456e-01 -1.618434e-01 4.571261e-02 -3.606085e-01 -2.530884e-01 2.790154e-01 -1.148276e-02 8.960443e-03 2.737246e-02 -4.239824e-02 1.313460e-01 -1.573767e-01 -7.359654e-02 1.203191e-02 -1.828295e-01 1.302001e-01 -2.057219e-01 -5.214207e-02 5.719126e-02 -3.037600e-03
<VARIANCE> 39
 3.408503e+00 2.081636e+01 2.603493e+01 2.071668e+01 2.229410e+01 2.326776e+01 2.152283e+01 2.810049e+01 7.777868e+00 8.005745e+00 1.573163e+01 1.008604e+01 1.000000e-02 1.909465e-01 3.292455e-01 3.325266e-01 9.814395e-01 1.170205e+00 1.743963e+00 1.245564e+00 1.033928e+00 7.572691e-01 8.860189e-01 9.662967e-01 5.518988e-01 1.000000e-02 2.906707e-02 4.669199e-02 5.501787e-02 2.031354e-01 2.059288e-01 1.861729e-01 2.274556e-01 1.247006e-01 6.248252e-02 1.451202e-01 2.430947e-01 9.209446e-02 1.000000e-02
<GCONST> 5.989816e+01
<STATE> 7
<MEAN> 39
 4.057133e+00 -1.997777e+01 -2.296104e+01 -1.456697e+01 8.205526e+00 4.400772e+00 5.171545e+00 -1.294642e+01 1.291912e+00 -3.975517e+00 -2.353826e+00 -7.129132e+00 7.624691e-01 5.687363e-01 -1.717138e-01 5.310557e-01 8.252291e-01 -9.412887e-01 6.848146e-01 -6.246607e-01 9.115039e-01 1.279294e-01 1.121805e-01 -4.256799e-01 2.663159e-01 -3.465194e-02 -1.989327e-01 -1.891249e-02 2.292576e-01 -1.077280e-01 5.126544e-01 -1.610507e-01 -1.478430e-01 5.553275e-01 -1.842139e-01 1.567936e-01 3.099901e-01 -2.221875e-01 -3.369063e-03
<VARIANCE> 39
 1.516688e+00 7.112292e+00 1.890496e+01 9.133084e+00 2.868425e+01 2.402251e+01 2.229025e+01 1.951469e+01 1.873184e+01 1.371564e+01 1.665440e+01 8.579393e+00 1.000000e-02 2.759735e-01 5.871457e-01 1.999743e+00 2.090283e+00 2.023824e+00 2.781075e+00 1.832790e+00 2.650008e+00 1.516562e+00 1.270902e+00 3.678034e+00 6.418098e-01 1.000000e-02 3.975483e-02 7.051110e-02 2.620321e-01 2.945186e-01 2.664548e-01 6.256254e-01 1.776875e-01 2.484968e-01 1.775113e-01 2.184606e-01 6.245788e-01 1.486147e-01 1.000000e-02
<GCONST> 7.396925e+01
<STATE> 8
<MEAN> 39
 4.179583e+00 -2.083680e+01 -1.905007e+01 -1.260268e+01 8.911897e+00 3.968371e+00 -1.553650e-01 -6.297503e+00 3.379400e-01 -3.643987e+00 -1.025302e+00 -6.649624e+00 5.951302e-01 2.481907e-01 5.055248e-01 6.979692e-02 1.580386e+00 1.730393e-01 -6.614362e-01 -3.531911e-01 -2.776462e-03 -4.047449e-01 -6.476285e-01 -6.497413e-02 5.475478e-01 -3.903690e-02 1.010824e-01 1.993591e-01 -1.286820e-01 1.550115e-01 -1.048742e-01 1.035919e-01 3.154533e-01 -3.867068e-01 -1.186954e-01 -1.501355e-02 -5.101228e-02 2.315143e-01 3.553516e-03
<VARIANCE> 39
 5.877145e+00 6.706599e+00 2.223133e+01 2.811732e+01 2.011335e+01 1.686457e+01 1.872532e+01 1.519390e+01 2.341958e+01 1.852667e+01 2.433154e+01 1.214309e+01 1.222614e-02 6.200808e-01 5.075547e-01 1.594114e+00 2.114303e+00 1.824180e+00 1.282225e+00 1.812511e+00 2.778531e+00 1.270806e+00 2.100867e+00 2.800078e+00 1.358360e+00 1.000000e-02 1.056787e-01 1.050670e-01 3.614861e-01 6.306958e-01 3.428110e-01 3.735492e-01 2.756157e-01 4.000032e-01 3.198817e-01 4.371830e-01 5.559907e-01 2.210969e-01 1.000000e-02
<GCONST> 8.195403e+01
<STATE> 9
<MEAN> 39
 5.392639e+00 -1.809429e+01 -1.885189e+01 -7.449330e+00 8.050417e+00 3.595691e+00 2.087101e+00 -7.664559e+00 -2.643034e+00 -4.572653e+00 -4.986588e-01 -3.639370e+00 4.665784e-01 -4.175591e-01 1.238515e-02 -2.345233e-01 -3.153823e-01 -4.796349e-01 -2.006320e-01 4.144726e-01 5.867043e-01 1.019979e-01 4.993020e-01 3.404298e-01 3.953911e-01 -2.530770e-02 -2.186976e-01 -2.578463e-01 -3.259269e-02 -2.757305e-01 -9.261895e-02 -6.223065e-02 -1.742767e-01 1.888211e-01 3.237821e-01 1.645260e-01 4.002133e-02 -1.481078e-01 3.601917e-04
<VARIANCE> 39
 3.605688e+00 4.682699e+00 9.552168e+00 7.393198e+00 5.786907e+00 7.682223e+00 6.998663e+00 9.558661e+00 1.429675e+01 1.446592e+01 8.223026e+00 8.384763e+00 1.000000e-02 3.901446e-01 8.036184e-01 1.676662e+00 1.233964e+00 4.176616e-01 5.833290e-01 8.509958e-01 8.758430e-01 1.756595e+00 1.707637e+00 1.409539e+00 1.604958e+00 1.000000e-02 6.718443e-02 9.827942e-02 4.273241e-01 3.446784e-01 1.498471e-01 7.713107e-02 1.623997e-01 2.444036e-01 3.293758e-01 3.380958e-01 3.208103e-01 3.303925e-01 1.000000e-02
<GCONST> 6.322230e+01
<STATE> 10
<MEAN> 39
 1.967393e+00 -1.858983e+01 -1.756913e+01 -7.751285e+00 6.296864e+00 2.980629e+00 1.201006e+00 -5.694454e+00 6.289499e-01 -1.977241e+00 4.361494e-01 -3.742246e+00 3.132775e-01 -2.118400e-01 3.914871e-01 8.144842e-01 6.332238e-01 2.536997e-01 -2.514436e-04 -3.309244e-01 -1.076501e-01 -1.874380e-01 1.516769e-01 5.929884e-02 -4.169236e-01 -1.770827e-02 1.121269e-01 1.616856e-01 1.744414e-01 1.365610e-01 4.720879e-02 -5.479797e-03 -1.022860e-02 -1.084372e-01 -1.465602e-01 -5.218336e-02 -2.480783e-02 -1.797257e-02 2.256959e-03
<VARIANCE> 39
 1.816758e+00 4.883208e+00 1.669878e+01 8.035576e+00 1.218823e+01 1.184622e+01 9.528763e+00 1.269090e+01 1.705480e+01 1.437934e+01 8.375315e+00 1.381014e+01 1.000000e-02 1.920321e-01 5.483478e-01 1.633221e+00 7.987418e-01 9.503733e-01 1.223753e+00 9.398509e-01 1.216722e+00 1.747091e+00 1.130078e+00 8.947447e-01 4.772098e-01 1.000000e-02 2.938283e-02 6.410147e-02 4.303650e-01 2.226140e-01 2.271564e-01 2.233033e-01 1.623829e-01 2.677945e-01 3.667248e-01 2.785284e-01 1.952929e-01 2.018370e-01 1.000000e-02
<GCONST> 6.284196e+01
<STATE> 11
<MEAN> 39
 1.507232e+00 -1.488866e+01 -1.187542e+01 -4.435781e+00 6.744640e+00 1.561761e+00 -9.252468e-01 -7.336405e+00 -1.094092e+00 -2.441781e+00 1.865294e+00 -3.087431e+00 2.272356e-01 -5.586067e-01 3.418944e-01 3.679266e-01 -2.160240e-01 -2.988692e-01 -2.657118e-01 -1.076100e-01 -2.117560e-01 2.965473e-01 -9.244660e-02 2.046037e-01 5.814725e-01 -2.710297e-02 -2.434532e-01 -4.474079e-02 -8.319411e-02 -1.350237e-01 5.387260e-02 1.203347e-01 1.492244e-01 8.665922e-02 2.847833e-02 -1.383599e-02 -9.987968e-02 -7.228462e-03 -7.831680e-03
<VARIANCE> 39
 3.671308e+00 5.225093e+00 1.379964e+01 6.913624e+00 1.099447e+01 7.131599e+00 1.375021e+01 1.376583e+01 1.355519e+01 1.352927e+01 1.633618e+01 2.109042e+01 1.000000e-02 7.388572e-01 8.416386e-01 1.594753e+00 8.794284e-01 1.101710e+00 7.113013e-01 7.489505e-01 7.185917e-01 1.038694e+00 1.653061e+00 1.297605e+00 1.249404e+00 1.000000e-02 5.924874e-02 1.564273e-01 3.173819e-01 2.025665e-01 2.475931e-01 1.918033e-01 1.785742e-01 1.535854e-01 2.457281e-01 3.098823e-01 2.969261e-01 3.051850e-01 1.000000e-02
<GCONST> 6.701128e+01
<STATE> 12
<MEAN> 39
 -4.348765e+00 -1.203501e+01 -7.906009e+00 -4.870159e+00 7.172186e+00 2.581658e+00 1.355524e+00 -5.812798e+00 -4.243281e-01 -2.806577e+00 1.113773e+00 -1.176273e+00 -9.422133e-03 -7.272809e-01 7.228063e-01 1.374603e+00 5.935974e-01 -1.120263e-01 1.148542e-01 4.976854e-01 4.944067e-01 -2.686035e-02 3.039762e-01 2.240124e-01 2.361129e-01 -3.206356e-02 2.688597e-01 -1.293498e-03 5.394875e-03 8.053482e-02 -1.985866e-01 -2.541978e-01 -1.433030e-01 -3.326360e-02 1.032224e-01 1.070788e-01 2.331289e-01 4.144798e-02 1.070917e-02
<VARIANCE> 39
 1.964067e+00 6.531912e+00 2.471631e+01 8.978445e+00 8.257788e+00 1.793152e+01 1.010227e+01 1.011944e+01 8.365063e+00 1.195690e+01 1.547259e+01 9.696912e+00 1.000000e-02 3.375503e-01 6.630497e-01 1.159341e+00 7.980502e-01 8.197394e-01 2.337580e+00 1.118819e+00 8.720883e-01 7.211378e-01 1.032220e+00 8.503486e-01 7.124369e-01 1.000000e-02 5.246534e-02 1.922090e-01 4.660120e-01 2.171371e-01 1.231269e-01 3.314509e-01 1.340899e-01 1.462131e-01 1.319745e-01 2.684998e-01 1.211334e-01 1.591160e-01 1.000000e-02
<GCONST> 6.200424e+01
<TRANSP> 13
 0.000000e+00 1.000000e+00 0.000000e+00 0.000000e+00 0.000000e+00 0.000000e+00 0.000000e+00 0.000000e+00 0.000000e+00 0.000000e+00 0.000000e+00 0.000000e+00 0.000000e+00
 0.000000e+00 8.684211e-01 1.315790e-01 0.000000e+00 0.000000e+00 0.000000e+00 0.000000e+00 0.000000e+00 0.000000e+00 0.000000e+00 0.000000e+00 0.000000e+00 0.000000e+00
 0.000000e+00 0.000000e+00 6.875000e-01 3.125000e-01 0.000000e+00 0.000000e+00 0.000000e+00 0.000000e+00 0.000000e+00 0.000000e+00 0.000000e+00 0.000000e+00 0.000000e+00
 0.000000e+00 0.000000e+00 0.000000e+00 7.619048e-01 2.380952e-01 0.000000e+00 0.000000e+00 0.000000e+00 0.000000e+00 0.000000e+00 0.000000e+00 0.000000e+00 0.000000e+00
 0.000000e+00 0.000000e+00 0.000000e+00 0.000000e+00 9.019608e-01 9.803922e-02 0.000000e+00 0.000000e+00 0.000000e+00 0.000000e+00 0.000000e+00 0.000000e+00 0.000000e+00
 0.000000e+00 0.000000e+00 0.000000e+00 0.000000e+00 0.000000e+00 8.684211e-01 1.315790e-01 0.000000e+00 0.000000e+00 0.000000e+00 0.000000e+00 0.000000e+00 0.000000e+00
 0.000000e+00 0.000000e+00 0.000000e+00 0.000000e+00 0.000000e+00 0.000000e+00 7.368421e-01 2.631579e-01 0.000000e+00 0.000000e+00 0.000000e+00 0.000000e+00 0.000000e+00
 0.000000e+00 0.000000e+00 0.000000e+00 0.000000e+00 0.000000e+00 0.000000e+00 0.000000e+00 7.826087e-01 2.173913e-01 0.000000e+00 0.000000e+00 0.000000e+00 0.000000e+00
 0.000000e+00 0.000000e+00 0.000000e+00 0.000000e+00 0.000000e+00 0.000000e+00 0.000000e+00 0.000000e+00 7.916667e-01 2.083333e-01 0.000000e+00 0.000000e+00 0.000000e+00
 0.000000e+00 0.000000e+00 0.000000e+00 0.000000e+00 0.000000e+00 0.000000e+00 0.000000e+00 0.000000e+00 0.000000e+00 8.684211e-01 1.315790e-01 0.000000e+00 0.000000e+00
 0.000000e+00 0.000000e+00 0.000000e+00 0.000000e+00 0.000000e+00 0.000000e+00 0.000000e+00 0.000000e+00 0.000000e+00 0.000000e+00 8.437500e-01 1.562500e-01 0.000000e+00
 0.000000e+00 0.000000e+00 0.000000e+00 0.000000e+00 0.000000e+00 0.000000e+00 0.000000e+00 0.000000e+00 0.000000e+00 0.000000e+00 0.000000e+00 7.826087e-01 2.173913e-01
 0.000000e+00 0.000000e+00 0.000000e+00 0.000000e+00 0.000000e+00 0.000000e+00 0.000000e+00 0.000000e+00 0.000000e+00 0.000000e+00 0.000000e+00 0.000000e+00 0.000000e+00
<ENDHMM>
