~o
<STREAMINFO> 1 39
<VECSIZE> 39<NULLD><MFCC_E_D_A><DIAGC>
~h "Tru*o*c"
<BEGINHMM>
<NUMSTATES> 19
<STATE> 2
<MEAN> 39
 -6.703469e+00 -8.361418e+00 2.669704e+00 -3.874650e+00 1.044932e+00 7.330091e-02 -3.333544e+00 -1.071675e+00 4.573116e+00 -7.030006e+00 2.700916e+00 1.510867e+00 -1.530300e-02 -1.163197e-01 2.775112e-02 1.167555e-01 -2.474616e-03 1.463831e-01 -2.194154e-02 -1.676772e-01 -5.179348e-02 -3.016501e-01 1.074260e-01 2.059290e-01 -9.152291e-02 7.591920e-03 -1.838019e-01 -3.913921e-02 -3.722525e-02 -2.123688e-01 -5.949615e-02 2.636464e-02 -9.477540e-02 -4.746427e-02 4.363922e-04 -4.464160e-02 2.520472e-02 -1.122505e-01 9.612663e-03
<VARIANCE> 39
 4.754985e+00 3.334538e+00 5.021627e+00 6.683403e+00 6.334603e+00 1.495587e+01 1.723204e+01 1.044911e+01 1.627993e+01 1.523212e+01 9.402897e+00 9.762351e+00 1.000000e-02 7.278936e-01 4.149021e-01 4.315841e-01 7.422650e-01 4.075618e-01 1.134701e+00 1.245800e+00 1.515548e+00 1.086127e+00 9.695534e-01 1.227489e+00 1.072245e+00 1.000000e-02 2.129069e-01 8.208448e-02 7.601430e-02 2.736058e-01 1.169151e-01 2.950930e-01 2.785220e-01 2.914793e-01 2.265275e-01 2.133423e-01 2.680864e-01 2.502354e-01 1.000000e-02
<GCONST> 6.224187e+01
<STATE> 3
<MEAN> 39
 -1.231678e+01 -9.111834e+00 7.153275e-01 -7.903962e+00 1.808349e+00 -1.360979e+00 -2.837295e+00 -3.383484e+00 3.422898e-02 -3.378314e+00 5.082862e+00 -2.868390e+00 3.258342e-01 -2.701036e+00 -1.149877e-01 -8.155823e-01 -3.504101e+00 -2.108008e+00 -7.605131e-01 -7.707414e-01 6.269749e-02 1.582979e-01 -1.044871e+00 3.950033e-01 -6.001861e-01 1.724033e-01 7.656900e-01 -2.901276e-01 -2.083385e-01 -1.173702e-01 -9.960808e-01 -1.386956e+00 6.461366e-01 8.571591e-01 4.954941e-01 2.275881e-01 -1.872278e-01 1.610018e-01 1.112803e-02
<VARIANCE> 39
 5.352961e+01 8.710449e+00 8.362116e+00 5.621318e+01 1.322268e+01 3.096622e+01 1.843478e+01 1.581846e+01 1.430758e+01 3.128722e+01 7.411272e+00 9.845834e+00 7.815415e-02 3.393372e+00 8.867926e-01 1.399032e+00 8.343465e-01 3.738565e+00 7.092274e+00 1.942028e+00 1.752633e+00 2.148659e+00 3.238882e+00 5.544618e-01 9.824327e-01 1.000000e-02 1.713843e+00 2.548651e-01 3.342271e-01 9.179046e-01 2.487380e-01 8.334829e-01 5.436589e-01 4.359090e-01 3.383603e-01 1.509841e+00 1.534192e-01 1.047357e-01 1.000000e-02
<GCONST> 9.156554e+01
<STATE> 4
<MEAN> 39
 -1.192291e+01 -1.091203e+01 -1.924147e+00 -1.483391e+01 -1.140260e+01 -1.468876e+01 1.180754e-01 2.531297e+00 2.854671e+00 -3.912383e+00 5.255030e+00 -3.247643e+00 7.748564e-01 3.652798e+00 -3.331491e+00 -9.041193e-02 -1.056811e+00 -2.433422e+00 -5.271718e+00 1.886631e+00 3.359624e+00 2.521981e+00 2.236208e+00 -1.149886e+00 2.546566e-02 8.798983e-02 6.761591e-01 -6.421106e-01 1.846713e-01 3.043068e-01 1.554080e+00 5.064990e-01 -3.022947e-02 6.249995e-02 3.162867e-01 6.227268e-01 -6.146178e-01 1.583912e-01 -2.935066e-02
<VARIANCE> 39
 4.350625e+01 4.916690e+01 2.688807e+01 3.883797e+00 3.396914e+01 5.568068e+01 1.608750e+01 2.648051e+01 2.487431e+01 2.109382e+01 1.907895e+01 8.992938e+00 1.000000e-02 1.434502e+00 2.198664e+00 2.024692e+00 1.209595e+00 4.415390e+00 1.963570e+00 1.573960e+00 3.883798e+00 2.660488e+00 5.721374e+00 2.758541e+00 1.426403e+00 1.000000e-02 1.544570e+00 5.830595e-01 2.438523e-01 3.181974e-01 5.243736e-01 1.411804e+00 4.040730e-01 7.086650e-01 4.660254e-01 5.472896e-01 9.439839e-02 7.626953e-02 1.000000e-02
<GCONST> 9.478070e+01
<STATE> 5
<MEAN> 39
 -4.277245e+00 -2.126583e+01 -9.066041e-01 -1.943825e+01 -7.231654e+00 -2.254092e+01 2.332073e+00 9.368803e+00 9.063948e+00 3.326077e+00 -1.223198e+00 -2.599094e+00 9.404493e-01 5.555022e-01 -1.357350e+00 -1.131610e+00 -1.285915e+00 2.683581e+00 1.952513e-02 -2.027812e-01 3.774757e-01 1.085988e+00 1.018323e+00 -2.374146e+00 2.268482e-01 2.245903e-02 -8.750861e-01 9.473183e-01 -5.894408e-01 2.290660e-01 4.533530e-01 1.497704e+00 -6.738198e-01 -8.000339e-01 -7.310043e-01 -5.312013e-01 -1.667319e-01 1.422761e-01 -1.855042e-02
<VARIANCE> 39
 7.543902e+00 1.074116e+01 2.532854e+01 9.687738e+00 2.756894e+01 1.680905e+01 1.071073e+01 2.055483e+01 1.960904e+01 2.124106e+01 5.581516e+01 1.951932e+01 1.000000e-02 5.540764e-01 1.730278e+00 1.316526e+00 6.591014e-01 1.214571e+00 1.748954e+00 8.584019e-01 1.783182e+00 2.081022e+00 2.376529e+00 3.081201e-01 4.399447e-01 1.000000e-02 1.996652e-01 1.382965e-01 1.812560e-01 1.923586e-01 8.342804e-01 2.770036e-01 2.558745e-01 5.003108e-01 3.393247e-01 6.456770e-01 3.383015e-01 1.754753e-01 1.000000e-02
<GCONST> 7.810429e+01
<STATE> 6
<MEAN> 39
 -4.574428e+00 -2.152235e+01 -7.855610e+00 -2.162577e+01 -6.815527e-01 -1.829158e+01 5.165280e-01 8.326813e+00 1.031754e+01 5.261304e+00 -7.434276e+00 -1.408449e+00 9.470471e-01 1.829159e-01 -4.873810e-02 -1.412577e+00 1.534711e-03 8.291067e-01 2.254042e+00 -1.676728e+00 4.654286e-01 -9.224147e-01 1.712894e+00 -2.184520e+00 1.213235e+00 2.156606e-03 -1.804677e-04 3.580461e-01 1.513844e-01 5.347525e-01 -7.656383e-01 3.142894e-01 -2.954501e-01 2.149967e-02 -1.050966e-01 3.198807e-02 5.670853e-01 -3.110895e-01 -5.189658e-04
<VARIANCE> 39
 1.840290e+00 8.389123e+00 2.756612e+01 6.540900e+00 3.296758e+01 1.588534e+01 1.193141e+01 1.401341e+01 1.476648e+01 1.730720e+01 3.863715e+01 1.535523e+01 1.000000e-02 4.122920e-01 2.909034e-01 7.866147e-01 6.815981e-01 1.558698e+00 7.208658e-01 1.270931e+00 4.162870e-01 9.772028e-01 1.702277e+00 1.784804e+00 9.733645e-01 1.000000e-02 1.935642e-02 9.434974e-02 6.278867e-02 4.817016e-02 9.206749e-02 9.015574e-02 1.905087e-01 1.223666e-01 5.319607e-01 5.364227e-01 3.365281e-01 5.330645e-01 1.000000e-02
<GCONST> 6.327055e+01
<STATE> 7
<MEAN> 39
 -3.724520e+00 -2.051327e+01 -1.071908e+01 -1.912707e+01 -1.222912e+00 -1.162820e+01 -5.662920e+00 1.106089e+01 7.063692e+00 1.041348e+01 -1.036597e+01 2.342091e-02 9.636353e-01 -5.475154e-02 1.336566e+00 -1.242585e+00 1.197863e+00 -3.768810e-01 2.137427e+00 -1.140978e+00 -8.734106e-01 8.400981e-01 -2.407504e-01 4.363861e-01 -2.020616e+00 5.351392e-03 -8.098777e-02 2.607605e-01 1.754176e-02 -6.036786e-02 -2.555581e-02 -2.398887e-01 5.505873e-01 -6.448270e-01 7.249492e-01 -8.884441e-01 5.856835e-01 -1.029319e+00 -2.614518e-04
<VARIANCE> 39
 1.759147e+00 5.456397e+00 2.627176e+01 8.773164e+00 2.868252e+01 3.377223e+01 1.175293e+01 1.192245e+01 8.894637e+00 1.138652e+01 2.200887e+01 1.247546e+01 1.000000e-02 2.205967e-01 6.245152e-01 1.060773e+00 6.671509e-01 5.687367e-01 4.959278e-01 1.275926e+00 1.502037e+00 3.195523e+00 2.340815e+00 3.017903e+00 1.303095e+00 1.000000e-02 6.218402e-02 1.215449e-01 1.956868e-01 1.158644e-01 4.687338e-02 1.443885e-01 8.430085e-02 1.265508e-01 1.219870e-01 2.454620e-01 2.502742e-01 1.210964e-01 1.000000e-02
<GCONST> 6.284093e+01
<STATE> 8
<MEAN> 39
 -4.379343e+00 -1.719525e+01 -1.398676e+01 -1.600939e+01 -3.173261e+00 -5.792933e+00 -8.526389e+00 4.994497e+00 1.275819e+01 4.390770e+00 -7.958443e+00 -8.858223e+00 9.729820e-01 1.140588e-01 5.190808e-01 -9.632136e-01 -1.770445e-01 -2.435153e-01 1.175015e+00 -1.121024e-01 -9.428836e-01 9.520587e-01 -1.196046e+00 5.266998e-01 -2.660429e+00 1.725333e-03 1.572869e-01 -3.442520e-01 3.165842e-01 -4.995529e-01 1.650040e-01 -1.532101e-01 4.453860e-01 4.404962e-01 -7.817113e-01 5.021038e-02 -1.762811e-01 4.602874e-01 -5.636792e-03
<VARIANCE> 39
 1.161883e+00 2.402407e+00 8.915669e+00 5.271317e+00 9.763365e+00 5.146640e+01 1.864903e+01 1.844644e+01 3.335709e+01 2.040207e+01 2.010274e+01 2.184039e+01 1.000000e-02 2.876590e-01 1.124290e+00 7.439887e-01 9.989503e-01 5.130513e-01 8.591877e-01 9.884957e-01 2.190696e+00 2.232114e+00 1.047325e+00 1.136665e+00 1.341689e+00 1.000000e-02 6.317063e-02 1.422465e-01 6.528430e-02 8.052193e-02 1.751379e-01 2.160447e-01 2.117612e-01 2.613202e-01 4.586366e-01 2.135242e-01 2.969046e-01 2.626039e-01 1.000000e-02
<GCONST> 6.620110e+01
<STATE> 9
<MEAN> 39
 -2.805494e+00 -1.671907e+01 -1.506771e+01 -1.957415e+01 -1.661819e+00 -3.282251e+00 -2.886930e+00 5.270898e+00 9.561155e+00 3.076903e+00 -7.362122e+00 -1.309835e+01 9.414635e-01 7.314078e-01 -1.758700e-01 4.439384e-01 -4.908488e-01 9.297163e-01 2.941926e-01 3.618240e-01 -5.152265e-01 -1.333758e+00 -6.121751e-01 -5.887862e-01 1.180419e-01 -2.902983e-02 2.700422e-01 -2.264966e-01 4.312570e-01 2.252791e-01 3.986186e-01 -7.855652e-01 -5.059975e-01 -9.991673e-02 -2.071211e-01 3.097743e-01 -1.506856e-01 7.134842e-01 -1.168139e-02
<VARIANCE> 39
 4.672511e+00 3.367438e+00 3.459139e+00 1.034765e+01 1.925929e+01 1.850439e+01 2.633893e+01 1.114506e+01 2.215872e+01 1.960658e+01 5.239090e+01 2.895672e+01 1.000000e-02 6.002520e-01 5.805044e-01 5.218816e-01 1.361514e+00 1.374202e+00 3.280035e+00 3.448609e+00 9.695272e-01 1.585359e+00 9.491489e-01 1.567884e+00 2.571706e+00 1.000000e-02 3.183997e-02 7.704040e-02 1.797481e-01 2.973128e-01 2.516840e-01 1.687010e-01 3.680982e-01 9.908831e-02 3.774562e-01 8.039690e-02 2.899167e-01 4.092962e-01 1.000000e-02
<GCONST> 7.123513e+01
<STATE> 10
<MEAN> 39
 7.764122e-02 -1.821666e+01 -1.255392e+01 -1.970782e+01 1.353947e+00 -4.537400e+00 -7.370805e+00 3.628335e+00 6.845186e+00 3.224189e+00 -9.764837e+00 -1.090979e+01 8.453306e-01 1.575547e+00 -2.138700e-01 1.075323e+00 1.097719e+00 9.395020e-01 -1.699134e+00 -1.069366e+00 -4.235962e-01 -1.165579e+00 1.419163e-01 3.641080e-01 1.101604e+00 -6.018097e-02 7.174567e-02 5.053655e-02 -2.255331e-02 8.757827e-01 -7.320260e-01 -4.071817e-01 1.173618e-01 1.943928e-01 8.691136e-02 8.384775e-02 4.439198e-01 3.660266e-01 -1.191659e-02
<VARIANCE> 39
 1.679421e+01 8.910218e+00 1.675448e+01 1.664982e+01 2.961219e+01 1.492584e+01 1.209413e+01 1.353469e+01 9.870278e+00 2.286979e+01 2.938329e+01 1.433781e+01 1.000000e-02 1.391721e-01 2.103296e-01 1.370640e+00 4.066473e+00 2.938700e+00 9.904254e-01 5.819234e-01 1.602714e+00 1.328452e+00 3.799936e-01 5.360251e-01 2.668224e+00 1.000000e-02 2.150913e-01 7.411921e-02 5.032413e-01 3.436796e-01 4.540144e-01 2.077965e-01 4.753900e-01 2.119137e-01 5.021883e-01 3.127161e-01 2.430099e-01 4.384659e-01 1.000000e-02
<GCONST> 7.537283e+01
<STATE> 11
<MEAN> 39
 3.479074e+00 -1.832468e+01 -9.102160e+00 -1.372959e+01 8.254156e-01 -1.114395e+01 -7.200689e+00 2.906837e+00 5.289183e+00 2.963696e+00 -7.224951e+00 -6.818737e+00 6.414268e-01 9.664637e-01 -3.255693e-01 3.725124e-01 3.001073e+00 -1.746572e+00 -1.335114e+00 7.358670e-01 3.795612e-01 -1.135740e-02 -4.770730e-01 9.899408e-01 1.180853e+00 -7.237212e-02 -4.162705e-01 -1.997334e-02 -2.908217e-01 1.381185e-01 -3.549996e-01 4.241563e-01 4.697097e-01 8.432001e-03 4.113134e-01 -9.329460e-02 6.943721e-02 -2.553362e-01 4.968406e-03
<VARIANCE> 39
 1.096203e+01 4.051886e+00 2.302277e+01 5.769410e+01 4.161652e+01 2.007756e+01 1.224046e+01 7.814379e+00 7.849792e+00 5.445706e+00 8.905109e+00 1.004638e+01 1.005417e-02 8.955312e-01 3.569993e-01 3.070817e+00 4.802290e+00 4.241166e+00 2.068501e+00 1.801560e+00 9.438182e-01 2.749632e+00 1.555579e+00 1.928037e+00 1.176902e+00 1.000000e-02 1.114482e-01 8.579079e-02 5.446767e-01 1.125463e+00 7.171660e-01 3.815271e-01 3.227052e-01 4.224623e-01 2.193012e-01 2.501581e-01 1.048750e-01 2.719811e-01 1.000000e-02
<GCONST> 8.002809e+01
<STATE> 12
<MEAN> 39
 4.104492e+00 -1.958192e+01 -1.050004e+01 -6.290357e+00 -5.008435e+00 -1.253800e+01 -1.273224e+00 4.071061e+00 8.311934e+00 1.202304e+00 -4.204978e+00 -5.800057e+00 4.979342e-01 -3.237436e-01 3.663611e-02 5.180665e-01 9.679235e-01 -2.821463e-03 1.722087e-01 4.779552e-01 -6.780366e-01 2.559984e-01 -1.639738e-02 8.245047e-01 3.372929e-01 -3.729220e-02 -1.269284e-01 2.376665e-01 1.999219e-02 -4.182623e-01 4.290086e-01 4.552298e-01 -4.893467e-01 -1.785080e-01 -2.189251e-01 8.875970e-02 -1.167928e-01 -1.303782e-01 6.576261e-03
<VARIANCE> 39
 1.776633e+00 2.805225e+00 7.906494e+00 3.251388e+01 2.422602e+01 1.642447e+01 7.673388e+00 2.398833e+00 1.522985e+01 1.121537e+01 1.905486e+01 3.841663e+00 1.000000e-02 3.203268e-01 8.114303e-01 1.898038e+00 6.400525e-01 1.198783e+00 1.951277e+00 2.875291e+00 1.321631e+00 4.328022e+00 1.035461e+00 6.132859e-01 5.999681e-01 1.000000e-02 1.300153e-01 1.391483e-01 3.237059e-01 7.254964e-01 7.117773e-01 1.720231e-01 2.598229e-01 1.512416e-01 3.925673e-01 1.932874e-01 2.485664e-01 1.397530e-01 1.000000e-02
<GCONST> 6.814575e+01
<STATE> 13
<MEAN> 39
 2.837292e+00 -1.804438e+01 -8.234279e+00 -5.274508e+00 -2.308903e+00 -9.652287e+00 -2.974589e+00 2.506620e-01 6.256023e+00 -2.560414e-01 -2.757438e+00 -3.309533e+00 4.072241e-01 -3.032307e-01 4.167922e-01 -1.838385e-01 4.088250e-01 7.066666e-01 4.824989e-01 -1.025206e+00 2.061773e-01 -4.050781e-01 -1.951520e-02 3.740163e-02 -4.620927e-02 -2.971794e-02 -1.603885e-02 4.154168e-02 -2.636932e-01 -1.424671e-01 -2.083500e-01 -3.614652e-01 -3.598484e-02 4.730841e-01 4.136273e-01 1.841245e-01 -1.124587e-01 -3.733687e-01 4.517640e-03
<VARIANCE> 39
 2.408239e+00 8.545821e+00 5.621868e+00 3.990742e+01 1.961179e+01 1.769824e+01 1.957604e+01 8.726861e+00 1.829241e+01 1.936107e+01 1.701975e+01 9.548718e+00 1.001098e-02 2.078410e-01 6.266158e-01 6.389394e-01 1.008346e+00 2.065924e+00 1.129068e+00 1.151460e+00 6.189988e-01 2.356722e+00 2.802261e+00 1.415842e+00 1.183012e+00 1.000000e-02 3.111852e-02 1.753296e-01 2.305020e-01 3.146949e-01 5.848993e-01 1.933920e-01 5.153679e-01 3.075368e-01 8.172557e-01 2.808194e-01 2.186743e-01 1.807721e-01 1.000000e-02
<GCONST> 7.212637e+01
<STATE> 14
<MEAN> 39
 2.144328e+00 -1.719934e+01 -1.096011e+01 -5.796702e+00 -3.243692e+00 -1.000822e+01 -7.794032e+00 6.333294e+00 8.052910e+00 4.401112e+00 -4.339224e+00 -7.617105e+00 4.353977e-01 8.434564e-02 1.273494e-01 -2.842743e-01 4.927652e-01 -1.199775e+00 -8.971678e-01 1.340082e+00 7.220812e-01 1.893649e+00 -3.551655e-01 1.829803e-01 -4.148738e-01 -2.390976e-02 -9.705102e-02 -6.174453e-02 2.444715e-01 -2.588531e-01 1.012323e-02 1.478997e-02 5.858101e-01 -5.595436e-01 1.393332e-02 -5.786427e-01 -3.960265e-02 2.484740e-01 -2.176017e-03
<VARIANCE> 39
 4.180014e+00 3.855838e+00 2.182561e+00 1.140925e+01 2.130209e+01 2.069709e+01 5.025135e+01 2.030251e+01 5.149239e+01 1.236921e+01 2.596132e+01 8.919765e+00 1.422228e-02 4.862470e-01 1.128189e+00 3.110678e-01 3.429537e+00 2.720457e+00 1.726483e+00 6.670304e+00 2.421910e+00 4.983940e+00 1.498936e+00 1.288991e+00 7.150946e-01 1.000000e-02 7.088447e-02 1.499842e-01 9.624024e-02 1.937740e-01 8.162367e-01 3.291698e-01 1.342256e+00 3.203138e-01 1.935294e+00 3.557028e-01 2.903792e-01 1.473086e-01 1.000000e-02
<GCONST> 8.064030e+01
<STATE> 15
<MEAN> 39
 1.427940e+00 -1.723554e+01 -1.020226e+01 -5.573075e+00 -3.803259e+00 -1.108906e+01 -3.215561e+00 1.997078e+00 9.716195e+00 -1.000891e+00 -3.203730e+00 -5.757792e+00 3.035350e-01 -3.803028e-01 8.964823e-01 8.045263e-01 2.647838e-01 6.175838e-01 8.577430e-01 3.638389e-01 -1.169694e+00 -9.433883e-01 -5.195592e-01 6.482363e-01 6.753166e-01 -3.348317e-02 7.565216e-02 2.749012e-01 3.303737e-01 2.058883e-01 2.912270e-01 4.206686e-01 1.540836e-02 6.684694e-02 -3.185116e-01 3.240466e-01 1.147255e-01 1.273725e-01 3.500991e-03
<VARIANCE> 39
 2.872809e+00 9.218053e+00 2.881727e+00 2.481754e+00 7.524693e+00 3.356457e+00 6.270260e+00 1.299238e+01 7.817200e+00 4.910879e+00 8.155556e+00 3.894427e+00 1.000000e-02 5.178440e-01 8.075271e-01 7.902281e-01 4.524719e-01 9.694924e-01 7.217349e-01 1.209828e+00 1.324298e+00 7.617322e-01 1.322682e+00 1.134910e+00 4.239016e-01 1.000000e-02 5.151698e-02 1.454161e-01 5.103413e-02 5.549179e-02 1.151446e-01 2.247591e-01 6.065787e-01 2.145783e-01 4.539943e-01 1.754060e-01 2.095727e-01 9.008959e-02 1.000000e-02
<GCONST> 5.237651e+01
<STATE> 16
<MEAN> 39
 1.230904e+00 -1.316603e+01 -5.886958e+00 -3.227200e+00 -6.236398e-01 -6.526802e+00 7.034514e-01 1.082425e+00 7.252560e+00 -5.619262e-01 -1.407100e+00 -4.301280e+00 2.469937e-01 -5.148815e-01 6.018834e-01 5.412158e-01 3.515410e-01 6.924396e-01 5.344462e-01 3.240812e-01 5.778800e-03 -4.313508e-01 1.196094e-01 6.252826e-02 1.503984e-01 -2.508651e-02 -1.644122e-01 -1.300644e-01 -2.140952e-01 -1.574872e-01 -1.060137e-01 -3.400166e-01 -3.627946e-01 4.523117e-02 7.341209e-02 -1.961599e-02 -8.473179e-02 -1.044069e-01 -1.265736e-03
<VARIANCE> 39
 5.688923e+00 8.205507e+00 8.946420e+00 3.976706e+00 5.537608e+00 1.016420e+01 1.359907e+01 1.013236e+01 1.482740e+01 9.638954e+00 5.741554e+00 3.375219e+00 1.000000e-02 2.764265e-01 5.202630e-01 9.267948e-01 2.690333e-01 4.905432e-01 1.372061e+00 2.367498e+00 2.361935e+00 6.995311e-01 3.988568e-01 1.092280e+00 5.233942e-01 1.000000e-02 6.260393e-02 2.040678e-01 1.715119e-01 2.790309e-02 1.162403e-01 1.147867e-01 3.306942e-01 5.391331e-01 1.730632e-01 9.280162e-02 2.453890e-01 8.535185e-02 1.000000e-02
<GCONST> 5.458018e+01
<STATE> 17
<MEAN> 39
 -1.271327e+00 -1.245594e+01 -6.787447e+00 -4.879937e+00 -4.149721e-01 -9.020128e+00 -2.801743e+00 9.393263e-01 7.400645e+00 1.670073e-01 -1.601617e+00 -4.742346e+00 1.606795e-01 -7.834012e-01 3.187132e-01 1.816360e-01 -2.828691e-01 -8.435788e-02 2.623027e-01 4.923492e-01 3.706034e-01 3.171092e-01 2.205533e-01 3.740086e-01 -2.666869e-01 -2.450604e-02 -1.029899e-01 -6.283739e-03 1.289445e-01 1.239323e-01 -8.775389e-02 2.013253e-01 2.954006e-01 1.570982e-01 1.520344e-01 1.141783e-02 1.066015e-01 -3.790215e-02 -4.184658e-03
<VARIANCE> 39
 5.987688e+00 2.736067e+00 1.590215e+01 1.302379e+01 1.212020e+01 1.273301e+01 1.112116e+01 1.580473e+01 2.722337e+01 1.076711e+01 1.329171e+01 1.202058e+01 1.000000e-02 5.847152e-01 7.261366e-01 9.404718e-01 7.581609e-01 2.919095e-01 1.497242e+00 1.327305e+00 3.189936e+00 3.417155e+00 1.816488e+00 9.195167e-01 6.277651e-01 1.000000e-02 1.461567e-01 1.162301e-01 2.138161e-01 1.905991e-01 1.119549e-01 2.373111e-01 2.071452e-01 5.235007e-01 5.267208e-01 4.014438e-01 2.496319e-01 1.550035e-01 1.000000e-02
<GCONST> 6.971960e+01
<STATE> 18
<MEAN> 39
 -4.735161e+00 -9.834564e+00 -3.385474e+00 -3.401110e+00 -4.275181e-01 -5.311565e+00 1.639237e+00 1.861853e+00 7.035571e+00 -3.050216e-02 7.100690e-01 -5.115140e+00 2.320617e-02 -4.879490e-01 6.780173e-01 1.117643e+00 8.505294e-01 3.482548e-01 3.592226e-01 -2.413197e-01 -4.019919e-01 -7.459596e-03 -6.056846e-02 3.897058e-01 2.120911e-01 -2.432106e-02 4.088693e-01 -1.278997e-01 -1.424711e-01 5.596450e-02 1.084727e-01 -2.525709e-01 -3.425087e-01 -3.045378e-01 -1.603859e-01 -6.304184e-02 -2.283840e-01 1.174147e-01 1.194806e-02
<VARIANCE> 39
 2.903746e+00 3.352184e+00 6.573211e+00 5.831705e+00 9.446153e+00 9.354001e+00 8.455435e+00 2.097358e+01 2.243682e+01 5.101010e+00 4.318360e+00 5.481370e+00 1.000000e-02 7.678467e-01 5.097947e-01 1.496538e+00 1.003305e+00 1.076520e+00 6.005258e-01 8.794201e-01 1.200704e+00 1.148093e+00 1.160479e+00 9.272472e-01 7.787857e-01 1.000000e-02 6.302989e-02 9.468111e-02 1.664316e-01 1.237218e-01 1.233182e-01 9.313773e-02 1.337653e-01 5.835552e-01 4.634685e-01 1.952724e-01 1.497165e-01 1.138524e-01 1.000000e-02
<GCONST> 5.790012e+01
<TRANSP> 19
 0.000000e+00 1.000000e+00 0.000000e+00 0.000000e+00 0.000000e+00 0.000000e+00 0.000000e+00 0.000000e+00 0.000000e+00 0.000000e+00 0.000000e+00 0.000000e+00 0.000000e+00 0.000000e+00 0.000000e+00 0.000000e+00 0.000000e+00 0.000000e+00 0.000000e+00
 0.000000e+00 9.038461e-01 9.615386e-02 0.000000e+00 0.000000e+00 0.000000e+00 0.000000e+00 0.000000e+00 0.000000e+00 0.000000e+00 0.000000e+00 0.000000e+00 0.000000e+00 0.000000e+00 0.000000e+00 0.000000e+00 0.000000e+00 0.000000e+00 0.000000e+00
 0.000000e+00 0.000000e+00 7.058824e-01 2.941177e-01 0.000000e+00 0.000000e+00 0.000000e+00 0.000000e+00 0.000000e+00 0.000000e+00 0.000000e+00 0.000000e+00 0.000000e+00 0.000000e+00 0.000000e+00 0.000000e+00 0.000000e+00 0.000000e+00 0.000000e+00
 0.000000e+00 0.000000e+00 0.000000e+00 6.428571e-01 3.571429e-01 0.000000e+00 0.000000e+00 0.000000e+00 0.000000e+00 0.000000e+00 0.000000e+00 0.000000e+00 0.000000e+00 0.000000e+00 0.000000e+00 0.000000e+00 0.000000e+00 0.000000e+00 0.000000e+00
 0.000000e+00 0.000000e+00 0.000000e+00 0.000000e+00 6.428571e-01 3.571429e-01 0.000000e+00 0.000000e+00 0.000000e+00 0.000000e+00 0.000000e+00 0.000000e+00 0.000000e+00 0.000000e+00 0.000000e+00 0.000000e+00 0.000000e+00 0.000000e+00 0.000000e+00
 0.000000e+00 0.000000e+00 0.000000e+00 0.000000e+00 0.000000e+00 6.666667e-01 3.333333e-01 0.000000e+00 0.000000e+00 0.000000e+00 0.000000e+00 0.000000e+00 0.000000e+00 0.000000e+00 0.000000e+00 0.000000e+00 0.000000e+00 0.000000e+00 0.000000e+00
 0.000000e+00 0.000000e+00 0.000000e+00 0.000000e+00 0.000000e+00 0.000000e+00 5.833333e-01 4.166667e-01 0.000000e+00 0.000000e+00 0.000000e+00 0.000000e+00 0.000000e+00 0.000000e+00 0.000000e+00 0.000000e+00 0.000000e+00 0.000000e+00 0.000000e+00
 0.000000e+00 0.000000e+00 0.000000e+00 0.000000e+00 0.000000e+00 0.000000e+00 0.000000e+00 6.666667e-01 3.333333e-01 0.000000e+00 0.000000e+00 0.000000e+00 0.000000e+00 0.000000e+00 0.000000e+00 0.000000e+00 0.000000e+00 0.000000e+00 0.000000e+00
 0.000000e+00 0.000000e+00 0.000000e+00 0.000000e+00 0.000000e+00 0.000000e+00 0.000000e+00 0.000000e+00 6.666667e-01 3.333333e-01 0.000000e+00 0.000000e+00 0.000000e+00 0.000000e+00 0.000000e+00 0.000000e+00 0.000000e+00 0.000000e+00 0.000000e+00
 0.000000e+00 0.000000e+00 0.000000e+00 0.000000e+00 0.000000e+00 0.000000e+00 0.000000e+00 0.000000e+00 0.000000e+00 4.444444e-01 5.555556e-01 0.000000e+00 0.000000e+00 0.000000e+00 0.000000e+00 0.000000e+00 0.000000e+00 0.000000e+00 0.000000e+00
 0.000000e+00 0.000000e+00 0.000000e+00 0.000000e+00 0.000000e+00 0.000000e+00 0.000000e+00 0.000000e+00 0.000000e+00 0.000000e+00 6.153846e-01 3.846154e-01 0.000000e+00 0.000000e+00 0.000000e+00 0.000000e+00 0.000000e+00 0.000000e+00 0.000000e+00
 0.000000e+00 0.000000e+00 0.000000e+00 0.000000e+00 0.000000e+00 0.000000e+00 0.000000e+00 0.000000e+00 0.000000e+00 0.000000e+00 0.000000e+00 6.153846e-01 3.846154e-01 0.000000e+00 0.000000e+00 0.000000e+00 0.000000e+00 0.000000e+00 0.000000e+00
 0.000000e+00 0.000000e+00 0.000000e+00 0.000000e+00 0.000000e+00 0.000000e+00 0.000000e+00 0.000000e+00 0.000000e+00 0.000000e+00 0.000000e+00 0.000000e+00 5.833333e-01 4.166667e-01 0.000000e+00 0.000000e+00 0.000000e+00 0.000000e+00 0.000000e+00
 0.000000e+00 0.000000e+00 0.000000e+00 0.000000e+00 0.000000e+00 0.000000e+00 0.000000e+00 0.000000e+00 0.000000e+00 0.000000e+00 0.000000e+00 0.000000e+00 0.000000e+00 5.833333e-01 4.166667e-01 0.000000e+00 0.000000e+00 0.000000e+00 0.000000e+00
 0.000000e+00 0.000000e+00 0.000000e+00 0.000000e+00 0.000000e+00 0.000000e+00 0.000000e+00 0.000000e+00 0.000000e+00 0.000000e+00 0.000000e+00 0.000000e+00 0.000000e+00 0.000000e+00 6.875000e-01 3.125000e-01 0.000000e+00 0.000000e+00 0.000000e+00
 0.000000e+00 0.000000e+00 0.000000e+00 0.000000e+00 0.000000e+00 0.000000e+00 0.000000e+00 0.000000e+00 0.000000e+00 0.000000e+00 0.000000e+00 0.000000e+00 0.000000e+00 0.000000e+00 0.000000e+00 7.058824e-01 2.941177e-01 0.000000e+00 0.000000e+00
 0.000000e+00 0.000000e+00 0.000000e+00 0.000000e+00 0.000000e+00 0.000000e+00 0.000000e+00 0.000000e+00 0.000000e+00 0.000000e+00 0.000000e+00 0.000000e+00 0.000000e+00 0.000000e+00 0.000000e+00 0.000000e+00 7.058824e-01 2.941177e-01 0.000000e+00
 0.000000e+00 0.000000e+00 0.000000e+00 0.000000e+00 0.000000e+00 0.000000e+00 0.000000e+00 0.000000e+00 0.000000e+00 0.000000e+00 0.000000e+00 0.000000e+00 0.000000e+00 0.000000e+00 0.000000e+00 0.000000e+00 0.000000e+00 6.428571e-01 3.571429e-01
 0.000000e+00 0.000000e+00 0.000000e+00 0.000000e+00 0.000000e+00 0.000000e+00 0.000000e+00 0.000000e+00 0.000000e+00 0.000000e+00 0.000000e+00 0.000000e+00 0.000000e+00 0.000000e+00 0.000000e+00 0.000000e+00 0.000000e+00 0.000000e+00 0.000000e+00
<ENDHMM>
