~o
<STREAMINFO> 1 39
<VECSIZE> 39<NULLD><MFCC_E_D_A><DIAGC>
~h "Vao"
<BEGINHMM>
<NUMSTATES> 27
<STATE> 2
<MEAN> 39
 -3.499130e+00 -7.192170e+00 -2.542198e-01 -2.493575e+00 5.492707e-01 -5.501931e+00 2.155415e+00 -1.402866e+00 6.847313e-02 -2.300848e+00 2.085285e+00 -3.181880e+00 5.568535e-02 9.357465e-01 2.338488e-01 -1.287477e+00 -1.051023e+00 -9.841906e-01 -6.335578e-01 -3.126442e-01 -2.303944e-01 -8.270276e-01 -3.841497e-01 -9.252434e-01 -1.261481e+00 2.670771e-02 2.379875e-01 -7.864790e-02 -4.068972e-01 -1.643273e-02 -1.893540e-01 -2.125545e-01 -3.884699e-01 -1.851491e-01 -2.358572e-01 -2.358719e-01 -1.999108e-01 -4.366767e-02 1.210619e-02
<VARIANCE> 39
 2.675071e+00 3.881208e+00 7.208021e+00 7.344904e+00 9.018926e+00 8.053705e+00 4.273762e+00 1.028604e+01 8.975949e+00 7.074138e+00 8.282651e+00 9.833851e+00 1.000000e-02 7.149359e-01 3.127244e-01 1.091527e+00 8.571856e-01 9.306132e-01 1.291536e+00 1.007535e+00 2.581747e+00 1.290539e+00 6.670486e-01 9.175514e-01 7.850214e-01 1.000000e-02 1.220060e-01 1.328885e-01 9.094255e-02 1.641399e-01 2.838802e-01 3.027700e-01 6.861022e-02 4.055448e-01 2.261627e-01 1.571469e-01 2.823140e-01 1.700282e-01 1.000000e-02
<GCONST> 5.915229e+01
<STATE> 3
<MEAN> 39
 -1.101928e-01 -6.074904e+00 -6.049812e+00 -5.552691e+00 -3.823824e+00 -7.318535e+00 -2.090858e+00 -2.152681e+00 -2.150669e+00 -4.302333e+00 -1.218603e+00 -6.290119e+00 1.948131e-01 5.893523e-01 -3.908218e-01 -9.838473e-01 5.277777e-01 -5.251297e-01 -9.934931e-01 -7.214101e-01 5.964229e-01 -5.864814e-01 -6.501043e-01 -1.070866e+00 -8.411406e-01 6.158780e-02 -2.161704e-01 -5.899880e-01 8.307113e-02 2.561863e-01 5.004948e-01 1.122029e-01 3.451298e-01 1.663529e-01 4.064280e-01 2.891896e-01 1.103390e-01 1.977124e-01 1.430737e-02
<VARIANCE> 39
 1.430839e+01 1.244590e+01 8.197965e+00 1.768878e+01 1.401013e+01 1.165128e+01 7.109533e+00 9.594230e+00 8.806295e+00 1.354939e+01 6.874581e+00 2.475620e+00 2.435256e-02 1.853079e+00 1.940964e+00 8.212097e-01 1.132441e+00 2.620454e+00 2.382738e+00 4.250471e-01 9.774590e-01 1.028040e+00 1.347884e+00 1.494847e+00 7.271840e-01 1.000000e-02 1.498968e-01 2.599823e-01 6.556093e-01 7.664905e-01 4.406016e-01 2.160701e-01 1.687347e-01 3.367224e-01 3.568647e-01 1.136276e-01 2.105364e-01 1.222851e-01 1.000000e-02
<GCONST> 7.239758e+01
<STATE> 4
<MEAN> 39
 1.335691e+00 -9.314797e+00 -6.903721e+00 -3.154083e+00 -1.359851e+00 -1.050617e+01 -1.153167e+00 -1.566299e+00 -3.229980e+00 -6.293705e+00 -2.602231e+00 -8.336658e+00 3.746911e-01 5.545493e-01 -2.251882e+00 -2.169216e+00 -1.062410e+00 6.150227e-01 3.026216e-02 8.933555e-01 1.082494e-01 1.288882e+00 1.013439e+00 -1.229905e+00 1.634762e-01 9.648845e-02 -1.680955e-01 -5.426134e-01 -7.767620e-01 -4.497999e-01 8.937651e-02 4.684640e-01 9.109140e-01 4.848757e-02 4.534926e-01 3.563782e-01 -5.211409e-01 6.083367e-01 2.027528e-02
<VARIANCE> 39
 2.513124e+01 1.820547e+01 8.480330e+00 1.424807e+01 9.593670e+00 3.665583e+01 8.271104e+00 1.241400e+01 2.108772e+01 1.936926e+01 1.839362e+01 1.374990e+01 4.241855e-02 5.133884e-01 2.265525e+00 4.564208e+00 4.383300e+00 2.465919e+00 3.427152e+00 1.341244e+00 1.035347e+00 2.394149e+00 1.251080e+00 2.129395e+00 8.337700e-01 1.000000e-02 2.515442e-01 3.301053e-01 4.513597e-01 4.551522e-01 4.835288e-01 8.517774e-01 3.238147e-01 3.178664e-01 5.391851e-01 5.513409e-01 4.048485e-01 2.586643e-01 1.000000e-02
<GCONST> 8.884593e+01
<STATE> 5
<MEAN> 39
 1.720025e+00 -1.757081e+01 -1.792506e+01 -8.809801e+00 -1.918644e+00 -8.073938e+00 4.222910e+00 2.123570e-01 2.927822e+00 -8.533988e-02 -8.638305e+00 -5.817825e+00 7.417551e-01 -8.826473e-01 -2.895282e+00 -3.913825e+00 -2.182887e-01 8.510450e-01 8.023553e-01 3.885514e+00 6.445038e-02 3.725390e-01 -2.582062e-01 -2.092043e+00 2.032452e+00 1.391020e-01 -6.526256e-01 3.303345e-01 5.627052e-01 9.321021e-01 4.198286e-01 2.551188e-01 1.206524e-01 -5.098950e-01 -7.423477e-01 -7.405432e-01 6.666360e-01 4.144546e-01 -2.164608e-02
<VARIANCE> 39
 1.487192e+01 9.975762e+00 4.461155e+01 1.916497e+01 1.562508e+01 1.037414e+01 4.602219e+01 1.961407e+01 2.207522e+01 1.427816e+01 1.963224e+01 8.852057e+00 1.385777e-02 1.464318e+00 7.275579e-01 2.145580e+00 1.630916e+00 1.876223e+00 2.153226e+00 1.482552e+00 2.759076e+00 2.603131e+00 3.919844e+00 1.356033e+00 1.291031e+00 1.000000e-02 1.204617e-01 2.886431e-01 9.217271e-01 4.289353e-01 4.409262e-01 2.853809e-01 8.059312e-01 1.412403e-01 2.771832e-01 1.742081e-01 3.084339e-01 2.461085e-01 1.000000e-02
<GCONST> 8.560519e+01
<STATE> 6
<MEAN> 39
 -2.391893e+00 -2.225370e+01 -2.211700e+01 -4.617604e+00 3.079563e+00 -5.680604e+00 1.336170e+01 -2.276191e+00 2.132343e-01 -5.449143e+00 -9.840481e+00 9.621350e-01 9.325681e-01 -1.528376e+00 -1.241217e+00 -7.256141e-01 2.019660e+00 1.613698e+00 1.346467e+00 9.921569e-01 -1.482758e+00 -8.746199e-01 -9.476389e-01 8.944200e-01 1.775025e+00 4.424774e-02 2.297874e-01 5.799742e-01 8.169031e-01 2.699309e-01 -1.936121e-01 -9.717307e-03 -1.305578e+00 -5.087854e-01 1.022421e-01 3.131704e-01 7.045143e-01 -4.646684e-01 -2.862660e-02
<VARIANCE> 39
 1.575059e+01 2.403350e+00 6.964055e+00 2.391669e+01 1.324298e+01 8.689204e+00 1.717401e+01 4.658251e+01 2.651227e+01 1.345020e+01 1.215690e+01 7.025624e+00 1.000000e-02 6.390291e-01 5.082759e-01 2.166348e+00 1.481037e+00 1.099107e+00 1.593066e-01 1.613377e+00 6.563152e-01 6.683147e-01 6.342187e-01 1.068388e+00 7.436032e-01 1.000000e-02 9.357907e-02 6.330290e-02 2.443056e-01 2.588707e-01 2.421053e-01 2.651907e-01 8.622311e-02 3.324327e-01 1.198886e-01 3.412504e-01 3.989301e-01 2.326338e-01 1.000000e-02
<GCONST> 6.587164e+01
<STATE> 7
<MEAN> 39
 -3.937418e+00 -2.358629e+01 -2.295023e+01 -5.971574e-01 5.437498e+00 -3.378992e+00 1.047926e+01 -6.412335e+00 -7.119916e-01 -4.478790e+00 -6.936884e+00 1.373212e+00 9.716194e-01 -1.882030e-01 -6.620652e-01 -3.667760e-01 1.173175e+00 4.976509e-01 6.565255e-01 -5.766619e-01 -2.076060e+00 4.824658e-01 3.217816e-01 6.392105e-01 6.250331e-01 1.310176e-02 3.886175e-01 1.442913e-01 1.304496e-01 -3.988887e-01 -3.287317e-01 -1.764349e-01 -2.207997e-01 2.663803e-01 3.573965e-01 1.525692e-01 -3.452327e-01 -1.955097e-01 -7.846897e-03
<VARIANCE> 39
 1.495737e+01 2.820793e+00 6.721781e+00 2.483792e+01 5.252800e+00 1.026689e+01 1.279855e+01 5.801294e+01 3.526123e+01 1.342252e+01 1.292571e+01 9.207638e+00 1.000000e-02 4.054543e-01 1.143991e-01 5.798028e-01 8.054882e-01 4.358848e-01 4.626212e-01 4.345419e-01 1.037286e+00 7.900124e-01 7.294531e-01 1.762489e+00 5.833613e-01 1.000000e-02 4.035465e-02 3.285795e-02 1.336195e-01 1.127096e-01 1.240185e-01 2.830638e-02 9.671026e-02 2.520143e-01 1.619857e-01 9.590907e-02 1.344636e-01 1.289577e-01 1.000000e-02
<GCONST> 5.309771e+01
<STATE> 8
<MEAN> 39
 -3.765949e+00 -2.525635e+01 -2.343728e+01 6.494682e-01 5.337392e+00 -1.541584e+00 9.045234e+00 -8.544603e+00 1.077375e+00 -3.188338e+00 -7.614758e+00 3.921397e+00 9.926120e-01 -6.078149e-02 -2.290777e-01 -8.895365e-02 6.723019e-02 -4.847246e-03 5.005224e-01 -7.266511e-01 -1.681157e-01 6.505948e-01 -2.277287e-01 -1.886965e-01 5.729201e-01 2.761607e-03 -8.807336e-02 2.647451e-01 1.170356e-01 -2.771528e-01 -9.195016e-02 -1.058751e-01 -3.699732e-02 4.069824e-01 -1.390694e-01 -2.683912e-01 -8.942806e-02 -2.093025e-01 -2.900766e-03
<VARIANCE> 39
 2.922440e+01 1.682720e+00 2.592808e+00 2.883251e+01 8.152701e+00 1.059315e+01 1.998139e+01 3.436430e+01 3.014198e+01 2.405745e+01 3.045662e+01 5.498411e+00 1.000000e-02 3.121398e-01 2.753536e-01 2.923738e-01 4.083523e-01 1.463426e-01 1.678411e-01 1.461203e-01 3.113410e-01 8.521826e-01 7.543635e-01 2.463443e-01 2.890809e-01 1.000000e-02 6.883544e-02 4.487810e-02 7.413280e-02 1.044398e-01 8.171566e-02 4.686221e-02 1.012848e-01 1.499344e-01 1.323553e-01 1.436692e-01 1.521131e-01 1.009557e-01 1.000000e-02
<GCONST> 4.577684e+01
<STATE> 9
<MEAN> 39
 -4.009479e+00 -2.529407e+01 -2.400357e+01 2.871803e-01 5.389583e+00 -1.499513e+00 8.621143e+00 -1.225237e+01 3.532721e+00 -6.287867e+00 -7.162124e+00 3.775079e+00 9.936461e-01 -5.985562e-02 2.382695e-01 4.604738e-01 -9.391415e-02 1.359826e-01 4.338093e-01 -5.682880e-01 -1.542345e-01 3.395580e-01 -5.227653e-01 -3.049296e-01 -1.806872e-01 -1.399161e-03 7.650038e-02 -6.336299e-02 2.005318e-01 -1.163151e-01 -3.999510e-02 1.054853e-01 1.129417e-01 1.292261e-01 -5.664650e-02 2.821460e-02 -2.338376e-02 -6.042229e-02 -1.914645e-03
<VARIANCE> 39
 1.289879e+01 4.088397e+00 1.717133e+00 2.266086e+01 1.251139e+01 6.829074e+00 1.500153e+01 4.993810e+01 1.678002e+01 2.429644e+01 1.292917e+01 3.765748e+00 1.000000e-02 2.523800e-01 2.182359e-01 3.628101e-01 4.259971e-01 7.706936e-01 5.506296e-01 1.561753e+00 1.294080e+00 9.271991e-01 8.578808e-01 3.576642e-01 7.151548e-01 1.000000e-02 2.378202e-02 6.101285e-02 3.012131e-02 4.348355e-02 1.897868e-01 8.396528e-02 1.697531e-01 1.168985e-01 2.713738e-01 3.521579e-01 3.599373e-02 1.376640e-01 1.000000e-02
<GCONST> 5.105120e+01
<STATE> 10
<MEAN> 39
 -4.088305e+00 -2.533403e+01 -2.140014e+01 -1.220697e+00 6.182896e+00 2.445729e-01 7.600282e+00 -1.234167e+01 6.199641e+00 -8.435472e+00 -6.957553e+00 3.919591e+00 9.784529e-01 -3.348911e-01 -2.696645e-01 2.422904e-01 -6.797914e-01 -3.689556e-02 2.050308e-01 -3.448066e-01 5.624970e-01 2.643265e-01 -1.613480e-01 -6.611103e-01 1.718204e-01 -9.551072e-03 -6.141756e-02 -3.427237e-02 -1.859465e-01 6.098383e-02 -3.905619e-02 -1.823155e-01 1.873736e-01 -3.447309e-03 -1.091022e-01 3.420181e-01 -1.056184e-01 8.188458e-02 -1.597760e-03
<VARIANCE> 39
 1.365839e+01 3.133343e+00 4.920970e+00 2.066472e+01 5.080218e+00 6.052155e+00 1.556139e+01 5.282669e+01 3.607005e+01 9.837536e+00 1.732529e+01 1.080516e+01 1.000000e-02 1.840187e-01 4.843757e-01 3.118729e-01 2.531157e-01 1.076416e+00 8.376150e-01 7.016613e-01 4.996721e-01 1.422153e+00 1.818212e+00 2.447308e-01 4.898229e-01 1.000000e-02 6.702154e-02 5.639805e-02 5.061668e-02 1.208763e-01 7.549684e-02 1.418235e-01 1.019551e-01 8.833028e-02 1.219120e-01 1.236452e-01 6.288845e-02 9.743753e-02 1.000000e-02
<GCONST> 5.099090e+01
<STATE> 11
<MEAN> 39
 -5.869287e+00 -2.441711e+01 -2.096691e+01 -7.794234e-01 5.160956e+00 9.540141e-01 6.725326e+00 -6.741111e+00 2.076534e+00 -3.611560e+00 -1.101881e+01 4.990084e+00 9.589636e-01 1.648001e-01 -1.171718e-01 -3.349546e-01 1.216678e-01 -2.700940e-01 2.150553e-01 -1.175577e-01 -3.931192e-01 -7.069885e-04 7.166799e-01 -4.999840e-01 -1.602239e-02 -5.136942e-03 1.029411e-01 -1.386636e-01 -2.918049e-01 -1.067604e-01 -1.214616e-01 -5.024095e-02 -1.242958e-01 -1.373745e-01 4.110917e-02 6.786326e-02 4.742806e-02 -1.402152e-01 2.610672e-04
<VARIANCE> 39
 2.170756e+01 3.693115e+00 6.213803e+00 1.826641e+01 7.829946e+00 9.825769e+00 2.092155e+01 3.015259e+01 4.131990e+01 8.831650e+00 9.383109e+00 9.464105e+00 1.000000e-02 9.022589e-02 3.398326e-01 5.331224e-01 4.700952e-01 5.656698e-01 8.415670e-01 4.057292e-01 5.618659e-01 1.264807e+00 5.371322e-01 7.538179e-01 5.449722e-01 1.000000e-02 1.902271e-02 3.040527e-02 4.535474e-02 1.335953e-01 7.025462e-02 6.839432e-02 1.097942e-01 1.288238e-01 1.960679e-01 9.781403e-02 1.155860e-01 8.296534e-02 1.000000e-02
<GCONST> 4.902915e+01
<STATE> 12
<MEAN> 39
 -3.302073e+00 -2.719678e+01 -2.512623e+01 -1.776225e+00 3.463548e+00 1.308392e+00 6.004920e+00 -1.206071e+01 5.789247e+00 -4.797506e+00 -9.895370e+00 3.023416e+00 9.479295e-01 2.521805e-01 -5.073261e-01 -4.194026e-01 -6.446704e-01 -5.825239e-01 5.012478e-01 -5.858764e-02 -1.893032e-01 3.382310e-01 2.129861e-01 -9.057207e-02 -5.428634e-01 -8.168529e-03 8.215997e-02 1.964676e-01 3.210592e-01 -4.812346e-02 1.068169e-01 8.226624e-02 2.123637e-01 7.037547e-02 -1.187889e-01 1.829470e-01 -4.206157e-03 2.418637e-02 -1.776146e-03
<VARIANCE> 39
 2.069086e+01 3.376290e+00 4.145461e+00 2.333019e+01 1.143479e+01 1.217452e+01 1.796456e+01 5.218263e+01 9.761665e+01 1.930163e+01 1.627885e+01 5.752512e+00 1.000000e-02 1.660566e-01 3.200766e-01 6.600242e-01 2.889477e-01 1.309820e-01 1.013493e+00 6.622344e-01 3.096127e-01 7.843416e-01 8.682241e-01 5.341265e-01 5.094084e-01 1.000000e-02 2.318370e-02 2.727547e-02 6.604222e-02 6.942309e-02 7.028639e-02 2.187473e-01 1.204177e-01 4.960431e-02 2.462704e-01 1.172394e-01 1.866773e-01 7.711808e-02 1.000000e-02
<GCONST> 5.082629e+01
<STATE> 13
<MEAN> 39
 -1.798230e+00 -2.799112e+01 -2.362980e+01 -2.285114e+00 1.792576e+00 3.647138e+00 4.988275e+00 -8.736036e+00 3.188882e+00 -1.860421e+00 -1.094585e+01 2.161561e+00 9.273584e-01 5.171440e-01 2.742276e-01 3.912009e-01 -5.925898e-01 1.898879e-01 4.148581e-02 1.713712e-01 -1.948854e-01 -9.321838e-02 1.260899e+00 -8.281647e-02 -1.739934e-01 -1.239521e-02 1.366649e-01 2.641268e-01 9.649450e-02 7.529217e-02 3.183640e-01 -2.185313e-02 2.832349e-02 4.075422e-02 -1.198985e-01 1.006819e-01 1.115071e-02 -2.466722e-01 -3.441007e-04
<VARIANCE> 39
 3.224687e+01 8.474916e+00 5.237129e+00 1.483825e+01 1.280301e+01 1.314127e+01 2.818937e+01 4.172350e+01 7.175416e+01 1.589590e+01 7.597510e+00 7.255948e+00 1.000000e-02 1.131379e-01 2.590959e-01 3.821903e-01 3.436203e-01 4.862621e-01 1.626454e-01 4.496789e-01 5.066777e-01 1.464248e+00 7.251467e-01 1.065227e+00 5.380979e-01 1.000000e-02 3.356687e-02 3.857229e-02 4.309675e-02 8.101870e-02 9.555412e-02 1.250155e-01 1.959233e-01 9.327848e-02 1.528705e-01 1.350103e-01 9.579246e-02 1.341925e-01 1.000000e-02
<GCONST> 5.202596e+01
<STATE> 14
<MEAN> 39
 -2.894009e+00 -2.484145e+01 -2.302929e+01 -4.852664e+00 4.998851e+00 1.562501e+00 6.582437e+00 -1.161640e+01 4.513972e+00 1.356948e+00 -1.193081e+01 5.841471e-01 8.854657e-01 9.233533e-01 4.000746e-01 1.017738e-01 -3.583745e-01 2.372775e-01 7.451801e-01 -1.658573e-01 5.080978e-01 -5.479270e-01 1.121971e+00 -3.685158e-01 -1.423306e+00 -1.021678e-02 6.096841e-02 -1.123311e-02 -5.956537e-03 -1.956702e-01 -1.747164e-01 3.443503e-01 -3.433295e-01 3.711955e-01 -2.881320e-02 -1.831546e-01 -3.124701e-02 -3.360378e-01 -7.909747e-04
<VARIANCE> 39
 2.800847e+01 3.504356e+00 3.213392e+00 8.368275e+00 8.086320e+00 1.306867e+01 1.741183e+01 3.947849e+01 2.961836e+01 1.488813e+01 5.148676e+00 1.943082e+01 1.000000e-02 7.136576e-02 3.765179e-01 2.404422e-01 7.227222e-01 1.301750e+00 7.263078e-01 1.479087e+00 1.263752e+00 9.472666e-01 1.109070e+00 3.416384e-01 9.410490e-01 1.000000e-02 1.000000e-02 5.865134e-02 9.568083e-02 1.041013e-01 5.512104e-02 1.354719e-01 2.144256e-01 6.626758e-02 1.495871e-01 6.727790e-02 5.562790e-02 8.149657e-02 1.000000e-02
<GCONST> 5.054855e+01
<STATE> 15
<MEAN> 39
 7.047034e-02 -2.465414e+01 -2.348162e+01 -5.779663e+00 3.747900e+00 5.095150e+00 5.593505e+00 -9.375322e+00 2.230885e+00 2.790352e+00 -1.370564e+01 -1.711084e+00 8.637246e-01 7.099056e-01 5.410445e-01 4.363129e-02 -1.406358e+00 -2.573227e-01 7.653855e-01 -1.004371e+00 9.927125e-01 -4.859964e-01 9.808849e-01 -1.949671e-01 -1.520689e+00 -1.527191e-02 8.562057e-02 6.268873e-02 1.475848e-01 -2.742771e-01 -1.639605e-01 -3.097664e-01 -2.063529e-01 1.995815e-01 1.047025e-01 -1.482597e-01 4.024771e-01 2.118241e-01 -3.231659e-03
<VARIANCE> 39
 2.411012e+01 1.445180e+01 5.754085e+00 7.420721e+00 1.260432e+01 1.415780e+01 6.993113e+00 2.333571e+01 2.749303e+01 6.647252e+00 1.866562e+01 3.498198e+01 1.000000e-02 1.550688e-01 2.496843e-01 8.486094e-01 9.593242e-01 1.152799e+00 1.100373e+00 2.399545e+00 1.033548e+00 1.601066e+00 7.326409e-01 5.600644e-01 2.819515e-01 1.000000e-02 4.121573e-02 8.931386e-02 1.187832e-01 2.816664e-02 4.610639e-01 2.425787e-01 2.317563e-01 1.336350e-01 3.577459e-01 1.969173e-01 8.297643e-02 2.436136e-01 1.000000e-02
<GCONST> 6.191684e+01
<STATE> 16
<MEAN> 39
 2.289418e+00 -2.285145e+01 -2.154210e+01 -1.086405e+01 2.448138e+00 5.721904e+00 1.254107e+00 -6.135230e+00 7.567196e-01 5.543213e+00 -1.190076e+01 -5.734887e+00 8.082852e-01 1.528127e+00 3.689550e-01 9.016984e-01 -1.604733e+00 -5.756284e-01 -4.911703e-01 -8.561761e-01 1.060700e+00 2.541097e-01 -6.375480e-01 1.434859e+00 -1.600620e-01 -2.735386e-02 6.123069e-02 -1.087931e-01 -6.921974e-02 2.974259e-01 -1.130492e-02 -6.460797e-01 4.651111e-01 2.579249e-02 3.563706e-01 -7.382481e-01 5.654710e-01 7.780519e-01 -4.065038e-03
<VARIANCE> 39
 1.513476e+01 4.478887e+00 1.467975e+01 2.038400e+01 1.989584e+01 4.624223e+00 1.245411e+01 1.641871e+01 2.002205e+01 1.228096e+01 9.450501e+00 1.877584e+01 1.000000e-02 4.229858e-01 1.176792e+00 1.278298e+00 4.220353e-01 1.765318e+00 2.373074e+00 1.201116e+00 7.358346e-01 3.448218e+00 1.135803e+00 5.700193e-01 1.689301e+00 1.000000e-02 5.018006e-02 6.862259e-02 1.506244e-01 1.307209e-01 3.306803e-01 1.587026e-01 2.133305e-01 1.246704e-01 6.070229e-01 1.700680e-01 5.691433e-02 1.211143e-01 1.000000e-02
<GCONST> 6.620555e+01
<STATE> 17
<MEAN> 39
 5.816819e+00 -2.314098e+01 -1.978528e+01 -1.346431e+01 2.086670e+00 2.738896e+00 1.653394e+00 -2.409331e+00 4.436741e+00 6.857506e-01 -7.063530e+00 -3.614444e+00 7.350320e-01 9.550002e-01 3.962811e-01 -3.267331e-01 -3.996603e-02 -5.453051e-01 -1.781012e+00 4.635616e-01 1.268885e+00 6.069970e-01 -1.577559e+00 2.302662e+00 1.691903e+00 -3.351673e-02 -2.438398e-01 -3.651939e-03 -3.257180e-01 6.409395e-01 -1.702365e-01 -2.124216e-01 1.910723e-01 -3.580745e-01 -2.152646e-01 1.638291e-01 -1.124422e-01 1.878028e-01 -1.534092e-03
<VARIANCE> 39
 6.822997e+00 3.338289e+00 3.344024e+01 2.161236e+01 1.533626e+01 1.091362e+01 1.359434e+01 1.295408e+01 5.781270e+00 7.640140e+00 3.972427e+00 7.136589e+00 1.000000e-02 3.248558e-01 6.398821e-01 5.714231e-01 7.125317e-01 1.431319e+00 5.282372e-01 4.919389e-01 1.722712e+00 2.579726e+00 8.228829e-01 8.968023e-01 6.325455e-01 1.000000e-02 8.304244e-02 1.234460e-01 3.387731e-01 1.111314e-01 2.148858e-01 2.298901e-01 1.701263e-01 2.486590e-01 3.865957e-01 1.987731e-01 2.209318e-01 1.569238e-01 1.000000e-02
<GCONST> 6.230735e+01
<STATE> 18
<MEAN> 39
 8.332904e+00 -2.055564e+01 -2.197078e+01 -1.169849e+01 -1.085691e+00 -2.176394e+00 2.179512e+00 -1.535930e+00 2.911423e+00 -1.216552e+00 -1.093329e+00 5.258197e-01 6.693488e-01 7.514619e-02 1.019411e-01 1.942798e-01 6.521041e-01 -1.062779e+00 -1.813114e+00 2.803287e-01 2.073041e-01 1.025860e-01 -6.322899e-01 5.067612e-01 7.480955e-01 -3.596929e-02 -3.859512e-01 -1.671035e-01 3.919755e-02 2.130544e-01 1.842828e-01 1.570561e-01 6.197211e-02 9.177214e-02 -1.799810e-01 1.330115e-01 -7.818280e-01 -5.123876e-01 -1.039322e-03
<VARIANCE> 39
 3.252146e+00 3.342566e+00 1.444943e+01 6.573155e+00 1.743689e+01 1.746511e+01 1.071339e+01 8.987080e+00 9.351493e+00 1.272890e+01 5.188823e+00 8.502638e+00 1.000000e-02 4.667624e-01 3.357306e-01 1.735680e+00 1.002641e+00 5.138105e-01 3.616080e-01 1.164930e+00 9.944366e-01 5.158777e-01 1.064330e+00 1.919214e+00 3.432457e-01 1.000000e-02 3.667912e-02 9.580875e-02 1.426116e-01 4.434330e-02 2.904014e-01 7.510005e-02 1.187513e-01 1.443083e-01 2.418830e-01 2.576045e-01 2.690634e-01 1.973065e-01 1.000000e-02
<GCONST> 5.548372e+01
<STATE> 19
<MEAN> 39
 6.180383e+00 -2.281533e+01 -2.230040e+01 -9.310315e+00 -2.309296e+00 -6.083444e+00 4.629233e+00 5.456626e-01 4.206477e+00 -2.166127e+00 -4.732351e+00 -8.657048e-01 5.642201e-01 -5.434435e-01 2.902005e-01 1.058994e-01 1.270551e+00 5.825599e-01 -7.682734e-01 2.521101e-01 6.964659e-01 -5.446585e-01 -6.780433e-01 -6.503809e-01 -8.634076e-01 -3.685601e-02 -9.368597e-02 3.257335e-01 5.509497e-01 2.562075e-01 6.504731e-01 7.259326e-01 -4.582385e-01 -5.182925e-01 -1.533628e-01 -1.820208e-01 2.556087e-02 -2.969812e-01 -6.864143e-04
<VARIANCE> 39
 1.165805e+00 4.779939e+00 1.084255e+00 7.408096e+00 2.219639e+01 7.764679e+00 5.733980e+00 9.109557e+00 5.747304e+00 1.169131e+01 8.521278e+00 9.155425e+00 1.000000e-02 2.316976e-01 8.933631e-01 1.422187e+00 3.058170e-01 1.647762e+00 1.612469e+00 6.327138e-01 5.837491e-01 1.613797e+00 1.438715e+00 1.476119e+00 5.039484e-01 1.000000e-02 3.642858e-02 8.487772e-02 2.029183e-01 4.955361e-02 1.310363e-01 7.717856e-02 1.216440e-01 2.126329e-01 1.611687e-01 2.070080e-01 3.680714e-01 2.729567e-01 1.000000e-02
<GCONST> 5.312714e+01
<STATE> 20
<MEAN> 39
 4.679214e+00 -2.053885e+01 -1.862963e+01 -4.533229e+00 3.347635e+00 -3.446890e+00 2.013045e+00 -1.476088e+00 1.652049e+00 -5.061422e+00 -3.910760e+00 -2.229967e+00 4.577734e-01 -6.169359e-01 3.937732e-01 1.397541e+00 1.211977e+00 9.564481e-01 6.140335e-01 -8.519278e-01 -6.967252e-01 -5.287617e-01 -8.314512e-01 5.136856e-02 -1.711084e-01 -3.417255e-02 -1.654651e-02 -1.835643e-01 7.775737e-02 -1.993664e-01 -1.465311e-01 4.281236e-02 -1.542555e-03 5.809908e-03 1.986782e-01 1.887338e-01 3.802948e-02 -4.467547e-03 1.695381e-03
<VARIANCE> 39
 2.587836e+00 3.016398e+00 9.280218e+00 4.864471e+00 3.045062e+01 1.620361e+01 4.012627e+00 1.781084e+01 1.098688e+01 6.270895e+00 9.466915e+00 8.900626e+00 1.000000e-02 1.093815e-01 1.016547e+00 1.494355e+00 8.457385e-01 7.168819e-01 8.670117e-01 7.748961e-01 1.864879e+00 8.441976e-01 7.401079e-01 8.492771e-01 1.135318e+00 1.000000e-02 5.550875e-02 1.795413e-01 3.646815e-01 7.791957e-02 3.386312e-01 4.542465e-01 1.068825e-01 4.966186e-01 2.125769e-01 1.537297e-01 1.422980e-01 1.370450e-01 1.000000e-02
<GCONST> 5.995148e+01
<STATE> 21
<MEAN> 39
 3.335112e+00 -1.978143e+01 -1.532469e+01 -3.137998e+00 3.151412e+00 -4.433143e+00 7.354757e-01 -2.044955e+00 1.116178e+00 -6.776732e+00 -4.886953e+00 -3.222640e+00 3.723496e-01 -5.010394e-01 2.767866e-01 1.188030e+00 7.569680e-01 1.062374e+00 7.304745e-01 -3.580117e-01 -4.888545e-01 1.529849e-01 -3.099803e-01 1.055179e-01 -7.384921e-01 -3.013962e-02 2.756941e-02 -2.810763e-02 -1.378455e-01 -1.564893e-01 1.125997e-01 2.199512e-01 2.002242e-01 -5.508704e-02 -3.959242e-02 2.072224e-01 3.991295e-01 3.142149e-01 4.334095e-03
<VARIANCE> 39
 3.095942e+00 6.879305e+00 6.605198e+00 5.648242e+00 1.705125e+01 4.104702e+00 1.509249e+01 1.151355e+01 7.107799e+00 9.252995e+00 6.018531e+00 6.641262e+00 1.000000e-02 3.546182e-01 6.610778e-01 4.492756e-01 7.814605e-01 1.969550e+00 2.023245e+00 5.940654e-01 1.388469e+00 9.349612e-01 9.783937e-01 3.177077e-01 8.704948e-01 1.000000e-02 3.286694e-02 1.843637e-01 1.855406e-01 1.909368e-01 1.464895e-01 9.101979e-02 1.392009e-01 1.843613e-01 2.341329e-01 2.223076e-01 1.641568e-01 2.155444e-01 1.000000e-02
<GCONST> 5.641441e+01
<STATE> 22
<MEAN> 39
 2.381270e+00 -2.015367e+01 -1.440656e+01 -2.843537e+00 5.473766e+00 -3.399918e-01 7.717736e-01 -2.711269e+00 2.821666e+00 -5.859329e+00 -2.068382e+00 -2.794964e+00 3.339347e-01 -6.319444e-01 3.901128e-01 9.629104e-01 5.079431e-01 3.370602e-01 1.739831e-01 1.195402e-01 -8.953943e-02 -5.426620e-01 3.100811e-01 1.468661e+00 5.264159e-01 -2.217196e-02 7.527060e-02 3.388313e-01 4.323070e-02 -1.978974e-01 -3.720704e-01 -5.762902e-01 -4.678826e-02 8.869594e-02 -3.478619e-01 1.138393e-01 -6.500447e-02 1.296540e-01 2.657262e-03
<VARIANCE> 39
 4.907084e+00 8.966813e-01 8.302626e+00 8.586485e+00 1.294984e+01 7.591829e+00 1.221984e+01 6.122146e+00 9.496505e+00 6.315512e+00 9.378675e+00 9.672923e+00 1.000000e-02 2.555594e-01 6.234554e-01 7.895937e-01 8.445017e-01 1.401903e+00 9.920174e-01 5.596461e-01 6.546310e-01 2.022905e+00 1.477642e+00 6.310458e-01 9.302085e-01 1.000000e-02 7.146447e-02 7.547799e-02 1.009951e-01 9.049363e-02 1.820751e-01 1.808414e-01 1.641868e-01 2.287030e-01 2.193897e-01 2.838084e-01 1.348249e-01 2.357163e-01 1.000000e-02
<GCONST> 5.592237e+01
<STATE> 23
<MEAN> 39
 1.412549e+00 -1.708181e+01 -1.016666e+01 -3.876273e-01 6.096713e+00 -3.137155e+00 1.916351e-01 -3.850606e+00 -1.591021e+00 -6.127403e+00 -7.586657e-01 -2.233240e+00 2.882369e-01 -3.996688e-01 7.382113e-01 6.688634e-01 -5.148614e-02 2.420846e-01 -4.668617e-01 -1.602395e-01 8.719990e-02 -3.259506e-01 4.710626e-01 2.519408e-01 1.529984e-01 -2.052940e-02 -8.823939e-02 6.274570e-02 -4.478463e-02 -9.475467e-02 -3.295019e-03 6.652933e-02 7.284920e-02 2.729530e-01 5.657051e-01 1.708746e-01 -1.836701e-01 -1.439579e-01 -4.703286e-03
<VARIANCE> 39
 2.467890e+00 4.125456e+00 4.034591e+00 1.257496e+01 1.061581e+01 7.303084e+00 3.586864e+00 6.370520e+00 6.914799e+00 1.336199e+01 5.606182e+00 7.131901e+00 1.000000e-02 2.574931e-01 3.894756e-01 4.125335e-01 5.174904e-01 8.855376e-01 1.206230e+00 7.130840e-01 1.235520e+00 1.879412e+00 1.399794e+00 3.868305e-01 8.012065e-01 1.000000e-02 5.219989e-02 4.785116e-02 1.142768e-01 1.854346e-01 4.276246e-01 3.471594e-01 8.253948e-02 1.472231e-01 1.872160e-01 1.849462e-01 5.275677e-02 1.073643e-01 1.000000e-02
<GCONST> 5.099316e+01
<STATE> 24
<MEAN> 39
 -2.894996e-01 -1.512761e+01 -9.604412e+00 -2.597736e+00 5.693367e+00 -3.503404e+00 1.229806e+00 -1.333244e+00 1.024680e+00 -3.379066e+00 4.219978e-01 -2.493478e+00 2.042938e-01 -6.499190e-01 1.295222e+00 1.322218e+00 1.871872e-01 -1.163536e-01 7.725012e-02 4.958519e-02 2.447293e-01 1.253756e+00 4.207860e-01 4.354596e-02 -7.704461e-02 -3.554695e-02 -4.036181e-02 5.496735e-02 2.231677e-01 1.624160e-01 -1.081801e-01 2.240071e-01 -1.366014e-01 -3.182303e-01 -2.099620e-01 -3.874363e-01 2.625112e-03 4.374508e-03 -2.307336e-03
<VARIANCE> 39
 6.772255e-01 9.008559e+00 9.820370e+00 1.905996e+01 1.317767e+01 1.227205e+01 1.371009e+01 1.648776e+01 7.126314e+00 6.808834e+00 6.803563e+00 9.091299e+00 1.000000e-02 2.492550e-01 3.023860e-01 9.438431e-01 2.443098e+00 2.688344e+00 1.540493e+00 1.291013e+00 1.612214e+00 2.802341e-01 8.417689e-01 6.443499e-01 2.560503e-01 1.000000e-02 2.350734e-02 1.663386e-01 1.588956e-01 2.518434e-01 2.307377e-01 3.705557e-01 2.948803e-01 3.470277e-01 2.708041e-01 1.538430e-01 9.179597e-02 1.368069e-01 1.000000e-02
<GCONST> 5.951653e+01
<STATE> 25
<MEAN> 39
 -1.782554e+00 -1.171343e+01 -5.174026e+00 -4.785553e-01 6.663043e+00 -2.544269e+00 -1.074245e+00 -3.397220e+00 3.162611e+00 -3.276813e+00 -5.067668e-01 -3.103332e+00 1.261132e-01 -7.405366e-01 1.084232e+00 1.018542e+00 2.626924e-01 8.084222e-02 9.257318e-01 -7.818541e-02 -6.734283e-01 -6.552452e-01 -4.932155e-01 5.892273e-01 5.035302e-02 -3.855922e-02 5.906712e-02 -1.124378e-01 -2.629389e-01 -2.251903e-01 -2.934920e-01 -3.969460e-02 3.283203e-01 -1.754702e-02 -6.230899e-01 -1.150492e-01 2.324752e-01 2.823163e-01 2.411545e-03
<VARIANCE> 39
 1.579774e+00 4.685503e+00 5.143272e+00 8.544496e+00 1.322200e+01 7.434892e+00 5.919762e+00 8.910757e+00 7.009299e+00 1.094790e+01 1.474530e+01 4.346980e+00 1.000000e-02 7.540955e-02 9.307680e-01 6.261212e-01 9.724836e-01 1.949126e+00 1.839751e+00 1.193240e+00 7.655227e-01 4.792538e-01 4.276242e-01 5.245308e-01 7.643749e-01 1.000000e-02 2.599677e-02 6.465515e-02 7.339998e-02 2.609826e-01 5.167245e-01 2.454335e-01 2.525685e-01 4.190315e-01 1.358029e-01 4.999576e-02 1.922760e-01 1.207964e-02 1.000000e-02
<GCONST> 5.052377e+01
<STATE> 26
<MEAN> 39
 -3.550362e+00 -1.109632e+01 -4.877292e+00 -7.130002e-01 5.408983e+00 -1.408633e+00 2.166231e+00 -3.571572e+00 -6.292914e-01 -4.762553e+00 2.016087e+00 -1.665315e+00 4.855659e-02 -5.837002e-01 5.408003e-01 4.869869e-01 -5.127048e-01 -1.092731e+00 -2.388923e-01 6.462609e-01 2.253336e-01 -7.564316e-01 2.089407e-02 4.382191e-01 5.349224e-01 -3.175742e-02 1.250848e-01 -2.315629e-01 -1.968522e-01 -2.021228e-01 -3.240261e-02 -2.515647e-01 -1.160230e-01 1.602784e-01 3.974314e-01 3.041559e-01 -2.134586e-01 -2.715766e-01 6.848414e-03
<VARIANCE> 39
 9.089171e-01 3.998417e+00 4.375096e+00 1.210628e+01 1.970747e+01 1.295733e+01 7.638692e+00 1.045552e+01 6.137454e+00 1.002053e+01 2.759416e+00 2.512189e+00 1.000000e-02 1.019332e-01 3.545818e-01 1.501611e-01 4.610038e-01 8.506026e-01 8.372658e-01 1.150066e+00 1.203574e+00 1.516387e+00 6.269935e-01 1.234399e+00 4.285100e-01 1.000000e-02 3.285827e-02 1.182433e-01 9.147558e-02 1.790830e-01 3.122477e-01 2.835295e-01 1.560491e-01 1.706884e-01 1.199196e-01 5.655025e-02 9.653136e-02 6.068169e-02 1.000000e-02
<GCONST> 4.656205e+01
<TRANSP> 27
 0.000000e+00 1.000000e+00 0.000000e+00 0.000000e+00 0.000000e+00 0.000000e+00 0.000000e+00 0.000000e+00 0.000000e+00 0.000000e+00 0.000000e+00 0.000000e+00 0.000000e+00 0.000000e+00 0.000000e+00 0.000000e+00 0.000000e+00 0.000000e+00 0.000000e+00 0.000000e+00 0.000000e+00 0.000000e+00 0.000000e+00 0.000000e+00 0.000000e+00 0.000000e+00 0.000000e+00
 0.000000e+00 6.666667e-01 3.333333e-01 0.000000e+00 0.000000e+00 0.000000e+00 0.000000e+00 0.000000e+00 0.000000e+00 0.000000e+00 0.000000e+00 0.000000e+00 0.000000e+00 0.000000e+00 0.000000e+00 0.000000e+00 0.000000e+00 0.000000e+00 0.000000e+00 0.000000e+00 0.000000e+00 0.000000e+00 0.000000e+00 0.000000e+00 0.000000e+00 0.000000e+00 0.000000e+00
 0.000000e+00 0.000000e+00 5.833333e-01 4.166667e-01 0.000000e+00 0.000000e+00 0.000000e+00 0.000000e+00 0.000000e+00 0.000000e+00 0.000000e+00 0.000000e+00 0.000000e+00 0.000000e+00 0.000000e+00 0.000000e+00 0.000000e+00 0.000000e+00 0.000000e+00 0.000000e+00 0.000000e+00 0.000000e+00 0.000000e+00 0.000000e+00 0.000000e+00 0.000000e+00 0.000000e+00
 0.000000e+00 0.000000e+00 0.000000e+00 6.153846e-01 3.846154e-01 0.000000e+00 0.000000e+00 0.000000e+00 0.000000e+00 0.000000e+00 0.000000e+00 0.000000e+00 0.000000e+00 0.000000e+00 0.000000e+00 0.000000e+00 0.000000e+00 0.000000e+00 0.000000e+00 0.000000e+00 0.000000e+00 0.000000e+00 0.000000e+00 0.000000e+00 0.000000e+00 0.000000e+00 0.000000e+00
 0.000000e+00 0.000000e+00 0.000000e+00 0.000000e+00 5.833333e-01 4.166667e-01 0.000000e+00 0.000000e+00 0.000000e+00 0.000000e+00 0.000000e+00 0.000000e+00 0.000000e+00 0.000000e+00 0.000000e+00 0.000000e+00 0.000000e+00 0.000000e+00 0.000000e+00 0.000000e+00 0.000000e+00 0.000000e+00 0.000000e+00 0.000000e+00 0.000000e+00 0.000000e+00 0.000000e+00
 0.000000e+00 0.000000e+00 0.000000e+00 0.000000e+00 0.000000e+00 5.000000e-01 5.000000e-01 0.000000e+00 0.000000e+00 0.000000e+00 0.000000e+00 0.000000e+00 0.000000e+00 0.000000e+00 0.000000e+00 0.000000e+00 0.000000e+00 0.000000e+00 0.000000e+00 0.000000e+00 0.000000e+00 0.000000e+00 0.000000e+00 0.000000e+00 0.000000e+00 0.000000e+00 0.000000e+00
 0.000000e+00 0.000000e+00 0.000000e+00 0.000000e+00 0.000000e+00 0.000000e+00 6.153846e-01 3.846154e-01 0.000000e+00 0.000000e+00 0.000000e+00 0.000000e+00 0.000000e+00 0.000000e+00 0.000000e+00 0.000000e+00 0.000000e+00 0.000000e+00 0.000000e+00 0.000000e+00 0.000000e+00 0.000000e+00 0.000000e+00 0.000000e+00 0.000000e+00 0.000000e+00 0.000000e+00
 0.000000e+00 0.000000e+00 0.000000e+00 0.000000e+00 0.000000e+00 0.000000e+00 0.000000e+00 5.833333e-01 4.166667e-01 0.000000e+00 0.000000e+00 0.000000e+00 0.000000e+00 0.000000e+00 0.000000e+00 0.000000e+00 0.000000e+00 0.000000e+00 0.000000e+00 0.000000e+00 0.000000e+00 0.000000e+00 0.000000e+00 0.000000e+00 0.000000e+00 0.000000e+00 0.000000e+00
 0.000000e+00 0.000000e+00 0.000000e+00 0.000000e+00 0.000000e+00 0.000000e+00 0.000000e+00 0.000000e+00 5.454546e-01 4.545455e-01 0.000000e+00 0.000000e+00 0.000000e+00 0.000000e+00 0.000000e+00 0.000000e+00 0.000000e+00 0.000000e+00 0.000000e+00 0.000000e+00 0.000000e+00 0.000000e+00 0.000000e+00 0.000000e+00 0.000000e+00 0.000000e+00 0.000000e+00
 0.000000e+00 0.000000e+00 0.000000e+00 0.000000e+00 0.000000e+00 0.000000e+00 0.000000e+00 0.000000e+00 0.000000e+00 5.454546e-01 4.545455e-01 0.000000e+00 0.000000e+00 0.000000e+00 0.000000e+00 0.000000e+00 0.000000e+00 0.000000e+00 0.000000e+00 0.000000e+00 0.000000e+00 0.000000e+00 0.000000e+00 0.000000e+00 0.000000e+00 0.000000e+00 0.000000e+00
 0.000000e+00 0.000000e+00 0.000000e+00 0.000000e+00 0.000000e+00 0.000000e+00 0.000000e+00 0.000000e+00 0.000000e+00 0.000000e+00 7.058824e-01 2.941177e-01 0.000000e+00 0.000000e+00 0.000000e+00 0.000000e+00 0.000000e+00 0.000000e+00 0.000000e+00 0.000000e+00 0.000000e+00 0.000000e+00 0.000000e+00 0.000000e+00 0.000000e+00 0.000000e+00 0.000000e+00
 0.000000e+00 0.000000e+00 0.000000e+00 0.000000e+00 0.000000e+00 0.000000e+00 0.000000e+00 0.000000e+00 0.000000e+00 0.000000e+00 0.000000e+00 5.833333e-01 4.166667e-01 0.000000e+00 0.000000e+00 0.000000e+00 0.000000e+00 0.000000e+00 0.000000e+00 0.000000e+00 0.000000e+00 0.000000e+00 0.000000e+00 0.000000e+00 0.000000e+00 0.000000e+00 0.000000e+00
 0.000000e+00 0.000000e+00 0.000000e+00 0.000000e+00 0.000000e+00 0.000000e+00 0.000000e+00 0.000000e+00 0.000000e+00 0.000000e+00 0.000000e+00 0.000000e+00 5.454546e-01 4.545455e-01 0.000000e+00 0.000000e+00 0.000000e+00 0.000000e+00 0.000000e+00 0.000000e+00 0.000000e+00 0.000000e+00 0.000000e+00 0.000000e+00 0.000000e+00 0.000000e+00 0.000000e+00
 0.000000e+00 0.000000e+00 0.000000e+00 0.000000e+00 0.000000e+00 0.000000e+00 0.000000e+00 0.000000e+00 0.000000e+00 0.000000e+00 0.000000e+00 0.000000e+00 0.000000e+00 5.454546e-01 4.545455e-01 0.000000e+00 0.000000e+00 0.000000e+00 0.000000e+00 0.000000e+00 0.000000e+00 0.000000e+00 0.000000e+00 0.000000e+00 0.000000e+00 0.000000e+00 0.000000e+00
 0.000000e+00 0.000000e+00 0.000000e+00 0.000000e+00 0.000000e+00 0.000000e+00 0.000000e+00 0.000000e+00 0.000000e+00 0.000000e+00 0.000000e+00 0.000000e+00 0.000000e+00 0.000000e+00 6.153846e-01 3.846154e-01 0.000000e+00 0.000000e+00 0.000000e+00 0.000000e+00 0.000000e+00 0.000000e+00 0.000000e+00 0.000000e+00 0.000000e+00 0.000000e+00 0.000000e+00
 0.000000e+00 0.000000e+00 0.000000e+00 0.000000e+00 0.000000e+00 0.000000e+00 0.000000e+00 0.000000e+00 0.000000e+00 0.000000e+00 0.000000e+00 0.000000e+00 0.000000e+00 0.000000e+00 0.000000e+00 5.833333e-01 4.166667e-01 0.000000e+00 0.000000e+00 0.000000e+00 0.000000e+00 0.000000e+00 0.000000e+00 0.000000e+00 0.000000e+00 0.000000e+00 0.000000e+00
 0.000000e+00 0.000000e+00 0.000000e+00 0.000000e+00 0.000000e+00 0.000000e+00 0.000000e+00 0.000000e+00 0.000000e+00 0.000000e+00 0.000000e+00 0.000000e+00 0.000000e+00 0.000000e+00 0.000000e+00 0.000000e+00 5.454546e-01 4.545455e-01 0.000000e+00 0.000000e+00 0.000000e+00 0.000000e+00 0.000000e+00 0.000000e+00 0.000000e+00 0.000000e+00 0.000000e+00
 0.000000e+00 0.000000e+00 0.000000e+00 0.000000e+00 0.000000e+00 0.000000e+00 0.000000e+00 0.000000e+00 0.000000e+00 0.000000e+00 0.000000e+00 0.000000e+00 0.000000e+00 0.000000e+00 0.000000e+00 0.000000e+00 0.000000e+00 6.153846e-01 3.846154e-01 0.000000e+00 0.000000e+00 0.000000e+00 0.000000e+00 0.000000e+00 0.000000e+00 0.000000e+00 0.000000e+00
 0.000000e+00 0.000000e+00 0.000000e+00 0.000000e+00 0.000000e+00 0.000000e+00 0.000000e+00 0.000000e+00 0.000000e+00 0.000000e+00 0.000000e+00 0.000000e+00 0.000000e+00 0.000000e+00 0.000000e+00 0.000000e+00 0.000000e+00 0.000000e+00 5.833333e-01 4.166667e-01 0.000000e+00 0.000000e+00 0.000000e+00 0.000000e+00 0.000000e+00 0.000000e+00 0.000000e+00
 0.000000e+00 0.000000e+00 0.000000e+00 0.000000e+00 0.000000e+00 0.000000e+00 0.000000e+00 0.000000e+00 0.000000e+00 0.000000e+00 0.000000e+00 0.000000e+00 0.000000e+00 0.000000e+00 0.000000e+00 0.000000e+00 0.000000e+00 0.000000e+00 0.000000e+00 6.153846e-01 3.846154e-01 0.000000e+00 0.000000e+00 0.000000e+00 0.000000e+00 0.000000e+00 0.000000e+00
 0.000000e+00 0.000000e+00 0.000000e+00 0.000000e+00 0.000000e+00 0.000000e+00 0.000000e+00 0.000000e+00 0.000000e+00 0.000000e+00 0.000000e+00 0.000000e+00 0.000000e+00 0.000000e+00 0.000000e+00 0.000000e+00 0.000000e+00 0.000000e+00 0.000000e+00 0.000000e+00 6.153846e-01 3.846154e-01 0.000000e+00 0.000000e+00 0.000000e+00 0.000000e+00 0.000000e+00
 0.000000e+00 0.000000e+00 0.000000e+00 0.000000e+00 0.000000e+00 0.000000e+00 0.000000e+00 0.000000e+00 0.000000e+00 0.000000e+00 0.000000e+00 0.000000e+00 0.000000e+00 0.000000e+00 0.000000e+00 0.000000e+00 0.000000e+00 0.000000e+00 0.000000e+00 0.000000e+00 0.000000e+00 5.000000e-01 5.000000e-01 0.000000e+00 0.000000e+00 0.000000e+00 0.000000e+00
 0.000000e+00 0.000000e+00 0.000000e+00 0.000000e+00 0.000000e+00 0.000000e+00 0.000000e+00 0.000000e+00 0.000000e+00 0.000000e+00 0.000000e+00 0.000000e+00 0.000000e+00 0.000000e+00 0.000000e+00 0.000000e+00 0.000000e+00 0.000000e+00 0.000000e+00 0.000000e+00 0.000000e+00 0.000000e+00 6.875000e-01 3.125000e-01 0.000000e+00 0.000000e+00 0.000000e+00
 0.000000e+00 0.000000e+00 0.000000e+00 0.000000e+00 0.000000e+00 0.000000e+00 0.000000e+00 0.000000e+00 0.000000e+00 0.000000e+00 0.000000e+00 0.000000e+00 0.000000e+00 0.000000e+00 0.000000e+00 0.000000e+00 0.000000e+00 0.000000e+00 0.000000e+00 0.000000e+00 0.000000e+00 0.000000e+00 0.000000e+00 5.454546e-01 4.545455e-01 0.000000e+00 0.000000e+00
 0.000000e+00 0.000000e+00 0.000000e+00 0.000000e+00 0.000000e+00 0.000000e+00 0.000000e+00 0.000000e+00 0.000000e+00 0.000000e+00 0.000000e+00 0.000000e+00 0.000000e+00 0.000000e+00 0.000000e+00 0.000000e+00 0.000000e+00 0.000000e+00 0.000000e+00 0.000000e+00 0.000000e+00 0.000000e+00 0.000000e+00 0.000000e+00 5.000000e-01 5.000000e-01 0.000000e+00
 0.000000e+00 0.000000e+00 0.000000e+00 0.000000e+00 0.000000e+00 0.000000e+00 0.000000e+00 0.000000e+00 0.000000e+00 0.000000e+00 0.000000e+00 0.000000e+00 0.000000e+00 0.000000e+00 0.000000e+00 0.000000e+00 0.000000e+00 0.000000e+00 0.000000e+00 0.000000e+00 0.000000e+00 0.000000e+00 0.000000e+00 0.000000e+00 0.000000e+00 5.000000e-01 5.000000e-01
 0.000000e+00 0.000000e+00 0.000000e+00 0.000000e+00 0.000000e+00 0.000000e+00 0.000000e+00 0.000000e+00 0.000000e+00 0.000000e+00 0.000000e+00 0.000000e+00 0.000000e+00 0.000000e+00 0.000000e+00 0.000000e+00 0.000000e+00 0.000000e+00 0.000000e+00 0.000000e+00 0.000000e+00 0.000000e+00 0.000000e+00 0.000000e+00 0.000000e+00 0.000000e+00 0.000000e+00
<ENDHMM>
