~o
<STREAMINFO> 1 39
<VECSIZE> 39<NULLD><MFCC_E_D_A><DIAGC>
~h "Xoa"
<BEGINHMM>
<NUMSTATES> 12
<STATE> 2
<MEAN> 39
 -1.095204e+01 -3.717668e+00 -7.459869e+00 1.662564e+00 1.391268e+00 -5.066581e+00 5.825730e+00 -2.019189e+00 3.237697e+00 -4.035743e+00 2.348302e+00 -2.719319e+00 -8.060481e-03 -1.537439e+00 2.121563e+00 -1.980254e+00 8.004522e-01 -1.755968e-01 -2.071266e-01 4.297208e-01 -5.117077e-01 2.366844e-01 -4.261206e-01 2.932252e-01 -3.632153e-01 4.367789e-02 -1.961863e-01 2.849149e-01 -2.797382e-01 7.295859e-03 -1.359075e-01 -9.693974e-02 -1.729645e-01 -9.437203e-02 -2.435865e-02 -7.826329e-03 8.667759e-02 3.136490e-02 1.284298e-02
<VARIANCE> 39
 1.756099e+01 2.693982e+01 2.362966e+01 8.586636e+00 1.001145e+01 1.209652e+01 1.844838e+01 2.929636e+01 1.275620e+01 1.353665e+01 8.177093e+00 7.513847e+00 1.285088e-02 2.633236e+00 1.953623e+00 1.335327e+00 6.273672e-01 2.482074e+00 1.509532e+00 2.314124e+00 3.162914e+00 9.212662e-01 1.720020e+00 1.100908e+00 1.253464e+00 1.000000e-02 4.568867e-01 4.189705e-01 2.505847e-01 1.604025e-01 3.634019e-01 2.900236e-01 4.810852e-01 4.684182e-01 1.861859e-01 3.466062e-01 2.028908e-01 2.826819e-01 1.000000e-02
<GCONST> 8.129121e+01
<STATE> 3
<MEAN> 39
 -1.852519e+01 4.285651e+00 -1.883000e+01 1.342142e+00 -1.554182e+00 -8.789056e+00 3.157699e+00 -3.252091e+00 6.279202e+00 -5.600954e+00 1.860932e+00 -3.197451e+00 4.593751e-01 1.862558e+00 -2.862783e+00 -4.489051e-01 -2.186918e+00 -1.133235e-01 -7.385629e-01 -5.335556e-01 7.343528e-01 7.573844e-01 2.235331e-01 -1.506286e+00 -1.969816e-01 7.245161e-02 7.745380e-01 -1.160985e+00 2.999254e-01 -5.898020e-01 4.539545e-01 2.878395e-01 1.704272e-01 9.269220e-02 -8.127443e-02 2.190305e-01 -2.976204e-01 -2.112199e-01 2.349739e-03
<VARIANCE> 39
 7.531918e+01 8.449924e+01 2.134669e+01 5.878297e+01 2.480781e+01 4.414532e+01 1.593305e+01 3.388713e+01 1.337389e+01 2.053311e+01 3.444753e+01 1.213602e+01 2.598660e-02 1.063740e+01 1.585720e+01 3.590057e+00 8.685958e+00 3.460756e+00 3.097766e+00 1.769976e+00 3.204892e+00 1.466409e+00 2.313648e+00 4.810109e+00 2.163436e+00 1.000000e-02 1.201907e+00 1.078106e+00 7.664540e-01 1.329419e+00 8.051209e-01 7.400744e-01 2.936626e-01 8.198441e-01 4.899179e-01 4.674619e-01 1.048419e+00 3.649679e-01 1.000000e-02
<GCONST> 1.117922e+02
<STATE> 4
<MEAN> 39
 -6.772925e-02 -2.398190e+01 -1.969720e+01 -1.553957e+01 5.563244e+00 -5.190240e+00 3.690586e+00 -3.693901e+00 4.602226e+00 -6.841909e-01 -5.452808e+00 -9.641940e+00 9.031267e-01 8.041362e-01 -1.911536e+00 -1.359105e-01 -1.186688e+00 2.112122e+00 2.221487e+00 9.318719e-01 -1.779710e+00 -1.817128e+00 1.756517e+00 1.290078e+00 -1.203010e+00 5.092407e-02 -8.121586e-01 1.394633e+00 1.125169e-01 7.367083e-01 -4.431888e-01 2.112891e-01 3.195625e-02 -2.765102e-01 5.195016e-02 -1.109518e-01 5.853363e-01 5.176637e-01 -2.191315e-02
<VARIANCE> 39
 8.175380e+00 1.266055e+01 1.227851e+01 1.419353e+01 3.261206e+01 3.092011e+01 2.828776e+01 3.258076e+01 5.682874e+01 2.625773e+01 2.481231e+01 1.882578e+01 1.000000e-02 2.697676e+00 6.291224e+00 2.452033e+00 3.541606e+00 3.003460e+00 1.516435e+00 1.120811e+00 6.352297e-01 4.861738e+00 1.397494e+00 3.026452e+00 1.610726e+00 1.000000e-02 5.786364e-01 6.238892e-01 3.279269e-01 6.018950e-01 6.437498e-01 3.692655e-01 2.614948e-01 5.529782e-01 1.486976e+00 4.575042e-01 1.099190e+00 3.429984e-01 1.000000e-02
<GCONST> 9.715572e+01
<STATE> 5
<MEAN> 39
 -7.266198e-01 -2.528732e+01 -1.904506e+01 -1.602098e+01 9.214278e+00 5.060181e+00 5.761721e+00 -8.935712e+00 1.255976e+00 1.520414e+00 -8.958674e-01 -8.265665e+00 9.783232e-01 -2.142489e-01 -3.272120e-01 9.822341e-02 4.063939e-01 3.540412e-02 6.205017e-01 -1.783120e-01 -2.546139e-01 7.448948e-02 -6.552447e-01 -1.558696e-01 2.191772e-01 7.950809e-04 -2.857801e-02 -6.375995e-02 -2.346381e-02 1.899183e-01 -7.159038e-02 -2.157219e-01 -1.106054e-01 1.183397e-01 6.608188e-03 -2.071329e-01 -1.633841e-01 -9.726492e-02 -1.691125e-03
<VARIANCE> 39
 1.502114e+01 9.548759e+00 1.033491e+01 7.607641e+00 9.281859e+00 1.288501e+01 1.978671e+01 3.570176e+01 6.895158e+01 2.424834e+01 1.544406e+01 7.217340e+00 1.000000e-02 3.533705e-01 3.961959e-01 4.875441e-01 6.531994e-01 5.718073e-01 1.039626e+00 7.325589e-01 6.136720e-01 1.193577e+00 6.519512e-01 6.289961e-01 7.933314e-01 1.000000e-02 4.458444e-02 8.335741e-02 8.948758e-02 1.032826e-01 1.644399e-01 1.029376e-01 1.435196e-01 8.635107e-02 2.001329e-01 1.239090e-01 1.081379e-01 1.442348e-01 1.000000e-02
<GCONST> 5.869010e+01
<STATE> 6
<MEAN> 39
 -3.060899e+00 -2.814928e+01 -1.813067e+01 -8.056525e+00 9.349237e+00 4.931252e+00 8.245184e-01 -8.388311e+00 2.167869e+00 -6.897441e+00 -4.306421e+00 -8.624951e+00 9.476687e-01 7.906698e-03 -1.409745e-01 4.214091e-01 9.279911e-01 -8.791646e-02 -4.556066e-01 -1.061226e+00 1.139853e+00 -4.269176e-01 -7.410280e-01 -3.456346e-01 5.641295e-01 -7.322942e-03 5.229147e-02 3.867048e-02 1.716735e-01 -2.612547e-01 -1.608454e-02 1.966156e-02 7.164713e-03 2.881684e-01 -1.870497e-01 8.330342e-02 1.176340e-01 3.263192e-01 -1.512780e-03
<VARIANCE> 39
 2.695095e+01 7.707662e+00 2.092881e+01 2.389528e+01 1.212956e+01 2.032112e+01 1.624625e+01 3.262786e+01 3.334509e+01 2.639388e+01 1.017408e+01 7.671113e+00 1.000000e-02 3.635819e-01 5.817030e-01 1.004527e+00 6.854040e-01 1.510357e+00 1.112265e+00 1.153872e+00 1.445727e+00 8.327210e-01 1.236309e+00 3.538888e-01 1.594793e+00 1.000000e-02 7.110614e-02 9.198147e-02 1.521131e-01 6.503316e-02 2.739081e-01 1.910277e-01 2.217466e-01 2.034629e-01 1.319143e-01 1.861191e-01 6.566679e-02 1.525744e-01 1.000000e-02
<GCONST> 6.688641e+01
<STATE> 7
<MEAN> 39
 -4.720450e+00 -2.859991e+01 -1.372184e+01 -8.631763e+00 7.776128e+00 8.305219e-01 -3.406163e+00 1.157339e+00 -3.142189e+00 -1.078071e+01 -4.521624e+00 -8.696262e-01 8.074434e-01 -7.524730e-02 1.462051e-01 4.234721e-01 -1.292712e-01 -2.846317e-01 -6.052822e-01 1.311956e-01 1.790364e-01 5.577505e-02 -2.668501e-01 -1.585345e-01 6.226577e-01 -4.445348e-02 3.203812e-01 3.547401e-02 -1.840482e-01 3.091563e-01 -4.224423e-02 7.365559e-02 1.858561e-01 -4.977481e-01 3.235705e-01 2.504191e-01 -7.759345e-02 -3.186837e-01 -6.588838e-03
<VARIANCE> 39
 1.450262e+01 7.982193e+00 9.547477e+00 1.400943e+01 3.195931e+01 4.780054e+01 3.556771e+01 1.540716e+01 1.507809e+01 1.252035e+01 8.172579e+00 1.207930e+01 1.000000e-02 2.429388e+00 1.266963e+00 6.243629e-01 1.910290e+00 1.985762e+00 1.660025e+00 1.665228e+00 3.050618e+00 1.553995e+00 1.739359e+00 1.073171e+00 9.708983e-01 1.000000e-02 5.182740e-01 2.565703e-01 1.611337e-01 3.979014e-01 5.000132e-01 5.179248e-01 2.952208e-01 5.179970e-01 1.526642e-01 2.734412e-01 1.586119e-01 1.154734e-01 1.000000e-02
<GCONST> 8.096424e+01
<STATE> 8
<MEAN> 39
 1.656197e+00 -2.720059e+01 -1.367059e+01 -2.263141e+00 5.166556e+00 1.556663e+00 -1.173380e+00 -6.111078e+00 1.030184e+00 -7.589867e+00 -6.387400e+00 -1.128075e+00 5.056257e-01 1.142200e+00 3.830976e-01 -7.595808e-01 1.600079e+00 -1.347150e-01 6.496569e-02 5.635969e-01 -8.126139e-01 3.511311e-01 6.508618e-01 4.069756e-01 -1.237109e-01 -3.121292e-02 -4.753160e-01 4.261941e-02 -1.097160e-01 -3.176688e-01 1.755619e-01 -2.666764e-01 -8.870815e-02 4.838133e-01 -1.251387e-01 -1.389609e-01 1.763216e-01 1.242604e-01 8.617561e-03
<VARIANCE> 39
 3.373973e+00 6.304525e+00 7.707606e+00 1.271368e+01 1.157311e+01 1.007402e+01 9.791525e+00 1.933607e+01 1.510794e+01 1.102472e+01 1.240653e+01 8.448829e+00 1.000000e-02 1.728739e+00 5.498351e-01 6.345854e-01 1.419139e+00 2.518444e+00 2.742020e+00 1.082101e+00 3.652283e+00 1.813534e+00 1.249151e+00 6.812114e-01 9.074119e-01 1.000000e-02 1.221195e-01 1.219404e-01 1.221697e-01 2.070822e-01 3.237185e-01 2.826446e-01 1.100385e-01 4.380510e-01 4.205528e-01 2.220194e-01 1.452146e-01 2.033314e-01 1.000000e-02
<GCONST> 6.956012e+01
<STATE> 9
<MEAN> 39
 1.401951e+00 -2.517337e+01 -1.789347e+01 -2.982902e-01 6.519539e+00 -1.311067e+00 1.385798e+00 -2.824135e+00 9.977902e-01 -6.250032e+00 -3.297966e+00 -3.992438e-02 3.793834e-01 -2.574330e-01 3.536389e-01 -1.219538e-01 -6.167660e-02 2.002053e-01 -2.519991e-01 -4.975114e-02 2.858950e-01 4.689262e-02 1.590794e-01 3.654133e-01 -2.316619e-02 -1.593153e-02 2.134883e-02 1.133972e-01 2.612717e-01 -3.460058e-02 -3.418424e-02 -2.918802e-02 -1.435164e-01 -1.503325e-01 -1.023473e-01 -4.760629e-02 -2.242972e-02 -3.848881e-02 1.346525e-03
<VARIANCE> 39
 4.066692e+00 3.711422e+00 6.468734e+00 4.836404e+00 4.874967e+00 1.258532e+01 9.908317e+00 1.073033e+01 1.679925e+01 5.612401e+00 7.533499e+00 7.916259e+00 1.000000e-02 3.537466e-01 3.752878e-01 9.451551e-01 7.481828e-01 5.665652e-01 1.294601e+00 1.445674e+00 1.431052e+00 1.320610e+00 8.935690e-01 6.947038e-01 1.118402e+00 1.000000e-02 1.461176e-01 1.007756e-01 1.946725e-01 1.983971e-01 9.602166e-02 2.733051e-01 3.214084e-01 3.085760e-01 2.116038e-01 1.680742e-01 1.623204e-01 1.982838e-01 1.000000e-02
<GCONST> 5.920531e+01
<STATE> 10
<MEAN> 39
 1.278431e+00 -2.009016e+01 -1.381709e+01 -3.781069e-01 6.318003e+00 -3.371579e+00 -5.416518e-01 -3.534925e+00 -2.269870e-01 -7.115880e+00 -1.722351e+00 -1.105694e+00 2.878674e-01 -1.496975e-01 6.989664e-01 6.593313e-01 -1.408066e-01 -2.870984e-01 1.851626e-01 1.136089e-01 -3.937970e-02 7.199873e-02 -1.094336e-02 1.493917e-02 -6.793948e-02 -2.102321e-02 -2.019728e-01 -9.368905e-02 -1.455305e-01 -3.843186e-02 4.742118e-02 1.755085e-01 2.106739e-01 1.787487e-01 2.460767e-01 2.206265e-01 5.002075e-02 5.043272e-02 -4.386528e-03
<VARIANCE> 39
 3.613844e+00 6.128020e+00 9.403458e+00 8.940860e+00 5.303348e+00 6.618012e+00 1.008416e+01 1.456232e+01 1.369446e+01 7.528626e+00 4.601188e+00 7.564362e+00 1.000000e-02 9.670426e-01 1.040800e+00 1.716854e+00 1.241499e+00 2.780513e-01 7.941854e-01 1.328138e+00 1.673643e+00 2.354494e+00 1.418410e+00 4.358878e-01 7.708488e-01 1.000000e-02 1.594529e-01 1.955386e-01 4.180450e-01 3.619300e-01 4.891488e-02 1.649022e-01 2.115948e-01 3.116133e-01 4.719937e-01 3.352706e-01 8.673543e-02 1.777133e-01 1.000000e-02
<GCONST> 6.337922e+01
<STATE> 11
<MEAN> 39
 -2.974767e+00 -1.546202e+01 -1.007077e+01 -1.330274e+00 5.891867e+00 -2.323144e+00 8.972000e-01 -2.622015e+00 2.062063e+00 -5.153726e+00 -4.239142e-01 -5.942800e-01 8.112973e-02 -6.775105e-01 8.313175e-01 8.697473e-01 -1.220192e-01 9.107539e-02 1.323720e-02 -1.835915e-01 -6.561990e-02 -1.946489e-01 1.274979e-01 2.260881e-01 -2.931022e-02 -3.243145e-02 8.010609e-02 -3.311401e-02 -2.335277e-03 -1.449515e-02 6.133627e-03 6.178870e-03 -5.597362e-02 -6.169287e-02 -2.043078e-01 -1.195854e-01 -1.966922e-02 -1.252517e-02 2.125405e-03
<VARIANCE> 39
 5.697019e+00 1.135294e+01 1.636871e+01 1.140678e+01 1.059771e+01 7.461193e+00 1.255125e+01 8.762269e+00 1.732432e+01 1.638204e+01 1.155240e+01 9.547665e+00 1.000000e-02 4.789509e-01 7.842279e-01 1.518613e+00 9.616570e-01 6.845697e-01 8.211653e-01 1.138714e+00 1.006717e+00 2.197947e+00 2.977637e+00 1.619725e+00 1.221851e+00 1.000000e-02 1.049010e-01 1.825380e-01 3.451505e-01 2.335441e-01 1.171811e-01 1.191757e-01 2.412577e-01 1.734052e-01 4.347288e-01 6.761605e-01 3.265833e-01 3.035756e-01 1.000000e-02
<GCONST> 7.074971e+01
<TRANSP> 12
 0.000000e+00 1.000000e+00 0.000000e+00 0.000000e+00 0.000000e+00 0.000000e+00 0.000000e+00 0.000000e+00 0.000000e+00 0.000000e+00 0.000000e+00 0.000000e+00
 0.000000e+00 8.529412e-01 1.470588e-01 0.000000e+00 0.000000e+00 0.000000e+00 0.000000e+00 0.000000e+00 0.000000e+00 0.000000e+00 0.000000e+00 0.000000e+00
 0.000000e+00 0.000000e+00 8.611111e-01 1.388889e-01 0.000000e+00 0.000000e+00 0.000000e+00 0.000000e+00 0.000000e+00 0.000000e+00 0.000000e+00 0.000000e+00
 0.000000e+00 0.000000e+00 0.000000e+00 7.826087e-01 2.173913e-01 0.000000e+00 0.000000e+00 0.000000e+00 0.000000e+00 0.000000e+00 0.000000e+00 0.000000e+00
 0.000000e+00 0.000000e+00 0.000000e+00 0.000000e+00 9.019608e-01 9.803922e-02 0.000000e+00 0.000000e+00 0.000000e+00 0.000000e+00 0.000000e+00 0.000000e+00
 0.000000e+00 0.000000e+00 0.000000e+00 0.000000e+00 0.000000e+00 8.529412e-01 1.470588e-01 0.000000e+00 0.000000e+00 0.000000e+00 0.000000e+00 0.000000e+00
 0.000000e+00 0.000000e+00 0.000000e+00 0.000000e+00 0.000000e+00 0.000000e+00 8.611111e-01 1.388889e-01 0.000000e+00 0.000000e+00 0.000000e+00 0.000000e+00
 0.000000e+00 0.000000e+00 0.000000e+00 0.000000e+00 0.000000e+00 0.000000e+00 0.000000e+00 7.826087e-01 2.173913e-01 0.000000e+00 0.000000e+00 0.000000e+00
 0.000000e+00 0.000000e+00 0.000000e+00 0.000000e+00 0.000000e+00 0.000000e+00 0.000000e+00 0.000000e+00 8.780488e-01 1.219512e-01 0.000000e+00 0.000000e+00
 0.000000e+00 0.000000e+00 0.000000e+00 0.000000e+00 0.000000e+00 0.000000e+00 0.000000e+00 0.000000e+00 0.000000e+00 8.437500e-01 1.562500e-01 0.000000e+00
 0.000000e+00 0.000000e+00 0.000000e+00 0.000000e+00 0.000000e+00 0.000000e+00 0.000000e+00 0.000000e+00 0.000000e+00 0.000000e+00 8.611111e-01 1.388889e-01
 0.000000e+00 0.000000e+00 0.000000e+00 0.000000e+00 0.000000e+00 0.000000e+00 0.000000e+00 0.000000e+00 0.000000e+00 0.000000e+00 0.000000e+00 0.000000e+00
<ENDHMM>
