~o
<STREAMINFO> 1 39
<VECSIZE> 39<NULLD><MFCC_E_D_A><DIAGC>
~h "Xong"
<BEGINHMM>
<NUMSTATES> 9
<STATE> 2
<MEAN> 39
 -1.583384e+01 1.134631e+00 -1.181742e+01 1.665687e+00 5.153467e-01 -5.339335e+00 6.992292e+00 -2.441264e+00 2.542067e+00 -3.359662e+00 3.215308e+00 -2.324051e+00 1.226759e-01 -1.720654e+00 1.528117e+00 -1.923408e+00 8.370380e-01 -9.482031e-02 -1.920748e-01 2.775144e-01 -3.675393e-01 4.540932e-01 -4.460156e-02 -4.972753e-02 1.428078e-01 4.562003e-02 2.530918e-01 -2.573583e-01 7.238493e-02 3.235124e-02 -8.451362e-02 -3.274670e-02 -2.398267e-01 7.332817e-02 -3.036880e-02 -1.593018e-01 -1.345395e-01 -1.521737e-02 6.189804e-03
<VARIANCE> 39
 6.561292e+01 7.366378e+01 6.181102e+01 1.647427e+01 1.069689e+01 1.880093e+01 1.953364e+01 1.720461e+01 1.573042e+01 1.156302e+01 5.946369e+00 1.180118e+01 5.628043e-02 3.298852e+00 5.459406e+00 3.281419e+00 1.289699e+00 8.827600e-01 2.166627e+00 2.528130e+00 1.724307e+00 1.369505e+00 1.792746e+00 9.136856e-01 9.730999e-01 1.000000e-02 9.475947e-01 1.373848e+00 7.238309e-01 2.564029e-01 1.749113e-01 4.461488e-01 3.174851e-01 3.918079e-01 2.598746e-01 4.664231e-01 2.382100e-01 2.681221e-01 1.000000e-02
<GCONST> 9.189280e+01
<STATE> 3
<MEAN> 39
 -1.215962e+01 -7.579522e+00 -1.989509e+01 1.816802e+00 -1.938635e+00 -5.947191e+00 3.181796e+00 -3.421777e-01 5.405936e+00 -9.107204e+00 -2.160865e+00 -1.761723e+00 6.174878e-01 2.618514e+00 -4.450411e+00 -5.496578e-01 -1.251920e+00 1.023816e+00 6.000811e-01 2.428662e-01 -1.453573e-01 -1.637802e-01 -1.137176e+00 -1.131801e+00 -3.973275e-01 8.147673e-02 -1.678263e-01 2.020991e-02 1.356430e-02 1.563189e-02 5.024664e-01 3.346435e-01 6.669150e-02 -5.151744e-01 -1.518703e-01 3.788190e-01 2.909972e-01 -2.259298e-01 7.958012e-04
<VARIANCE> 39
 7.619590e+01 1.428125e+02 2.830057e+01 7.857691e+01 2.900610e+01 3.803316e+01 4.183042e+01 3.374180e+01 4.373867e+01 2.411425e+01 4.057256e+01 1.935199e+01 5.711274e-02 4.829685e+00 4.753489e+00 4.585505e+00 8.578682e+00 4.591334e+00 3.316509e+00 5.844677e+00 6.053939e+00 5.012204e+00 2.146899e+00 4.500406e+00 3.703845e+00 1.000000e-02 1.257529e+00 1.617537e+00 9.707623e-01 2.086312e+00 3.451058e-01 6.044514e-01 1.301754e+00 6.153154e-01 8.188058e-01 6.615995e-01 8.693082e-01 6.853506e-01 1.000000e-02
<GCONST> 1.212714e+02
<STATE> 4
<MEAN> 39
 -2.676148e+00 -2.499827e+01 -2.047882e+01 -6.177788e+00 1.173389e+01 4.596129e+00 1.268958e+00 -1.002684e+01 3.081114e+00 -7.760748e+00 -2.067603e+00 -7.820321e+00 9.779894e-01 3.258041e-01 -1.490670e-01 7.390985e-01 -1.117999e+00 6.152665e-01 1.540680e+00 -9.208881e-01 -1.700414e-01 -5.833286e-01 1.336755e-01 4.962621e-01 -3.835906e-01 -1.240137e-03 2.968732e-02 2.054296e-01 8.643242e-02 -2.090121e-01 -4.025107e-01 -1.269620e-01 6.094828e-02 3.588907e-01 -2.412055e-02 -1.324129e-01 -1.037994e-01 1.781875e-01 -7.321621e-03
<VARIANCE> 39
 2.038570e+01 9.224140e+00 1.660790e+01 1.873979e+01 1.415142e+01 2.949639e+01 1.696092e+01 2.479666e+01 1.033381e+02 1.389743e+01 3.277154e+01 1.912872e+01 1.000000e-02 6.962497e-01 7.430956e-01 6.244377e-01 1.014885e+00 1.892817e+00 1.055825e+00 9.145266e-01 2.435734e+00 2.318085e+00 2.614797e+00 1.444494e+00 1.400518e+00 1.000000e-02 1.728392e-01 2.875233e-01 1.498651e-01 2.174167e-01 3.488304e-01 2.794467e-01 2.244880e-01 2.005976e-01 4.019448e-01 3.735246e-01 2.597919e-01 2.239348e-01 1.000000e-02
<GCONST> 8.091499e+01
<STATE> 5
<MEAN> 39
 1.559945e+00 -2.514160e+01 -1.238117e+01 -1.681963e+01 5.305430e+00 1.008534e+01 -3.620333e+00 -3.803550e+00 -1.086418e+00 -8.546248e+00 -1.713035e+00 -9.126991e+00 8.191622e-01 9.092767e-01 5.335034e-01 1.174203e+00 -4.964523e-02 -2.481373e+00 -1.610349e+00 -6.618035e-01 -1.755150e-01 7.362479e-01 5.080624e-01 -5.113972e-01 -1.948002e-01 -4.212876e-02 -6.849471e-02 2.203197e-01 -5.925310e-03 4.891927e-01 1.145487e-01 -4.845921e-01 -2.298109e-01 -5.060578e-01 1.615431e-01 7.865280e-02 8.334966e-02 1.470937e-01 -3.025974e-03
<VARIANCE> 39
 9.803494e+00 3.999974e+00 1.567130e+01 1.813176e+01 5.097066e+01 2.449462e+01 2.575673e+01 2.116492e+01 4.351406e+01 1.858498e+01 2.020396e+01 2.204362e+01 1.000000e-02 3.892829e-01 9.715118e-01 6.611730e-01 2.784184e+00 3.403173e+00 2.865939e+00 2.272224e+00 3.975696e+00 2.692839e+00 1.145453e+00 3.384310e+00 1.818776e+00 1.000000e-02 7.426379e-02 8.948918e-02 1.076615e-01 2.458750e-01 9.638197e-01 5.875541e-01 3.005922e-01 5.495953e-01 8.420253e-01 2.387393e-01 5.999148e-01 3.869547e-01 1.000000e-02
<GCONST> 8.638605e+01
<STATE> 6
<MEAN> 39
 6.348845e+00 -1.863917e+01 -1.101840e+01 -7.434402e+00 -6.777367e-01 -2.556819e+00 -6.253749e+00 -1.017079e+01 -2.258270e+00 -7.259298e+00 -3.491969e+00 -8.815659e+00 5.532143e-01 1.065019e-02 3.503892e-01 -4.726082e-01 9.754845e-01 5.858517e-01 -5.621407e-01 3.830005e-01 -5.576203e-02 -4.927821e-01 -1.965755e-01 -1.264125e-01 4.901408e-02 -2.310372e-02 -1.334969e-01 -1.491778e-01 -1.248179e-01 -8.336029e-02 1.752207e-01 2.842859e-01 1.938268e-01 2.473684e-01 9.597829e-02 7.792855e-02 1.134868e-02 -2.757739e-02 1.241807e-03
<VARIANCE> 39
 7.125928e+00 5.217252e+00 2.113982e+01 2.077055e+01 3.087877e+01 1.830967e+01 3.758743e+01 1.849188e+01 3.930098e+01 2.069494e+01 1.481766e+01 2.607440e+01 1.000000e-02 3.328387e-01 5.624049e-01 1.241024e+00 9.389107e-01 1.442569e+00 3.049274e+00 1.947034e+00 1.728032e+00 1.798184e+00 1.505942e+00 1.175107e+00 1.837237e+00 1.000000e-02 3.862667e-02 1.008706e-01 2.796131e-01 2.245638e-01 3.481500e-01 5.582638e-01 3.348778e-01 3.374902e-01 4.652223e-01 4.532589e-01 3.590673e-01 4.261244e-01 1.000000e-02
<GCONST> 8.047148e+01
<STATE> 7
<MEAN> 39
 1.084721e+00 -1.889542e+01 -1.503430e+01 -2.444988e+00 5.993062e+00 -1.526962e+00 -6.601266e-01 -5.384932e+00 -7.559380e-01 -4.476221e+00 -7.143301e-01 -5.507560e+00 2.934651e-01 -6.052439e-01 2.065110e-01 1.831405e-01 -5.371871e-02 1.911722e-01 1.978545e-01 1.839609e-01 4.892264e-01 4.276033e-01 5.829581e-01 5.483105e-01 4.291065e-01 -2.429007e-02 2.154269e-03 1.678487e-01 2.590026e-01 -3.874845e-02 -1.550809e-01 -6.538794e-02 -5.422075e-02 -1.484670e-02 -4.629822e-02 -1.018442e-01 -4.357188e-02 -2.575125e-02 -2.420400e-03
<VARIANCE> 39
 5.007518e+00 6.204363e+00 9.413456e+00 5.647905e+00 6.787282e+00 7.212891e+00 1.373770e+01 1.294325e+01 1.129639e+01 1.284399e+01 1.564512e+01 1.446411e+01 1.000000e-02 4.224077e-01 1.059549e+00 2.144435e+00 7.611232e-01 7.161685e-01 9.951465e-01 8.792750e-01 1.321321e+00 8.434761e-01 1.746135e+00 1.267439e+00 1.308859e+00 1.000000e-02 6.016526e-02 1.847063e-01 3.742702e-01 1.482284e-01 1.044778e-01 2.009579e-01 2.001454e-01 2.440561e-01 7.208279e-02 2.944809e-01 2.584661e-01 2.378567e-01 1.000000e-02
<GCONST> 6.421724e+01
<STATE> 8
<MEAN> 39
 -4.149566e+00 -1.202078e+01 -5.964560e+00 -2.659689e+00 4.720595e+00 -1.588186e+00 -6.549266e-01 -3.355047e+00 1.006540e+00 -2.058432e+00 2.043067e+00 -3.362265e+00 1.733930e-03 -4.921018e-01 6.845522e-01 1.152539e+00 3.044656e-01 -1.002600e-01 -1.572711e-02 8.296406e-02 -8.940704e-02 -1.777621e-01 -1.214430e-01 1.431333e-01 1.137220e-01 -2.706857e-02 1.066071e-01 -1.761909e-01 -2.515701e-01 2.221249e-02 5.424419e-02 3.313663e-02 1.457026e-01 -1.091393e-01 -1.057998e-01 -3.700574e-02 4.246711e-02 -6.605307e-03 7.916477e-03
<VARIANCE> 39
 3.479812e+00 3.906947e+00 9.947119e+00 5.332890e+00 6.141425e+00 9.733613e+00 1.054073e+01 7.494236e+00 1.073805e+01 1.301249e+01 6.586550e+00 9.684308e+00 1.000000e-02 4.935329e-01 7.281182e-01 1.517978e+00 4.108354e-01 8.477809e-01 1.062291e+00 1.809762e+00 1.157566e+00 1.195169e+00 1.783865e+00 7.607383e-01 1.736941e+00 1.000000e-02 1.230320e-01 8.388340e-02 1.806031e-01 9.545651e-02 1.505724e-01 2.640373e-01 3.215155e-01 1.702193e-01 2.347507e-01 3.495533e-01 1.041113e-01 3.853797e-01 1.000000e-02
<GCONST> 6.169207e+01
<TRANSP> 9
 0.000000e+00 1.000000e+00 0.000000e+00 0.000000e+00 0.000000e+00 0.000000e+00 0.000000e+00 0.000000e+00 0.000000e+00
 0.000000e+00 8.958333e-01 1.041667e-01 0.000000e+00 0.000000e+00 0.000000e+00 0.000000e+00 0.000000e+00 0.000000e+00
 0.000000e+00 0.000000e+00 8.529412e-01 1.470588e-01 0.000000e+00 0.000000e+00 0.000000e+00 0.000000e+00 0.000000e+00
 0.000000e+00 0.000000e+00 0.000000e+00 9.019608e-01 9.803922e-02 0.000000e+00 0.000000e+00 0.000000e+00 0.000000e+00
 0.000000e+00 0.000000e+00 0.000000e+00 0.000000e+00 8.387097e-01 1.612903e-01 0.000000e+00 0.000000e+00 0.000000e+00
 0.000000e+00 0.000000e+00 0.000000e+00 0.000000e+00 0.000000e+00 9.090909e-01 9.090909e-02 0.000000e+00 0.000000e+00
 0.000000e+00 0.000000e+00 0.000000e+00 0.000000e+00 0.000000e+00 0.000000e+00 9.137931e-01 8.620691e-02 0.000000e+00
 0.000000e+00 0.000000e+00 0.000000e+00 0.000000e+00 0.000000e+00 0.000000e+00 0.000000e+00 8.484849e-01 1.515152e-01
 0.000000e+00 0.000000e+00 0.000000e+00 0.000000e+00 0.000000e+00 0.000000e+00 0.000000e+00 0.000000e+00 0.000000e+00
<ENDHMM>
