~o
<STREAMINFO> 1 39
<VECSIZE> 39<NULLD><MFCC_E_D_A><DIAGC>
~h "Cha^m"
<BEGINHMM>
<NUMSTATES> 9
<STATE> 2
<NUMMIXES> 4
<MIXTURE> 1 3.076979e-01
<MEAN> 39
 -6.045733e+00 -8.177967e+00 -1.474355e+00 -9.468327e-01 2.098662e+00 -3.973997e-01 2.961656e+00 -7.890795e-01 2.009041e+00 -2.050761e+00 2.507645e+00 -1.565957e+00 -3.529970e-02 -1.227888e+00 -1.567167e-02 -2.041542e-01 -1.429448e+00 3.607011e-01 -3.265951e-01 -9.199499e-01 -3.989049e-02 4.094701e-02 1.027826e+00 -1.834404e-01 2.791021e-01 5.367187e-02 -5.942182e-01 3.445910e-02 -1.728557e-01 -1.109742e+00 -4.273431e-01 -1.053923e+00 -1.008112e-01 -1.761838e-01 -2.067035e-01 1.891743e-01 -1.947220e-01 -7.488571e-02 3.798055e-02
<VARIANCE> 39
 3.457600e+00 2.850741e+00 3.058479e+00 4.980484e+00 6.334547e+00 1.356699e+01 1.021147e+01 1.008040e+01 2.017940e+00 1.298562e+01 8.637598e+00 8.824286e+00 5.000000e-02 2.714748e+00 2.497638e-01 3.862323e-01 4.481349e+00 8.479694e-01 3.234989e+00 7.036254e-01 1.599906e+00 4.855931e-01 1.009696e+00 1.189857e+00 1.675146e+00 5.000000e-02 2.456537e-01 1.882071e-01 5.000000e-02 2.297932e-01 5.215977e-01 2.591082e-01 1.377238e-01 2.269661e-01 1.503192e-01 3.493750e-01 3.242018e-01 2.278654e-01 5.000000e-02
<GCONST> 6.709438e+01
<MIXTURE> 2 2.564105e-01
<MEAN> 39
 -1.715641e+01 -5.380679e+00 -5.230192e+00 -1.732535e+01 4.946336e+00 -1.093027e+01 9.796305e-01 -2.107596e+00 -1.737957e-01 -2.510004e-02 9.151235e-01 -2.503060e+00 4.958844e-01 -6.603181e-01 -9.045005e-01 -1.025210e+00 -4.922115e+00 -3.651331e+00 -3.298095e+00 1.225165e+00 8.409497e-03 1.621563e+00 1.825843e+00 -3.872866e-01 -6.136271e-01 2.112018e-01 1.384043e+00 -1.413862e+00 -5.975616e-02 1.221562e+00 -1.350340e+00 5.477758e-01 1.072415e+00 3.114885e-01 1.802532e-01 -1.464250e-01 -1.220699e-01 -1.433107e-01 -7.161519e-03
<VARIANCE> 39
 8.599963e+00 9.677217e+00 1.044397e+01 1.010671e+01 2.432675e+01 3.017961e+01 2.755130e+01 1.470642e+01 2.093550e+01 1.308613e+01 8.093885e+00 1.285834e+01 5.000000e-02 2.361500e+00 1.941794e+00 2.013274e+00 1.296133e+00 3.271831e+00 2.692437e+00 1.171173e+00 1.182088e+00 9.371260e-01 8.255391e-01 2.079676e+00 1.336016e+00 5.000000e-02 5.966870e-02 1.842489e-01 1.391650e-01 4.773777e-01 5.830350e-01 6.174266e-01 2.209240e-01 4.704501e-01 2.976190e-01 5.435462e-01 9.907052e-02 3.471316e-01 5.000000e-02
<GCONST> 8.468112e+01
<MIXTURE> 3 2.564075e-01
<MEAN> 39
 -9.387055e+00 -1.349468e+01 -4.573801e+00 -2.189353e+01 -1.416345e+01 -1.572136e+01 4.754733e+00 -1.796738e+00 5.861454e+00 5.350841e+00 9.546620e-01 -3.991704e+00 7.938720e-01 1.857967e+00 -4.470943e+00 -1.343569e+00 4.955623e-01 -3.608338e+00 -3.499049e-02 3.824833e+00 1.491923e+00 -5.395667e-02 -4.615036e-01 -9.251204e-01 -1.108918e+00 1.005413e-01 -5.106742e-02 -4.391221e-01 -4.465018e-01 2.069157e+00 2.139476e+00 1.489731e+00 4.014375e-01 4.016986e-01 -1.054114e+00 -1.407080e+00 -3.594320e-01 4.073083e-01 -4.193018e-02
<VARIANCE> 39
 1.181273e+01 2.705732e+01 3.516389e+01 7.466482e+00 1.978019e+01 3.149191e+01 2.052782e+01 2.923129e+01 3.834550e+00 1.126850e+01 1.607854e+01 7.618608e+00 5.000000e-02 8.417422e-01 4.784897e-01 1.562360e+00 2.456908e+00 8.210799e+00 2.279314e+00 9.307222e-01 2.419043e+00 1.458621e+00 3.466878e+00 4.844333e-01 9.947133e-01 5.000000e-02 2.737930e-01 5.184250e-01 3.032182e-01 1.349965e-01 9.041417e-01 3.830110e-01 2.906225e-01 2.432588e-01 1.897984e-01 1.654828e-01 3.600549e-01 2.346043e-01 5.000000e-02
<GCONST> 8.571043e+01
<MIXTURE> 4 1.794841e-01
<MEAN> 39
 -5.384226e+00 -8.502014e+00 -8.148487e-01 -2.576169e+00 2.037127e-01 -6.208427e+00 -4.859774e-01 -2.761148e+00 -1.845368e+00 -1.393055e+00 2.740435e+00 -1.004643e+00 -7.223680e-03 -2.225692e+00 8.521401e-01 -1.217026e+00 -3.473148e+00 2.435453e-01 -2.382342e+00 1.529645e-01 5.420802e-01 -1.381306e+00 5.504396e-02 -4.491767e-01 -1.733749e+00 9.206902e-02 -4.284309e-01 -7.640256e-02 -3.852539e-01 -1.282885e+00 -3.346585e-01 -4.364683e-01 6.704316e-01 2.954883e-01 6.972731e-01 1.364944e-01 2.653475e-02 -1.190255e-01 4.881361e-02
<VARIANCE> 39
 3.214927e+00 2.803927e+00 3.008406e+00 8.098830e+00 5.489363e+00 8.629476e+00 4.704835e+00 7.711425e+00 5.597058e+00 5.090562e+00 1.556316e+01 2.325706e+01 5.000000e-02 2.108768e+00 1.571676e+00 5.498370e-01 2.149967e+00 1.289614e+00 3.169692e+00 9.883325e-01 1.183681e+00 1.436645e+00 4.052562e-01 2.091344e-01 7.692762e-01 5.000000e-02 5.525796e-01 1.703137e-01 9.253457e-02 2.126209e-01 2.566380e-01 6.028783e-01 1.032749e-01 1.452301e-01 2.433452e-01 1.402201e-01 2.200622e-01 5.364332e-01 5.000000e-02
<GCONST> 6.746272e+01
<STATE> 3
<NUMMIXES> 4
<MIXTURE> 1 1.998308e-01
<MEAN> 39
 -9.705072e+00 -2.270213e+01 -1.365787e+01 -8.895359e+00 -1.792155e+00 -7.168298e+00 1.562328e+01 7.352617e+00 -3.098781e+00 -5.554737e+00 -8.652129e+00 3.068348e-01 9.649625e-01 -7.670338e-01 -7.738966e-01 -1.521877e+00 2.512983e+00 4.748013e+00 1.608889e+00 -3.129575e-01 -4.763480e-01 -9.395973e-01 -1.325065e+00 -1.148711e+00 2.042156e+00 2.483496e-02 -9.920267e-02 7.811523e-01 2.200828e-01 -7.309442e-01 3.534046e-02 -4.819096e-01 -1.188569e+00 -1.108415e+00 7.691969e-01 9.528015e-01 6.134438e-01 -3.319519e-01 -1.335814e-02
<VARIANCE> 39
 1.351818e+01 1.202835e+00 1.402034e+01 9.429249e+00 3.062940e+01 2.660316e+01 1.233017e+01 9.135027e+00 9.729537e+00 1.563774e+01 9.685376e+00 8.491832e+00 5.000000e-02 5.000000e-02 7.976253e-01 5.550390e-01 6.236361e-01 2.293747e-01 8.968555e-01 8.899460e-01 9.387041e-01 1.045799e+00 2.151720e+00 8.906347e-01 8.963631e-01 5.000000e-02 1.322905e-01 1.202951e-01 5.000000e-02 1.200043e-01 7.265504e-01 1.559821e-01 5.000000e-02 1.441061e-01 1.670591e-01 1.549425e-01 5.000000e-02 1.726775e-01 5.000000e-02
<GCONST> 6.099363e+01
<MIXTURE> 2 5.145798e-01
<MEAN> 39
 -1.139482e+01 -2.414027e+01 -1.675539e+01 -6.408803e+00 7.917178e+00 -5.822461e+00 1.269951e+01 -1.603925e+00 -1.769644e+00 -6.521902e+00 -7.218218e+00 2.357462e-02 9.888523e-01 -3.337150e-01 -1.713726e-02 -8.355598e-01 8.701714e-03 2.226926e+00 7.112545e-01 -1.332844e+00 -1.952724e+00 1.343000e+00 3.922223e-01 -4.276478e-01 -4.970756e-01 -2.936853e-03 1.440920e-01 1.870326e-01 2.641043e-01 -8.615487e-01 -8.324174e-01 -1.826454e-01 -7.016090e-02 5.950320e-02 6.463783e-01 4.423406e-01 2.453169e-01 -7.354695e-01 -9.697814e-03
<VARIANCE> 39
 1.014616e+01 3.367052e+00 1.648127e+01 5.961176e+00 1.291545e+01 1.634381e+01 1.043442e+01 2.773025e+01 2.985874e+01 1.577098e+01 7.971679e+00 3.983971e+00 5.000000e-02 3.544465e-01 4.339457e-01 2.509768e-01 1.627756e+00 1.367593e+00 4.150149e-01 4.183448e-01 8.975058e-01 8.023229e-01 3.304089e-01 3.551748e-01 9.427883e-01 5.000000e-02 5.000000e-02 1.094135e-01 6.242423e-02 1.377357e-01 1.078080e-01 1.124035e-01 1.673114e-01 2.972041e-01 2.064144e-01 2.007515e-01 1.150233e-01 1.108425e-01 5.000000e-02
<GCONST> 5.978172e+01
<MIXTURE> 3 1.713509e-01
<MEAN> 39
 -1.331983e+01 -2.501720e+01 -6.882265e+00 -1.882938e+01 -1.032247e+01 -7.405051e+00 1.329677e+01 -1.917737e-01 2.029939e+00 -3.424535e+00 -2.207177e+00 -3.659782e+00 9.196957e-01 -5.552723e-01 -1.865541e+00 -2.543015e+00 3.271197e+00 4.352136e+00 2.190493e+00 2.460329e+00 9.339311e-01 -1.606348e+00 -3.808103e+00 -1.141918e+00 1.506012e+00 4.376643e-02 -3.028940e-01 1.263529e+00 3.154507e-02 5.689562e-01 1.739141e+00 5.768640e-02 -1.128700e+00 -7.350842e-01 2.362781e-01 1.723477e-02 -1.969509e-01 5.893230e-01 -1.670758e-02
<VARIANCE> 39
 2.490741e+00 3.818992e+00 4.435500e+00 6.230876e+00 2.711951e+01 3.032410e+00 5.541026e+00 1.786766e+01 2.616672e+00 3.264743e+01 5.936550e+00 9.019714e+00 5.000000e-02 2.846602e-01 1.665200e+00 4.052953e-01 2.470059e-01 1.722628e+00 4.900211e-01 1.332078e+00 2.492898e+00 1.599558e+00 9.790071e-01 1.227761e+00 2.897569e-01 5.000000e-02 2.108745e-01 6.261268e-02 1.529082e-01 2.481273e-01 1.517199e+00 1.504400e-01 1.393026e-01 1.043321e-01 3.338486e-01 8.305815e-01 5.000000e-02 2.288704e-01 5.000000e-02
<GCONST> 6.403178e+01
<MIXTURE> 4 1.142384e-01
<MEAN> 39
 -4.827610e+00 -1.855223e+01 -1.610795e+01 -1.153015e+01 -6.948727e+00 -1.859097e+01 1.951451e+01 4.447450e+00 -4.046700e+00 -2.811058e+00 -3.762884e+00 -1.071406e+01 8.962122e-01 1.975704e-01 -3.709798e+00 -1.726358e+00 3.553569e+00 2.484838e+00 2.589865e+00 2.455059e+00 7.259045e-01 -2.762038e+00 -2.717864e+00 -2.958061e+00 1.061798e+00 5.017344e-02 -8.639081e-01 7.254222e-01 3.390060e-01 3.760476e-01 1.895731e+00 8.463932e-01 -1.358269e+00 -5.599382e-01 -3.750629e-01 -5.782262e-02 6.420866e-02 1.202322e+00 -2.357341e-02
<VARIANCE> 39
 5.271929e+00 2.792877e+00 6.653270e+00 1.353730e+01 5.163675e+00 1.570396e+01 4.789472e+00 2.352446e+00 6.694338e+00 1.554851e+01 7.928981e+00 1.926458e+00 5.000000e-02 5.533588e-01 6.956719e-01 4.385567e-01 3.916874e-01 2.596759e+00 1.227380e+00 2.000180e+00 5.000000e-02 7.510527e-01 8.189147e-01 5.000000e-02 1.399772e+00 5.000000e-02 5.000000e-02 8.497220e-02 5.929204e-02 7.936993e-01 5.405759e-01 3.567860e-01 2.697424e-01 7.020822e-02 3.916168e-01 9.810013e-01 1.575897e-01 1.240331e-01 5.000000e-02
<GCONST> 5.804246e+01
<STATE> 4
<NUMMIXES> 4
<MIXTURE> 1 4.164181e-01
<MEAN> 39
 -1.216158e+01 -2.406890e+01 -1.811250e+01 -1.058210e+01 1.057318e+01 -3.452395e+00 8.969147e+00 -6.148067e+00 5.918855e+00 -3.824007e+00 -7.498186e+00 -4.314218e+00 9.320017e-01 5.694048e-01 6.189976e-01 -2.617420e-01 -1.728050e+00 -3.514535e-01 2.553132e-01 -9.222308e-01 -3.417338e-01 2.312394e+00 1.005925e+00 5.990856e-01 -1.869795e+00 -2.734345e-02 5.061472e-01 2.882716e-01 4.894120e-01 -5.106742e-02 -9.165054e-01 -6.828419e-01 -9.888656e-02 2.364894e-01 -1.732790e-01 -1.396818e-01 3.706946e-01 1.369887e-02 -8.961095e-03
<VARIANCE> 39
 8.018089e+00 3.147568e+00 7.502847e+00 7.363529e+00 8.642111e+00 9.905276e+00 7.511438e+00 2.218744e+01 2.318173e+01 9.135644e+00 1.384120e+01 5.642463e+00 5.000000e-02 2.169992e-01 2.946581e-01 4.274691e-01 2.305510e-01 1.183761e+00 8.096465e-01 4.868613e-01 3.868871e-01 1.139813e+00 8.070333e-01 4.499029e-01 3.365524e-01 5.000000e-02 5.109650e-02 5.000000e-02 1.509331e-01 1.052947e-01 2.102644e-01 3.761636e-01 2.213645e-01 2.644874e-01 1.595699e-01 1.526442e-01 7.155500e-02 7.886188e-02 5.000000e-02
<GCONST> 5.608030e+01
<MIXTURE> 2 8.336902e-02
<MEAN> 39
 -7.204443e+00 -1.928073e+01 -1.475013e+01 -1.317797e+01 2.417097e+00 -6.749574e+00 2.183345e+00 -2.316916e+00 1.198600e+01 2.326662e+00 -3.680406e+00 -7.601928e+00 7.564556e-01 2.249238e+00 -4.877658e-02 2.290356e+00 1.001049e+00 -2.005852e+00 -4.502083e+00 -4.903180e-01 -2.343366e+00 -4.949861e-01 -2.527038e-01 1.166181e+00 1.370352e-01 -7.587460e-02 -7.156188e-02 -6.198216e-01 4.126619e-01 3.778454e-01 -1.911309e-01 4.976883e-02 5.144137e-01 -9.398511e-01 -3.997972e-01 -5.637883e-01 -9.451579e-01 3.439031e-01 -1.585127e-03
<VARIANCE> 39
 3.470473e+00 9.634420e-01 7.137187e+00 1.112002e+01 4.172691e+00 8.575117e+00 1.792024e+01 3.320629e+00 7.131565e+00 6.534715e+00 4.998676e+01 1.037094e+01 5.000000e-02 5.000000e-02 3.738539e-01 1.592943e-01 4.765312e-01 8.354162e-02 2.044227e+00 6.568624e-01 1.765388e-01 2.909410e+00 3.450485e-01 1.998721e-01 1.099441e+00 5.000000e-02 5.000000e-02 5.000000e-02 5.000000e-02 9.340920e-02 5.000000e-02 4.951376e-01 1.457450e-01 1.253028e-01 8.542119e-02 5.000000e-02 2.144881e-01 5.000000e-02 5.000000e-02
<GCONST> 4.498525e+01
<MIXTURE> 3 2.223311e-01
<MEAN> 39
 -6.649275e-01 -1.967304e+01 -8.276455e+00 -1.234343e+01 -1.707062e+00 -1.628564e+01 2.150959e+00 -1.306659e+01 6.192976e+00 -5.009013e+00 -2.753923e+00 -8.613481e+00 6.561494e-01 2.873426e+00 -3.980174e-01 2.985795e+00 1.622408e+00 -3.189532e+00 -1.226007e+00 -1.081199e+00 -2.302634e+00 -2.453025e+00 -1.251025e+00 -1.268581e+00 8.735383e-01 -4.856566e-02 -3.943164e-01 -3.666905e-01 -5.348561e-01 2.432658e-01 6.429863e-01 1.320930e+00 4.748458e-01 5.946862e-01 -1.571132e-01 3.492463e-01 -6.279827e-01 2.410658e-01 1.497244e-02
<VARIANCE> 39
 1.725032e+01 3.034303e+00 6.283048e+00 4.830109e+00 1.170118e+01 1.315370e+01 2.906039e+01 1.129397e+01 1.295523e+01 1.410492e+01 1.211936e+01 8.719114e+00 5.000000e-02 7.006639e-01 9.325551e-02 3.806198e-01 4.153217e-01 1.759761e+00 2.053802e+00 2.341757e+00 2.013862e+00 1.442394e+00 5.381585e-01 5.711834e-01 7.134181e-01 5.000000e-02 1.180434e-01 5.000000e-02 1.815271e-01 2.536772e-01 4.206551e-01 2.256376e-01 1.960176e-01 1.777309e-01 7.426156e-01 1.901266e-01 1.277369e-01 1.240648e-01 5.000000e-02
<GCONST> 6.784626e+01
<MIXTURE> 4 2.778816e-01
<MEAN> 39
 -8.870895e+00 -2.082472e+01 -1.736597e+01 -1.597337e+01 7.524952e+00 -5.141314e+00 7.123455e+00 -6.424380e+00 1.229177e+01 -2.428622e+00 -3.890268e+00 -9.816816e+00 8.279953e-01 2.426028e+00 1.071167e+00 2.371472e+00 -6.162378e-01 -3.050940e+00 -2.619464e+00 -1.628692e+00 -8.034242e-01 4.435515e-01 -1.442432e-01 1.357018e+00 -6.708983e-01 -6.044911e-02 5.875599e-01 -3.069961e-01 8.146747e-01 9.804672e-01 -5.747282e-01 -4.482712e-01 -1.366572e-01 -4.544224e-01 -1.303178e+00 -4.757548e-01 -3.328720e-01 8.211758e-01 -6.296061e-03
<VARIANCE> 39
 8.625509e+00 2.389002e+00 7.143730e+00 4.574513e+00 2.121187e+01 2.721955e+01 1.448084e+01 1.738209e+01 6.884748e+00 1.988392e+01 1.561827e+01 2.378067e+00 5.000000e-02 6.423765e-01 2.572318e-01 1.891416e+00 1.408270e+00 2.497266e+00 1.676390e+00 2.317394e+00 1.604115e+00 2.700688e+00 6.195106e-01 1.239097e+00 6.835360e-01 5.000000e-02 7.185812e-02 5.000000e-02 1.059186e-01 5.492662e-02 2.899545e-01 6.175130e-01 1.173732e-01 1.899606e-01 2.780268e-01 1.250568e-01 1.755628e-01 8.977597e-02 5.000000e-02
<GCONST> 6.808752e+01
<STATE> 5
<NUMMIXES> 4
<MIXTURE> 1 1.142970e-01
<MEAN> 39
 4.152780e-01 -2.490184e+01 -4.757731e+00 -1.199937e+01 -4.861331e+00 -8.337870e+00 -5.003995e-01 -3.743790e-01 4.412692e+00 5.723726e-01 -1.054466e+01 -2.622210e+00 6.016934e-01 1.832386e-01 -4.625722e-01 5.658738e-02 -5.150535e-01 -3.689581e-01 6.917704e-01 -2.213495e-01 2.096610e+00 -7.568741e-01 -1.846521e+00 -1.731930e-01 6.663073e-01 -3.542338e-03 -1.393704e-01 1.940154e-01 4.202111e-02 3.826547e-01 -5.529310e-02 -2.557493e-01 -5.827508e-02 -9.567679e-01 5.878346e-01 -2.303642e-01 1.379788e-01 -4.484273e-01 -6.074390e-03
<VARIANCE> 39
 8.993958e-02 7.452835e-01 1.512293e+00 2.002163e+00 1.432598e+00 4.556800e+00 7.388845e+00 2.241277e+01 5.313139e+00 1.837023e+01 1.597232e+00 1.765231e+00 5.000000e-02 5.000000e-02 5.456243e-02 6.105315e-02 3.074167e-01 3.857975e-01 1.222277e-01 7.912632e-01 2.770185e+00 9.621218e-01 1.348441e+00 3.392197e-01 7.147315e-01 5.000000e-02 5.000000e-02 5.000000e-02 6.596937e-02 3.575429e-01 5.000000e-02 5.959800e-02 1.365935e-01 6.378824e-01 5.000000e-02 8.172996e-01 1.110816e-01 5.000000e-02 5.000000e-02
<GCONST> 3.400716e+01
<MIXTURE> 2 3.999809e-01
<MEAN> 39
 5.882042e+00 -2.043583e+01 -5.399838e+00 -1.169421e+01 -6.307634e+00 -1.416159e+01 -1.374509e+00 -9.775471e+00 -1.414395e+00 -7.733032e-01 -7.767939e+00 -8.491314e+00 6.883822e-01 -2.388976e-01 1.146227e-01 4.015114e-01 -3.680806e-01 3.367635e-01 -4.090090e-01 1.426206e-01 2.122738e-01 -7.863389e-02 7.632857e-01 -7.314688e-01 -2.347195e-01 -5.987271e-03 -3.983298e-01 8.361241e-02 -3.217319e-01 -1.049456e-01 2.779517e-01 -1.306883e-02 2.825589e-01 8.086745e-02 6.818305e-01 -5.862468e-02 1.145876e-01 3.339991e-02 -1.009778e-03
<VARIANCE> 39
 3.546856e+00 2.022629e+00 3.594303e+00 7.008558e+00 9.117387e+00 6.919133e+00 1.533252e+01 4.166953e+00 4.280205e+00 1.436211e+01 5.358572e+00 6.184546e+00 5.000000e-02 8.494240e-01 1.769823e-01 3.612254e-01 8.980507e-01 9.774886e-01 1.602562e+00 1.201658e+00 5.410586e-01 2.256518e+00 1.183175e+00 2.789232e-01 9.128556e-01 5.000000e-02 2.577114e-01 5.000000e-02 1.206857e-01 2.835180e-01 5.950845e-01 2.633916e-01 1.832205e-01 2.583810e-01 7.507871e-02 4.073076e-01 7.168175e-02 3.174714e-01 5.000000e-02
<GCONST> 6.051904e+01
<MIXTURE> 3 2.856857e-01
<MEAN> 39
 1.180019e+00 -2.272160e+01 -4.559092e+00 -8.935526e+00 -3.262720e+00 -9.079140e+00 4.888025e+00 -1.387415e+01 6.006046e+00 -9.229735e+00 -5.892295e+00 -3.190748e+00 5.086043e-01 8.001182e-01 -4.125839e-01 7.791948e-01 4.482031e-01 -4.421409e-01 5.880965e-01 -6.622390e-01 9.492888e-01 -4.320714e-02 1.762363e-01 -1.156068e+00 4.897886e-01 -1.396442e-02 -5.015560e-01 1.389948e-01 -3.556876e-01 -4.503244e-01 5.133216e-01 -3.997512e-02 1.618983e-02 3.073552e-01 2.309084e-01 3.078442e-01 2.324247e-01 -2.997083e-01 6.865135e-03
<VARIANCE> 39
 2.206821e+00 2.834806e+00 4.444422e+00 6.290066e+00 1.045270e+01 7.854623e+00 1.114471e+01 2.428665e+01 1.079474e+01 5.868627e+00 1.016219e+01 5.754128e+00 5.000000e-02 6.244598e-01 4.190192e-01 4.105192e-01 1.111249e+00 2.618859e+00 1.373360e+00 3.735826e-01 1.773378e+00 1.864144e+00 3.874555e-01 4.843735e-01 1.620823e+00 5.000000e-02 5.000000e-02 5.824093e-02 1.344748e-01 7.302449e-02 4.136449e-01 4.484628e-01 9.512525e-02 8.274702e-01 4.559253e-01 5.000000e-02 1.715071e-01 1.877092e-01 5.000000e-02
<GCONST> 6.234967e+01
<MIXTURE> 4 2.000364e-01
<MEAN> 39
 -1.531565e-01 -2.216243e+01 -3.894605e+00 -1.198605e+01 -3.216585e+00 -1.450705e+01 2.159522e+00 -1.050439e+01 7.944270e+00 3.834763e-02 -1.177122e+01 -6.745312e+00 6.000210e-01 2.051555e-01 -3.044069e-01 2.599666e-01 5.100374e-01 -7.048925e-01 9.713383e-01 3.253737e-01 3.165024e-02 8.254097e-01 -2.265996e-01 -4.322243e-01 1.080962e+00 -2.537998e-02 6.418259e-02 -7.727274e-02 -5.150582e-01 3.311903e-01 -6.230734e-02 9.624740e-01 -3.359987e-01 8.013650e-01 -4.706182e-01 -2.036523e-01 4.909739e-01 4.545498e-01 -6.837911e-04
<VARIANCE> 39
 3.668065e+00 4.962982e+00 5.381968e+00 5.442322e+00 5.137066e+00 3.324242e+00 4.005260e+00 5.884443e+00 1.849040e+01 1.522210e+01 4.223415e+00 6.834151e+00 5.000000e-02 7.723991e-01 2.505322e-01 1.305831e+00 1.847752e-01 3.801941e-01 1.055040e+00 1.052906e+00 1.836769e+00 3.166163e+00 1.094464e+00 8.675585e-01 7.536248e-01 5.000000e-02 8.846781e-02 5.000000e-02 5.922234e-02 2.866763e-01 1.961474e-01 2.969636e-01 1.020404e-01 5.066598e-01 2.248049e-01 1.386051e-01 1.072797e-01 1.887660e-01 5.000000e-02
<GCONST> 5.879861e+01
<STATE> 6
<NUMMIXES> 4
<MIXTURE> 1 5.712968e-01
<MEAN> 39
 2.137997e+00 -2.203538e+01 -1.003579e+01 -3.451761e+00 -3.426304e+00 -8.113883e+00 1.749626e+00 -4.526203e+00 2.893746e+00 -3.499971e+00 -2.864050e+00 -1.309339e+00 3.612528e-01 -4.166255e-01 -1.343957e-01 -1.112388e+00 9.715052e-01 7.021052e-01 4.912180e-01 3.465275e-01 6.855769e-01 -7.142853e-01 -6.358479e-01 7.621853e-01 9.003410e-01 -3.272268e-02 -1.730698e-01 9.967361e-02 3.811563e-01 -2.796397e-01 1.295688e-01 -9.141830e-02 -4.179037e-02 -1.397212e-01 9.003080e-02 -9.981167e-02 -4.741421e-01 -1.239122e-01 4.229980e-03
<VARIANCE> 39
 5.077404e+00 1.203413e+01 8.870789e+00 5.731911e+00 6.931196e+00 8.418899e+00 9.881086e+00 6.443906e+00 6.413269e+00 1.053694e+01 8.239321e+00 1.318977e+01 5.000000e-02 3.183719e-01 3.314945e-01 7.789621e-01 1.229993e+00 6.921098e-01 1.725487e+00 6.386631e-01 1.005629e+00 5.491201e-01 1.533978e+00 2.532615e+00 4.228634e-01 5.000000e-02 6.049056e-02 1.751325e-01 2.231958e-01 2.610326e-01 1.480123e-01 4.800941e-01 9.553717e-02 1.376674e-01 1.624686e-01 3.449502e-01 3.375512e-01 1.213919e-01 5.000000e-02
<GCONST> 6.475141e+01
<MIXTURE> 2 2.000566e-01
<MEAN> 39
 9.401070e-01 -2.185872e+01 -3.311668e+00 -7.199328e+00 -3.629940e+00 -7.167284e+00 3.341125e+00 -1.121694e+01 8.286969e+00 -6.285818e+00 -5.409735e+00 -2.414312e+00 4.110276e-01 -3.245441e-02 -2.358592e-01 -9.004454e-01 9.908490e-01 -1.661452e-01 -1.757757e-02 -1.859365e-01 3.505196e-01 -1.232923e+00 1.542198e-01 3.893287e-01 2.324696e-01 -3.091841e-02 1.016323e-02 -1.750156e-01 -3.809478e-01 2.707568e-01 1.788679e-01 -1.332781e-01 1.635094e-01 3.161637e-01 -3.894056e-01 -2.321779e-01 -1.497386e-01 1.386787e-02 -1.142754e-03
<VARIANCE> 39
 1.149725e+00 1.867571e+00 5.326864e+00 6.029092e+00 3.875975e+00 2.446357e+00 1.412698e+01 8.944273e+00 1.365526e+01 1.133538e+01 1.131213e+01 2.248219e+00 5.000000e-02 1.842221e-01 5.123224e-01 5.584506e-01 1.767605e+00 1.325003e+00 1.109620e+00 3.729706e-01 1.252503e+00 1.036579e+00 1.269606e+00 2.646961e+00 7.589033e-01 5.000000e-02 5.000000e-02 5.000000e-02 1.438818e-01 2.013734e-01 6.922130e-02 5.946482e-02 8.064062e-02 2.829072e-01 3.622665e-01 5.000000e-02 2.823052e-01 5.000000e-02 5.000000e-02
<GCONST> 5.343558e+01
<MIXTURE> 3 1.429047e-01
<MEAN> 39
 3.624531e+00 -1.870894e+01 -5.359354e+00 -1.310133e+01 -5.796880e+00 -1.639786e+01 -3.030223e-01 -8.982183e+00 4.587650e+00 -3.612496e-01 -1.078513e+01 -8.596026e+00 5.994220e-01 3.123690e-01 5.972086e-02 -7.903436e-01 1.895906e+00 1.138026e-01 1.439863e+00 -4.109482e-01 1.412690e+00 1.626153e-01 1.355051e-01 1.230332e+00 1.196461e+00 -5.319086e-02 1.835076e-01 -4.859805e-02 -4.038781e-01 6.388251e-01 4.429599e-01 6.427137e-01 9.719754e-03 3.024277e-01 -7.807328e-01 -2.174114e-01 8.083560e-01 3.133951e-01 -1.041416e-02
<VARIANCE> 39
 1.135926e+00 7.179122e-01 1.560555e+00 3.907430e+00 7.947857e-01 1.074164e+01 3.862376e+00 1.973814e+01 6.687530e+00 5.329068e+00 4.668062e+00 1.650221e+01 5.000000e-02 5.305767e-02 3.387091e-01 8.627679e-01 2.429558e+00 1.243809e-01 2.904809e+00 6.062578e-02 9.942333e-01 1.369386e+00 1.476131e+00 9.332526e-01 1.036221e+00 5.000000e-02 5.000000e-02 5.000000e-02 1.202349e-01 8.149660e-02 5.000000e-02 1.163560e-01 5.000000e-02 6.216199e-01 9.822613e-02 2.388815e-01 5.000000e-02 2.161826e-01 5.000000e-02
<GCONST> 4.473987e+01
<MIXTURE> 4 8.574206e-02
<MEAN> 39
 6.433319e-01 -2.623059e+01 -5.560793e+00 -9.923286e+00 -8.492488e+00 -5.781502e+00 -2.108060e+00 -4.628954e+00 5.362952e+00 -7.013183e+00 -1.082254e+01 -1.282804e+00 5.043020e-01 2.560753e-01 3.346615e-01 -2.123967e-01 2.496223e+00 -1.899398e-01 1.182572e+00 -4.008438e-01 -1.535567e+00 2.470104e-01 9.117352e-01 2.140123e+00 1.180871e-01 -4.230657e-02 8.579491e-03 2.788499e-01 -1.901735e-01 4.416559e-01 5.727645e-01 -4.635831e-01 5.062559e-01 3.177319e-02 -3.811421e-01 9.583414e-01 6.805652e-01 -3.605281e-02 -5.320624e-03
<VARIANCE> 39
 4.951702e-01 8.721907e-01 2.423060e+00 1.713800e+00 2.616633e+00 3.616985e-01 5.514845e+00 9.272074e+00 4.850197e+00 6.690641e+00 9.624796e+00 4.849703e+00 5.000000e-02 5.000000e-02 4.858392e-01 2.306758e+00 2.278754e-01 1.622201e-01 4.403324e-01 6.152979e-01 2.961761e+00 1.567246e+00 1.001624e+00 3.194344e-01 6.796994e-01 5.000000e-02 5.000000e-02 5.000000e-02 5.774479e-02 1.565334e-01 5.000000e-02 5.000000e-02 8.082553e-02 2.759257e-01 8.123496e-02 1.834955e-01 7.777378e-02 7.357298e-02 5.000000e-02
<GCONST> 3.713892e+01
<STATE> 7
<NUMMIXES> 4
<MIXTURE> 1 1.514632e-01
<MEAN> 39
 -6.390548e-01 -1.386920e+01 -4.690242e+00 1.840308e-01 3.064087e+00 -5.103835e+00 2.543842e+00 -2.457372e-01 3.127018e+00 -4.793857e+00 -1.562309e+00 -2.573212e+00 1.322588e-01 -9.079467e-01 -6.381495e-01 -5.670360e-01 -4.842294e-02 1.717533e-01 7.901208e-01 1.334907e+00 1.577865e+00 8.139767e-01 6.765327e-01 -4.835521e-01 -5.877813e-01 -2.326242e-02 -1.572466e-01 -1.021334e+00 -6.672940e-01 -2.019421e-02 -3.736558e-03 9.079114e-02 3.241489e-01 -5.439363e-01 -5.513185e-01 -3.205265e-01 -4.602475e-01 2.185887e-01 5.215637e-03
<VARIANCE> 39
 4.196106e+00 8.292934e+00 9.740224e+00 2.353829e-01 2.749470e-01 2.557471e+00 1.261858e+01 4.043666e+00 1.124558e+01 7.882977e+00 2.600373e+00 1.432728e+00 5.000000e-02 9.212310e-02 1.397864e+00 6.156459e-01 3.171118e-01 5.000000e-02 1.274409e+00 4.982089e+00 7.103932e-01 1.392390e+00 3.101658e+00 1.061493e+00 1.117261e+00 5.000000e-02 1.077405e-01 1.294575e-01 2.593983e-01 5.000000e-02 5.000000e-02 1.155350e-01 3.457865e-01 1.690705e-01 5.000000e-02 3.940088e-01 3.486506e-01 1.095068e-01 5.000000e-02
<GCONST> 4.910688e+01
<MIXTURE> 2 3.939553e-01
<MEAN> 39
 -1.279604e+00 -2.260089e+01 -1.012136e+01 -3.440195e-01 1.440696e+00 -5.470956e+00 2.182161e+00 -3.805795e+00 -4.005323e-02 -7.216874e+00 -5.679647e+00 2.329825e-01 2.492856e-01 -5.825093e-01 7.853741e-02 2.554497e-01 1.033008e+00 9.559298e-01 4.562022e-02 1.006857e-01 2.990783e-01 -5.218446e-01 -2.771186e-01 -1.081721e-01 1.615171e-01 -2.401437e-02 6.455544e-02 3.674893e-01 2.676259e-01 -1.466694e-01 -2.105480e-01 -8.874387e-02 2.997071e-01 2.761856e-01 3.996997e-01 4.339941e-01 4.273943e-01 -1.470519e-01 -2.477798e-03
<VARIANCE> 39
 2.540304e+00 2.844807e+00 5.253185e+00 4.616226e+00 6.634666e+00 6.566554e+00 1.234242e+01 2.886600e+00 7.531267e+00 8.328287e+00 1.172467e+01 5.204477e+00 5.000000e-02 6.226705e-01 1.503719e+00 7.071490e-01 4.294508e-01 7.313476e-01 5.610031e-01 1.378536e+00 4.442204e-01 1.934394e+00 1.820478e+00 1.317521e+00 1.056030e+00 5.000000e-02 5.000000e-02 1.555340e-01 1.013796e-01 6.121638e-02 6.558582e-02 1.531205e-01 3.703966e-01 5.000000e-02 2.373486e-01 2.427006e-01 1.058634e-01 1.590631e-01 5.000000e-02
<GCONST> 5.693696e+01
<MIXTURE> 3 1.818129e-01
<MEAN> 39
 -7.193595e-01 -1.760247e+01 -7.510731e+00 1.692623e+00 3.756643e+00 -5.594274e+00 -2.405044e-01 -6.561296e+00 1.414004e-01 -8.452383e+00 -3.152307e+00 -1.489812e+00 1.800871e-01 -1.063579e-01 1.673215e+00 8.991420e-01 3.723028e-01 1.037865e+00 1.050235e-01 -4.927459e-01 5.563486e-01 -1.380248e-01 3.457731e-01 5.959200e-01 -4.455995e-01 -1.580532e-02 9.342714e-02 -3.296386e-01 -3.746134e-01 -3.413124e-01 -4.564212e-01 -1.709392e-01 2.331005e-01 5.511986e-01 2.820034e-01 5.336714e-01 1.234136e-01 -1.427020e-01 5.754591e-03
<VARIANCE> 39
 5.065295e+00 5.496051e+00 1.258969e+00 1.073869e+01 5.113660e+00 1.297325e+01 2.140775e+01 1.091958e+01 8.916204e+00 6.639440e+00 9.127687e+00 1.273737e+01 5.000000e-02 2.808962e-01 1.785133e+00 2.341172e+00 6.934519e-02 5.385447e-01 5.594290e-01 2.047079e+00 1.942132e+00 1.469549e+00 1.538723e+00 1.358829e+00 3.280317e-01 5.000000e-02 8.451468e-02 1.389177e-01 5.531601e-02 1.151886e-01 5.000000e-02 3.249713e-01 6.007884e-01 1.158422e-01 1.294326e-01 1.444142e-01 1.618978e-01 3.661518e-01 5.000000e-02
<GCONST> 6.169602e+01
<MIXTURE> 4 2.727687e-01
<MEAN> 39
 -1.500136e+00 -2.252242e+01 -1.070581e+01 4.154863e-01 5.406302e-01 -6.098242e+00 4.775283e+00 1.765374e-01 3.409085e+00 -3.049836e+00 -2.270235e+00 -7.115583e-01 2.270774e-01 -6.381170e-01 2.591906e-01 3.871578e-01 5.429892e-01 9.643955e-01 8.613920e-01 -5.798327e-02 4.493844e-01 3.180021e-01 -2.598658e-01 -2.671855e-01 -9.907098e-01 -2.593626e-02 7.371680e-02 6.581634e-02 8.739530e-02 -1.316490e-02 1.521389e-01 4.423410e-03 -3.927748e-01 -4.572734e-01 -3.105303e-01 -4.094588e-01 -2.212054e-01 3.971916e-02 3.723352e-03
<VARIANCE> 39
 3.290117e+00 3.281727e+00 1.287629e+00 4.269173e+00 7.611630e+00 4.779737e+00 7.903341e+00 6.852308e+00 8.240726e+00 2.607550e+00 8.171982e+00 6.369244e+00 5.000000e-02 3.008306e-01 4.068617e-01 1.846777e-01 4.581729e-01 5.953571e-01 1.675556e+00 1.901579e+00 1.674551e+00 6.356257e-01 8.000120e-01 4.777991e-01 4.828693e-01 5.000000e-02 8.732916e-02 1.442620e-01 9.234048e-02 5.000000e-02 7.605249e-02 1.992812e-01 2.023557e-01 1.088246e-01 7.915252e-02 1.162310e-01 5.000000e-02 1.365889e-01 5.000000e-02
<GCONST> 4.838953e+01
<STATE> 8
<NUMMIXES> 4
<MIXTURE> 1 1.764561e-01
<MEAN> 39
 -4.185404e+00 -1.139067e+01 -2.666698e+00 -1.200420e+00 2.579093e+00 -4.186045e+00 1.877225e+00 -1.150184e+00 7.356803e+00 2.548517e+00 3.708326e+00 1.221675e+00 5.778817e-02 8.339798e-02 1.664804e+00 1.032279e+00 -9.174969e-01 -4.806337e-01 -5.124270e-01 -2.245898e-01 -5.429800e-02 5.521408e-01 1.900230e-01 -1.481681e-01 -1.637715e+00 -1.263850e-02 -2.235650e-02 -6.687911e-01 -5.808041e-01 4.555773e-02 8.920931e-02 2.076256e-01 1.125185e-01 6.624565e-02 -8.881442e-01 -1.058881e+00 -5.062437e-01 -3.047837e-01 -2.105058e-03
<VARIANCE> 39
 5.584964e-01 1.045283e+00 1.927330e+00 3.200150e+00 3.269531e+00 9.162579e+00 1.155285e+01 9.268557e+00 1.148655e+01 3.707886e+00 7.796630e+00 2.170615e+01 5.000000e-02 5.263893e-02 1.724549e+00 1.239097e+00 3.524717e-01 2.598973e-01 1.238080e+00 2.843676e+00 1.535540e+00 2.521697e+00 3.238198e+00 5.993188e-01 4.501786e-01 5.000000e-02 5.000000e-02 5.000000e-02 5.000000e-02 5.000000e-02 5.000000e-02 2.048159e-01 4.080240e-01 3.390741e-01 1.418463e-01 3.353899e-01 1.820339e-01 5.265704e-01 5.000000e-02
<GCONST> 5.489692e+01
<MIXTURE> 2 3.529356e-01
<MEAN> 39
 -2.659802e+00 -2.181654e+01 -9.619978e+00 3.231368e+00 3.851424e+00 -6.158343e+00 3.709602e+00 4.052024e-01 1.252604e+00 -6.119459e+00 -4.562405e+00 -2.189703e+00 1.673079e-01 -4.363253e-01 1.528984e+00 8.749163e-01 -3.863564e-01 8.482627e-03 1.356372e-01 6.637924e-01 5.065690e-01 6.544977e-01 6.829947e-01 6.511056e-01 2.603115e-01 -3.456099e-02 -1.082358e-01 7.778507e-01 4.154176e-01 -4.662707e-01 -1.165007e-01 3.208355e-01 4.283850e-02 -1.031629e-01 4.440249e-01 4.198959e-01 2.957446e-01 6.911508e-03 -9.552442e-03
<VARIANCE> 39
 2.938289e+00 4.506402e+00 3.213555e+00 4.100970e+00 1.206977e+01 1.073064e+01 1.827041e+01 6.318489e+00 1.108170e+01 1.109509e+01 8.341706e+00 9.346184e+00 5.000000e-02 5.108941e-01 1.628437e+00 7.732120e-01 9.900942e-01 2.786171e-01 1.946133e+00 1.354255e+00 5.616745e-01 1.130897e+00 7.567289e-01 2.462390e-01 8.271927e-01 5.000000e-02 1.188524e-01 2.630484e-01 1.471668e-01 5.499713e-02 7.112102e-02 1.735897e-01 2.320822e-01 1.041406e-01 2.678732e-01 4.305047e-01 1.120914e-01 6.592352e-02 5.000000e-02
<GCONST> 6.008205e+01
<MIXTURE> 3 2.352992e-01
<MEAN> 39
 -4.921273e+00 -1.490235e+01 -6.666296e+00 -1.338027e+00 4.595808e+00 8.121221e-01 6.182713e+00 -2.610213e+00 -1.183861e+00 -5.091564e+00 6.828254e-02 5.330273e-01 3.183974e-03 -3.211730e-01 7.110297e-01 2.006571e-01 -4.171500e-01 -3.739978e-01 3.409694e-02 -6.269937e-01 -1.111491e-01 2.440605e-01 1.018265e+00 1.060039e+00 8.302782e-01 -2.215088e-02 8.414956e-02 7.759283e-02 1.219054e-01 9.559895e-02 -1.692136e-01 -7.114438e-01 -5.471914e-01 1.815615e-01 4.109460e-01 2.550169e-01 -1.999780e-01 -4.533129e-01 4.000672e-03
<VARIANCE> 39
 3.516109e+00 2.253679e+00 3.561007e+00 1.347211e+00 2.388047e+00 4.687747e+00 9.861091e+00 1.006839e+01 6.524836e+00 3.992888e+00 8.013105e+00 6.992527e+00 5.000000e-02 2.377602e-01 1.591596e+00 1.195354e+00 9.178226e-02 5.495428e-01 1.224319e+00 9.820024e-01 3.080314e+00 2.824864e+00 3.751254e+00 1.419103e+00 1.035318e+00 5.000000e-02 7.637569e-02 9.409280e-02 1.378555e-01 5.503485e-02 5.000000e-02 1.717674e-01 3.958495e-01 6.271214e-01 1.739668e-01 3.237854e-01 1.601382e-01 2.176773e-01 5.000000e-02
<GCONST> 5.870108e+01
<MIXTURE> 4 2.353091e-01
<MEAN> 39
 -5.468597e+00 -1.315207e+01 -5.322732e+00 -1.457709e+00 4.194548e+00 -3.767643e+00 6.480224e+00 3.148993e+00 6.601818e+00 -2.587567e+00 -3.389463e+00 -4.582175e+00 -1.017919e-02 -6.219506e-01 1.078841e+00 5.969104e-01 -8.566616e-01 2.491139e-01 1.622405e+00 2.677858e-01 -4.621204e-01 -1.021586e+00 -3.106581e-01 6.623378e-01 1.762411e-01 -3.654120e-02 2.152773e-01 -5.403593e-01 -2.736461e-01 3.277649e-01 -5.991635e-02 -1.982711e-01 -6.096931e-01 -5.938752e-01 -9.453458e-01 -4.522879e-01 1.652903e-01 4.856836e-01 1.057123e-02
<VARIANCE> 39
 1.793202e+00 3.874849e+00 7.153596e+00 4.878765e+00 3.355521e+00 5.056433e+00 5.248003e+00 2.524643e+00 7.042042e+00 4.069422e+00 4.345857e+00 3.848779e+00 5.000000e-02 4.523353e-01 1.426421e+00 1.317091e+00 1.000531e+00 3.211316e-01 5.255007e-01 1.355136e+00 1.982834e+00 2.354606e+00 7.477916e-01 9.445032e-01 1.594352e+00 5.000000e-02 5.000000e-02 1.188261e-01 2.263637e-01 1.879892e-01 5.000000e-02 2.160125e-01 1.517777e-01 7.708316e-02 1.215695e-01 1.280491e-01 1.242793e-01 1.289769e-01 5.000000e-02
<GCONST> 5.423551e+01
<TRANSP> 9
 0.000000e+00 1.000000e+00 0.000000e+00 0.000000e+00 0.000000e+00 0.000000e+00 0.000000e+00 0.000000e+00 0.000000e+00
 0.000000e+00 8.717948e-01 1.282053e-01 0.000000e+00 0.000000e+00 0.000000e+00 0.000000e+00 0.000000e+00 0.000000e+00
 0.000000e+00 0.000000e+00 8.572035e-01 1.427965e-01 0.000000e+00 0.000000e+00 0.000000e+00 0.000000e+00 0.000000e+00
 0.000000e+00 0.000000e+00 0.000000e+00 8.610564e-01 1.389435e-01 0.000000e+00 0.000000e+00 0.000000e+00 0.000000e+00
 0.000000e+00 0.000000e+00 0.000000e+00 0.000000e+00 8.571364e-01 1.428636e-01 0.000000e+00 0.000000e+00 0.000000e+00
 0.000000e+00 0.000000e+00 0.000000e+00 0.000000e+00 0.000000e+00 8.570977e-01 1.429023e-01 0.000000e+00 0.000000e+00
 0.000000e+00 0.000000e+00 0.000000e+00 0.000000e+00 0.000000e+00 0.000000e+00 8.485401e-01 1.514598e-01 0.000000e+00
 0.000000e+00 0.000000e+00 0.000000e+00 0.000000e+00 0.000000e+00 0.000000e+00 0.000000e+00 8.529398e-01 1.470602e-01
 0.000000e+00 0.000000e+00 0.000000e+00 0.000000e+00 0.000000e+00 0.000000e+00 0.000000e+00 0.000000e+00 0.000000e+00
<ENDHMM>
