~o
<STREAMINFO> 1 39
<VECSIZE> 39<NULLD><MFCC_E_D_A><DIAGC>
~h "D~ung"
<BEGINHMM>
<NUMSTATES> 13
<STATE> 2
<MEAN> 39
 -4.757436e+00 -7.368583e+00 -2.755336e+00 -3.590872e+00 -7.416727e-02 -5.485090e+00 6.169888e-01 -1.071659e+00 4.593357e-02 -4.685444e+00 9.453569e-01 -1.448244e+00 8.159807e-02 1.524052e+00 8.569484e-02 -9.712827e-01 -1.216305e+00 -1.557317e+00 -1.740455e+00 -1.619240e-01 1.440886e-01 -4.696720e-01 -1.004084e+00 -1.416539e+00 -4.366699e-01 6.884917e-02 3.006266e-01 -8.090660e-02 -4.497734e-02 -2.188097e-01 -1.406423e-01 -3.894808e-01 -1.650555e-01 -1.270089e-01 -1.617575e-01 -2.472085e-01 -3.735389e-01 -2.830489e-01 2.419329e-02
<VARIANCE> 39
 2.585622e+01 9.012594e+00 8.818158e+00 1.634395e+01 1.499133e+01 1.425921e+01 1.027384e+01 8.529668e+00 1.373042e+01 1.236596e+01 1.228072e+01 6.258981e+00 5.000000e-02 3.558589e+00 1.074553e+00 1.466619e+00 9.299157e-01 1.856780e+00 2.980355e+00 1.448156e+00 1.109466e+00 2.227235e+00 2.025537e+00 2.110459e+00 1.305672e+00 5.000000e-02 7.385550e-01 2.862148e-01 3.833500e-01 1.724810e-01 4.834390e-01 3.755467e-01 3.409716e-01 2.039338e-01 4.409805e-01 2.561500e-01 2.331505e-01 1.883619e-01 5.000000e-02
<GCONST> 8.483463e+01
<STATE> 3
<MEAN> 39
 3.212267e+00 -9.197241e+00 -4.978969e+00 -1.017405e+01 -7.183160e+00 -1.702449e+01 -2.874578e+00 -2.407037e+00 -3.732898e+00 -1.305278e+01 -9.115914e+00 -7.146388e+00 6.905476e-01 -5.410084e-01 -2.118633e+00 5.907745e-01 -7.800435e-01 -1.034730e+00 6.776115e-01 -2.256607e+00 9.422871e-01 7.338216e-01 -2.071499e-01 -4.060812e-01 -2.231308e-01 8.658398e-02 -5.158194e-01 -7.033713e-01 -2.882431e-01 1.930992e-01 2.179175e-01 1.092285e+00 -1.576525e-01 7.553310e-01 8.120332e-01 1.339511e+00 6.664659e-01 4.394555e-01 -2.115847e-02
<VARIANCE> 39
 4.976927e+01 3.852114e+01 2.099510e+01 2.412402e+01 2.942084e+01 3.817000e+01 2.572239e+01 1.595609e+01 1.176459e+01 1.683246e+01 2.188684e+01 7.726708e+00 5.000000e-02 3.245727e+00 5.943201e+00 3.513207e+00 2.307694e+00 3.708827e+00 7.401394e+00 4.157301e+00 6.995865e+00 3.146652e+00 4.572444e+00 4.814180e+00 2.773601e+00 5.000000e-02 1.081850e+00 8.584157e-01 1.677959e+00 4.188089e-01 7.848144e-01 8.930179e-01 8.240994e-01 7.353206e-01 3.117885e-01 6.127902e-01 7.409499e-01 4.804259e-01 5.000000e-02
<GCONST> 1.129579e+02
<STATE> 4
<MEAN> 39
 2.777824e-01 -2.045339e+01 -1.181398e+01 -1.337065e+01 -8.849327e+00 -9.940511e+00 -9.036408e+00 7.370556e+00 5.820382e+00 -2.394429e-01 -9.517522e+00 -5.404294e+00 9.210891e-01 -6.488969e-01 -6.158889e-01 -3.359324e+00 -1.254591e+00 2.575077e+00 1.115999e+00 1.571981e+00 -1.963850e-01 1.637666e+00 4.825500e+00 -1.128511e+00 -1.487797e+00 4.709248e-02 1.038956e-01 1.042316e+00 8.514500e-02 -3.436868e-01 8.465943e-01 2.098170e-01 6.393701e-01 -1.390376e+00 -6.951737e-01 -5.218521e-02 7.183125e-02 -2.665847e-01 -1.167672e-02
<VARIANCE> 39
 1.594583e+01 6.557923e+00 4.374943e+01 1.482670e+01 4.811687e+01 2.399937e+01 7.958730e+01 2.086975e+01 2.619362e+01 5.063823e+01 2.698965e+01 3.392963e+01 5.000000e-02 1.793501e+00 4.988031e+00 2.297507e+00 1.516048e+00 5.514991e+00 3.004545e+00 4.021417e+00 8.252316e+00 1.936969e+00 3.430085e+00 2.932996e+00 5.952336e+00 5.000000e-02 2.422007e-01 4.137675e-01 1.324627e+00 3.646999e-01 1.327265e+00 8.265660e-01 1.774020e+00 7.767348e-01 6.165095e-01 1.378396e+00 1.043187e+00 1.214409e+00 5.000000e-02
<GCONST> 1.142530e+02
<STATE> 5
<MEAN> 39
 -8.712085e-01 -1.661590e+01 -1.862738e+01 -2.154396e+01 1.014761e+00 -5.060216e-02 -6.398785e+00 -1.842967e+00 2.986844e+00 1.094056e+01 -8.808440e+00 -6.155513e+00 9.856198e-01 3.488527e-01 5.772049e-01 -4.815391e-01 -1.600708e+00 2.400427e-01 3.185354e+00 -8.830093e-01 -8.117419e-02 -2.350627e+00 -9.897193e-01 1.460248e+00 1.936078e+00 -7.927370e-03 1.652686e-01 -2.061600e-01 5.102529e-01 3.347338e-01 -9.282002e-01 -1.519399e-01 -3.007910e-01 1.263625e+00 -2.768512e-01 -1.388128e+00 1.336400e-01 4.811338e-01 -8.487910e-03
<VARIANCE> 39
 2.583518e+00 2.265800e+00 8.879752e+00 1.727668e+01 6.559925e+00 2.488563e+01 2.602192e+01 7.465142e+00 2.602673e+01 2.821476e+01 3.013338e+01 9.021535e+01 5.000000e-02 3.069768e-01 2.591714e-01 7.407810e-01 5.763717e-01 1.541619e+00 5.942915e-01 2.590341e+00 7.565045e+00 3.085496e+00 7.712150e+00 1.853127e+00 2.167329e+00 5.000000e-02 6.052937e-02 9.152891e-02 1.474209e-01 1.349549e-01 3.154436e-01 4.200226e-01 8.984536e-01 4.632964e-01 1.101116e+00 8.359213e-01 7.474843e-01 1.292128e+00 5.000000e-02
<GCONST> 8.629848e+01
<STATE> 6
<MEAN> 39
 2.225586e+00 -1.747866e+01 -1.643281e+01 -2.304592e+01 -5.982169e+00 7.379292e+00 -6.402186e+00 8.926877e+00 -3.080600e+00 -1.398824e+00 -5.065665e+00 -6.956245e-01 9.037863e-01 9.700319e-01 -5.992865e-01 1.421997e+00 3.314677e-01 -2.643731e+00 -1.157837e+00 4.722446e-01 1.042131e+00 1.249657e+00 -1.895835e+00 -1.292949e-01 2.390526e-01 -2.326101e-02 1.497791e-01 -8.917504e-03 1.901425e-01 4.149115e-01 2.094162e-01 -1.106936e+00 1.801073e-02 -1.458368e+00 5.028943e-01 3.150411e-01 -1.908932e-01 -5.330657e-01 -3.730972e-03
<VARIANCE> 39
 3.410573e+00 1.016982e+01 4.146287e+00 2.588951e+01 4.736996e+01 2.021868e+01 4.373773e+01 4.639739e+01 2.465977e+01 1.417223e+01 1.207263e+01 4.241043e+01 5.000000e-02 1.748239e-01 4.037637e-01 5.607830e-01 1.449194e+00 2.581752e+00 4.384012e+00 8.888159e-01 9.654740e+00 4.499312e+00 1.853116e+00 2.205183e+00 3.606258e+00 5.000000e-02 5.000000e-02 1.662946e-01 1.296070e-01 2.595836e-01 1.265372e+00 3.979286e-01 4.817332e-01 1.474772e+00 1.442298e+00 2.736291e-01 3.766330e-01 2.645748e-01 5.000000e-02
<GCONST> 9.095367e+01
<STATE> 7
<MEAN> 39
 7.193885e+00 -1.796198e+01 -1.037799e+01 -1.755523e+01 -1.045607e+01 -3.730008e+00 -6.653016e+00 -2.314547e+00 -1.299289e-01 -6.574113e+00 -5.315523e+00 -3.087757e+00 7.859198e-01 9.124497e-01 5.432370e-01 7.323197e-01 1.376334e+00 1.709570e+00 -1.960731e+00 -1.499808e+00 -3.903307e+00 -1.891637e+00 -1.884389e+00 8.170675e-02 -7.232231e-01 -3.236744e-02 -3.223250e-01 9.895838e-02 -4.548924e-01 -4.737376e-01 5.755300e-01 6.774147e-01 -2.980470e-01 5.116156e-01 -7.515677e-01 -8.227159e-02 5.111739e-02 1.837841e-01 4.655630e-03
<VARIANCE> 39
 4.381376e+00 4.271276e+00 1.143246e+01 2.243040e+01 2.667612e+01 2.110528e+01 2.911523e+01 4.585978e+01 2.101489e+01 1.325476e+01 6.948327e+00 1.385289e+01 5.000000e-02 3.514375e-01 4.660586e-01 1.110683e+00 2.075836e+00 1.804863e+00 2.251643e+00 1.860751e+00 3.361871e+00 1.048704e+00 1.521983e+00 1.155306e+00 6.376819e-01 5.000000e-02 6.857593e-02 1.018260e-01 1.606649e-01 5.772354e-01 8.842310e-01 2.474336e-01 5.527506e-01 9.291814e-01 5.372803e-01 4.072316e-01 1.825614e-01 1.235461e-01 5.000000e-02
<GCONST> 8.247706e+01
<STATE> 8
<MEAN> 39
 6.460034e+00 -1.722495e+01 -9.691452e+00 -1.915119e+01 -4.535400e+00 -5.156911e+00 -1.333352e+01 -6.068132e+00 -4.932426e+00 -1.177515e+01 -3.899201e+00 -4.330945e+00 6.963751e-01 -7.240152e-01 -3.167616e-01 8.083160e-01 -7.203965e-01 2.331911e-01 -2.487225e-01 -9.857800e-02 -6.324460e-02 -1.850712e-01 5.197306e-01 4.248536e-01 -5.926658e-01 -1.573378e-02 -2.547784e-01 -2.875801e-02 1.995373e-01 -1.047371e-01 -6.628843e-03 1.248404e-01 2.860018e-01 5.213504e-01 4.324133e-01 6.020887e-01 8.034903e-02 -7.191551e-02 -3.342561e-03
<VARIANCE> 39
 3.103942e+00 2.841274e+00 7.234964e+00 1.507057e+01 2.558881e+01 1.253348e+01 3.314093e+01 2.118458e+01 2.971861e+01 1.551301e+01 8.996404e+00 1.129004e+01 5.000000e-02 7.121437e-01 3.475454e-01 1.305103e+00 2.456567e+00 2.027068e+00 1.423427e+00 1.557784e+00 1.850564e+00 1.149555e+00 3.325960e+00 5.096139e-01 1.114453e+00 5.000000e-02 8.963395e-02 1.246646e-01 2.177284e-01 5.336174e-01 6.103391e-01 4.154640e-01 3.101946e-01 4.351503e-01 2.858744e-01 5.577304e-01 1.247720e-01 1.997837e-01 5.000000e-02
<GCONST> 7.975060e+01
<STATE> 9
<MEAN> 39
 1.098701e+00 -1.818907e+01 -3.430210e+00 -2.399262e+01 -1.731775e+00 -5.305483e+00 -1.094304e+01 -3.361149e+00 -3.793450e+00 -4.548442e+00 -2.126786e+00 -8.160728e+00 5.830179e-01 -3.748476e-01 1.179607e+00 -5.545273e-01 1.655992e+00 1.435784e+00 -8.240560e-02 1.178015e+00 1.246203e+00 1.545596e+00 1.104504e+00 6.284210e-01 1.647293e-01 -6.285933e-02 5.814388e-01 4.963168e-01 -1.127240e+00 1.623008e+00 -2.558559e-01 -5.393620e-02 7.231023e-01 -2.725049e-01 3.250149e-01 -3.651491e-01 -7.756912e-02 6.018763e-01 -9.083072e-03
<VARIANCE> 39
 3.278796e+00 4.441593e+00 3.824580e+00 3.045523e+01 1.073446e+01 1.637983e+01 5.310635e+01 4.324597e+01 1.855002e+01 2.892578e+01 1.139208e+01 1.583494e+01 5.000000e-02 9.773635e-01 6.733889e-01 3.201901e+00 7.917549e+00 8.786181e-01 1.678252e+00 3.338835e+00 1.996917e+00 2.508469e+00 2.948867e+00 6.014143e-01 1.662618e+00 5.000000e-02 9.524672e-02 2.107641e-01 2.768599e-01 6.856058e-01 1.259398e-01 3.020479e-01 5.154753e-01 5.308338e-01 2.575007e-01 7.105662e-01 1.141637e-01 2.813927e-01 5.000000e-02
<GCONST> 8.634470e+01
<STATE> 10
<MEAN> 39
 2.944043e+00 -1.323835e+01 -1.180335e+01 -9.055325e+00 -6.499631e-01 -6.619402e+00 -2.506906e+00 -2.624778e+00 2.126870e+00 -2.808813e+00 -2.201017e-01 -3.600798e+00 3.441614e-01 -4.398965e-01 5.414459e-01 -8.337864e-01 1.615927e+00 -2.055261e-02 1.738180e-01 1.409134e+00 -6.935392e-02 6.909366e-01 6.095093e-01 4.885233e-01 8.419816e-01 -5.018854e-02 -3.059296e-01 -1.673429e-01 6.133754e-01 -7.978466e-01 -1.088999e-01 7.660554e-02 -4.657079e-01 -7.292918e-03 -3.623014e-01 -1.458905e-01 9.302809e-03 -8.937526e-02 4.309092e-03
<VARIANCE> 39
 3.410481e+00 7.455982e+00 9.502634e+00 1.134154e+01 4.741208e+00 1.002634e+01 2.357622e+01 7.259017e+00 6.592661e+00 1.346902e+01 2.315302e+01 9.442986e+00 5.000000e-02 8.597905e-01 1.208466e+00 2.401642e+00 6.560086e+00 9.676967e-01 1.820700e+00 3.843301e+00 1.346196e+00 7.173781e-01 1.978959e+00 1.773777e+00 1.258243e+00 5.000000e-02 7.097198e-02 2.659966e-01 2.579105e-01 6.836157e-01 2.604812e-01 3.472449e-01 3.678630e-01 2.709111e-01 6.785307e-02 2.756329e-01 3.185900e-01 2.686028e-01 5.000000e-02
<GCONST> 7.879066e+01
<STATE> 11
<MEAN> 39
 -2.668718e+00 -1.088420e+01 -7.693619e+00 -8.959620e+00 -1.642252e+00 -5.846418e+00 -2.221167e-01 -1.343423e+00 1.124555e+00 -2.115812e+00 1.707875e+00 -1.673133e+00 1.051052e-01 -5.725904e-01 3.526281e-01 8.256626e-01 5.177622e-01 1.079035e-01 1.374790e-01 2.305105e-01 3.153258e-01 -2.079907e-01 -6.570690e-02 3.075585e-01 -8.188914e-02 -2.618625e-02 1.241142e-01 -1.983784e-02 7.119097e-02 2.594700e-01 1.725005e-01 5.453209e-02 -4.160488e-02 -1.045094e-01 1.090279e-01 5.119862e-02 -6.998516e-02 -1.850449e-01 4.882832e-03
<VARIANCE> 39
 5.433089e+00 2.917784e+00 1.287159e+01 7.284632e+00 1.092860e+01 1.193523e+01 5.879645e+00 1.714805e+01 1.397380e+01 1.139407e+01 9.738994e+00 8.895567e+00 5.000000e-02 3.947656e-01 8.263260e-01 1.250656e+00 1.421698e+00 1.568458e+00 1.028643e+00 5.736223e-01 1.172118e+00 9.672202e-01 7.503594e-01 8.872001e-01 1.423802e+00 5.000000e-02 7.631595e-02 1.242936e-01 1.828459e-01 3.013811e-01 2.813683e-01 1.919896e-01 9.036289e-02 1.776998e-01 1.685684e-01 1.654511e-01 3.133205e-01 2.837209e-01 5.000000e-02
<GCONST> 6.785387e+01
<STATE> 12
<MEAN> 39
 -4.277329e+00 -9.969255e+00 -3.692730e+00 -3.817172e+00 2.056586e+00 -4.375937e+00 -6.824185e-01 -1.619527e+00 3.044775e+00 -3.087216e-01 3.112469e+00 -3.531334e+00 6.143913e-02 -6.212541e-01 1.102239e-01 4.390188e-01 3.257160e-01 3.790258e-01 2.961645e-01 -1.457656e-02 -2.550279e-01 -2.421676e-02 -1.589927e-01 -2.560361e-01 -3.137877e-01 -2.183405e-02 2.925884e-02 -6.558599e-02 -3.067121e-01 -3.478866e-01 -2.936641e-01 -6.605545e-02 8.334278e-02 -2.407587e-02 -2.367090e-01 -1.779483e-01 -8.808154e-02 1.911885e-01 -9.491991e-05
<VARIANCE> 39
 2.842242e+00 4.482808e+00 1.047747e+01 4.087434e+00 6.747794e+00 1.026650e+01 5.468197e+00 1.033288e+01 6.003642e+00 1.359766e+01 8.573791e+00 1.058909e+01 5.000000e-02 4.357685e-01 7.188627e-01 2.494014e+00 1.438772e+00 7.562799e-01 1.487574e+00 4.695487e-01 5.604942e-01 1.095322e+00 2.298351e+00 1.377153e+00 1.054945e+00 5.000000e-02 9.488665e-02 1.520292e-01 3.825315e-01 2.080170e-01 5.649830e-02 2.967104e-01 1.548647e-01 1.168000e-01 1.274746e-01 3.478831e-01 2.519549e-01 2.731076e-01 5.000000e-02
<GCONST> 6.570879e+01
<TRANSP> 13
 0.000000e+00 1.000000e+00 0.000000e+00 0.000000e+00 0.000000e+00 0.000000e+00 0.000000e+00 0.000000e+00 0.000000e+00 0.000000e+00 0.000000e+00 0.000000e+00 0.000000e+00
 0.000000e+00 8.385864e-01 1.614136e-01 0.000000e+00 0.000000e+00 0.000000e+00 0.000000e+00 0.000000e+00 0.000000e+00 0.000000e+00 0.000000e+00 0.000000e+00 0.000000e+00
 0.000000e+00 0.000000e+00 7.502991e-01 2.497009e-01 0.000000e+00 0.000000e+00 0.000000e+00 0.000000e+00 0.000000e+00 0.000000e+00 0.000000e+00 0.000000e+00 0.000000e+00
 0.000000e+00 0.000000e+00 0.000000e+00 7.368425e-01 2.631575e-01 0.000000e+00 0.000000e+00 0.000000e+00 0.000000e+00 0.000000e+00 0.000000e+00 0.000000e+00 0.000000e+00
 0.000000e+00 0.000000e+00 0.000000e+00 0.000000e+00 7.726515e-01 2.273486e-01 0.000000e+00 0.000000e+00 0.000000e+00 0.000000e+00 0.000000e+00 0.000000e+00 0.000000e+00
 0.000000e+00 0.000000e+00 0.000000e+00 0.000000e+00 0.000000e+00 7.728067e-01 2.271933e-01 0.000000e+00 0.000000e+00 0.000000e+00 0.000000e+00 0.000000e+00 0.000000e+00
 0.000000e+00 0.000000e+00 0.000000e+00 0.000000e+00 0.000000e+00 0.000000e+00 6.872818e-01 3.127183e-01 0.000000e+00 0.000000e+00 0.000000e+00 0.000000e+00 0.000000e+00
 0.000000e+00 0.000000e+00 0.000000e+00 0.000000e+00 0.000000e+00 0.000000e+00 0.000000e+00 8.275961e-01 1.724039e-01 0.000000e+00 0.000000e+00 0.000000e+00 0.000000e+00
 0.000000e+00 0.000000e+00 0.000000e+00 0.000000e+00 0.000000e+00 0.000000e+00 0.000000e+00 0.000000e+00 6.430944e-01 3.569057e-01 0.000000e+00 0.000000e+00 0.000000e+00
 0.000000e+00 0.000000e+00 0.000000e+00 0.000000e+00 0.000000e+00 0.000000e+00 0.000000e+00 0.000000e+00 0.000000e+00 7.901896e-01 2.098104e-01 0.000000e+00 0.000000e+00
 0.000000e+00 0.000000e+00 0.000000e+00 0.000000e+00 0.000000e+00 0.000000e+00 0.000000e+00 0.000000e+00 0.000000e+00 0.000000e+00 8.225581e-01 1.774419e-01 0.000000e+00
 0.000000e+00 0.000000e+00 0.000000e+00 0.000000e+00 0.000000e+00 0.000000e+00 0.000000e+00 0.000000e+00 0.000000e+00 0.000000e+00 0.000000e+00 7.726356e-01 2.273645e-01
 0.000000e+00 0.000000e+00 0.000000e+00 0.000000e+00 0.000000e+00 0.000000e+00 0.000000e+00 0.000000e+00 0.000000e+00 0.000000e+00 0.000000e+00 0.000000e+00 0.000000e+00
<ENDHMM>
