~o
<STREAMINFO> 1 39
<VECSIZE> 39<NULLD><MFCC_E_D_A><DIAGC>
~h "Giam"
<BEGINHMM>
<NUMSTATES> 9
<STATE> 2
<NUMMIXES> 4
<MIXTURE> 1 3.860037e-01
<MEAN> 39
 -5.690157e+00 -8.780894e+00 8.909442e-01 -2.617566e+00 -1.911814e-01 -3.282535e-01 1.839268e+00 -2.347992e+00 3.168693e+00 -3.166421e+00 4.555794e-01 -9.524031e-01 2.904665e-02 7.524629e-01 1.994727e-01 -4.010414e-01 -1.365436e+00 -1.221275e+00 -6.660572e-01 -1.088683e+00 -5.513161e-01 -5.066097e-01 -6.887610e-01 -1.285468e+00 -6.667341e-01 4.519591e-02 4.075985e-01 1.086004e-01 -2.575901e-01 -8.528036e-01 -5.344167e-01 -6.353621e-01 -4.119562e-01 -8.088505e-02 -1.641591e-01 -4.145574e-01 -4.503273e-01 -1.634566e-01 2.853260e-02
<VARIANCE> 39
 4.982922e+00 3.772486e+00 4.235202e+00 1.965875e+01 2.567816e+01 1.459448e+01 4.949873e+00 4.990787e+00 1.746682e+01 8.532063e+00 1.095352e+01 8.653207e+00 5.000000e-02 1.368023e+00 5.243068e-01 1.436400e+00 4.250072e+00 3.553530e+00 2.351551e+00 1.248291e+00 1.114227e+00 1.993742e+00 2.597796e+00 1.622115e+00 8.180270e-01 5.000000e-02 1.353998e-01 7.970766e-02 2.152250e-01 7.956973e-01 5.690715e-01 1.937200e-01 2.964220e-01 2.274611e-01 2.101210e-01 2.455781e-01 3.373243e-01 1.204645e-01 5.000000e-02
<GCONST> 7.722927e+01
<MIXTURE> 2 4.094510e-01
<MEAN> 39
 8.378925e-02 -6.856365e+00 -2.370634e+00 -1.414896e+01 -6.478578e+00 -9.035804e+00 -4.786133e+00 -3.813950e+00 -1.251833e+00 -7.933595e+00 -5.098089e+00 -3.361386e+00 4.322350e-01 -6.971431e-02 -1.115111e-01 -3.892840e-01 -3.576302e+00 -1.841040e+00 -1.704491e+00 -1.457259e+00 -2.547499e-01 9.429596e-01 8.460747e-01 3.640107e-01 7.340146e-01 1.329187e-01 -1.001108e+00 -3.033343e-01 1.243112e-01 3.646502e-01 -1.422102e-01 4.219902e-01 5.332993e-01 1.599315e-02 7.629864e-01 1.058406e+00 9.469935e-01 3.247606e-01 -1.423560e-03
<VARIANCE> 39
 3.454867e+01 4.752985e+00 1.409519e+01 5.652168e+01 1.457327e+01 2.312285e+01 2.775848e+01 1.022704e+01 3.875880e+01 2.793471e+01 1.050180e+01 1.053986e+01 5.000000e-02 4.971955e+00 7.670504e-01 8.334764e-01 3.615688e+00 1.460434e+00 1.497875e+00 3.353776e+00 8.235168e-01 3.692562e+00 6.510609e+00 4.887684e+00 1.171353e+00 5.000000e-02 4.543220e-01 1.261964e-01 2.321655e-01 1.316367e+00 3.417953e-01 1.993641e-01 5.420176e-01 2.595479e-01 3.905591e-01 7.222173e-01 4.400562e-01 2.800635e-01 5.000000e-02
<GCONST> 9.474827e+01
<MIXTURE> 3 9.090564e-02
<MEAN> 39
 -3.074123e+00 -9.560765e+00 -7.788781e+00 -1.820522e+01 -1.202370e+01 -1.862597e+01 -1.719252e-01 -7.628476e+00 2.720680e+00 5.736215e-01 4.825766e+00 -2.624319e+00 8.295676e-01 -3.022155e+00 -1.568877e+00 -1.919171e+00 -5.090983e-01 -1.879042e+00 -3.386953e-01 2.391157e+00 9.992547e-01 1.757217e+00 1.818944e+00 4.478904e-01 -2.571488e+00 5.602414e-02 3.045228e-01 -5.075955e-01 1.909960e-01 1.198051e+00 7.324399e-01 9.921203e-01 1.083516e+00 9.159373e-01 -1.123546e+00 -1.086883e+00 -1.482339e+00 -1.032249e+00 -1.096483e-02
<VARIANCE> 39
 4.721841e+00 8.963947e+00 1.145173e+01 2.752148e+00 3.623096e+00 1.152234e+01 1.335190e+01 3.382741e+00 1.890316e+00 2.513213e+01 9.940127e+00 3.826139e+01 5.000000e-02 1.193382e+00 1.940340e-01 6.888070e-01 5.925207e+00 1.698595e+00 1.641260e+00 4.341935e+00 9.298887e-01 2.003925e+00 6.092498e+00 8.158930e+00 8.875489e+00 5.000000e-02 1.132653e-01 1.431485e-01 1.508591e-01 1.508073e-01 2.481998e-01 8.086858e-02 1.334317e-01 2.499592e-01 1.542935e-01 3.600780e-01 2.020382e-01 1.134028e+00 5.000000e-02
<GCONST> 7.680077e+01
<MIXTURE> 4 1.136396e-01
<MEAN> 39
 -1.098368e+01 -8.131534e+00 -2.409708e-01 -2.261656e+01 -1.663796e+01 -7.915997e+00 -7.899999e+00 -5.167543e+00 7.775356e+00 6.523553e-01 -1.539177e+00 1.065935e+00 7.406594e-01 -2.278677e+00 -1.028869e+00 -6.577180e-01 -7.666878e-02 -2.430947e+00 -3.222442e-02 1.611304e+00 -1.647527e-01 6.595291e-01 2.926126e+00 1.988424e+00 3.870199e-01 9.613519e-02 2.881049e-02 -5.877798e-01 -6.182089e-01 8.184982e-01 5.495803e-01 7.725232e-01 1.632480e+00 7.678450e-01 -5.391359e-01 -1.958222e-01 -3.605935e-01 -7.011244e-01 -2.834556e-02
<VARIANCE> 39
 1.222622e+01 5.432379e+00 2.648176e+00 1.983963e+00 1.437164e+01 4.139579e+00 2.712242e-01 3.361218e+00 3.592706e+00 1.753029e+01 1.884052e+01 1.417160e+01 5.000000e-02 4.005182e-01 5.626961e-01 5.260496e-01 5.016840e-01 3.971853e-01 1.461997e+00 2.157638e+00 2.141658e+00 3.498715e-01 6.826365e-01 1.105348e+00 7.854037e-01 5.000000e-02 1.592554e-01 1.688000e-01 5.000000e-02 1.919469e-01 1.968224e-01 1.145509e-01 2.139326e-01 7.788953e-02 1.350538e-01 8.387218e-01 7.291596e-01 1.141670e-01 5.000000e-02
<GCONST> 5.804669e+01
<STATE> 3
<NUMMIXES> 4
<MIXTURE> 1 3.783480e-01
<MEAN> 39
 -1.453192e+01 -2.381478e+01 -1.050828e+01 -1.082677e+01 -3.777418e+00 -2.271868e+00 1.614529e+01 1.782392e-01 -2.887469e+00 -7.181474e+00 -2.619847e-02 -3.768093e+00 9.772906e-01 -2.771073e-01 -1.687356e+00 -1.112177e+00 2.272366e+00 2.727232e+00 3.780226e-01 1.542980e-01 -1.069109e+00 -1.502954e+00 -1.601883e+00 1.456784e+00 1.884417e+00 3.520084e-03 2.418309e-01 4.623434e-01 -7.701416e-02 -1.286906e-02 -4.921386e-01 -1.984108e-01 -8.799272e-01 -8.790807e-02 6.120552e-01 5.565541e-01 1.181819e-02 -3.101080e-02 -7.345586e-03
<VARIANCE> 39
 6.876476e+00 5.383680e+00 7.281125e+00 1.245770e+01 2.299189e+01 3.908078e+01 2.071101e+01 5.594197e+00 1.299547e+01 1.733776e+01 6.959194e+00 1.531282e+01 5.000000e-02 6.216084e-01 3.172389e-01 4.858735e-01 3.350825e-01 5.699911e-01 6.381261e-01 7.469997e-01 4.103556e-01 1.260480e+00 1.208090e+00 5.940944e-01 5.973252e-01 5.000000e-02 5.000000e-02 5.098597e-02 1.171725e-01 8.144771e-02 6.017570e-02 5.000000e-02 1.633628e-01 9.712145e-02 9.001746e-02 2.705117e-01 1.799082e-01 2.260561e-01 5.000000e-02
<GCONST> 5.870941e+01
<MIXTURE> 2 1.081168e-01
<MEAN> 39
 -8.023161e+00 -7.367694e+00 1.554909e+00 -2.147754e+01 -1.759574e+01 -1.666443e+00 -1.000458e+01 -7.519807e+00 9.072431e+00 2.445610e+00 1.249684e+00 1.883716e+00 7.363299e-01 -1.770614e+00 -1.567721e+00 -7.764819e-01 1.131970e+00 -2.267388e+00 1.388875e+00 3.322271e+00 5.243943e-01 8.482025e-01 1.133563e+00 -1.927900e-01 -1.090344e+00 6.494422e-02 -1.727147e-01 -7.525613e-01 -6.016524e-01 3.186945e-01 8.366475e-01 1.349298e-01 1.347081e+00 6.630918e-01 -6.700925e-01 -9.867451e-01 -8.145347e-01 -9.339530e-01 -1.821359e-02
<VARIANCE> 39
 5.900341e+00 3.105021e+00 4.552081e+00 8.811802e+00 3.975252e+00 5.833442e+00 1.627877e+01 7.715754e+00 1.744743e+00 5.206668e+00 2.933830e+00 1.505139e+01 5.000000e-02 5.000000e-02 1.472696e+00 1.666007e+00 4.735672e-01 1.878136e+00 1.952665e-01 2.099452e+00 3.577580e+00 1.108481e+00 3.674389e-01 1.779026e+00 4.123646e+00 5.000000e-02 8.864874e-02 5.000000e-02 6.301814e-02 5.557908e-01 4.006905e-01 5.000000e-02 1.850489e-01 1.977991e-01 5.000000e-02 5.000000e-02 1.124522e-01 2.257305e-01 5.000000e-02
<GCONST> 5.686950e+01
<MIXTURE> 3 4.054226e-01
<MEAN> 39
 -1.295012e+01 -1.786176e+01 -7.826858e+00 -1.743896e+01 -1.443263e+01 -4.158725e+00 1.127189e+01 2.433611e+00 4.359866e+00 7.853235e-02 -3.542717e+00 -8.511292e+00 9.393248e-01 -1.058085e+00 -2.558525e+00 -1.150334e+00 1.531861e+00 2.561211e+00 1.674534e+00 3.886683e+00 9.101866e-01 -2.012327e+00 -2.306073e+00 -7.619182e-01 -5.921182e-01 2.511378e-02 3.109820e-01 1.460100e-01 1.091561e-01 3.549074e-01 8.776118e-01 -3.620425e-01 -9.710314e-01 -8.791364e-01 -4.795434e-01 -5.262403e-01 7.843789e-01 1.214051e+00 -9.611412e-03
<VARIANCE> 39
 1.528020e+01 7.752189e+00 7.317616e+00 7.165917e+00 1.618288e+01 4.893055e+01 2.276175e+01 1.060187e+01 1.345658e+01 1.203823e+01 5.715301e+00 2.347312e+01 5.000000e-02 2.191902e-01 4.640717e-01 4.268394e-01 2.992088e-01 9.418240e-01 6.580123e-01 2.102628e+00 1.550683e+00 5.820051e-01 1.165063e+00 2.172106e+00 3.452564e+00 5.000000e-02 5.464626e-02 6.481209e-02 7.232710e-02 5.000000e-02 2.340803e-01 1.250836e-01 2.933620e-01 1.488433e-01 1.817361e-01 3.502168e-01 2.716945e-01 2.710626e-01 5.000000e-02
<GCONST> 6.826704e+01
<MIXTURE> 4 1.081125e-01
<MEAN> 39
 -1.045566e+01 -1.260811e+01 -5.764908e+00 -2.225558e+01 -1.751183e+01 -1.350166e+01 -1.664779e+00 -1.606595e+00 7.034698e+00 6.580767e+00 5.200480e+00 2.220294e+00 8.688086e-01 -2.008667e+00 -2.814852e+00 -1.056838e+00 2.748504e-01 -9.996402e-01 2.299086e+00 4.440090e+00 3.106782e+00 2.030931e-01 6.955721e-01 -1.061148e+00 -2.217858e+00 4.926789e-02 6.397516e-01 -2.677209e-01 -1.594780e-01 1.036239e+00 1.434371e+00 9.233454e-01 1.155186e+00 4.598335e-01 -9.809639e-01 -1.762036e+00 -1.294656e+00 -9.806034e-01 -1.519291e-02
<VARIANCE> 39
 1.235809e+01 8.743368e-01 1.062118e+01 7.787011e+00 1.131294e+01 4.559962e+01 1.174296e+01 6.649469e+00 7.412766e+00 1.217278e+01 9.899928e+00 1.364267e+01 5.000000e-02 3.430848e-01 5.979200e-01 7.720516e-01 2.367749e-01 1.742395e+00 5.385193e-01 1.167728e+00 1.379421e+00 1.078758e+00 2.266743e+00 1.241504e+00 1.276272e+00 5.000000e-02 7.547158e-02 5.000000e-02 5.000000e-02 2.056262e-01 7.708085e-02 7.916515e-02 2.272698e-01 2.983880e-01 8.082413e-02 5.000000e-02 2.036755e-01 4.893158e-01 5.000000e-02
<GCONST> 6.221672e+01
<STATE> 4
<NUMMIXES> 4
<MIXTURE> 1 3.125953e-01
<MEAN> 39
 -1.296706e+01 -2.441389e+01 -1.667436e+01 -3.905925e+00 6.837264e+00 -6.519858e+00 1.530100e+01 4.006172e-01 -6.630972e+00 -1.139587e+01 3.883753e+00 -1.628555e+00 9.331192e-01 1.681501e-01 -4.546562e-02 -4.428556e-01 5.206647e-01 3.838550e-01 -4.872510e-03 -1.498491e+00 4.774975e-02 4.630748e-01 -3.438545e-01 3.454689e-02 2.204489e-01 -5.533135e-03 1.058351e-01 2.384386e-02 8.719067e-02 -1.589539e-01 -3.264802e-01 -1.971855e-01 -1.638940e-01 6.799233e-02 1.517522e-01 -2.185582e-03 -1.438453e-01 -3.240030e-01 1.627602e-03
<VARIANCE> 39
 1.371189e+00 1.568331e+00 2.545557e+00 4.081017e+00 4.278681e+00 5.008390e+00 1.329844e+01 5.667725e+00 7.770869e+00 1.878162e+00 2.736191e+00 2.167474e+00 5.000000e-02 3.181476e-01 1.875052e-01 2.627048e-01 4.583340e-01 3.906611e-01 6.310039e-01 6.807591e-01 3.904272e-01 4.169048e-01 6.923132e-01 4.317403e-01 8.722895e-01 5.000000e-02 8.725360e-02 7.284352e-02 6.092495e-02 5.000000e-02 7.581770e-02 1.752103e-01 8.688993e-02 1.149930e-01 1.727331e-01 2.584928e-01 7.442892e-02 1.127943e-01 5.000000e-02
<GCONST> 4.009533e+01
<MIXTURE> 2 3.132437e-01
<MEAN> 39
 -1.621409e+01 -2.656208e+01 -1.625407e+01 -3.132096e+00 4.281844e-01 1.505134e+00 4.671898e+00 -3.037058e+00 6.151695e+00 -7.486366e+00 1.172990e-01 -2.567525e+00 9.517301e-01 -3.051714e-01 2.235233e-01 -5.234351e-02 -6.723484e-02 5.167558e-01 1.464201e-02 -9.935170e-01 2.491029e-01 4.503754e-01 -4.772274e-01 -4.738137e-01 -2.864505e-01 6.826415e-03 2.297216e-01 -4.816270e-03 2.719589e-01 -2.774985e-01 -9.283198e-02 3.283021e-02 1.853174e-03 1.647872e-01 -2.416312e-01 -8.897974e-02 6.299138e-03 1.746585e-01 2.575891e-04
<VARIANCE> 39
 4.287556e+00 5.619453e+00 5.933540e+00 4.337375e+00 2.798876e+00 4.900374e+00 1.376021e+01 7.868442e+00 5.053054e+00 9.035347e+00 4.480454e+00 6.688432e+00 5.000000e-02 6.705514e-01 4.873631e-01 1.099030e+00 4.937631e-01 3.234103e-01 8.620453e-01 6.786970e-01 7.459232e-01 8.502368e-01 2.689957e-01 4.163332e-01 1.108306e+00 5.000000e-02 1.467737e-01 1.693482e-01 2.743998e-01 1.961235e-01 8.925718e-02 1.654959e-01 1.593781e-01 5.000000e-02 5.000000e-02 5.000000e-02 1.018213e-01 1.678213e-01 5.000000e-02
<GCONST> 5.198293e+01
<MIXTURE> 3 2.700625e-01
<MEAN> 39
 -1.634689e+01 -2.738646e+01 -1.402226e+01 -4.805716e+00 -2.896432e+00 2.961426e+00 7.442454e+00 -3.885827e+00 -1.924233e+00 -6.900690e+00 2.018941e+00 1.849348e+00 9.560912e-01 2.524030e-01 -1.541156e-01 -9.230164e-01 1.312628e+00 7.425146e-01 -2.392178e-02 -1.119643e+00 -9.144805e-02 6.909642e-01 2.520047e-01 3.319746e-01 9.860209e-03 -2.616808e-03 -2.897643e-02 1.358655e-01 1.330452e-01 -4.704849e-01 -2.770901e-01 3.263319e-02 6.174597e-02 2.674210e-01 4.103710e-01 1.396946e-01 -2.640116e-01 -3.411933e-01 3.667999e-04
<VARIANCE> 39
 4.464677e+00 4.624968e+00 7.400747e+00 1.028138e+01 3.977362e+00 2.791881e+00 1.006964e+01 4.358044e+00 3.169776e+00 9.253347e+00 5.612020e+00 3.224418e+00 5.000000e-02 4.191447e-01 2.547634e-01 7.187797e-01 2.086510e+00 9.327382e-01 3.421557e-01 2.739659e-01 5.643293e-01 7.574734e-01 4.089173e-01 7.605256e-01 6.253334e-01 5.000000e-02 2.027298e-01 1.170111e-01 7.260054e-02 1.143422e-01 6.556153e-02 6.742565e-02 6.279942e-02 1.027230e-01 2.191701e-01 1.301892e-01 1.760765e-01 1.167091e-01 5.000000e-02
<GCONST> 4.931759e+01
<MIXTURE> 4 1.040984e-01
<MEAN> 39
 -1.360501e+01 -2.432204e+01 -1.937384e+01 -2.635949e+00 4.499592e+00 -1.223190e+01 5.779663e+00 -2.213113e+00 -3.924079e+00 -1.656258e+01 4.343547e+00 -5.531621e+00 9.585938e-01 9.134217e-01 2.707499e-01 1.057761e-01 1.642128e-01 -4.328662e-01 -6.449127e-01 -9.158474e-01 4.823545e-01 7.435052e-01 -1.193058e+00 -1.804615e-01 -8.444980e-01 5.860558e-03 5.768318e-01 -2.786118e-02 2.213334e-01 6.558449e-02 2.271044e-01 8.219736e-01 6.185379e-01 3.746074e-01 2.175063e-01 -2.423029e-02 -7.475175e-02 1.994190e-01 -1.570666e-04
<VARIANCE> 39
 2.453796e+00 8.875360e-01 1.317618e+00 1.089754e+00 1.677687e+00 4.171673e+00 1.174284e+00 2.112291e+00 8.297307e+00 4.471241e+00 3.769927e+00 5.558417e+00 5.000000e-02 1.694230e+00 1.176351e-01 6.286375e-01 1.107231e-01 3.749143e-01 3.203333e+00 1.470581e+00 9.593366e-01 2.244338e-01 2.346187e-01 2.778093e-01 5.280786e-01 5.000000e-02 1.191726e-01 5.000000e-02 1.475053e-01 5.000000e-02 5.000000e-02 2.904127e-01 8.300652e-02 6.237271e-02 5.000000e-02 5.000000e-02 5.000000e-02 5.000000e-02 5.000000e-02
<GCONST> 3.321526e+01
<STATE> 5
<NUMMIXES> 4
<MIXTURE> 1 1.954918e-01
<MEAN> 39
 5.902042e-01 -2.591323e+01 -6.714552e+00 -6.731804e+00 -7.431490e+00 -5.309376e+00 -3.197028e+00 -5.489321e+00 3.722000e+00 -9.944689e+00 -3.409277e+00 -5.027564e+00 6.651481e-01 2.428794e+00 -2.058131e-01 2.312856e+00 6.694652e-02 -2.747329e+00 -1.164755e+00 3.419540e-02 -1.908217e+00 -1.638004e+00 3.653963e-02 -1.243003e+00 1.471837e+00 -4.809687e-02 -5.788594e-01 -1.853079e-01 -5.319363e-01 1.894360e-01 1.540203e-01 4.420491e-01 4.287921e-01 3.719015e-01 -3.379486e-01 -2.267412e-01 1.297518e-03 4.794383e-01 1.602611e-02
<VARIANCE> 39
 3.634299e+00 3.247071e+00 9.707189e+00 4.282934e+00 1.497463e+01 4.399228e+00 5.011717e+00 1.010492e+01 1.416055e+01 4.429383e+00 1.290603e+01 9.194066e+00 5.000000e-02 1.281718e+00 6.769087e-01 1.497492e+00 1.604325e+00 2.831567e+00 1.250245e+00 1.170030e+00 1.835094e+00 5.046598e-01 1.101836e+00 9.838192e-01 1.285213e+00 5.000000e-02 1.146343e-01 9.903903e-02 1.658154e-01 5.651960e-02 3.634224e-01 3.374571e-01 1.289104e-01 1.320969e-01 8.520266e-02 1.457116e-01 2.613824e-01 3.547671e-01 5.000000e-02
<GCONST> 6.623713e+01
<MIXTURE> 2 3.658047e-01
<MEAN> 39
 -1.139041e+01 -2.765497e+01 -1.440836e+01 -6.729286e+00 1.193293e-01 1.942973e+00 -2.415970e-01 6.439357e-01 5.934573e+00 -1.003116e+01 -1.858186e+00 -2.575807e+00 9.359745e-01 2.315829e+00 7.229408e-03 6.040406e-01 -8.439238e-01 -9.161294e-01 -1.161603e+00 -9.902993e-01 -2.667364e-01 6.420998e-01 -8.182775e-01 -6.881877e-01 -1.582315e+00 -3.906206e-02 3.136313e-01 2.650335e-01 3.227493e-01 1.961160e-01 -4.770665e-01 -4.698542e-01 -8.647935e-03 -6.573271e-01 -1.571168e-01 -5.211060e-02 -6.155372e-02 -1.847245e-01 -1.251969e-02
<VARIANCE> 39
 1.114713e+01 3.727831e+00 6.426400e+00 1.113075e+01 2.613464e+01 9.538508e+00 6.921926e+00 5.617013e+00 7.725098e+00 1.555633e+01 5.195487e+00 2.368653e+01 5.000000e-02 8.425663e-01 9.595337e-01 1.964579e+00 1.103565e+00 2.636727e+00 2.620185e+00 9.665610e-01 2.436970e+00 4.572831e-01 1.095419e+00 4.931901e-01 2.624668e+00 5.000000e-02 1.230337e-01 9.794637e-02 5.405622e-01 3.047354e-01 3.272193e-01 3.318978e-01 2.022262e-01 1.957048e-01 1.672591e-01 4.534219e-01 1.251226e-01 8.974600e-01 5.000000e-02
<GCONST> 7.594794e+01
<MIXTURE> 3 2.437203e-01
<MEAN> 39
 -5.747211e+00 -2.489481e+01 -1.784936e+01 -1.553587e+00 4.108416e+00 -4.928528e+00 5.382464e+00 1.324152e+00 7.750714e-01 -1.966533e+01 1.536326e+00 -6.171068e+00 9.271927e-01 1.875026e+00 -4.818694e-02 7.751140e-01 -2.005766e-01 -1.805410e+00 7.694809e-01 -1.327138e+00 -9.707572e-01 1.377979e+00 -2.550639e-01 -1.074763e+00 -4.726763e-01 -2.921806e-02 1.356193e-01 -1.688590e-02 4.372133e-01 -4.905576e-01 -7.994177e-01 -6.125110e-01 -3.866337e-01 -5.465853e-01 -2.678868e-01 6.078971e-01 -3.798092e-01 2.340276e-01 -1.049273e-02
<VARIANCE> 39
 5.519474e+00 2.230337e+00 4.186333e+00 5.767478e+00 1.087036e+01 8.771978e+00 4.361947e+00 7.239443e+00 2.563264e+01 1.757552e+01 9.412207e+00 1.241387e+01 5.000000e-02 3.659235e-01 1.995716e-01 1.630455e+00 1.334308e+00 3.126501e+00 2.595767e+00 1.520767e+00 2.097381e+00 1.221960e+00 2.113357e+00 1.632145e+00 8.173704e-01 5.000000e-02 9.097497e-02 5.000000e-02 2.863608e-01 2.555453e-01 2.762072e-01 4.639138e-01 6.950467e-02 2.525876e-01 6.151036e-01 1.969355e-01 1.559444e-01 3.089174e-01 5.000000e-02
<GCONST> 7.066822e+01
<MIXTURE> 4 1.949833e-01
<MEAN> 39
 2.730542e+00 -2.461773e+01 -8.935199e+00 -8.598620e+00 -1.061175e+01 -1.060207e+01 -2.990338e+00 -7.449021e+00 3.966290e+00 -1.608020e+01 -5.570632e+00 -6.553114e+00 7.399408e-01 1.492802e+00 -4.916533e-02 1.869503e+00 -9.628820e-01 -2.227587e+00 -1.073161e+00 -1.264777e+00 -6.696683e-01 -1.829181e+00 2.115894e-01 -8.259690e-01 1.635722e+00 -3.294167e-02 -5.584538e-01 -2.837927e-02 -3.602631e-01 4.409123e-01 8.233860e-01 6.997963e-01 3.810145e-01 5.136774e-01 -2.038970e-01 -1.207853e-01 4.111838e-01 5.133533e-01 8.422651e-03
<VARIANCE> 39
 1.060773e+01 3.583614e+00 6.608689e+00 7.831352e+00 6.592066e+00 8.488527e+00 1.400249e+01 5.114258e+00 3.349891e+01 1.355727e+01 1.059346e+01 2.208559e+01 5.000000e-02 9.961420e-01 1.626266e-01 2.112040e+00 2.561327e+00 3.147997e+00 1.566834e+00 1.164463e+00 1.690897e+00 1.546739e+00 4.339655e+00 6.990173e-01 3.256935e-01 5.000000e-02 1.213370e-01 1.439892e-01 2.751526e-01 3.252271e-01 8.376805e-02 1.270111e-01 3.972483e-01 2.862308e-01 8.934485e-01 4.879276e-01 2.558554e-01 4.199740e-01 5.000000e-02
<GCONST> 7.647021e+01
<STATE> 6
<NUMMIXES> 4
<MIXTURE> 1 3.858778e-01
<MEAN> 39
 4.345239e+00 -2.297292e+01 -4.717064e+00 -7.843317e-01 -6.806664e+00 -5.965416e+00 1.432102e+00 -4.267872e+00 4.279839e-01 -1.078479e+01 -5.684384e+00 -1.264382e+00 5.434754e-01 -3.075742e-01 1.901404e-01 -3.945036e-01 1.127094e+00 1.024618e+00 3.631073e-01 8.284308e-01 7.279212e-01 7.159581e-01 8.209617e-01 6.440433e-01 6.566606e-01 -2.793813e-02 -3.097229e-01 -2.181179e-01 -2.627268e-01 -2.436646e-01 -5.684927e-02 -8.363873e-02 -4.083622e-01 -3.028350e-01 -4.333393e-02 -4.166684e-02 2.479668e-01 1.926995e-02 -2.547929e-04
<VARIANCE> 39
 8.678042e-01 4.192084e+00 8.679197e+00 7.985731e+00 8.686942e+00 8.741174e+00 4.953578e+00 9.900023e+00 9.546123e+00 5.217408e+00 7.723924e+00 6.611279e+00 5.000000e-02 4.672981e-01 6.785455e-01 7.366104e-01 7.140172e-01 1.291250e+00 7.908552e-01 1.938026e+00 1.930476e+00 2.060963e+00 1.599611e+00 8.443111e-01 6.863236e-01 5.000000e-02 5.000000e-02 7.226416e-02 1.513432e-01 1.255499e-01 5.431522e-02 1.118541e-01 1.168840e-01 2.487759e-01 3.883729e-01 2.457973e-01 1.338462e-01 3.542819e-01 5.000000e-02
<GCONST> 6.085483e+01
<MIXTURE> 2 3.641246e-01
<MEAN> 39
 5.175754e+00 -2.343242e+01 -5.671659e+00 -3.886157e+00 -1.198620e+01 -8.885686e+00 -2.472050e+00 -7.991271e+00 -4.793649e+00 -1.187231e+01 -4.158606e+00 -1.124471e+00 5.797317e-01 -1.565778e-01 3.352312e-01 -1.544283e-01 7.814271e-01 9.437777e-01 -1.542159e-01 7.251379e-01 7.241260e-01 3.925693e-02 2.765873e-01 -9.511061e-02 -7.784218e-01 -2.582403e-02 -1.494869e-01 -1.545792e-01 -9.925623e-02 2.068903e-02 2.719946e-01 2.542468e-01 4.377095e-01 3.913389e-01 4.508128e-01 8.932119e-02 -1.761752e-01 6.950412e-02 -4.251645e-03
<VARIANCE> 39
 2.946482e+00 3.399833e+00 4.636240e+00 2.582690e+00 1.728798e+00 9.327782e+00 1.158572e+01 1.017771e+01 4.991863e+00 1.809771e+01 4.859635e+00 8.148352e+00 5.000000e-02 1.354229e-01 3.503259e-01 7.383670e-01 8.393943e-01 9.008316e-01 8.778563e-01 2.030521e+00 1.061566e+00 1.405042e+00 9.028330e-01 5.990650e-01 6.751734e-01 5.000000e-02 5.000000e-02 5.000000e-02 5.000000e-02 1.503036e-01 2.440619e-01 1.604923e-01 3.090408e-01 9.281952e-02 1.367028e-01 2.778974e-01 1.104848e-01 2.302385e-01 5.000000e-02
<GCONST> 5.493374e+01
<MIXTURE> 3 1.136309e-01
<MEAN> 39
 3.653485e+00 -2.403438e+01 -6.917461e+00 -9.515113e+00 -1.275188e+01 -8.501269e+00 -6.721876e+00 -7.087860e+00 2.376183e+00 -1.846061e+01 -4.877764e+00 1.017027e+00 6.957766e-01 1.757693e-01 3.844617e-02 2.967727e-01 8.967023e-01 8.998468e-02 6.437726e-01 -1.831131e-01 -9.348847e-01 -5.608844e-01 7.602206e-01 3.786722e-02 1.472243e+00 -2.010965e-02 4.025773e-02 1.056428e-01 -4.022518e-02 4.545802e-01 5.864516e-01 -2.303816e-01 6.134541e-01 3.303166e-01 -6.754261e-02 5.529205e-01 1.122833e-01 -5.789056e-01 -1.010579e-03
<VARIANCE> 39
 2.862295e+00 2.919457e+00 1.829472e+00 6.096823e-01 7.919357e+00 1.332953e+01 3.190644e+00 8.150152e+00 7.916412e+00 9.782262e+00 7.951446e-01 4.941823e+00 5.000000e-02 3.786485e-01 3.349995e-01 2.404293e-01 3.810804e-01 5.831855e-01 3.256897e-01 6.573381e-01 1.194617e-01 9.359829e-01 1.164197e+00 3.425347e-01 3.643555e-01 5.000000e-02 5.000000e-02 5.000000e-02 1.359179e-01 5.000000e-02 5.000000e-02 1.362424e-01 5.000000e-02 2.988628e-01 1.661547e-01 6.301195e-01 5.000000e-02 1.131804e-01 5.000000e-02
<GCONST> 4.029579e+01
<MIXTURE> 4 1.363667e-01
<MEAN> 39
 4.093567e+00 -2.767444e+01 -6.205816e+00 -7.195453e+00 -1.517893e+01 -7.858737e+00 -3.047554e+00 -9.541466e+00 -2.911026e+00 -1.364605e+01 -9.076173e+00 -2.215454e+00 6.362346e-01 7.938125e-01 7.383163e-01 5.681781e-01 9.771525e-01 -4.637825e-01 -1.973392e-01 1.194904e+00 -1.705849e-01 -1.236288e+00 4.619808e-01 4.979033e-01 1.061077e+00 -1.252657e-02 -3.827469e-01 5.147302e-01 -2.399249e-01 3.876401e-01 1.164759e+00 2.880878e-01 2.979577e-02 4.133707e-01 4.527670e-01 2.160295e-01 6.179785e-01 -5.416683e-01 2.258150e-03
<VARIANCE> 39
 2.671073e+00 8.001755e-01 3.271253e+00 1.826344e+00 5.458657e+00 1.884562e+00 1.182232e+01 6.315411e+00 6.179482e+00 3.983629e+00 4.492095e+00 9.945900e+00 5.000000e-02 2.188984e-01 2.565502e-01 5.153756e-01 2.311252e-01 1.889471e+00 7.592227e-01 5.575820e-01 3.664365e-01 3.280860e-01 2.103618e+00 8.010219e-01 7.757708e-01 5.000000e-02 5.837874e-02 5.000000e-02 7.979951e-02 1.534450e-01 5.686861e-01 2.427673e-01 5.080031e-01 2.829117e-01 7.750951e-02 1.284606e-01 1.114640e-01 8.012526e-02 5.000000e-02
<GCONST> 4.831593e+01
<STATE> 7
<NUMMIXES> 4
<MIXTURE> 1 2.049701e-01
<MEAN> 39
 -1.329511e-01 -2.204490e+01 -6.084701e+00 3.208309e+00 1.190849e+00 -5.622770e+00 7.699889e+00 2.342125e+00 -9.854007e-01 -7.672658e+00 -2.249405e+00 -5.728309e-01 3.095772e-01 -5.750712e-01 4.051821e-01 -5.503534e-02 1.755626e-01 1.080449e+00 -2.226523e-01 1.241091e-01 1.416589e+00 1.399106e-01 1.851998e-01 3.962958e-01 2.469205e-01 -2.343569e-02 4.819036e-02 -1.638340e-01 -1.569717e-01 -4.134749e-01 -6.590939e-01 -1.699511e-01 -7.773535e-01 -4.111615e-01 -1.672986e-01 -3.411998e-01 -2.176152e-03 1.543615e-01 3.816170e-03
<VARIANCE> 39
 4.604858e+00 2.822626e+00 7.169329e+00 1.711235e+00 3.872192e+00 2.834899e+00 9.446959e+00 1.177852e+01 7.861405e+00 6.792409e+00 9.438421e+00 2.152514e+01 5.000000e-02 1.595626e-01 7.286026e-01 8.314265e-01 1.075761e+00 1.604447e+00 3.813582e-01 1.683702e+00 2.076308e+00 1.700986e-01 4.098114e-01 8.885999e-01 1.175512e+00 5.000000e-02 5.923973e-02 6.803335e-02 8.102809e-02 5.029096e-02 7.997199e-02 7.788485e-02 3.663447e-01 3.199103e-01 1.027321e-01 5.590314e-02 1.154271e-01 2.419647e-01 5.000000e-02
<GCONST> 5.306120e+01
<MIXTURE> 2 2.304120e-01
<MEAN> 39
 1.377012e-01 -2.528768e+01 -8.654801e+00 2.434310e+00 -2.353148e+00 -5.972844e+00 -6.664228e-02 -7.769435e+00 -1.491282e+00 -9.081038e+00 -2.811427e+00 1.856565e+00 4.170634e-01 -5.554006e-01 -4.324797e-02 -2.539879e-01 5.182757e-02 7.517025e-01 1.369586e-01 3.999882e-01 1.952383e-01 -4.820190e-01 6.740018e-02 3.310842e-01 3.248012e-01 -2.224753e-02 1.593291e-01 3.410800e-01 3.052426e-01 -1.351731e-01 -3.919733e-02 -1.742552e-01 2.334050e-01 5.680156e-01 1.137226e-01 -9.084108e-02 -2.101305e-01 -3.080983e-01 1.917896e-03
<VARIANCE> 39
 1.585016e+00 3.505683e+00 4.526810e+00 6.098984e+00 3.570639e+00 9.974757e+00 5.723060e+00 3.857286e+00 6.006923e+00 7.618681e+00 1.126619e+01 6.786515e+00 5.000000e-02 2.285086e-01 5.542067e-01 4.592896e-01 5.016977e-01 8.043332e-01 4.492399e-01 1.422692e+00 1.407596e+00 1.055883e+00 6.317932e-01 6.044095e-01 5.852964e-01 5.000000e-02 5.000000e-02 6.209936e-02 5.000000e-02 1.398656e-01 1.886392e-01 8.830605e-02 1.339368e-01 1.545813e-01 1.591939e-01 9.818085e-02 1.710677e-01 1.585975e-01 5.000000e-02
<GCONST> 5.077344e+01
<MIXTURE> 3 7.684775e-02
<MEAN> 39
 1.580661e-01 -2.882991e+01 -1.099015e+01 -4.062493e+00 -7.945451e+00 -2.323277e+00 5.357205e+00 -7.409610e+00 4.049062e+00 -7.485732e+00 -5.317339e+00 -7.210851e-02 4.418471e-01 -1.321660e+00 -5.207505e-01 -9.387066e-01 7.204117e-01 1.069107e+00 6.729962e-01 1.281542e+00 9.585480e-01 -1.114175e+00 -2.321057e-01 1.419399e+00 1.550039e+00 -2.972126e-02 1.092727e-01 4.236061e-01 5.046241e-01 4.313257e-01 -1.032904e-01 -5.449818e-01 -3.358401e-01 3.081134e-01 -1.179814e+00 -1.579648e-01 5.966736e-01 2.101762e-01 6.973253e-05
<VARIANCE> 39
 2.723355e+00 3.376106e-01 4.543143e-01 1.255276e+00 1.020574e-01 4.053511e-01 5.144167e-02 1.137922e+00 1.142434e+01 6.351598e+00 3.360201e+00 5.913418e+00 5.000000e-02 6.479444e-02 2.701418e-01 2.614712e-01 8.388622e-01 5.000000e-02 1.784274e+00 1.356566e-01 7.846065e-01 3.134930e+00 2.955582e-01 4.979311e-01 5.000000e-02 5.000000e-02 7.219514e-02 5.000000e-02 5.000000e-02 5.000000e-02 5.000000e-02 5.172241e-02 5.000000e-02 5.000000e-02 1.751871e-01 5.000000e-02 1.622260e-01 2.120408e-01 5.000000e-02
<GCONST> 1.763404e+01
<MIXTURE> 4 4.877702e-01
<MEAN> 39
 -6.305727e-01 -2.418559e+01 -1.007351e+01 5.887818e-02 -3.477740e+00 -6.528736e+00 5.574308e+00 1.107858e+00 -1.086616e+00 -9.446758e+00 -1.688036e+00 1.311419e+00 3.412451e-01 -5.039606e-01 3.233934e-01 3.857461e-02 -9.995960e-03 4.553195e-01 1.147316e-01 -7.725117e-02 -2.514081e-02 -4.228151e-01 -1.405855e-01 1.895327e-01 -9.876040e-02 -2.426777e-02 8.624159e-02 2.262962e-01 2.312060e-01 1.692378e-01 1.284919e-01 4.497862e-02 -1.488014e-01 -3.701112e-01 1.326118e-01 7.955773e-02 7.688954e-03 -9.941372e-02 8.281085e-04
<VARIANCE> 39
 2.872115e+00 4.040139e+00 3.974637e+00 5.261590e+00 1.162962e+01 7.230132e+00 5.079625e+00 6.301785e+00 1.288215e+01 4.103488e+00 1.059587e+01 6.792686e+00 5.000000e-02 3.418769e-01 6.978044e-01 6.437782e-01 6.079317e-01 5.028998e-01 5.699025e-01 1.258142e+00 1.658799e+00 1.223206e+00 3.386892e-01 1.219918e+00 9.572243e-01 5.000000e-02 5.000000e-02 5.000000e-02 5.473097e-02 1.667825e-01 6.826639e-02 1.068231e-01 1.418476e-01 1.801032e-01 3.302112e-01 1.600979e-01 2.552237e-01 2.050129e-01 5.000000e-02
<GCONST> 5.554601e+01
<STATE> 8
<NUMMIXES> 4
<MIXTURE> 1 4.477350e-01
<MEAN> 39
 -5.203647e+00 -1.353112e+01 -3.273881e+00 -5.492342e-01 3.206758e+00 -4.329030e+00 2.360116e+00 -6.522195e-01 -1.021710e-01 -5.328191e+00 1.177445e+00 -6.723402e-02 7.009033e-02 -6.603693e-01 1.411691e+00 6.354467e-01 -7.387756e-01 -2.022536e-01 6.517118e-02 -3.711077e-01 -4.908327e-03 2.296064e-01 4.726281e-01 -2.837953e-01 -2.154470e-01 -4.073871e-02 1.157705e-01 -4.159640e-01 -1.683330e-01 1.800597e-01 -1.922070e-01 -2.472967e-01 -1.060143e-01 -1.261609e-01 -6.558721e-02 -1.818972e-01 -1.299770e-01 1.350884e-01 8.121914e-03
<VARIANCE> 39
 2.587129e+00 2.935324e+00 4.995703e+00 2.698925e+00 3.819698e+00 9.591863e+00 6.455287e+00 4.970624e+00 1.493152e+01 5.972994e+00 8.248875e+00 1.057556e+01 5.000000e-02 1.980408e-01 8.421157e-01 3.247682e-01 5.731822e-01 7.204029e-01 8.851339e-01 7.629910e-01 4.818415e-01 1.056878e+00 8.645956e-01 1.101794e+00 9.335501e-01 5.000000e-02 5.000000e-02 1.085851e-01 7.614025e-02 8.742412e-02 1.533650e-01 1.669450e-01 1.509907e-01 1.826149e-01 2.168675e-01 1.108116e-01 2.482071e-01 2.714963e-01 5.000000e-02
<GCONST> 5.445301e+01
<MIXTURE> 2 1.316893e-01
<MEAN> 39
 -1.642906e+00 -1.701802e+01 -5.883776e+00 1.034220e+00 -1.609215e+00 -6.886139e+00 4.829193e+00 2.494993e+00 2.880996e+00 -5.630543e+00 7.473521e-01 -1.320791e+00 1.910997e-01 -1.770874e-01 7.052187e-01 4.419630e-01 -6.071993e-01 2.891359e-01 4.813584e-01 -4.390675e-01 -3.683906e-01 -2.046246e-01 2.710516e-01 -1.041797e+00 -1.233517e+00 -1.926933e-02 -1.730310e-01 -1.021231e-01 -2.114681e-01 -3.346436e-02 2.637919e-01 2.182668e-01 5.883167e-03 -2.196292e-01 -3.299090e-01 -3.123747e-01 -7.135881e-02 4.393512e-01 -2.533477e-03
<VARIANCE> 39
 7.007881e+00 6.439423e+00 6.168142e+00 1.241769e+01 6.524872e+00 1.495307e+00 7.737824e+00 8.390203e+00 5.805889e+00 5.478028e+00 1.362082e+00 2.739155e+00 5.000000e-02 3.097922e-01 1.022717e+00 3.568331e-01 5.000000e-02 8.641695e-01 2.119520e+00 1.787249e+00 1.298396e+00 2.978685e-01 5.584841e-01 2.584673e-01 5.401724e-01 5.000000e-02 1.083690e-01 7.763984e-02 7.148758e-02 2.060802e-01 1.170426e-01 5.000000e-02 1.091631e-01 1.548541e-01 5.000000e-02 5.000000e-02 5.783050e-02 2.002666e-01 5.000000e-02
<GCONST> 4.590778e+01
<MIXTURE> 3 1.843392e-01
<MEAN> 39
 -2.748592e+00 -2.280763e+01 -7.113520e+00 1.452529e+00 1.467678e+00 -7.468080e+00 7.171993e-01 -2.565126e+00 -2.470380e+00 -9.228744e+00 -6.399980e-01 2.353369e+00 2.568882e-01 -5.559603e-01 1.432032e+00 1.075792e+00 5.855262e-01 8.622848e-01 9.106901e-02 -4.136438e-01 -6.113583e-01 2.641082e-01 1.034551e+00 1.079805e+00 4.825894e-01 -3.668153e-02 -8.593350e-02 5.072844e-01 2.129298e-01 -9.999586e-02 1.447990e-02 2.124703e-01 5.262017e-01 3.863020e-01 1.105765e-01 3.469020e-01 1.035927e-01 -3.880522e-01 -9.873196e-03
<VARIANCE> 39
 2.242542e+00 9.247100e-01 4.869765e+00 3.618652e+00 6.786249e+00 1.060519e+01 3.475131e+00 8.527841e+00 1.982814e+01 1.008306e+01 3.203227e+00 5.387344e+00 5.000000e-02 3.483453e-01 1.063930e+00 6.807778e-01 6.785313e-01 7.114673e-01 2.699449e-01 8.543204e-01 1.232898e+00 7.861550e-01 3.058201e-01 3.400538e-01 1.847595e+00 5.000000e-02 6.985908e-02 1.366313e-01 7.542524e-02 7.481292e-02 5.000000e-02 1.084567e-01 1.322733e-01 2.373019e-01 1.580005e-01 1.574800e-01 2.039917e-01 3.183121e-01 5.000000e-02
<GCONST> 5.191117e+01
<MIXTURE> 4 2.362364e-01
<MEAN> 39
 -2.053501e+00 -1.943187e+01 -6.208293e+00 3.780587e+00 7.722417e-01 -5.554940e+00 3.378493e+00 -3.667387e+00 -1.170496e+00 -8.786967e+00 5.447299e-01 1.343842e+00 2.219962e-01 -3.231654e-01 1.103212e+00 7.275549e-01 -1.041873e-01 5.783750e-01 2.176960e-01 1.974358e-02 3.632766e-01 6.869687e-01 5.640524e-01 7.379054e-01 9.993917e-03 -1.819792e-02 -7.876541e-02 1.555384e-01 1.342792e-03 -5.072581e-01 -1.564910e-01 1.667611e-01 1.293830e-01 2.511949e-01 1.458509e-01 1.159602e-01 -2.974465e-01 -1.975001e-01 -2.676616e-03
<VARIANCE> 39
 2.721165e+00 2.059411e+00 2.677948e+00 4.281211e+00 1.093857e+01 8.162468e+00 7.862556e+00 7.937998e+00 8.792046e+00 5.957646e+00 4.064146e+00 7.046262e+00 5.000000e-02 4.759811e-01 4.329250e-01 4.266373e-01 1.351889e+00 6.508977e-01 9.448268e-01 8.567451e-01 1.244218e+00 5.436431e-01 7.135237e-01 3.974577e-01 1.260938e+00 5.000000e-02 7.121277e-02 8.315280e-02 9.464309e-02 1.061389e-01 1.333069e-01 1.750925e-01 6.199532e-02 1.516418e-01 5.258878e-02 1.697221e-01 1.203241e-01 2.456661e-01 5.000000e-02
<GCONST> 5.220720e+01
<TRANSP> 9
 0.000000e+00 1.000000e+00 0.000000e+00 0.000000e+00 0.000000e+00 0.000000e+00 0.000000e+00 0.000000e+00 0.000000e+00
 0.000000e+00 8.863634e-01 1.136366e-01 0.000000e+00 0.000000e+00 0.000000e+00 0.000000e+00 0.000000e+00 0.000000e+00
 0.000000e+00 0.000000e+00 8.648590e-01 1.351409e-01 0.000000e+00 0.000000e+00 0.000000e+00 0.000000e+00 0.000000e+00
 0.000000e+00 0.000000e+00 0.000000e+00 8.958892e-01 1.041108e-01 0.000000e+00 0.000000e+00 0.000000e+00 0.000000e+00
 0.000000e+00 0.000000e+00 0.000000e+00 0.000000e+00 8.779768e-01 1.220233e-01 0.000000e+00 0.000000e+00 0.000000e+00
 0.000000e+00 0.000000e+00 0.000000e+00 0.000000e+00 0.000000e+00 8.863634e-01 1.136366e-01 0.000000e+00 0.000000e+00
 0.000000e+00 0.000000e+00 0.000000e+00 0.000000e+00 0.000000e+00 0.000000e+00 8.719252e-01 1.280748e-01 0.000000e+00
 0.000000e+00 0.000000e+00 0.000000e+00 0.000000e+00 0.000000e+00 0.000000e+00 0.000000e+00 8.682837e-01 1.317163e-01
 0.000000e+00 0.000000e+00 0.000000e+00 0.000000e+00 0.000000e+00 0.000000e+00 0.000000e+00 0.000000e+00 0.000000e+00
<ENDHMM>
