~o
<STREAMINFO> 1 26
<VECSIZE> 26<NULLD><MFCC_E_D><DIAGC>
~h "Lawp"
<BEGINHMM>
<NUMSTATES> 38
<STATE> 2
<MEAN> 26
 -7.064322e+00 -9.465743e+00 -2.551714e+00 -1.176231e+00 8.679488e-01 -4.396220e+00 1.162633e+00 -2.355755e+00 2.315002e+00 -1.702147e+00 2.301165e+00 8.794076e-01 -7.418256e-02 -2.706252e-01 -2.030300e-01 -4.950544e-01 -2.884104e-01 -4.902645e-01 -3.266160e-01 -2.292677e-01 4.569715e-01 6.692455e-01 8.585662e-02 -1.600998e-01 -9.947707e-02 -7.355789e-04
<VARIANCE> 26
 7.542174e-01 2.815940e+00 8.262262e+00 6.425363e+00 2.669325e+00 5.785581e+00 7.030976e+00 5.628326e+00 7.389862e+00 5.785713e+00 3.302328e+00 1.168614e+01 5.000000e-02 3.681132e-01 2.140981e-01 5.425668e-01 4.127483e-01 1.417687e+00 4.250913e-01 2.490884e+00 1.915598e+00 9.982157e-01 1.690845e+00 2.015522e+00 1.168460e+00 5.000000e-02
<GCONST> 5.874158e+01
<STATE> 3
<MEAN> 26
 -7.894660e+00 -1.060540e+01 -2.343743e+00 -1.618657e+00 -1.910004e-01 -4.180768e+00 9.535922e-01 -8.165351e-01 2.078424e+00 -2.179311e+00 1.739335e+00 -6.318113e-01 -1.138299e-01 2.004401e+00 -5.939015e-02 -1.804388e+00 -1.016265e+00 -1.987911e+00 -2.203276e+00 -7.318768e-01 1.214431e+00 6.071306e-01 -1.695871e+00 -8.176795e-01 -8.056750e-01 9.828406e-02
<VARIANCE> 26
 1.114597e+00 1.144576e+00 6.987159e-01 8.379886e+00 1.248073e+01 3.366082e+00 6.188975e+00 1.086937e+01 1.167417e+01 5.883013e+00 1.801776e+01 8.117672e+00 5.000000e-02 9.711366e-01 5.135114e-01 1.076411e+00 1.081166e+00 7.418025e-01 1.021438e+00 9.549809e-01 6.448305e-01 1.285416e+00 1.289101e+00 3.445091e-01 1.406609e+00 5.000000e-02
<GCONST> 5.943987e+01
<STATE> 4
<MEAN> 26
 -2.912244e+00 -7.929447e+00 -7.026059e+00 -4.077864e+00 -6.260455e+00 -1.229986e+01 -1.751984e-01 7.054197e-01 5.743781e+00 -8.253804e+00 1.113720e+00 -3.895993e+00 1.742881e-01 2.932054e+00 -4.063100e-01 -3.342624e+00 -6.652001e-01 -3.182721e+00 -4.536502e+00 -6.656534e-01 3.509135e-02 1.416728e+00 -2.427682e+00 -6.752836e-01 -9.844056e-01 1.891637e-01
<VARIANCE> 26
 6.567513e+00 1.674494e+00 2.222002e+01 8.801375e+00 6.593042e+00 4.916183e+01 4.630411e+00 5.391978e+00 2.072386e+01 9.689791e+00 4.535546e+00 5.058857e+00 5.000000e-02 2.140064e+00 1.020076e+00 8.856556e-01 9.736118e-01 1.747194e+00 7.074202e-01 9.145712e-01 3.588096e+00 1.652982e+00 1.339057e+00 2.057597e+00 1.378186e+00 5.000000e-02
<GCONST> 7.077062e+01
<STATE> 5
<MEAN> 26
 5.053690e+00 -1.276861e+01 -1.395759e+01 -4.749660e+00 -9.230132e+00 -1.870358e+01 -1.943070e+00 1.577544e+00 6.038295e+00 -8.800929e+00 3.494043e-02 -2.305075e+00 5.226454e-01 2.273205e+00 -1.052814e+00 -3.086597e+00 8.130460e-02 -2.161661e+00 -3.210597e+00 -8.277218e-01 -1.282971e+00 6.911664e-01 -8.940486e-01 3.391642e-01 3.033380e-01 1.498833e-01
<VARIANCE> 26
 1.348207e+01 7.817945e+00 7.364484e+00 6.664776e+00 7.129509e+00 1.591636e+01 5.273779e+00 3.839835e+01 9.032926e+00 1.733916e+01 2.579144e+01 2.514531e+01 5.000000e-02 2.829328e+00 3.967666e-01 1.219952e+00 1.358594e+00 4.123956e-01 2.305418e+00 2.216853e+00 5.403604e+00 8.539900e-01 1.374447e+00 2.142997e+00 3.267750e+00 5.000000e-02
<GCONST> 7.707560e+01
<STATE> 6
<MEAN> 26
 4.052234e+00 -1.246594e+01 -1.661277e+01 -4.095806e+00 -1.265781e+01 -2.252310e+01 -2.997882e+00 -5.183363e+00 7.647333e+00 -9.523310e+00 1.345161e+00 -2.047179e+00 6.810915e-01 -9.529168e-01 -1.359240e+00 -2.098067e+00 2.955507e-01 -2.879860e-01 1.303607e+00 1.690705e+00 -1.186080e+00 5.056815e-01 9.092020e-02 -3.208192e-01 1.350837e+00 7.460139e-02
<VARIANCE> 26
 2.702562e+01 1.076576e+01 1.006817e+01 4.822177e+00 1.603982e+00 1.679698e+01 1.639015e+01 5.004796e+01 1.735263e+01 1.821510e+01 2.646034e+01 4.276951e+01 5.000000e-02 3.898030e-01 3.223106e+00 9.074135e-01 1.585378e+00 1.814952e+00 8.002305e+00 2.487991e+00 2.195774e+00 3.698176e+00 1.011361e+00 4.397869e+00 1.449146e+00 5.000000e-02
<GCONST> 8.227684e+01
<STATE> 7
<MEAN> 26
 3.017108e+00 -1.531182e+01 -1.981606e+01 -3.600009e+00 -1.375147e+01 -1.811809e+01 -1.067165e+00 -5.956040e+00 8.136723e+00 -1.007267e+01 4.923273e-01 -6.569532e-01 7.503616e-01 -2.467837e+00 -1.668864e+00 -2.908839e+00 6.815257e-01 1.652700e+00 3.470956e+00 4.049125e+00 -1.484479e-01 -3.676350e-01 -3.510458e-02 -2.499583e+00 2.351238e+00 6.619269e-02
<VARIANCE> 26
 1.821437e+01 1.979577e+01 1.508177e+01 7.427469e+00 5.382845e+00 2.653045e+01 2.450522e+01 2.227235e+01 1.766049e+01 3.506665e+01 4.592906e+01 3.069909e+01 5.000000e-02 2.871165e-01 1.723938e+00 1.470456e+00 2.575476e-01 3.676782e+00 6.293686e+00 2.028643e+00 1.278946e+00 6.356490e+00 1.723921e+00 1.508564e+00 8.266360e+00 5.000000e-02
<GCONST> 8.468153e+01
<STATE> 8
<MEAN> 26
 -1.516088e+00 -1.631114e+01 -2.507020e+01 -2.549112e+00 -8.122035e+00 -1.435328e+01 8.317578e+00 -1.474706e+00 7.023758e+00 -8.661403e+00 -4.311863e+00 3.444119e+00 8.250420e-01 -2.907535e+00 -2.060798e+00 -2.645603e+00 8.928992e-01 3.054972e+00 3.717553e+00 3.941746e+00 -2.157079e-01 -1.917979e+00 -6.949124e-01 -3.342089e+00 2.196591e+00 6.462575e-02
<VARIANCE> 26
 8.183125e+00 7.738699e+00 8.418878e+00 4.432587e+00 2.978374e+01 9.570726e+01 3.600998e+01 1.180568e+01 6.318280e+01 1.884458e+01 7.587901e+00 5.597816e+00 5.000000e-02 5.000000e-02 1.261398e+00 3.283077e+00 2.939393e-01 5.133486e-01 3.635050e+00 3.653890e+00 8.846326e-01 2.573392e+00 2.515374e+00 4.931173e+00 6.860315e+00 5.000000e-02
<GCONST> 7.878683e+01
<STATE> 9
<MEAN> 26
 -4.952576e+00 -2.028784e+01 -2.557340e+01 -1.091764e+00 -4.565659e+00 -5.457930e+00 1.131227e+01 -3.367760e+00 3.339550e+00 -1.090454e+01 -8.317892e+00 8.854547e+00 9.214351e-01 -1.873541e+00 -2.153897e+00 -2.616498e-01 8.614708e-01 3.844357e+00 3.144917e+00 1.621762e+00 -7.124127e-01 -2.352980e+00 5.426494e-01 -1.227176e+00 1.597085e+00 5.087119e-02
<VARIANCE> 26
 1.087964e+01 3.806744e+00 2.129688e+01 2.403740e+00 3.270366e+01 5.945202e+01 3.513179e+01 2.113971e+01 6.662414e+01 3.764038e+00 1.551966e+01 2.420279e+01 5.000000e-02 2.145976e-01 6.352000e-01 1.273545e+00 6.142460e-01 1.104581e+00 1.482891e+00 1.708912e+00 8.601707e-01 2.642447e+00 2.464423e+00 3.512905e+00 1.430121e+00 5.000000e-02
<GCONST> 7.721684e+01
<STATE> 10
<MEAN> 26
 -7.668637e+00 -2.365487e+01 -2.408861e+01 -1.529412e+00 6.753645e-01 -5.603689e+00 8.472522e+00 -9.704370e+00 2.385217e+00 -9.798955e+00 -6.892308e+00 4.222249e+00 9.523007e-01 -2.577874e-01 -6.951777e-01 4.555894e-01 6.337180e-01 2.847897e+00 1.502936e+00 -8.171077e-01 -1.895774e+00 5.699008e-02 1.098356e+00 3.031605e-03 -6.369276e-01 2.766989e-02
<VARIANCE> 26
 9.264205e+00 5.344666e+00 2.344724e+01 5.596915e+00 7.881270e+00 4.510106e+01 4.327734e+01 2.317238e+01 3.176352e+01 3.677034e+00 2.340923e+01 1.072813e+01 5.000000e-02 4.229483e-01 9.336871e-01 2.952522e-01 7.050306e-01 4.064027e-01 5.538033e-01 9.841424e-01 3.759889e-01 2.360121e+00 9.819770e-01 4.520223e-01 2.083291e+00 5.000000e-02
<GCONST> 6.943932e+01
<STATE> 11
<MEAN> 26
 -3.990785e+00 -2.164114e+01 -2.600253e+01 2.937728e+00 5.192722e+00 -6.057946e+00 9.334022e+00 -8.283935e+00 2.200964e+00 -6.813610e+00 -7.600479e+00 4.671301e+00 9.818702e-01 8.173086e-02 -3.518892e-01 6.383885e-01 5.600921e-01 1.496570e+00 2.049414e+00 -1.677585e+00 -5.564082e-01 4.236719e-01 1.594305e+00 3.988671e-01 -1.164934e+00 7.962795e-03
<VARIANCE> 26
 6.606837e+00 2.875866e+00 2.568102e+01 9.292908e+00 7.794355e+00 3.968928e+01 1.726134e+01 1.745973e+01 1.071894e+01 8.405941e+00 1.619190e+01 1.604765e+01 5.000000e-02 1.346072e-01 1.516978e-01 5.021170e-01 5.618132e-01 3.773359e-01 8.019675e-01 2.387139e-01 6.490570e-01 1.465284e+00 5.087788e-01 1.033750e+00 7.130470e-01 5.000000e-02
<GCONST> 6.290117e+01
<STATE> 12
<MEAN> 26
 -5.863227e+00 -2.360985e+01 -2.164693e+01 -5.271698e-01 6.650783e+00 1.327293e+00 5.080898e+00 -1.093797e+01 4.741264e+00 -3.749538e+00 -6.442729e+00 2.864176e+00 9.894964e-01 -4.223054e-03 -3.240885e-01 1.062792e-01 -1.068826e+00 5.691563e-01 6.563197e-01 -1.411408e-01 6.176891e-01 -7.828994e-02 1.528052e+00 -2.813879e-01 -3.706093e-01 4.327428e-05
<VARIANCE> 26
 6.469244e+00 2.837139e+00 2.552011e+01 1.731240e+01 1.318909e+01 1.096532e+01 8.551954e+00 2.241053e+01 5.225182e+00 4.519781e+00 6.144444e+00 3.263166e+00 5.000000e-02 2.367926e-01 4.180964e-01 7.920619e-01 4.168679e-01 5.510877e-01 1.493049e+00 1.459027e+00 5.290269e-01 5.844769e-01 6.250576e-01 6.138849e-01 1.293877e+00 5.000000e-02
<GCONST> 6.207215e+01
<STATE> 13
<MEAN> 26
 -6.304144e+00 -2.299361e+01 -2.351011e+01 -1.045181e+00 5.087219e+00 1.055454e+00 4.440102e+00 -7.085523e+00 2.615156e+00 -1.466279e+00 -6.697773e+00 3.979895e+00 9.897460e-01 3.219353e-01 -4.075730e-01 2.770454e-01 -1.612034e+00 -6.048658e-02 -9.183662e-02 -2.454150e-01 9.038859e-01 1.466993e-01 1.030675e+00 -5.046120e-01 -8.022442e-01 -8.731705e-03
<VARIANCE> 26
 7.978206e+00 9.317490e+00 1.664061e+01 1.817838e+01 2.352482e+01 2.104814e+01 1.716833e+01 2.502002e+01 2.056163e+01 1.089279e+00 9.088493e+00 1.929040e+01 5.000000e-02 5.977333e-02 4.156311e-01 1.120958e+00 6.161231e-01 1.461541e+00 1.769041e+00 8.887611e-01 3.449756e-01 2.924490e-01 1.508243e+00 6.606220e-01 6.932835e-01 5.000000e-02
<GCONST> 6.646022e+01
<STATE> 14
<MEAN> 26
 -4.558629e+00 -2.397663e+01 -2.272166e+01 -2.885954e+00 7.063735e+00 -1.302137e+00 7.094323e+00 -6.138013e+00 2.788713e+00 -1.887574e+00 -9.360949e+00 1.899301e-01 9.756414e-01 8.635550e-01 -7.057324e-01 8.903944e-01 -2.218083e+00 -5.074847e-01 -6.869953e-01 -4.874895e-01 4.028363e-01 8.950372e-01 2.827439e-01 -4.310646e-01 -2.625909e+00 -2.928563e-02
<VARIANCE> 26
 1.155820e+01 2.928748e+00 7.308262e+00 1.921772e+01 2.425182e+01 2.093974e+01 1.490352e+01 1.720641e+01 1.909956e+01 3.284105e+00 7.102669e+00 2.280207e+01 5.000000e-02 3.201474e-01 4.617273e-01 5.925432e-01 2.406924e+00 6.279461e-01 1.729187e+00 3.834760e-01 3.906159e-01 1.902871e+00 1.198533e+00 1.089839e+00 8.881347e-01 5.000000e-02
<GCONST> 6.868221e+01
<STATE> 15
<MEAN> 26
 -3.171081e+00 -2.609841e+01 -2.221258e+01 -6.872680e+00 2.375699e+00 7.561743e-01 1.714801e+00 -5.147901e+00 3.628292e+00 5.041338e-01 -1.035041e+01 -3.238428e+00 9.408257e-01 2.012590e+00 -1.152885e-01 1.911208e+00 -9.974944e-01 -2.027580e+00 -3.033108e-01 -1.125023e+00 7.858097e-02 6.644638e-01 -1.960616e-01 8.130964e-02 -2.191828e+00 -6.766314e-02
<VARIANCE> 26
 2.773720e+00 9.772713e+00 1.347432e+01 2.583653e+01 3.809216e+01 4.727077e+01 3.285195e+01 2.994506e+01 1.035287e+01 4.172186e+00 2.261836e+01 2.761298e+01 5.000000e-02 1.605019e-01 5.656077e-01 1.429811e+00 2.139059e+00 9.254393e-01 1.657912e+00 6.237152e-01 2.104021e+00 1.031741e+00 3.379868e+00 1.588030e+00 2.487835e+00 5.000000e-02
<GCONST> 7.757717e+01
<STATE> 16
<MEAN> 26
 6.353113e-01 -2.385318e+01 -1.640932e+01 -8.020111e+00 1.280281e+00 -3.303324e+00 3.507987e+00 -7.713163e+00 9.202208e+00 -1.888258e+00 -7.005215e+00 -7.499079e+00 7.359341e-01 2.065647e+00 -9.230494e-01 2.073955e+00 1.952394e+00 -1.775545e+00 -1.025153e-01 -1.115686e+00 2.981587e-01 -2.594263e-01 -9.349997e-01 8.730451e-01 1.218922e+00 -1.123361e-01
<VARIANCE> 26
 6.675449e+00 1.131372e+01 1.865310e+01 7.337532e+00 2.763424e+01 3.893408e+01 2.197067e+01 3.322925e+01 2.620383e+01 4.056755e+01 2.825363e+01 3.803432e+01 5.000000e-02 2.760258e-01 9.410267e-01 1.455325e+00 1.136226e+00 2.519424e+00 4.672275e+00 6.686229e-01 2.234542e+00 1.395846e+00 8.265812e-01 2.510599e+00 6.863452e-01 5.000000e-02
<GCONST> 8.126873e+01
<STATE> 17
<MEAN> 26
 4.100510e+00 -2.622885e+01 -1.254482e+01 -1.777195e+00 -3.012598e+00 -1.644949e+00 6.601986e-01 -5.825850e+00 2.845290e+00 -4.455982e+00 -5.851728e+00 2.489649e-01 5.618973e-01 9.491831e-01 -7.284535e-01 9.329397e-01 1.659703e+00 -5.227244e-01 3.537077e-01 -4.106759e-01 1.239266e+00 -7.572397e-01 -1.033084e-01 7.656654e-01 2.134032e+00 -8.125181e-02
<VARIANCE> 26
 2.213062e+00 1.873821e+00 2.779438e+00 4.585822e+00 8.845247e+00 2.723606e+00 6.013147e+00 1.402813e+01 8.019214e+00 3.336822e+01 1.276181e+01 6.763168e+00 5.000000e-02 2.140986e-01 4.523530e-01 6.947448e-01 2.114836e+00 1.169585e+00 3.832947e+00 7.168525e-01 2.525227e+00 1.742614e+00 7.553001e-01 2.785531e+00 1.692428e+00 5.000000e-02
<GCONST> 6.539438e+01
<STATE> 18
<MEAN> 26
 3.493200e+00 -2.854708e+01 -1.596367e+01 8.121178e-02 1.544736e+00 -1.649837e+00 1.884035e+00 -4.005194e+00 3.808941e+00 -2.827060e+00 -3.984280e+00 2.634048e-02 5.118043e-01 -1.441074e-01 -5.163272e-01 -9.621119e-01 7.753296e-01 8.427752e-01 -7.124286e-01 3.013931e-01 7.619393e-01 3.321728e-01 4.347216e-01 1.664198e+00 1.456335e+00 -4.805433e-02
<VARIANCE> 26
 1.042044e+00 1.615076e+00 1.894847e+01 8.865621e+00 1.289289e+00 6.271958e+00 1.244328e+01 3.142147e+01 4.493513e+00 5.756352e+00 1.141739e+01 2.168129e+00 5.000000e-02 1.671804e-01 5.088944e-01 1.484581e+00 1.441867e+00 1.605688e+00 5.764171e-01 2.125452e-01 4.235486e+00 4.760289e-01 4.597674e+00 2.727712e+00 1.969779e+00 5.000000e-02
<GCONST> 6.253767e+01
<STATE> 19
<MEAN> 26
 2.954124e+00 -2.751627e+01 -1.856062e+01 -2.040128e+00 -7.144762e-02 -2.926456e+00 1.995998e+00 -5.453583e-02 5.411184e+00 -1.369172e+00 -4.140907e+00 1.554468e+00 4.748383e-01 -2.212420e-01 6.969094e-01 -1.073908e-01 -8.145815e-01 1.693257e-01 4.502713e-01 3.413313e-01 -2.298534e-01 -1.968401e-01 -5.375674e-01 -4.125100e-01 -1.406899e-02 -2.129803e-02
<VARIANCE> 26
 2.730281e+00 1.776323e+00 9.350276e+00 4.063667e+00 1.676753e+01 4.977144e+00 4.442896e+00 2.393764e+01 1.596250e+01 2.420403e+00 2.013680e+01 7.701959e+00 5.000000e-02 5.000000e-02 3.677242e-01 5.168650e-01 1.424668e-01 7.909911e-01 4.947145e-01 7.977976e-01 1.336753e+00 3.418361e-01 1.437085e+00 4.409028e-01 5.525208e-01 5.000000e-02
<GCONST> 5.519736e+01
<STATE> 20
<MEAN> 26
 2.663759e+00 -2.581527e+01 -1.448595e+01 -1.569645e+00 7.516229e-01 -1.274580e+00 2.851877e+00 -4.248075e+00 2.904124e+00 -4.754940e+00 -4.718283e+00 7.721525e-01 4.428617e-01 -5.535512e-02 6.880802e-01 -1.281986e-01 3.307766e-01 9.494411e-01 5.873745e-02 7.056602e-01 5.971614e-01 -1.194845e+00 -6.180082e-01 3.009123e-01 4.585189e-01 -1.308181e-02
<VARIANCE> 26
 5.312930e-01 2.284325e+00 8.596697e+00 1.280696e+00 1.125781e+01 1.791484e+00 9.462318e+00 2.373654e+01 5.897367e+00 1.582829e+01 1.271902e+01 1.954701e+01 5.000000e-02 7.111572e-02 1.717387e-01 5.815951e-01 1.156152e+00 1.820946e+00 7.657320e-01 5.443110e-01 2.407179e+00 1.625087e+00 3.347183e-01 3.024073e-01 8.235944e-01 5.000000e-02
<GCONST> 5.665799e+01
<STATE> 21
<MEAN> 26
 2.982842e+00 -2.503160e+01 -1.686527e+01 -3.313820e+00 1.538513e+00 -1.015263e+00 3.186167e+00 -2.749518e+00 2.397356e+00 -3.505615e+00 -3.513928e+00 2.182574e+00 4.578850e-01 2.451678e-02 3.805341e-01 1.397645e-01 4.532372e-01 9.181811e-01 -1.572026e-01 8.246966e-01 1.130263e+00 -3.097014e-01 -1.662447e-01 -9.553660e-02 -6.933151e-01 -1.190681e-02
<VARIANCE> 26
 6.844034e-01 1.186462e+00 2.221342e+01 6.955921e+00 8.803094e+00 7.327467e+00 3.450803e+00 1.536954e+01 6.833935e+00 5.351707e+00 5.453934e+00 2.799735e+00 5.000000e-02 2.599037e-01 1.206148e+00 1.593498e+00 3.255289e-01 1.330964e+00 5.754818e-01 2.368631e-01 1.275786e+00 4.545375e-01 7.070067e-01 9.669618e-01 2.455883e+00 5.000000e-02
<GCONST> 5.753826e+01
<STATE> 22
<MEAN> 26
 2.340501e+00 -2.516413e+01 -1.607463e+01 3.155490e-01 5.116508e+00 -2.132468e+00 4.524499e+00 -2.098950e+00 2.183737e+00 -4.606153e+00 -4.382764e+00 1.174662e-02 4.055586e-01 -6.326049e-03 6.346699e-01 4.742602e-01 5.213827e-01 4.925839e-01 -4.869936e-02 -2.715920e-01 2.489884e-02 -2.981662e-01 -7.347126e-02 2.268437e-01 -2.948174e-01 -1.362046e-02
<VARIANCE> 26
 3.492908e+00 1.382887e+01 2.624109e+01 7.452903e+00 6.591116e+00 3.263506e+00 2.948601e+00 1.491836e+01 3.199280e+00 3.212156e+00 8.381730e+00 1.589960e+01 5.000000e-02 3.323818e-01 8.784752e-01 2.384350e+00 2.283758e+00 5.765032e-01 9.623399e-01 6.280770e-01 1.258187e+00 8.840599e-01 9.779634e-01 6.105174e-01 2.728316e-01 5.000000e-02
<GCONST> 6.272268e+01
<STATE> 23
<MEAN> 26
 2.031009e+00 -2.449257e+01 -1.590752e+01 -9.808374e-01 3.564502e+00 -2.153080e+00 4.105353e+00 1.394036e+00 2.239154e+00 -4.203381e+00 -3.543291e+00 6.841490e-01 3.864487e-01 -3.628049e-02 6.232970e-01 5.437508e-01 1.025346e+00 5.290061e-01 -6.655534e-01 -7.298638e-01 -1.008537e-01 -7.975501e-01 -1.023914e+00 2.176520e-01 -3.237725e-01 -1.722230e-02
<VARIANCE> 26
 2.719852e+00 4.441624e+00 1.263650e+01 8.603072e+00 1.687238e+01 1.052273e+01 9.686021e+00 6.333499e+00 3.775252e+00 6.846679e+00 5.196555e+00 7.516507e+00 5.000000e-02 1.414340e-01 2.817228e-01 5.012525e-01 5.888894e-01 5.447164e-01 3.870216e-01 1.184446e+00 2.389684e+00 1.247364e+00 8.997852e-01 1.980648e-01 4.259753e-01 5.000000e-02
<GCONST> 5.787039e+01
<STATE> 24
<MEAN> 26
 2.793744e+00 -2.268522e+01 -1.409859e+01 1.721274e+00 4.166571e+00 -3.782645e+00 1.097659e+00 -4.014019e+00 -2.158509e+00 -7.967358e+00 -2.833819e+00 -3.002314e-01 3.914379e-01 -1.175492e-01 6.406867e-01 5.182769e-01 5.876038e-01 3.205755e-01 -5.048718e-01 -5.450174e-01 -1.560459e-01 -2.141530e-02 -1.633445e-01 9.808517e-01 3.572822e-02 -1.399863e-02
<VARIANCE> 26
 2.439214e+00 4.100596e+00 1.798186e+01 4.552576e+00 2.034676e+00 8.281737e+00 1.215860e+01 1.160748e+01 1.579660e+01 1.017323e+01 1.032496e+01 7.120421e+00 5.000000e-02 3.712061e-01 9.629638e-01 3.047984e+00 8.292707e-01 1.443273e+00 8.919295e-01 1.111894e+00 3.580843e-01 2.611530e-01 1.063336e+00 9.290996e-01 1.043914e+00 5.000000e-02
<GCONST> 6.357071e+01
<STATE> 25
<MEAN> 26
 3.217380e+00 -2.102407e+01 -1.254275e+01 3.784639e+00 6.017703e+00 -3.644577e+00 2.012217e+00 -1.017302e-01 2.956952e+00 -4.950773e+00 -1.913731e+00 -1.440981e+00 3.592201e-01 -3.664981e-01 4.030803e-01 2.075140e-01 -4.158560e-01 6.378564e-01 1.676309e-01 -2.405204e-01 1.612724e-01 7.850620e-01 5.117289e-01 4.120312e-01 -2.951029e-01 -2.213832e-02
<VARIANCE> 26
 5.173406e+00 6.564217e+00 1.071610e+01 9.343863e+00 3.544102e+00 3.204337e+00 1.572753e+01 5.349230e+00 5.742405e+00 2.761416e+00 1.158319e+01 2.546520e+00 5.000000e-02 6.632107e-02 3.667694e-01 2.003222e+00 9.996864e-01 4.521562e-01 8.697910e-01 2.522518e+00 2.283067e+00 6.916720e-01 4.321367e-01 5.662314e-01 3.212750e-01 5.000000e-02
<GCONST> 5.781889e+01
<STATE> 26
<MEAN> 26
 1.449149e+00 -2.133590e+01 -1.333603e+01 2.034675e-01 6.348548e+00 -2.398829e+00 1.770425e+00 -2.394496e+00 1.331473e+00 -3.818441e+00 -3.093777e-01 -2.889940e-01 3.198868e-01 -5.690536e-01 6.732962e-01 7.215164e-01 -4.171270e-01 3.204787e-01 1.401961e-01 3.912157e-01 6.221571e-01 -9.495717e-02 1.154994e-01 1.884813e-01 1.653618e-01 -2.981663e-02
<VARIANCE> 26
 4.043844e+00 3.995186e+00 5.482814e+00 4.697389e+00 7.808296e+00 2.469765e+00 1.292053e+01 8.431063e+00 5.674158e+00 1.423156e+00 5.628992e+00 6.812945e+00 5.000000e-02 4.559273e-01 7.191800e-01 1.878904e+00 1.072628e+00 5.570998e-01 1.127663e+00 2.168802e+00 9.827130e-01 7.642289e-01 1.297694e+00 9.737193e-01 7.798951e-01 5.000000e-02
<GCONST> 6.080393e+01
<STATE> 27
<MEAN> 26
 4.893546e-01 -2.070089e+01 -1.283586e+01 3.562997e-01 6.117569e+00 -3.924596e+00 2.931210e+00 1.400588e+00 9.836944e-01 -6.659840e+00 -2.227993e+00 5.351670e-01 2.678305e-01 -3.650739e-01 3.074080e-01 3.301919e-01 -6.593587e-02 -2.425068e-01 -5.940382e-01 4.972337e-03 6.258635e-01 -8.810589e-02 -1.181767e+00 -4.359311e-01 1.294646e-01 -1.907049e-02
<VARIANCE> 26
 2.818513e+00 9.708059e+00 2.138121e+01 5.899295e+00 9.487348e+00 9.916606e+00 1.144341e+01 1.825651e+00 2.494615e+00 1.705553e+01 1.229737e+01 1.163580e+01 5.000000e-02 3.766753e-01 9.648055e-01 3.430827e+00 1.250034e+00 6.143214e-01 1.812448e-01 8.976265e-01 7.448341e-01 3.819290e-01 4.135931e-01 1.211407e+00 6.713983e-01 5.000000e-02
<GCONST> 6.203148e+01
<STATE> 28
<MEAN> 26
 5.583925e-01 -2.008962e+01 -1.157180e+01 7.811025e-01 5.491212e+00 -4.791090e+00 2.497113e+00 2.857204e-01 7.504053e-01 -6.991955e+00 -1.616674e+00 4.829393e-02 2.426491e-01 1.076078e-01 3.798136e-01 -1.008172e-01 -7.468175e-01 1.363817e-01 3.841682e-01 -3.525255e-01 -1.231969e+00 -6.725605e-01 2.876951e-01 2.891700e-01 -2.981873e-01 1.132985e-03
<VARIANCE> 26
 3.949173e+00 4.569285e+00 1.900554e+01 7.793643e+00 6.856143e+00 2.790733e+00 7.450384e+00 1.209622e+01 1.823513e+00 3.367689e+00 1.598731e+01 1.403350e+01 5.000000e-02 1.501717e-01 2.858332e-01 2.523692e+00 1.194685e+00 9.629120e-01 1.243909e+00 2.685971e+00 1.117410e+00 3.986754e-01 5.228283e-01 1.359254e+00 9.980831e-01 5.000000e-02
<GCONST> 6.233680e+01
<STATE> 29
<MEAN> 26
 7.936298e-01 -1.986796e+01 -1.315397e+01 -1.654371e+00 6.589675e+00 -1.597705e+00 1.588251e+00 -3.064328e+00 5.026885e-02 -5.170470e+00 -2.040749e+00 -1.422027e+00 2.953385e-01 -1.063909e-02 1.234847e-01 -5.710599e-01 -6.767983e-01 7.232506e-01 5.497190e-01 -1.141532e+00 -1.605662e+00 -6.370042e-01 1.225522e-01 6.036007e-03 -4.546586e-01 2.377511e-03
<VARIANCE> 26
 1.429141e+00 3.942680e+00 1.889293e+01 7.058295e+00 7.853638e+00 5.728248e+00 6.013338e+00 5.584189e+00 1.004120e+01 2.961760e+00 8.376191e+00 7.495574e+00 5.000000e-02 5.792701e-01 1.066544e+00 7.102665e-01 1.060740e+00 9.218719e-01 1.110201e+00 1.337994e+00 8.534055e-01 1.297217e+00 4.623938e-01 1.126155e+00 5.263062e-01 5.000000e-02
<GCONST> 6.162471e+01
<STATE> 30
<MEAN> 26
 1.130372e+00 -1.892599e+01 -1.199365e+01 -1.377392e+00 8.591341e+00 -1.836218e+00 -8.624863e-01 -5.622781e+00 -2.555940e+00 -5.268239e+00 -2.396194e-01 -1.681369e+00 2.828365e-01 2.163974e-01 4.235884e-01 2.772973e-01 4.856052e-01 9.096677e-01 6.027222e-01 -4.620213e-01 -6.615111e-01 -4.427924e-01 -1.943391e-02 2.829027e-01 2.721959e-01 1.961913e-03
<VARIANCE> 26
 6.336326e+00 1.152196e+01 2.091848e+01 1.197057e+01 1.072977e+01 1.705141e+01 1.418404e+01 4.219224e+00 2.218497e+01 2.294183e+01 1.620278e+01 7.202239e+00 5.000000e-02 1.381267e-01 7.686205e-01 1.965549e+00 1.032598e+00 8.522602e-01 8.145548e-01 4.574782e-01 4.382479e-01 1.558037e+00 1.408345e+00 1.483725e+00 4.048082e-01 5.000000e-02
<GCONST> 6.866914e+01
<STATE> 31
<MEAN> 26
 1.083941e+00 -1.856406e+01 -1.167477e+01 -3.719034e-01 8.033130e+00 -2.162095e+00 -9.819107e-01 -4.321822e+00 1.294391e-01 -5.131514e+00 -1.100572e-01 2.532857e-01 2.692466e-01 -5.310219e-01 7.555745e-01 1.137140e+00 5.590392e-01 -5.057849e-01 -6.138177e-01 -1.718417e-03 3.405904e-01 -3.428251e-01 -2.527547e-01 3.377163e-01 3.359579e-01 -2.875451e-02
<VARIANCE> 26
 5.349142e+00 1.014829e+01 3.017472e+01 8.986744e+00 4.537220e+00 4.895814e+00 1.601927e+00 3.568654e+00 5.842097e+00 7.500000e+00 1.262545e+01 1.254528e+01 5.000000e-02 2.332056e-01 1.181885e+00 3.565823e+00 4.792290e-01 5.580968e-01 1.391133e+00 2.327872e+00 5.317681e-01 1.871979e+00 2.113075e+00 1.536124e-01 6.108433e-01 5.000000e-02
<GCONST> 6.329579e+01
<STATE> 32
<MEAN> 26
 -1.990655e-02 -1.703370e+01 -9.981390e+00 4.931037e-01 6.876960e+00 -2.542859e+00 1.545276e+00 -3.712670e+00 -3.288606e+00 -7.688959e+00 -6.393880e-01 -7.571167e-01 2.137601e-01 -1.846210e+00 7.883951e-01 1.100992e+00 -1.247388e-01 -9.148424e-01 -4.743308e-01 4.566402e-01 6.234809e-01 6.324757e-01 4.523971e-01 -1.976534e-01 -3.847763e-01 -7.258920e-02
<VARIANCE> 26
 3.708280e+00 7.966889e+00 1.097559e+01 3.380477e+00 7.711300e+00 7.915348e+00 1.318087e+01 1.902465e+01 1.640821e+01 1.274255e+01 1.623260e+01 3.484315e+00 5.000000e-02 3.230951e-01 1.033906e-01 1.254058e+00 1.487207e+00 1.055429e+00 6.192164e-01 1.136210e+00 5.846515e-01 1.743003e+00 2.032320e-01 8.735099e-01 8.659347e-01 5.000000e-02
<GCONST> 6.287976e+01
<STATE> 33
<MEAN> 26
 -4.142219e+00 -1.578256e+01 -8.725130e+00 -4.016706e-01 6.263546e+00 -2.778067e+00 5.399205e-01 -3.005226e+00 -1.563868e+00 -5.165940e+00 -1.084562e+00 -1.304564e+00 4.735558e-02 -1.607211e+00 1.059463e+00 7.727195e-01 -6.148606e-01 -4.699602e-01 3.186530e-01 2.178323e-01 -1.364785e-01 4.859266e-01 7.017722e-01 -9.091716e-02 -2.097011e-01 -7.337711e-02
<VARIANCE> 26
 1.917718e-01 1.591953e+01 2.156948e+01 3.784601e+00 1.145137e+01 1.727097e+01 1.344542e+01 7.439672e+00 8.428218e+00 1.231481e+01 5.627165e+00 1.228772e+00 5.000000e-02 2.531075e-01 5.155413e-01 1.683466e+00 8.586562e-01 3.586074e-01 7.780613e-01 5.268012e-01 1.032098e+00 1.644590e+00 1.621997e+00 1.260094e+00 8.036818e-01 5.000000e-02
<GCONST> 6.122023e+01
<STATE> 34
<MEAN> 26
 -4.911358e+00 -1.319723e+01 -6.496302e+00 -1.003160e+00 5.287016e+00 -3.140071e+00 8.604208e-01 -4.338254e+00 4.417844e-01 -4.466735e+00 -3.546558e-01 -2.017190e+00 -1.691360e-02 -6.117558e-01 1.225972e+00 9.839068e-01 -4.608934e-01 -5.783744e-01 4.282785e-01 1.131387e+00 7.208229e-01 4.878352e-01 4.817818e-01 6.209205e-01 3.558944e-01 -4.445117e-02
<VARIANCE> 26
 7.214859e-01 1.402437e+01 1.026284e+01 3.313426e+00 4.965887e+00 6.387828e+00 7.031857e+00 5.334073e+00 1.402779e+01 3.670548e+00 1.421294e+01 5.482910e+00 5.000000e-02 2.825717e-01 2.681474e+00 3.068168e+00 9.195219e-01 3.241801e-01 2.205300e-01 1.162024e+00 2.858469e-01 8.959717e-02 8.796972e-01 1.093040e+00 7.358779e-01 5.000000e-02
<GCONST> 5.727400e+01
<STATE> 35
<MEAN> 26
 -5.878922e+00 -1.400245e+01 -7.342969e+00 -2.304395e+00 4.617506e+00 -1.031205e+00 3.165705e+00 -9.621159e-01 7.771069e-01 -1.541355e+00 2.301851e+00 6.288162e-01 -6.592093e-02 -3.320972e-01 3.414583e-01 2.407467e-02 -6.684280e-01 1.640975e-02 2.961304e-01 -1.114969e-01 6.777315e-01 1.840860e-01 8.363075e-01 1.132235e+00 5.619882e-01 -2.074848e-02
<VARIANCE> 26
 1.140706e-01 2.822238e+00 2.114187e+00 4.664546e+00 3.231096e+00 1.188153e+00 1.038776e+01 4.215252e+00 9.511198e+00 6.954685e+00 1.500530e+01 8.629841e+00 5.000000e-02 5.000000e-02 2.475314e-01 3.329034e-01 2.401990e-01 6.208136e-01 7.851888e-01 5.715950e-01 4.656983e-01 3.532007e-01 4.535618e-01 5.215285e-01 4.018676e-01 5.000000e-02
<GCONST> 4.477447e+01
<STATE> 36
<MEAN> 26
 -5.487242e+00 -1.262770e+01 -6.847188e+00 -3.379446e+00 5.085442e+00 -1.403772e+00 1.640186e+00 -1.411626e-01 4.241457e-01 -3.628790e+00 1.631577e+00 6.082419e-01 -5.951519e-02 -2.829746e-01 3.357478e-01 4.552070e-01 2.666926e-01 2.218056e-01 2.836221e-02 -5.557542e-01 -3.209553e-01 -6.309939e-01 -6.389070e-01 -2.560909e-01 -6.336620e-01 -1.810629e-02
<VARIANCE> 26
 1.110312e+00 4.640404e+00 7.744372e+00 3.521914e+00 3.237881e+00 1.184270e+01 1.197904e+01 4.884496e+00 3.422956e+00 6.918965e+00 2.830918e+00 5.073487e+00 5.000000e-02 9.089283e-02 3.169346e-01 2.412732e-01 3.719768e-01 4.092516e-01 8.559659e-01 4.516009e-01 7.392581e-01 5.719587e-01 2.035127e+00 3.418176e-01 9.517792e-01 5.000000e-02
<GCONST> 5.120908e+01
<STATE> 37
<MEAN> 26
 -6.273322e+00 -1.122822e+01 -5.489833e+00 -2.121428e+00 4.557698e+00 -3.508162e+00 -6.126341e-02 -4.873847e+00 -1.001082e+00 -3.737948e+00 1.012618e+00 -8.731284e-01 -9.212420e-02 -3.261584e-01 1.896842e-01 4.436981e-01 4.376224e-01 -1.573269e-01 -2.494711e-01 1.131045e-01 -6.330925e-01 -1.045868e+00 -5.959615e-01 -2.678553e-01 -8.949931e-01 -1.056170e-02
<VARIANCE> 26
 1.075876e+00 4.629472e+00 5.219884e+00 6.068815e+00 3.248471e+00 4.131520e+00 5.979850e+00 2.043134e+00 5.249227e+00 1.583228e+01 2.136633e+00 1.566071e+00 5.000000e-02 5.000000e-02 5.004428e-01 5.877887e-01 9.187911e-01 2.004931e-01 1.046824e+00 1.118091e+00 4.603581e-01 3.085451e-01 7.427987e-01 2.318641e-01 9.012042e-01 5.000000e-02
<GCONST> 4.801394e+01
<TRANSP> 38
 0.000000e+00 1.000000e+00 0.000000e+00 0.000000e+00 0.000000e+00 0.000000e+00 0.000000e+00 0.000000e+00 0.000000e+00 0.000000e+00 0.000000e+00 0.000000e+00 0.000000e+00 0.000000e+00 0.000000e+00 0.000000e+00 0.000000e+00 0.000000e+00 0.000000e+00 0.000000e+00 0.000000e+00 0.000000e+00 0.000000e+00 0.000000e+00 0.000000e+00 0.000000e+00 0.000000e+00 0.000000e+00 0.000000e+00 0.000000e+00 0.000000e+00 0.000000e+00 0.000000e+00 0.000000e+00 0.000000e+00 0.000000e+00 0.000000e+00 0.000000e+00
 0.000000e+00 3.749957e-01 6.250044e-01 0.000000e+00 0.000000e+00 0.000000e+00 0.000000e+00 0.000000e+00 0.000000e+00 0.000000e+00 0.000000e+00 0.000000e+00 0.000000e+00 0.000000e+00 0.000000e+00 0.000000e+00 0.000000e+00 0.000000e+00 0.000000e+00 0.000000e+00 0.000000e+00 0.000000e+00 0.000000e+00 0.000000e+00 0.000000e+00 0.000000e+00 0.000000e+00 0.000000e+00 0.000000e+00 0.000000e+00 0.000000e+00 0.000000e+00 0.000000e+00 0.000000e+00 0.000000e+00 0.000000e+00 0.000000e+00 0.000000e+00
 0.000000e+00 0.000000e+00 2.856975e-01 7.143024e-01 0.000000e+00 0.000000e+00 0.000000e+00 0.000000e+00 0.000000e+00 0.000000e+00 0.000000e+00 0.000000e+00 0.000000e+00 0.000000e+00 0.000000e+00 0.000000e+00 0.000000e+00 0.000000e+00 0.000000e+00 0.000000e+00 0.000000e+00 0.000000e+00 0.000000e+00 0.000000e+00 0.000000e+00 0.000000e+00 0.000000e+00 0.000000e+00 0.000000e+00 0.000000e+00 0.000000e+00 0.000000e+00 0.000000e+00 0.000000e+00 0.000000e+00 0.000000e+00 0.000000e+00 0.000000e+00
 0.000000e+00 0.000000e+00 0.000000e+00 2.788751e-01 7.211249e-01 0.000000e+00 0.000000e+00 0.000000e+00 0.000000e+00 0.000000e+00 0.000000e+00 0.000000e+00 0.000000e+00 0.000000e+00 0.000000e+00 0.000000e+00 0.000000e+00 0.000000e+00 0.000000e+00 0.000000e+00 0.000000e+00 0.000000e+00 0.000000e+00 0.000000e+00 0.000000e+00 0.000000e+00 0.000000e+00 0.000000e+00 0.000000e+00 0.000000e+00 0.000000e+00 0.000000e+00 0.000000e+00 0.000000e+00 0.000000e+00 0.000000e+00 0.000000e+00 0.000000e+00
 0.000000e+00 0.000000e+00 0.000000e+00 0.000000e+00 4.961378e-01 5.038623e-01 0.000000e+00 0.000000e+00 0.000000e+00 0.000000e+00 0.000000e+00 0.000000e+00 0.000000e+00 0.000000e+00 0.000000e+00 0.000000e+00 0.000000e+00 0.000000e+00 0.000000e+00 0.000000e+00 0.000000e+00 0.000000e+00 0.000000e+00 0.000000e+00 0.000000e+00 0.000000e+00 0.000000e+00 0.000000e+00 0.000000e+00 0.000000e+00 0.000000e+00 0.000000e+00 0.000000e+00 0.000000e+00 0.000000e+00 0.000000e+00 0.000000e+00 0.000000e+00
 0.000000e+00 0.000000e+00 0.000000e+00 0.000000e+00 0.000000e+00 3.000206e-01 6.999794e-01 0.000000e+00 0.000000e+00 0.000000e+00 0.000000e+00 0.000000e+00 0.000000e+00 0.000000e+00 0.000000e+00 0.000000e+00 0.000000e+00 0.000000e+00 0.000000e+00 0.000000e+00 0.000000e+00 0.000000e+00 0.000000e+00 0.000000e+00 0.000000e+00 0.000000e+00 0.000000e+00 0.000000e+00 0.000000e+00 0.000000e+00 0.000000e+00 0.000000e+00 0.000000e+00 0.000000e+00 0.000000e+00 0.000000e+00 0.000000e+00 0.000000e+00
 0.000000e+00 0.000000e+00 0.000000e+00 0.000000e+00 0.000000e+00 0.000000e+00 0.000000e+00 1.000000e+00 0.000000e+00 0.000000e+00 0.000000e+00 0.000000e+00 0.000000e+00 0.000000e+00 0.000000e+00 0.000000e+00 0.000000e+00 0.000000e+00 0.000000e+00 0.000000e+00 0.000000e+00 0.000000e+00 0.000000e+00 0.000000e+00 0.000000e+00 0.000000e+00 0.000000e+00 0.000000e+00 0.000000e+00 0.000000e+00 0.000000e+00 0.000000e+00 0.000000e+00 0.000000e+00 0.000000e+00 0.000000e+00 0.000000e+00 0.000000e+00
 0.000000e+00 0.000000e+00 0.000000e+00 0.000000e+00 0.000000e+00 0.000000e+00 0.000000e+00 1.666814e-01 8.333186e-01 0.000000e+00 0.000000e+00 0.000000e+00 0.000000e+00 0.000000e+00 0.000000e+00 0.000000e+00 0.000000e+00 0.000000e+00 0.000000e+00 0.000000e+00 0.000000e+00 0.000000e+00 0.000000e+00 0.000000e+00 0.000000e+00 0.000000e+00 0.000000e+00 0.000000e+00 0.000000e+00 0.000000e+00 0.000000e+00 0.000000e+00 0.000000e+00 0.000000e+00 0.000000e+00 0.000000e+00 0.000000e+00 0.000000e+00
 0.000000e+00 0.000000e+00 0.000000e+00 0.000000e+00 0.000000e+00 0.000000e+00 0.000000e+00 0.000000e+00 1.666404e-01 8.333595e-01 0.000000e+00 0.000000e+00 0.000000e+00 0.000000e+00 0.000000e+00 0.000000e+00 0.000000e+00 0.000000e+00 0.000000e+00 0.000000e+00 0.000000e+00 0.000000e+00 0.000000e+00 0.000000e+00 0.000000e+00 0.000000e+00 0.000000e+00 0.000000e+00 0.000000e+00 0.000000e+00 0.000000e+00 0.000000e+00 0.000000e+00 0.000000e+00 0.000000e+00 0.000000e+00 0.000000e+00 0.000000e+00
 0.000000e+00 0.000000e+00 0.000000e+00 0.000000e+00 0.000000e+00 0.000000e+00 0.000000e+00 0.000000e+00 0.000000e+00 3.750503e-01 6.249497e-01 0.000000e+00 0.000000e+00 0.000000e+00 0.000000e+00 0.000000e+00 0.000000e+00 0.000000e+00 0.000000e+00 0.000000e+00 0.000000e+00 0.000000e+00 0.000000e+00 0.000000e+00 0.000000e+00 0.000000e+00 0.000000e+00 0.000000e+00 0.000000e+00 0.000000e+00 0.000000e+00 0.000000e+00 0.000000e+00 0.000000e+00 0.000000e+00 0.000000e+00 0.000000e+00 0.000000e+00
 0.000000e+00 0.000000e+00 0.000000e+00 0.000000e+00 0.000000e+00 0.000000e+00 0.000000e+00 0.000000e+00 0.000000e+00 0.000000e+00 4.443917e-01 5.556083e-01 0.000000e+00 0.000000e+00 0.000000e+00 0.000000e+00 0.000000e+00 0.000000e+00 0.000000e+00 0.000000e+00 0.000000e+00 0.000000e+00 0.000000e+00 0.000000e+00 0.000000e+00 0.000000e+00 0.000000e+00 0.000000e+00 0.000000e+00 0.000000e+00 0.000000e+00 0.000000e+00 0.000000e+00 0.000000e+00 0.000000e+00 0.000000e+00 0.000000e+00 0.000000e+00
 0.000000e+00 0.000000e+00 0.000000e+00 0.000000e+00 0.000000e+00 0.000000e+00 0.000000e+00 0.000000e+00 0.000000e+00 0.000000e+00 0.000000e+00 3.745745e-01 6.254256e-01 0.000000e+00 0.000000e+00 0.000000e+00 0.000000e+00 0.000000e+00 0.000000e+00 0.000000e+00 0.000000e+00 0.000000e+00 0.000000e+00 0.000000e+00 0.000000e+00 0.000000e+00 0.000000e+00 0.000000e+00 0.000000e+00 0.000000e+00 0.000000e+00 0.000000e+00 0.000000e+00 0.000000e+00 0.000000e+00 0.000000e+00 0.000000e+00 0.000000e+00
 0.000000e+00 0.000000e+00 0.000000e+00 0.000000e+00 0.000000e+00 0.000000e+00 0.000000e+00 0.000000e+00 0.000000e+00 0.000000e+00 0.000000e+00 0.000000e+00 1.675953e-01 8.324047e-01 0.000000e+00 0.000000e+00 0.000000e+00 0.000000e+00 0.000000e+00 0.000000e+00 0.000000e+00 0.000000e+00 0.000000e+00 0.000000e+00 0.000000e+00 0.000000e+00 0.000000e+00 0.000000e+00 0.000000e+00 0.000000e+00 0.000000e+00 0.000000e+00 0.000000e+00 0.000000e+00 0.000000e+00 0.000000e+00 0.000000e+00 0.000000e+00
 0.000000e+00 0.000000e+00 0.000000e+00 0.000000e+00 0.000000e+00 0.000000e+00 0.000000e+00 0.000000e+00 0.000000e+00 0.000000e+00 0.000000e+00 0.000000e+00 0.000000e+00 1.668038e-01 8.331962e-01 0.000000e+00 0.000000e+00 0.000000e+00 0.000000e+00 0.000000e+00 0.000000e+00 0.000000e+00 0.000000e+00 0.000000e+00 0.000000e+00 0.000000e+00 0.000000e+00 0.000000e+00 0.000000e+00 0.000000e+00 0.000000e+00 0.000000e+00 0.000000e+00 0.000000e+00 0.000000e+00 0.000000e+00 0.000000e+00 0.000000e+00
 0.000000e+00 0.000000e+00 0.000000e+00 0.000000e+00 0.000000e+00 0.000000e+00 0.000000e+00 0.000000e+00 0.000000e+00 0.000000e+00 0.000000e+00 0.000000e+00 0.000000e+00 0.000000e+00 4.443208e-01 5.556793e-01 0.000000e+00 0.000000e+00 0.000000e+00 0.000000e+00 0.000000e+00 0.000000e+00 0.000000e+00 0.000000e+00 0.000000e+00 0.000000e+00 0.000000e+00 0.000000e+00 0.000000e+00 0.000000e+00 0.000000e+00 0.000000e+00 0.000000e+00 0.000000e+00 0.000000e+00 0.000000e+00 0.000000e+00 0.000000e+00
 0.000000e+00 0.000000e+00 0.000000e+00 0.000000e+00 0.000000e+00 0.000000e+00 0.000000e+00 0.000000e+00 0.000000e+00 0.000000e+00 0.000000e+00 0.000000e+00 0.000000e+00 0.000000e+00 0.000000e+00 1.666717e-01 8.333282e-01 0.000000e+00 0.000000e+00 0.000000e+00 0.000000e+00 0.000000e+00 0.000000e+00 0.000000e+00 0.000000e+00 0.000000e+00 0.000000e+00 0.000000e+00 0.000000e+00 0.000000e+00 0.000000e+00 0.000000e+00 0.000000e+00 0.000000e+00 0.000000e+00 0.000000e+00 0.000000e+00 0.000000e+00
 0.000000e+00 0.000000e+00 0.000000e+00 0.000000e+00 0.000000e+00 0.000000e+00 0.000000e+00 0.000000e+00 0.000000e+00 0.000000e+00 0.000000e+00 0.000000e+00 0.000000e+00 0.000000e+00 0.000000e+00 0.000000e+00 2.857162e-01 7.142838e-01 0.000000e+00 0.000000e+00 0.000000e+00 0.000000e+00 0.000000e+00 0.000000e+00 0.000000e+00 0.000000e+00 0.000000e+00 0.000000e+00 0.000000e+00 0.000000e+00 0.000000e+00 0.000000e+00 0.000000e+00 0.000000e+00 0.000000e+00 0.000000e+00 0.000000e+00 0.000000e+00
 0.000000e+00 0.000000e+00 0.000000e+00 0.000000e+00 0.000000e+00 0.000000e+00 0.000000e+00 0.000000e+00 0.000000e+00 0.000000e+00 0.000000e+00 0.000000e+00 0.000000e+00 0.000000e+00 0.000000e+00 0.000000e+00 0.000000e+00 2.859714e-01 7.140286e-01 0.000000e+00 0.000000e+00 0.000000e+00 0.000000e+00 0.000000e+00 0.000000e+00 0.000000e+00 0.000000e+00 0.000000e+00 0.000000e+00 0.000000e+00 0.000000e+00 0.000000e+00 0.000000e+00 0.000000e+00 0.000000e+00 0.000000e+00 0.000000e+00 0.000000e+00
 0.000000e+00 0.000000e+00 0.000000e+00 0.000000e+00 0.000000e+00 0.000000e+00 0.000000e+00 0.000000e+00 0.000000e+00 0.000000e+00 0.000000e+00 0.000000e+00 0.000000e+00 0.000000e+00 0.000000e+00 0.000000e+00 0.000000e+00 0.000000e+00 3.747775e-01 6.252226e-01 0.000000e+00 0.000000e+00 0.000000e+00 0.000000e+00 0.000000e+00 0.000000e+00 0.000000e+00 0.000000e+00 0.000000e+00 0.000000e+00 0.000000e+00 0.000000e+00 0.000000e+00 0.000000e+00 0.000000e+00 0.000000e+00 0.000000e+00 0.000000e+00
 0.000000e+00 0.000000e+00 0.000000e+00 0.000000e+00 0.000000e+00 0.000000e+00 0.000000e+00 0.000000e+00 0.000000e+00 0.000000e+00 0.000000e+00 0.000000e+00 0.000000e+00 0.000000e+00 0.000000e+00 0.000000e+00 0.000000e+00 0.000000e+00 0.000000e+00 1.667037e-01 8.332964e-01 0.000000e+00 0.000000e+00 0.000000e+00 0.000000e+00 0.000000e+00 0.000000e+00 0.000000e+00 0.000000e+00 0.000000e+00 0.000000e+00 0.000000e+00 0.000000e+00 0.000000e+00 0.000000e+00 0.000000e+00 0.000000e+00 0.000000e+00
 0.000000e+00 0.000000e+00 0.000000e+00 0.000000e+00 0.000000e+00 0.000000e+00 0.000000e+00 0.000000e+00 0.000000e+00 0.000000e+00 0.000000e+00 0.000000e+00 0.000000e+00 0.000000e+00 0.000000e+00 0.000000e+00 0.000000e+00 0.000000e+00 0.000000e+00 0.000000e+00 3.749826e-01 6.250174e-01 0.000000e+00 0.000000e+00 0.000000e+00 0.000000e+00 0.000000e+00 0.000000e+00 0.000000e+00 0.000000e+00 0.000000e+00 0.000000e+00 0.000000e+00 0.000000e+00 0.000000e+00 0.000000e+00 0.000000e+00 0.000000e+00
 0.000000e+00 0.000000e+00 0.000000e+00 0.000000e+00 0.000000e+00 0.000000e+00 0.000000e+00 0.000000e+00 0.000000e+00 0.000000e+00 0.000000e+00 0.000000e+00 0.000000e+00 0.000000e+00 0.000000e+00 0.000000e+00 0.000000e+00 0.000000e+00 0.000000e+00 0.000000e+00 0.000000e+00 3.752778e-01 6.247222e-01 0.000000e+00 0.000000e+00 0.000000e+00 0.000000e+00 0.000000e+00 0.000000e+00 0.000000e+00 0.000000e+00 0.000000e+00 0.000000e+00 0.000000e+00 0.000000e+00 0.000000e+00 0.000000e+00 0.000000e+00
 0.000000e+00 0.000000e+00 0.000000e+00 0.000000e+00 0.000000e+00 0.000000e+00 0.000000e+00 0.000000e+00 0.000000e+00 0.000000e+00 0.000000e+00 0.000000e+00 0.000000e+00 0.000000e+00 0.000000e+00 0.000000e+00 0.000000e+00 0.000000e+00 0.000000e+00 0.000000e+00 0.000000e+00 0.000000e+00 2.853532e-01 7.146468e-01 0.000000e+00 0.000000e+00 0.000000e+00 0.000000e+00 0.000000e+00 0.000000e+00 0.000000e+00 0.000000e+00 0.000000e+00 0.000000e+00 0.000000e+00 0.000000e+00 0.000000e+00 0.000000e+00
 0.000000e+00 0.000000e+00 0.000000e+00 0.000000e+00 0.000000e+00 0.000000e+00 0.000000e+00 0.000000e+00 0.000000e+00 0.000000e+00 0.000000e+00 0.000000e+00 0.000000e+00 0.000000e+00 0.000000e+00 0.000000e+00 0.000000e+00 0.000000e+00 0.000000e+00 0.000000e+00 0.000000e+00 0.000000e+00 0.000000e+00 3.752114e-01 6.247886e-01 0.000000e+00 0.000000e+00 0.000000e+00 0.000000e+00 0.000000e+00 0.000000e+00 0.000000e+00 0.000000e+00 0.000000e+00 0.000000e+00 0.000000e+00 0.000000e+00 0.000000e+00
 0.000000e+00 0.000000e+00 0.000000e+00 0.000000e+00 0.000000e+00 0.000000e+00 0.000000e+00 0.000000e+00 0.000000e+00 0.000000e+00 0.000000e+00 0.000000e+00 0.000000e+00 0.000000e+00 0.000000e+00 0.000000e+00 0.000000e+00 0.000000e+00 0.000000e+00 0.000000e+00 0.000000e+00 0.000000e+00 0.000000e+00 0.000000e+00 0.000000e+00 1.000000e+00 0.000000e+00 0.000000e+00 0.000000e+00 0.000000e+00 0.000000e+00 0.000000e+00 0.000000e+00 0.000000e+00 0.000000e+00 0.000000e+00 0.000000e+00 0.000000e+00
 0.000000e+00 0.000000e+00 0.000000e+00 0.000000e+00 0.000000e+00 0.000000e+00 0.000000e+00 0.000000e+00 0.000000e+00 0.000000e+00 0.000000e+00 0.000000e+00 0.000000e+00 0.000000e+00 0.000000e+00 0.000000e+00 0.000000e+00 0.000000e+00 0.000000e+00 0.000000e+00 0.000000e+00 0.000000e+00 0.000000e+00 0.000000e+00 0.000000e+00 4.442732e-01 5.557268e-01 0.000000e+00 0.000000e+00 0.000000e+00 0.000000e+00 0.000000e+00 0.000000e+00 0.000000e+00 0.000000e+00 0.000000e+00 0.000000e+00 0.000000e+00
 0.000000e+00 0.000000e+00 0.000000e+00 0.000000e+00 0.000000e+00 0.000000e+00 0.000000e+00 0.000000e+00 0.000000e+00 0.000000e+00 0.000000e+00 0.000000e+00 0.000000e+00 0.000000e+00 0.000000e+00 0.000000e+00 0.000000e+00 0.000000e+00 0.000000e+00 0.000000e+00 0.000000e+00 0.000000e+00 0.000000e+00 0.000000e+00 0.000000e+00 0.000000e+00 0.000000e+00 1.000000e+00 0.000000e+00 0.000000e+00 0.000000e+00 0.000000e+00 0.000000e+00 0.000000e+00 0.000000e+00 0.000000e+00 0.000000e+00 0.000000e+00
 0.000000e+00 0.000000e+00 0.000000e+00 0.000000e+00 0.000000e+00 0.000000e+00 0.000000e+00 0.000000e+00 0.000000e+00 0.000000e+00 0.000000e+00 0.000000e+00 0.000000e+00 0.000000e+00 0.000000e+00 0.000000e+00 0.000000e+00 0.000000e+00 0.000000e+00 0.000000e+00 0.000000e+00 0.000000e+00 0.000000e+00 0.000000e+00 0.000000e+00 0.000000e+00 0.000000e+00 4.441728e-01 5.558272e-01 0.000000e+00 0.000000e+00 0.000000e+00 0.000000e+00 0.000000e+00 0.000000e+00 0.000000e+00 0.000000e+00 0.000000e+00
 0.000000e+00 0.000000e+00 0.000000e+00 0.000000e+00 0.000000e+00 0.000000e+00 0.000000e+00 0.000000e+00 0.000000e+00 0.000000e+00 0.000000e+00 0.000000e+00 0.000000e+00 0.000000e+00 0.000000e+00 0.000000e+00 0.000000e+00 0.000000e+00 0.000000e+00 0.000000e+00 0.000000e+00 0.000000e+00 0.000000e+00 0.000000e+00 0.000000e+00 0.000000e+00 0.000000e+00 0.000000e+00 1.673202e-01 8.326799e-01 0.000000e+00 0.000000e+00 0.000000e+00 0.000000e+00 0.000000e+00 0.000000e+00 0.000000e+00 0.000000e+00
 0.000000e+00 0.000000e+00 0.000000e+00 0.000000e+00 0.000000e+00 0.000000e+00 0.000000e+00 0.000000e+00 0.000000e+00 0.000000e+00 0.000000e+00 0.000000e+00 0.000000e+00 0.000000e+00 0.000000e+00 0.000000e+00 0.000000e+00 0.000000e+00 0.000000e+00 0.000000e+00 0.000000e+00 0.000000e+00 0.000000e+00 0.000000e+00 0.000000e+00 0.000000e+00 0.000000e+00 0.000000e+00 0.000000e+00 2.858251e-01 7.141749e-01 0.000000e+00 0.000000e+00 0.000000e+00 0.000000e+00 0.000000e+00 0.000000e+00 0.000000e+00
 0.000000e+00 0.000000e+00 0.000000e+00 0.000000e+00 0.000000e+00 0.000000e+00 0.000000e+00 0.000000e+00 0.000000e+00 0.000000e+00 0.000000e+00 0.000000e+00 0.000000e+00 0.000000e+00 0.000000e+00 0.000000e+00 0.000000e+00 0.000000e+00 0.000000e+00 0.000000e+00 0.000000e+00 0.000000e+00 0.000000e+00 0.000000e+00 0.000000e+00 0.000000e+00 0.000000e+00 0.000000e+00 0.000000e+00 0.000000e+00 3.610423e-01 6.389577e-01 0.000000e+00 0.000000e+00 0.000000e+00 0.000000e+00 0.000000e+00 0.000000e+00
 0.000000e+00 0.000000e+00 0.000000e+00 0.000000e+00 0.000000e+00 0.000000e+00 0.000000e+00 0.000000e+00 0.000000e+00 0.000000e+00 0.000000e+00 0.000000e+00 0.000000e+00 0.000000e+00 0.000000e+00 0.000000e+00 0.000000e+00 0.000000e+00 0.000000e+00 0.000000e+00 0.000000e+00 0.000000e+00 0.000000e+00 0.000000e+00 0.000000e+00 0.000000e+00 0.000000e+00 0.000000e+00 0.000000e+00 0.000000e+00 0.000000e+00 3.029933e-01 6.970067e-01 0.000000e+00 0.000000e+00 0.000000e+00 0.000000e+00 0.000000e+00
 0.000000e+00 0.000000e+00 0.000000e+00 0.000000e+00 0.000000e+00 0.000000e+00 0.000000e+00 0.000000e+00 0.000000e+00 0.000000e+00 0.000000e+00 0.000000e+00 0.000000e+00 0.000000e+00 0.000000e+00 0.000000e+00 0.000000e+00 0.000000e+00 0.000000e+00 0.000000e+00 0.000000e+00 0.000000e+00 0.000000e+00 0.000000e+00 0.000000e+00 0.000000e+00 0.000000e+00 0.000000e+00 0.000000e+00 0.000000e+00 0.000000e+00 0.000000e+00 1.667529e-01 8.332471e-01 0.000000e+00 0.000000e+00 0.000000e+00 0.000000e+00
 0.000000e+00 0.000000e+00 0.000000e+00 0.000000e+00 0.000000e+00 0.000000e+00 0.000000e+00 0.000000e+00 0.000000e+00 0.000000e+00 0.000000e+00 0.000000e+00 0.000000e+00 0.000000e+00 0.000000e+00 0.000000e+00 0.000000e+00 0.000000e+00 0.000000e+00 0.000000e+00 0.000000e+00 0.000000e+00 0.000000e+00 0.000000e+00 0.000000e+00 0.000000e+00 0.000000e+00 0.000000e+00 0.000000e+00 0.000000e+00 0.000000e+00 0.000000e+00 0.000000e+00 3.749554e-01 6.250446e-01 0.000000e+00 0.000000e+00 0.000000e+00
 0.000000e+00 0.000000e+00 0.000000e+00 0.000000e+00 0.000000e+00 0.000000e+00 0.000000e+00 0.000000e+00 0.000000e+00 0.000000e+00 0.000000e+00 0.000000e+00 0.000000e+00 0.000000e+00 0.000000e+00 0.000000e+00 0.000000e+00 0.000000e+00 0.000000e+00 0.000000e+00 0.000000e+00 0.000000e+00 0.000000e+00 0.000000e+00 0.000000e+00 0.000000e+00 0.000000e+00 0.000000e+00 0.000000e+00 0.000000e+00 0.000000e+00 0.000000e+00 0.000000e+00 0.000000e+00 2.859411e-01 7.140590e-01 0.000000e+00 0.000000e+00
 0.000000e+00 0.000000e+00 0.000000e+00 0.000000e+00 0.000000e+00 0.000000e+00 0.000000e+00 0.000000e+00 0.000000e+00 0.000000e+00 0.000000e+00 0.000000e+00 0.000000e+00 0.000000e+00 0.000000e+00 0.000000e+00 0.000000e+00 0.000000e+00 0.000000e+00 0.000000e+00 0.000000e+00 0.000000e+00 0.000000e+00 0.000000e+00 0.000000e+00 0.000000e+00 0.000000e+00 0.000000e+00 0.000000e+00 0.000000e+00 0.000000e+00 0.000000e+00 0.000000e+00 0.000000e+00 0.000000e+00 2.854635e-01 7.145366e-01 0.000000e+00
 0.000000e+00 0.000000e+00 0.000000e+00 0.000000e+00 0.000000e+00 0.000000e+00 0.000000e+00 0.000000e+00 0.000000e+00 0.000000e+00 0.000000e+00 0.000000e+00 0.000000e+00 0.000000e+00 0.000000e+00 0.000000e+00 0.000000e+00 0.000000e+00 0.000000e+00 0.000000e+00 0.000000e+00 0.000000e+00 0.000000e+00 0.000000e+00 0.000000e+00 0.000000e+00 0.000000e+00 0.000000e+00 0.000000e+00 0.000000e+00 0.000000e+00 0.000000e+00 0.000000e+00 0.000000e+00 0.000000e+00 0.000000e+00 0.000000e+00 1.000000e+00
 0.000000e+00 0.000000e+00 0.000000e+00 0.000000e+00 0.000000e+00 0.000000e+00 0.000000e+00 0.000000e+00 0.000000e+00 0.000000e+00 0.000000e+00 0.000000e+00 0.000000e+00 0.000000e+00 0.000000e+00 0.000000e+00 0.000000e+00 0.000000e+00 0.000000e+00 0.000000e+00 0.000000e+00 0.000000e+00 0.000000e+00 0.000000e+00 0.000000e+00 0.000000e+00 0.000000e+00 0.000000e+00 0.000000e+00 0.000000e+00 0.000000e+00 0.000000e+00 0.000000e+00 0.000000e+00 0.000000e+00 0.000000e+00 0.000000e+00 0.000000e+00
<ENDHMM>
