~o
<STREAMINFO> 1 39
<VECSIZE> 39<NULLD><MFCC_E_D_A><DIAGC>
~h "Lu*u"
<BEGINHMM>
<NUMSTATES> 12
<STATE> 2
<MEAN> 39
 -2.640330e+00 -8.979808e+00 -5.458870e+00 -3.348765e+00 -1.597149e+00 -7.595022e+00 -4.194638e-01 -1.546987e+00 3.585184e+00 -3.805134e+00 2.081851e-01 -4.197965e+00 1.512907e-01 1.745352e+00 2.639277e-02 -2.392051e+00 -9.838803e-01 -1.573840e+00 -2.068482e+00 -7.368906e-01 -3.269673e-01 1.586924e+00 -4.167222e-01 -8.318117e-01 1.196223e-01 1.065779e-01 9.379607e-02 6.282225e-02 -3.487743e-01 -1.108760e-01 -1.946719e-01 -2.778139e-01 -9.854590e-02 -8.144133e-02 5.076362e-01 1.304058e-01 -1.512423e-01 1.441996e-01 2.169432e-02
<VARIANCE> 39
 3.257128e+01 5.348162e+00 3.619118e+01 1.634869e+01 2.024185e+01 3.502716e+01 1.359496e+01 1.107739e+01 2.038200e+01 1.008304e+01 1.267947e+01 7.152874e+00 6.679664e-02 2.948396e+00 5.105513e-01 2.750536e+00 1.603708e+00 1.343090e+00 3.807362e+00 1.531826e+00 4.104644e+00 3.418582e+00 1.430552e+00 2.591083e+00 9.893501e-01 5.000000e-02 1.068958e+00 6.578494e-02 7.143868e-01 4.510775e-01 3.934960e-01 6.298593e-01 2.765015e-01 5.896221e-01 5.694053e-01 3.999398e-01 4.349209e-01 8.076841e-02 5.000000e-02
<GCONST> 9.200226e+01
<STATE> 3
<MEAN> 39
 -6.802787e-01 -9.496308e+00 -1.703249e+01 -8.261327e+00 -8.969742e+00 -1.881847e+01 -3.742028e+00 -1.818866e+00 1.506646e+01 -1.620581e+00 -3.199816e+00 -1.639172e+00 7.937955e-01 -1.825229e+00 -8.284166e-01 -3.284996e-01 -1.133437e+00 -5.841238e-02 -2.620721e-01 -5.925629e-01 1.197741e+00 3.198347e-01 7.060156e-01 -3.853354e-01 6.210881e-01 5.882826e-02 -2.127503e-01 -2.871242e-01 4.935735e-01 -2.837570e-01 5.561990e-01 5.818557e-01 5.681141e-03 3.751111e-01 -6.991706e-01 -8.747954e-03 -1.663758e-02 -1.964806e-01 -1.982711e-02
<VARIANCE> 39
 3.045025e+01 9.191476e+00 1.601010e+01 1.687394e+01 1.317268e+01 2.526558e+01 2.855295e+01 6.608781e+01 4.491272e+01 3.273312e+01 2.773096e+01 2.026709e+01 5.000000e-02 1.577207e+00 8.045896e-01 2.359287e+00 2.596273e+00 3.027522e+00 3.238563e+00 1.560698e+00 5.559474e+00 8.300007e+00 3.614604e+00 1.948676e+00 1.529075e+00 5.000000e-02 9.737498e-01 8.632536e-02 5.398672e-01 4.874740e-01 4.290652e-01 3.278314e-01 3.799986e-01 1.586661e+00 1.153605e+00 1.030307e+00 5.136558e-01 3.501684e-01 5.000000e-02
<GCONST> 1.040642e+02
<STATE> 4
<MEAN> 39
 -6.262055e+00 -1.598510e+01 -1.379976e+01 -1.832599e+01 -2.019405e+00 -1.362738e+01 -7.925099e+00 2.582958e+00 1.225017e+01 -2.389985e-02 -8.743368e+00 -2.859285e+00 9.364877e-01 2.585799e-01 -3.931123e-01 1.430961e-01 -1.604486e+00 1.155524e+00 1.250250e+00 -8.213879e-01 -1.197663e-01 -3.502896e-01 1.313398e+00 -4.436315e-01 -7.905335e-01 7.100225e-03 2.314445e-01 3.087387e-01 -1.390620e-01 1.727396e-01 -2.311228e-01 7.772435e-02 -9.600800e-03 -1.479829e-01 2.139140e-01 3.324989e-01 3.092070e-01 1.302463e-01 -1.667429e-03
<VARIANCE> 39
 5.520494e+00 9.365907e+00 1.119001e+01 2.222158e+01 1.179938e+01 8.601937e+00 8.585444e+00 1.434241e+01 1.382944e+01 1.785692e+01 1.049481e+01 1.198533e+01 5.000000e-02 1.768176e-01 6.090192e-01 6.071885e-01 9.374301e-01 1.295061e+00 6.284704e-01 8.242086e-01 7.444778e-01 9.714796e-01 2.424227e+00 9.212263e-01 8.600162e-01 5.000000e-02 7.264561e-02 5.912454e-02 7.162552e-02 1.475769e-01 1.892771e-01 1.570616e-01 9.173167e-02 2.164463e-01 2.671108e-01 2.590324e-01 1.391141e-01 3.237554e-01 5.000000e-02
<GCONST> 6.586000e+01
<STATE> 5
<MEAN> 39
 -3.203812e+00 -1.285988e+01 -1.565524e+01 -2.388643e+01 -6.099706e-01 -6.817786e+00 -1.217382e+01 2.668017e+00 1.053724e+01 1.092214e+01 -5.571440e+00 -2.143836e+00 9.777626e-01 5.054781e-01 6.625174e-01 -1.210660e-01 -4.849729e-01 9.121877e-02 4.827154e-01 -3.147137e-01 -3.599775e-01 2.592143e-01 1.431993e+00 6.327258e-01 2.057278e-01 7.146600e-03 -4.695189e-02 2.360165e-02 4.107784e-02 1.798358e-01 -2.608175e-03 -2.958992e-01 8.618391e-02 -9.950057e-02 9.344247e-02 -2.844164e-01 -5.709175e-02 -1.347517e-01 -1.931286e-03
<VARIANCE> 39
 3.641632e+00 1.175621e+01 1.072925e+01 9.548092e+00 8.413118e+00 1.097224e+01 1.070259e+01 1.513998e+01 1.194129e+01 1.642378e+01 1.836825e+01 1.780526e+01 5.000000e-02 1.510492e-01 1.299988e-01 1.700466e-01 5.974377e-01 5.316364e-01 1.267247e+00 9.325550e-01 9.283386e-01 1.352805e+00 9.001598e-01 8.371718e-01 1.809301e+00 5.000000e-02 5.000000e-02 5.000000e-02 5.000000e-02 1.227308e-01 1.412746e-01 1.110210e-01 1.798684e-01 1.784531e-01 3.361117e-01 2.334447e-01 1.480189e-01 3.668914e-01 5.000000e-02
<GCONST> 6.147663e+01
<STATE> 6
<MEAN> 39
 1.611410e-01 -1.023065e+01 -1.438933e+01 -2.366836e+01 -2.652360e+00 -7.291280e+00 -1.305987e+01 1.994971e+00 1.089740e+01 1.527486e+01 -1.577058e+00 -2.657268e+00 9.758788e-01 7.292275e-01 2.008856e-02 7.915832e-01 1.329397e-01 -6.489877e-01 -6.156336e-01 -5.787928e-02 3.842888e-01 -5.607243e-01 -2.574022e-01 5.567886e-01 9.090963e-01 -9.288166e-03 1.067851e-01 -1.712890e-01 5.329667e-02 4.571836e-02 -1.093144e-01 -1.401320e-01 1.762525e-01 1.690875e-01 -3.392811e-01 -3.561043e-01 1.439511e-01 3.028102e-01 -3.469343e-03
<VARIANCE> 39
 6.171586e+00 9.389759e+00 6.206383e+00 5.190505e+00 2.103178e+01 1.935687e+01 2.191049e+01 1.823945e+01 2.752903e+01 2.033406e+01 4.127947e+01 2.199167e+01 5.000000e-02 2.125487e-01 3.150784e-01 4.242236e-01 4.267858e-01 1.501635e+00 1.367547e+00 2.061476e+00 2.368425e+00 2.636255e+00 2.561236e+00 9.918637e-01 1.100540e+00 5.000000e-02 5.000000e-02 8.439756e-02 1.580396e-01 9.856696e-02 3.395033e-01 1.710103e-01 5.097572e-01 5.055612e-01 4.520659e-01 5.671437e-01 1.911156e-01 1.939567e-01 5.000000e-02
<GCONST> 7.676226e+01
<STATE> 7
<MEAN> 39
 5.667118e+00 -1.288196e+01 -1.235369e+01 -2.173428e+01 -4.497295e+00 -1.262319e+01 -1.119387e+01 2.870054e+00 4.198212e+00 8.794874e+00 2.539964e+00 4.351830e+00 8.689393e-01 1.377958e+00 -6.103348e-01 -8.260565e-01 1.602127e+00 -4.248621e-01 -6.798661e-01 8.061035e-01 -6.863525e-01 -1.325462e+00 -2.321836e+00 7.304494e-01 1.420957e-01 -3.375065e-02 -6.426296e-02 1.509109e-01 -1.457750e-01 4.676455e-01 -5.372102e-02 2.780252e-01 5.116576e-02 -4.223055e-01 3.166761e-01 -2.385716e-01 -3.519635e-01 -4.566816e-01 -5.455897e-03
<VARIANCE> 39
 1.177137e+01 9.788186e+00 1.051899e+01 1.344935e+01 1.536830e+01 8.910299e+00 1.306038e+01 4.146832e+01 1.986572e+01 1.048890e+01 4.153607e+01 1.079118e+01 5.000000e-02 3.921577e-01 9.193552e-01 1.239936e+00 1.396903e+00 1.414253e+00 1.096525e+00 2.249447e+00 2.549132e+00 2.268327e+00 1.433242e+00 1.674425e+00 3.294784e+00 5.000000e-02 1.480570e-01 1.746259e-01 4.356215e-01 2.090508e-01 2.803293e-01 2.472896e-01 3.133330e-01 5.006145e-01 5.321518e-01 2.045599e-01 1.800004e-01 3.926929e-01 5.000000e-02
<GCONST> 8.420866e+01
<STATE> 8
<MEAN> 39
 8.636486e+00 -1.319616e+01 -1.323068e+01 -1.223475e+01 -6.901523e+00 -1.222090e+01 -6.322077e+00 -2.265779e+00 3.141808e+00 -2.417962e+00 1.049075e+00 9.108316e-01 6.464961e-01 -4.810515e-01 2.735049e-01 1.015925e+00 1.719410e+00 5.294401e-01 6.881327e-01 6.009180e-01 -8.945138e-01 2.813861e-01 -1.008785e+00 -5.934381e-01 -1.273501e+00 -5.896845e-02 -3.186281e-01 9.134503e-04 2.429125e-01 -1.436976e-01 4.493979e-01 6.287806e-02 -2.253425e-01 1.677201e-01 2.927879e-02 7.105722e-01 1.185463e-02 -1.810841e-01 -1.441782e-03
<VARIANCE> 39
 3.933872e+00 5.942485e+00 1.161694e+01 8.642473e+00 1.101705e+01 1.400004e+01 2.264615e+01 9.078855e+00 1.180870e+01 9.874529e+00 1.041652e+01 1.361096e+01 5.000000e-02 4.622339e-01 4.358145e-01 1.218116e+00 1.024395e+00 1.116204e+00 1.169483e+00 1.645301e+00 1.424867e+00 1.199314e+00 2.581529e+00 1.130142e+00 1.937992e+00 5.000000e-02 9.011853e-02 1.276619e-01 4.073738e-01 1.782251e-01 7.172478e-02 3.611292e-01 3.659007e-01 1.976320e-01 3.380508e-01 3.629813e-01 1.732179e-01 2.919750e-01 5.000000e-02
<GCONST> 7.373005e+01
<STATE> 9
<MEAN> 39
 4.675704e+00 -1.265582e+01 -1.043766e+01 -7.149209e+00 -1.229159e+00 -1.146443e+01 -7.621276e+00 -4.180438e+00 4.512917e+00 8.425013e-01 1.319180e+00 -4.786394e+00 4.095386e-01 -7.299365e-01 2.627431e-01 -7.782139e-02 -5.185648e-02 1.833464e-01 -2.944439e-01 -1.004158e-01 2.166696e-01 1.482753e-01 7.763721e-01 7.971165e-01 2.979269e-01 -3.070272e-02 2.822644e-03 5.473176e-02 -1.572603e-01 -4.779235e-01 -2.706435e-01 1.168179e-01 2.104816e-01 2.397252e-01 3.489830e-02 8.362887e-05 2.537752e-01 4.884750e-01 3.589368e-03
<VARIANCE> 39
 4.104549e+00 8.398314e+00 1.031842e+01 1.047431e+01 5.510262e+00 1.001827e+01 7.026775e+00 1.234558e+01 2.844588e+01 1.065129e+01 1.309356e+01 1.092478e+01 5.000000e-02 1.735256e-01 4.819252e-01 1.368595e+00 2.021806e+00 1.414771e+00 1.755546e+00 1.778431e+00 8.575954e-01 1.370680e+00 1.524917e+00 1.649372e+00 2.372487e+00 5.000000e-02 5.000000e-02 7.713778e-02 2.370256e-01 3.219990e-01 2.343174e-01 3.443176e-01 3.697901e-01 2.565954e-01 3.632393e-01 2.537028e-01 3.362642e-01 3.651794e-01 5.000000e-02
<GCONST> 7.454913e+01
<STATE> 10
<MEAN> 39
 6.769146e-01 -9.867732e+00 -8.463606e+00 -8.756270e+00 -2.535320e+00 -9.775155e+00 -4.356833e+00 -2.070939e+00 5.401554e+00 2.983230e+00 4.773271e+00 -1.691754e+00 2.263256e-01 -5.302760e-01 1.139020e-01 3.802229e-01 2.117571e-01 6.995759e-03 2.630420e-01 3.413460e-01 2.514324e-01 2.014726e-01 1.048784e-01 -2.693943e-02 -1.248627e-01 -2.360932e-02 -4.825839e-02 -7.788976e-02 4.977395e-02 2.406085e-01 8.890074e-02 -7.412080e-04 -4.592720e-02 -1.031084e-01 -5.753873e-02 -4.648069e-02 -1.096968e-01 -9.879330e-02 -2.130422e-03
<VARIANCE> 39
 6.126562e+00 5.010462e+00 1.581038e+01 9.986596e+00 1.170273e+01 1.182755e+01 6.910843e+00 1.209885e+01 1.632506e+01 2.556202e+01 2.222579e+01 1.238813e+01 5.000000e-02 4.936417e-01 4.390267e-01 1.812243e+00 2.009601e+00 8.449620e-01 1.455469e+00 6.792407e-01 1.532002e+00 2.458778e+00 2.722406e+00 2.476259e+00 1.188589e+00 5.000000e-02 1.206960e-01 6.840384e-02 4.339400e-01 4.856837e-01 2.363777e-01 3.229494e-01 1.301275e-01 3.080272e-01 4.001973e-01 5.759720e-01 5.365725e-01 3.218387e-01 5.000000e-02
<GCONST> 7.980806e+01
<STATE> 11
<MEAN> 39
 -4.260147e+00 -1.016073e+01 -5.371898e+00 -4.137645e+00 2.056674e-01 -6.854370e+00 -1.228729e+00 -1.081373e+00 5.329199e+00 1.401446e+00 3.395075e+00 -1.957880e+00 5.250322e-02 -9.027681e-01 2.029460e-01 8.765746e-01 8.837579e-01 5.667933e-01 7.456275e-01 8.753539e-01 -2.708593e-02 -3.852386e-01 -3.097349e-01 -7.809288e-02 1.472197e-01 -3.865925e-02 1.637516e-01 5.163251e-02 2.155714e-02 -2.066355e-01 -1.177173e-01 -1.649087e-01 -1.564968e-01 -3.134127e-02 -8.853444e-02 -7.874364e-02 -3.084525e-02 -9.405608e-02 5.937792e-03
<VARIANCE> 39
 3.657669e+00 3.514039e+00 7.209050e+00 7.364178e+00 7.870511e+00 8.887636e+00 1.526550e+01 4.431926e+00 9.631568e+00 1.784596e+01 1.449484e+01 1.129118e+01 5.000000e-02 7.990040e-01 5.576455e-01 3.968357e-01 1.278222e+00 9.198607e-01 1.231760e+00 7.430948e-01 8.169296e-01 8.350542e-01 2.453708e+00 1.278079e+00 1.177072e+00 5.000000e-02 7.936284e-02 1.004945e-01 1.089986e-01 3.078433e-01 1.642165e-01 2.360100e-01 2.125201e-01 1.642040e-01 2.665219e-01 6.132523e-01 4.040788e-01 2.143818e-01 5.000000e-02
<GCONST> 6.809754e+01
<TRANSP> 12
 0.000000e+00 1.000000e+00 0.000000e+00 0.000000e+00 0.000000e+00 0.000000e+00 0.000000e+00 0.000000e+00 0.000000e+00 0.000000e+00 0.000000e+00 0.000000e+00
 0.000000e+00 8.275058e-01 1.724943e-01 0.000000e+00 0.000000e+00 0.000000e+00 0.000000e+00 0.000000e+00 0.000000e+00 0.000000e+00 0.000000e+00 0.000000e+00
 0.000000e+00 0.000000e+00 8.214975e-01 1.785025e-01 0.000000e+00 0.000000e+00 0.000000e+00 0.000000e+00 0.000000e+00 0.000000e+00 0.000000e+00 0.000000e+00
 0.000000e+00 0.000000e+00 0.000000e+00 8.265727e-01 1.734274e-01 0.000000e+00 0.000000e+00 0.000000e+00 0.000000e+00 0.000000e+00 0.000000e+00 0.000000e+00
 0.000000e+00 0.000000e+00 0.000000e+00 0.000000e+00 8.336182e-01 1.663819e-01 0.000000e+00 0.000000e+00 0.000000e+00 0.000000e+00 0.000000e+00 0.000000e+00
 0.000000e+00 0.000000e+00 0.000000e+00 0.000000e+00 0.000000e+00 8.342428e-01 1.657572e-01 0.000000e+00 0.000000e+00 0.000000e+00 0.000000e+00 0.000000e+00
 0.000000e+00 0.000000e+00 0.000000e+00 0.000000e+00 0.000000e+00 0.000000e+00 7.789637e-01 2.210364e-01 0.000000e+00 0.000000e+00 0.000000e+00 0.000000e+00
 0.000000e+00 0.000000e+00 0.000000e+00 0.000000e+00 0.000000e+00 0.000000e+00 0.000000e+00 7.937657e-01 2.062343e-01 0.000000e+00 0.000000e+00 0.000000e+00
 0.000000e+00 0.000000e+00 0.000000e+00 0.000000e+00 0.000000e+00 0.000000e+00 0.000000e+00 0.000000e+00 8.096223e-01 1.903777e-01 0.000000e+00 0.000000e+00
 0.000000e+00 0.000000e+00 0.000000e+00 0.000000e+00 0.000000e+00 0.000000e+00 0.000000e+00 0.000000e+00 0.000000e+00 8.727531e-01 1.272469e-01 0.000000e+00
 0.000000e+00 0.000000e+00 0.000000e+00 0.000000e+00 0.000000e+00 0.000000e+00 0.000000e+00 0.000000e+00 0.000000e+00 0.000000e+00 7.678089e-01 2.321911e-01
 0.000000e+00 0.000000e+00 0.000000e+00 0.000000e+00 0.000000e+00 0.000000e+00 0.000000e+00 0.000000e+00 0.000000e+00 0.000000e+00 0.000000e+00 0.000000e+00
<ENDHMM>
