~o
<STREAMINFO> 1 26
<VECSIZE> 26<NULLD><MFCC_E_D><DIAGC>
~h "Ngu*ng"
<BEGINHMM>
<NUMSTATES> 32
<STATE> 2
<MEAN> 26
 -4.471660e+00 -7.314564e+00 -2.121232e-01 -1.324586e+00 2.667502e+00 -3.544335e+00 8.944681e-01 -3.842303e+00 -5.568454e-01 -4.162467e+00 3.236992e+00 -1.951001e+00 1.614757e-01 -1.471896e+00 9.078714e-01 -1.075022e+00 1.203163e+00 6.960835e-02 3.821442e-02 6.602613e-01 4.693581e-01 1.193679e-01 -1.439962e-01 -8.856792e-02 -2.228400e-01 4.783928e-03
<VARIANCE> 26
 3.049099e+00 2.439131e+00 3.767954e+00 3.603006e+00 4.056339e+00 7.746568e+00 9.941097e+00 5.909646e+00 1.032974e+01 1.183992e+01 7.307966e+00 7.119187e+00 5.000000e-02 2.095630e+00 4.103555e+00 2.536227e+00 2.277216e+00 1.173048e+00 1.130322e+00 1.590790e+00 3.232489e-01 1.153453e+00 8.749145e-01 2.223199e+00 1.946403e+00 5.000000e-02
<GCONST> 6.768359e+01
<STATE> 3
<MEAN> 26
 -9.725422e+00 -4.088238e+00 -4.815650e+00 2.299507e+00 9.837125e-01 -2.965342e+00 3.529643e+00 2.548658e-01 3.168082e+00 -3.314334e+00 5.400412e+00 -2.541904e+00 1.786431e-01 5.910558e-01 -1.127672e+00 7.972485e-01 -9.190974e-01 -2.208691e-01 3.723388e-02 -1.365766e-01 7.597963e-01 -5.254529e-02 1.057027e-01 -1.124171e+00 -3.693258e-01 -8.710362e-03
<VARIANCE> 26
 2.193388e+01 4.933265e+01 3.757026e+01 2.856345e+01 1.171642e+01 1.913554e+01 2.340755e+01 1.018614e+01 9.072615e+00 3.477586e+00 2.174977e+01 1.889579e+01 5.000000e-02 2.087630e+00 3.824192e+00 2.987063e+00 3.412114e+00 2.055862e+00 5.749530e-01 1.539348e+00 1.479134e+00 6.195357e-01 7.522525e-01 3.215496e+00 9.609976e-01 5.000000e-02
<GCONST> 8.186885e+01
<STATE> 4
<MEAN> 26
 -3.458456e+00 -7.400067e+00 -1.325197e+00 -5.232232e+00 -8.423020e-01 -5.168573e+00 5.528006e-01 -2.037990e+00 -1.390241e+00 -4.558128e+00 -2.343544e+00 -5.042826e+00 2.561163e-01 2.657799e+00 2.783573e-01 -1.715866e+00 -2.234824e+00 -1.320202e+00 -7.105839e-01 -1.550467e+00 -1.539027e+00 -6.594098e-01 -6.326075e-01 -2.162940e+00 -1.106549e+00 9.660380e-02
<VARIANCE> 26
 2.156692e+01 5.552256e+00 1.102074e+01 1.925956e+01 7.246784e+00 4.509174e+00 1.195687e+01 7.758108e+00 2.208376e+01 1.724952e+01 1.866691e+01 8.183891e+00 5.000000e-02 3.331296e+00 9.232039e-01 1.857046e+00 1.473188e+00 4.972219e-01 8.935477e-01 9.693592e-01 1.467464e+00 1.420147e+00 1.898690e+00 1.413234e+00 4.534555e-01 5.000000e-02
<GCONST> 7.314272e+01
<STATE> 5
<MEAN> 26
 2.201302e+00 -8.622762e+00 -5.481733e+00 -6.846548e+00 -3.007540e+00 -4.759860e+00 3.189553e-02 -5.914527e+00 -1.401944e+00 -4.174821e+00 -3.296770e+00 -5.366411e+00 4.339986e-01 1.340979e+00 -5.779572e-01 -8.513956e-01 -3.935934e-01 -1.049600e+00 -9.383346e-01 5.160885e-02 -1.003504e+00 -1.064595e+00 -9.215447e-01 -1.047492e-01 6.523513e-01 5.030928e-02
<VARIANCE> 26
 6.275281e+01 4.341408e+00 1.440819e+01 2.854855e+01 2.211710e+01 1.232992e+01 5.738686e+00 6.878279e+00 1.434702e+01 8.151090e+00 5.119203e+01 4.290948e+00 1.058149e-01 1.564470e+00 5.848598e-01 1.800312e+00 3.595930e-01 6.934209e-01 1.186994e+00 4.769388e-01 1.115930e+00 2.778335e-01 3.330561e-01 1.923904e+00 5.268092e-01 5.000000e-02
<GCONST> 6.989182e+01
<STATE> 6
<MEAN> 26
 4.860738e+00 -9.529496e+00 -9.825569e+00 -8.389966e+00 -5.799803e+00 -1.268330e+01 -1.141065e+00 -5.389147e+00 -7.552052e+00 -8.935180e+00 -8.198056e+00 -3.314987e+00 5.901152e-01 -1.919323e+00 -5.487896e-01 -5.142269e-01 4.445243e-01 4.900768e-01 -3.030218e+00 1.091208e+00 1.704988e+00 -4.621632e-01 3.247938e-01 -1.190254e+00 8.090122e-01 4.017277e-02
<VARIANCE> 26
 4.205864e+01 8.590294e+00 2.543108e+01 1.362931e+01 1.430684e+01 5.173919e+01 1.620937e+01 1.444279e+01 1.174023e+01 2.541146e+00 1.445673e+01 7.744856e+00 7.901158e-02 5.681314e+00 1.154481e+00 1.629224e+00 4.766595e-01 1.094955e+00 2.702434e+00 1.350738e+00 9.333628e-01 1.602689e+00 1.834425e+00 1.111635e+00 5.821034e-01 5.000000e-02
<GCONST> 7.775304e+01
<STATE> 7
<MEAN> 26
 -4.038890e+00 -8.741691e+00 -2.310411e+00 -2.438751e+00 -3.377658e-01 -8.536603e+00 1.301829e+00 -2.854580e+00 8.392599e-01 -3.543653e+00 -9.250088e-01 -3.568651e+00 2.834786e-01 -1.207474e+00 -4.447898e-01 -2.457464e-01 -5.676746e-02 3.744835e-01 -3.044655e-01 2.441808e-01 1.208971e+00 8.444120e-01 3.964542e-01 -3.533739e-01 2.771428e-01 -1.131387e-03
<VARIANCE> 26
 4.537120e+00 3.797511e+00 3.269748e+01 8.976793e+00 8.491499e+00 4.486536e+01 1.082917e+01 1.060003e+01 1.845607e+01 1.026295e+01 4.877213e+01 6.840501e+00 6.506260e-02 3.312648e+00 6.971169e-01 1.951472e+00 8.252464e-01 7.300127e-01 1.165573e+00 1.129208e+00 1.763251e+00 1.490696e+00 2.200414e+00 1.560270e+00 1.349899e+00 5.000000e-02
<GCONST> 7.609845e+01
<STATE> 8
<MEAN> 26
 -8.222159e+00 -1.204860e+01 -7.471201e+00 -1.112030e+01 -1.443986e+00 -1.089790e+01 2.563529e+00 4.012350e+00 -4.419871e-01 -4.234023e+00 -1.130283e+01 -1.398963e+00 6.627358e-01 -2.461045e+00 -4.006144e-01 -5.559130e-01 -1.000226e+00 7.066299e-01 2.421483e+00 -6.054925e-01 1.935164e+00 1.911252e+00 7.615991e-01 -5.610114e-01 3.883559e-02 4.201125e-02
<VARIANCE> 26
 2.843900e+00 9.600256e+00 2.208315e+01 2.873570e+01 6.570744e+00 2.996325e+01 1.264740e+00 1.773911e+01 9.688229e+00 2.017797e+01 6.475624e+01 3.543945e+00 1.284032e-01 1.993222e+00 1.187829e+00 1.157740e+00 9.855220e-01 8.834450e-01 1.208884e+00 1.220421e+00 7.014224e-01 1.534126e+00 3.396611e-01 9.143335e-01 6.209207e-01 5.000000e-02
<GCONST> 7.128716e+01
<STATE> 9
<MEAN> 26
 -9.381111e+00 -1.213021e+01 -7.154411e+00 -8.152666e+00 -5.648328e-02 -7.654586e+00 -2.039894e-01 4.073437e+00 3.598267e+00 -2.242300e+00 -9.220236e+00 -2.514995e+00 5.894752e-01 2.450410e-02 1.726008e-01 -7.243249e-01 -6.491023e-01 8.661044e-01 1.578532e+00 -1.299041e+00 3.214917e-02 1.072456e+00 -2.372839e-01 5.191454e-02 -4.641827e-01 3.007501e-02
<VARIANCE> 26
 9.801733e+00 8.604268e+00 4.217276e+01 4.487618e+01 2.751448e+00 9.264800e+00 6.599352e+00 1.300016e+01 5.646963e+00 1.713692e+01 1.034714e+02 2.009975e+00 1.864951e-01 9.518968e-01 2.886245e-01 9.704982e-01 1.660386e-01 1.388192e+00 1.921416e+00 5.510420e-01 7.414829e-01 1.456902e+00 3.424146e-01 4.442909e-01 5.586678e-01 5.000000e-02
<GCONST> 6.756998e+01
<STATE> 10
<MEAN> 26
 -9.032337e+00 -1.246236e+01 -1.302118e+01 -1.184280e+01 4.284470e+00 -3.239862e+00 -2.660380e+00 6.609153e+00 5.006803e+00 -4.955031e+00 -1.034740e+01 -4.959948e+00 8.341964e-01 1.892091e-01 -1.586961e-01 -1.405219e-01 -3.533764e-01 1.502174e+00 1.380953e+00 -9.554260e-01 -4.750025e-01 4.052387e-01 1.961812e-01 3.903784e-01 -7.776514e-01 1.730767e-03
<VARIANCE> 26
 6.823719e+00 3.600723e+00 3.786712e+01 3.144126e+01 5.338423e+00 1.670824e+01 1.023041e+01 1.679373e+01 8.244804e+00 1.108528e+01 5.030021e+01 9.935086e+00 1.140546e-01 5.000000e-02 2.024317e-01 1.385271e-01 4.656180e-01 7.919117e-01 1.618577e+00 8.811979e-01 2.470796e-01 4.949233e-01 1.424741e+00 4.847479e-01 2.955296e-01 5.000000e-02
<GCONST> 6.236529e+01
<STATE> 11
<MEAN> 26
 -7.254019e+00 -1.042205e+01 -4.298165e+00 -5.053378e+00 2.854499e+00 -3.631094e+00 -2.278953e+00 -7.008967e-01 3.030856e+00 -4.306978e+00 -8.510079e-01 -2.458310e+00 2.939685e-01 -6.820385e-02 5.018517e-02 2.840464e-01 9.870587e-02 -5.239978e-02 -5.242249e-01 -2.170654e-01 -3.604536e-02 -5.975863e-03 1.755615e-01 4.776276e-01 2.137257e-01 -3.523865e-04
<VARIANCE> 26
 6.353787e+00 4.060391e+00 4.138376e+01 4.411289e+01 1.235178e+01 8.328267e+00 1.253732e+01 2.107981e+01 1.059982e+01 1.059553e+01 4.939912e+01 9.988483e+00 1.302635e-01 4.270480e-01 3.986212e-01 9.805275e-01 1.267569e+00 8.737595e-01 7.329035e-01 3.364604e-01 1.904008e+00 1.608207e+00 1.885585e+00 8.023768e-01 7.544002e-01 5.000000e-02
<GCONST> 7.280715e+01
<STATE> 12
<MEAN> 26
 -6.779015e+00 -1.003254e+01 -5.701009e+00 -7.131051e+00 4.336825e+00 -4.239191e+00 -2.082820e+00 1.313375e+00 4.059482e+00 -2.095529e+00 -1.949628e+00 -3.283595e+00 5.059581e-01 5.114170e-01 4.882270e-01 1.614103e-01 -1.321674e+00 -4.714734e-01 6.356600e-01 3.490822e-03 -1.514601e+00 -1.115835e+00 4.690933e-01 -1.632618e-01 -1.011243e+00 -2.030088e-03
<VARIANCE> 26
 6.201440e+00 4.154970e+00 7.880174e+01 6.976965e+01 2.380997e+00 1.124601e+01 1.362888e+01 1.015106e+01 8.462527e+00 5.305658e+00 5.801108e+01 2.005307e+01 1.406863e-01 3.581097e-01 2.990888e-01 8.073012e-01 1.037595e+00 2.065364e+00 1.044117e+00 1.342150e+00 1.618777e+00 8.659972e-01 1.756880e+00 7.106451e-01 1.127911e+00 5.000000e-02
<GCONST> 7.310161e+01
<STATE> 13
<MEAN> 26
 -5.655882e+00 -8.519357e+00 -4.036420e+00 -8.867557e+00 2.360721e-01 -3.406178e+00 -1.862922e+00 -1.968986e+00 1.972611e+00 -3.467578e+00 -3.560949e+00 -3.960679e+00 3.930722e-01 9.720654e-01 4.432330e-01 -9.038265e-02 -8.570580e-01 -9.182923e-01 -2.833243e-01 -2.940719e-01 -6.100644e-01 -2.792183e-01 -2.518333e-02 -8.195708e-01 -3.051097e-02 1.614174e-02
<VARIANCE> 26
 1.088224e+01 9.126827e+00 5.594803e+01 7.481785e+01 8.778595e+00 5.634644e+00 1.817579e+01 9.337501e+00 7.625510e+00 9.140504e+00 5.290974e+01 1.726013e+01 1.172644e-01 8.229947e-01 1.165577e-01 2.316865e+00 1.046847e+00 1.525001e+00 1.157304e+00 5.520599e-01 1.077144e+00 7.108085e-01 2.220223e+00 1.401725e+00 2.096338e+00 5.000000e-02
<GCONST> 7.580444e+01
<STATE> 14
<MEAN> 26
 -6.631514e+00 -9.962553e+00 -1.010381e+01 -1.816580e+01 4.533527e+00 -3.489917e+00 -7.405283e+00 -2.785872e+00 2.250583e+00 -2.033911e-01 -1.161426e+01 -8.265609e+00 7.707042e-01 1.654923e+00 -9.134519e-02 1.649710e+00 -6.519857e-02 -9.850054e-01 -1.070808e-01 -6.971985e-01 -1.377102e+00 -5.046204e-01 9.715472e-01 -6.424106e-01 1.595797e-01 4.913643e-03
<VARIANCE> 26
 2.794826e+01 8.143511e+00 2.708630e+01 3.907313e+01 6.315961e+01 1.621096e+01 1.523615e+01 1.207871e+01 1.265459e+01 2.008137e+01 4.328592e+01 1.888623e+01 6.165573e-02 6.068794e-01 6.599532e-01 3.712218e+00 1.432427e+00 3.308419e+00 1.012809e+00 3.126892e-01 1.218295e+00 9.397851e-01 5.773364e-01 1.478031e+00 2.522722e+00 5.000000e-02
<GCONST> 8.049017e+01
<STATE> 15
<MEAN> 26
 2.312405e+00 -8.834304e+00 -6.797109e+00 -1.448783e+01 -3.212053e+00 -7.102069e+00 -4.849021e+00 -4.558616e+00 -2.666532e+00 -2.435023e+00 -9.290025e+00 -6.744502e+00 7.182108e-01 2.259129e+00 -9.908238e-01 5.222304e-01 -6.835531e-01 -1.493750e+00 -1.298660e+00 9.953142e-01 -1.203623e-01 -1.299622e+00 -1.021453e+00 -6.433300e-01 9.805055e-01 5.175533e-02
<VARIANCE> 26
 4.145236e+01 1.401410e+01 2.142611e+01 3.742460e+01 2.692175e+01 1.089129e+01 2.394106e+01 1.576761e+01 1.905323e+01 2.794263e+01 5.463921e+01 1.866961e+01 5.000000e-02 2.865720e+00 1.076817e+00 7.897505e+00 3.310615e+00 9.196098e-01 1.476945e+00 2.773602e+00 2.610373e+00 4.363610e+00 2.617597e+00 3.569666e+00 3.663201e+00 5.000000e-02
<GCONST> 9.134705e+01
<STATE> 16
<MEAN> 26
 3.990755e-01 -1.327024e+01 -3.937014e+00 -1.346439e+01 -6.313725e+00 -1.016048e+01 -7.374454e-02 -1.852316e+00 -3.706481e+00 -4.837527e+00 -9.923947e+00 -1.030824e+00 8.212454e-01 -4.937371e-01 -1.393833e+00 5.516849e-01 6.089915e-02 -6.029385e-01 -2.445351e-01 -1.950144e-01 1.089029e+00 1.564487e+00 -1.667247e+00 3.276550e-01 5.619709e-01 2.404608e-02
<VARIANCE> 26
 4.492296e+01 8.342802e+00 3.081083e+01 3.066180e+01 2.628204e+01 2.371990e+01 1.538035e+01 3.113639e+01 6.334454e+01 4.714638e+01 6.454131e+00 1.841400e+01 5.000000e-02 6.513080e+00 1.431116e-01 2.039188e+00 8.755078e-01 1.989817e+00 5.254991e+00 6.681292e+00 1.691717e+00 7.476457e+00 2.501303e+00 2.469927e+00 1.934684e+00 5.000000e-02
<GCONST> 8.973119e+01
<STATE> 17
<MEAN> 26
 1.785338e+00 -1.373820e+01 -8.094094e+00 -1.481316e+01 -5.973498e-01 -1.468713e+01 9.507571e-01 3.326138e+00 -3.266537e+00 -4.820399e+00 -1.024266e+01 -3.027008e+00 8.698819e-01 -1.154595e+00 -9.971939e-01 -8.338117e-01 -7.023170e-02 2.024029e+00 3.574246e-01 2.019479e-01 1.816656e+00 1.360435e+00 3.083577e-01 -1.177508e+00 -7.837451e-01 1.297573e-02
<VARIANCE> 26
 3.034661e+01 9.726200e+00 7.762467e+01 1.880391e+01 5.761301e+01 1.578214e+02 4.472742e+01 6.537767e+01 1.042349e+02 1.064568e+01 2.542146e+01 9.716514e+00 5.000000e-02 6.285256e+00 3.749793e-01 1.446124e+00 9.755687e-01 4.455088e+00 1.049460e+01 4.481314e+00 6.312004e+00 2.507756e+00 4.288566e+00 4.931969e+00 1.432439e+00 5.000000e-02
<GCONST> 9.710320e+01
<STATE> 18
<MEAN> 26
 -1.962670e+00 -1.752581e+01 -6.605254e+00 -1.721562e+01 1.649667e+00 -5.948286e+00 -8.233433e+00 1.580935e+00 3.981979e+00 -4.176070e+00 -1.469948e+01 -4.230920e+00 8.925560e-01 2.174597e-01 -1.989894e-01 -4.987750e-01 -6.389984e-01 8.057516e-01 9.482685e-01 -1.337480e+00 -4.612286e-01 -3.987418e-01 4.033110e-01 -1.886646e-01 -3.215178e-01 -5.971839e-03
<VARIANCE> 26
 1.970379e+01 2.917380e+00 5.796676e+01 1.436043e+01 4.749834e+01 2.414855e+01 3.415707e+01 5.230240e+01 2.140323e+01 6.094275e+00 2.891636e+01 1.011737e+01 5.000000e-02 2.151378e-01 5.210513e-01 2.370265e-01 7.824077e-01 2.464250e+00 3.061038e+00 4.306802e-01 4.430400e-01 3.599925e+00 1.535579e+00 1.548448e+00 9.148200e-01 5.000000e-02
<GCONST> 7.620052e+01
<STATE> 19
<MEAN> 26
 -1.816287e+00 -1.583885e+01 -1.153649e+01 -1.484592e+01 3.576357e+00 -4.275798e+00 -5.766569e+00 3.908183e+00 -8.449821e-01 -4.005433e+00 -1.356476e+01 -6.627108e+00 9.069500e-01 5.928603e-01 -2.305723e-01 5.426521e-01 -4.175622e-01 -5.129393e-01 1.160612e+00 -1.108613e+00 -8.995414e-01 1.009974e-01 4.858296e-01 1.232512e+00 -6.053936e-02 -1.507161e-02
<VARIANCE> 26
 1.722363e+01 1.393312e+00 5.807521e+01 4.103994e+01 3.287868e+01 1.206028e+01 4.197171e+01 3.729352e+01 2.228599e+01 7.049169e+00 2.574708e+01 1.770561e+01 5.000000e-02 2.558344e-01 2.186692e-01 8.442053e-01 3.719139e-01 1.178634e+00 1.811190e+00 8.933205e-01 4.627987e-01 6.749955e-01 1.004821e+00 1.592138e+00 3.259610e-01 5.000000e-02
<GCONST> 7.205428e+01
<STATE> 20
<MEAN> 26
 2.517851e+00 -1.799498e+01 -2.557705e+00 -1.832135e+01 -1.160423e+00 -2.729296e+00 -9.317541e+00 -3.418181e+00 3.611165e+00 -3.011336e+00 -9.812330e+00 -4.774293e+00 7.594159e-01 1.095016e+00 -3.107689e-01 1.891739e-01 1.053568e+00 -2.385020e+00 5.270452e-01 4.275552e-01 -1.019343e+00 9.129191e-01 -3.141498e-01 1.233266e+00 -3.592514e-01 -2.056061e-02
<VARIANCE> 26
 8.806537e+00 2.557356e+00 2.964592e+01 1.447300e+01 4.453395e+01 9.803397e+00 1.531916e+01 3.010236e+01 2.733854e+01 5.804036e+00 4.492831e+00 9.204206e+00 5.000000e-02 7.100250e-01 3.197589e-01 1.512551e+00 2.161457e+00 2.367579e+00 1.829797e+00 1.510617e+00 2.046189e+00 1.895294e+00 1.432911e+00 1.133692e+00 5.585589e-01 5.000000e-02
<GCONST> 7.480977e+01
<STATE> 21
<MEAN> 26
 6.254203e+00 -1.740985e+01 -6.264254e+00 -1.565396e+01 -9.541578e+00 -2.779689e+00 -7.689363e+00 -8.098739e+00 3.575439e+00 -5.903383e+00 -8.146545e+00 -3.895267e+00 7.730697e-01 3.013922e-01 2.798755e-01 -1.001650e+00 2.761919e-01 -4.909438e-01 -9.320151e-01 3.071225e-01 -4.581966e-01 -1.156126e-02 -1.104477e-01 -2.449070e-01 2.431756e-02 -1.990360e-02
<VARIANCE> 26
 5.995166e+00 2.025801e+00 1.846296e+01 6.637644e+00 1.628694e+01 6.093239e+00 1.207900e+01 1.476688e+01 2.393162e+01 1.869354e+01 7.557840e+00 5.884277e+00 5.000000e-02 4.202729e-01 1.842415e-01 1.251596e+00 7.518298e-01 1.147005e+00 7.950299e-01 6.534994e-01 1.838771e+00 1.583202e+00 8.419147e-01 9.301174e-01 3.519225e-01 5.000000e-02
<GCONST> 6.542130e+01
<STATE> 22
<MEAN> 26
 5.948469e+00 -1.657888e+01 -8.234426e+00 -1.549288e+01 -8.762513e+00 -6.868312e+00 -4.233365e+00 -7.323619e+00 1.558869e+00 -2.341051e+00 -8.927850e+00 -6.740780e+00 7.455460e-01 1.245030e+00 4.705755e-01 2.124397e-01 1.303571e+00 -8.986735e-01 -9.106740e-01 3.751614e-01 -3.678426e-01 4.260387e-01 -1.350593e+00 5.983421e-01 7.619634e-01 -1.784594e-02
<VARIANCE> 26
 3.095830e+00 1.160598e+00 9.810042e+00 4.963555e+00 2.211160e+01 9.364763e+00 1.845525e+01 1.369498e+01 7.372115e+01 2.948658e+01 9.357883e+00 1.060209e+01 5.000000e-02 1.141145e+00 6.010733e-01 2.786137e+00 2.117414e+00 5.148341e+00 1.158130e+00 2.005408e-01 4.969453e+00 1.873909e+00 1.811478e+00 5.511128e-01 3.777170e-01 5.000000e-02
<GCONST> 7.293744e+01
<STATE> 23
<MEAN> 26
 6.531254e+00 -1.363458e+01 -7.280271e+00 -1.180933e+01 -5.710300e+00 -5.853198e+00 -5.329422e+00 -4.759474e+00 4.243177e+00 -6.115186e+00 -4.975430e+00 -2.435837e+00 6.144603e-01 -8.054048e-02 1.447212e+00 1.794751e-01 1.871854e+00 1.137046e+00 -8.330219e-01 9.497703e-01 8.911810e-01 -5.395151e-01 -8.488510e-01 5.361815e-01 2.274037e-01 -3.266234e-02
<VARIANCE> 26
 6.129177e+00 8.588706e+00 8.591925e+00 2.539378e+01 1.715732e+01 4.481063e+00 1.265318e+01 4.249195e+00 2.887235e+01 1.009607e+01 1.326321e+01 7.339556e+00 5.000000e-02 6.865367e-01 4.935371e-01 1.317252e+00 1.078609e+00 6.382358e-01 1.505831e+00 5.214980e-01 4.253296e-01 2.073898e+00 9.326296e-01 1.120804e+00 6.212031e-01 5.000000e-02
<GCONST> 6.774335e+01
<STATE> 24
<MEAN> 26
 9.047768e+00 -1.302121e+01 -9.466525e+00 -9.385795e+00 -8.102976e+00 -1.031864e+01 -3.696133e+00 -4.412970e+00 6.231536e-01 -8.803033e+00 -8.011863e+00 -5.384243e+00 7.267672e-01 -4.423210e-01 3.880572e-01 -2.864209e-02 7.547928e-01 6.554208e-01 -7.187071e-01 -4.713708e-02 5.687744e-01 -3.024673e-01 -3.233284e-01 -1.367460e-01 -4.121454e-01 -2.351595e-02
<VARIANCE> 26
 1.025374e+01 6.949543e+00 1.728558e+01 9.072973e+00 1.327924e+01 5.816899e+00 1.227011e+01 2.552548e+01 5.542567e+01 8.370036e+00 5.485715e+00 1.646133e+01 5.000000e-02 7.193898e-01 1.119708e-01 1.590118e+00 1.736890e+00 3.896584e-01 9.571505e-01 4.514430e-01 1.140698e+00 4.445428e-01 1.028300e+00 1.629795e+00 7.721221e-01 5.000000e-02
<GCONST> 6.814564e+01
<STATE> 25
<MEAN> 26
 3.105080e+00 -1.182965e+01 -7.036297e+00 -7.316790e+00 -3.519594e+00 -9.034780e+00 -5.422028e+00 -2.655170e+00 3.734113e+00 -1.044114e+01 -7.106193e+00 -4.442436e+00 4.882576e-01 -1.508187e+00 -4.710733e-01 -1.288473e-01 1.046546e+00 1.705829e+00 5.452273e-01 3.997912e-01 4.298266e-01 -6.219301e-01 -7.863826e-02 -6.483951e-02 -6.440684e-01 -5.721492e-02
<VARIANCE> 26
 1.297826e+01 8.891835e+00 1.502718e+01 1.003748e+01 1.053745e+01 1.255898e+01 3.825385e+00 3.440787e+00 3.228529e+01 8.644967e+00 6.286661e+00 1.425189e+01 5.000000e-02 4.813223e-01 5.795665e-01 7.040001e-01 1.720480e+00 4.132253e-01 1.246663e+00 1.400639e+00 2.356777e+00 1.099303e+00 8.091004e-01 1.593230e+00 1.084455e+00 5.000000e-02
<GCONST> 6.902313e+01
<STATE> 26
<MEAN> 26
 1.350786e+00 -1.327520e+01 -6.401680e+00 -2.117662e+00 2.750535e+00 -6.958600e+00 -2.788126e+00 -2.169666e+00 1.649005e+00 -9.107806e+00 -8.235377e+00 -7.376438e+00 3.726738e-01 -4.414338e-01 -1.847098e-01 2.035225e-01 6.640652e-01 2.888651e-01 1.054080e+00 1.376733e+00 1.910442e-01 8.651434e-01 4.942532e-01 8.080794e-01 6.587322e-01 -2.819932e-02
<VARIANCE> 26
 1.251526e+01 1.288915e+00 7.111610e+00 1.610711e+01 2.538793e+01 1.988616e+01 4.824507e+00 7.894628e+00 1.847119e+01 1.145567e+00 2.514744e+01 7.104391e+00 5.000000e-02 2.051349e-01 5.152129e-01 6.455473e-01 1.809194e+00 1.492515e+00 8.745771e-01 3.151961e-01 6.979895e-01 5.515066e-01 7.615023e-01 1.212200e+00 2.836092e+00 5.000000e-02
<GCONST> 6.444443e+01
<STATE> 27
<MEAN> 26
 3.495877e+00 -1.131067e+01 -7.474923e+00 -7.645285e+00 -3.789430e+00 -7.635874e+00 -1.923153e+00 -1.876312e+00 3.027332e+00 -7.914211e+00 -4.082794e+00 -2.867847e+00 4.636606e-01 -6.110841e-01 6.868337e-01 8.284026e-01 1.446714e-02 2.844543e-01 3.926247e-01 -8.904111e-01 -5.949573e-01 1.046849e-01 5.519198e-01 8.678245e-01 8.931560e-01 -2.870480e-02
<VARIANCE> 26
 3.384490e+01 3.508593e+00 2.924579e+01 1.037811e+01 2.089957e+01 3.330325e+01 1.818888e+01 7.077991e+00 2.655615e+01 9.845281e+00 8.697699e+00 7.091550e+00 5.063566e-02 1.342161e-01 1.739292e-01 8.956442e-01 1.145393e+00 1.610998e+00 1.550942e+00 2.496756e+00 1.293209e+00 1.774113e+00 4.405781e-01 5.766919e-01 7.359996e-01 5.000000e-02
<GCONST> 7.064244e+01
<STATE> 28
<MEAN> 26
 -2.828403e+00 -1.085095e+01 -2.230754e+00 -3.603653e+00 1.451051e+00 -3.851163e+00 -1.296554e+00 -2.465048e+00 2.603465e+00 -5.506096e+00 -1.306754e+00 -1.334967e+00 2.419415e-01 -3.316354e-01 5.582175e-01 6.702235e-01 1.914674e-01 1.894688e-02 -1.663939e-01 5.654293e-01 3.408702e-01 -4.051431e-01 5.821224e-01 4.525141e-01 -1.876402e-01 -1.183381e-02
<VARIANCE> 26
 8.506019e+00 4.054621e+00 9.054057e+00 5.334600e+00 1.041170e+01 1.688971e+01 3.255200e+01 8.453713e+00 2.782204e+01 1.211316e+01 9.206248e+00 1.290153e+01 5.000000e-02 2.535975e-01 7.445678e-01 8.408087e-01 4.241480e-01 7.685296e-01 1.293186e+00 6.601493e-01 7.886912e-01 2.038488e+00 1.631708e+00 1.309122e+00 3.086434e-01 5.000000e-02
<GCONST> 6.753458e+01
<STATE> 29
<MEAN> 26
 -1.096359e+00 -7.354912e+00 -1.073555e+00 -2.553209e+00 -3.516964e-01 -6.636899e+00 -1.279342e-01 -3.158717e+00 1.437657e+00 -4.303111e+00 -6.281757e-01 -2.875425e+00 2.831925e-01 -9.820150e-01 2.343024e-01 5.867035e-01 3.943246e-01 2.380439e-01 4.933626e-01 7.285707e-02 -5.956242e-01 2.570458e-01 -2.779400e-01 1.569375e-01 9.390506e-02 -3.670587e-02
<VARIANCE> 26
 1.166037e+01 1.411413e+00 9.015499e+00 6.191781e+00 7.809892e+00 1.929984e+01 1.007611e+01 8.673274e+00 1.201362e+01 1.153074e+01 1.045208e+01 1.005316e+01 5.000000e-02 1.682077e+00 4.902947e-01 2.608239e+00 9.417869e-01 7.810172e-01 1.054468e+00 2.266011e+00 1.046965e+00 5.398821e-01 7.584527e-01 1.845209e+00 1.818190e+00 5.000000e-02
<GCONST> 6.938127e+01
<STATE> 30
<MEAN> 26
 -3.892787e+00 -8.251303e+00 -1.429805e+00 -3.786198e+00 -2.080333e-01 -5.231552e+00 1.003309e+00 -2.432498e+00 2.047758e+00 -4.996059e+00 -6.795406e-01 -3.274619e+00 1.754278e-01 -7.928352e-01 -4.682379e-01 -3.021183e-01 3.460189e-01 1.429978e-01 4.109076e-01 6.416646e-01 9.885838e-01 4.161771e-01 4.679605e-01 7.007743e-01 -1.899561e-02 -3.423646e-02
<VARIANCE> 26
 1.065833e+00 2.882900e+00 8.536957e+00 2.491419e+00 4.367409e+00 5.809545e+00 7.679499e+00 1.162319e+01 6.627982e+00 1.113050e+01 2.142122e+01 2.446823e+01 5.000000e-02 1.281815e-01 5.004783e-01 7.005060e-01 1.005824e+00 9.934926e-01 7.956805e-01 7.833498e-01 1.851871e-01 4.755468e-01 8.829021e-01 3.037663e-01 8.009356e-01 5.000000e-02
<GCONST> 5.671753e+01
<STATE> 31
<MEAN> 26
 -5.988065e+00 -1.088947e+01 -1.790693e+00 -1.423920e+00 8.121607e-01 -4.259327e+00 -1.095927e+00 8.194749e-01 4.254981e+00 -4.314775e+00 -8.086837e-02 -2.978417e+00 1.016810e-01 -4.282793e-01 -1.016683e-01 -8.056410e-02 -7.508014e-02 3.712153e-02 6.016579e-01 -2.615024e-01 1.138651e-01 2.632915e-01 4.002543e-01 1.997737e-01 3.988242e-02 -1.830848e-02
<VARIANCE> 26
 3.194354e+00 3.782125e+00 3.176402e+00 1.366275e+01 7.307185e+00 4.338711e+00 1.267420e+01 4.060308e+00 1.298630e+01 8.136386e+00 7.218005e+00 7.272216e+00 5.000000e-02 9.799302e-02 4.913006e-01 4.140162e-01 2.579542e-01 2.042839e-01 4.884115e-01 4.211099e-01 9.871638e-01 3.474203e-01 2.207789e-01 5.398337e-01 6.697308e-01 5.000000e-02
<GCONST> 5.203539e+01
<TRANSP> 32
 0.000000e+00 1.000000e+00 0.000000e+00 0.000000e+00 0.000000e+00 0.000000e+00 0.000000e+00 0.000000e+00 0.000000e+00 0.000000e+00 0.000000e+00 0.000000e+00 0.000000e+00 0.000000e+00 0.000000e+00 0.000000e+00 0.000000e+00 0.000000e+00 0.000000e+00 0.000000e+00 0.000000e+00 0.000000e+00 0.000000e+00 0.000000e+00 0.000000e+00 0.000000e+00 0.000000e+00 0.000000e+00 0.000000e+00 0.000000e+00 0.000000e+00 0.000000e+00
 0.000000e+00 5.451893e-01 4.548108e-01 0.000000e+00 0.000000e+00 0.000000e+00 0.000000e+00 0.000000e+00 0.000000e+00 0.000000e+00 0.000000e+00 0.000000e+00 0.000000e+00 0.000000e+00 0.000000e+00 0.000000e+00 0.000000e+00 0.000000e+00 0.000000e+00 0.000000e+00 0.000000e+00 0.000000e+00 0.000000e+00 0.000000e+00 0.000000e+00 0.000000e+00 0.000000e+00 0.000000e+00 0.000000e+00 0.000000e+00 0.000000e+00 0.000000e+00
 0.000000e+00 0.000000e+00 6.151718e-01 3.848282e-01 0.000000e+00 0.000000e+00 0.000000e+00 0.000000e+00 0.000000e+00 0.000000e+00 0.000000e+00 0.000000e+00 0.000000e+00 0.000000e+00 0.000000e+00 0.000000e+00 0.000000e+00 0.000000e+00 0.000000e+00 0.000000e+00 0.000000e+00 0.000000e+00 0.000000e+00 0.000000e+00 0.000000e+00 0.000000e+00 0.000000e+00 0.000000e+00 0.000000e+00 0.000000e+00 0.000000e+00 0.000000e+00
 0.000000e+00 0.000000e+00 0.000000e+00 5.471733e-01 4.528267e-01 0.000000e+00 0.000000e+00 0.000000e+00 0.000000e+00 0.000000e+00 0.000000e+00 0.000000e+00 0.000000e+00 0.000000e+00 0.000000e+00 0.000000e+00 0.000000e+00 0.000000e+00 0.000000e+00 0.000000e+00 0.000000e+00 0.000000e+00 0.000000e+00 0.000000e+00 0.000000e+00 0.000000e+00 0.000000e+00 0.000000e+00 0.000000e+00 0.000000e+00 0.000000e+00 0.000000e+00
 0.000000e+00 0.000000e+00 0.000000e+00 0.000000e+00 4.429749e-01 5.570251e-01 0.000000e+00 0.000000e+00 0.000000e+00 0.000000e+00 0.000000e+00 0.000000e+00 0.000000e+00 0.000000e+00 0.000000e+00 0.000000e+00 0.000000e+00 0.000000e+00 0.000000e+00 0.000000e+00 0.000000e+00 0.000000e+00 0.000000e+00 0.000000e+00 0.000000e+00 0.000000e+00 0.000000e+00 0.000000e+00 0.000000e+00 0.000000e+00 0.000000e+00 0.000000e+00
 0.000000e+00 0.000000e+00 0.000000e+00 0.000000e+00 0.000000e+00 4.444913e-01 5.555087e-01 0.000000e+00 0.000000e+00 0.000000e+00 0.000000e+00 0.000000e+00 0.000000e+00 0.000000e+00 0.000000e+00 0.000000e+00 0.000000e+00 0.000000e+00 0.000000e+00 0.000000e+00 0.000000e+00 0.000000e+00 0.000000e+00 0.000000e+00 0.000000e+00 0.000000e+00 0.000000e+00 0.000000e+00 0.000000e+00 0.000000e+00 0.000000e+00 0.000000e+00
 0.000000e+00 0.000000e+00 0.000000e+00 0.000000e+00 0.000000e+00 0.000000e+00 6.665888e-01 3.334112e-01 0.000000e+00 0.000000e+00 0.000000e+00 0.000000e+00 0.000000e+00 0.000000e+00 0.000000e+00 0.000000e+00 0.000000e+00 0.000000e+00 0.000000e+00 0.000000e+00 0.000000e+00 0.000000e+00 0.000000e+00 0.000000e+00 0.000000e+00 0.000000e+00 0.000000e+00 0.000000e+00 0.000000e+00 0.000000e+00 0.000000e+00 0.000000e+00
 0.000000e+00 0.000000e+00 0.000000e+00 0.000000e+00 0.000000e+00 0.000000e+00 0.000000e+00 3.749098e-01 6.250902e-01 0.000000e+00 0.000000e+00 0.000000e+00 0.000000e+00 0.000000e+00 0.000000e+00 0.000000e+00 0.000000e+00 0.000000e+00 0.000000e+00 0.000000e+00 0.000000e+00 0.000000e+00 0.000000e+00 0.000000e+00 0.000000e+00 0.000000e+00 0.000000e+00 0.000000e+00 0.000000e+00 0.000000e+00 0.000000e+00 0.000000e+00
 0.000000e+00 0.000000e+00 0.000000e+00 0.000000e+00 0.000000e+00 0.000000e+00 0.000000e+00 0.000000e+00 4.444854e-01 5.555146e-01 0.000000e+00 0.000000e+00 0.000000e+00 0.000000e+00 0.000000e+00 0.000000e+00 0.000000e+00 0.000000e+00 0.000000e+00 0.000000e+00 0.000000e+00 0.000000e+00 0.000000e+00 0.000000e+00 0.000000e+00 0.000000e+00 0.000000e+00 0.000000e+00 0.000000e+00 0.000000e+00 0.000000e+00 0.000000e+00
 0.000000e+00 0.000000e+00 0.000000e+00 0.000000e+00 0.000000e+00 0.000000e+00 0.000000e+00 0.000000e+00 0.000000e+00 5.425280e-01 4.574721e-01 0.000000e+00 0.000000e+00 0.000000e+00 0.000000e+00 0.000000e+00 0.000000e+00 0.000000e+00 0.000000e+00 0.000000e+00 0.000000e+00 0.000000e+00 0.000000e+00 0.000000e+00 0.000000e+00 0.000000e+00 0.000000e+00 0.000000e+00 0.000000e+00 0.000000e+00 0.000000e+00 0.000000e+00
 0.000000e+00 0.000000e+00 0.000000e+00 0.000000e+00 0.000000e+00 0.000000e+00 0.000000e+00 0.000000e+00 0.000000e+00 0.000000e+00 6.434104e-01 3.565896e-01 0.000000e+00 0.000000e+00 0.000000e+00 0.000000e+00 0.000000e+00 0.000000e+00 0.000000e+00 0.000000e+00 0.000000e+00 0.000000e+00 0.000000e+00 0.000000e+00 0.000000e+00 0.000000e+00 0.000000e+00 0.000000e+00 0.000000e+00 0.000000e+00 0.000000e+00 0.000000e+00
 0.000000e+00 0.000000e+00 0.000000e+00 0.000000e+00 0.000000e+00 0.000000e+00 0.000000e+00 0.000000e+00 0.000000e+00 0.000000e+00 0.000000e+00 4.968261e-01 5.031739e-01 0.000000e+00 0.000000e+00 0.000000e+00 0.000000e+00 0.000000e+00 0.000000e+00 0.000000e+00 0.000000e+00 0.000000e+00 0.000000e+00 0.000000e+00 0.000000e+00 0.000000e+00 0.000000e+00 0.000000e+00 0.000000e+00 0.000000e+00 0.000000e+00 0.000000e+00
 0.000000e+00 0.000000e+00 0.000000e+00 0.000000e+00 0.000000e+00 0.000000e+00 0.000000e+00 0.000000e+00 0.000000e+00 0.000000e+00 0.000000e+00 0.000000e+00 5.469915e-01 4.530086e-01 0.000000e+00 0.000000e+00 0.000000e+00 0.000000e+00 0.000000e+00 0.000000e+00 0.000000e+00 0.000000e+00 0.000000e+00 0.000000e+00 0.000000e+00 0.000000e+00 0.000000e+00 0.000000e+00 0.000000e+00 0.000000e+00 0.000000e+00 0.000000e+00
 0.000000e+00 0.000000e+00 0.000000e+00 0.000000e+00 0.000000e+00 0.000000e+00 0.000000e+00 0.000000e+00 0.000000e+00 0.000000e+00 0.000000e+00 0.000000e+00 0.000000e+00 4.445681e-01 5.554320e-01 0.000000e+00 0.000000e+00 0.000000e+00 0.000000e+00 0.000000e+00 0.000000e+00 0.000000e+00 0.000000e+00 0.000000e+00 0.000000e+00 0.000000e+00 0.000000e+00 0.000000e+00 0.000000e+00 0.000000e+00 0.000000e+00 0.000000e+00
 0.000000e+00 0.000000e+00 0.000000e+00 0.000000e+00 0.000000e+00 0.000000e+00 0.000000e+00 0.000000e+00 0.000000e+00 0.000000e+00 0.000000e+00 0.000000e+00 0.000000e+00 0.000000e+00 5.649425e-01 4.350575e-01 0.000000e+00 0.000000e+00 0.000000e+00 0.000000e+00 0.000000e+00 0.000000e+00 0.000000e+00 0.000000e+00 0.000000e+00 0.000000e+00 0.000000e+00 0.000000e+00 0.000000e+00 0.000000e+00 0.000000e+00 0.000000e+00
 0.000000e+00 0.000000e+00 0.000000e+00 0.000000e+00 0.000000e+00 0.000000e+00 0.000000e+00 0.000000e+00 0.000000e+00 0.000000e+00 0.000000e+00 0.000000e+00 0.000000e+00 0.000000e+00 0.000000e+00 4.122494e-01 5.877506e-01 0.000000e+00 0.000000e+00 0.000000e+00 0.000000e+00 0.000000e+00 0.000000e+00 0.000000e+00 0.000000e+00 0.000000e+00 0.000000e+00 0.000000e+00 0.000000e+00 0.000000e+00 0.000000e+00 0.000000e+00
 0.000000e+00 0.000000e+00 0.000000e+00 0.000000e+00 0.000000e+00 0.000000e+00 0.000000e+00 0.000000e+00 0.000000e+00 0.000000e+00 0.000000e+00 0.000000e+00 0.000000e+00 0.000000e+00 0.000000e+00 0.000000e+00 3.764260e-01 6.235740e-01 0.000000e+00 0.000000e+00 0.000000e+00 0.000000e+00 0.000000e+00 0.000000e+00 0.000000e+00 0.000000e+00 0.000000e+00 0.000000e+00 0.000000e+00 0.000000e+00 0.000000e+00 0.000000e+00
 0.000000e+00 0.000000e+00 0.000000e+00 0.000000e+00 0.000000e+00 0.000000e+00 0.000000e+00 0.000000e+00 0.000000e+00 0.000000e+00 0.000000e+00 0.000000e+00 0.000000e+00 0.000000e+00 0.000000e+00 0.000000e+00 0.000000e+00 5.002121e-01 4.997879e-01 0.000000e+00 0.000000e+00 0.000000e+00 0.000000e+00 0.000000e+00 0.000000e+00 0.000000e+00 0.000000e+00 0.000000e+00 0.000000e+00 0.000000e+00 0.000000e+00 0.000000e+00
 0.000000e+00 0.000000e+00 0.000000e+00 0.000000e+00 0.000000e+00 0.000000e+00 0.000000e+00 0.000000e+00 0.000000e+00 0.000000e+00 0.000000e+00 0.000000e+00 0.000000e+00 0.000000e+00 0.000000e+00 0.000000e+00 0.000000e+00 0.000000e+00 5.449740e-01 4.550260e-01 0.000000e+00 0.000000e+00 0.000000e+00 0.000000e+00 0.000000e+00 0.000000e+00 0.000000e+00 0.000000e+00 0.000000e+00 0.000000e+00 0.000000e+00 0.000000e+00
 0.000000e+00 0.000000e+00 0.000000e+00 0.000000e+00 0.000000e+00 0.000000e+00 0.000000e+00 0.000000e+00 0.000000e+00 0.000000e+00 0.000000e+00 0.000000e+00 0.000000e+00 0.000000e+00 0.000000e+00 0.000000e+00 0.000000e+00 0.000000e+00 0.000000e+00 4.472085e-01 5.527915e-01 0.000000e+00 0.000000e+00 0.000000e+00 0.000000e+00 0.000000e+00 0.000000e+00 0.000000e+00 0.000000e+00 0.000000e+00 0.000000e+00 0.000000e+00
 0.000000e+00 0.000000e+00 0.000000e+00 0.000000e+00 0.000000e+00 0.000000e+00 0.000000e+00 0.000000e+00 0.000000e+00 0.000000e+00 0.000000e+00 0.000000e+00 0.000000e+00 0.000000e+00 0.000000e+00 0.000000e+00 0.000000e+00 0.000000e+00 0.000000e+00 0.000000e+00 7.056566e-01 2.943434e-01 0.000000e+00 0.000000e+00 0.000000e+00 0.000000e+00 0.000000e+00 0.000000e+00 0.000000e+00 0.000000e+00 0.000000e+00 0.000000e+00
 0.000000e+00 0.000000e+00 0.000000e+00 0.000000e+00 0.000000e+00 0.000000e+00 0.000000e+00 0.000000e+00 0.000000e+00 0.000000e+00 0.000000e+00 0.000000e+00 0.000000e+00 0.000000e+00 0.000000e+00 0.000000e+00 0.000000e+00 0.000000e+00 0.000000e+00 0.000000e+00 0.000000e+00 2.864596e-01 7.135404e-01 0.000000e+00 0.000000e+00 0.000000e+00 0.000000e+00 0.000000e+00 0.000000e+00 0.000000e+00 0.000000e+00 0.000000e+00
 0.000000e+00 0.000000e+00 0.000000e+00 0.000000e+00 0.000000e+00 0.000000e+00 0.000000e+00 0.000000e+00 0.000000e+00 0.000000e+00 0.000000e+00 0.000000e+00 0.000000e+00 0.000000e+00 0.000000e+00 0.000000e+00 0.000000e+00 0.000000e+00 0.000000e+00 0.000000e+00 0.000000e+00 0.000000e+00 5.460171e-01 4.539829e-01 0.000000e+00 0.000000e+00 0.000000e+00 0.000000e+00 0.000000e+00 0.000000e+00 0.000000e+00 0.000000e+00
 0.000000e+00 0.000000e+00 0.000000e+00 0.000000e+00 0.000000e+00 0.000000e+00 0.000000e+00 0.000000e+00 0.000000e+00 0.000000e+00 0.000000e+00 0.000000e+00 0.000000e+00 0.000000e+00 0.000000e+00 0.000000e+00 0.000000e+00 0.000000e+00 0.000000e+00 0.000000e+00 0.000000e+00 0.000000e+00 0.000000e+00 6.154627e-01 3.845373e-01 0.000000e+00 0.000000e+00 0.000000e+00 0.000000e+00 0.000000e+00 0.000000e+00 0.000000e+00
 0.000000e+00 0.000000e+00 0.000000e+00 0.000000e+00 0.000000e+00 0.000000e+00 0.000000e+00 0.000000e+00 0.000000e+00 0.000000e+00 0.000000e+00 0.000000e+00 0.000000e+00 0.000000e+00 0.000000e+00 0.000000e+00 0.000000e+00 0.000000e+00 0.000000e+00 0.000000e+00 0.000000e+00 0.000000e+00 0.000000e+00 0.000000e+00 3.769552e-01 6.230447e-01 0.000000e+00 0.000000e+00 0.000000e+00 0.000000e+00 0.000000e+00 0.000000e+00
 0.000000e+00 0.000000e+00 0.000000e+00 0.000000e+00 0.000000e+00 0.000000e+00 0.000000e+00 0.000000e+00 0.000000e+00 0.000000e+00 0.000000e+00 0.000000e+00 0.000000e+00 0.000000e+00 0.000000e+00 0.000000e+00 0.000000e+00 0.000000e+00 0.000000e+00 0.000000e+00 0.000000e+00 0.000000e+00 0.000000e+00 0.000000e+00 0.000000e+00 4.990207e-01 5.009794e-01 0.000000e+00 0.000000e+00 0.000000e+00 0.000000e+00 0.000000e+00
 0.000000e+00 0.000000e+00 0.000000e+00 0.000000e+00 0.000000e+00 0.000000e+00 0.000000e+00 0.000000e+00 0.000000e+00 0.000000e+00 0.000000e+00 0.000000e+00 0.000000e+00 0.000000e+00 0.000000e+00 0.000000e+00 0.000000e+00 0.000000e+00 0.000000e+00 0.000000e+00 0.000000e+00 0.000000e+00 0.000000e+00 0.000000e+00 0.000000e+00 0.000000e+00 6.154027e-01 3.845973e-01 0.000000e+00 0.000000e+00 0.000000e+00 0.000000e+00
 0.000000e+00 0.000000e+00 0.000000e+00 0.000000e+00 0.000000e+00 0.000000e+00 0.000000e+00 0.000000e+00 0.000000e+00 0.000000e+00 0.000000e+00 0.000000e+00 0.000000e+00 0.000000e+00 0.000000e+00 0.000000e+00 0.000000e+00 0.000000e+00 0.000000e+00 0.000000e+00 0.000000e+00 0.000000e+00 0.000000e+00 0.000000e+00 0.000000e+00 0.000000e+00 0.000000e+00 7.597054e-01 2.402946e-01 0.000000e+00 0.000000e+00 0.000000e+00
 0.000000e+00 0.000000e+00 0.000000e+00 0.000000e+00 0.000000e+00 0.000000e+00 0.000000e+00 0.000000e+00 0.000000e+00 0.000000e+00 0.000000e+00 0.000000e+00 0.000000e+00 0.000000e+00 0.000000e+00 0.000000e+00 0.000000e+00 0.000000e+00 0.000000e+00 0.000000e+00 0.000000e+00 0.000000e+00 0.000000e+00 0.000000e+00 0.000000e+00 0.000000e+00 0.000000e+00 0.000000e+00 5.095264e-01 4.904737e-01 0.000000e+00 0.000000e+00
 0.000000e+00 0.000000e+00 0.000000e+00 0.000000e+00 0.000000e+00 0.000000e+00 0.000000e+00 0.000000e+00 0.000000e+00 0.000000e+00 0.000000e+00 0.000000e+00 0.000000e+00 0.000000e+00 0.000000e+00 0.000000e+00 0.000000e+00 0.000000e+00 0.000000e+00 0.000000e+00 0.000000e+00 0.000000e+00 0.000000e+00 0.000000e+00 0.000000e+00 0.000000e+00 0.000000e+00 0.000000e+00 0.000000e+00 4.997787e-01 5.002213e-01 0.000000e+00
 0.000000e+00 0.000000e+00 0.000000e+00 0.000000e+00 0.000000e+00 0.000000e+00 0.000000e+00 0.000000e+00 0.000000e+00 0.000000e+00 0.000000e+00 0.000000e+00 0.000000e+00 0.000000e+00 0.000000e+00 0.000000e+00 0.000000e+00 0.000000e+00 0.000000e+00 0.000000e+00 0.000000e+00 0.000000e+00 0.000000e+00 0.000000e+00 0.000000e+00 0.000000e+00 0.000000e+00 0.000000e+00 0.000000e+00 0.000000e+00 3.750563e-01 6.249437e-01
 0.000000e+00 0.000000e+00 0.000000e+00 0.000000e+00 0.000000e+00 0.000000e+00 0.000000e+00 0.000000e+00 0.000000e+00 0.000000e+00 0.000000e+00 0.000000e+00 0.000000e+00 0.000000e+00 0.000000e+00 0.000000e+00 0.000000e+00 0.000000e+00 0.000000e+00 0.000000e+00 0.000000e+00 0.000000e+00 0.000000e+00 0.000000e+00 0.000000e+00 0.000000e+00 0.000000e+00 0.000000e+00 0.000000e+00 0.000000e+00 0.000000e+00 0.000000e+00
<ENDHMM>
