~o
<STREAMINFO> 1 39
<VECSIZE> 39<NULLD><MFCC_E_D_A><DIAGC>
~h "Ngu*ng"
<BEGINHMM>
<NUMSTATES> 40
<STATE> 2
<MEAN> 39
 -4.373339e+00 -7.316938e+00 4.438296e-02 -1.133731e+00 2.460524e+00 -3.491949e+00 1.102266e+00 -3.657685e+00 -1.438132e-01 -4.100868e+00 3.003329e+00 -1.639402e+00 1.554503e-01 -1.380039e+00 7.712412e-01 -1.038376e+00 1.046275e+00 -7.025155e-03 -2.120000e-02 4.463282e-01 3.303798e-01 2.457239e-02 -3.300208e-01 -3.234907e-01 -2.867411e-01 3.935801e-03 -1.737377e-01 1.359268e-01 -4.754405e-01 -2.353325e-01 -4.203199e-01 -1.171738e-01 -9.415156e-03 2.250069e-01 2.784659e-02 1.129558e-01 4.886197e-02 -2.273780e-01 9.139439e-03
<VARIANCE> 39
 2.918960e+00 2.240117e+00 4.193445e+00 3.713566e+00 4.204941e+00 7.141518e+00 9.610752e+00 5.812294e+00 1.140612e+01 1.091653e+01 7.321883e+00 7.642589e+00 5.000000e-02 2.017821e+00 3.974926e+00 2.343639e+00 2.365010e+00 1.142896e+00 1.077286e+00 1.977773e+00 5.140508e-01 1.159012e+00 1.196160e+00 2.658751e+00 1.832021e+00 5.000000e-02 5.285884e-01 2.432405e-01 2.774385e-01 5.074107e-01 1.114156e-01 1.092768e-01 4.399609e-01 2.215717e-01 2.741023e-01 2.113630e-01 4.624154e-01 2.771789e-01 5.000000e-02
<GCONST> 7.386530e+01
<STATE> 3
<MEAN> 39
 -1.206648e+01 -1.374745e+00 -7.323437e+00 4.240817e+00 6.714476e-01 -3.286726e+00 4.888648e+00 -1.656486e+00 3.512057e+00 -3.190369e+00 6.144373e+00 -3.046839e+00 2.098503e-01 -4.411788e-02 3.210986e-02 -4.011835e-01 -4.342312e-01 -9.153730e-01 -3.644210e-02 6.387790e-02 1.035496e+00 -2.912547e-01 -2.943170e-01 -1.733988e-01 -6.637045e-01 2.480964e-02 1.423773e+00 -8.519995e-01 6.717636e-01 -1.259243e+00 -1.694747e-01 -1.620905e-01 -6.230256e-01 -1.260795e-01 -3.332898e-01 2.097900e-02 -7.453055e-01 4.412728e-02 7.871804e-03
<VARIANCE> 39
 2.566533e+01 7.421139e+01 5.345467e+01 3.951254e+01 1.549205e+01 2.943535e+01 2.638679e+01 2.835586e+00 1.177742e+01 3.756411e+00 3.305759e+01 2.058552e+01 5.000000e-02 1.272895e+00 1.129902e+00 1.339534e+00 2.948551e+00 1.144157e+00 5.312110e-01 1.819604e+00 1.750604e+00 1.546902e+00 1.371020e+00 2.715379e+00 1.268088e+00 5.000000e-02 8.778932e-02 1.656124e+00 1.479576e+00 4.965592e-01 5.694160e-01 3.212005e-01 3.800761e-01 1.542134e-01 1.244605e-01 1.452841e-01 3.474735e-01 3.623844e-01 5.000000e-02
<GCONST> 9.017639e+01
<STATE> 4
<MEAN> 39
 -6.523197e+00 -8.146849e+00 -9.366968e-01 -1.851879e+00 -7.382593e-01 -5.265333e+00 1.022317e+00 1.791033e-01 -2.218894e+00 -5.447758e+00 2.243679e+00 -3.076188e+00 1.931657e-01 2.932934e+00 -1.096661e+00 3.549092e-01 -2.951792e+00 -6.552833e-01 -3.929133e-01 -1.579419e+00 -9.486749e-03 -5.499105e-01 -5.896442e-02 -2.567585e+00 -6.183534e-01 4.600174e-02 6.197526e-01 2.527363e-02 -3.630790e-01 -1.937437e-01 6.940776e-03 -1.507068e-01 -1.554084e-01 -7.347295e-01 1.378367e-01 4.619335e-02 -4.259672e-01 -1.019909e-01 1.462631e-02
<VARIANCE> 39
 4.590819e+00 3.052549e+00 4.382604e+00 1.013894e+01 9.654689e+00 5.285302e+00 2.196830e+01 1.530751e+01 1.303987e+01 1.489666e+01 3.010549e+01 6.879232e+00 5.000000e-02 1.365188e+00 6.394657e+00 7.708910e+00 1.318816e+00 2.690475e+00 1.260238e+00 1.603697e+00 1.601515e+00 9.020069e-01 1.489250e+00 1.452476e+00 1.197031e+00 5.000000e-02 4.645368e-01 2.493683e-01 3.004522e-01 2.369134e-01 1.201983e-01 7.164640e-02 2.939089e-01 3.674765e-01 5.000000e-02 1.473303e-01 2.548944e-01 1.362645e-01 5.000000e-02
<GCONST> 7.692596e+01
<STATE> 5
<MEAN> 39
 -3.039516e+00 -6.542822e+00 -2.647416e+00 -5.461708e+00 5.631420e-01 -3.428595e+00 7.620887e-01 -9.225528e-01 1.816132e+00 -2.995670e+00 -2.140489e+00 -5.542894e+00 2.553438e-01 1.768191e+00 -2.828486e-01 -1.001417e+00 -1.150526e+00 -6.138464e-01 -4.085384e-01 -5.950154e-01 -1.630165e+00 -5.573262e-02 -8.398017e-02 -1.727162e+00 -8.063266e-01 5.200829e-02 -3.436569e-01 1.096559e-01 -3.873316e-01 6.330401e-01 -6.833985e-02 -1.936410e-01 3.653327e-01 -2.057379e-01 -2.195627e-01 -2.404235e-01 7.294496e-01 3.974986e-01 4.997048e-03
<VARIANCE> 39
 2.759434e+01 4.505586e+00 9.226586e+00 2.546623e+01 7.067720e+00 7.334865e+00 6.034294e+00 1.162946e+01 1.923882e+01 8.658031e+00 1.422680e+01 1.374108e+01 5.000000e-02 4.052236e+00 8.999109e-01 2.288130e+00 1.651160e+00 1.175922e+00 7.556512e-01 6.510047e-01 1.703072e+00 7.899137e-01 9.033027e-01 1.149706e+00 2.419231e-01 5.000000e-02 2.049270e-01 5.236684e-01 2.166289e-01 2.037782e-01 2.347108e-01 1.256662e-01 1.315953e-01 2.810111e-01 1.257400e-01 2.494683e-01 1.916904e-01 1.655590e-01 5.000000e-02
<GCONST> 7.346797e+01
<STATE> 6
<MEAN> 39
 4.154012e+00 -8.289637e+00 -6.575351e+00 -8.735433e+00 -4.205061e+00 -5.253027e+00 -9.444839e-01 -6.660163e+00 -2.870836e+00 -5.712426e+00 -5.794034e+00 -6.055273e+00 4.927093e-01 1.420028e+00 -7.999896e-01 -1.245692e+00 -3.601092e-01 -9.536947e-01 -1.066656e+00 1.421016e-01 -5.960063e-01 -1.137468e+00 -6.159809e-01 7.379645e-02 8.986248e-01 5.539608e-02 -1.165669e+00 -1.088738e-01 4.318821e-01 6.237826e-01 4.140044e-01 -5.600758e-01 5.166426e-01 8.424355e-01 -1.656223e-02 1.678663e-01 3.513694e-01 5.179669e-01 -1.576711e-02
<VARIANCE> 39
 5.145443e+01 5.247118e+00 1.624742e+01 2.201962e+01 1.623384e+01 1.395437e+01 6.593327e+00 6.369369e+00 1.117724e+01 1.211049e+01 3.071461e+01 1.514827e+00 8.141036e-02 1.700439e+00 4.058477e-01 1.383357e+00 4.572369e-01 8.637763e-01 1.523674e+00 4.307795e-01 1.332121e+00 3.237265e-01 2.990261e-01 2.005768e+00 5.591257e-01 5.000000e-02 6.765898e-01 2.162741e-01 1.566769e-01 1.913607e-01 1.292992e-01 2.590133e-01 1.574409e-01 1.441779e-01 2.158690e-01 3.464694e-01 1.136368e-01 5.058701e-02 5.000000e-02
<GCONST> 6.887126e+01
<STATE> 7
<MEAN> 39
 4.378188e-01 -9.600830e+00 -4.447200e+00 -5.437878e+00 -2.316295e+00 -6.844536e+00 4.205662e-02 -5.691681e+00 -2.371085e+00 -5.902600e+00 -4.442070e-02 -2.467404e+00 3.833487e-01 -5.184176e-01 -1.351147e-01 8.293329e-03 5.462539e-01 1.307222e-01 -1.987499e+00 3.097355e-01 4.019354e-01 -5.416476e-01 -1.695657e-01 -3.942245e-01 7.432832e-01 3.030176e-02 -8.833165e-01 1.137829e-01 1.520805e-01 7.739846e-02 2.991780e-01 -1.119598e-01 8.133933e-02 6.908111e-01 4.965700e-01 3.933676e-01 -5.525740e-01 -3.406424e-01 -4.823839e-03
<VARIANCE> 39
 5.500931e+01 9.835480e+00 4.261168e+01 2.060025e+01 2.240676e+01 2.780008e+01 1.117153e+01 5.964819e+00 2.225649e+01 1.133484e+01 4.952736e+01 7.920114e+00 9.070348e-02 1.299405e+00 1.183573e+00 9.513573e-01 5.066145e-01 7.110245e-01 4.451234e+00 1.202170e+00 1.870546e+00 8.769853e-01 2.554872e+00 1.249949e+00 2.642860e-01 5.000000e-02 1.091519e+00 1.543155e-01 4.870861e-01 5.000000e-02 2.650838e-01 2.948282e-01 2.101442e-01 1.045176e-01 1.662396e-01 1.147792e-01 1.570681e-01 1.187880e-01 5.000000e-02
<GCONST> 8.005056e+01
<STATE> 8
<MEAN> 39
 3.461322e-01 -9.431625e+00 -6.476973e+00 -4.482655e+00 -2.236089e+00 -1.090528e+01 1.673293e-01 -3.774005e+00 -3.648566e+00 -5.332823e+00 -5.017962e+00 -2.946985e+00 4.448306e-01 -2.355503e+00 -8.577091e-01 -1.660378e-01 -3.542716e-02 4.236047e-01 -2.210683e+00 1.032388e+00 1.758730e+00 2.977898e-01 6.598582e-01 -1.671603e+00 -2.405418e-01 1.924774e-02 -6.726177e-01 -1.008576e-02 2.497963e-01 -2.734634e-01 1.882231e-01 7.717856e-01 5.845431e-02 3.970413e-01 6.221123e-01 2.018060e-01 -8.026090e-02 -4.340753e-02 -3.490246e-03
<VARIANCE> 39
 3.663041e+01 3.222713e+00 2.772874e+01 1.471701e+01 2.264534e+01 3.392401e+01 1.158512e+01 1.683364e+01 1.773992e+01 1.776740e+01 7.075055e+01 5.571745e+00 8.346106e-02 4.989801e+00 1.089766e+00 2.830895e+00 5.625803e-01 1.170405e+00 1.665235e+00 1.981374e+00 1.199467e+00 2.360894e+00 2.408900e+00 6.559660e-01 1.229548e+00 5.000000e-02 3.758438e-01 1.483011e-01 2.380532e-01 1.921396e-01 2.182595e-01 7.072361e-01 2.815124e-01 9.627737e-02 2.652958e-01 2.378509e-01 8.503306e-02 2.751876e-01 5.000000e-02
<GCONST> 8.488062e+01
<STATE> 9
<MEAN> 39
 -5.212745e+00 -9.365272e+00 -2.349263e+00 -3.846580e+00 -4.684534e-01 -1.058113e+01 2.048717e+00 -1.193806e+00 3.119504e-01 -3.296448e+00 -4.155334e+00 -3.562014e+00 3.387022e-01 -1.660609e+00 -1.387763e-01 6.185366e-03 -2.898234e-01 3.651491e-01 4.443274e-01 4.467815e-01 1.210732e+00 1.386539e+00 7.103610e-01 -4.517512e-01 7.512195e-01 1.306705e-02 6.931809e-02 4.044834e-02 -3.084388e-01 -2.296221e-01 6.217457e-02 7.833755e-01 -3.793542e-01 -1.011240e-01 1.249270e-01 -1.372636e-01 3.567298e-01 1.775298e-02 -1.078013e-03
<VARIANCE> 39
 5.116521e+00 6.713889e+00 2.910542e+01 3.476591e+01 8.224392e+00 5.541559e+01 8.528437e+00 8.100769e+00 3.074623e+01 1.364461e+01 5.079757e+01 9.702003e+00 1.059078e-01 4.423090e+00 7.054077e-01 1.376796e+00 1.500055e+00 4.009380e-01 1.583780e+00 5.849752e-01 1.496594e+00 1.009210e+00 1.327869e+00 1.361668e+00 1.065936e+00 5.000000e-02 2.024852e-01 1.565111e-01 1.717250e-01 8.489853e-02 1.520558e-01 7.131588e-01 2.687720e-01 1.294681e-01 4.160158e-01 3.073997e-01 9.256165e-02 2.903008e-01 5.000000e-02
<GCONST> 7.950168e+01
<STATE> 10
<MEAN> 39
 -7.405546e+00 -1.217995e+01 -8.958412e+00 -8.407171e+00 -2.540885e+00 -1.338704e+01 2.189200e+00 3.761447e+00 -4.874792e-01 -2.882127e+00 -9.183764e+00 -1.534885e+00 6.316229e-01 -2.210964e+00 -5.314621e-01 -9.819412e-01 -1.055995e+00 6.349351e-01 1.983066e+00 -1.155434e+00 2.255317e+00 1.519600e+00 -6.980273e-02 -5.859119e-01 -1.856754e-01 2.861829e-02 8.773232e-01 1.098522e-01 -1.226183e-01 -1.141182e-03 1.492343e-01 9.738179e-01 -6.161971e-01 -5.288373e-01 1.652614e-01 -2.222535e-01 3.368665e-01 -4.249910e-01 -1.443716e-03
<VARIANCE> 39
 5.124001e+00 7.495096e+00 3.316882e+01 4.215660e+01 1.123942e+01 4.982536e+01 9.584774e+00 8.423858e+00 3.456531e+01 1.774764e+01 8.775579e+01 1.077928e+00 1.535387e-01 2.888714e+00 6.783901e-01 3.078582e-01 2.285260e-01 1.661217e+00 2.729378e+00 7.225325e-01 1.560556e+00 1.419485e+00 8.141069e-01 1.921023e-01 9.665185e-02 5.000000e-02 2.830925e-01 1.502214e-01 3.321250e-01 1.128182e-01 7.626812e-02 7.632447e-01 2.088015e-01 1.517229e-01 3.791728e-01 3.151135e-01 1.574065e-01 1.131424e-01 5.000000e-02
<GCONST> 7.330933e+01
<STATE> 11
<MEAN> 39
 -9.046732e+00 -1.109144e+01 -7.216952e+00 -8.782569e+00 -6.257738e-01 -7.368165e+00 6.042206e-01 4.256932e+00 2.634399e+00 -4.294686e+00 -8.922778e+00 -2.458035e+00 5.791479e-01 -3.553450e-01 8.137196e-02 -7.671962e-01 -4.429078e-01 9.742822e-01 1.854471e+00 -1.059157e+00 2.624033e-01 1.258286e+00 -3.814293e-02 1.798136e-01 -4.514247e-01 2.514435e-02 6.270795e-01 8.654643e-02 1.005187e-01 2.135236e-01 3.751921e-01 -7.462077e-03 -1.846811e-01 -6.018505e-01 -2.667578e-01 -9.542646e-02 2.526900e-01 -1.563921e-01 -6.335975e-03
<VARIANCE> 39
 8.560383e+00 8.701180e+00 3.960872e+01 2.884653e+01 1.964517e+00 1.091069e+01 5.405312e+00 2.116181e+01 2.759674e+00 1.712292e+01 7.857171e+01 1.582787e+00 1.823383e-01 1.171438e+00 3.053049e-01 1.062906e+00 1.655470e-01 1.002771e+00 1.631382e+00 5.354256e-01 1.105997e+00 1.938994e+00 4.538577e-01 4.133110e-01 6.394441e-01 5.000000e-02 2.415068e-01 1.188641e-01 1.442564e-01 5.000000e-02 7.034135e-02 6.633292e-02 1.332086e-01 1.027533e-01 5.000000e-02 3.369067e-01 8.588339e-02 5.000000e-02 5.000000e-02
<GCONST> 5.988739e+01
<STATE> 12
<MEAN> 39
 -8.436512e+00 -1.148060e+01 -9.579594e+00 -9.212107e+00 3.309496e+00 -3.505307e+00 -2.197831e+00 3.229172e+00 4.642166e+00 -3.738573e+00 -7.010010e+00 -3.434902e+00 6.239713e-01 1.240533e-01 -1.797118e-01 -1.463822e-01 -1.418628e-01 1.366739e+00 1.201665e+00 -9.325291e-01 -3.860930e-01 1.826534e-01 -1.894904e-01 3.826658e-01 -5.626324e-01 6.045375e-03 8.340757e-02 6.999463e-03 1.590876e-01 -6.264251e-02 -3.091307e-01 -6.103469e-01 1.333153e-01 -2.117005e-01 -4.172311e-01 -8.586358e-02 8.009024e-02 4.146240e-02 -7.045635e-03
<VARIANCE> 39
 8.911965e+00 7.490133e+00 5.710623e+01 3.568774e+01 4.534595e+00 1.218483e+01 8.464005e+00 3.062735e+01 7.176715e+00 6.901418e+00 8.709696e+01 7.030923e+00 1.918495e-01 5.457864e-02 2.296113e-01 3.974008e-01 6.176784e-01 1.102585e+00 1.772965e+00 9.333104e-01 3.429579e-01 8.021083e-01 1.711384e+00 6.495981e-01 3.652624e-01 5.000000e-02 1.031789e-01 7.839255e-02 8.030955e-02 1.015339e-01 1.504915e-01 5.000000e-02 1.131178e-01 1.851849e-01 2.096210e-01 1.187351e-01 5.522753e-02 1.388436e-01 5.000000e-02
<GCONST> 6.142437e+01
<STATE> 13
<MEAN> 39
 -8.481299e+00 -1.224235e+01 -8.349344e+00 -9.927124e+00 4.679942e+00 -2.940143e+00 -4.272833e+00 2.762013e+00 3.482386e+00 -6.507711e+00 -6.401990e+00 -4.494728e+00 5.954425e-01 1.764847e-01 -3.219091e-02 -2.817494e-02 -6.840327e-01 -1.017487e-01 -6.608214e-01 -3.832353e-01 -6.875873e-01 -3.197353e-01 2.416938e-01 4.290991e-01 1.727844e-01 -9.329450e-03 1.525002e-01 2.429661e-01 2.625360e-01 -9.641869e-02 -4.140523e-01 -2.088451e-01 2.680551e-01 -1.414216e-01 -2.899699e-02 6.053156e-01 1.466918e-02 1.342217e-01 -1.837715e-03
<VARIANCE> 39
 6.833044e+00 2.072180e+00 5.843306e+01 5.807777e+01 1.467451e+01 1.308917e+01 1.093925e+01 3.718321e+01 1.763859e+01 9.250859e+00 6.347414e+01 1.783411e+01 1.798426e-01 4.123913e-01 3.185951e-01 9.238104e-01 6.298995e-01 5.267189e-01 5.278757e-01 3.673775e-01 6.914518e-01 7.462014e-01 9.244515e-01 5.160789e-01 1.158648e+00 5.000000e-02 7.104442e-02 5.000000e-02 1.356471e-01 1.381002e-01 3.376765e-01 3.007273e-01 1.571636e-01 3.455067e-01 3.277099e-01 2.118399e-01 1.524436e-01 3.209388e-01 5.000000e-02
<GCONST> 7.153271e+01
<STATE> 14
<MEAN> 39
 -6.953906e+00 -1.058368e+01 -6.252584e+00 -7.294707e+00 2.991036e+00 -5.205119e+00 -2.586518e+00 4.982009e-01 4.033829e+00 -2.425721e+00 -1.926506e+00 -2.866900e+00 4.483948e-01 2.601594e-01 7.251202e-01 7.460893e-01 -1.552426e-01 -1.537562e-01 -5.241008e-02 5.832266e-02 -2.116162e-01 1.811641e-01 1.193128e+00 3.010906e-01 -5.756300e-01 5.107966e-03 1.250764e-01 7.577432e-02 2.859722e-01 -3.484391e-02 -1.593415e-01 2.224948e-01 5.670109e-02 -9.999597e-02 -1.635046e-01 -1.122690e-02 -2.966704e-01 -1.999338e-01 3.694994e-04
<VARIANCE> 39
 8.175215e+00 3.338696e+00 5.534755e+01 7.168607e+01 7.512146e+00 1.536093e+00 1.311257e+01 1.142406e+01 5.495604e+00 6.644487e+00 6.897868e+01 1.333368e+01 1.602679e-01 8.820767e-01 1.527939e-01 9.885236e-01 2.208923e+00 2.201220e+00 1.245746e+00 1.108325e+00 4.588457e+00 2.631259e+00 1.410559e+00 1.187944e+00 1.675076e+00 5.000000e-02 7.555088e-02 7.230667e-02 2.517613e-01 2.505364e-01 2.995049e-01 7.208080e-02 5.000000e-02 1.824939e-01 2.548211e-01 1.640642e-01 9.951465e-02 2.878745e-01 5.000000e-02
<GCONST> 7.350288e+01
<STATE> 15
<MEAN> 39
 -6.512748e+00 -9.816704e+00 -4.770346e+00 -9.823380e+00 3.153545e+00 -4.425090e+00 -2.690625e+00 4.315983e-01 3.342061e+00 -1.377543e+00 -5.655250e+00 -4.774495e+00 5.641202e-01 6.857415e-01 1.656782e-01 9.213763e-01 -8.106580e-01 -9.662949e-01 3.460101e-01 1.650633e-02 -9.718757e-01 -6.899911e-01 4.573379e-01 -1.128608e-01 1.938042e-01 -1.544134e-02 1.497582e-01 -2.497733e-01 -7.078517e-02 -1.095954e-01 -3.509978e-01 2.865552e-01 -1.445614e-01 -9.366918e-03 5.357928e-02 -4.773924e-01 -5.101366e-02 2.088993e-01 -6.350964e-03
<VARIANCE> 39
 1.002390e+01 8.809961e+00 7.709959e+01 1.271478e+02 6.766988e+00 1.419647e+01 1.515949e+01 7.758916e+00 8.145462e+00 7.071100e+00 7.826881e+01 1.982169e+01 1.269436e-01 1.014948e+00 3.674487e-01 3.175271e+00 1.147975e+00 2.724986e+00 5.775381e-01 7.243992e-01 1.302109e+00 5.604734e-01 8.557416e-01 6.489861e-01 4.011974e+00 5.000000e-02 5.000000e-02 5.000000e-02 3.280198e-01 4.074351e-01 1.094418e-01 2.291822e-01 5.000000e-02 4.337678e-01 5.208613e-01 3.988026e-01 3.653819e-01 1.540872e-01 5.000000e-02
<GCONST> 7.898103e+01
<STATE> 16
<MEAN> 39
 -5.690217e+00 -9.241641e+00 -5.775031e+00 -1.106658e+01 9.886744e-02 -3.234504e+00 -2.353871e+00 -1.928436e+00 8.835794e-01 -2.463989e+00 -3.873402e+00 -3.516469e+00 4.524098e-01 9.404451e-01 1.691545e-01 3.277504e-01 -1.097480e+00 -1.196467e+00 5.130283e-01 -4.375847e-01 -6.595668e-01 -2.388977e-01 -4.643342e-01 -7.944393e-01 -1.409248e-01 3.926521e-04 3.749848e-01 -6.640682e-02 9.842423e-02 3.336193e-01 5.339238e-02 -2.522072e-01 -1.557143e-01 1.378467e-01 2.872358e-01 1.673874e-02 -1.491687e-01 -2.160338e-02 1.494856e-02
<VARIANCE> 39
 9.446252e+00 4.788883e+00 6.132259e+01 7.032935e+01 1.621748e+01 7.243320e+00 2.431426e+01 1.080678e+01 1.044907e+01 1.719842e+01 4.703184e+01 3.095587e+01 1.440175e-01 7.001209e-01 4.293019e-01 2.273257e+00 1.413505e+00 1.904584e+00 1.172248e+00 6.559011e-01 6.918145e-01 1.328822e+00 2.261985e+00 2.045392e+00 1.401711e+00 5.000000e-02 7.072780e-02 1.137141e-01 3.349268e-01 2.129025e-01 2.047049e-01 2.822244e-01 1.014434e-01 3.407525e-01 1.020104e-01 4.077352e-01 2.355410e-01 4.851176e-01 5.000000e-02
<GCONST> 8.184441e+01
<STATE> 17
<MEAN> 39
 -2.924683e+00 -1.177827e+01 -3.696940e+00 -1.579427e+01 4.930274e-01 -3.128086e-01 -6.497972e+00 -5.757176e-01 4.844153e+00 -2.915269e+00 -8.220579e+00 -4.988307e+00 6.894239e-01 1.469815e+00 -1.955212e-02 6.462913e-01 2.534363e-01 -3.413254e-01 5.162294e-01 -9.912605e-01 -9.958255e-01 5.929061e-01 3.224817e-01 -5.323358e-02 -4.367647e-01 3.964259e-03 2.423423e-02 -1.153840e-01 -3.016614e-01 5.935210e-02 -1.070091e-01 -5.486407e-01 3.594969e-01 -1.373936e-01 -3.015568e-01 5.657186e-02 -1.332859e-01 1.085024e-01 7.930378e-03
<VARIANCE> 39
 4.027668e+01 1.846873e+01 5.099642e+01 6.175871e+01 7.095761e+01 8.106144e+00 1.812535e+01 8.692569e+00 1.035959e+01 1.900063e+01 3.781643e+01 3.207781e+01 7.291269e-02 5.652653e-01 5.117924e-01 3.221966e+00 4.788608e-01 1.677047e+00 1.981868e+00 1.057550e-01 1.946896e+00 1.535279e+00 2.149993e+00 2.889489e+00 6.953103e-01 5.000000e-02 3.666503e-01 1.335986e-01 6.445493e-01 3.466276e-01 5.944005e-01 2.218945e-01 1.678456e-01 1.124948e-01 2.864396e-01 4.654463e-01 2.421058e-01 6.972806e-01 5.000000e-02
<GCONST> 8.793354e+01
<STATE> 18
<MEAN> 39
 -3.778093e-01 -9.298381e+00 -5.599560e+00 -1.288109e+01 -2.589189e-01 -4.688548e+00 -6.090679e+00 -5.458259e+00 1.877597e+00 -1.344047e+00 -8.193317e+00 -5.911902e+00 6.102492e-01 1.512133e+00 -6.837473e-01 3.810904e-01 -5.551893e-01 -1.419136e+00 -1.612695e+00 7.613928e-01 -2.922384e-01 -1.814018e+00 2.582104e-01 -6.179593e-01 6.074385e-01 4.840606e-02 -2.481171e-01 -3.198887e-01 6.128282e-02 -1.723605e-01 -2.709853e-01 -3.646870e-01 6.517057e-01 4.709547e-01 -1.905687e-01 -5.110709e-01 4.951641e-02 3.819636e-01 4.211304e-03
<VARIANCE> 39
 3.940839e+01 1.153350e+01 1.798452e+01 5.613205e+01 4.004480e+01 1.782599e+01 3.154344e+01 1.747566e+01 2.763543e+01 1.962861e+01 7.575122e+01 1.336221e+01 6.331801e-02 3.025841e+00 1.301287e+00 5.807642e+00 2.476846e+00 1.076211e+00 5.702600e-01 1.886511e+00 3.942295e+00 3.896867e+00 1.700839e+00 1.630879e+00 3.579236e+00 5.000000e-02 1.092710e+00 8.607946e-02 4.867131e-01 4.020564e-01 2.179720e-01 3.165463e-01 2.716112e-01 5.459982e-01 6.876060e-01 5.203370e-01 5.685535e-01 2.712691e-01 5.000000e-02
<GCONST> 9.979758e+01
<STATE> 19
<MEAN> 39
 1.461145e+00 -1.157855e+01 -3.963193e+00 -1.479730e+01 -5.551862e+00 -7.275566e+00 -2.336839e+00 -1.397530e+00 -4.711504e+00 -1.380115e+00 -1.059899e+01 -2.597608e+00 7.746342e-01 9.005044e-01 -8.814284e-01 2.144850e-01 -5.223586e-01 -1.494823e+00 -1.199572e+00 1.112182e+00 1.889627e-02 9.752739e-02 -2.016429e+00 -3.871899e-01 4.544597e-01 4.691058e-02 -1.612421e-01 -1.236619e-01 -3.924461e-01 2.185203e-01 3.073339e-01 3.222310e-01 -3.915570e-01 -1.944774e-01 8.800858e-01 -5.420951e-01 4.215530e-01 -1.912737e-01 -7.717172e-03
<VARIANCE> 39
 1.879904e+01 2.208569e+01 1.076402e+01 1.769021e+01 2.841792e+01 3.223409e+01 3.201559e+01 1.432912e+01 8.078343e+01 2.657865e+01 1.690277e+01 3.309074e+01 5.000000e-02 1.001163e+01 5.623025e-01 7.050236e+00 2.942730e+00 6.087343e-01 7.674100e-01 2.783914e+00 2.047240e+00 2.807517e+00 1.019580e+00 4.096219e+00 2.506541e+00 5.000000e-02 2.072520e-01 1.853442e-01 2.252909e-01 4.363216e-01 1.568513e-01 4.593104e-01 6.719567e-01 1.655914e-01 1.423872e+00 3.865719e-01 4.327860e-01 5.434893e-01 5.000000e-02
<GCONST> 9.758577e+01
<STATE> 20
<MEAN> 39
 3.711251e+00 -1.227452e+01 -6.638072e+00 -1.476860e+01 -7.008709e+00 -9.015892e+00 -1.726061e+00 -4.916391e+00 -3.814347e-01 -8.995252e+00 -8.127242e+00 -5.011565e+00 8.202173e-01 4.414121e-01 -1.317689e+00 -5.724229e-01 2.560228e-01 -2.180480e-01 -7.853659e-01 -3.141861e-01 8.696833e-02 8.094300e-01 -1.397399e+00 4.302791e-01 4.981336e-01 2.058657e-02 -4.775829e-01 3.092522e-02 -1.621164e-01 -2.629037e-02 9.504308e-01 -2.742627e-02 -2.249750e-01 6.124521e-01 -1.772075e-01 8.220161e-01 3.663173e-02 -3.911923e-02 -1.122160e-02
<VARIANCE> 39
 6.452318e+01 2.111082e+01 3.159920e+01 2.975060e+01 2.674753e+01 2.913460e+01 7.355901e+00 1.740691e+01 4.130554e+01 1.342058e+01 3.728402e+00 8.017905e+00 5.000000e-02 2.343978e+00 3.873096e-01 1.923273e+00 8.003509e-01 1.522157e+00 5.287971e+00 5.702006e+00 2.120223e+00 8.814782e+00 1.988558e+00 1.861002e+00 1.935382e+00 5.000000e-02 1.481017e+00 1.132965e-01 4.315459e-01 2.837746e-01 3.049745e-01 4.855986e-01 8.033914e-01 6.777532e-01 1.746090e-01 2.986100e-01 3.916688e-01 4.064420e-01 5.000000e-02
<GCONST> 9.584254e+01
<STATE> 21
<MEAN> 39
 2.172843e+00 -1.553688e+01 -6.517806e+00 -1.445908e+01 -4.410767e+00 -1.153944e+01 -3.462606e+00 4.746510e-01 -1.075949e+00 -6.206143e+00 -1.008369e+01 -2.469985e+00 8.519267e-01 -7.035530e-01 -8.001114e-01 -7.901288e-01 -7.466955e-01 2.268960e+00 -1.084071e+00 -1.470027e-01 1.621169e+00 2.375004e-01 1.120045e+00 -5.797334e-01 -2.155259e-01 8.727847e-03 -3.159695e-01 3.105950e-01 -2.961562e-01 -1.230723e-01 4.189266e-01 5.097091e-01 -1.503148e-01 -6.299391e-02 -8.464049e-02 4.838952e-01 -3.017500e-01 -3.876068e-01 -3.331305e-03
<VARIANCE> 39
 3.190242e+01 1.351727e+01 2.992810e+01 1.191145e+01 5.301696e+01 8.573739e+01 3.668948e+01 5.115438e+01 1.054559e+02 1.161396e+01 4.453164e+01 7.924403e+00 5.000000e-02 4.933259e+00 7.562942e-01 9.052485e-01 3.690471e-01 5.328186e+00 4.961491e+00 5.248010e+00 6.954918e+00 1.735355e+00 3.225758e+00 2.096304e+00 4.351038e-01 5.000000e-02 2.322673e-01 5.000000e-02 1.989860e-01 7.530087e-02 2.853378e-01 1.168284e+00 8.034588e-01 3.822576e-01 1.430460e+00 4.209332e-01 5.932199e-01 4.053736e-01 5.000000e-02
<GCONST> 9.942368e+01
<STATE> 22
<MEAN> 39
 -1.613324e+00 -1.536411e+01 -1.291868e+01 -1.326203e+01 2.266188e+00 -1.225424e+01 -6.072154e-01 4.243407e+00 -7.588570e-01 -5.296032e+00 -1.330876e+01 -6.580922e+00 8.978693e-01 -6.341516e-01 -5.968353e-01 -6.330558e-01 3.320132e-02 5.424884e-01 2.249821e+00 -1.165939e+00 -1.384246e-01 9.229035e-01 -1.855591e-01 -8.546614e-01 -6.635221e-01 5.648387e-03 3.335917e-01 2.144277e-01 2.763471e-01 -4.522135e-02 -4.185631e-01 3.889642e-01 -4.117552e-01 -5.137869e-01 -3.803602e-01 7.772484e-02 3.695295e-01 1.366133e-01 -5.527386e-03
<VARIANCE> 39
 2.225625e+01 6.420770e+00 6.812070e+01 2.244768e+01 4.237397e+01 8.282359e+01 5.919851e+01 6.865569e+01 4.213292e+01 6.620434e+00 4.240935e+01 1.605669e+01 5.000000e-02 1.907106e+00 4.749693e-01 1.417251e+00 9.170363e-01 1.937770e+00 6.382832e+00 1.234440e+00 2.142812e+00 2.885711e+00 1.325340e+00 3.916398e+00 1.407312e+00 5.000000e-02 3.473196e-01 6.553084e-02 2.401342e-01 1.511901e-01 5.267051e-01 1.866501e+00 6.433328e-01 7.081504e-01 5.217041e-01 6.587517e-01 7.100033e-01 3.152522e-01 5.000000e-02
<GCONST> 9.984502e+01
<STATE> 23
<MEAN> 39
 1.888925e+00 -1.757711e+01 -7.254067e+00 -1.799232e+01 -3.785220e+00 -3.791084e+00 -8.014214e+00 -3.634227e+00 2.822464e+00 -4.792921e+00 -1.029138e+01 -3.801903e+00 8.521399e-01 7.495320e-02 2.126140e-01 -2.496678e-01 -4.165776e-01 1.805594e-01 3.230583e-02 -4.079851e-01 -4.122741e-01 -1.104279e+00 6.069891e-01 -3.250878e-02 4.627770e-01 -2.001069e-02 -3.794127e-03 1.594062e-01 2.556292e-01 2.768146e-01 -1.390543e-01 -1.362661e-01 2.519578e-01 1.863167e-01 -1.511930e-01 3.597125e-02 2.357417e-02 -5.810892e-03 -6.523553e-03
<VARIANCE> 39
 3.493089e+01 1.347529e+00 3.027344e+01 1.064733e+01 9.443300e+01 5.707887e+00 1.402325e+01 6.258587e+01 1.492463e+01 7.042746e+00 4.582121e+01 1.365952e+01 5.000000e-02 7.778151e-02 3.291949e-01 9.468582e-02 7.288079e-01 8.183817e-01 4.893119e-01 1.344839e+00 2.675933e-01 1.436830e+00 4.335384e-01 9.037849e-01 4.785617e-01 5.000000e-02 5.027453e-02 5.000000e-02 1.239529e-01 1.652770e-01 1.672757e-01 1.226178e-01 8.117115e-02 5.000000e-02 2.054717e-01 1.472459e-01 4.106464e-01 1.608483e-01 5.000000e-02
<GCONST> 6.140815e+01
<STATE> 24
<MEAN> 39
 3.684896e-01 -1.606335e+01 -6.576498e+00 -1.876446e+01 1.422774e+00 -6.045785e+00 -8.598876e+00 -1.207062e+00 4.501274e-01 -3.601378e+00 -1.102570e+01 -2.957191e+00 7.522887e-01 5.949638e-01 7.242903e-02 8.699275e-01 9.251921e-01 -3.170289e-01 1.346851e-01 -2.004979e-02 -1.262511e-01 -5.367981e-03 7.847899e-02 9.774241e-01 -6.965577e-01 -3.235966e-02 1.398684e-01 -1.054079e-01 1.182628e-01 5.830604e-01 -5.101153e-01 1.116574e-01 3.091911e-01 -1.810524e-01 6.094846e-01 -1.382109e-01 2.425691e-01 -2.903915e-01 2.381747e-05
<VARIANCE> 39
 1.430598e+01 6.798976e+00 3.547642e+01 3.005780e+01 7.804370e+01 6.424046e+00 3.643027e+01 5.757961e+01 1.149470e+01 8.352289e+00 3.186920e+01 1.094661e+01 5.000000e-02 9.533601e-01 3.520896e-01 6.618733e-01 2.481267e+00 3.024448e+00 1.606419e+00 1.382057e+00 8.864254e-01 8.434449e-01 7.229299e-01 2.907227e+00 8.220350e-01 5.000000e-02 5.000000e-02 9.382278e-02 8.388973e-02 1.617777e-01 5.315867e-01 8.329736e-02 1.860117e-01 1.045660e-01 3.278479e-01 6.193926e-02 2.432860e-01 1.464307e-01 5.000000e-02
<GCONST> 7.613865e+01
<STATE> 25
<MEAN> 39
 2.299886e+00 -1.706759e+01 -5.320656e+00 -1.529912e+01 -3.052836e+00 -4.190805e+00 -7.519452e+00 -2.633755e+00 2.998024e+00 -4.415175e+00 -9.624117e+00 -4.781182e+00 7.308241e-01 7.565932e-01 3.318275e-02 4.961752e-01 1.866778e+00 -1.650128e+00 8.323181e-01 5.833864e-01 -7.940933e-01 7.766298e-01 -2.302716e-01 1.169065e+00 -2.532305e-01 -2.368481e-02 -2.027761e-03 1.836197e-01 -4.048008e-01 -9.511121e-03 2.393430e-02 -4.659174e-02 1.294185e-03 -9.702624e-02 5.991283e-02 -2.693669e-03 -1.681836e-01 1.076649e-01 2.734609e-03
<VARIANCE> 39
 1.309664e+01 7.361030e+00 3.914179e+01 1.023249e+01 3.713409e+01 6.278860e+00 2.171124e+01 3.427543e+01 1.700433e+01 9.461348e+00 4.047092e+00 6.258422e+00 5.000000e-02 1.005691e+00 3.356503e-01 4.065239e-01 1.891971e+00 6.079085e+00 7.845843e-01 1.843390e+00 1.787556e+00 2.204112e+00 1.397580e+00 2.026099e+00 1.197879e+00 5.000000e-02 5.000000e-02 5.000000e-02 1.910092e-01 1.621001e-01 2.728109e-01 2.431464e-01 1.467839e-01 7.179223e-02 2.988199e-01 6.329956e-02 2.220484e-01 1.631706e-01 5.000000e-02
<GCONST> 7.302794e+01
<STATE> 26
<MEAN> 39
 2.503053e+00 -1.617122e+01 -5.999485e+00 -1.209612e+01 -3.622868e+00 -2.539009e+00 -5.621836e+00 -2.793341e+00 1.689778e+00 -3.968898e+00 -6.603813e+00 -4.904539e+00 7.386491e-01 7.131246e-01 3.273885e-01 -2.941960e-01 3.660351e-01 -9.961148e-01 -2.487904e-02 -1.546487e-02 -1.054750e+00 1.336507e-01 5.028418e-01 5.698487e-01 -4.586431e-01 -1.905301e-02 4.773298e-02 8.743503e-02 -3.321197e-01 -3.904214e-01 3.674894e-01 -4.693029e-01 2.541117e-02 -3.189207e-02 -7.085908e-02 -5.072068e-03 -4.245524e-01 2.518908e-02 4.275550e-04
<VARIANCE> 39
 1.285528e+01 3.097774e+00 4.547250e+01 2.797923e+01 2.837345e+01 1.756872e+01 6.397359e+00 2.794957e+01 2.628521e+01 1.487699e+01 4.798696e+00 8.385914e+00 5.000000e-02 5.006920e-01 8.393899e-02 1.538605e+00 2.355128e+00 1.405188e+00 7.111498e-01 2.634032e-01 1.496769e+00 1.474598e+00 1.976158e+00 7.628416e-01 7.229713e-01 5.000000e-02 1.163493e-01 5.000000e-02 2.214886e-01 3.456124e-01 5.811643e-01 5.243521e-01 3.295805e-01 3.306455e-01 4.135234e-01 1.617522e-01 4.197779e-01 2.259074e-01 5.000000e-02
<GCONST> 7.606355e+01
<STATE> 27
<MEAN> 39
 4.454812e+00 -1.645603e+01 -7.767098e+00 -1.474523e+01 -6.139272e+00 -5.799719e+00 -5.438593e+00 -6.783073e+00 -5.029513e-01 -1.435667e+00 -9.050898e+00 -7.390882e+00 7.143678e-01 1.088777e+00 4.398419e-01 -2.730200e-01 8.536089e-01 -6.453807e-01 -9.322744e-01 4.555377e-01 -8.073775e-01 5.473467e-01 -3.867567e-01 -3.894093e-03 6.672285e-02 -2.054788e-02 -3.169151e-03 2.579893e-01 8.192805e-03 4.385195e-01 3.637199e-01 5.722599e-02 1.837708e-01 3.530164e-01 1.083663e-01 -5.186799e-01 1.256293e-01 3.735503e-01 2.164738e-04
<VARIANCE> 39
 7.895223e+00 2.828921e+00 1.890603e+01 2.595974e+01 1.619294e+01 1.075235e+01 2.367646e+01 2.408062e+01 4.535614e+01 3.010685e+01 5.582166e+00 7.869903e+00 5.000000e-02 1.154521e+00 4.957353e-01 3.183538e+00 2.484420e+00 4.777473e+00 1.847187e+00 8.824560e-01 5.064871e+00 2.453331e+00 1.869793e+00 5.748473e-01 5.283806e-01 5.000000e-02 5.000000e-02 5.586332e-02 9.491179e-02 4.004485e-01 1.664607e-01 4.584995e-01 1.532375e-01 2.870734e-01 5.190600e-01 4.469229e-01 2.029090e-01 1.493646e-01 5.000000e-02
<GCONST> 8.021163e+01
<STATE> 28
<MEAN> 39
 7.038197e+00 -1.560329e+01 -8.212543e+00 -1.168845e+01 -7.624480e+00 -5.989349e+00 -7.320595e+00 -6.219138e+00 5.862149e+00 -7.293143e+00 -8.618274e+00 -4.549239e+00 6.847396e-01 3.689149e-01 6.527915e-01 -3.594638e-02 1.370340e+00 2.708605e-01 -3.672438e-01 5.866902e-01 1.004885e+00 7.550020e-01 -9.163755e-01 6.203488e-01 5.071700e-01 -1.696525e-02 -2.515404e-01 1.260368e-01 2.999203e-01 7.382245e-02 3.227350e-01 -1.637657e-02 7.132567e-02 3.667320e-01 -2.328817e-01 -2.748373e-02 2.174698e-01 6.385978e-02 -4.404317e-04
<VARIANCE> 39
 6.412556e+00 3.524075e+00 1.426052e+01 6.550535e+00 1.302668e+01 6.021087e+00 1.897003e+01 5.883168e+00 4.177475e+01 1.566941e+01 1.130560e+01 4.316402e+00 5.000000e-02 6.154737e-01 5.969779e-01 1.733406e+00 1.550744e+00 1.958274e+00 1.914227e+00 3.965420e-01 7.823552e-01 1.142669e+00 1.492910e+00 1.608178e+00 3.981762e-01 5.000000e-02 5.000000e-02 5.000000e-02 6.304119e-01 1.179302e-01 2.632805e-01 1.787190e-01 9.472857e-02 2.258324e-01 4.057714e-01 1.081437e-01 1.721292e-01 1.434525e-01 5.000000e-02
<GCONST> 6.770155e+01
<STATE> 29
<MEAN> 39
 4.028019e+00 -1.247765e+01 -5.949350e+00 -6.029437e+00 -1.916812e+00 -4.884064e+00 -1.547628e+00 -2.772632e+00 3.940545e+00 -6.081373e+00 -3.474095e+00 -3.155091e+00 5.119630e-01 -2.317010e-01 9.969724e-01 3.326385e-01 1.143762e+00 1.118021e+00 -1.589443e-01 9.090996e-01 4.649626e-01 -9.715410e-01 -3.592829e-01 7.594752e-01 6.113275e-01 -2.275630e-02 -2.989365e-01 -1.774390e-01 -5.939852e-02 -4.449914e-01 -2.438821e-01 -3.345295e-01 -1.922464e-01 -1.938003e-01 -5.430395e-01 -1.841005e-01 -5.341694e-01 -3.599445e-01 -3.729677e-03
<VARIANCE> 39
 2.861378e+01 5.341969e+00 1.151690e+01 1.337236e+01 3.963226e+01 1.751552e+01 1.862559e+01 1.076834e+01 3.271175e+01 1.825322e+01 2.167271e+01 6.798101e+00 5.000000e-02 3.327392e-01 9.940769e-01 1.830476e+00 9.743615e-01 7.964917e-01 3.015393e+00 6.637456e-01 1.300789e+00 2.144270e+00 7.909228e-01 2.840565e-01 6.717296e-01 5.000000e-02 1.061992e-01 5.000000e-02 2.271165e-01 1.646353e-01 2.703995e-01 4.834857e-01 5.000000e-02 1.132829e-01 3.472987e-01 2.325927e-01 5.000000e-02 5.281515e-02 5.000000e-02
<GCONST> 7.087308e+01
<STATE> 30
<MEAN> 39
 6.178555e+00 -1.100681e+01 -4.984171e+00 -5.824399e+00 -4.049732e+00 -7.531806e+00 -2.055313e+00 -2.794791e+00 3.481285e+00 -7.408718e+00 -5.643353e+00 -3.474065e+00 5.643663e-01 -1.029541e+00 6.387742e-01 1.361663e-01 5.193090e-01 3.118802e-01 -5.053083e-01 1.133905e-01 1.879967e-01 -7.971624e-01 -1.178285e+00 -5.242735e-01 -7.150781e-01 -4.157884e-02 -4.303331e-01 -5.153193e-01 -1.898000e-01 -3.735958e-01 9.199799e-02 3.329769e-01 -3.364287e-01 -3.283302e-01 8.103263e-02 1.168478e-01 -4.037547e-01 -3.427902e-01 -8.411958e-03
<VARIANCE> 39
 1.354012e+01 1.092361e+01 1.356938e+01 6.617031e+00 1.698347e+01 1.618781e+01 1.886855e+01 2.095432e+01 4.206022e+01 8.755534e+00 8.355285e+00 3.308208e+00 5.000000e-02 6.853600e-01 3.589047e-01 1.820329e+00 1.161913e+00 5.759012e-01 1.436704e+00 7.028567e-01 4.390644e-01 1.581223e+00 6.911719e-01 5.627235e-01 4.940363e-01 5.000000e-02 5.477747e-02 1.658382e-01 2.055225e-01 1.325832e-01 9.051467e-02 3.611892e-01 1.000064e-01 3.313225e-01 3.155778e-01 1.563368e-01 1.180553e-01 9.391092e-02 5.000000e-02
<GCONST> 6.715575e+01
<STATE> 31
<MEAN> 39
 5.620467e+00 -1.271436e+01 -9.128159e+00 -8.858717e+00 -5.530923e+00 -9.466968e+00 -3.597285e+00 -5.042803e+00 -7.243755e-01 -9.079036e+00 -7.425408e+00 -6.110877e+00 5.928591e-01 -8.175628e-01 -1.240305e-01 -3.604707e-01 2.439041e-01 9.050214e-01 -3.001364e-01 -1.018131e-01 2.390886e-01 -4.899120e-01 -7.467734e-02 -2.102007e-01 -1.712000e-01 -3.264825e-02 2.550966e-02 -5.678479e-02 1.280246e-01 1.238744e-01 1.556991e-01 2.381077e-01 2.450086e-01 2.454062e-01 2.185297e-01 2.240578e-01 2.861189e-01 1.843529e-01 1.526896e-03
<VARIANCE> 39
 3.807841e+01 3.618057e+00 1.901425e+01 1.037358e+01 2.444862e+01 9.274966e+00 1.223484e+01 1.501169e+01 3.306322e+01 1.234669e+01 2.039540e+01 2.193064e+01 7.099863e-02 8.899111e-01 2.015170e-01 4.332507e-01 1.000309e+00 6.745306e-01 1.097690e+00 5.577080e-01 1.702925e+00 4.970526e-01 1.363103e+00 1.807426e+00 7.023419e-01 5.000000e-02 5.000000e-02 1.297041e-01 1.710195e-01 1.073077e-01 9.117938e-02 2.115994e-01 5.923600e-02 1.393621e-01 1.585369e-01 2.330255e-01 1.565712e-01 1.033329e-01 5.000000e-02
<GCONST> 6.774165e+01
<STATE> 32
<MEAN> 39
 5.763514e-01 -1.256723e+01 -6.168142e+00 -3.698674e+00 7.086451e-01 -7.077905e+00 -3.295457e+00 -2.218644e+00 1.898635e+00 -9.298778e+00 -8.115176e+00 -6.075603e+00 3.696276e-01 -7.071190e-01 -3.258163e-01 8.602826e-02 6.670580e-01 1.318017e+00 1.304931e+00 1.189185e+00 7.493055e-01 3.186947e-01 -1.071242e-01 3.604132e-01 2.357491e-01 -3.508041e-02 3.346683e-01 1.713832e-01 1.875305e-01 -2.233469e-01 -4.394535e-01 1.302873e-01 2.123801e-01 -6.640863e-02 3.471453e-01 3.943522e-01 3.429366e-01 5.273852e-01 9.145119e-03
<VARIANCE> 39
 2.105728e+01 6.782835e+00 2.111174e+01 1.949172e+01 1.508103e+01 1.453760e+01 1.131784e+01 1.792179e+00 2.192773e+01 1.454005e+00 2.013146e+01 1.380245e+01 5.000000e-02 4.732490e-01 1.059804e+00 6.428402e-01 1.272334e+00 1.045618e+00 1.257746e+00 1.185501e+00 1.354708e+00 8.662482e-01 4.326686e-01 1.277446e+00 1.513966e+00 5.000000e-02 5.000000e-02 5.394461e-02 2.271966e-01 2.636490e-01 1.759682e-01 2.241046e-01 3.201067e-01 2.471215e-01 8.243696e-02 3.638009e-01 2.913831e-01 2.885182e-01 5.000000e-02
<GCONST> 7.021187e+01
<STATE> 33
<MEAN> 39
 2.791389e+00 -1.171497e+01 -6.561482e+00 -6.485151e+00 -1.718711e+00 -6.626369e+00 1.096394e+00 -6.113597e-01 4.444302e-01 -9.029097e+00 -4.326461e+00 -3.820970e+00 4.500587e-01 -2.295376e-01 5.185543e-01 5.104207e-01 1.585339e-01 2.768601e-02 4.716692e-01 1.256445e-01 2.520801e-01 8.844380e-01 7.890108e-01 6.464566e-01 8.071710e-01 -1.529160e-02 7.499462e-02 1.074822e-01 -2.182510e-02 -1.192458e-01 -2.258815e-01 -1.323186e-01 -5.551881e-01 -4.507689e-01 1.517626e-02 2.827606e-01 2.060278e-02 8.004127e-02 1.863173e-03
<VARIANCE> 39
 4.098401e+01 3.409231e+00 1.903439e+01 1.611184e+01 4.813528e+01 4.644812e+01 3.117983e+00 7.663249e+00 2.586242e+01 6.324475e+00 1.998110e+01 1.231263e+01 5.957664e-02 1.645698e-01 4.351718e-01 8.929626e-01 3.238960e-01 3.349183e-01 4.839368e-01 2.237305e+00 1.177830e+00 8.507206e-01 1.547148e+00 3.371916e-01 7.628441e-01 5.000000e-02 5.000000e-02 7.984251e-02 5.688432e-02 2.585525e-01 3.396901e-01 2.937118e-01 5.416971e-01 2.683411e-01 2.557152e-01 8.287387e-02 1.933572e-01 1.997077e-01 5.000000e-02
<GCONST> 6.812407e+01
<STATE> 34
<MEAN> 39
 -2.888857e-01 -1.075439e+01 -3.763752e+00 -4.424969e+00 1.157244e+00 -3.772956e+00 -3.086418e+00 -2.647139e+00 4.342637e+00 -6.826316e+00 -4.009120e+00 -1.515136e+00 3.322299e-01 -2.442942e-01 1.630062e-01 2.758316e-01 1.863220e-01 -4.722584e-02 3.097098e-01 -6.617053e-01 -9.087672e-01 7.119008e-01 8.161978e-01 5.824748e-01 7.658823e-01 -1.337035e-02 -7.660368e-02 -4.304602e-02 -8.335391e-02 -1.162844e-01 -1.931512e-01 -3.475073e-01 -2.749489e-02 8.258352e-03 -2.262288e-01 -1.389261e-01 4.290634e-02 -1.996274e-01 -1.952897e-03
<VARIANCE> 39
 2.234817e+01 6.512142e+00 3.539436e+01 1.288155e+01 1.668742e+01 9.786038e+00 4.408716e+01 2.266684e+01 3.972393e+00 2.829395e+01 1.305803e+01 1.227012e+01 5.000000e-02 2.144849e-01 6.444542e-01 6.096117e-01 1.235088e+00 1.823285e+00 8.671082e-01 3.224927e+00 1.546758e+00 9.717757e-01 3.762215e-01 8.170755e-01 1.085681e+00 5.000000e-02 5.000000e-02 2.168167e-01 3.028496e-01 1.088362e-01 1.524474e-01 2.090642e-01 5.767499e-01 6.290336e-01 4.210786e-01 4.199135e-01 9.711187e-02 2.642567e-01 5.000000e-02
<GCONST> 7.647826e+01
<STATE> 35
<MEAN> 39
 2.944420e-01 -1.108004e+01 -5.258736e+00 -4.524043e+00 -8.058746e-01 -6.628195e+00 -3.103045e+00 -3.016535e+00 3.099950e+00 -5.607430e+00 -2.459673e+00 -2.783280e+00 3.375632e-01 -5.953950e-01 8.303863e-01 1.002004e+00 7.865190e-02 -1.701297e-01 -6.901248e-01 -3.870698e-02 -4.907382e-03 -8.533729e-01 3.694831e-01 5.791788e-01 -2.264327e-01 -2.289415e-02 -9.200599e-02 2.433134e-01 3.775252e-01 1.167034e-01 2.873289e-02 -4.906734e-03 2.247127e-01 4.708158e-02 -2.367952e-01 -1.386034e-01 2.215304e-02 -7.938202e-02 -1.278374e-03
<VARIANCE> 39
 3.340048e+01 5.513796e+00 2.506625e+01 1.288663e+01 2.552666e+01 3.511906e+01 2.489052e+01 2.460555e+00 4.382273e+01 2.579633e+00 1.118000e+01 1.415852e+01 5.000000e-02 3.251281e-01 3.810206e-01 1.400827e+00 7.889858e-01 1.001639e+00 5.984955e-01 8.759623e-01 1.064045e+00 1.145195e+00 9.414510e-01 1.036029e+00 9.627417e-01 5.000000e-02 8.978385e-02 1.321751e-01 1.781460e-01 1.509784e-01 1.699917e-01 2.250040e-01 2.540615e-01 7.269266e-02 3.709153e-01 6.658363e-02 2.567490e-01 2.056176e-01 5.000000e-02
<GCONST> 6.994380e+01
<STATE> 36
<MEAN> 39
 -7.821603e-01 -8.139152e+00 -1.952431e+00 -4.386086e+00 -6.091579e-01 -8.089257e+00 -2.326807e+00 -2.539112e+00 1.664610e+00 -5.811014e+00 -2.738257e+00 -1.714913e+00 2.915382e-01 -1.035946e+00 7.136453e-01 1.325373e+00 5.712942e-01 1.594361e-01 1.202404e-01 4.423203e-01 -1.849622e-01 -7.519454e-03 3.487232e-01 9.575050e-01 1.169449e-01 -3.547090e-02 -8.097836e-02 -3.154368e-01 -3.121513e-01 7.115676e-02 1.793137e-01 3.900811e-01 2.218151e-01 1.054510e-01 2.253532e-01 -1.094279e-01 -1.205002e-01 -2.257118e-01 -3.370961e-03
<VARIANCE> 39
 1.641983e+01 3.320930e+00 7.541214e+00 4.361460e+00 7.983733e+00 1.879862e+01 1.570511e+01 1.298848e+00 1.899708e+01 7.599636e+00 8.910711e+00 8.324146e+00 5.000000e-02 1.615884e+00 5.167885e-01 1.601150e+00 9.576948e-01 9.067107e-01 1.114634e+00 1.877880e+00 1.096481e+00 1.158803e+00 1.768604e+00 3.702181e+00 9.214954e-01 5.000000e-02 8.658898e-02 5.000000e-02 1.040306e-01 1.521154e-01 1.316972e-01 5.945334e-02 6.366172e-02 5.000000e-02 5.000000e-02 1.839505e-01 5.138831e-02 2.254651e-01 5.000000e-02
<GCONST> 6.107724e+01
<STATE> 37
<MEAN> 39
 -3.018044e+00 -8.196522e+00 -6.135534e-01 -2.930097e+00 9.890068e-02 -5.417464e+00 -6.750987e-01 -3.488549e+00 1.952502e+00 -4.524397e+00 -7.190912e-01 -3.228812e+00 2.153770e-01 -8.099265e-01 -1.306751e-01 -9.809501e-02 1.158812e-01 -7.513845e-02 5.958052e-01 7.010361e-01 3.567160e-01 1.310245e-01 3.243839e-01 4.073340e-01 -1.587953e-01 -3.659429e-02 3.658196e-02 -3.143295e-01 -3.520577e-01 2.507067e-02 7.186669e-02 1.083842e-01 2.730287e-03 4.245329e-01 1.921875e-01 9.294073e-02 6.892270e-03 -7.317480e-02 -3.519174e-04
<VARIANCE> 39
 1.863878e+00 1.619756e+00 9.294366e+00 6.954551e+00 4.940780e+00 9.039652e+00 5.095773e+00 1.243367e+01 8.742649e+00 1.343125e+01 2.058750e+01 2.171863e+01 5.000000e-02 7.144665e-01 5.624843e-01 1.157118e+00 4.306369e-01 6.519256e-01 8.567658e-01 1.205941e+00 6.293443e-01 3.300904e-01 2.924112e-01 5.373907e-01 1.382199e+00 5.000000e-02 1.496411e-01 1.298570e-01 2.845072e-01 5.620138e-02 5.000000e-02 1.209425e-01 3.404430e-01 1.410691e-01 8.767677e-02 2.885547e-01 4.240773e-01 2.602251e-01 5.000000e-02
<GCONST> 5.957678e+01
<STATE> 38
<MEAN> 39
 -3.765374e+00 -7.975485e+00 -1.960723e+00 -3.197165e+00 2.220291e-01 -5.077405e+00 1.360079e+00 -2.592759e+00 2.545943e+00 -4.132098e+00 -2.382845e-01 -2.605985e+00 1.593405e-01 -7.414972e-01 -4.722532e-01 -1.337663e-01 5.911251e-01 4.357330e-01 4.786800e-01 6.161784e-01 1.136310e+00 6.032977e-01 4.617251e-01 8.679531e-01 1.062401e-01 -2.988420e-02 1.241726e-01 -7.631000e-02 -9.513200e-03 -4.253397e-02 4.229660e-02 -9.905444e-02 -4.060477e-01 -4.889632e-02 -1.190474e-02 -1.235770e-01 -1.391139e-01 5.417205e-02 7.332182e-03
<VARIANCE> 39
 1.446689e+00 3.851874e+00 9.750912e+00 1.442658e+00 4.923637e+00 1.782361e+00 9.722771e+00 1.186129e+01 7.628444e+00 7.910131e+00 1.528162e+01 2.045403e+01 5.000000e-02 6.942627e-02 6.983534e-01 9.983473e-01 1.459745e+00 1.032009e+00 8.909380e-01 1.101682e+00 1.399455e-01 4.070639e-01 1.266135e+00 4.112806e-01 9.821431e-01 5.000000e-02 5.138164e-02 7.464005e-02 1.464946e-01 7.392418e-02 8.425260e-02 5.000000e-02 9.136987e-02 1.528329e-01 7.496209e-02 6.750944e-02 1.371058e-01 2.672040e-01 5.000000e-02
<GCONST> 4.922046e+01
<STATE> 39
<MEAN> 39
 -5.988145e+00 -1.088950e+01 -1.790234e+00 -1.423490e+00 8.126857e-01 -4.259381e+00 -1.096007e+00 8.199762e-01 4.255077e+00 -4.314979e+00 -8.098641e-02 -2.978574e+00 1.016842e-01 -4.282520e-01 -1.017176e-01 -8.062386e-02 -7.509878e-02 3.711319e-02 6.016794e-01 -2.616141e-01 1.138045e-01 2.632251e-01 4.001772e-01 1.997291e-01 3.997165e-02 -1.830778e-02 2.891499e-01 3.555636e-01 1.808118e-01 -1.937960e-01 5.197258e-02 -5.550772e-02 -6.799614e-02 -4.695088e-01 -1.560575e-01 -2.859144e-02 -1.738873e-01 1.746129e-01 1.043641e-02
<VARIANCE> 39
 3.194633e+00 3.782306e+00 3.173749e+00 1.366371e+01 7.306426e+00 4.339025e+00 1.267457e+01 4.057854e+00 1.298663e+01 8.135440e+00 7.217817e+00 7.273228e+00 5.000000e-02 9.798837e-02 4.913418e-01 4.140113e-01 2.579857e-01 2.043031e-01 4.884323e-01 4.210685e-01 9.871929e-01 3.474352e-01 2.206649e-01 5.397742e-01 6.697879e-01 5.000000e-02 5.000000e-02 8.104262e-02 1.237594e-01 2.078858e-01 1.435788e-01 1.998148e-01 1.953894e-01 5.000000e-02 1.334612e-01 1.790966e-01 5.000000e-02 5.706478e-02 5.000000e-02
<GCONST> 4.598907e+01
<TRANSP> 40
 0.000000e+00 1.000000e+00 0.000000e+00 0.000000e+00 0.000000e+00 0.000000e+00 0.000000e+00 0.000000e+00 0.000000e+00 0.000000e+00 0.000000e+00 0.000000e+00 0.000000e+00 0.000000e+00 0.000000e+00 0.000000e+00 0.000000e+00 0.000000e+00 0.000000e+00 0.000000e+00 0.000000e+00 0.000000e+00 0.000000e+00 0.000000e+00 0.000000e+00 0.000000e+00 0.000000e+00 0.000000e+00 0.000000e+00 0.000000e+00 0.000000e+00 0.000000e+00 0.000000e+00 0.000000e+00 0.000000e+00 0.000000e+00 0.000000e+00 0.000000e+00 0.000000e+00 0.000000e+00
 0.000000e+00 5.825815e-01 4.174186e-01 0.000000e+00 0.000000e+00 0.000000e+00 0.000000e+00 0.000000e+00 0.000000e+00 0.000000e+00 0.000000e+00 0.000000e+00 0.000000e+00 0.000000e+00 0.000000e+00 0.000000e+00 0.000000e+00 0.000000e+00 0.000000e+00 0.000000e+00 0.000000e+00 0.000000e+00 0.000000e+00 0.000000e+00 0.000000e+00 0.000000e+00 0.000000e+00 0.000000e+00 0.000000e+00 0.000000e+00 0.000000e+00 0.000000e+00 0.000000e+00 0.000000e+00 0.000000e+00 0.000000e+00 0.000000e+00 0.000000e+00 0.000000e+00 0.000000e+00
 0.000000e+00 0.000000e+00 2.857927e-01 7.142072e-01 0.000000e+00 0.000000e+00 0.000000e+00 0.000000e+00 0.000000e+00 0.000000e+00 0.000000e+00 0.000000e+00 0.000000e+00 0.000000e+00 0.000000e+00 0.000000e+00 0.000000e+00 0.000000e+00 0.000000e+00 0.000000e+00 0.000000e+00 0.000000e+00 0.000000e+00 0.000000e+00 0.000000e+00 0.000000e+00 0.000000e+00 0.000000e+00 0.000000e+00 0.000000e+00 0.000000e+00 0.000000e+00 0.000000e+00 0.000000e+00 0.000000e+00 0.000000e+00 0.000000e+00 0.000000e+00 0.000000e+00 0.000000e+00
 0.000000e+00 0.000000e+00 0.000000e+00 3.766551e-01 6.233450e-01 0.000000e+00 0.000000e+00 0.000000e+00 0.000000e+00 0.000000e+00 0.000000e+00 0.000000e+00 0.000000e+00 0.000000e+00 0.000000e+00 0.000000e+00 0.000000e+00 0.000000e+00 0.000000e+00 0.000000e+00 0.000000e+00 0.000000e+00 0.000000e+00 0.000000e+00 0.000000e+00 0.000000e+00 0.000000e+00 0.000000e+00 0.000000e+00 0.000000e+00 0.000000e+00 0.000000e+00 0.000000e+00 0.000000e+00 0.000000e+00 0.000000e+00 0.000000e+00 0.000000e+00 0.000000e+00 0.000000e+00
 0.000000e+00 0.000000e+00 0.000000e+00 0.000000e+00 3.750202e-01 6.249798e-01 0.000000e+00 0.000000e+00 0.000000e+00 0.000000e+00 0.000000e+00 0.000000e+00 0.000000e+00 0.000000e+00 0.000000e+00 0.000000e+00 0.000000e+00 0.000000e+00 0.000000e+00 0.000000e+00 0.000000e+00 0.000000e+00 0.000000e+00 0.000000e+00 0.000000e+00 0.000000e+00 0.000000e+00 0.000000e+00 0.000000e+00 0.000000e+00 0.000000e+00 0.000000e+00 0.000000e+00 0.000000e+00 0.000000e+00 0.000000e+00 0.000000e+00 0.000000e+00 0.000000e+00 0.000000e+00
 0.000000e+00 0.000000e+00 0.000000e+00 0.000000e+00 0.000000e+00 4.444147e-01 5.555854e-01 0.000000e+00 0.000000e+00 0.000000e+00 0.000000e+00 0.000000e+00 0.000000e+00 0.000000e+00 0.000000e+00 0.000000e+00 0.000000e+00 0.000000e+00 0.000000e+00 0.000000e+00 0.000000e+00 0.000000e+00 0.000000e+00 0.000000e+00 0.000000e+00 0.000000e+00 0.000000e+00 0.000000e+00 0.000000e+00 0.000000e+00 0.000000e+00 0.000000e+00 0.000000e+00 0.000000e+00 0.000000e+00 0.000000e+00 0.000000e+00 0.000000e+00 0.000000e+00 0.000000e+00
 0.000000e+00 0.000000e+00 0.000000e+00 0.000000e+00 0.000000e+00 0.000000e+00 2.858244e-01 7.141756e-01 0.000000e+00 0.000000e+00 0.000000e+00 0.000000e+00 0.000000e+00 0.000000e+00 0.000000e+00 0.000000e+00 0.000000e+00 0.000000e+00 0.000000e+00 0.000000e+00 0.000000e+00 0.000000e+00 0.000000e+00 0.000000e+00 0.000000e+00 0.000000e+00 0.000000e+00 0.000000e+00 0.000000e+00 0.000000e+00 0.000000e+00 0.000000e+00 0.000000e+00 0.000000e+00 0.000000e+00 0.000000e+00 0.000000e+00 0.000000e+00 0.000000e+00 0.000000e+00
 0.000000e+00 0.000000e+00 0.000000e+00 0.000000e+00 0.000000e+00 0.000000e+00 0.000000e+00 3.744105e-01 6.255895e-01 0.000000e+00 0.000000e+00 0.000000e+00 0.000000e+00 0.000000e+00 0.000000e+00 0.000000e+00 0.000000e+00 0.000000e+00 0.000000e+00 0.000000e+00 0.000000e+00 0.000000e+00 0.000000e+00 0.000000e+00 0.000000e+00 0.000000e+00 0.000000e+00 0.000000e+00 0.000000e+00 0.000000e+00 0.000000e+00 0.000000e+00 0.000000e+00 0.000000e+00 0.000000e+00 0.000000e+00 0.000000e+00 0.000000e+00 0.000000e+00 0.000000e+00
 0.000000e+00 0.000000e+00 0.000000e+00 0.000000e+00 0.000000e+00 0.000000e+00 0.000000e+00 0.000000e+00 5.003805e-01 4.996196e-01 0.000000e+00 0.000000e+00 0.000000e+00 0.000000e+00 0.000000e+00 0.000000e+00 0.000000e+00 0.000000e+00 0.000000e+00 0.000000e+00 0.000000e+00 0.000000e+00 0.000000e+00 0.000000e+00 0.000000e+00 0.000000e+00 0.000000e+00 0.000000e+00 0.000000e+00 0.000000e+00 0.000000e+00 0.000000e+00 0.000000e+00 0.000000e+00 0.000000e+00 0.000000e+00 0.000000e+00 0.000000e+00 0.000000e+00 0.000000e+00
 0.000000e+00 0.000000e+00 0.000000e+00 0.000000e+00 0.000000e+00 0.000000e+00 0.000000e+00 0.000000e+00 0.000000e+00 1.691906e-01 8.308094e-01 0.000000e+00 0.000000e+00 0.000000e+00 0.000000e+00 0.000000e+00 0.000000e+00 0.000000e+00 0.000000e+00 0.000000e+00 0.000000e+00 0.000000e+00 0.000000e+00 0.000000e+00 0.000000e+00 0.000000e+00 0.000000e+00 0.000000e+00 0.000000e+00 0.000000e+00 0.000000e+00 0.000000e+00 0.000000e+00 0.000000e+00 0.000000e+00 0.000000e+00 0.000000e+00 0.000000e+00 0.000000e+00 0.000000e+00
 0.000000e+00 0.000000e+00 0.000000e+00 0.000000e+00 0.000000e+00 0.000000e+00 0.000000e+00 0.000000e+00 0.000000e+00 0.000000e+00 4.431303e-01 5.568697e-01 0.000000e+00 0.000000e+00 0.000000e+00 0.000000e+00 0.000000e+00 0.000000e+00 0.000000e+00 0.000000e+00 0.000000e+00 0.000000e+00 0.000000e+00 0.000000e+00 0.000000e+00 0.000000e+00 0.000000e+00 0.000000e+00 0.000000e+00 0.000000e+00 0.000000e+00 0.000000e+00 0.000000e+00 0.000000e+00 0.000000e+00 0.000000e+00 0.000000e+00 0.000000e+00 0.000000e+00 0.000000e+00
 0.000000e+00 0.000000e+00 0.000000e+00 0.000000e+00 0.000000e+00 0.000000e+00 0.000000e+00 0.000000e+00 0.000000e+00 0.000000e+00 0.000000e+00 6.400522e-01 3.599478e-01 0.000000e+00 0.000000e+00 0.000000e+00 0.000000e+00 0.000000e+00 0.000000e+00 0.000000e+00 0.000000e+00 0.000000e+00 0.000000e+00 0.000000e+00 0.000000e+00 0.000000e+00 0.000000e+00 0.000000e+00 0.000000e+00 0.000000e+00 0.000000e+00 0.000000e+00 0.000000e+00 0.000000e+00 0.000000e+00 0.000000e+00 0.000000e+00 0.000000e+00 0.000000e+00 0.000000e+00
 0.000000e+00 0.000000e+00 0.000000e+00 0.000000e+00 0.000000e+00 0.000000e+00 0.000000e+00 0.000000e+00 0.000000e+00 0.000000e+00 0.000000e+00 0.000000e+00 4.498018e-01 5.501982e-01 0.000000e+00 0.000000e+00 0.000000e+00 0.000000e+00 0.000000e+00 0.000000e+00 0.000000e+00 0.000000e+00 0.000000e+00 0.000000e+00 0.000000e+00 0.000000e+00 0.000000e+00 0.000000e+00 0.000000e+00 0.000000e+00 0.000000e+00 0.000000e+00 0.000000e+00 0.000000e+00 0.000000e+00 0.000000e+00 0.000000e+00 0.000000e+00 0.000000e+00 0.000000e+00
 0.000000e+00 0.000000e+00 0.000000e+00 0.000000e+00 0.000000e+00 0.000000e+00 0.000000e+00 0.000000e+00 0.000000e+00 0.000000e+00 0.000000e+00 0.000000e+00 0.000000e+00 3.767939e-01 6.232061e-01 0.000000e+00 0.000000e+00 0.000000e+00 0.000000e+00 0.000000e+00 0.000000e+00 0.000000e+00 0.000000e+00 0.000000e+00 0.000000e+00 0.000000e+00 0.000000e+00 0.000000e+00 0.000000e+00 0.000000e+00 0.000000e+00 0.000000e+00 0.000000e+00 0.000000e+00 0.000000e+00 0.000000e+00 0.000000e+00 0.000000e+00 0.000000e+00 0.000000e+00
 0.000000e+00 0.000000e+00 0.000000e+00 0.000000e+00 0.000000e+00 0.000000e+00 0.000000e+00 0.000000e+00 0.000000e+00 0.000000e+00 0.000000e+00 0.000000e+00 0.000000e+00 0.000000e+00 3.761633e-01 6.238367e-01 0.000000e+00 0.000000e+00 0.000000e+00 0.000000e+00 0.000000e+00 0.000000e+00 0.000000e+00 0.000000e+00 0.000000e+00 0.000000e+00 0.000000e+00 0.000000e+00 0.000000e+00 0.000000e+00 0.000000e+00 0.000000e+00 0.000000e+00 0.000000e+00 0.000000e+00 0.000000e+00 0.000000e+00 0.000000e+00 0.000000e+00 0.000000e+00
 0.000000e+00 0.000000e+00 0.000000e+00 0.000000e+00 0.000000e+00 0.000000e+00 0.000000e+00 0.000000e+00 0.000000e+00 0.000000e+00 0.000000e+00 0.000000e+00 0.000000e+00 0.000000e+00 0.000000e+00 4.992054e-01 5.007946e-01 0.000000e+00 0.000000e+00 0.000000e+00 0.000000e+00 0.000000e+00 0.000000e+00 0.000000e+00 0.000000e+00 0.000000e+00 0.000000e+00 0.000000e+00 0.000000e+00 0.000000e+00 0.000000e+00 0.000000e+00 0.000000e+00 0.000000e+00 0.000000e+00 0.000000e+00 0.000000e+00 0.000000e+00 0.000000e+00 0.000000e+00
 0.000000e+00 0.000000e+00 0.000000e+00 0.000000e+00 0.000000e+00 0.000000e+00 0.000000e+00 0.000000e+00 0.000000e+00 0.000000e+00 0.000000e+00 0.000000e+00 0.000000e+00 0.000000e+00 0.000000e+00 0.000000e+00 3.750466e-01 6.249534e-01 0.000000e+00 0.000000e+00 0.000000e+00 0.000000e+00 0.000000e+00 0.000000e+00 0.000000e+00 0.000000e+00 0.000000e+00 0.000000e+00 0.000000e+00 0.000000e+00 0.000000e+00 0.000000e+00 0.000000e+00 0.000000e+00 0.000000e+00 0.000000e+00 0.000000e+00 0.000000e+00 0.000000e+00 0.000000e+00
 0.000000e+00 0.000000e+00 0.000000e+00 0.000000e+00 0.000000e+00 0.000000e+00 0.000000e+00 0.000000e+00 0.000000e+00 0.000000e+00 0.000000e+00 0.000000e+00 0.000000e+00 0.000000e+00 0.000000e+00 0.000000e+00 0.000000e+00 4.450516e-01 5.549484e-01 0.000000e+00 0.000000e+00 0.000000e+00 0.000000e+00 0.000000e+00 0.000000e+00 0.000000e+00 0.000000e+00 0.000000e+00 0.000000e+00 0.000000e+00 0.000000e+00 0.000000e+00 0.000000e+00 0.000000e+00 0.000000e+00 0.000000e+00 0.000000e+00 0.000000e+00 0.000000e+00 0.000000e+00
 0.000000e+00 0.000000e+00 0.000000e+00 0.000000e+00 0.000000e+00 0.000000e+00 0.000000e+00 0.000000e+00 0.000000e+00 0.000000e+00 0.000000e+00 0.000000e+00 0.000000e+00 0.000000e+00 0.000000e+00 0.000000e+00 0.000000e+00 0.000000e+00 3.734309e-01 6.265691e-01 0.000000e+00 0.000000e+00 0.000000e+00 0.000000e+00 0.000000e+00 0.000000e+00 0.000000e+00 0.000000e+00 0.000000e+00 0.000000e+00 0.000000e+00 0.000000e+00 0.000000e+00 0.000000e+00 0.000000e+00 0.000000e+00 0.000000e+00 0.000000e+00 0.000000e+00 0.000000e+00
 0.000000e+00 0.000000e+00 0.000000e+00 0.000000e+00 0.000000e+00 0.000000e+00 0.000000e+00 0.000000e+00 0.000000e+00 0.000000e+00 0.000000e+00 0.000000e+00 0.000000e+00 0.000000e+00 0.000000e+00 0.000000e+00 0.000000e+00 0.000000e+00 0.000000e+00 3.750717e-01 6.249282e-01 0.000000e+00 0.000000e+00 0.000000e+00 0.000000e+00 0.000000e+00 0.000000e+00 0.000000e+00 0.000000e+00 0.000000e+00 0.000000e+00 0.000000e+00 0.000000e+00 0.000000e+00 0.000000e+00 0.000000e+00 0.000000e+00 0.000000e+00 0.000000e+00 0.000000e+00
 0.000000e+00 0.000000e+00 0.000000e+00 0.000000e+00 0.000000e+00 0.000000e+00 0.000000e+00 0.000000e+00 0.000000e+00 0.000000e+00 0.000000e+00 0.000000e+00 0.000000e+00 0.000000e+00 0.000000e+00 0.000000e+00 0.000000e+00 0.000000e+00 0.000000e+00 0.000000e+00 2.841275e-01 7.158725e-01 0.000000e+00 0.000000e+00 0.000000e+00 0.000000e+00 0.000000e+00 0.000000e+00 0.000000e+00 0.000000e+00 0.000000e+00 0.000000e+00 0.000000e+00 0.000000e+00 0.000000e+00 0.000000e+00 0.000000e+00 0.000000e+00 0.000000e+00 0.000000e+00
 0.000000e+00 0.000000e+00 0.000000e+00 0.000000e+00 0.000000e+00 0.000000e+00 0.000000e+00 0.000000e+00 0.000000e+00 0.000000e+00 0.000000e+00 0.000000e+00 0.000000e+00 0.000000e+00 0.000000e+00 0.000000e+00 0.000000e+00 0.000000e+00 0.000000e+00 0.000000e+00 0.000000e+00 4.453688e-01 5.546312e-01 0.000000e+00 0.000000e+00 0.000000e+00 0.000000e+00 0.000000e+00 0.000000e+00 0.000000e+00 0.000000e+00 0.000000e+00 0.000000e+00 0.000000e+00 0.000000e+00 0.000000e+00 0.000000e+00 0.000000e+00 0.000000e+00 0.000000e+00
 0.000000e+00 0.000000e+00 0.000000e+00 0.000000e+00 0.000000e+00 0.000000e+00 0.000000e+00 0.000000e+00 0.000000e+00 0.000000e+00 0.000000e+00 0.000000e+00 0.000000e+00 0.000000e+00 0.000000e+00 0.000000e+00 0.000000e+00 0.000000e+00 0.000000e+00 0.000000e+00 0.000000e+00 0.000000e+00 5.459637e-01 4.540363e-01 0.000000e+00 0.000000e+00 0.000000e+00 0.000000e+00 0.000000e+00 0.000000e+00 0.000000e+00 0.000000e+00 0.000000e+00 0.000000e+00 0.000000e+00 0.000000e+00 0.000000e+00 0.000000e+00 0.000000e+00 0.000000e+00
 0.000000e+00 0.000000e+00 0.000000e+00 0.000000e+00 0.000000e+00 0.000000e+00 0.000000e+00 0.000000e+00 0.000000e+00 0.000000e+00 0.000000e+00 0.000000e+00 0.000000e+00 0.000000e+00 0.000000e+00 0.000000e+00 0.000000e+00 0.000000e+00 0.000000e+00 0.000000e+00 0.000000e+00 0.000000e+00 0.000000e+00 4.439442e-01 5.560557e-01 0.000000e+00 0.000000e+00 0.000000e+00 0.000000e+00 0.000000e+00 0.000000e+00 0.000000e+00 0.000000e+00 0.000000e+00 0.000000e+00 0.000000e+00 0.000000e+00 0.000000e+00 0.000000e+00 0.000000e+00
 0.000000e+00 0.000000e+00 0.000000e+00 0.000000e+00 0.000000e+00 0.000000e+00 0.000000e+00 0.000000e+00 0.000000e+00 0.000000e+00 0.000000e+00 0.000000e+00 0.000000e+00 0.000000e+00 0.000000e+00 0.000000e+00 0.000000e+00 0.000000e+00 0.000000e+00 0.000000e+00 0.000000e+00 0.000000e+00 0.000000e+00 0.000000e+00 1.680806e-01 8.319194e-01 0.000000e+00 0.000000e+00 0.000000e+00 0.000000e+00 0.000000e+00 0.000000e+00 0.000000e+00 0.000000e+00 0.000000e+00 0.000000e+00 0.000000e+00 0.000000e+00 0.000000e+00 0.000000e+00
 0.000000e+00 0.000000e+00 0.000000e+00 0.000000e+00 0.000000e+00 0.000000e+00 0.000000e+00 0.000000e+00 0.000000e+00 0.000000e+00 0.000000e+00 0.000000e+00 0.000000e+00 0.000000e+00 0.000000e+00 0.000000e+00 0.000000e+00 0.000000e+00 0.000000e+00 0.000000e+00 0.000000e+00 0.000000e+00 0.000000e+00 0.000000e+00 0.000000e+00 2.883356e-01 7.116644e-01 0.000000e+00 0.000000e+00 0.000000e+00 0.000000e+00 0.000000e+00 0.000000e+00 0.000000e+00 0.000000e+00 0.000000e+00 0.000000e+00 0.000000e+00 0.000000e+00 0.000000e+00
 0.000000e+00 0.000000e+00 0.000000e+00 0.000000e+00 0.000000e+00 0.000000e+00 0.000000e+00 0.000000e+00 0.000000e+00 0.000000e+00 0.000000e+00 0.000000e+00 0.000000e+00 0.000000e+00 0.000000e+00 0.000000e+00 0.000000e+00 0.000000e+00 0.000000e+00 0.000000e+00 0.000000e+00 0.000000e+00 0.000000e+00 0.000000e+00 0.000000e+00 0.000000e+00 4.356582e-01 5.643418e-01 0.000000e+00 0.000000e+00 0.000000e+00 0.000000e+00 0.000000e+00 0.000000e+00 0.000000e+00 0.000000e+00 0.000000e+00 0.000000e+00 0.000000e+00 0.000000e+00
 0.000000e+00 0.000000e+00 0.000000e+00 0.000000e+00 0.000000e+00 0.000000e+00 0.000000e+00 0.000000e+00 0.000000e+00 0.000000e+00 0.000000e+00 0.000000e+00 0.000000e+00 0.000000e+00 0.000000e+00 0.000000e+00 0.000000e+00 0.000000e+00 0.000000e+00 0.000000e+00 0.000000e+00 0.000000e+00 0.000000e+00 0.000000e+00 0.000000e+00 0.000000e+00 0.000000e+00 5.070207e-01 4.929794e-01 0.000000e+00 0.000000e+00 0.000000e+00 0.000000e+00 0.000000e+00 0.000000e+00 0.000000e+00 0.000000e+00 0.000000e+00 0.000000e+00 0.000000e+00
 0.000000e+00 0.000000e+00 0.000000e+00 0.000000e+00 0.000000e+00 0.000000e+00 0.000000e+00 0.000000e+00 0.000000e+00 0.000000e+00 0.000000e+00 0.000000e+00 0.000000e+00 0.000000e+00 0.000000e+00 0.000000e+00 0.000000e+00 0.000000e+00 0.000000e+00 0.000000e+00 0.000000e+00 0.000000e+00 0.000000e+00 0.000000e+00 0.000000e+00 0.000000e+00 0.000000e+00 0.000000e+00 2.833993e-01 7.166007e-01 0.000000e+00 0.000000e+00 0.000000e+00 0.000000e+00 0.000000e+00 0.000000e+00 0.000000e+00 0.000000e+00 0.000000e+00 0.000000e+00
 0.000000e+00 0.000000e+00 0.000000e+00 0.000000e+00 0.000000e+00 0.000000e+00 0.000000e+00 0.000000e+00 0.000000e+00 0.000000e+00 0.000000e+00 0.000000e+00 0.000000e+00 0.000000e+00 0.000000e+00 0.000000e+00 0.000000e+00 0.000000e+00 0.000000e+00 0.000000e+00 0.000000e+00 0.000000e+00 0.000000e+00 0.000000e+00 0.000000e+00 0.000000e+00 0.000000e+00 0.000000e+00 0.000000e+00 3.745600e-01 6.254400e-01 0.000000e+00 0.000000e+00 0.000000e+00 0.000000e+00 0.000000e+00 0.000000e+00 0.000000e+00 0.000000e+00 0.000000e+00
 0.000000e+00 0.000000e+00 0.000000e+00 0.000000e+00 0.000000e+00 0.000000e+00 0.000000e+00 0.000000e+00 0.000000e+00 0.000000e+00 0.000000e+00 0.000000e+00 0.000000e+00 0.000000e+00 0.000000e+00 0.000000e+00 0.000000e+00 0.000000e+00 0.000000e+00 0.000000e+00 0.000000e+00 0.000000e+00 0.000000e+00 0.000000e+00 0.000000e+00 0.000000e+00 0.000000e+00 0.000000e+00 0.000000e+00 0.000000e+00 5.451073e-01 4.548927e-01 0.000000e+00 0.000000e+00 0.000000e+00 0.000000e+00 0.000000e+00 0.000000e+00 0.000000e+00 0.000000e+00
 0.000000e+00 0.000000e+00 0.000000e+00 0.000000e+00 0.000000e+00 0.000000e+00 0.000000e+00 0.000000e+00 0.000000e+00 0.000000e+00 0.000000e+00 0.000000e+00 0.000000e+00 0.000000e+00 0.000000e+00 0.000000e+00 0.000000e+00 0.000000e+00 0.000000e+00 0.000000e+00 0.000000e+00 0.000000e+00 0.000000e+00 0.000000e+00 0.000000e+00 0.000000e+00 0.000000e+00 0.000000e+00 0.000000e+00 0.000000e+00 0.000000e+00 3.761710e-01 6.238291e-01 0.000000e+00 0.000000e+00 0.000000e+00 0.000000e+00 0.000000e+00 0.000000e+00 0.000000e+00
 0.000000e+00 0.000000e+00 0.000000e+00 0.000000e+00 0.000000e+00 0.000000e+00 0.000000e+00 0.000000e+00 0.000000e+00 0.000000e+00 0.000000e+00 0.000000e+00 0.000000e+00 0.000000e+00 0.000000e+00 0.000000e+00 0.000000e+00 0.000000e+00 0.000000e+00 0.000000e+00 0.000000e+00 0.000000e+00 0.000000e+00 0.000000e+00 0.000000e+00 0.000000e+00 0.000000e+00 0.000000e+00 0.000000e+00 0.000000e+00 0.000000e+00 0.000000e+00 4.438913e-01 5.561087e-01 0.000000e+00 0.000000e+00 0.000000e+00 0.000000e+00 0.000000e+00 0.000000e+00
 0.000000e+00 0.000000e+00 0.000000e+00 0.000000e+00 0.000000e+00 0.000000e+00 0.000000e+00 0.000000e+00 0.000000e+00 0.000000e+00 0.000000e+00 0.000000e+00 0.000000e+00 0.000000e+00 0.000000e+00 0.000000e+00 0.000000e+00 0.000000e+00 0.000000e+00 0.000000e+00 0.000000e+00 0.000000e+00 0.000000e+00 0.000000e+00 0.000000e+00 0.000000e+00 0.000000e+00 0.000000e+00 0.000000e+00 0.000000e+00 0.000000e+00 0.000000e+00 0.000000e+00 3.752244e-01 6.247756e-01 0.000000e+00 0.000000e+00 0.000000e+00 0.000000e+00 0.000000e+00
 0.000000e+00 0.000000e+00 0.000000e+00 0.000000e+00 0.000000e+00 0.000000e+00 0.000000e+00 0.000000e+00 0.000000e+00 0.000000e+00 0.000000e+00 0.000000e+00 0.000000e+00 0.000000e+00 0.000000e+00 0.000000e+00 0.000000e+00 0.000000e+00 0.000000e+00 0.000000e+00 0.000000e+00 0.000000e+00 0.000000e+00 0.000000e+00 0.000000e+00 0.000000e+00 0.000000e+00 0.000000e+00 0.000000e+00 0.000000e+00 0.000000e+00 0.000000e+00 0.000000e+00 0.000000e+00 5.455326e-01 4.544674e-01 0.000000e+00 0.000000e+00 0.000000e+00 0.000000e+00
 0.000000e+00 0.000000e+00 0.000000e+00 0.000000e+00 0.000000e+00 0.000000e+00 0.000000e+00 0.000000e+00 0.000000e+00 0.000000e+00 0.000000e+00 0.000000e+00 0.000000e+00 0.000000e+00 0.000000e+00 0.000000e+00 0.000000e+00 0.000000e+00 0.000000e+00 0.000000e+00 0.000000e+00 0.000000e+00 0.000000e+00 0.000000e+00 0.000000e+00 0.000000e+00 0.000000e+00 0.000000e+00 0.000000e+00 0.000000e+00 0.000000e+00 0.000000e+00 0.000000e+00 0.000000e+00 0.000000e+00 2.878700e-01 7.121300e-01 0.000000e+00 0.000000e+00 0.000000e+00
 0.000000e+00 0.000000e+00 0.000000e+00 0.000000e+00 0.000000e+00 0.000000e+00 0.000000e+00 0.000000e+00 0.000000e+00 0.000000e+00 0.000000e+00 0.000000e+00 0.000000e+00 0.000000e+00 0.000000e+00 0.000000e+00 0.000000e+00 0.000000e+00 0.000000e+00 0.000000e+00 0.000000e+00 0.000000e+00 0.000000e+00 0.000000e+00 0.000000e+00 0.000000e+00 0.000000e+00 0.000000e+00 0.000000e+00 0.000000e+00 0.000000e+00 0.000000e+00 0.000000e+00 0.000000e+00 0.000000e+00 0.000000e+00 4.429554e-01 5.570446e-01 0.000000e+00 0.000000e+00
 0.000000e+00 0.000000e+00 0.000000e+00 0.000000e+00 0.000000e+00 0.000000e+00 0.000000e+00 0.000000e+00 0.000000e+00 0.000000e+00 0.000000e+00 0.000000e+00 0.000000e+00 0.000000e+00 0.000000e+00 0.000000e+00 0.000000e+00 0.000000e+00 0.000000e+00 0.000000e+00 0.000000e+00 0.000000e+00 0.000000e+00 0.000000e+00 0.000000e+00 0.000000e+00 0.000000e+00 0.000000e+00 0.000000e+00 0.000000e+00 0.000000e+00 0.000000e+00 0.000000e+00 0.000000e+00 0.000000e+00 0.000000e+00 0.000000e+00 1.667687e-01 8.332313e-01 0.000000e+00
 0.000000e+00 0.000000e+00 0.000000e+00 0.000000e+00 0.000000e+00 0.000000e+00 0.000000e+00 0.000000e+00 0.000000e+00 0.000000e+00 0.000000e+00 0.000000e+00 0.000000e+00 0.000000e+00 0.000000e+00 0.000000e+00 0.000000e+00 0.000000e+00 0.000000e+00 0.000000e+00 0.000000e+00 0.000000e+00 0.000000e+00 0.000000e+00 0.000000e+00 0.000000e+00 0.000000e+00 0.000000e+00 0.000000e+00 0.000000e+00 0.000000e+00 0.000000e+00 0.000000e+00 0.000000e+00 0.000000e+00 0.000000e+00 0.000000e+00 0.000000e+00 3.750204e-01 6.249796e-01
 0.000000e+00 0.000000e+00 0.000000e+00 0.000000e+00 0.000000e+00 0.000000e+00 0.000000e+00 0.000000e+00 0.000000e+00 0.000000e+00 0.000000e+00 0.000000e+00 0.000000e+00 0.000000e+00 0.000000e+00 0.000000e+00 0.000000e+00 0.000000e+00 0.000000e+00 0.000000e+00 0.000000e+00 0.000000e+00 0.000000e+00 0.000000e+00 0.000000e+00 0.000000e+00 0.000000e+00 0.000000e+00 0.000000e+00 0.000000e+00 0.000000e+00 0.000000e+00 0.000000e+00 0.000000e+00 0.000000e+00 0.000000e+00 0.000000e+00 0.000000e+00 0.000000e+00 0.000000e+00
<ENDHMM>
