~o
<STREAMINFO> 1 26
<VECSIZE> 26<NULLD><MFCC_E_D><DIAGC>
~h "Tam"
<BEGINHMM>
<NUMSTATES> 32
<STATE> 2
<MEAN> 26
 -7.182958e+00 -7.605856e+00 7.351345e-01 -8.040399e-01 1.616150e+00 -3.853580e+00 3.004472e+00 5.309980e-01 1.559977e-01 -3.543561e+00 1.815707e+00 -1.738813e+00 -7.030156e-02 -1.311187e-01 1.165320e-01 -1.121136e+00 -7.823846e-01 -8.262120e-01 -1.640151e-01 -1.861579e-02 1.445473e-01 6.048496e-01 3.379105e-01 5.649933e-01 1.783352e-01 4.832549e-02
<VARIANCE> 26
 5.358306e+00 4.316967e+00 5.840241e+00 2.084089e+01 4.354257e+00 8.132316e+00 6.030731e+00 1.450932e+01 6.777921e+00 1.410244e+01 1.206856e+01 7.022000e+00 5.000000e-02 5.527120e-01 2.996811e-01 1.716775e+00 5.071056e-01 6.029533e-01 1.075573e+00 1.348850e+00 1.421715e+00 3.853320e-01 1.252316e+00 7.220758e-01 1.086154e+00 5.000000e-02
<GCONST> 6.408444e+01
<STATE> 3
<MEAN> 26
 -6.524599e+00 -7.418487e+00 -5.206513e+00 -2.768107e+00 -8.848191e-01 -4.699888e+00 3.540049e+00 1.422813e-01 1.556409e+00 -2.816548e+00 1.831012e+00 -2.855270e+00 8.379287e-02 -7.760887e-01 -1.763894e+00 -5.818602e+00 -2.180475e+00 -4.521414e-01 -2.396239e+00 2.135556e+00 9.167709e-01 5.696163e-01 -1.501841e+00 -2.328450e+00 2.434933e-01 2.256108e-01
<VARIANCE> 26
 1.174539e+01 3.755645e+00 1.320630e+01 9.732290e+00 1.112113e+01 1.196099e+01 1.662606e+01 1.525730e+01 1.024187e+01 6.215921e+00 4.871110e+00 6.191578e+00 5.407256e-02 2.278748e+00 2.033647e+00 7.831781e-01 1.507983e+00 2.986807e+00 1.093614e+00 2.266257e+00 9.840469e-01 2.408592e+00 4.034417e+00 7.732862e-01 3.405587e-01 5.000000e-02
<GCONST> 7.312635e+01
<STATE> 4
<MEAN> 26
 -1.052166e+01 -1.494053e+01 -2.092974e+01 -9.032922e+00 -3.002527e-01 -1.250780e+01 9.973108e+00 2.758063e+00 1.240898e+00 -1.025013e+01 -6.963759e+00 -8.054352e-01 7.458071e-01 -9.206998e-01 -3.889466e+00 -4.594369e+00 -6.874626e-02 6.124761e-01 2.166391e-01 1.718518e+00 -1.215925e+00 -2.350638e-01 -3.319286e+00 -1.167781e+00 5.624059e-01 2.037596e-01
<VARIANCE> 26
 3.894097e+01 2.238509e+01 1.612302e+01 1.725677e+01 3.792434e+01 3.921983e+01 3.029362e+01 1.671716e+01 2.113689e+01 2.534420e+01 3.536985e+00 8.999967e+00 5.000000e-02 1.484641e+00 8.556175e-01 2.783474e+00 2.207266e+00 2.121331e+00 1.864818e+00 2.904081e+00 1.993458e+00 1.115432e+00 1.140309e+00 1.319158e+00 1.847605e+00 5.000000e-02
<GCONST> 8.378576e+01
<STATE> 5
<MEAN> 26
 -9.297552e+00 -2.145970e+01 -2.342379e+01 -2.968946e+00 1.771854e+00 -5.112794e+00 1.080230e+01 -4.678468e+00 1.196321e+00 -1.584089e+01 -2.463117e+00 -6.306622e-01 8.985736e-01 4.858301e-01 -2.301216e+00 -1.632532e-02 2.356581e+00 1.170351e+00 2.251361e+00 -1.153267e+00 -2.685247e+00 7.020506e-01 -5.373397e-01 1.867221e+00 -3.360992e-01 5.306944e-02
<VARIANCE> 26
 1.880038e+01 4.288305e+00 2.862632e+01 8.809310e+00 3.633905e+01 1.960993e+01 2.098224e+01 2.128338e+01 1.266903e+01 4.306858e+00 3.330751e+00 1.700126e+01 5.000000e-02 1.725550e+00 2.329283e+00 6.503767e-01 1.090430e+00 1.470569e+00 1.085739e+00 1.705917e+00 1.505096e+00 3.661551e+00 2.647714e+00 3.563723e-01 1.317334e+00 5.000000e-02
<GCONST> 7.639339e+01
<STATE> 6
<MEAN> 26
 -9.016189e+00 -2.414738e+01 -2.082172e+01 -4.988863e-01 4.889046e+00 -4.407207e+00 6.086004e+00 -6.977093e+00 2.649655e+00 -1.107490e+01 -1.866425e-01 -1.363011e+00 9.540455e-01 7.829875e-02 -1.079076e+00 8.223008e-01 6.068308e-01 8.094922e-01 -1.477038e-02 -1.642811e+00 -9.345971e-01 3.873005e-02 1.376007e+00 2.470492e-01 -5.752963e-01 1.780377e-02
<VARIANCE> 26
 1.812441e+01 4.160944e+00 2.134460e+01 4.749395e+00 1.363771e+01 1.895544e+01 2.113430e+01 2.360281e+01 1.641822e+01 4.642929e+00 2.112486e+00 2.896590e+01 5.000000e-02 1.366984e-01 3.171883e-01 2.470059e-01 4.623281e-01 1.372062e+00 3.343112e-01 3.995101e-01 4.807612e-01 1.178164e+00 5.806934e-01 9.550775e-01 3.504648e-01 5.000000e-02
<GCONST> 6.173872e+01
<STATE> 7
<MEAN> 26
 -8.426473e+00 -2.553992e+01 -2.030448e+01 3.730823e-01 4.969704e+00 -5.076710e+00 4.123365e+00 -8.641037e+00 2.265406e+00 -8.691597e+00 -1.238040e+00 -2.955757e+00 9.730318e-01 7.544829e-03 -5.194103e-01 5.903402e-01 1.073571e-01 -2.981411e-01 7.228714e-01 -1.135984e+00 2.142265e-01 5.630087e-01 1.101803e-01 -2.229720e-02 1.540098e-02 8.228879e-03
<VARIANCE> 26
 1.709831e+01 2.960416e+00 1.338363e+01 3.820840e+00 7.835363e+00 3.212451e+01 1.738651e+01 8.283496e+00 2.967464e+00 9.752336e+00 8.949289e+00 1.782480e+01 5.000000e-02 9.154704e-02 8.157609e-02 1.452393e-01 1.596531e-01 2.544256e-01 2.414390e-01 2.233078e-01 4.061662e-01 1.292277e+00 5.902798e-01 9.852025e-01 3.335356e-01 5.000000e-02
<GCONST> 5.335276e+01
<STATE> 8
<MEAN> 26
 -1.162070e+01 -2.711610e+01 -1.597040e+01 -1.436007e+00 2.747493e+00 9.699074e-01 -1.662588e-01 -4.343956e+00 3.243312e+00 -1.142925e+01 -4.234139e-01 -1.874444e+00 9.820341e-01 -2.310202e-01 -4.495312e-01 3.042918e-01 -3.274219e-01 -7.043457e-02 5.039590e-01 -1.413003e-02 6.528715e-01 2.948039e-01 -6.277170e-01 -6.311151e-02 -1.859030e-01 -1.819052e-03
<VARIANCE> 26
 9.647548e+00 1.578444e+00 1.912897e+01 4.960302e+00 7.092424e+00 2.824804e+01 9.181744e+00 1.915432e+01 6.612390e+00 2.854201e+00 1.876660e+01 1.424408e+01 5.000000e-02 5.967604e-02 1.365913e-01 3.618870e-01 3.358873e-01 3.263965e-01 3.432435e-01 7.810543e-01 9.668643e-02 4.468027e-01 4.428046e-01 6.289222e-01 9.537254e-02 5.000000e-02
<GCONST> 5.194178e+01
<STATE> 9
<MEAN> 26
 -7.784093e+00 -2.743080e+01 -1.957974e+01 -9.674963e-01 5.057490e+00 -3.843721e+00 3.044073e+00 -6.564079e+00 5.569049e+00 -1.248542e+01 3.720954e-01 -3.478122e+00 9.796974e-01 1.971752e-01 6.057461e-02 8.218525e-01 4.964449e-01 7.706277e-01 6.988813e-01 1.491204e-01 1.068315e+00 2.730391e-01 -5.230637e-01 1.926157e-01 5.225860e-01 2.193647e-03
<VARIANCE> 26
 1.884229e+01 4.112818e+00 1.486172e+01 4.381500e+00 1.020991e+01 1.401516e+01 7.727685e+00 1.178325e+01 6.961611e+00 2.927370e+00 2.677434e+01 1.698059e+01 5.000000e-02 7.162309e-02 1.380291e-01 8.115608e-02 1.869382e-01 5.527180e-01 6.864288e-02 4.455818e-01 3.735260e-01 8.266975e-01 5.099896e-01 4.178253e-01 2.079916e-01 5.000000e-02
<GCONST> 5.175224e+01
<STATE> 10
<MEAN> 26
 -8.155622e+00 -2.586022e+01 -1.613926e+01 1.063016e+00 8.050885e+00 -3.143566e-01 3.449184e+00 -2.595876e+00 4.241415e+00 -1.322802e+01 2.256329e-01 -1.924379e+00 9.842696e-01 -3.059418e-01 1.225307e-01 1.773467e-01 2.517412e-01 2.550022e-01 3.413582e-01 -1.682785e-01 8.618917e-01 -1.042099e+00 -9.988055e-01 -1.124532e-01 -3.956707e-01 -6.856382e-03
<VARIANCE> 26
 1.826609e+01 1.169591e+00 1.302624e+01 9.346091e+00 2.093393e+01 2.773858e+01 1.421656e+01 1.033191e+01 9.860514e+00 2.100647e+00 1.195697e+01 1.589142e+01 5.000000e-02 3.871626e-01 2.666514e-01 2.785247e-01 4.945806e-01 5.514928e-01 4.049414e-01 2.755816e-01 6.267550e-01 4.942315e-01 2.495582e-01 2.354343e+00 2.631417e-01 5.000000e-02
<GCONST> 5.920882e+01
<STATE> 11
<MEAN> 26
 -1.004409e+01 -2.808128e+01 -1.832238e+01 -6.178274e-01 4.954222e+00 -1.440519e+00 1.683314e+00 -2.838788e+00 2.461213e-01 -1.673186e+01 -2.012773e+00 -4.618814e+00 9.569215e-01 -5.481695e-01 -6.892418e-02 -2.616922e-01 -1.848543e-01 -9.174235e-01 -1.467135e-01 6.396365e-02 -2.995688e-01 -7.801803e-01 -9.933038e-01 -4.117204e-02 -8.445868e-01 -1.413218e-02
<VARIANCE> 26
 1.085964e+01 1.245530e+00 1.931365e+01 5.584200e+00 1.812260e+01 3.967558e+01 1.300773e+01 1.336090e+01 1.773678e+01 8.647992e+00 2.356865e+00 2.399755e+01 5.000000e-02 2.783363e-01 1.760595e-01 2.786306e-01 1.840132e-01 1.029182e+00 3.818720e-01 2.648471e-01 1.263946e+00 6.552066e-01 5.813974e-01 3.554430e-01 1.044351e+00 5.000000e-02
<GCONST> 5.991186e+01
<STATE> 12
<MEAN> 26
 -1.191898e+01 -2.614775e+01 -1.643588e+01 -5.134239e-01 2.949434e+00 8.940690e-01 2.273836e+00 -1.779737e+00 4.568208e+00 -1.451559e+01 -1.809322e-01 -1.244909e+00 9.294706e-01 -4.124666e-04 1.412714e-01 -2.508500e-01 -1.030805e+00 -4.659465e-01 -3.691573e-01 1.430906e-01 3.118979e-01 6.457310e-01 -4.555548e-01 3.733121e-01 -3.586899e-02 -1.552313e-02
<VARIANCE> 26
 2.836848e+00 3.276177e+00 9.661397e+00 1.027359e+01 1.262966e+01 3.666983e+01 2.308076e+01 3.334252e+01 1.444181e+01 8.836914e+00 2.968307e+00 3.099893e+01 5.000000e-02 2.086133e-01 4.140811e-01 1.052760e+00 8.283509e-01 7.787172e-01 1.075902e-01 2.739546e-01 2.846897e-01 4.426503e-01 4.294750e-01 3.733621e-01 1.705435e-01 5.000000e-02
<GCONST> 5.874459e+01
<STATE> 13
<MEAN> 26
 -9.435897e+00 -2.743352e+01 -1.693347e+01 -4.448555e+00 5.166913e+00 -2.155389e+00 2.562678e+00 -1.723814e+00 5.669073e-01 -1.834867e+01 2.366957e-02 -5.338976e+00 9.157400e-01 4.044109e-01 3.049435e-01 3.540982e-01 3.774396e-02 -5.068356e-01 7.596494e-02 -2.723147e-01 -1.367847e-01 1.549142e-01 -1.270657e+00 -1.954433e-01 -3.282094e-01 -1.288108e-02
<VARIANCE> 26
 8.332672e+00 8.618902e-01 2.502844e+00 7.788956e+00 2.092601e+01 2.663424e+01 1.506718e+01 2.601903e+01 3.474804e+01 6.153333e+00 8.714589e+00 2.570212e+01 5.000000e-02 4.763018e-01 5.198755e-01 4.660150e-01 9.743141e-01 1.761782e-01 6.799920e-01 5.544688e-01 1.242029e-01 3.897021e+00 1.322145e+00 1.190418e+00 8.923556e-01 5.000000e-02
<GCONST> 6.452319e+01
<STATE> 14
<MEAN> 26
 -8.574832e+00 -2.486079e+01 -1.727799e+01 -6.867408e-01 3.658683e+00 -3.607942e+00 3.621778e+00 -3.658529e+00 5.703369e+00 -2.167193e+01 -6.887363e-01 -5.027772e+00 8.741845e-01 1.278305e+00 9.529638e-01 2.030116e-01 -3.654137e-01 -2.899148e-01 -3.856619e-01 -2.989633e-01 1.743616e-01 -8.979782e-02 -1.447997e+00 -2.883253e-01 -2.619681e-01 -1.899453e-02
<VARIANCE> 26
 8.512367e+00 2.856158e+00 1.048986e+01 7.331961e+00 9.532948e+00 5.495329e+01 1.442767e+01 1.127892e+01 3.040604e+01 8.052585e+00 2.404695e+00 2.903889e+01 5.000000e-02 4.795467e-01 1.777210e-01 5.358709e-01 1.679812e+00 1.290136e+00 1.481098e+00 2.161892e-01 1.066339e+00 2.618762e+00 4.141303e+00 1.823935e+00 7.822660e-01 5.000000e-02
<GCONST> 6.977869e+01
<STATE> 15
<MEAN> 26
 -4.443289e+00 -2.274127e+01 -1.567325e+01 -3.436713e+00 1.829752e-01 -9.072054e-01 5.918921e-01 -2.015355e+00 1.793607e+00 -2.223126e+01 -1.378119e+00 -3.941101e+00 8.111150e-01 3.139264e+00 -3.415456e-01 1.385082e+00 -1.094734e+00 -3.058017e+00 -5.394879e-01 -1.916236e+00 -5.876195e-01 -6.680471e-01 1.684268e+00 -1.297961e+00 9.289281e-01 -5.455576e-02
<VARIANCE> 26
 1.601704e+01 6.055288e+00 7.640102e+00 2.031214e+01 1.952020e+01 3.947393e+01 1.265212e+01 2.651237e+01 2.662883e+01 4.377745e+01 1.884875e+01 1.743725e+01 5.000000e-02 3.488687e-01 6.560181e-01 5.638875e-01 2.063058e-01 2.924814e+00 4.429040e+00 1.865844e+00 1.283217e+00 2.003820e+00 1.399724e+00 1.316193e+00 2.607185e+00 5.000000e-02
<GCONST> 7.880417e+01
<STATE> 16
<MEAN> 26
 2.833023e+00 -2.674340e+01 -1.001463e+01 -6.630080e+00 -7.063457e+00 -4.085039e+00 -4.997194e+00 -2.872060e+00 2.208125e+00 -1.537004e+01 -6.299248e+00 -1.615823e+00 6.716460e-01 1.800801e+00 -1.154921e+00 1.261106e+00 -8.664347e-01 -1.732236e+00 -1.295395e+00 -1.644008e+00 -7.391455e-01 2.103574e-01 1.561286e+00 -2.416128e+00 4.869888e-01 -4.424148e-02
<VARIANCE> 26
 7.107103e+00 4.730545e+00 1.580863e+01 4.989371e+00 1.158989e+01 7.253950e+00 1.313542e+01 6.619425e+00 9.621773e+00 1.619755e+01 1.304228e+01 5.135407e+00 5.000000e-02 1.806593e+00 4.268929e-01 6.729311e-01 1.004348e+00 3.454613e+00 1.526351e+00 9.195535e-01 4.394817e+00 2.036336e+00 2.622815e+00 2.858772e+00 9.957486e-01 5.000000e-02
<GCONST> 7.295572e+01
<STATE> 17
<MEAN> 26
 2.990443e+00 -2.853174e+01 -1.042136e+01 -7.526979e+00 -7.237800e+00 -6.098336e+00 -6.224564e+00 -3.449522e+00 1.840292e+00 -1.494721e+01 -8.458097e+00 -1.255008e+00 6.350725e-01 7.776812e-01 -5.369698e-01 4.517137e-01 8.401570e-01 -6.907024e-01 -6.895633e-01 2.387584e-01 -5.161372e-01 -2.921776e-01 1.413948e+00 -4.568474e-01 -3.403623e-01 -3.144804e-02
<VARIANCE> 26
 3.147258e+00 3.339283e+00 8.497380e+00 6.422007e+00 1.474678e+01 2.379167e+00 1.672676e+01 4.198254e+01 4.582877e-01 1.216447e+01 1.185559e+01 8.734584e+00 5.000000e-02 1.864479e+00 2.299557e-01 1.604963e+00 6.100406e-01 2.420064e+00 5.259869e-01 2.433610e-01 4.662824e+00 1.160604e+00 3.299041e+00 1.675035e+00 6.356323e-01 5.000000e-02
<GCONST> 6.552048e+01
<STATE> 18
<MEAN> 26
 4.746120e+00 -2.645582e+01 -1.063045e+01 -4.724987e+00 -9.714535e+00 -7.203276e+00 -3.442733e+00 -6.478658e+00 1.239261e+00 -1.213575e+01 -7.851570e+00 -4.717392e+00 5.980483e-01 -3.890034e-02 2.343187e-01 4.223804e-01 4.026330e-01 -3.011599e-01 -2.466838e-01 1.177610e+00 -1.729110e-02 -5.999486e-01 1.251424e+00 1.356775e+00 3.187034e-02 -2.504410e-02
<VARIANCE> 26
 3.378210e+00 5.951274e+00 2.826669e+00 5.608477e+00 1.682354e+00 4.973278e+00 4.946650e+00 2.832971e+01 8.808985e+00 1.781763e+01 1.368802e+01 1.064085e+01 5.000000e-02 3.768054e-01 2.547186e-01 7.636091e-01 7.197453e-01 1.065112e+00 5.636978e-01 4.632230e-01 1.097589e+00 6.417552e-01 2.023124e+00 2.844012e+00 1.945136e+00 5.000000e-02
<GCONST> 6.250462e+01
<STATE> 19
<MEAN> 26
 2.492213e+00 -2.735845e+01 -8.615654e+00 -4.341208e+00 -8.551326e+00 -6.021406e+00 -4.115853e-01 -4.927359e+00 1.855717e+00 -1.092961e+01 -4.520709e+00 -3.694658e-01 5.402498e-01 -9.692928e-01 -3.370135e-01 1.990863e-02 1.090246e-01 7.616431e-01 3.373485e-01 1.221200e-01 1.131564e+00 7.131084e-01 6.181560e-01 1.453097e+00 1.255846e+00 -3.312523e-02
<VARIANCE> 26
 5.518060e+00 1.832759e+01 8.246123e-01 1.653303e+01 2.481899e+01 1.306296e+01 1.085440e+01 5.488036e+00 1.397568e+01 3.405491e+01 1.107397e+01 2.904083e+01 5.000000e-02 1.040035e-01 2.148493e-01 4.192532e-01 2.084964e+00 2.379743e+00 6.903740e-01 1.967320e+00 2.546456e+00 6.532512e-01 2.982843e+00 4.180894e-01 2.682097e+00 5.000000e-02
<GCONST> 6.978320e+01
<STATE> 20
<MEAN> 26
 7.874485e-01 -2.773061e+01 -9.831323e+00 -4.755752e+00 -5.212830e+00 -4.550748e+00 -3.608017e+00 -1.438302e+00 1.422287e+00 -1.022116e+01 -1.604325e+00 2.189497e+00 4.652754e-01 -6.696545e-01 -2.820364e-01 -1.179666e+00 1.283031e+00 2.532878e+00 4.433069e-01 3.608003e-01 1.194600e+00 -4.712874e-01 -8.029895e-01 1.008018e-01 1.240809e+00 -3.316428e-02
<VARIANCE> 26
 5.933068e+00 1.301517e+01 5.809871e-01 1.249405e+01 4.231255e+01 1.391020e+01 4.357605e+00 6.963717e+00 4.039486e+00 1.838177e+01 1.392065e+01 1.055442e+01 5.000000e-02 9.892514e-02 3.399850e-01 3.528270e-01 1.688038e+00 1.829398e+00 1.613818e+00 1.172580e+00 2.302378e-01 7.411475e-01 1.612610e+00 1.399585e+00 5.037320e+00 5.000000e-02
<GCONST> 6.520399e+01
<STATE> 21
<MEAN> 26
 3.508921e-01 -2.849793e+01 -1.234866e+01 6.762958e-01 -3.118721e-02 -4.620543e+00 1.079226e+00 2.348931e-01 1.564394e+00 -1.214643e+01 -2.274313e+00 2.881796e+00 4.263989e-01 6.075106e-02 3.005203e-01 -3.880091e-01 1.604094e+00 1.363527e+00 1.765540e-01 1.110372e+00 -2.637221e-01 -1.187262e+00 -2.857362e-01 1.541249e-01 -6.899570e-01 -2.525775e-02
<VARIANCE> 26
 1.859887e+00 4.958667e+00 2.446043e+00 1.530727e+01 1.780222e+01 6.652277e+00 1.865355e+01 4.826525e+00 5.337457e+00 1.926685e+00 3.981771e+00 2.099595e+01 5.000000e-02 2.299314e-01 7.885803e-01 8.404931e-01 9.030162e-01 2.275114e+00 4.064613e-01 6.282735e-01 1.018785e+00 1.133679e+00 7.802320e-01 9.575382e-01 1.810361e+00 5.000000e-02
<GCONST> 6.158860e+01
<STATE> 22
<MEAN> 26
 9.029825e-01 -2.705038e+01 -1.214627e+01 1.686160e+00 7.397376e-01 -4.354878e+00 1.764256e+00 -2.701067e+00 -2.747193e+00 -1.070037e+01 -1.424497e+00 -1.123469e+00 3.882203e-01 5.628873e-01 1.391366e+00 5.082340e-01 1.087023e+00 1.043591e+00 -2.034337e-01 -8.703148e-02 -1.568628e-01 -7.873115e-01 6.430721e-01 1.596344e-01 6.655861e-01 -1.605973e-02
<VARIANCE> 26
 2.553867e+00 5.626754e+00 1.442193e+01 1.055128e+01 1.707656e+01 2.420986e+01 8.060530e+00 6.393282e+00 3.706704e+00 7.679697e+00 5.921174e+00 9.965371e+00 5.000000e-02 8.010504e-02 2.695824e-01 4.945123e-01 6.336858e-01 1.752544e+00 1.573961e+00 5.795765e-01 1.230633e+00 2.445205e+00 2.063978e-01 2.384802e-01 1.718717e+00 5.000000e-02
<GCONST> 6.098188e+01
<STATE> 23
<MEAN> 26
 2.292980e+00 -2.347594e+01 -9.234229e+00 2.703196e+00 1.107030e+00 -5.047372e+00 1.810358e-01 -1.718613e+00 -5.168507e-01 -1.052552e+01 -1.840572e+00 4.204399e+00 3.709419e-01 2.176440e-01 7.409403e-01 7.193082e-02 3.073428e-01 1.562367e-01 -6.241219e-01 2.508248e-01 -2.968762e-02 1.342198e-01 6.509712e-01 -6.688954e-02 1.102371e+00 -1.959630e-02
<VARIANCE> 26
 2.372640e+00 5.203930e+00 1.185829e+01 6.858152e+00 3.686056e+00 1.095277e+01 4.530580e+00 1.104994e+01 2.027271e+01 8.205210e+00 5.063027e+00 5.314581e+00 5.000000e-02 1.010302e-01 3.499773e-01 3.047709e-01 5.279526e-01 2.622112e+00 1.504204e+00 6.994268e-01 3.501415e-01 1.293568e+00 8.997421e-01 4.700862e-01 3.658672e+00 5.000000e-02
<GCONST> 6.021328e+01
<STATE> 24
<MEAN> 26
 1.612132e+00 -2.378666e+01 -1.166836e+01 2.398659e+00 7.728928e-01 -7.198572e+00 1.679410e+00 -1.421071e+00 -2.444122e+00 -8.839405e+00 -1.628382e+00 4.004154e+00 3.246925e-01 -7.615365e-01 -5.880589e-01 -6.755796e-01 -8.106375e-02 6.192708e-01 5.210880e-01 4.947257e-01 7.447523e-01 -3.878844e-01 4.224095e-01 5.690600e-01 -3.851080e-02 -1.803226e-02
<VARIANCE> 26
 1.108906e+00 5.090582e+00 1.288347e+01 4.006516e+00 7.436009e+00 1.489804e+00 2.522898e+00 7.429235e+00 1.780349e+01 4.638089e+00 1.050661e+01 1.818012e+01 5.000000e-02 7.086081e-02 1.608808e-01 4.414008e-01 4.587298e-01 8.319728e-01 1.915436e-01 9.325958e-01 1.038659e+00 1.284392e+00 1.425279e+00 8.977623e-01 9.370808e-01 5.000000e-02
<GCONST> 5.496196e+01
<STATE> 25
<MEAN> 26
 -5.545781e-01 -2.636453e+01 -1.392004e+01 1.987849e+00 3.554831e+00 -3.757361e+00 2.106093e+00 -2.120996e-01 -2.728365e+00 -9.476599e+00 1.034070e-01 3.818746e+00 2.851641e-01 -2.757649e-01 5.141829e-01 1.906981e-01 2.517953e-01 7.100613e-01 2.796050e-01 8.521451e-02 -3.463825e-01 4.449136e-02 -8.451817e-01 3.095989e-01 -1.641838e-01 -1.235809e-02
<VARIANCE> 26
 2.332339e+00 5.804025e+00 8.550844e+00 2.036186e+00 1.521150e+00 7.607403e+00 1.511978e+01 1.231866e+01 4.925429e+00 1.061588e+01 1.505925e+01 1.071430e+01 5.000000e-02 2.841833e-01 1.047470e+00 9.541881e-01 2.502760e-01 1.108966e+00 4.236462e-01 6.761597e-01 7.708568e-01 2.011766e+00 7.363335e-01 3.355827e-01 1.006861e+00 5.000000e-02
<GCONST> 5.922895e+01
<STATE> 26
<MEAN> 26
 7.117327e-01 -2.174113e+01 -1.085113e+01 3.756380e+00 3.796786e+00 -4.757422e+00 1.631354e+00 -1.540389e+00 -2.448084e+00 -1.110074e+01 -8.617637e-01 2.374394e+00 2.644567e-01 1.011514e-01 8.511954e-01 5.370528e-01 5.145928e-01 -1.996449e-01 -9.794671e-01 -3.038165e-01 8.233117e-01 1.129132e+00 1.450396e+00 2.665723e-01 -1.327202e+00 -1.510552e-02
<VARIANCE> 26
 9.789965e-01 7.123556e+00 1.002532e+01 4.107575e+00 7.170230e+00 6.712166e+00 1.090120e+01 1.529549e+01 1.592851e+01 2.611860e+01 5.493810e+00 4.793528e+00 5.000000e-02 2.195572e-01 1.489014e+00 1.817610e+00 1.580483e-01 7.060127e-01 5.175047e-01 1.075495e+00 1.157171e+00 6.101986e-01 1.264502e+00 9.209448e-01 6.486396e-01 5.000000e-02
<GCONST> 6.181742e+01
<STATE> 27
<MEAN> 26
 -4.536266e-01 -2.321074e+01 -1.176000e+01 4.016331e+00 3.431098e+00 -8.176411e+00 9.058756e-01 1.315030e+00 1.157086e+00 -6.920547e+00 6.368458e-01 8.391739e-01 2.470651e-01 -1.315796e-01 5.777401e-01 4.287836e-01 3.647752e-02 3.515609e-01 -3.013745e-02 -3.164743e-01 -1.732128e-01 -1.766652e-01 1.257455e-01 -1.877854e-01 1.749455e-02 -1.495817e-02
<VARIANCE> 26
 2.365097e+00 6.247663e+00 9.230512e+00 3.021261e+00 6.966640e+00 6.321888e+00 9.497410e+00 1.277737e+01 6.698608e+00 1.211622e+01 6.747371e+00 5.748749e+00 5.000000e-02 2.556427e-01 6.012634e-01 8.376938e-01 6.156260e-01 4.971699e-01 1.025946e+00 6.922327e-01 1.123737e+00 1.352142e+00 1.919986e+00 9.015182e-01 2.445055e-01 5.000000e-02
<GCONST> 6.043551e+01
<STATE> 28
<MEAN> 26
 -8.643744e-01 -1.985504e+01 -8.752549e+00 3.517981e+00 5.079953e+00 -2.471522e+00 2.078587e+00 -1.412383e+00 -1.923416e+00 -1.017609e+01 -1.036313e+00 1.133185e+00 1.801490e-01 -6.196417e-01 8.377948e-01 5.033129e-01 -2.919432e-01 -1.455238e-01 2.664100e-01 -5.521473e-02 -1.230302e+00 -5.078669e-01 -4.156570e-01 4.654421e-01 2.571322e-01 -2.647637e-02
<VARIANCE> 26
 2.730233e+00 5.171261e+00 8.646986e+00 1.443072e+01 4.243721e+00 2.230419e+00 4.821696e+00 5.852586e+00 1.111102e+01 1.210465e+01 1.007720e+01 5.970401e+00 5.000000e-02 9.690861e-01 1.055203e+00 1.666789e+00 1.693827e+00 5.985279e-01 1.941739e+00 9.865642e-01 1.030438e+00 5.011480e-01 3.035302e+00 1.841752e+00 3.220612e-01 5.000000e-02
<GCONST> 6.497781e+01
<STATE> 29
<MEAN> 26
 -8.899682e-01 -1.825689e+01 -7.441395e+00 3.147316e+00 1.912583e+00 -8.605164e+00 -1.073929e+00 -5.197105e+00 -2.111718e+00 -7.334089e+00 1.941065e+00 1.489475e+00 1.975305e-01 -1.113111e+00 1.397491e+00 9.717859e-01 -1.011611e+00 -3.746985e-01 -3.615980e-03 2.599184e-01 3.152671e-01 1.666974e-01 6.560574e-01 -1.417570e-01 1.240976e-01 -4.490555e-02
<VARIANCE> 26
 1.051426e+01 9.115399e+00 1.322355e+01 4.442342e+00 5.479392e+00 9.888426e+00 2.268477e+00 6.445904e+00 6.935043e+00 1.291482e+01 7.568620e+00 1.558170e+00 5.000000e-02 1.214828e+00 4.348394e-01 8.791640e-01 1.469746e+00 1.702427e+00 7.140094e-01 6.369751e-01 1.890457e+00 8.591025e-01 7.147457e-01 2.311602e-01 5.300657e-01 5.000000e-02
<GCONST> 6.147861e+01
<STATE> 30
<MEAN> 26
 -5.045283e+00 -1.463309e+01 -6.222980e+00 1.920939e-02 3.244135e+00 -5.007766e+00 1.984418e+00 -4.493207e-01 -1.018691e+00 -7.527397e+00 -1.989181e-01 2.231623e+00 1.845879e-04 -8.624781e-01 1.604773e+00 9.658889e-01 -8.179053e-01 9.919173e-02 4.970954e-01 1.145670e-01 1.207163e+00 6.457187e-01 7.230892e-01 5.138649e-01 2.270989e-01 -5.567762e-02
<VARIANCE> 26
 3.811753e+00 3.971989e+00 4.455131e+00 7.332308e+00 7.493683e+00 9.860858e+00 1.130026e+01 9.529171e+00 1.022467e+01 5.943593e+00 5.479959e+00 7.598743e+00 5.000000e-02 8.471659e-01 3.353902e-01 6.377591e-01 6.091413e-01 1.076328e+00 1.126916e+00 1.256969e+00 3.529111e-01 2.741588e-01 2.335503e+00 7.921201e-01 1.341199e+00 5.000000e-02
<GCONST> 6.160614e+01
<STATE> 31
<MEAN> 26
 -5.397214e+00 -1.270409e+01 -4.890121e+00 -1.426203e-01 3.185485e+00 -4.393860e+00 9.247785e-01 1.359975e+00 1.161722e-01 -4.919209e+00 4.698575e+00 2.694147e+00 -6.536583e-02 -4.881166e-01 4.570653e-02 1.470580e-02 8.852401e-02 3.985600e-01 2.046854e-01 1.956320e-01 -2.032329e-01 1.645850e-01 6.870385e-01 4.214583e-01 -3.290268e-01 -2.650967e-02
<VARIANCE> 26
 1.964551e+00 4.117051e+00 6.786021e+00 5.365678e+00 1.330476e+01 4.818094e+00 1.044210e+01 5.139375e+00 1.200320e+01 7.673430e+00 6.947368e+00 1.315785e+01 5.000000e-02 2.946638e-01 1.577215e-01 2.483094e-01 1.614784e-01 1.834189e-01 1.961505e-01 1.424149e+00 1.401796e+00 2.601039e+00 5.737945e-01 4.567780e-01 7.714911e-02 5.000000e-02
<GCONST> 5.279624e+01
<TRANSP> 32
 0.000000e+00 1.000000e+00 0.000000e+00 0.000000e+00 0.000000e+00 0.000000e+00 0.000000e+00 0.000000e+00 0.000000e+00 0.000000e+00 0.000000e+00 0.000000e+00 0.000000e+00 0.000000e+00 0.000000e+00 0.000000e+00 0.000000e+00 0.000000e+00 0.000000e+00 0.000000e+00 0.000000e+00 0.000000e+00 0.000000e+00 0.000000e+00 0.000000e+00 0.000000e+00 0.000000e+00 0.000000e+00 0.000000e+00 0.000000e+00 0.000000e+00 0.000000e+00
 0.000000e+00 5.454522e-01 4.545479e-01 0.000000e+00 0.000000e+00 0.000000e+00 0.000000e+00 0.000000e+00 0.000000e+00 0.000000e+00 0.000000e+00 0.000000e+00 0.000000e+00 0.000000e+00 0.000000e+00 0.000000e+00 0.000000e+00 0.000000e+00 0.000000e+00 0.000000e+00 0.000000e+00 0.000000e+00 0.000000e+00 0.000000e+00 0.000000e+00 0.000000e+00 0.000000e+00 0.000000e+00 0.000000e+00 0.000000e+00 0.000000e+00 0.000000e+00
 0.000000e+00 0.000000e+00 4.444031e-01 5.555969e-01 0.000000e+00 0.000000e+00 0.000000e+00 0.000000e+00 0.000000e+00 0.000000e+00 0.000000e+00 0.000000e+00 0.000000e+00 0.000000e+00 0.000000e+00 0.000000e+00 0.000000e+00 0.000000e+00 0.000000e+00 0.000000e+00 0.000000e+00 0.000000e+00 0.000000e+00 0.000000e+00 0.000000e+00 0.000000e+00 0.000000e+00 0.000000e+00 0.000000e+00 0.000000e+00 0.000000e+00 0.000000e+00
 0.000000e+00 0.000000e+00 0.000000e+00 4.999623e-01 5.000377e-01 0.000000e+00 0.000000e+00 0.000000e+00 0.000000e+00 0.000000e+00 0.000000e+00 0.000000e+00 0.000000e+00 0.000000e+00 0.000000e+00 0.000000e+00 0.000000e+00 0.000000e+00 0.000000e+00 0.000000e+00 0.000000e+00 0.000000e+00 0.000000e+00 0.000000e+00 0.000000e+00 0.000000e+00 0.000000e+00 0.000000e+00 0.000000e+00 0.000000e+00 0.000000e+00 0.000000e+00
 0.000000e+00 0.000000e+00 0.000000e+00 0.000000e+00 4.445393e-01 5.554607e-01 0.000000e+00 0.000000e+00 0.000000e+00 0.000000e+00 0.000000e+00 0.000000e+00 0.000000e+00 0.000000e+00 0.000000e+00 0.000000e+00 0.000000e+00 0.000000e+00 0.000000e+00 0.000000e+00 0.000000e+00 0.000000e+00 0.000000e+00 0.000000e+00 0.000000e+00 0.000000e+00 0.000000e+00 0.000000e+00 0.000000e+00 0.000000e+00 0.000000e+00 0.000000e+00
 0.000000e+00 0.000000e+00 0.000000e+00 0.000000e+00 0.000000e+00 5.831208e-01 4.168792e-01 0.000000e+00 0.000000e+00 0.000000e+00 0.000000e+00 0.000000e+00 0.000000e+00 0.000000e+00 0.000000e+00 0.000000e+00 0.000000e+00 0.000000e+00 0.000000e+00 0.000000e+00 0.000000e+00 0.000000e+00 0.000000e+00 0.000000e+00 0.000000e+00 0.000000e+00 0.000000e+00 0.000000e+00 0.000000e+00 0.000000e+00 0.000000e+00 0.000000e+00
 0.000000e+00 0.000000e+00 0.000000e+00 0.000000e+00 0.000000e+00 0.000000e+00 3.754093e-01 6.245907e-01 0.000000e+00 0.000000e+00 0.000000e+00 0.000000e+00 0.000000e+00 0.000000e+00 0.000000e+00 0.000000e+00 0.000000e+00 0.000000e+00 0.000000e+00 0.000000e+00 0.000000e+00 0.000000e+00 0.000000e+00 0.000000e+00 0.000000e+00 0.000000e+00 0.000000e+00 0.000000e+00 0.000000e+00 0.000000e+00 0.000000e+00 0.000000e+00
 0.000000e+00 0.000000e+00 0.000000e+00 0.000000e+00 0.000000e+00 0.000000e+00 0.000000e+00 5.833597e-01 4.166403e-01 0.000000e+00 0.000000e+00 0.000000e+00 0.000000e+00 0.000000e+00 0.000000e+00 0.000000e+00 0.000000e+00 0.000000e+00 0.000000e+00 0.000000e+00 0.000000e+00 0.000000e+00 0.000000e+00 0.000000e+00 0.000000e+00 0.000000e+00 0.000000e+00 0.000000e+00 0.000000e+00 0.000000e+00 0.000000e+00 0.000000e+00
 0.000000e+00 0.000000e+00 0.000000e+00 0.000000e+00 0.000000e+00 0.000000e+00 0.000000e+00 0.000000e+00 4.994144e-01 5.005856e-01 0.000000e+00 0.000000e+00 0.000000e+00 0.000000e+00 0.000000e+00 0.000000e+00 0.000000e+00 0.000000e+00 0.000000e+00 0.000000e+00 0.000000e+00 0.000000e+00 0.000000e+00 0.000000e+00 0.000000e+00 0.000000e+00 0.000000e+00 0.000000e+00 0.000000e+00 0.000000e+00 0.000000e+00 0.000000e+00
 0.000000e+00 0.000000e+00 0.000000e+00 0.000000e+00 0.000000e+00 0.000000e+00 0.000000e+00 0.000000e+00 0.000000e+00 3.759152e-01 6.240848e-01 0.000000e+00 0.000000e+00 0.000000e+00 0.000000e+00 0.000000e+00 0.000000e+00 0.000000e+00 0.000000e+00 0.000000e+00 0.000000e+00 0.000000e+00 0.000000e+00 0.000000e+00 0.000000e+00 0.000000e+00 0.000000e+00 0.000000e+00 0.000000e+00 0.000000e+00 0.000000e+00 0.000000e+00
 0.000000e+00 0.000000e+00 0.000000e+00 0.000000e+00 0.000000e+00 0.000000e+00 0.000000e+00 0.000000e+00 0.000000e+00 0.000000e+00 1.667376e-01 8.332624e-01 0.000000e+00 0.000000e+00 0.000000e+00 0.000000e+00 0.000000e+00 0.000000e+00 0.000000e+00 0.000000e+00 0.000000e+00 0.000000e+00 0.000000e+00 0.000000e+00 0.000000e+00 0.000000e+00 0.000000e+00 0.000000e+00 0.000000e+00 0.000000e+00 0.000000e+00 0.000000e+00
 0.000000e+00 0.000000e+00 0.000000e+00 0.000000e+00 0.000000e+00 0.000000e+00 0.000000e+00 0.000000e+00 0.000000e+00 0.000000e+00 0.000000e+00 5.454466e-01 4.545534e-01 0.000000e+00 0.000000e+00 0.000000e+00 0.000000e+00 0.000000e+00 0.000000e+00 0.000000e+00 0.000000e+00 0.000000e+00 0.000000e+00 0.000000e+00 0.000000e+00 0.000000e+00 0.000000e+00 0.000000e+00 0.000000e+00 0.000000e+00 0.000000e+00 0.000000e+00
 0.000000e+00 0.000000e+00 0.000000e+00 0.000000e+00 0.000000e+00 0.000000e+00 0.000000e+00 0.000000e+00 0.000000e+00 0.000000e+00 0.000000e+00 0.000000e+00 4.998948e-01 5.001053e-01 0.000000e+00 0.000000e+00 0.000000e+00 0.000000e+00 0.000000e+00 0.000000e+00 0.000000e+00 0.000000e+00 0.000000e+00 0.000000e+00 0.000000e+00 0.000000e+00 0.000000e+00 0.000000e+00 0.000000e+00 0.000000e+00 0.000000e+00 0.000000e+00
 0.000000e+00 0.000000e+00 0.000000e+00 0.000000e+00 0.000000e+00 0.000000e+00 0.000000e+00 0.000000e+00 0.000000e+00 0.000000e+00 0.000000e+00 0.000000e+00 0.000000e+00 5.456613e-01 4.543388e-01 0.000000e+00 0.000000e+00 0.000000e+00 0.000000e+00 0.000000e+00 0.000000e+00 0.000000e+00 0.000000e+00 0.000000e+00 0.000000e+00 0.000000e+00 0.000000e+00 0.000000e+00 0.000000e+00 0.000000e+00 0.000000e+00 0.000000e+00
 0.000000e+00 0.000000e+00 0.000000e+00 0.000000e+00 0.000000e+00 0.000000e+00 0.000000e+00 0.000000e+00 0.000000e+00 0.000000e+00 0.000000e+00 0.000000e+00 0.000000e+00 0.000000e+00 4.998102e-01 5.001898e-01 0.000000e+00 0.000000e+00 0.000000e+00 0.000000e+00 0.000000e+00 0.000000e+00 0.000000e+00 0.000000e+00 0.000000e+00 0.000000e+00 0.000000e+00 0.000000e+00 0.000000e+00 0.000000e+00 0.000000e+00 0.000000e+00
 0.000000e+00 0.000000e+00 0.000000e+00 0.000000e+00 0.000000e+00 0.000000e+00 0.000000e+00 0.000000e+00 0.000000e+00 0.000000e+00 0.000000e+00 0.000000e+00 0.000000e+00 0.000000e+00 0.000000e+00 4.444874e-01 5.555127e-01 0.000000e+00 0.000000e+00 0.000000e+00 0.000000e+00 0.000000e+00 0.000000e+00 0.000000e+00 0.000000e+00 0.000000e+00 0.000000e+00 0.000000e+00 0.000000e+00 0.000000e+00 0.000000e+00 0.000000e+00
 0.000000e+00 0.000000e+00 0.000000e+00 0.000000e+00 0.000000e+00 0.000000e+00 0.000000e+00 0.000000e+00 0.000000e+00 0.000000e+00 0.000000e+00 0.000000e+00 0.000000e+00 0.000000e+00 0.000000e+00 0.000000e+00 1.666684e-01 8.333316e-01 0.000000e+00 0.000000e+00 0.000000e+00 0.000000e+00 0.000000e+00 0.000000e+00 0.000000e+00 0.000000e+00 0.000000e+00 0.000000e+00 0.000000e+00 0.000000e+00 0.000000e+00 0.000000e+00
 0.000000e+00 0.000000e+00 0.000000e+00 0.000000e+00 0.000000e+00 0.000000e+00 0.000000e+00 0.000000e+00 0.000000e+00 0.000000e+00 0.000000e+00 0.000000e+00 0.000000e+00 0.000000e+00 0.000000e+00 0.000000e+00 0.000000e+00 5.841441e-01 4.158559e-01 0.000000e+00 0.000000e+00 0.000000e+00 0.000000e+00 0.000000e+00 0.000000e+00 0.000000e+00 0.000000e+00 0.000000e+00 0.000000e+00 0.000000e+00 0.000000e+00 0.000000e+00
 0.000000e+00 0.000000e+00 0.000000e+00 0.000000e+00 0.000000e+00 0.000000e+00 0.000000e+00 0.000000e+00 0.000000e+00 0.000000e+00 0.000000e+00 0.000000e+00 0.000000e+00 0.000000e+00 0.000000e+00 0.000000e+00 0.000000e+00 0.000000e+00 4.987714e-01 5.012286e-01 0.000000e+00 0.000000e+00 0.000000e+00 0.000000e+00 0.000000e+00 0.000000e+00 0.000000e+00 0.000000e+00 0.000000e+00 0.000000e+00 0.000000e+00 0.000000e+00
 0.000000e+00 0.000000e+00 0.000000e+00 0.000000e+00 0.000000e+00 0.000000e+00 0.000000e+00 0.000000e+00 0.000000e+00 0.000000e+00 0.000000e+00 0.000000e+00 0.000000e+00 0.000000e+00 0.000000e+00 0.000000e+00 0.000000e+00 0.000000e+00 0.000000e+00 2.858108e-01 7.141892e-01 0.000000e+00 0.000000e+00 0.000000e+00 0.000000e+00 0.000000e+00 0.000000e+00 0.000000e+00 0.000000e+00 0.000000e+00 0.000000e+00 0.000000e+00
 0.000000e+00 0.000000e+00 0.000000e+00 0.000000e+00 0.000000e+00 0.000000e+00 0.000000e+00 0.000000e+00 0.000000e+00 0.000000e+00 0.000000e+00 0.000000e+00 0.000000e+00 0.000000e+00 0.000000e+00 0.000000e+00 0.000000e+00 0.000000e+00 0.000000e+00 0.000000e+00 4.446759e-01 5.553241e-01 0.000000e+00 0.000000e+00 0.000000e+00 0.000000e+00 0.000000e+00 0.000000e+00 0.000000e+00 0.000000e+00 0.000000e+00 0.000000e+00
 0.000000e+00 0.000000e+00 0.000000e+00 0.000000e+00 0.000000e+00 0.000000e+00 0.000000e+00 0.000000e+00 0.000000e+00 0.000000e+00 0.000000e+00 0.000000e+00 0.000000e+00 0.000000e+00 0.000000e+00 0.000000e+00 0.000000e+00 0.000000e+00 0.000000e+00 0.000000e+00 0.000000e+00 3.745796e-01 6.254203e-01 0.000000e+00 0.000000e+00 0.000000e+00 0.000000e+00 0.000000e+00 0.000000e+00 0.000000e+00 0.000000e+00 0.000000e+00
 0.000000e+00 0.000000e+00 0.000000e+00 0.000000e+00 0.000000e+00 0.000000e+00 0.000000e+00 0.000000e+00 0.000000e+00 0.000000e+00 0.000000e+00 0.000000e+00 0.000000e+00 0.000000e+00 0.000000e+00 0.000000e+00 0.000000e+00 0.000000e+00 0.000000e+00 0.000000e+00 0.000000e+00 0.000000e+00 4.446265e-01 5.553735e-01 0.000000e+00 0.000000e+00 0.000000e+00 0.000000e+00 0.000000e+00 0.000000e+00 0.000000e+00 0.000000e+00
 0.000000e+00 0.000000e+00 0.000000e+00 0.000000e+00 0.000000e+00 0.000000e+00 0.000000e+00 0.000000e+00 0.000000e+00 0.000000e+00 0.000000e+00 0.000000e+00 0.000000e+00 0.000000e+00 0.000000e+00 0.000000e+00 0.000000e+00 0.000000e+00 0.000000e+00 0.000000e+00 0.000000e+00 0.000000e+00 0.000000e+00 4.998941e-01 5.001059e-01 0.000000e+00 0.000000e+00 0.000000e+00 0.000000e+00 0.000000e+00 0.000000e+00 0.000000e+00
 0.000000e+00 0.000000e+00 0.000000e+00 0.000000e+00 0.000000e+00 0.000000e+00 0.000000e+00 0.000000e+00 0.000000e+00 0.000000e+00 0.000000e+00 0.000000e+00 0.000000e+00 0.000000e+00 0.000000e+00 0.000000e+00 0.000000e+00 0.000000e+00 0.000000e+00 0.000000e+00 0.000000e+00 0.000000e+00 0.000000e+00 0.000000e+00 4.998914e-01 5.001087e-01 0.000000e+00 0.000000e+00 0.000000e+00 0.000000e+00 0.000000e+00 0.000000e+00
 0.000000e+00 0.000000e+00 0.000000e+00 0.000000e+00 0.000000e+00 0.000000e+00 0.000000e+00 0.000000e+00 0.000000e+00 0.000000e+00 0.000000e+00 0.000000e+00 0.000000e+00 0.000000e+00 0.000000e+00 0.000000e+00 0.000000e+00 0.000000e+00 0.000000e+00 0.000000e+00 0.000000e+00 0.000000e+00 0.000000e+00 0.000000e+00 0.000000e+00 3.876613e-01 6.123387e-01 0.000000e+00 0.000000e+00 0.000000e+00 0.000000e+00 0.000000e+00
 0.000000e+00 0.000000e+00 0.000000e+00 0.000000e+00 0.000000e+00 0.000000e+00 0.000000e+00 0.000000e+00 0.000000e+00 0.000000e+00 0.000000e+00 0.000000e+00 0.000000e+00 0.000000e+00 0.000000e+00 0.000000e+00 0.000000e+00 0.000000e+00 0.000000e+00 0.000000e+00 0.000000e+00 0.000000e+00 0.000000e+00 0.000000e+00 0.000000e+00 0.000000e+00 5.776460e-01 4.223541e-01 0.000000e+00 0.000000e+00 0.000000e+00 0.000000e+00
 0.000000e+00 0.000000e+00 0.000000e+00 0.000000e+00 0.000000e+00 0.000000e+00 0.000000e+00 0.000000e+00 0.000000e+00 0.000000e+00 0.000000e+00 0.000000e+00 0.000000e+00 0.000000e+00 0.000000e+00 0.000000e+00 0.000000e+00 0.000000e+00 0.000000e+00 0.000000e+00 0.000000e+00 0.000000e+00 0.000000e+00 0.000000e+00 0.000000e+00 0.000000e+00 0.000000e+00 5.453439e-01 4.546562e-01 0.000000e+00 0.000000e+00 0.000000e+00
 0.000000e+00 0.000000e+00 0.000000e+00 0.000000e+00 0.000000e+00 0.000000e+00 0.000000e+00 0.000000e+00 0.000000e+00 0.000000e+00 0.000000e+00 0.000000e+00 0.000000e+00 0.000000e+00 0.000000e+00 0.000000e+00 0.000000e+00 0.000000e+00 0.000000e+00 0.000000e+00 0.000000e+00 0.000000e+00 0.000000e+00 0.000000e+00 0.000000e+00 0.000000e+00 0.000000e+00 0.000000e+00 3.773023e-01 6.226977e-01 0.000000e+00 0.000000e+00
 0.000000e+00 0.000000e+00 0.000000e+00 0.000000e+00 0.000000e+00 0.000000e+00 0.000000e+00 0.000000e+00 0.000000e+00 0.000000e+00 0.000000e+00 0.000000e+00 0.000000e+00 0.000000e+00 0.000000e+00 0.000000e+00 0.000000e+00 0.000000e+00 0.000000e+00 0.000000e+00 0.000000e+00 0.000000e+00 0.000000e+00 0.000000e+00 0.000000e+00 0.000000e+00 0.000000e+00 0.000000e+00 0.000000e+00 5.443152e-01 4.556848e-01 0.000000e+00
 0.000000e+00 0.000000e+00 0.000000e+00 0.000000e+00 0.000000e+00 0.000000e+00 0.000000e+00 0.000000e+00 0.000000e+00 0.000000e+00 0.000000e+00 0.000000e+00 0.000000e+00 0.000000e+00 0.000000e+00 0.000000e+00 0.000000e+00 0.000000e+00 0.000000e+00 0.000000e+00 0.000000e+00 0.000000e+00 0.000000e+00 0.000000e+00 0.000000e+00 0.000000e+00 0.000000e+00 0.000000e+00 0.000000e+00 0.000000e+00 2.857195e-01 7.142804e-01
 0.000000e+00 0.000000e+00 0.000000e+00 0.000000e+00 0.000000e+00 0.000000e+00 0.000000e+00 0.000000e+00 0.000000e+00 0.000000e+00 0.000000e+00 0.000000e+00 0.000000e+00 0.000000e+00 0.000000e+00 0.000000e+00 0.000000e+00 0.000000e+00 0.000000e+00 0.000000e+00 0.000000e+00 0.000000e+00 0.000000e+00 0.000000e+00 0.000000e+00 0.000000e+00 0.000000e+00 0.000000e+00 0.000000e+00 0.000000e+00 0.000000e+00 0.000000e+00
<ENDHMM>
