~o
<STREAMINFO> 1 39
<VECSIZE> 39<NULLD><MFCC_E_D_A><DIAGC>
~h "Tawng"
<BEGINHMM>
<NUMSTATES> 14
<STATE> 2
<MEAN> 39
 -7.161478e+00 -8.916216e+00 -1.894861e+00 -1.204881e+00 8.626199e-01 -2.055561e+00 1.180786e+00 -1.226467e+00 1.037559e+00 -2.100779e+00 3.722189e+00 -2.552783e-02 -1.050394e-01 -9.316003e-01 3.270016e-01 -1.036354e+00 -6.632764e-01 3.542253e-01 6.598984e-01 6.657264e-01 6.167767e-01 4.834255e-01 -7.566096e-01 -5.256455e-01 -1.157858e-01 5.060561e-02 -1.539673e-01 -2.163147e-01 -6.344153e-01 -2.999219e-01 3.579437e-02 -2.988183e-01 3.816481e-01 1.328950e-01 9.478093e-02 -5.038157e-01 -4.519691e-01 -1.832769e-01 4.551588e-02
<VARIANCE> 39
 3.352350e+00 3.070141e+00 4.906914e+00 9.468284e+00 6.570259e+00 9.314600e+00 6.818399e+00 6.076879e+00 1.550270e+01 6.651317e+00 5.978281e+00 8.587569e+00 5.000000e-02 2.591649e+00 2.014921e+00 3.181989e+00 1.609139e+00 2.060260e+00 2.321532e+00 1.126239e+00 9.620979e-01 2.456070e+00 1.683164e+00 1.119012e+00 2.052281e+00 5.000000e-02 3.333955e-01 6.256441e-01 8.650988e-01 2.248142e-01 4.153342e-01 4.835674e-01 2.512088e-01 1.769547e-01 5.864671e-01 1.029030e-01 2.213628e-01 1.948460e-01 5.000000e-02
<GCONST> 7.858006e+01
<STATE> 3
<MEAN> 39
 -1.109968e+01 -1.516376e+01 -1.554211e+01 -6.918470e+00 1.814172e+00 -5.381927e+00 6.964890e+00 1.827243e+00 1.623496e+00 -9.733437e+00 -2.827580e+00 -1.503592e+00 6.653689e-01 9.963097e-02 -3.991672e+00 -3.379014e+00 8.916590e-02 6.172895e-01 -4.920639e-01 7.532710e-01 -7.061329e-02 -6.756151e-01 -1.355073e+00 -1.274683e+00 -1.212857e-01 1.771476e-01 3.195618e-01 -1.669027e-01 8.379004e-01 6.048258e-01 4.585952e-01 4.549563e-01 -5.434780e-01 -4.228061e-01 -5.878032e-02 5.659349e-01 4.826154e-01 -5.714236e-02 -3.115482e-02
<VARIANCE> 39
 2.840733e+01 1.115285e+02 6.633199e+01 1.718874e+01 3.753722e+01 5.725251e+01 3.202612e+01 8.680060e+00 1.325266e+01 1.814307e+01 2.648678e+01 1.313187e+01 9.310120e-02 1.947370e+00 4.584222e+00 7.959154e+00 3.312591e+00 3.569380e+00 5.697300e+00 2.670392e+00 1.663548e+00 1.273654e+00 2.893227e+00 2.823042e+00 1.021951e+00 5.000000e-02 5.745819e-01 2.453688e+00 1.797419e+00 3.004360e-01 6.748036e-01 9.617012e-01 3.710926e-01 2.115003e-01 4.126128e-01 4.056793e-01 4.464997e-01 3.012496e-01 5.000000e-02
<GCONST> 1.083311e+02
<STATE> 4
<MEAN> 39
 -8.754954e+00 -2.624926e+01 -1.803248e+01 -2.330512e+00 7.451492e+00 -3.124916e+00 4.730953e+00 -2.479581e+00 1.364916e+00 -9.893980e+00 -2.380711e+00 -3.720896e+00 9.754899e-01 1.692103e-01 -5.773302e-01 5.348191e-01 5.389289e-01 4.365891e-01 3.706864e-01 -4.817826e-01 -2.869679e-01 8.058664e-01 7.700881e-02 6.129674e-01 -3.695913e-01 1.123536e-02 -4.533176e-02 3.731346e-01 4.445524e-02 -2.223435e-01 -4.393427e-01 -3.190437e-02 3.505233e-02 2.562172e-01 1.491201e-01 -2.939886e-01 -8.324951e-02 5.189972e-02 -1.120456e-02
<VARIANCE> 39
 6.759108e+00 1.153684e+01 2.043654e+01 1.852317e+01 2.947426e+01 2.055929e+01 9.364944e+00 1.706275e+01 1.345318e+01 1.152400e+01 1.113246e+01 9.602594e+00 5.000000e-02 1.545586e-01 4.085752e-01 5.991973e-01 5.416077e-01 2.092201e+00 8.700952e-01 9.590961e-01 1.532764e+00 6.901920e-01 8.335347e-01 7.003823e-01 7.532523e-01 5.000000e-02 5.000000e-02 2.097841e-01 2.224764e-01 8.378790e-02 1.990358e-01 2.118585e-01 1.237406e-01 2.918078e-01 1.673920e-01 3.129092e-01 1.449831e-01 1.339994e-01 5.000000e-02
<GCONST> 6.816595e+01
<STATE> 5
<MEAN> 39
 -9.159923e+00 -2.782918e+01 -1.466891e+01 -4.158885e+00 7.652039e+00 -2.434040e-01 2.236725e+00 -9.597732e-01 4.673234e+00 -1.619903e+01 -1.360819e+00 -5.344220e+00 9.500724e-01 8.374604e-02 2.789406e-01 5.540208e-01 -9.168772e-01 3.970788e-01 2.020273e-01 -7.792467e-01 -1.160750e-01 5.093334e-02 -2.127885e+00 -2.516584e-01 -4.865376e-01 -2.104354e-02 1.101474e-01 1.619639e-01 1.290078e-01 -1.521610e-01 9.992726e-02 -2.742204e-01 -2.013943e-01 -8.704890e-02 -1.209237e-01 -4.682467e-02 -2.603692e-03 7.178907e-02 -6.734319e-03
<VARIANCE> 39
 6.553357e+00 3.363549e+00 1.992506e+01 1.479052e+01 2.800250e+01 3.242669e+01 1.261608e+01 8.630691e+00 2.750315e+01 3.124191e+01 1.142579e+01 2.383495e+01 5.000000e-02 3.302995e-01 5.080128e-01 2.574053e-01 4.855368e-01 5.551652e-01 4.946266e-01 7.597225e-01 9.975837e-01 1.120320e+00 1.545489e+00 1.298110e+00 1.017962e+00 5.000000e-02 6.523418e-02 8.613189e-02 5.894827e-02 1.056587e-01 1.272889e-01 6.298801e-02 1.731251e-01 1.202900e-01 2.341203e-01 5.160264e-01 1.882410e-01 1.764700e-01 5.000000e-02
<GCONST> 6.625087e+01
<STATE> 6
<MEAN> 39
 -5.911295e+00 -2.374958e+01 -1.287634e+01 -7.315879e+00 7.560529e+00 -2.736711e+00 -4.166218e+00 -3.950430e+00 4.496805e+00 -2.420251e+01 -7.974578e-01 -6.470503e+00 7.819367e-01 1.542898e+00 -4.244487e-02 2.076821e+00 -8.346088e-01 -8.871288e-01 -5.318214e-01 -2.220562e+00 -2.423913e-01 -1.075377e+00 1.289115e+00 -2.921513e-01 2.071162e-01 -4.842797e-02 4.362472e-01 -3.885427e-01 3.756721e-01 6.686445e-02 -3.254814e-01 2.372650e-01 2.334364e-01 1.033191e-01 -6.003241e-01 1.264704e+00 -2.308068e-01 6.946222e-02 6.442198e-05
<VARIANCE> 39
 1.109641e+01 1.057752e+01 1.960385e+01 1.859817e+01 2.157448e+01 3.657262e+01 3.242045e+01 1.619506e+01 1.663093e+01 2.374520e+01 7.744219e+00 1.500665e+01 5.000000e-02 7.022927e-01 1.138199e+00 1.127812e+00 4.826986e-01 2.250258e+00 8.953335e-01 1.247247e+00 1.261658e+00 4.146749e+00 7.903927e+00 1.110444e+00 9.475535e-01 5.000000e-02 8.521298e-02 1.818056e-01 1.475299e-01 1.492359e-01 8.508631e-02 1.760388e-01 5.176465e-01 2.276087e-01 4.889689e-01 5.946354e-01 1.788656e-01 3.318380e-01 5.000000e-02
<GCONST> 8.250232e+01
<STATE> 7
<MEAN> 39
 6.413783e-02 -2.686232e+01 -2.359841e+00 -9.672389e+00 4.842955e+00 -1.624080e+00 -7.839440e+00 1.179909e-01 -1.490677e+00 -1.317372e+01 -4.448007e+00 -4.174136e+00 6.374196e-01 1.692694e+00 -5.966069e-02 8.866329e-01 -1.668062e-01 -1.846714e+00 2.606969e-01 2.924071e-01 -1.892138e-01 -1.004952e+00 2.160849e+00 -1.964538e-01 -1.902710e-01 -3.100504e-02 -3.601504e-01 1.838566e-01 -8.019696e-01 2.156259e-01 -3.701170e-01 2.275321e-02 3.815530e-01 -5.095630e-01 5.795515e-01 -7.055689e-01 1.386045e-01 -1.635488e-01 6.911085e-03
<VARIANCE> 39
 8.397642e+00 3.859403e+00 1.292362e+01 8.336942e+00 2.973658e+01 1.678302e+01 1.269155e+01 2.406923e+01 7.034368e+00 2.150054e+01 7.647462e+00 1.541471e+01 5.000000e-02 6.930531e-01 8.438647e-01 1.880019e+00 1.562383e+00 1.657818e+00 1.297489e+00 1.728906e+00 2.128733e+00 1.502004e+00 2.470020e+00 6.246842e-01 3.400332e+00 5.000000e-02 8.777423e-02 1.207586e-01 1.069124e-01 7.856583e-02 4.250972e-01 1.049703e-01 5.909196e-01 2.681848e-01 1.032563e-01 4.172481e-01 2.178227e-01 5.458565e-01 5.000000e-02
<GCONST> 7.769355e+01
<STATE> 8
<MEAN> 39
 4.352624e+00 -2.497983e+01 -6.338313e+00 -8.591237e+00 -4.192060e+00 -3.812826e+00 -5.049776e+00 -6.324522e+00 -3.039688e+00 -1.116584e+01 -4.652378e+00 -6.915065e+00 5.666606e-01 4.769169e-01 4.928667e-01 -6.900170e-01 8.880153e-01 -7.762021e-01 -5.286146e-01 6.009532e-01 -2.773207e-01 2.651089e-01 -1.840261e-01 -5.334274e-01 1.165500e-01 -1.538059e-02 -1.555012e-01 1.045069e-01 2.679798e-02 1.689741e-01 5.052400e-01 -8.351539e-03 5.348399e-02 3.631291e-01 5.252763e-02 -1.768831e-01 2.712077e-02 1.117070e-01 -1.552066e-04
<VARIANCE> 39
 4.083129e+00 2.812652e+00 1.560401e+01 3.538627e+01 7.215231e+00 1.159273e+01 1.442886e+01 9.508759e+00 1.496317e+01 1.642247e+01 1.812560e+01 1.330031e+01 5.000000e-02 2.071200e-01 2.679018e-01 1.274977e+00 1.551602e+00 1.307094e+00 1.003298e+00 1.245049e+00 2.106305e+00 1.477341e+00 1.136912e+00 1.496390e+00 1.223974e+00 5.000000e-02 7.110330e-02 5.505436e-02 2.114093e-01 2.639374e-01 1.253621e-01 2.608573e-01 3.012520e-01 2.714178e-01 3.528614e-01 3.549235e-01 3.058594e-01 3.517049e-01 5.000000e-02
<GCONST> 7.327135e+01
<STATE> 9
<MEAN> 39
 4.363873e+00 -2.180525e+01 -7.881103e+00 -2.141008e+00 -3.308574e-01 -4.217939e+00 -4.327910e+00 -3.261084e+00 -2.491163e+00 -1.489380e+01 -6.447986e+00 -4.922939e+00 4.421458e-01 -5.056111e-01 4.920450e-01 6.004970e-02 1.074924e+00 1.193172e+00 1.866133e-01 3.534708e-01 1.851927e-01 -8.429085e-01 -6.063781e-01 2.072104e-01 8.697961e-02 -2.932787e-02 -8.054873e-02 -1.669205e-02 1.952699e-02 -8.179213e-02 -1.811935e-01 -2.922343e-02 1.648644e-01 -1.960439e-01 -3.657195e-04 1.756180e-01 1.863035e-01 6.051615e-03 -2.553388e-03
<VARIANCE> 39
 1.039212e+01 1.264587e+01 1.268406e+01 9.999722e+00 1.406719e+01 1.451659e+01 1.606633e+01 9.557642e+00 1.478649e+01 3.468942e+01 1.135228e+01 1.575742e+01 5.000000e-02 1.883892e-01 7.270781e-01 5.769313e-01 9.776535e-01 9.084142e-01 2.782984e-01 1.398839e+00 1.122889e+00 1.636272e+00 1.208107e+00 1.290908e+00 1.882014e+00 5.000000e-02 6.629695e-02 1.713746e-01 1.969055e-01 1.727366e-01 2.083802e-01 9.296843e-02 2.319129e-01 2.511000e-01 5.587842e-01 2.404050e-01 2.602875e-01 4.154238e-01 5.000000e-02
<GCONST> 7.339880e+01
<STATE> 10
<MEAN> 39
 2.256852e+00 -1.985192e+01 -8.242969e+00 3.678045e-01 6.735855e-01 -4.717066e+00 9.321806e-01 -2.940403e+00 -2.450815e+00 -1.166886e+01 -3.185752e+00 -2.126008e+00 3.322937e-01 -2.519015e-01 3.726443e-01 -3.264703e-01 3.817783e-01 4.583635e-01 -8.693668e-02 8.033355e-01 7.865795e-01 1.160395e+00 1.102151e+00 5.752649e-01 4.698223e-01 -2.040511e-02 -1.147491e-01 -2.051405e-01 -4.074212e-02 -2.626889e-02 -2.213391e-02 -2.706822e-02 -2.401891e-01 1.686072e-01 2.643797e-01 1.471781e-01 -7.767344e-02 -6.420564e-02 1.889188e-04
<VARIANCE> 39
 4.448598e+00 3.493091e+00 4.612108e+00 3.799410e+00 1.402792e+01 2.294722e+01 6.303419e+00 1.681769e+01 1.862620e+01 1.351775e+01 1.743370e+01 2.127820e+01 5.000000e-02 1.530455e-01 6.050684e-01 5.727547e-01 9.273794e-01 5.884635e-01 1.559818e+00 7.338127e-01 1.949650e+00 2.783947e+00 1.971745e+00 2.303773e+00 2.581083e+00 5.000000e-02 5.480764e-02 1.280463e-01 1.561425e-01 2.374568e-01 1.354035e-01 2.143641e-01 1.179926e-01 3.718826e-01 5.005893e-01 3.213122e-01 4.659073e-01 5.449263e-01 5.000000e-02
<GCONST> 7.280714e+01
<STATE> 11
<MEAN> 39
 -1.678405e-01 -2.137481e+01 -1.086354e+01 2.020149e+00 2.099459e+00 -4.771218e+00 1.555446e+00 -3.849377e-01 1.188205e+00 -7.240941e+00 -2.510866e+00 -2.414636e+00 2.335488e-01 -1.035644e+00 -3.402869e-01 -1.478864e-01 5.378602e-02 2.017232e-01 2.366120e-01 -3.929355e-01 -1.300617e-01 2.701936e-01 6.833093e-01 9.091083e-01 6.873308e-01 -2.622613e-02 1.590752e-01 2.622465e-01 1.796674e-01 -1.974493e-01 -6.641290e-02 -4.447898e-02 -1.793810e-01 -2.936463e-01 -4.165138e-01 -3.236229e-01 1.334744e-02 4.510650e-02 2.671998e-03
<VARIANCE> 39
 1.009480e+01 4.232089e+00 6.675539e+00 5.707788e+00 8.686967e+00 2.252073e+01 5.170604e+00 1.437106e+01 2.168944e+01 1.053874e+01 1.785292e+01 9.550859e+00 5.000000e-02 4.060923e-01 8.355603e-01 9.029877e-01 6.997204e-01 1.007896e+00 9.112766e-01 5.083770e-01 1.650062e+00 1.157688e+00 1.088058e+00 1.342614e+00 7.750190e-01 5.000000e-02 1.412818e-01 1.742870e-01 1.436873e-01 8.502935e-02 1.025253e-01 2.958702e-01 1.570996e-01 6.029282e-01 6.088830e-01 2.312004e-01 3.512808e-01 2.760530e-01 5.000000e-02
<GCONST> 7.045483e+01
<STATE> 12
<MEAN> 39
 -1.423313e+00 -1.783354e+01 -7.300695e+00 1.338804e+00 2.714492e+00 -4.443921e+00 -5.257788e-01 -2.180291e+00 7.598321e-01 -8.068064e+00 -7.157237e-01 4.679263e-01 1.567087e-01 -2.609804e-01 1.235075e+00 9.221837e-01 -3.232239e-01 -6.526041e-03 -1.919856e-01 -1.510141e-01 -2.509974e-01 -9.745981e-02 1.504122e-01 -1.458919e-01 3.052699e-03 -2.425098e-02 -1.809874e-01 1.561932e-01 1.252900e-01 -3.083367e-02 1.023143e-01 1.165830e-01 1.420748e-01 3.681861e-03 1.361647e-01 2.309190e-01 -4.075559e-02 -1.662286e-01 -7.189495e-03
<VARIANCE> 39
 6.009700e+00 9.600476e+00 1.686176e+01 1.173907e+01 6.492060e+00 1.030657e+01 4.754727e+00 6.801553e+00 1.487114e+01 5.578358e+00 7.832177e+00 9.183441e+00 5.000000e-02 1.450834e+00 1.400192e+00 1.464777e+00 1.062614e+00 9.366769e-01 1.576505e+00 5.001221e-01 1.293958e+00 2.067926e+00 1.330800e+00 5.923886e-01 1.226377e+00 5.000000e-02 2.564511e-01 2.193379e-01 2.385736e-01 2.817852e-01 2.250405e-01 2.629423e-01 8.242904e-02 1.738429e-01 2.602538e-01 1.296230e-01 1.971384e-01 1.807827e-01 5.000000e-02
<GCONST> 7.083146e+01
<STATE> 13
<MEAN> 39
 -5.524481e+00 -1.206500e+01 -3.453097e+00 -4.976079e-01 3.856951e+00 -3.759035e+00 6.551263e-01 -2.861732e+00 1.192200e+00 -4.584281e+00 6.751934e-02 -1.505570e+00 -5.398367e-02 -8.942192e-01 4.782319e-01 3.994873e-01 -3.105625e-01 -2.611020e-01 1.820758e-01 3.608990e-01 1.032304e-01 -6.700841e-03 2.096969e-01 2.108777e-01 -1.601561e-01 -4.296445e-02 2.203852e-01 -4.195074e-01 -3.528230e-01 8.419566e-02 -2.902467e-01 -1.708928e-01 -5.018674e-02 2.153596e-01 1.125265e-02 -2.724729e-01 -8.974546e-03 3.240097e-01 1.117163e-02
<VARIANCE> 39
 3.122108e+00 2.619984e+00 7.770656e+00 4.972195e+00 5.445458e+00 1.300853e+01 6.588309e+00 7.244653e+00 1.316397e+01 1.438149e+01 6.153618e+00 5.324880e+00 5.000000e-02 2.691539e-01 6.706073e-01 9.492010e-01 9.867995e-01 8.075564e-01 1.270453e+00 3.988768e-01 3.229365e-01 1.759956e+00 9.119570e-01 5.281006e-01 1.258326e+00 5.000000e-02 7.922489e-02 9.082411e-02 1.640153e-01 1.673788e-01 1.095477e-01 3.148927e-01 6.290849e-02 5.409667e-02 3.123646e-01 1.956460e-01 1.322291e-01 3.049940e-01 5.000000e-02
<GCONST> 5.798262e+01
<TRANSP> 14
 0.000000e+00 1.000000e+00 0.000000e+00 0.000000e+00 0.000000e+00 0.000000e+00 0.000000e+00 0.000000e+00 0.000000e+00 0.000000e+00 0.000000e+00 0.000000e+00 0.000000e+00 0.000000e+00
 0.000000e+00 7.727262e-01 2.272737e-01 0.000000e+00 0.000000e+00 0.000000e+00 0.000000e+00 0.000000e+00 0.000000e+00 0.000000e+00 0.000000e+00 0.000000e+00 0.000000e+00 0.000000e+00
 0.000000e+00 0.000000e+00 7.726386e-01 2.273614e-01 0.000000e+00 0.000000e+00 0.000000e+00 0.000000e+00 0.000000e+00 0.000000e+00 0.000000e+00 0.000000e+00 0.000000e+00 0.000000e+00
 0.000000e+00 0.000000e+00 0.000000e+00 8.090535e-01 1.909465e-01 0.000000e+00 0.000000e+00 0.000000e+00 0.000000e+00 0.000000e+00 0.000000e+00 0.000000e+00 0.000000e+00 0.000000e+00
 0.000000e+00 0.000000e+00 0.000000e+00 0.000000e+00 8.197077e-01 1.802923e-01 0.000000e+00 0.000000e+00 0.000000e+00 0.000000e+00 0.000000e+00 0.000000e+00 0.000000e+00 0.000000e+00
 0.000000e+00 0.000000e+00 0.000000e+00 0.000000e+00 0.000000e+00 7.074414e-01 2.925586e-01 0.000000e+00 0.000000e+00 0.000000e+00 0.000000e+00 0.000000e+00 0.000000e+00 0.000000e+00
 0.000000e+00 0.000000e+00 0.000000e+00 0.000000e+00 0.000000e+00 0.000000e+00 6.887232e-01 3.112768e-01 0.000000e+00 0.000000e+00 0.000000e+00 0.000000e+00 0.000000e+00 0.000000e+00
 0.000000e+00 0.000000e+00 0.000000e+00 0.000000e+00 0.000000e+00 0.000000e+00 0.000000e+00 8.385046e-01 1.614954e-01 0.000000e+00 0.000000e+00 0.000000e+00 0.000000e+00 0.000000e+00
 0.000000e+00 0.000000e+00 0.000000e+00 0.000000e+00 0.000000e+00 0.000000e+00 0.000000e+00 0.000000e+00 7.626245e-01 2.373755e-01 0.000000e+00 0.000000e+00 0.000000e+00 0.000000e+00
 0.000000e+00 0.000000e+00 0.000000e+00 0.000000e+00 0.000000e+00 0.000000e+00 0.000000e+00 0.000000e+00 0.000000e+00 7.903034e-01 2.096966e-01 0.000000e+00 0.000000e+00 0.000000e+00
 0.000000e+00 0.000000e+00 0.000000e+00 0.000000e+00 0.000000e+00 0.000000e+00 0.000000e+00 0.000000e+00 0.000000e+00 0.000000e+00 7.518385e-01 2.481616e-01 0.000000e+00 0.000000e+00
 0.000000e+00 0.000000e+00 0.000000e+00 0.000000e+00 0.000000e+00 0.000000e+00 0.000000e+00 0.000000e+00 0.000000e+00 0.000000e+00 0.000000e+00 8.142145e-01 1.857855e-01 0.000000e+00
 0.000000e+00 0.000000e+00 0.000000e+00 0.000000e+00 0.000000e+00 0.000000e+00 0.000000e+00 0.000000e+00 0.000000e+00 0.000000e+00 0.000000e+00 0.000000e+00 7.369488e-01 2.630512e-01
 0.000000e+00 0.000000e+00 0.000000e+00 0.000000e+00 0.000000e+00 0.000000e+00 0.000000e+00 0.000000e+00 0.000000e+00 0.000000e+00 0.000000e+00 0.000000e+00 0.000000e+00 0.000000e+00
<ENDHMM>
