~o
<STREAMINFO> 1 39
<VECSIZE> 39<NULLD><MFCC_E_D_A><DIAGC>
~h "To"
<BEGINHMM>
<NUMSTATES> 11
<STATE> 2
<MEAN> 39
 -7.635494e+00 -8.018516e+00 -6.320415e+00 -3.912141e+00 2.002317e+00 -6.192140e+00 2.439080e+00 -1.792950e+00 3.048882e+00 -4.035102e+00 3.056516e-01 -2.138192e+00 8.663477e-02 -2.136435e-01 -8.456935e-01 -2.235085e+00 -9.017614e-01 4.153371e-01 -8.285438e-01 6.643310e-01 3.000667e-01 3.175446e-01 -3.331358e-01 -6.215470e-01 -4.506043e-01 9.641112e-02 9.817573e-02 -4.608360e-01 -3.300543e-01 -3.598847e-02 1.200700e-01 1.209206e-01 1.092908e-01 -7.208754e-02 5.347022e-03 -7.929272e-02 -3.847625e-02 -7.027742e-02 1.826736e-02
<VARIANCE> 39
 1.241047e+01 1.585876e+01 7.102861e+01 2.653182e+01 1.545191e+01 3.541732e+01 2.291185e+01 2.703043e+01 1.947987e+01 1.060056e+01 1.962209e+01 1.500311e+01 9.440555e-02 1.237344e+00 5.402547e+00 8.519802e+00 1.673528e+00 2.420829e+00 3.225210e+00 1.973692e+00 2.049431e+00 1.981599e+00 2.260491e+00 2.029177e+00 1.329118e+00 5.000000e-02 3.258590e-01 7.721949e-01 1.387801e+00 3.609444e-01 4.850241e-01 9.895349e-01 3.361601e-01 7.988123e-01 3.840574e-01 4.071569e-01 4.635433e-01 2.728217e-01 5.000000e-02
<GCONST> 1.023561e+02
<STATE> 3
<MEAN> 39
 -6.883969e+00 -2.244964e+01 -2.249523e+01 -9.271028e+00 7.811872e+00 -6.328638e+00 7.749991e+00 -4.336665e+00 4.488321e+00 -7.685287e+00 -2.666292e+00 -5.637532e+00 9.078947e-01 1.300833e+00 -2.110292e+00 -1.856275e-01 -1.512962e-01 1.919210e+00 2.793317e+00 -6.018735e-02 -2.269017e+00 -5.906739e-01 1.098069e+00 1.590920e+00 -1.176515e+00 5.916603e-02 1.569399e-01 1.057497e+00 1.196410e+00 -1.601606e-01 -2.244782e-01 5.037701e-01 -3.980129e-01 -4.820101e-02 -2.720105e-01 8.729426e-01 4.667391e-01 -3.861499e-02 -4.450433e-02
<VARIANCE> 39
 8.840658e+00 4.624322e+00 1.158322e+01 6.914708e+00 2.817172e+01 3.466014e+01 1.985424e+01 1.379050e+01 1.867605e+01 1.712944e+01 1.301657e+01 1.062132e+01 5.000000e-02 1.209569e+00 3.000013e+00 3.263924e+00 1.728969e+00 1.249504e+00 8.508340e-01 8.862628e-01 3.885437e+00 1.458504e+00 2.082120e+00 1.105237e+00 1.347733e+00 5.000000e-02 2.412743e-01 2.274680e-01 8.786324e-01 2.647860e-01 4.851401e-01 7.215528e-01 1.976479e-01 4.810123e-01 3.570650e-01 1.882578e-01 5.775185e-01 3.570691e-01 5.000000e-02
<GCONST> 8.776143e+01
<STATE> 4
<MEAN> 39
 -4.485417e+00 -2.265048e+01 -1.958458e+01 -1.664345e+01 1.217427e+01 2.495057e+00 7.476958e+00 -1.183783e+01 1.943905e+00 -1.466416e+00 7.397905e-01 -1.020847e+01 9.467226e-01 2.592733e-01 -3.058477e-03 2.756546e-01 -9.958944e-01 1.899230e-01 6.642726e-01 -7.072704e-02 -2.673083e-01 -3.737324e-01 6.685899e-01 1.622418e-01 -5.344943e-02 -3.397406e-04 -8.393627e-02 8.321146e-02 -4.656738e-02 1.132805e-01 -1.097775e-01 -1.875216e-01 -3.953466e-03 1.726200e-01 7.520455e-02 -2.968072e-01 -1.536489e-01 1.623879e-01 -2.358843e-03
<VARIANCE> 39
 9.903754e+00 8.952443e+00 3.134352e+01 3.771360e+01 1.556232e+01 1.546778e+01 1.840347e+01 2.215616e+01 1.642154e+01 1.805214e+01 8.967253e+00 6.772515e+00 5.000000e-02 5.900359e-01 4.703358e-01 6.176099e-01 1.068882e+00 4.452533e-01 1.128762e+00 1.365127e+00 1.352703e+00 8.514494e-01 1.927051e+00 8.497822e-01 1.157915e+00 5.000000e-02 1.112214e-01 1.011744e-01 1.187689e-01 2.934433e-01 6.535741e-02 2.027749e-01 2.146749e-01 1.641019e-01 1.456719e-01 3.175738e-01 1.685394e-01 2.159221e-01 5.000000e-02
<GCONST> 7.234957e+01
<STATE> 5
<MEAN> 39
 -4.760492e-01 -2.186287e+01 -2.081670e+01 -1.768245e+01 1.252324e+01 5.705016e+00 4.526293e+00 -8.872938e+00 -1.438456e+00 -1.904344e-01 2.801331e+00 -8.060724e+00 9.499675e-01 3.094079e-01 2.702496e-01 -2.353780e-01 7.527539e-02 1.755786e-02 1.049331e-01 -2.328650e-01 -6.671701e-02 1.500996e-02 -3.132265e-01 6.404390e-02 -7.155412e-03 -7.914371e-03 -7.654661e-03 1.990556e-02 -1.358838e-02 6.592849e-02 -3.609972e-02 -8.191825e-02 4.280486e-02 -3.254500e-02 5.273362e-02 -1.833511e-02 -3.243953e-02 -1.534447e-02 -2.246846e-03
<VARIANCE> 39
 4.212993e+00 1.673322e+01 2.387826e+01 1.297071e+01 3.978264e+01 3.178423e+01 3.277329e+01 3.377264e+01 7.996222e+00 1.195808e+01 2.147554e+01 1.104262e+01 5.000000e-02 1.168705e-01 1.806922e-01 1.789737e-01 7.418103e-01 4.924691e-01 7.588812e-01 4.583147e-01 5.479944e-01 5.588204e-01 6.506313e-01 6.528533e-01 4.916198e-01 5.000000e-02 5.000000e-02 5.000000e-02 5.000000e-02 1.617329e-01 1.019507e-01 1.359527e-01 1.131098e-01 1.092447e-01 9.739909e-02 1.345489e-01 1.196590e-01 6.330468e-02 5.000000e-02
<GCONST> 5.777207e+01
<STATE> 6
<MEAN> 39
 2.671201e+00 -1.917321e+01 -2.288961e+01 -1.499424e+01 9.144693e+00 4.081946e+00 5.544711e+00 -1.321775e+01 1.557092e+00 -3.512759e+00 -1.196313e+00 -8.364984e+00 7.784607e-01 4.637417e-01 -2.481587e-01 4.418172e-01 6.938859e-01 -7.086003e-01 2.894166e-01 -3.500588e-01 4.958376e-01 3.581483e-01 -2.198036e-01 -6.219685e-01 3.890247e-01 -3.339557e-02 -4.395224e-02 -6.364180e-02 8.031191e-02 1.534745e-02 1.744512e-01 -1.357100e-01 -1.623695e-01 3.428189e-01 -1.716822e-01 7.715834e-02 1.620747e-01 -2.711908e-02 -2.754031e-03
<VARIANCE> 39
 4.703373e+00 7.619041e+00 1.750824e+01 1.251703e+01 3.970770e+01 2.669667e+01 2.242160e+01 1.986910e+01 2.040199e+01 1.099365e+01 2.517994e+01 1.118513e+01 5.000000e-02 4.196148e-01 5.241545e-01 1.748171e+00 2.063773e+00 2.434777e+00 3.501801e+00 2.106522e+00 2.772350e+00 1.243007e+00 1.716724e+00 3.137389e+00 7.415069e-01 5.000000e-02 7.852369e-02 8.521354e-02 2.973199e-01 3.672941e-01 5.414652e-01 6.455377e-01 2.522695e-01 3.134699e-01 1.722413e-01 1.781820e-01 6.388694e-01 2.266430e-01 5.000000e-02
<GCONST> 8.483023e+01
<STATE> 7
<MEAN> 39
 5.031210e+00 -1.959792e+01 -1.942899e+01 -1.017768e+01 9.514093e+00 3.594146e+00 6.525022e-01 -6.718264e+00 -1.074798e+00 -4.382879e+00 -9.602686e-01 -5.804826e+00 5.550315e-01 2.402101e-01 5.863032e-01 1.997625e-01 1.014443e+00 9.157471e-02 -3.958066e-01 -1.392626e-02 8.541543e-03 -5.737948e-01 -2.208439e-01 2.083027e-01 5.977964e-01 -3.315059e-02 -7.679881e-02 9.036623e-03 -4.095046e-02 -1.673815e-01 -1.752292e-01 1.120217e-01 1.486580e-01 -1.867193e-01 6.847722e-02 1.843275e-01 2.199522e-02 3.108324e-02 2.770516e-03
<VARIANCE> 39
 6.204276e+00 7.965645e+00 2.021169e+01 2.127466e+01 1.383613e+01 1.020929e+01 1.489819e+01 1.317468e+01 1.840630e+01 1.924823e+01 1.862729e+01 1.405283e+01 5.000000e-02 5.115203e-01 4.752697e-01 1.573242e+00 2.827130e+00 1.535892e+00 1.354362e+00 1.778186e+00 2.126098e+00 1.016448e+00 2.037024e+00 2.499776e+00 1.628685e+00 5.000000e-02 1.451693e-01 1.779607e-01 3.560564e-01 5.387081e-01 2.769024e-01 1.654476e-01 2.922557e-01 4.921073e-01 3.393357e-01 4.978124e-01 5.447901e-01 3.575854e-01 5.000000e-02
<GCONST> 8.485037e+01
<STATE> 8
<MEAN> 39
 3.010907e+00 -1.890460e+01 -1.872081e+01 -8.148518e+00 6.277481e+00 3.028543e+00 1.671684e+00 -6.310936e+00 -3.378849e-01 -1.986111e+00 3.856827e-01 -3.357251e+00 3.636844e-01 -4.187605e-01 2.884228e-02 1.953328e-01 8.741513e-02 -1.125279e-01 -1.776222e-01 -1.684653e-01 1.490950e-01 4.829231e-02 2.011416e-01 8.145878e-02 -2.302144e-01 -2.098458e-02 4.268552e-02 8.549512e-02 1.509574e-01 1.277048e-01 7.747848e-02 -2.020745e-02 -6.601981e-02 -1.196204e-02 -5.163221e-02 -1.158816e-01 -2.656967e-02 -1.910533e-02 6.193073e-04
<VARIANCE> 39
 3.884817e+00 3.558713e+00 1.491400e+01 6.992013e+00 1.106021e+01 1.185151e+01 1.011224e+01 1.282536e+01 2.028757e+01 1.326386e+01 8.862677e+00 1.150018e+01 5.000000e-02 2.117694e-01 5.937886e-01 1.805557e+00 9.226419e-01 9.261125e-01 1.082987e+00 1.035746e+00 1.419780e+00 2.194446e+00 1.424096e+00 1.033831e+00 8.886612e-01 5.000000e-02 5.000000e-02 9.614320e-02 4.759535e-01 2.505331e-01 2.009477e-01 1.815197e-01 1.759684e-01 2.806263e-01 4.474663e-01 1.852126e-01 2.072908e-01 2.345716e-01 5.000000e-02
<GCONST> 7.050637e+01
<STATE> 9
<MEAN> 39
 2.009640e+00 -1.575439e+01 -1.351771e+01 -4.365925e+00 7.908803e+00 1.764439e+00 1.950621e-01 -5.938689e+00 -1.884817e+00 -2.364009e+00 1.712696e+00 -4.659503e+00 2.531869e-01 -1.081203e-01 6.555542e-01 9.157224e-01 4.338387e-01 -9.718903e-03 -1.602545e-01 -8.239105e-02 -2.421959e-01 -1.246116e-01 -3.525219e-02 2.308249e-01 2.621256e-01 -1.515312e-02 -1.339389e-01 -3.028895e-02 -8.841964e-02 -1.835920e-01 -1.031586e-01 6.789050e-02 7.165673e-02 -8.778239e-02 1.381618e-01 -1.148968e-01 -1.194465e-01 1.193150e-01 -3.318648e-03
<VARIANCE> 39
 1.587199e+00 2.865575e+00 5.225621e+00 6.394190e+00 8.655801e+00 5.846881e+00 9.516598e+00 8.862231e+00 9.538330e+00 1.483485e+01 1.778567e+01 1.266421e+01 5.000000e-02 4.539573e-01 5.622817e-01 1.398597e+00 1.100957e+00 1.322885e+00 6.867531e-01 4.860074e-01 7.366853e-01 9.023778e-01 1.436651e+00 1.390996e+00 9.543292e-01 5.000000e-02 5.908424e-02 1.089196e-01 2.395042e-01 1.709544e-01 2.456115e-01 1.352771e-01 8.669688e-02 1.647865e-01 2.104844e-01 3.637332e-01 2.924909e-01 2.003218e-01 5.000000e-02
<GCONST> 6.362689e+01
<STATE> 10
<MEAN> 39
 -2.648355e+00 -1.264552e+01 -8.514178e+00 -5.002397e+00 6.326469e+00 2.267050e+00 1.307066e-01 -6.904484e+00 1.054643e-02 -3.242905e+00 9.357816e-01 -1.213795e+00 6.147665e-02 -8.695350e-01 4.990988e-01 8.990839e-01 1.885806e-01 -1.973692e-01 1.267745e-02 2.809182e-01 3.221589e-01 2.931972e-01 2.763093e-01 1.454673e-01 3.756756e-01 -3.658313e-02 8.160764e-02 -1.831018e-02 -1.256675e-02 5.117378e-02 -4.323137e-02 -9.165271e-02 -6.414529e-03 5.228432e-02 4.296250e-02 1.929953e-01 1.454809e-01 -6.191866e-02 3.887782e-03
<VARIANCE> 39
 8.392455e+00 7.255737e+00 2.292948e+01 8.719399e+00 8.844852e+00 1.517633e+01 1.507394e+01 1.595614e+01 1.224089e+01 1.317822e+01 1.341308e+01 1.652838e+01 5.000000e-02 4.364837e-01 9.240770e-01 1.806621e+00 1.070703e+00 7.681570e-01 1.828778e+00 1.244154e+00 8.141187e-01 7.609206e-01 1.275445e+00 8.734233e-01 1.067149e+00 5.000000e-02 1.295930e-01 1.908239e-01 4.584576e-01 2.281850e-01 1.578142e-01 3.732374e-01 2.237056e-01 1.499129e-01 1.817385e-01 2.693720e-01 1.675658e-01 2.340834e-01 5.000000e-02
<GCONST> 7.452881e+01
<TRANSP> 11
 0.000000e+00 1.000000e+00 0.000000e+00 0.000000e+00 0.000000e+00 0.000000e+00 0.000000e+00 0.000000e+00 0.000000e+00 0.000000e+00 0.000000e+00
 0.000000e+00 8.863615e-01 1.136385e-01 0.000000e+00 0.000000e+00 0.000000e+00 0.000000e+00 0.000000e+00 0.000000e+00 0.000000e+00 0.000000e+00
 0.000000e+00 0.000000e+00 6.873136e-01 3.126864e-01 0.000000e+00 0.000000e+00 0.000000e+00 0.000000e+00 0.000000e+00 0.000000e+00 0.000000e+00
 0.000000e+00 0.000000e+00 0.000000e+00 8.774506e-01 1.225494e-01 0.000000e+00 0.000000e+00 0.000000e+00 0.000000e+00 0.000000e+00 0.000000e+00
 0.000000e+00 0.000000e+00 0.000000e+00 0.000000e+00 9.128645e-01 8.713554e-02 0.000000e+00 0.000000e+00 0.000000e+00 0.000000e+00 0.000000e+00
 0.000000e+00 0.000000e+00 0.000000e+00 0.000000e+00 0.000000e+00 8.210418e-01 1.789582e-01 0.000000e+00 0.000000e+00 0.000000e+00 0.000000e+00
 0.000000e+00 0.000000e+00 0.000000e+00 0.000000e+00 0.000000e+00 0.000000e+00 8.333439e-01 1.666562e-01 0.000000e+00 0.000000e+00 0.000000e+00
 0.000000e+00 0.000000e+00 0.000000e+00 0.000000e+00 0.000000e+00 0.000000e+00 0.000000e+00 8.860160e-01 1.139841e-01 0.000000e+00 0.000000e+00
 0.000000e+00 0.000000e+00 0.000000e+00 0.000000e+00 0.000000e+00 0.000000e+00 0.000000e+00 0.000000e+00 8.186792e-01 1.813208e-01 0.000000e+00
 0.000000e+00 0.000000e+00 0.000000e+00 0.000000e+00 0.000000e+00 0.000000e+00 0.000000e+00 0.000000e+00 0.000000e+00 8.589392e-01 1.410608e-01
 0.000000e+00 0.000000e+00 0.000000e+00 0.000000e+00 0.000000e+00 0.000000e+00 0.000000e+00 0.000000e+00 0.000000e+00 0.000000e+00 0.000000e+00
<ENDHMM>
