~o
<STREAMINFO> 1 39
<VECSIZE> 39<NULLD><MFCC_E_D_A><DIAGC>
~h "To"
<BEGINHMM>
<NUMSTATES> 12
<STATE> 2
<MEAN> 39
 -7.635397e+00 -8.018494e+00 -6.320496e+00 -3.912072e+00 2.002397e+00 -6.192295e+00 2.439240e+00 -1.792958e+00 3.048789e+00 -4.035070e+00 3.056783e-01 -2.138214e+00 8.663373e-02 -2.136113e-01 -8.457035e-01 -2.235098e+00 -9.017643e-01 4.153723e-01 -8.285688e-01 6.643523e-01 3.000667e-01 3.175406e-01 -3.331315e-01 -6.215554e-01 -4.505899e-01 9.641136e-02 9.817193e-02 -4.608421e-01 -3.300542e-01 -3.599248e-02 1.200734e-01 1.209201e-01 1.092855e-01 -7.208391e-02 5.342670e-03 -7.928857e-02 -3.847735e-02 -7.028190e-02 1.826737e-02
<VARIANCE> 39
 1.241053e+01 1.585881e+01 7.102933e+01 2.653180e+01 1.545205e+01 3.541808e+01 2.291235e+01 2.703057e+01 1.947976e+01 1.060066e+01 1.962196e+01 1.500252e+01 9.440518e-02 1.237342e+00 5.402584e+00 8.519761e+00 1.673560e+00 2.420884e+00 3.225280e+00 1.973714e+00 2.049458e+00 1.981537e+00 2.260482e+00 2.029168e+00 1.329084e+00 5.000000e-02 3.258518e-01 7.721906e-01 1.387803e+00 3.609517e-01 4.850231e-01 9.895640e-01 3.361601e-01 7.988108e-01 3.840529e-01 4.071567e-01 4.635398e-01 2.728175e-01 5.000000e-02
<GCONST> 1.023561e+02
<STATE> 3
<MEAN> 39
 -7.074781e+00 -2.233109e+01 -2.290405e+01 -8.955809e+00 7.675437e+00 -6.632386e+00 7.902144e+00 -4.532562e+00 4.769544e+00 -8.198359e+00 -2.955810e+00 -5.631256e+00 9.054152e-01 1.237244e+00 -2.131920e+00 -2.995559e-01 1.296277e-02 1.949894e+00 2.855564e+00 -2.586482e-02 -2.408609e+00 -5.806230e-01 9.513307e-01 1.604086e+00 -1.182207e+00 6.219657e-02 1.771262e-01 1.118324e+00 1.317393e+00 -1.779658e-01 -1.564012e-01 5.562261e-01 -3.886881e-01 -4.853215e-02 -3.040543e-01 9.309097e-01 5.783522e-01 -6.439470e-02 -4.659663e-02
<VARIANCE> 39
 8.836161e+00 4.701463e+00 9.652320e+00 5.766052e+00 2.973158e+01 3.546284e+01 2.079350e+01 1.408191e+01 1.862982e+01 1.401112e+01 1.252349e+01 1.132259e+01 5.000000e-02 1.224349e+00 3.190646e+00 3.269992e+00 1.407508e+00 1.316826e+00 8.445950e-01 9.257506e-01 3.827479e+00 1.553187e+00 1.872032e+00 1.175400e+00 1.436158e+00 5.000000e-02 2.506182e-01 1.828022e-01 7.003849e-01 2.771091e-01 4.423465e-01 7.248441e-01 2.092882e-01 5.128113e-01 3.640520e-01 1.464428e-01 4.145940e-01 3.698776e-01 5.000000e-02
<GCONST> 8.654809e+01
<STATE> 4
<MEAN> 39
 -3.828320e+00 -2.285461e+01 -2.187368e+01 -1.404425e+01 1.246068e+01 5.197546e-01 8.140862e+00 -1.106583e+01 7.051896e-01 -1.766277e+00 8.062915e-01 -9.793237e+00 9.649727e-01 9.061595e-02 -1.723395e-02 2.909546e-01 -1.366776e+00 3.955843e-01 6.665170e-01 7.340968e-02 -6.901992e-01 -2.091175e-01 8.090278e-01 4.969257e-01 -3.879443e-01 4.120051e-04 -1.482966e-01 1.607552e-01 -3.854112e-02 1.061905e-01 -1.761128e-01 -2.442943e-01 4.975060e-02 1.677640e-01 1.670505e-01 -2.991744e-01 -2.071958e-01 1.793100e-01 -3.635939e-03
<VARIANCE> 39
 9.044213e+00 8.301659e+00 2.171133e+01 2.541584e+01 1.638805e+01 1.000021e+01 2.248889e+01 2.477855e+01 1.379977e+01 1.637328e+01 8.769040e+00 7.915607e+00 5.000000e-02 7.822099e-01 3.792877e-01 6.256073e-01 7.383634e-01 4.255413e-01 1.415735e+00 1.378988e+00 6.234087e-01 7.769254e-01 2.299583e+00 7.734483e-01 1.269908e+00 5.000000e-02 1.375243e-01 7.380212e-02 1.390258e-01 2.825120e-01 1.064618e-01 2.680322e-01 2.510174e-01 1.470175e-01 1.292828e-01 2.622464e-01 2.123391e-01 2.745601e-01 5.000000e-02
<GCONST> 7.141139e+01
<STATE> 5
<MEAN> 39
 -1.990394e+00 -2.153400e+01 -2.009517e+01 -1.766109e+01 1.224707e+01 5.930495e+00 5.428658e+00 -1.030462e+01 -1.207504e-01 -4.162388e-02 2.733475e+00 -8.816967e+00 9.585202e-01 3.597367e-01 1.935478e-01 -6.347136e-02 -1.201041e-01 1.072567e-01 2.496769e-01 -1.558903e-01 1.055888e-01 -1.428148e-01 -8.276729e-02 -2.258429e-02 3.231730e-02 -4.305992e-03 1.084291e-02 -2.745469e-02 -2.915946e-02 -5.273367e-03 -3.926659e-03 -1.351651e-01 -2.610260e-02 5.853204e-02 -7.299650e-05 -6.324581e-02 -1.880528e-02 2.316716e-02 -1.807658e-03
<VARIANCE> 39
 8.710575e+00 1.532893e+01 2.735118e+01 1.328167e+01 3.528177e+01 2.511770e+01 2.501579e+01 3.608397e+01 1.486902e+01 1.485564e+01 1.492917e+01 1.158826e+01 5.000000e-02 1.141161e-01 3.460196e-01 3.143429e-01 7.475001e-01 4.077189e-01 8.988497e-01 3.547712e-01 8.114163e-01 7.173598e-01 8.986418e-01 5.549800e-01 5.093741e-01 5.000000e-02 5.000000e-02 5.000000e-02 5.000000e-02 1.395430e-01 7.977504e-02 9.777755e-02 9.880217e-02 1.140717e-01 1.120244e-01 2.150407e-01 7.293437e-02 7.530577e-02 5.000000e-02
<GCONST> 5.976497e+01
<STATE> 6
<MEAN> 39
 1.392289e+00 -2.068735e+01 -2.093917e+01 -1.930266e+01 1.232413e+01 3.748544e+00 4.454951e+00 -1.013163e+01 -2.234819e-01 -2.127100e+00 9.856426e-01 -8.573848e+00 8.421809e-01 6.433421e-01 3.567021e-02 -2.435951e-01 5.782661e-01 -9.281351e-01 -2.935714e-02 -4.952844e-01 -1.561057e-01 1.907497e-01 -6.727962e-01 -7.686799e-01 6.248450e-01 -2.468891e-02 6.484835e-02 -1.048048e-03 -3.330407e-02 4.038118e-01 -2.433378e-01 1.586173e-01 -3.858292e-02 -1.621016e-02 4.698402e-02 -4.937018e-02 -2.425668e-01 2.801429e-02 -2.946410e-03
<VARIANCE> 39
 4.290429e+00 1.723028e+01 2.613288e+01 2.221527e+01 3.742149e+01 2.554283e+01 3.708355e+01 2.795642e+01 1.179413e+01 5.335879e+00 3.349353e+01 1.017443e+01 5.000000e-02 2.257669e-01 4.168051e-01 5.160033e-01 1.291957e+00 1.637408e+00 2.006346e+00 2.023168e+00 1.756280e+00 8.173299e-01 1.025840e+00 2.372617e+00 4.746446e-01 5.000000e-02 5.000000e-02 5.000000e-02 6.729470e-02 2.300058e-01 2.706426e-01 1.440086e-01 3.425047e-01 2.315804e-01 1.056749e-01 8.678623e-02 3.727937e-01 1.411247e-01 5.000000e-02
<GCONST> 7.319228e+01
<STATE> 7
<MEAN> 39
 4.036205e+00 -2.094064e+01 -2.103176e+01 -1.263664e+01 8.088638e+00 4.554561e+00 2.167259e+00 -8.848694e+00 1.052006e+00 -3.956540e+00 -1.976917e+00 -6.727555e+00 6.472628e-01 2.787237e-01 1.200066e-01 4.480959e-01 1.126962e+00 1.325302e-01 -2.129638e-01 -4.854343e-01 6.843264e-01 -3.143579e-01 -2.204740e-02 8.940107e-02 1.591015e-01 -3.774993e-02 -2.862760e-02 1.679187e-01 1.275435e-01 -4.486839e-02 1.352561e-01 -6.175058e-02 9.164473e-02 -6.166598e-02 -1.606848e-01 4.862082e-02 1.810707e-01 3.528431e-02 3.371194e-04
<VARIANCE> 39
 4.262216e+00 4.874311e+00 2.655327e+01 1.419464e+01 2.230340e+01 2.298670e+01 1.797920e+01 3.034415e+01 2.577366e+01 1.731576e+01 1.795315e+01 1.168805e+01 5.000000e-02 5.750431e-01 6.922219e-01 2.042521e+00 2.974220e+00 1.981958e+00 2.770924e+00 1.801057e+00 2.470816e+00 1.666094e+00 1.761612e+00 2.748940e+00 1.041392e+00 5.000000e-02 1.116515e-01 1.214781e-01 4.575565e-01 4.701071e-01 5.403720e-01 6.767151e-01 1.901277e-01 7.106506e-01 2.987607e-01 4.307413e-01 6.983131e-01 3.003842e-01 5.000000e-02
<GCONST> 8.939542e+01
<STATE> 8
<MEAN> 39
 6.010435e+00 -1.754451e+01 -1.865764e+01 -7.027658e+00 8.479340e+00 3.677433e+00 1.441587e+00 -8.471774e+00 -3.352771e+00 -4.275036e+00 -1.186596e+00 -4.719104e+00 4.739052e-01 -2.615822e-01 1.755263e-01 6.654202e-03 1.127973e-01 -5.251216e-01 2.457646e-02 5.689909e-01 1.662288e-01 -1.166571e-01 1.763901e-01 2.919044e-01 6.493770e-01 -2.900035e-02 -2.636686e-01 -2.745672e-01 -1.635382e-01 -4.459901e-01 -3.566836e-02 -6.003449e-02 -4.294430e-02 2.860942e-01 2.908799e-01 2.022278e-01 1.900715e-01 -8.608635e-03 1.692564e-03
<VARIANCE> 39
 2.455264e+00 3.447168e+00 1.230386e+01 5.629982e+00 4.757654e+00 7.838533e+00 7.231267e+00 4.864355e+00 1.224160e+01 1.827064e+01 1.413735e+01 7.788076e+00 5.000000e-02 4.797547e-01 8.809868e-01 1.957525e+00 1.908939e+00 5.965906e-01 7.195142e-01 8.096270e-01 1.567097e+00 1.310377e+00 2.276030e+00 1.630949e+00 1.522756e+00 5.000000e-02 6.087082e-02 6.961577e-02 3.320353e-01 3.025731e-01 9.242304e-02 7.947863e-02 2.595584e-01 1.173164e-01 3.139084e-01 3.888839e-01 3.584775e-01 3.037030e-01 5.000000e-02
<GCONST> 6.771859e+01
<STATE> 9
<MEAN> 39
 2.189471e+00 -1.890178e+01 -1.813046e+01 -8.343029e+00 5.964005e+00 2.739490e+00 1.360508e+00 -5.530407e+00 7.787852e-01 -2.223691e+00 3.832366e-01 -3.360709e+00 3.277282e-01 -2.565503e-01 2.837971e-01 6.490545e-01 4.302576e-01 1.162592e-01 -1.250594e-01 -3.593339e-01 5.702267e-02 -6.395418e-03 1.791002e-01 2.718768e-02 -3.571360e-01 -1.839861e-02 1.004804e-01 1.510952e-01 2.338610e-01 2.149184e-01 9.814432e-02 3.789344e-02 -3.772972e-02 -1.389814e-01 -1.556787e-01 -4.189055e-02 -3.296567e-02 -6.730536e-02 1.894417e-03
<VARIANCE> 39
 2.233352e+00 3.985506e+00 1.450075e+01 6.991621e+00 1.148575e+01 1.153835e+01 1.053425e+01 1.244250e+01 1.697554e+01 1.495168e+01 8.256468e+00 1.413592e+01 5.000000e-02 2.283581e-01 5.778514e-01 1.845470e+00 8.390872e-01 8.731030e-01 1.183799e+00 9.631292e-01 1.382591e+00 2.028912e+00 1.249482e+00 1.036664e+00 7.588860e-01 5.000000e-02 5.000000e-02 8.246071e-02 4.266828e-01 1.844350e-01 2.290675e-01 2.040162e-01 1.773259e-01 2.844557e-01 3.920451e-01 2.043040e-01 1.875029e-01 2.196613e-01 5.000000e-02
<GCONST> 6.917799e+01
<STATE> 10
<MEAN> 39
 1.829659e+00 -1.522489e+01 -1.181680e+01 -3.881422e+00 7.076907e+00 1.787711e+00 -9.927288e-01 -7.304578e+00 -1.085464e+00 -2.393809e+00 1.845467e+00 -3.181247e+00 2.446728e-01 -4.532940e-01 2.823036e-01 3.544899e-01 3.647137e-02 -1.629494e-01 -1.740848e-01 -8.717892e-02 -2.876662e-01 1.640537e-01 -1.158441e-02 2.575470e-01 5.088115e-01 -2.137146e-02 -2.334005e-01 -4.997569e-02 -1.762265e-01 -2.601483e-01 -4.018924e-02 9.104896e-02 1.503453e-01 6.340408e-02 8.878034e-02 -5.337454e-02 -1.413436e-01 1.686987e-03 -7.272471e-03
<VARIANCE> 39
 2.902214e+00 4.905685e+00 1.306232e+01 4.671007e+00 1.111918e+01 8.020657e+00 1.253529e+01 1.548680e+01 1.300819e+01 1.418894e+01 1.633557e+01 2.081375e+01 5.000000e-02 7.280587e-01 7.369015e-01 1.495103e+00 1.085073e+00 1.239491e+00 7.988360e-01 8.173701e-01 6.917967e-01 1.002810e+00 1.697370e+00 1.316487e+00 1.326034e+00 5.000000e-02 6.285412e-02 1.564208e-01 3.021100e-01 1.306373e-01 2.379535e-01 2.256784e-01 1.661692e-01 1.724267e-01 2.350201e-01 3.807665e-01 2.988779e-01 2.978646e-01 5.000000e-02
<GCONST> 7.146964e+01
<STATE> 11
<MEAN> 39
 -3.875901e+00 -1.216071e+01 -8.668764e+00 -5.456970e+00 6.882773e+00 2.427284e+00 1.371128e+00 -5.639688e+00 -5.285966e-01 -3.052965e+00 1.035060e+00 -1.579663e+00 1.160178e-02 -7.638580e-01 8.227946e-01 1.340741e+00 4.155355e-01 -1.107186e-01 8.625734e-02 4.260200e-01 4.306906e-01 1.112316e-01 2.719358e-01 1.744823e-01 2.190873e-01 -3.571536e-02 2.236086e-01 -1.211667e-02 7.139168e-02 1.652865e-01 -1.106685e-01 -2.155624e-01 -1.274143e-01 -4.962136e-02 6.394971e-02 1.510329e-01 2.343198e-01 3.509842e-02 9.175586e-03
<VARIANCE> 39
 3.181813e+00 5.949777e+00 2.569695e+01 1.031690e+01 8.146601e+00 1.622470e+01 1.084906e+01 9.269290e+00 9.181975e+00 1.193077e+01 1.410844e+01 1.135778e+01 5.000000e-02 3.093339e-01 6.366810e-01 1.127573e+00 9.589636e-01 8.519734e-01 2.051304e+00 1.000119e+00 8.305826e-01 7.574046e-01 9.833013e-01 7.754781e-01 6.536978e-01 5.000000e-02 5.954322e-02 1.713140e-01 4.312310e-01 2.378920e-01 1.682688e-01 2.989900e-01 1.384606e-01 1.324124e-01 1.490221e-01 2.452044e-01 1.065500e-01 1.623724e-01 5.000000e-02
<GCONST> 6.711372e+01
<TRANSP> 12
 0.000000e+00 1.000000e+00 0.000000e+00 0.000000e+00 0.000000e+00 0.000000e+00 0.000000e+00 0.000000e+00 0.000000e+00 0.000000e+00 0.000000e+00 0.000000e+00
 0.000000e+00 8.863615e-01 1.136385e-01 0.000000e+00 0.000000e+00 0.000000e+00 0.000000e+00 0.000000e+00 0.000000e+00 0.000000e+00 0.000000e+00 0.000000e+00
 0.000000e+00 0.000000e+00 6.666584e-01 3.333416e-01 0.000000e+00 0.000000e+00 0.000000e+00 0.000000e+00 0.000000e+00 0.000000e+00 0.000000e+00 0.000000e+00
 0.000000e+00 0.000000e+00 0.000000e+00 8.260918e-01 1.739082e-01 0.000000e+00 0.000000e+00 0.000000e+00 0.000000e+00 0.000000e+00 0.000000e+00 0.000000e+00
 0.000000e+00 0.000000e+00 0.000000e+00 0.000000e+00 9.155374e-01 8.446264e-02 0.000000e+00 0.000000e+00 0.000000e+00 0.000000e+00 0.000000e+00 0.000000e+00
 0.000000e+00 0.000000e+00 0.000000e+00 0.000000e+00 0.000000e+00 8.133379e-01 1.866622e-01 0.000000e+00 0.000000e+00 0.000000e+00 0.000000e+00 0.000000e+00
 0.000000e+00 0.000000e+00 0.000000e+00 0.000000e+00 0.000000e+00 0.000000e+00 8.292252e-01 1.707748e-01 0.000000e+00 0.000000e+00 0.000000e+00 0.000000e+00
 0.000000e+00 0.000000e+00 0.000000e+00 0.000000e+00 0.000000e+00 0.000000e+00 0.000000e+00 7.823721e-01 2.176280e-01 0.000000e+00 0.000000e+00 0.000000e+00
 0.000000e+00 0.000000e+00 0.000000e+00 0.000000e+00 0.000000e+00 0.000000e+00 0.000000e+00 0.000000e+00 8.693495e-01 1.306506e-01 0.000000e+00 0.000000e+00
 0.000000e+00 0.000000e+00 0.000000e+00 0.000000e+00 0.000000e+00 0.000000e+00 0.000000e+00 0.000000e+00 0.000000e+00 8.442530e-01 1.557470e-01 0.000000e+00
 0.000000e+00 0.000000e+00 0.000000e+00 0.000000e+00 0.000000e+00 0.000000e+00 0.000000e+00 0.000000e+00 0.000000e+00 0.000000e+00 8.123057e-01 1.876942e-01
 0.000000e+00 0.000000e+00 0.000000e+00 0.000000e+00 0.000000e+00 0.000000e+00 0.000000e+00 0.000000e+00 0.000000e+00 0.000000e+00 0.000000e+00 0.000000e+00
<ENDHMM>
