~o
<STREAMINFO> 1 39
<VECSIZE> 39<NULLD><MFCC_E_D_A><DIAGC>
~h "To*i"
<BEGINHMM>
<NUMSTATES> 22
<STATE> 2
<MEAN> 39
 -6.679811e+00 -7.768032e+00 -1.105667e+00 -9.867424e-01 1.530448e+00 -3.827286e+00 9.472807e-01 -2.028481e+00 3.278822e-01 -3.103828e+00 1.093599e+00 -1.039701e+00 -4.753873e-02 -4.053482e-01 2.420510e-01 -1.243699e+00 -7.907630e-01 -1.977394e-02 -7.961527e-01 7.397255e-01 1.130795e+00 2.751659e-01 -1.000681e+00 -5.128564e-01 -2.921421e-01 8.916494e-02 -7.777165e-02 -5.428742e-01 -1.106830e+00 -6.709327e-01 -2.053477e-01 -6.167607e-01 3.897614e-01 3.190200e-01 5.978550e-01 -2.949132e-01 -3.306862e-01 -2.274302e-01 5.124391e-02
<VARIANCE> 39
 3.041139e+00 5.654039e+00 5.110368e+00 5.444534e+00 6.073832e+00 9.298588e+00 1.165642e+01 1.772089e+01 1.172720e+01 1.262031e+01 7.698900e+00 8.798441e+00 5.000000e-02 1.439328e+00 1.520234e+00 2.650195e+00 2.092666e+00 1.606760e+00 1.759013e+00 1.155910e+00 1.931659e+00 2.926992e+00 9.442555e-01 9.134462e-01 1.292070e+00 5.000000e-02 1.993436e-01 7.050425e-01 2.403675e-01 1.445455e-01 1.771513e-01 1.648692e-01 1.519835e-01 3.202893e-01 6.934140e-01 1.443521e-01 2.254894e-01 2.537729e-01 5.000000e-02
<GCONST> 7.591826e+01
<STATE> 3
<MEAN> 39
 -8.478087e+00 -8.735147e+00 -1.077432e+01 -9.117923e+00 -6.432412e-01 -9.092627e+00 3.535635e+00 4.550946e+00 6.577128e+00 -5.016112e+00 -1.020801e+00 -2.477774e+00 5.699406e-01 -1.248455e-01 -3.655040e+00 -5.000766e+00 -2.432706e+00 -6.325573e-01 -2.583969e+00 2.266545e+00 9.315275e-02 2.335337e+00 -1.788905e+00 -2.366138e+00 -9.835066e-01 2.343760e-01 3.975139e-01 -1.031404e+00 2.689113e-01 4.311444e-01 6.354366e-01 1.634010e-01 1.385659e-01 -1.167559e+00 -6.178998e-01 -5.261504e-02 1.086413e-01 -1.029923e-01 -1.672872e-02
<VARIANCE> 39
 3.187964e+01 2.386276e+01 4.779197e+01 1.959665e+01 2.196220e+01 2.635977e+01 2.606008e+01 1.083208e+01 1.624856e+01 1.017818e+01 4.017705e+01 1.139739e+01 5.000000e-02 1.508099e+00 2.682931e+00 1.437318e+00 2.562942e+00 1.671493e+00 1.697906e+00 7.543000e-01 3.632301e+00 5.516700e+00 6.854729e-01 1.949195e+00 1.182848e+00 5.000000e-02 4.829034e-01 7.721377e-01 7.487737e-01 3.311693e-01 2.964122e-01 2.906336e-01 3.144580e-01 2.012198e-01 4.871836e-01 2.128862e-01 6.131505e-01 2.240710e-01 5.000000e-02
<GCONST> 9.447972e+01
<STATE> 4
<MEAN> 39
 -6.840141e+00 -2.174587e+01 -1.913954e+01 -1.025628e+01 1.467853e+00 -1.349208e+01 1.008019e+01 -5.956686e-01 7.640498e+00 -1.079227e+01 -4.733232e+00 -4.718961e+00 8.929995e-01 9.905041e-01 -3.205971e+00 -1.228835e+00 -1.161078e-01 2.209367e+00 -1.984710e-01 1.264922e+00 -1.911723e+00 -9.441189e-01 -1.113159e-01 1.379687e-01 -8.860581e-01 7.871290e-02 1.162523e-01 9.688012e-01 1.285756e+00 3.374768e-01 4.870799e-01 8.793445e-01 -5.674666e-01 -3.373363e-01 -5.624626e-01 9.496268e-01 3.429072e-01 9.230769e-02 -5.160500e-02
<VARIANCE> 39
 1.191979e+01 9.002707e+00 1.897857e+01 1.788201e+01 3.348956e+01 1.606625e+01 2.465299e+01 9.354756e+00 3.062677e+01 5.062611e+00 1.069020e+01 3.595369e+00 5.000000e-02 1.163620e+00 3.906363e+00 3.647913e+00 2.023705e+00 8.523117e-01 1.581769e+00 2.506253e+00 1.423575e+00 1.781224e+00 1.937970e+00 1.670150e+00 7.022957e-01 5.000000e-02 2.221145e-01 2.993537e-01 2.519228e-01 4.506080e-01 6.011418e-01 1.742007e-01 1.853316e-01 3.552395e-01 9.122220e-01 5.000000e-02 4.378646e-01 1.963283e-01 5.000000e-02
<GCONST> 8.469173e+01
<STATE> 5
<MEAN> 39
 -4.531976e+00 -2.367486e+01 -1.731293e+01 -1.109286e+01 8.007982e+00 -1.175924e+01 1.056324e+01 -3.894329e+00 4.244878e+00 -6.428790e+00 -3.978219e+00 -6.503935e+00 9.506481e-01 2.837188e-01 6.979885e-03 3.069519e-01 -9.000284e-01 1.616556e+00 8.750834e-01 -7.205254e-02 -1.532382e+00 -1.430031e-01 1.650861e+00 -1.090636e+00 -4.866407e-01 1.219489e-02 -2.199663e-01 8.084429e-01 -2.897558e-02 -1.354554e-01 -6.704559e-01 2.000522e-01 -3.804650e-01 3.088816e-01 6.626068e-01 2.720305e-01 -3.238129e-01 1.749478e-01 -1.234176e-02
<VARIANCE> 39
 5.315057e+00 1.066814e+01 4.337998e+01 2.195789e+01 9.907348e+00 8.141657e+00 1.769130e+01 5.764328e+00 1.585545e+01 7.677906e+00 2.615728e+00 3.584706e+00 5.000000e-02 2.393780e-01 3.034030e-01 7.971323e-01 5.308223e-01 2.104341e+00 9.949839e-02 3.925047e-01 2.492906e-01 8.200105e-01 7.587978e-01 5.733612e-01 3.194800e-01 5.000000e-02 9.846795e-02 3.042779e-01 2.702668e-01 4.124990e-01 2.061652e-01 5.000000e-02 2.887795e-01 5.480606e-02 2.662662e-01 9.855917e-02 1.049789e-01 5.000000e-02 5.000000e-02
<GCONST> 5.678721e+01
<STATE> 6
<MEAN> 39
 -4.283562e+00 -2.220275e+01 -1.830698e+01 -1.343533e+01 9.585882e+00 -8.796672e+00 9.908894e+00 -8.065908e+00 7.557611e+00 -3.145003e+00 -6.712810e+00 -7.275132e+00 9.618074e-01 3.333112e-01 2.752165e-01 -3.242926e-02 -9.467747e-01 5.042088e-01 8.382331e-01 -9.511349e-01 -1.392472e-01 1.233281e+00 1.597382e+00 -5.657576e-01 -3.802504e-01 3.393314e-03 -3.288004e-02 -5.730793e-02 1.024661e-02 -8.617084e-03 -2.061837e-01 -8.053002e-02 -4.961586e-01 5.971408e-01 6.158529e-02 -8.604913e-02 -1.534521e-01 -2.854162e-02 1.339560e-04
<VARIANCE> 39
 4.502703e+00 1.044591e+01 2.232545e+01 1.062866e+01 2.766299e+01 1.667586e+01 2.688601e+01 7.750751e+00 2.159290e+01 1.391848e+01 3.828486e+00 5.014614e+00 5.000000e-02 1.550488e-01 1.743611e-01 5.174167e-01 7.037241e-01 6.143293e-01 2.604069e-01 1.535452e+00 9.815831e-01 7.661672e-01 6.775824e-01 7.815455e-01 2.286323e-01 5.000000e-02 5.000000e-02 5.000000e-02 6.995858e-02 6.760636e-02 1.072777e-01 5.000000e-02 1.437504e-01 9.631938e-02 3.052496e-01 1.009660e-01 2.241534e-01 5.000000e-02 5.000000e-02
<GCONST> 5.489897e+01
<STATE> 7
<MEAN> 39
 -3.165326e+00 -2.167573e+01 -1.897773e+01 -1.627474e+01 1.032789e+01 -7.168255e+00 3.072690e+00 -5.057200e+00 1.007055e+01 2.347331e+00 -1.069209e+01 -8.743456e+00 9.866356e-01 6.493588e-02 4.547385e-03 8.094295e-02 -3.689910e-01 -4.631900e-01 8.216825e-01 -1.770063e+00 1.478688e+00 7.264639e-01 5.668916e-01 -1.787944e+00 -4.860446e-01 7.591260e-03 -1.527035e-01 6.712873e-02 1.018487e-01 2.199875e-01 -2.231688e-01 -1.029259e-01 7.005679e-01 1.019603e-01 -3.235918e-01 -8.240006e-01 1.698923e-01 1.073049e-01 -3.974106e-03
<VARIANCE> 39
 3.218400e+00 1.370825e+01 3.734801e+01 1.764745e+01 1.392839e+01 1.052824e+01 1.921971e+01 3.348180e+00 1.970992e+01 1.440200e+01 7.139842e+00 4.733355e+00 5.000000e-02 1.306243e-01 3.417517e-01 3.093651e-01 4.341567e-01 6.590163e-01 5.926991e-01 1.453083e+00 1.040073e+00 1.318468e+00 1.480766e+00 3.636889e-01 3.616917e-01 5.000000e-02 5.000000e-02 6.195439e-02 9.166145e-02 1.545424e-01 1.013306e-01 1.532668e-01 1.580265e-01 2.215279e-01 2.384211e-01 2.304534e-01 1.986603e-01 7.655340e-02 5.000000e-02
<GCONST> 5.964722e+01
<STATE> 8
<MEAN> 39
 -4.397955e+00 -2.237820e+01 -1.614501e+01 -1.761978e+01 7.595999e+00 -4.128350e+00 2.794209e+00 -1.327308e+00 1.177202e+01 -7.859423e-01 -1.354207e+01 -9.570946e+00 9.845610e-01 -3.777681e-01 8.712937e-01 6.843996e-02 -4.500642e-01 -6.823309e-01 2.234797e-01 9.368304e-01 5.404526e-01 -6.223707e-01 -1.219430e+00 1.062981e-01 8.632656e-01 -1.152523e-02 2.266333e-02 1.840523e-01 -3.280936e-02 5.757954e-02 -1.548115e-01 -2.083701e-01 3.377060e-01 -2.942114e-01 -5.641945e-01 -1.576838e-01 3.699422e-01 5.044820e-01 -6.214067e-03
<VARIANCE> 39
 4.606950e+00 1.374138e+01 2.806020e+01 2.014486e+01 1.400914e+01 2.350529e+01 2.478783e+01 1.656601e+01 1.267094e+01 1.320347e+01 7.425402e+00 2.141759e+00 5.000000e-02 5.000000e-02 8.075603e-01 4.646120e-01 4.413044e-01 1.016075e+00 1.801348e+00 1.376821e+00 1.777570e+00 1.390045e+00 8.891441e-01 5.080171e-01 7.738001e-01 5.000000e-02 5.000000e-02 2.034831e-01 8.647806e-02 1.893904e-01 2.691697e-01 4.666078e-01 2.852673e-01 3.426988e-01 2.759016e-01 1.443271e-01 1.445782e-01 6.496304e-02 5.000000e-02
<GCONST> 6.786898e+01
<STATE> 9
<MEAN> 39
 -4.703765e+00 -1.840570e+01 -1.811132e+01 -1.736912e+01 4.904996e+00 -5.938821e+00 6.429642e+00 -1.347474e+00 5.891633e+00 -3.580862e+00 -1.190315e+01 -4.834768e+00 9.212256e-01 -9.571876e-03 1.032096e-01 2.200781e-01 3.270830e-01 -1.200196e+00 -1.189369e+00 4.866272e-01 3.601631e-01 -1.738200e+00 -1.359730e+00 -2.131697e-01 1.284768e+00 -2.351106e-02 6.616324e-02 -4.897693e-01 1.793526e-01 2.916601e-01 -5.702616e-02 -7.717157e-01 2.240228e-02 1.779428e-01 3.733869e-01 1.671498e-01 1.027975e-01 -1.310826e-01 8.861359e-04
<VARIANCE> 39
 4.099518e+00 4.399462e+00 2.166059e+01 1.237171e+01 1.330346e+01 6.118604e+01 3.556175e+01 1.001521e+01 1.553339e+01 1.185156e+01 1.050032e+01 2.732233e+00 5.000000e-02 2.102980e-01 7.641345e-01 6.116045e-01 1.350658e+00 2.305641e+00 3.320714e+00 4.174131e-01 8.507836e-01 7.635925e-01 8.002957e-01 5.417302e-01 1.538014e-01 5.000000e-02 5.000000e-02 1.029777e-01 1.185305e-01 1.445836e-01 2.548752e-01 4.123924e-01 1.952142e-01 2.400310e-01 2.688930e-01 1.600029e-01 1.577347e-01 5.000000e-02 5.000000e-02
<GCONST> 6.568848e+01
<STATE> 10
<MEAN> 39
 -4.734424e+00 -2.081958e+01 -1.553567e+01 -1.623675e+01 2.940573e+00 -1.085040e+01 6.917159e+00 9.689795e-01 4.845839e+00 -6.833596e+00 -1.209002e+01 -1.203149e+00 8.701859e-01 1.400601e-01 -9.165219e-01 1.085058e+00 6.420711e-01 -1.557552e+00 -3.092391e+00 1.205423e+00 9.187207e-01 5.277832e-01 9.849674e-02 1.374337e+00 5.130659e-01 -1.208610e-02 2.052779e-02 1.945520e-01 3.572827e-01 -2.651574e-01 -3.408410e-01 -2.164240e-02 9.967488e-02 -1.155909e-02 3.722452e-01 7.712837e-01 3.650308e-01 -8.406869e-01 5.603428e-03
<VARIANCE> 39
 6.953402e+00 7.335447e+00 2.951228e+01 1.944620e+01 2.277072e+01 8.903745e+01 4.678995e+01 1.407027e+00 2.341913e+00 1.183360e+01 1.604332e+01 3.525836e+00 5.000000e-02 2.184783e-01 6.636093e-01 3.964312e-01 1.047999e+00 1.452598e+00 1.383112e+00 9.208438e-01 1.050830e+00 3.923219e-01 1.671679e+00 1.609275e+00 9.551374e-01 5.000000e-02 5.000000e-02 1.515261e-01 5.425319e-02 2.151102e-01 3.336465e-01 4.808140e-01 1.197167e-01 2.966351e-01 2.014005e-01 2.733112e-01 1.655653e-01 4.184195e-01 5.000000e-02
<GCONST> 6.992621e+01
<STATE> 11
<MEAN> 39
 -3.906217e+00 -2.076297e+01 -1.151758e+01 -1.562887e+01 -3.973099e+00 -1.861242e+01 1.027316e+01 3.029837e+00 5.955003e+00 -2.715413e+00 -8.069423e+00 -5.236052e+00 8.652585e-01 -5.776678e-02 4.873650e-01 1.889900e+00 -7.589079e-01 -1.359117e+00 -8.370301e-01 9.512064e-01 7.043170e-02 -5.148394e-01 1.473103e+00 4.455014e-01 -2.506371e+00 -3.642922e-03 -1.473732e-01 6.375219e-02 1.233313e-01 -3.820965e-01 6.144273e-01 9.658819e-01 -1.353177e-01 -5.873167e-01 -5.507826e-01 -5.416971e-02 -7.081382e-01 -2.620972e-01 -5.499435e-03
<VARIANCE> 39
 6.707716e+00 9.426575e+00 2.482254e+01 3.027665e+01 2.227442e+01 5.628937e+01 7.505536e+01 1.814195e+01 5.746397e+00 1.709696e+01 2.176039e+01 2.632848e+01 5.000000e-02 1.074893e-01 6.770020e-01 7.616936e-02 1.163658e+00 1.555793e+00 2.495380e+00 2.446709e+00 1.931218e+00 8.898754e-01 1.528602e+00 1.379212e+00 3.955788e+00 5.000000e-02 5.000000e-02 1.549299e-01 5.000000e-02 3.267457e-01 1.687325e-01 2.930698e-01 5.497755e-01 3.142716e-01 1.625943e-01 3.396477e-01 2.338804e-01 8.932438e-01 5.000000e-02
<GCONST> 8.041801e+01
<STATE> 12
<MEAN> 39
 -4.402681e+00 -2.040906e+01 -7.230707e+00 -1.864221e+01 -3.063471e+00 -1.781822e+01 1.407511e+01 1.074247e+00 1.152446e+00 -1.002553e+00 -9.514724e+00 -1.173262e+01 8.172619e-01 -5.538648e-01 -5.353408e-01 1.977726e+00 -1.101291e+00 2.476633e-01 9.288509e-01 -5.491561e-02 -1.563524e+00 -8.935144e-01 4.720841e-01 -1.478319e+00 -3.831410e-01 -3.595506e-02 -1.868205e-01 -8.919849e-02 -2.253703e-02 -1.267233e-01 9.711597e-02 1.869866e-01 -5.502020e-01 -1.209911e-01 6.443148e-01 3.025362e-01 7.992466e-02 1.237391e+00 -9.564517e-03
<VARIANCE> 39
 7.479144e+00 1.250144e+01 2.165026e+01 7.771297e+00 1.071351e+01 2.727050e+01 1.523486e+01 3.255288e+01 3.236267e+01 7.880308e+00 6.420872e+00 3.160190e+01 5.000000e-02 3.430359e-01 5.501787e-01 6.396564e-01 1.595682e+00 7.008482e-01 1.073740e+00 3.586616e+00 1.345281e+00 4.959558e+00 5.726623e-01 6.175685e-01 1.994287e+00 5.000000e-02 6.672281e-02 3.405224e-01 1.217481e-01 2.334194e-01 1.306514e-01 2.286360e-01 1.361980e-01 6.936821e-01 7.393851e-01 3.129847e-01 2.522879e-01 4.634725e-01 5.000000e-02
<GCONST> 7.916089e+01
<STATE> 13
<MEAN> 39
 -7.960728e+00 -2.144687e+01 -7.951495e-01 -2.255726e+01 -4.596458e+00 -1.339160e+01 9.856933e+00 -2.711697e+00 3.532291e+00 3.375782e+00 -1.290555e+01 -7.564519e+00 7.070982e-01 -3.382173e-01 1.182639e-01 9.094252e-01 -1.100175e+00 -4.553654e-01 7.172056e-01 -1.274970e+00 -5.021646e-01 8.872942e-01 2.199930e+00 1.451436e-01 2.575938e+00 -5.160441e-02 8.377574e-01 -1.366738e-01 -9.127132e-01 9.259718e-01 -4.224237e-01 2.210266e-01 -4.076021e-01 6.206456e-01 3.451533e-01 -5.290254e-01 3.510446e-01 2.699971e-01 -5.559164e-03
<VARIANCE> 39
 1.051173e+01 1.238229e+01 2.035932e+01 2.174173e+01 1.073340e+01 4.045381e+01 2.497884e+01 1.500348e+01 3.582186e+01 1.494638e+01 9.835926e+00 2.301107e+01 5.000000e-02 1.670738e+00 2.159056e+00 2.928186e+00 1.285046e+00 4.919729e-01 2.206848e+00 1.556012e+00 3.982768e+00 2.996829e+00 1.249874e+00 1.698609e+00 6.356832e-01 5.000000e-02 2.333198e-01 2.888935e-01 1.913854e-01 6.380334e-01 1.787248e-01 4.206486e-01 7.244069e-01 3.800309e-01 7.524799e-01 7.347754e-01 2.786640e-01 5.172754e-01 5.000000e-02
<GCONST> 9.206106e+01
<STATE> 14
<MEAN> 39
 -3.416976e+00 -2.176852e+01 -3.907126e+00 -2.018042e+01 -5.986424e+00 -1.222004e+01 6.214218e+00 -2.658308e+00 5.128972e+00 6.212600e+00 -1.092306e+01 -1.226589e+00 5.364023e-01 2.610029e+00 -1.193305e+00 -1.770584e+00 3.436254e+00 -1.605439e+00 2.791063e+00 -2.012328e+00 7.489353e-01 1.042567e+00 -1.855154e+00 1.276144e-01 4.799086e-01 -6.194258e-02 3.121250e-01 -7.573944e-02 -5.097785e-01 9.972628e-01 1.563683e-01 1.263357e-01 1.443407e-01 5.032209e-02 -3.105503e-01 -1.170422e+00 6.683812e-02 -9.366348e-01 5.133641e-03
<VARIANCE> 39
 1.177784e+01 9.099973e+00 1.018565e+01 3.001938e+01 1.871845e+01 5.599869e+01 2.447627e+01 1.062410e+01 1.851923e+01 2.441023e+01 2.654811e+01 9.351213e+00 5.000000e-02 8.129877e-01 4.110936e-01 1.161959e+00 2.699499e+00 1.737590e+00 3.316774e+00 2.660590e+00 2.800565e+00 9.966230e-01 3.442632e+00 1.632506e+00 3.016921e+00 5.000000e-02 3.118839e-01 3.725175e-01 5.606457e-01 7.231774e-01 3.908505e-01 1.171195e+00 4.028542e-01 6.389461e-01 1.714041e-01 3.997064e-01 2.783417e-01 1.320325e-01 5.000000e-02
<GCONST> 9.268727e+01
<STATE> 15
<MEAN> 39
 1.745994e+00 -2.499763e+01 -7.802270e+00 -1.032608e+01 -9.068969e+00 -5.199161e+00 2.103990e+00 -6.619335e-01 7.433408e+00 -2.854759e+00 -9.584639e+00 -3.718964e+00 4.337502e-01 1.103241e+00 2.104511e-01 -1.351848e+00 2.954177e+00 6.326593e-01 5.144715e-01 -3.543128e-01 -1.876000e-01 -6.624308e-01 -1.881881e+00 9.630330e-01 -7.281508e-01 -3.295220e-02 -6.772768e-01 5.484694e-01 3.329363e-01 -5.616487e-01 6.102536e-01 -8.000783e-01 5.741262e-01 -8.577690e-02 -4.265178e-01 8.033025e-01 1.235528e-01 -3.022894e-02 8.255635e-03
<VARIANCE> 39
 2.037878e+00 7.389216e+00 2.054903e+01 1.439316e+01 1.440583e+01 8.230108e+00 1.176420e+01 1.994660e+01 3.403049e+00 5.625468e+00 1.028877e+01 1.126054e+01 5.000000e-02 7.564704e-01 1.774015e+00 1.051655e+00 2.016067e+00 2.234450e+00 3.243623e+00 1.589966e+00 1.149853e+00 1.423271e+00 1.857935e+00 7.078272e-01 5.531309e-01 5.000000e-02 8.835719e-02 9.972750e-02 2.007081e-01 3.539850e-01 4.066964e-01 2.599328e-01 3.952826e-01 3.290043e-01 1.459078e-01 1.359174e-01 1.960017e-01 2.534575e-01 5.000000e-02
<GCONST> 7.410815e+01
<STATE> 16
<MEAN> 39
 2.419791e+00 -2.239371e+01 -1.062244e+01 -4.962341e+00 -5.942412e+00 -7.073020e+00 3.511631e+00 -3.836304e-01 4.187308e+00 -2.864470e+00 -7.884647e+00 -5.281678e+00 3.577179e-01 -2.537719e-03 7.353122e-01 -1.317228e-01 1.148108e+00 8.427044e-01 -7.189732e-01 1.802642e-01 6.744122e-01 2.087251e-02 7.415116e-01 1.072109e+00 -2.322131e-01 -2.154165e-02 -1.661056e-01 1.048037e-03 4.060653e-01 -3.839862e-01 2.861824e-02 6.361547e-02 -2.709503e-02 -9.434941e-03 2.697983e-01 2.231119e-01 5.309552e-02 1.525916e-01 1.346447e-03
<VARIANCE> 39
 3.455736e+00 8.899702e+00 1.725715e+01 5.554265e+00 8.931336e+00 1.199856e+01 2.188251e+00 1.524934e+01 9.393878e+00 9.620663e+00 3.492814e+00 7.905571e+00 5.000000e-02 3.090402e-01 7.424438e-01 1.218734e+00 4.216324e-01 4.344884e-01 9.385682e-01 6.854392e-01 9.387678e-01 5.242408e-01 8.226865e-01 8.434703e-01 4.343511e-01 5.000000e-02 9.013645e-02 1.513260e-01 1.369088e-01 1.084228e-01 1.770367e-01 4.082108e-01 7.064393e-02 2.668227e-01 9.754507e-02 5.068914e-01 1.025414e-01 5.439450e-02 5.000000e-02
<GCONST> 5.806279e+01
<STATE> 17
<MEAN> 39
 2.306695e+00 -1.953404e+01 -9.294868e+00 -2.341046e+00 -1.976485e+00 -7.738329e+00 3.463532e+00 9.144023e-01 5.960614e+00 -1.090545e+00 -3.597012e+00 -4.739753e+00 2.982813e-01 -4.028852e-01 6.685038e-01 5.365553e-01 4.040219e-01 9.563332e-01 4.706539e-01 -1.498680e-02 -1.244397e-01 4.744826e-03 -9.173857e-02 1.139178e-01 7.546216e-03 -2.282240e-02 -9.294535e-02 1.932227e-02 -1.456754e-02 -2.622421e-01 -2.626786e-01 1.529071e-01 -2.238406e-02 -1.399703e-01 -1.816895e-01 -2.099946e-01 -4.516443e-01 -5.626482e-02 -3.299319e-04
<VARIANCE> 39
 2.111057e+00 5.614538e+00 1.202021e+01 6.767026e+00 1.354160e+01 9.868133e+00 1.004439e+01 6.609986e+00 4.667608e+00 4.826447e+00 9.721705e+00 6.887155e+00 5.000000e-02 2.622020e-01 5.254887e-01 3.454547e-01 1.760392e-01 1.056983e+00 6.923520e-01 5.498160e-01 1.685492e+00 1.259662e+00 1.526428e+00 7.793844e-01 5.486666e-01 5.000000e-02 5.000000e-02 1.238328e-01 1.154998e-01 1.056549e-01 1.722064e-01 2.248707e-01 2.213344e-01 3.284352e-01 1.999897e-01 3.010174e-01 1.025886e-01 9.779421e-02 5.000000e-02
<GCONST> 5.782914e+01
<STATE> 18
<MEAN> 39
 3.844145e-01 -1.894071e+01 -8.793839e+00 -2.929917e+00 -1.959466e+00 -6.335952e+00 4.231098e+00 1.390694e+00 5.107485e+00 -1.381624e+00 -5.632921e+00 -5.009509e+00 2.324153e-01 7.234732e-03 1.166540e+00 2.801667e-01 9.377506e-02 3.507086e-01 3.856705e-01 -4.301114e-01 -4.532753e-01 -8.730429e-01 -8.273293e-01 -8.167318e-03 4.156137e-01 -1.296995e-02 4.976217e-02 5.897073e-02 -1.032028e-01 -1.010684e-01 3.527917e-02 -1.423050e-01 -3.679224e-01 -1.495548e-01 -2.107507e-01 -1.963215e-01 2.501086e-01 1.092491e-02 3.029323e-04
<VARIANCE> 39
 3.843845e+00 1.251920e+01 1.212402e+01 2.998490e+00 1.490282e+01 3.324423e+00 1.117211e+01 1.987413e+01 2.061622e+01 1.604880e+01 9.777203e+00 7.569238e+00 5.000000e-02 7.340587e-01 6.397587e-01 4.091588e-01 8.034284e-01 1.697699e+00 7.937090e-01 2.351492e+00 2.132209e+00 1.300621e+00 1.921942e+00 5.651569e-01 4.763625e-01 5.000000e-02 1.251643e-01 1.308362e-01 1.335805e-01 1.273808e-01 3.435753e-01 9.926050e-02 4.978894e-01 5.679263e-01 3.937154e-01 4.362315e-01 1.392824e-01 1.096126e-01 5.000000e-02
<GCONST> 7.044379e+01
<STATE> 19
<MEAN> 39
 9.906028e-01 -1.635201e+01 -8.532603e+00 -3.099383e+00 -1.737584e+00 -6.551049e+00 1.906454e+00 -8.218203e-01 2.433583e+00 -4.858191e+00 -3.993863e+00 -4.889729e+00 2.177921e-01 -6.391332e-01 3.575894e-01 -1.435327e-01 -5.388276e-01 3.954855e-03 -3.545673e-01 -5.437874e-01 3.553019e-01 -3.924239e-01 -1.334133e-01 7.084812e-01 -3.641347e-01 -2.701274e-02 -1.512610e-01 -6.722547e-02 1.815659e-01 7.226978e-02 2.349876e-02 1.766164e-01 1.891519e-01 2.471672e-01 2.577251e-01 3.671558e-01 -4.644121e-02 7.227830e-02 -3.200772e-03
<VARIANCE> 39
 3.518821e+00 7.176299e+00 8.718818e+00 5.592248e+00 6.822158e+00 7.282267e+00 1.633371e+01 9.204024e+00 3.190032e+00 1.209860e+01 2.514269e+00 5.942724e+00 5.000000e-02 1.453907e-01 7.397969e-01 1.610133e+00 8.346142e-01 1.459267e+00 1.409033e+00 3.096446e+00 1.758195e+00 1.338789e+00 2.014355e+00 1.036235e+00 7.088923e-01 5.000000e-02 9.436709e-02 1.682445e-01 1.382529e-01 1.319011e-01 2.834875e-01 3.622240e-01 4.135708e-01 2.646175e-01 1.147765e-01 3.339243e-01 1.420450e-01 1.578200e-01 5.000000e-02
<GCONST> 6.655107e+01
<STATE> 20
<MEAN> 39
 -1.316653e+00 -1.393780e+01 -6.853577e+00 -3.226586e+00 3.237484e-02 -5.507601e+00 3.792898e-01 3.826275e-01 2.880552e+00 -3.217493e+00 -3.592273e+00 -4.745967e+00 1.125091e-01 -8.772877e-01 5.459782e-01 5.147870e-01 -7.816791e-03 1.772098e-02 6.937824e-01 2.099200e-01 2.111067e-02 3.040715e-01 4.790882e-01 -4.387553e-02 5.285057e-01 -3.952155e-02 -1.200324e-01 -1.384359e-02 5.286128e-02 3.916314e-02 -1.306683e-01 1.705687e-02 2.329393e-01 -7.700671e-02 5.934750e-02 1.382538e-01 5.983476e-02 1.419094e-01 -4.169057e-03
<VARIANCE> 39
 3.615975e+00 4.634113e+00 1.048666e+01 6.354925e+00 1.478952e+01 1.470028e+01 1.188858e+01 8.638846e+00 1.246741e+01 6.524066e+00 1.171031e+01 4.958212e+00 5.000000e-02 4.159793e-01 6.195787e-01 7.771495e-01 3.882679e-01 9.344091e-01 9.750224e-01 6.852058e-01 7.249595e-01 1.387833e+00 9.237357e-01 8.504628e-01 4.445644e-01 5.000000e-02 8.208153e-02 1.216898e-01 2.010843e-01 1.586509e-01 2.911300e-01 3.205260e-01 2.606254e-01 3.115186e-01 3.911595e-01 2.764323e-01 2.937872e-01 8.361197e-02 5.000000e-02
<GCONST> 6.524581e+01
<STATE> 21
<MEAN> 39
 -4.981708e+00 -1.269942e+01 -5.577282e+00 -2.884282e+00 -2.645589e-01 -2.412412e+00 3.645558e+00 -6.651265e-01 2.056349e+00 -1.013428e+00 -2.459593e+00 -1.607984e+00 -4.020065e-02 -8.566911e-01 7.590996e-01 9.492009e-01 5.019924e-01 4.271587e-01 2.780716e-01 1.755011e-01 -6.633853e-01 -2.752371e-01 2.422592e-01 7.162318e-01 4.688859e-01 -3.143017e-02 4.328587e-01 4.054898e-02 1.131878e-01 1.162086e-01 1.930492e-01 -2.842328e-01 -1.047822e-01 2.351098e-02 -1.174959e-01 -3.620665e-01 7.085254e-02 -4.192027e-01 1.915287e-02
<VARIANCE> 39
 3.783024e-01 1.812501e+00 1.050803e+00 1.195189e+00 1.752810e+00 5.790288e+00 7.010125e+00 1.232605e+01 2.565733e+01 7.765935e+00 1.294898e+01 1.700493e+00 5.000000e-02 4.418611e-01 3.945290e-01 6.365295e-01 7.369204e-01 9.890358e-01 1.651325e+00 2.910346e+00 3.252408e+00 2.239161e+00 1.347813e+00 1.842290e+00 5.622848e-01 5.000000e-02 5.433378e-02 6.163037e-02 1.356112e-01 5.000000e-02 5.000000e-02 1.776200e-01 2.297168e-01 3.563979e-01 4.370476e-01 1.580634e-01 1.531512e-01 8.998639e-02 5.000000e-02
<GCONST> 5.420148e+01
<TRANSP> 22
 0.000000e+00 1.000000e+00 0.000000e+00 0.000000e+00 0.000000e+00 0.000000e+00 0.000000e+00 0.000000e+00 0.000000e+00 0.000000e+00 0.000000e+00 0.000000e+00 0.000000e+00 0.000000e+00 0.000000e+00 0.000000e+00 0.000000e+00 0.000000e+00 0.000000e+00 0.000000e+00 0.000000e+00 0.000000e+00
 0.000000e+00 7.222224e-01 2.777776e-01 0.000000e+00 0.000000e+00 0.000000e+00 0.000000e+00 0.000000e+00 0.000000e+00 0.000000e+00 0.000000e+00 0.000000e+00 0.000000e+00 0.000000e+00 0.000000e+00 0.000000e+00 0.000000e+00 0.000000e+00 0.000000e+00 0.000000e+00 0.000000e+00 0.000000e+00
 0.000000e+00 0.000000e+00 5.000066e-01 4.999935e-01 0.000000e+00 0.000000e+00 0.000000e+00 0.000000e+00 0.000000e+00 0.000000e+00 0.000000e+00 0.000000e+00 0.000000e+00 0.000000e+00 0.000000e+00 0.000000e+00 0.000000e+00 0.000000e+00 0.000000e+00 0.000000e+00 0.000000e+00 0.000000e+00
 0.000000e+00 0.000000e+00 0.000000e+00 6.152949e-01 3.847051e-01 0.000000e+00 0.000000e+00 0.000000e+00 0.000000e+00 0.000000e+00 0.000000e+00 0.000000e+00 0.000000e+00 0.000000e+00 0.000000e+00 0.000000e+00 0.000000e+00 0.000000e+00 0.000000e+00 0.000000e+00 0.000000e+00 0.000000e+00
 0.000000e+00 0.000000e+00 0.000000e+00 0.000000e+00 4.992277e-01 5.007723e-01 0.000000e+00 0.000000e+00 0.000000e+00 0.000000e+00 0.000000e+00 0.000000e+00 0.000000e+00 0.000000e+00 0.000000e+00 0.000000e+00 0.000000e+00 0.000000e+00 0.000000e+00 0.000000e+00 0.000000e+00 0.000000e+00
 0.000000e+00 0.000000e+00 0.000000e+00 0.000000e+00 0.000000e+00 7.225350e-01 2.774650e-01 0.000000e+00 0.000000e+00 0.000000e+00 0.000000e+00 0.000000e+00 0.000000e+00 0.000000e+00 0.000000e+00 0.000000e+00 0.000000e+00 0.000000e+00 0.000000e+00 0.000000e+00 0.000000e+00 0.000000e+00
 0.000000e+00 0.000000e+00 0.000000e+00 0.000000e+00 0.000000e+00 0.000000e+00 6.155179e-01 3.844821e-01 0.000000e+00 0.000000e+00 0.000000e+00 0.000000e+00 0.000000e+00 0.000000e+00 0.000000e+00 0.000000e+00 0.000000e+00 0.000000e+00 0.000000e+00 0.000000e+00 0.000000e+00 0.000000e+00
 0.000000e+00 0.000000e+00 0.000000e+00 0.000000e+00 0.000000e+00 0.000000e+00 0.000000e+00 6.665280e-01 3.334720e-01 0.000000e+00 0.000000e+00 0.000000e+00 0.000000e+00 0.000000e+00 0.000000e+00 0.000000e+00 0.000000e+00 0.000000e+00 0.000000e+00 0.000000e+00 0.000000e+00 0.000000e+00
 0.000000e+00 0.000000e+00 0.000000e+00 0.000000e+00 0.000000e+00 0.000000e+00 0.000000e+00 0.000000e+00 6.435614e-01 3.564386e-01 0.000000e+00 0.000000e+00 0.000000e+00 0.000000e+00 0.000000e+00 0.000000e+00 0.000000e+00 0.000000e+00 0.000000e+00 0.000000e+00 0.000000e+00 0.000000e+00
 0.000000e+00 0.000000e+00 0.000000e+00 0.000000e+00 0.000000e+00 0.000000e+00 0.000000e+00 0.000000e+00 0.000000e+00 5.823818e-01 4.176182e-01 0.000000e+00 0.000000e+00 0.000000e+00 0.000000e+00 0.000000e+00 0.000000e+00 0.000000e+00 0.000000e+00 0.000000e+00 0.000000e+00 0.000000e+00
 0.000000e+00 0.000000e+00 0.000000e+00 0.000000e+00 0.000000e+00 0.000000e+00 0.000000e+00 0.000000e+00 0.000000e+00 0.000000e+00 6.665914e-01 3.334086e-01 0.000000e+00 0.000000e+00 0.000000e+00 0.000000e+00 0.000000e+00 0.000000e+00 0.000000e+00 0.000000e+00 0.000000e+00 0.000000e+00
 0.000000e+00 0.000000e+00 0.000000e+00 0.000000e+00 0.000000e+00 0.000000e+00 0.000000e+00 0.000000e+00 0.000000e+00 0.000000e+00 0.000000e+00 5.838556e-01 4.161444e-01 0.000000e+00 0.000000e+00 0.000000e+00 0.000000e+00 0.000000e+00 0.000000e+00 0.000000e+00 0.000000e+00 0.000000e+00
 0.000000e+00 0.000000e+00 0.000000e+00 0.000000e+00 0.000000e+00 0.000000e+00 0.000000e+00 0.000000e+00 0.000000e+00 0.000000e+00 0.000000e+00 0.000000e+00 6.151147e-01 3.848852e-01 0.000000e+00 0.000000e+00 0.000000e+00 0.000000e+00 0.000000e+00 0.000000e+00 0.000000e+00 0.000000e+00
 0.000000e+00 0.000000e+00 0.000000e+00 0.000000e+00 0.000000e+00 0.000000e+00 0.000000e+00 0.000000e+00 0.000000e+00 0.000000e+00 0.000000e+00 0.000000e+00 0.000000e+00 5.831153e-01 4.168846e-01 0.000000e+00 0.000000e+00 0.000000e+00 0.000000e+00 0.000000e+00 0.000000e+00 0.000000e+00
 0.000000e+00 0.000000e+00 0.000000e+00 0.000000e+00 0.000000e+00 0.000000e+00 0.000000e+00 0.000000e+00 0.000000e+00 0.000000e+00 0.000000e+00 0.000000e+00 0.000000e+00 0.000000e+00 6.154910e-01 3.845090e-01 0.000000e+00 0.000000e+00 0.000000e+00 0.000000e+00 0.000000e+00 0.000000e+00
 0.000000e+00 0.000000e+00 0.000000e+00 0.000000e+00 0.000000e+00 0.000000e+00 0.000000e+00 0.000000e+00 0.000000e+00 0.000000e+00 0.000000e+00 0.000000e+00 0.000000e+00 0.000000e+00 0.000000e+00 6.879504e-01 3.120497e-01 0.000000e+00 0.000000e+00 0.000000e+00 0.000000e+00 0.000000e+00
 0.000000e+00 0.000000e+00 0.000000e+00 0.000000e+00 0.000000e+00 0.000000e+00 0.000000e+00 0.000000e+00 0.000000e+00 0.000000e+00 0.000000e+00 0.000000e+00 0.000000e+00 0.000000e+00 0.000000e+00 0.000000e+00 6.124080e-01 3.875920e-01 0.000000e+00 0.000000e+00 0.000000e+00 0.000000e+00
 0.000000e+00 0.000000e+00 0.000000e+00 0.000000e+00 0.000000e+00 0.000000e+00 0.000000e+00 0.000000e+00 0.000000e+00 0.000000e+00 0.000000e+00 0.000000e+00 0.000000e+00 0.000000e+00 0.000000e+00 0.000000e+00 0.000000e+00 5.975153e-01 4.024847e-01 0.000000e+00 0.000000e+00 0.000000e+00
 0.000000e+00 0.000000e+00 0.000000e+00 0.000000e+00 0.000000e+00 0.000000e+00 0.000000e+00 0.000000e+00 0.000000e+00 0.000000e+00 0.000000e+00 0.000000e+00 0.000000e+00 0.000000e+00 0.000000e+00 0.000000e+00 0.000000e+00 0.000000e+00 5.991618e-01 4.008382e-01 0.000000e+00 0.000000e+00
 0.000000e+00 0.000000e+00 0.000000e+00 0.000000e+00 0.000000e+00 0.000000e+00 0.000000e+00 0.000000e+00 0.000000e+00 0.000000e+00 0.000000e+00 0.000000e+00 0.000000e+00 0.000000e+00 0.000000e+00 0.000000e+00 0.000000e+00 0.000000e+00 0.000000e+00 7.248439e-01 2.751561e-01 0.000000e+00
 0.000000e+00 0.000000e+00 0.000000e+00 0.000000e+00 0.000000e+00 0.000000e+00 0.000000e+00 0.000000e+00 0.000000e+00 0.000000e+00 0.000000e+00 0.000000e+00 0.000000e+00 0.000000e+00 0.000000e+00 0.000000e+00 0.000000e+00 0.000000e+00 0.000000e+00 0.000000e+00 4.449742e-01 5.550258e-01
 0.000000e+00 0.000000e+00 0.000000e+00 0.000000e+00 0.000000e+00 0.000000e+00 0.000000e+00 0.000000e+00 0.000000e+00 0.000000e+00 0.000000e+00 0.000000e+00 0.000000e+00 0.000000e+00 0.000000e+00 0.000000e+00 0.000000e+00 0.000000e+00 0.000000e+00 0.000000e+00 0.000000e+00 0.000000e+00
<ENDHMM>
