~o
<STREAMINFO> 1 39
<VECSIZE> 39<NULLD><MFCC_E_D_A><DIAGC>
~h "Vao"
<BEGINHMM>
<NUMSTATES> 35
<STATE> 2
<MEAN> 39
 -4.075673e+00 -7.645237e+00 4.546762e-01 -1.931638e+00 1.192424e+00 -4.954464e+00 2.043829e+00 -1.451291e+00 5.861924e-01 -1.458395e+00 3.184932e+00 -2.048690e+00 5.823612e-02 8.549957e-01 2.197111e-01 -1.158059e+00 -1.305283e+00 -1.084615e+00 -8.521320e-01 -1.730746e-02 3.074115e-01 -5.718089e-01 -3.530403e-01 -1.054469e+00 -1.056773e+00 2.272275e-02 3.762706e-01 1.195367e-03 -4.233158e-01 -1.154772e-01 -3.107997e-01 -2.706493e-01 -3.580176e-01 -2.125452e-01 -2.758427e-01 -3.173765e-01 -3.621288e-01 -1.896335e-01 1.183533e-02
<VARIANCE> 39
 2.160012e+00 4.419429e+00 6.348186e+00 6.790803e+00 7.006596e+00 7.010719e+00 4.608710e+00 1.359352e+01 6.450882e+00 6.550941e+00 6.115304e+00 8.349053e+00 5.000000e-02 5.359053e-01 1.926676e-01 1.248311e+00 8.518894e-01 1.096204e+00 1.008037e+00 9.930007e-01 1.525469e+00 8.834224e-01 5.483328e-01 1.073618e+00 6.752250e-01 5.000000e-02 8.702221e-02 9.960271e-02 1.059655e-01 1.342591e-01 1.305439e-01 2.811955e-01 8.094999e-02 4.522644e-01 2.579589e-01 1.378275e-01 1.759936e-01 9.334841e-02 5.000000e-02
<GCONST> 5.861962e+01
<STATE> 3
<MEAN> 39
 -9.883432e-01 -5.228824e+00 -4.856116e+00 -6.171670e+00 -2.775653e+00 -6.636942e+00 -5.204248e-01 -2.322804e+00 -1.416444e+00 -4.760908e+00 -1.035050e+00 -6.313354e+00 1.150148e-01 9.850638e-01 3.700572e-01 -1.371370e+00 -3.764540e-02 -1.162218e+00 -6.758583e-01 -1.039060e+00 -5.021098e-01 -1.116974e+00 -7.723877e-01 -1.238326e+00 -1.161536e+00 4.643156e-02 -2.266591e-01 -3.897431e-01 1.542605e-01 5.459631e-01 3.938140e-01 -1.526363e-02 -6.645145e-02 7.688015e-02 1.020013e-01 4.819297e-02 1.945822e-01 1.866341e-01 1.082395e-02
<VARIANCE> 39
 5.083700e+00 3.912543e+00 1.232316e+01 1.129572e+01 1.304533e+01 4.114173e+00 1.011616e+01 6.484004e+00 8.797743e+00 1.096996e+01 3.286460e+00 2.298427e+00 5.000000e-02 1.776831e+00 9.643835e-01 6.200811e-01 1.014622e+00 1.657153e+00 2.161313e+00 3.149632e-01 2.289217e+00 1.648423e+00 1.001946e+00 9.131403e-01 8.188173e-01 5.000000e-02 5.000000e-02 1.218105e-01 3.924497e-01 3.173552e-01 4.359325e-01 1.926301e-01 1.854564e-01 3.180593e-01 1.548227e-01 1.405734e-01 2.727588e-01 1.309964e-01 5.000000e-02
<GCONST> 6.695801e+01
<STATE> 4
<MEAN> 39
 1.284406e+00 -7.872426e+00 -5.616153e+00 -2.712339e+00 -3.070126e+00 -1.054969e+01 -1.449815e+00 -2.138685e+00 -4.201852e+00 -5.549392e+00 -2.110193e+00 -7.258965e+00 2.958721e-01 2.538012e-01 -1.415596e+00 -1.017275e+00 6.696533e-01 5.695476e-01 -6.280382e-01 1.291698e-01 3.175329e-01 -5.637192e-02 4.490959e-02 -3.516674e-01 -6.018899e-01 6.071224e-02 -1.494171e-01 -6.632777e-01 -5.104466e-01 -4.808782e-01 2.684321e-01 4.768086e-01 5.918853e-01 1.262626e-01 7.309235e-01 6.170142e-01 -2.332303e-01 4.305350e-01 1.776928e-02
<VARIANCE> 39
 2.512511e+01 1.580534e+01 3.751902e+00 1.849946e+01 1.423841e+01 2.676070e+01 1.068504e+01 8.055819e+00 1.590591e+01 1.090430e+01 9.486408e+00 6.700750e+00 5.000000e-02 7.859299e-01 9.150767e-01 1.923755e+00 2.216419e+00 9.955695e-01 3.069008e+00 8.886999e-01 1.256813e+00 1.191221e+00 1.617376e+00 1.690591e+00 9.117229e-01 5.000000e-02 3.170466e-01 4.200549e-01 5.055625e-01 6.685817e-01 6.887190e-01 5.879282e-01 2.819462e-01 3.282721e-01 5.296455e-01 1.208055e-01 3.594076e-01 1.714005e-01 5.000000e-02
<GCONST> 8.413580e+01
<STATE> 5
<MEAN> 39
 6.816142e-01 -1.026428e+01 -8.564657e+00 -4.480342e+00 -7.021531e-01 -8.480803e+00 -7.872447e-01 -5.714586e-01 8.267717e-02 -4.248837e+00 -1.826200e+00 -7.717597e+00 3.987447e-01 9.078882e-01 -2.872387e+00 -3.413313e+00 -2.047770e+00 3.796869e-01 3.546244e-01 1.652701e+00 3.302312e-01 2.446452e+00 1.280850e+00 -2.111834e+00 7.108689e-01 1.468064e-01 -2.552000e-01 -4.916025e-01 -7.547143e-01 -1.231315e-01 1.443329e-01 3.066135e-01 1.124929e+00 -1.325671e-01 -3.569509e-02 -1.380220e-01 -4.983781e-01 6.136621e-01 2.084513e-02
<VARIANCE> 39
 2.004790e+01 1.667522e+01 1.395029e+01 7.540072e+00 5.907139e+00 3.486123e+01 4.944763e+00 1.337163e+01 2.610284e+01 3.428574e+01 2.558818e+01 1.829006e+01 5.000000e-02 5.366093e-01 2.812987e+00 5.669132e+00 1.783805e+00 3.564346e+00 2.829176e+00 4.099982e+00 1.102600e+00 1.384745e+00 9.198014e-01 6.836303e-01 9.633409e-01 5.000000e-02 1.557455e-01 2.053473e-01 5.585722e-01 3.181194e-01 2.631657e-01 7.691051e-01 1.997383e-01 3.852368e-01 3.387542e-01 7.285441e-01 3.744235e-01 2.966866e-01 5.000000e-02
<GCONST> 8.906239e+01
<STATE> 6
<MEAN> 39
 2.490671e+00 -1.725056e+01 -1.629577e+01 -1.027699e+01 -1.374908e+00 -9.175779e+00 2.339592e+00 -1.180198e-01 1.720904e+00 -2.161409e-01 -9.405289e+00 -7.438821e+00 7.295421e-01 -6.280333e-01 -2.995588e+00 -3.888794e+00 -8.062844e-01 8.369367e-01 7.245980e-01 3.580568e+00 4.141399e-01 1.740228e-01 4.823989e-01 -2.345471e+00 1.710410e+00 1.403541e-01 -6.948234e-01 3.295136e-01 3.022619e-01 1.085379e+00 2.544670e-01 3.128899e-01 3.151636e-01 -3.499082e-01 -7.466609e-01 -7.367461e-01 6.486135e-01 6.032653e-01 -1.938028e-02
<VARIANCE> 39
 1.324081e+01 5.206542e+00 4.527738e+01 1.966733e+01 2.190957e+01 9.256081e+00 3.331536e+01 1.685971e+01 1.665939e+01 1.380803e+01 1.109755e+01 2.277668e+00 5.000000e-02 7.678588e-01 7.599748e-01 1.584121e+00 1.107947e+00 2.370633e+00 2.873298e+00 1.570567e+00 2.804101e+00 1.690243e+00 3.854853e+00 1.660878e+00 1.276482e+00 5.000000e-02 1.351338e-01 3.226153e-01 8.318230e-01 4.365666e-01 5.728360e-01 2.975473e-01 5.029286e-01 1.153983e-01 2.780556e-01 1.203696e-01 1.572567e-01 2.359173e-01 5.000000e-02
<GCONST> 8.462394e+01
<STATE> 7
<MEAN> 39
 -1.333573e+00 -2.105370e+01 -2.292812e+01 -5.410658e+00 1.237994e-01 -5.654371e+00 1.190179e+01 -7.423644e-02 1.387704e+00 -3.924940e+00 -1.091688e+01 -1.341881e+00 8.962163e-01 -2.043909e+00 -1.934525e+00 -1.905817e+00 1.753974e+00 1.668647e+00 1.272873e+00 2.828773e+00 -1.011732e+00 -8.197132e-01 -1.747679e+00 -1.737745e-01 2.475310e+00 7.680944e-02 -1.846012e-01 6.256701e-01 1.206579e+00 5.982315e-01 3.254505e-01 -6.485779e-03 -1.143715e+00 -6.519674e-01 -3.446444e-01 -1.194113e-01 1.047530e+00 -2.316506e-01 -3.476566e-02
<VARIANCE> 39
 1.559864e+01 1.552484e+00 8.525925e+00 1.483130e+01 1.960061e+01 8.631646e+00 3.229738e+01 4.352464e+01 3.009945e+01 1.953531e+01 8.461103e+00 8.125885e+00 5.000000e-02 5.004859e-01 7.334774e-01 2.781995e+00 9.486467e-01 6.851168e-01 3.271223e-01 9.915873e-01 1.510896e+00 7.734852e-01 4.726594e-01 9.806584e-01 6.718389e-01 5.000000e-02 1.419102e-01 5.000000e-02 2.891050e-01 3.118927e-01 3.399135e-01 2.921637e-01 3.363376e-01 1.808141e-01 2.921713e-01 4.589607e-01 3.637513e-01 2.175355e-01 5.000000e-02
<GCONST> 7.414729e+01
<STATE> 8
<MEAN> 39
 -3.509457e+00 -2.312292e+01 -2.242826e+01 -2.564928e+00 4.389739e+00 -4.382388e+00 1.192310e+01 -3.564738e+00 -9.894449e-01 -4.939451e+00 -7.993369e+00 1.816741e+00 9.559615e-01 -8.970045e-01 -7.720565e-01 -3.202552e-01 1.549587e+00 1.044857e+00 9.881089e-01 -4.679443e-01 -1.966850e+00 -2.934408e-01 2.899120e-02 1.083034e+00 9.216697e-01 2.317295e-02 4.847019e-01 3.328052e-01 3.868387e-01 -2.073439e-01 -4.338821e-01 -1.443269e-01 -8.198522e-01 -2.278815e-01 4.331954e-01 4.129994e-01 4.072872e-02 -4.537162e-01 -1.659072e-02
<VARIANCE> 39
 1.773701e+01 1.990387e+00 8.382271e+00 2.565665e+01 6.291715e+00 8.273406e+00 1.880022e+01 4.765855e+01 2.635751e+01 1.318151e+01 7.220546e+00 5.434939e+00 5.000000e-02 2.717468e-01 1.632816e-01 8.974843e-01 1.597744e+00 9.196269e-01 5.221885e-01 6.233373e-01 7.171113e-01 8.641301e-01 6.823165e-01 1.747335e+00 9.433248e-01 5.000000e-02 5.000000e-02 8.550197e-02 2.096609e-01 1.159726e-01 8.274127e-02 8.842110e-02 2.283557e-01 3.538372e-01 5.000000e-02 1.425106e-01 2.379455e-01 1.143387e-01 5.000000e-02
<GCONST> 6.242002e+01
<STATE> 9
<MEAN> 39
 -3.181487e+00 -2.447342e+01 -2.315808e+01 -9.057629e-02 5.852324e+00 -3.424753e+00 1.098306e+01 -8.921455e+00 -9.284736e-01 -3.670590e+00 -7.553506e+00 1.892995e+00 9.795088e-01 2.578161e-01 -8.249523e-01 -2.348569e-01 1.073124e+00 2.995536e-01 6.164843e-01 -4.628957e-01 -1.734657e+00 7.601730e-01 4.741947e-01 9.298055e-02 5.423463e-01 1.017986e-02 2.141112e-01 1.502738e-01 9.042689e-02 -3.957684e-01 -1.860901e-01 -1.111761e-01 -8.129516e-02 5.524403e-01 3.116068e-01 -8.894884e-02 -2.723308e-01 -1.366520e-01 -5.524304e-03
<VARIANCE> 39
 1.922945e+01 3.830081e+00 4.913093e+00 2.622746e+01 4.412701e+00 1.157417e+01 9.141126e+00 5.068607e+01 4.660367e+01 9.238305e+00 1.841281e+01 9.129426e+00 5.000000e-02 3.402101e-01 1.477818e-01 8.899348e-01 7.888154e-01 2.891948e-01 3.961207e-01 3.534529e-01 1.268998e+00 2.761570e-01 5.557536e-01 1.856373e+00 1.984749e-01 5.000000e-02 8.059423e-02 5.000000e-02 9.246753e-02 1.272675e-01 1.247699e-01 5.000000e-02 5.000000e-02 1.442030e-01 2.444104e-01 5.000000e-02 1.404398e-01 1.305036e-01 5.000000e-02
<GCONST> 5.555446e+01
<STATE> 10
<MEAN> 39
 -4.358194e+00 -2.513155e+01 -2.334625e+01 2.952645e-01 5.249246e+00 -1.558163e+00 9.310568e+00 -9.597414e+00 2.295120e+00 -3.869760e+00 -6.379695e+00 3.177470e+00 9.915748e-01 -8.149598e-03 -2.573009e-01 -2.258145e-01 2.824712e-01 6.045109e-02 5.232162e-01 -6.174088e-01 -5.235691e-01 8.263112e-01 -2.796769e-01 6.556974e-02 7.334225e-01 3.880120e-03 -1.651299e-02 2.638938e-01 1.135753e-01 -3.292050e-01 -1.161066e-01 -1.606833e-01 3.421607e-03 3.935832e-01 -1.045331e-01 -2.366648e-01 -2.216548e-01 -5.969336e-02 -3.011368e-03
<VARIANCE> 39
 2.245775e+01 1.657945e+00 2.667416e+00 2.930001e+01 7.014059e+00 9.219692e+00 2.012094e+01 3.504786e+01 2.536062e+01 2.562080e+01 3.504123e+01 6.084796e+00 5.000000e-02 1.049460e-01 5.959841e-02 1.955892e-01 5.044833e-01 1.672652e-01 1.422424e-01 1.325809e-01 8.771378e-01 9.584975e-01 3.497407e-01 2.671590e-01 3.903138e-01 5.000000e-02 7.282703e-02 5.000000e-02 6.865884e-02 1.238094e-01 1.155156e-01 5.000000e-02 8.335228e-02 7.606248e-02 6.727046e-02 2.181208e-01 2.358029e-01 1.027674e-01 5.000000e-02
<GCONST> 4.805870e+01
<STATE> 11
<MEAN> 39
 -4.118103e+00 -2.529111e+01 -2.395874e+01 2.625225e-01 5.502656e+00 -1.599015e+00 8.024000e+00 -9.171913e+00 2.410235e+00 -4.302078e+00 -7.813551e+00 4.578001e+00 9.931878e-01 -2.725683e-01 3.344565e-01 1.204053e-01 -2.409654e-01 6.541613e-02 2.439802e-01 -6.017802e-01 -2.152985e-01 3.560408e-01 -5.331196e-01 -2.521831e-01 1.640787e-01 -7.231244e-04 1.317793e-02 9.445737e-02 2.237970e-01 -8.704611e-02 -8.304781e-02 8.844779e-02 2.954775e-02 1.197923e-01 -1.366205e-01 -1.337598e-01 -4.370519e-02 -3.233806e-01 -2.100279e-03
<VARIANCE> 39
 2.124210e+01 2.829712e+00 1.720083e+00 3.085107e+01 7.783994e+00 7.647759e+00 1.305526e+01 4.805871e+01 1.365526e+01 2.558359e+01 1.550208e+01 4.671357e+00 5.000000e-02 3.302030e-01 2.535063e-01 1.595637e-01 4.493447e-01 8.807658e-01 5.633194e-01 1.588929e+00 9.956062e-01 5.912687e-01 1.163659e+00 3.342642e-01 5.778785e-01 5.000000e-02 5.000000e-02 5.000000e-02 5.555013e-02 5.000000e-02 6.363165e-02 5.008189e-02 1.116321e-01 2.293613e-01 3.354931e-01 1.741860e-01 5.000000e-02 7.852498e-02 5.000000e-02
<GCONST> 5.437701e+01
<STATE> 12
<MEAN> 39
 -5.152578e+00 -2.376994e+01 -2.203073e+01 -8.094968e-01 5.777945e+00 -1.704073e-01 6.805978e+00 -8.660290e+00 3.678032e+00 -4.219514e+00 -7.324872e+00 4.186662e+00 9.846433e-01 5.125426e-02 -5.548865e-02 6.194193e-01 -2.679654e-02 -3.243914e-01 8.084399e-01 -4.455268e-01 -2.084159e-01 5.667473e-01 -8.243296e-01 -3.335985e-01 -6.241391e-01 -3.964588e-03 2.597436e-02 -2.089158e-01 -5.782669e-02 2.456361e-02 -9.565489e-02 7.982124e-02 -3.929907e-03 9.002549e-02 -7.738668e-02 1.163165e-01 -1.953860e-01 -3.040235e-02 -1.208479e-03
<VARIANCE> 39
 2.179728e+01 1.176431e+00 4.464092e+00 2.296307e+01 1.478053e+01 6.893694e+00 2.662074e+01 6.324775e+01 2.449769e+01 1.224359e+01 2.204655e+01 8.905682e+00 5.000000e-02 1.835210e-01 2.390947e-01 2.440682e-01 1.877982e-01 2.011269e-01 3.478319e-01 1.152909e+00 1.133367e+00 1.721865e+00 9.121596e-01 2.198679e-01 1.373221e-01 5.000000e-02 5.000000e-02 5.000000e-02 5.000000e-02 1.152721e-01 1.852409e-01 5.617960e-02 1.927821e-01 1.039782e-01 1.647972e-01 2.345947e-01 5.000000e-02 1.013202e-01 5.000000e-02
<GCONST> 5.378938e+01
<STATE> 13
<MEAN> 39
 -3.153723e+00 -2.601602e+01 -2.177131e+01 6.358140e-01 3.735527e+00 2.160164e+00 5.192437e+00 -1.042392e+01 3.471623e+00 -8.693776e+00 -8.306869e+00 2.047801e+00 9.810620e-01 -4.113397e-02 -5.232965e-01 1.148383e-01 -4.773922e-01 -1.693891e-01 3.171744e-01 -4.507594e-01 3.508348e-01 -3.646689e-01 3.576366e-01 -1.037791e+00 2.326717e-01 -5.078140e-03 -3.143841e-02 -2.242642e-02 -2.869698e-01 -1.581218e-01 1.361787e-01 -4.208513e-01 2.950203e-01 -4.537502e-02 2.848916e-03 4.836650e-01 4.480612e-02 2.560424e-01 -6.552010e-04
<VARIANCE> 39
 1.187812e+01 4.792341e+00 6.320356e+00 1.815787e+01 5.078543e+00 8.966372e+00 1.693879e+01 7.979779e+01 4.867502e+01 1.606893e+01 1.539164e+01 4.906509e+00 5.000000e-02 1.359223e-01 3.158489e-01 4.478027e-01 6.358085e-01 9.106858e-01 5.393091e-01 2.441854e-01 5.019714e-01 2.148471e+00 1.637815e+00 2.890707e-01 4.392157e-01 5.000000e-02 5.777364e-02 5.000000e-02 5.192082e-02 5.000000e-02 6.363092e-02 6.496820e-02 1.200143e-01 1.674486e-01 1.320552e-01 1.031070e-01 5.000000e-02 5.186272e-02 5.000000e-02
<GCONST> 5.402054e+01
<STATE> 14
<MEAN> 39
 -5.572533e+00 -2.527271e+01 -2.150199e+01 -1.847270e+00 6.671450e+00 -6.091001e-01 9.167142e+00 -1.044817e+01 5.335238e+00 -5.801368e+00 -9.466988e+00 5.990689e+00 9.569921e-01 -3.745424e-02 1.444540e-01 -1.304607e-01 2.966212e-02 1.529288e-01 -1.086415e-01 1.723052e-01 2.457089e-03 3.240148e-01 7.230060e-01 -2.112020e-01 4.088559e-01 -8.622543e-03 1.426135e-01 -4.034769e-02 -1.513772e-01 5.259628e-02 -1.713713e-01 1.081462e-01 -7.039898e-02 -1.816837e-01 1.054047e-02 -1.348032e-02 8.894669e-02 -1.838840e-01 -4.140147e-05
<VARIANCE> 39
 1.656959e+01 2.757529e+00 5.150167e+00 1.592116e+01 4.870901e+00 9.307580e+00 8.530788e+00 3.371987e+01 5.526569e+01 1.241678e+01 9.017832e+00 6.644835e+00 5.000000e-02 2.863162e-01 3.073095e-01 2.980941e-01 4.323461e-01 6.406551e-01 6.983260e-01 2.301638e-01 7.093283e-01 6.168017e-01 1.441143e-01 7.162494e-01 3.422727e-01 5.000000e-02 5.000000e-02 5.852289e-02 1.074396e-01 1.633656e-01 5.034823e-02 1.003155e-01 1.092712e-01 6.943044e-02 1.801794e-01 8.320624e-02 1.216575e-01 5.373548e-02 5.000000e-02
<GCONST> 5.081960e+01
<STATE> 15
<MEAN> 39
 -4.264779e+00 -2.557739e+01 -2.369743e+01 -1.096015e-01 3.956339e+00 1.159821e+00 6.028080e+00 -9.520191e+00 1.829691e+00 -3.524612e+00 -1.191438e+01 3.276248e+00 9.573707e-01 2.661341e-01 -6.552545e-01 -9.681002e-01 -4.426580e-01 -7.773270e-01 6.188332e-01 -7.654043e-01 -2.305862e-01 8.291236e-02 1.781308e-01 -1.548920e-01 -8.906960e-01 -5.940201e-03 2.925031e-02 -1.775040e-02 8.879586e-02 -2.929339e-01 -3.382554e-02 1.462113e-02 1.067514e-01 1.042777e-01 -4.956131e-02 8.434600e-02 6.089519e-02 -6.387234e-02 -1.377587e-03
<VARIANCE> 39
 2.114217e+01 6.947640e+00 1.296831e+01 1.729111e+01 1.228412e+01 8.637685e+00 1.758292e+01 2.463518e+01 4.637169e+01 8.039465e+00 6.466839e+00 6.512036e+00 5.000000e-02 7.669289e-02 1.417830e-01 4.135576e-01 2.074428e-01 3.268099e-01 1.233362e+00 4.261170e-01 3.535546e-01 4.927214e-01 8.208503e-01 5.117750e-01 3.993852e-01 5.000000e-02 5.000000e-02 5.529816e-02 1.270964e-01 5.863701e-02 8.776055e-02 1.923302e-01 1.223217e-01 5.000000e-02 1.017785e-01 6.515957e-02 6.470694e-02 1.280232e-01 5.000000e-02
<GCONST> 5.143996e+01
<STATE> 16
<MEAN> 39
 -2.082709e+00 -2.768421e+01 -2.435546e+01 -1.730494e+00 2.961349e+00 3.007412e+00 6.380629e+00 -1.160314e+01 6.414827e+00 -5.318769e+00 -9.745560e+00 1.866514e+00 9.376804e-01 2.795091e-01 -1.954288e-01 1.143052e-01 -8.496723e-01 -3.054422e-01 3.358602e-01 3.286368e-01 -2.661030e-01 1.009848e-01 7.674964e-01 -4.686544e-01 -1.482291e-01 -1.138900e-02 6.797232e-02 2.473544e-01 2.279158e-01 -7.961740e-03 1.786343e-01 -1.056469e-01 2.160890e-02 1.148134e-01 -2.923892e-01 3.946103e-01 -4.152717e-02 1.008004e-01 -2.151744e-03
<VARIANCE> 39
 2.107164e+01 4.201378e+00 7.505951e+00 2.197972e+01 1.022607e+01 1.124278e+01 2.333961e+01 6.183531e+01 1.260502e+02 2.423867e+01 1.802844e+01 1.099623e+01 5.000000e-02 2.948057e-01 5.092889e-01 7.417476e-01 4.127297e-01 1.512203e-01 7.498931e-01 5.199603e-01 3.338179e-01 8.851069e-01 8.940733e-01 7.206157e-01 4.849076e-01 5.000000e-02 5.000000e-02 5.000000e-02 8.731499e-02 5.000000e-02 6.282408e-02 1.320143e-01 1.274362e-01 5.000000e-02 3.468888e-01 1.431462e-01 2.270928e-01 6.990685e-02 5.000000e-02
<GCONST> 6.090002e+01
<STATE> 17
<MEAN> 39
 -1.891727e+00 -2.725535e+01 -2.375414e+01 -2.809858e+00 2.534585e+00 2.899114e+00 6.990185e+00 -1.129310e+01 3.950625e+00 -2.075027e+00 -1.162011e+01 2.828610e+00 9.146669e-01 6.223614e-01 3.161343e-01 3.184144e-01 -6.734479e-01 9.570709e-02 -2.314982e-02 -2.386628e-01 9.905177e-02 -4.645171e-01 1.494488e+00 5.476716e-02 -1.447731e-01 -1.272985e-02 1.482279e-01 1.485942e-01 4.963728e-03 3.850386e-02 1.195664e-01 1.491135e-01 -1.981643e-01 2.244314e-01 4.098856e-02 4.554057e-02 1.446228e-01 -3.266947e-01 4.171073e-04
<VARIANCE> 39
 2.522799e+01 1.012176e+01 2.968168e+00 6.425478e+00 1.310071e+01 1.072166e+01 3.011295e+01 4.726956e+01 5.615077e+01 6.266744e+00 5.127979e+00 4.322424e+00 5.000000e-02 8.420220e-02 1.937372e-01 4.741089e-01 1.578711e-01 3.860062e-01 3.207551e-01 2.080733e-01 6.367255e-01 1.847166e+00 1.017437e+00 8.192489e-01 2.945704e-01 5.000000e-02 5.000000e-02 1.026883e-01 5.000000e-02 1.032256e-01 1.391441e-01 1.104109e-01 3.703525e-01 1.836804e-01 1.000017e-01 6.476104e-02 7.600404e-02 5.788940e-02 5.000000e-02
<GCONST> 5.287163e+01
<STATE> 18
<MEAN> 39
 -3.392071e+00 -2.555575e+01 -2.300066e+01 -4.616309e+00 3.569700e+00 1.822485e+00 4.470474e+00 -8.769535e+00 2.740949e+00 2.400875e+00 -1.171721e+01 2.266876e+00 8.957274e-01 9.160429e-01 5.549415e-01 2.507267e-02 -1.743738e-01 4.115282e-01 5.507835e-01 1.559173e-01 3.868020e-02 -2.503182e-01 9.138174e-01 -2.556181e-01 -1.388017e+00 -1.013982e-02 6.464645e-02 1.057318e-01 -1.084185e-02 -4.210930e-02 7.537433e-02 2.429159e-01 -2.287157e-02 1.630291e-01 -4.576010e-02 -2.510487e-01 -1.553131e-01 -4.835238e-01 -3.870609e-04
<VARIANCE> 39
 3.985326e+01 6.042799e+00 1.746339e+00 1.319310e+01 9.097733e+00 1.922460e+01 1.443879e+01 1.879479e+01 1.483491e+01 8.295286e+00 8.774099e+00 1.601794e+01 5.000000e-02 7.205121e-02 2.014196e-01 2.506628e-01 6.595854e-01 1.751148e+00 2.932065e-01 1.549732e+00 1.029404e+00 9.678325e-01 6.426203e-01 4.978327e-01 7.544205e-01 5.000000e-02 5.000000e-02 5.000000e-02 8.696773e-02 1.120198e-01 1.134809e-01 1.422524e-01 1.617701e-01 5.000000e-02 1.132169e-01 5.649467e-02 5.000000e-02 5.287820e-02 5.000000e-02
<GCONST> 5.359701e+01
<STATE> 19
<MEAN> 39
 -3.683304e-01 -2.489124e+01 -2.336534e+01 -5.741598e+00 4.820230e+00 3.623658e+00 6.282190e+00 -1.081468e+01 2.362732e+00 2.126570e+00 -1.273839e+01 -1.229075e+00 8.733641e-01 5.460545e-01 4.510261e-01 -1.527019e-01 -1.083281e+00 -2.125239e-01 9.876902e-01 -4.703383e-01 9.731891e-01 -3.744637e-01 1.000532e+00 -3.417426e-01 -1.585373e+00 -1.333889e-02 3.037860e-02 3.752847e-02 1.051874e-01 -3.365048e-01 -2.873115e-01 -7.721438e-02 -3.917339e-01 4.015947e-01 8.784775e-02 -1.094796e-02 2.254480e-01 1.029689e-01 -2.786913e-03
<VARIANCE> 39
 2.850538e+01 1.041882e+01 5.079698e+00 6.165093e+00 1.186508e+01 1.222825e+01 8.377876e+00 3.091964e+01 3.549616e+01 5.348088e+00 2.033553e+01 3.012866e+01 5.000000e-02 8.492262e-02 3.774305e-01 6.723618e-01 7.556109e-01 1.027520e+00 7.723545e-01 2.002090e+00 1.097958e+00 5.762411e-01 1.095235e+00 4.249966e-01 3.462160e-01 5.000000e-02 5.000000e-02 6.104102e-02 1.203993e-01 5.000000e-02 4.543445e-01 1.970914e-01 9.378920e-02 9.108958e-02 4.124361e-01 7.416657e-02 1.063800e-01 2.040851e-01 5.000000e-02
<GCONST> 6.269120e+01
<STATE> 20
<MEAN> 39
 8.567252e-01 -2.354156e+01 -2.297803e+01 -8.496096e+00 2.876823e+00 6.066886e+00 3.894881e+00 -6.330069e+00 2.741203e+00 5.208036e+00 -1.280230e+01 -4.561985e+00 8.362030e-01 1.200775e+00 7.708868e-01 5.265356e-01 -1.850752e+00 -4.704987e-01 -3.969045e-02 -1.543364e+00 1.349470e+00 -2.120156e-01 5.477262e-01 6.156530e-01 -9.812078e-01 -2.114582e-02 2.277654e-01 -2.275513e-02 2.360750e-01 -2.019542e-02 -2.703289e-02 -5.791389e-01 1.856665e-01 -7.764950e-02 1.102060e-01 -6.384244e-01 5.709857e-01 5.720232e-01 -4.111807e-03
<VARIANCE> 39
 2.122218e+01 9.341379e+00 1.401367e+01 1.878905e+01 1.545977e+01 8.006743e+00 7.077715e+00 1.447702e+01 1.436989e+01 9.610929e+00 1.319741e+01 2.034030e+01 5.000000e-02 2.461049e-01 5.411112e-01 1.208850e+00 7.928524e-01 1.788878e+00 2.505591e+00 1.454255e+00 5.773677e-01 4.466880e+00 5.538043e-01 6.094647e-01 1.428307e+00 5.000000e-02 5.000000e-02 1.171118e-01 5.000000e-02 8.606613e-02 1.610098e-01 2.727629e-01 3.435636e-01 5.639248e-02 1.365160e-01 2.398192e-01 6.239606e-02 1.605552e-01 5.000000e-02
<GCONST> 6.787480e+01
<STATE> 21
<MEAN> 39
 3.994778e+00 -2.198332e+01 -2.201128e+01 -1.150323e+01 1.979989e+00 4.878531e+00 1.330248e-01 -5.394606e+00 9.359729e-01 4.284269e+00 -1.133705e+01 -6.251289e+00 7.878488e-01 1.577349e+00 9.345648e-02 9.794788e-01 -1.309736e+00 -4.906140e-01 -9.113998e-01 -2.163902e-01 1.016640e+00 4.798963e-01 -1.332760e+00 1.797296e+00 4.971831e-01 -3.000902e-02 -1.316543e-01 -2.017312e-01 -1.575079e-01 4.921070e-01 -7.672672e-02 -5.243302e-01 5.026759e-01 -1.387261e-02 2.091978e-01 -6.313465e-01 4.905882e-01 8.103192e-01 -3.934269e-03
<VARIANCE> 39
 1.510762e+01 3.437656e+00 1.701443e+01 1.300775e+01 1.863317e+01 7.812705e+00 1.005815e+01 2.397556e+01 2.619272e+01 1.722089e+01 8.330403e+00 1.785083e+01 5.000000e-02 4.059369e-01 1.067494e+00 9.194008e-01 3.234356e-01 1.199318e+00 2.364297e+00 1.256824e+00 8.245120e-01 1.495388e+00 7.536026e-01 3.612008e-01 1.478312e+00 5.000000e-02 5.000000e-02 5.421684e-02 1.806026e-01 8.337612e-02 5.305726e-01 1.955522e-01 1.385779e-01 1.591285e-01 1.070394e+00 1.727938e-01 1.152317e-01 1.378988e-01 5.000000e-02
<GCONST> 7.012406e+01
<STATE> 22
<MEAN> 39
 5.215725e+00 -2.278457e+01 -1.846574e+01 -1.472475e+01 3.305885e+00 2.990528e+00 9.013445e-01 -2.035102e+00 3.787404e+00 1.222329e+00 -6.950448e+00 -4.305215e+00 7.290646e-01 9.218898e-01 3.395898e-01 -1.319605e-01 9.480302e-02 -8.848900e-01 -1.507375e+00 2.235256e-01 1.138939e+00 4.597197e-01 -1.742069e+00 2.234621e+00 1.578595e+00 -3.494174e-02 -1.683085e-01 -1.721194e-02 -3.863395e-01 7.349955e-01 -1.554049e-01 -1.487486e-01 2.652779e-01 -5.031115e-01 1.063887e-01 1.539297e-01 -1.160570e-01 2.100946e-01 -1.143755e-03
<VARIANCE> 39
 7.693185e+00 1.880110e+00 3.183525e+01 2.806020e+01 1.730055e+01 1.677337e+01 1.737521e+01 1.877137e+01 5.409342e-01 9.232417e+00 5.887197e+00 4.533502e+00 5.000000e-02 4.799027e-01 7.594243e-01 5.364270e-01 5.292727e-01 1.140899e+00 4.917830e-01 3.772453e-01 2.022373e+00 2.673280e+00 8.832209e-01 8.323537e-01 6.532650e-01 5.000000e-02 8.349882e-02 8.926883e-02 3.475641e-01 1.219608e-01 2.074078e-01 2.995015e-01 2.313366e-01 3.058205e-01 2.469958e-01 9.343646e-02 2.127306e-01 6.330056e-02 5.000000e-02
<GCONST> 6.407629e+01
<STATE> 23
<MEAN> 39
 7.266921e+00 -2.211616e+01 -2.016856e+01 -1.196474e+01 6.387264e-01 9.103470e-01 1.354290e+00 -2.849817e+00 4.473873e+00 -4.681967e-01 -3.399498e+00 -5.099929e-01 6.701676e-01 5.666755e-01 9.709534e-02 -7.012888e-01 9.337178e-01 -7.136844e-01 -2.031229e+00 6.826996e-01 4.657385e-01 1.991589e-01 -7.380303e-01 1.627931e+00 1.482578e+00 -3.635657e-02 -4.835260e-01 -4.387404e-02 -1.112129e-01 2.357520e-01 2.226631e-01 -1.421730e-01 2.324112e-02 6.095697e-03 -4.410174e-01 2.390017e-01 -5.699140e-01 -4.395543e-01 -1.922190e-03
<VARIANCE> 39
 2.863880e+00 6.291303e+00 1.788918e+01 8.370460e+00 1.484395e+01 5.840869e+00 1.168224e+01 1.160335e+01 1.175825e+01 5.041057e+00 4.162359e+00 9.300390e+00 5.000000e-02 4.644612e-01 2.561730e-01 7.896700e-01 1.137938e+00 1.306846e+00 4.823425e-01 8.696913e-01 1.959252e+00 1.884816e+00 7.743977e-01 1.892154e+00 3.371545e-01 5.000000e-02 5.000000e-02 1.934751e-01 2.027411e-01 7.598115e-02 3.197759e-01 8.703370e-02 1.176791e-01 1.661484e-01 2.624400e-01 3.193360e-01 2.164541e-01 1.703623e-01 5.000000e-02
<GCONST> 6.335766e+01
<STATE> 24
<MEAN> 39
 7.802592e+00 -2.132743e+01 -2.256052e+01 -1.096083e+01 -3.470343e+00 -5.911610e+00 3.250409e+00 -1.098917e+00 2.904629e+00 -2.140960e+00 -1.080522e+00 7.774209e-01 6.326399e-01 -4.590232e-01 -1.469676e-01 3.052839e-01 5.821761e-01 -7.106727e-01 -1.574591e+00 2.555263e-01 5.523646e-01 -7.828258e-02 -5.829538e-01 -4.861415e-01 -1.858487e-01 -3.628638e-02 -2.350190e-01 2.719381e-02 1.831319e-01 2.630157e-01 3.574256e-01 5.356099e-01 -5.508098e-02 -1.755786e-02 -7.896297e-02 3.385077e-02 -6.908589e-01 -5.770214e-01 1.343474e-04
<VARIANCE> 39
 4.469951e+00 7.513945e+00 4.377272e+00 5.826703e+00 1.123900e+01 1.042684e+01 3.408035e+00 3.616335e+00 6.119615e+00 1.682621e+01 8.817744e+00 5.960467e+00 5.000000e-02 2.323478e-01 5.604843e-01 1.664004e+00 5.133900e-01 9.204437e-01 4.204624e-01 8.363471e-01 3.131230e-01 1.497516e+00 1.409289e+00 1.586518e+00 3.951021e-01 5.000000e-02 5.000000e-02 7.774326e-02 2.444503e-01 5.000000e-02 2.258175e-01 1.151228e-01 1.814080e-01 2.076697e-01 2.036742e-01 2.724216e-01 3.558124e-01 1.479052e-01 5.000000e-02
<GCONST> 5.839009e+01
<STATE> 25
<MEAN> 39
 5.657480e+00 -2.243749e+01 -2.206896e+01 -6.992414e+00 6.346552e-02 -5.136555e+00 5.074523e+00 7.433530e-01 3.645969e+00 -2.668098e+00 -5.509871e+00 -2.048263e+00 5.248572e-01 -4.558043e-01 7.972027e-01 9.564287e-01 1.497697e+00 1.357423e+00 2.925545e-01 -3.276878e-01 -3.516846e-01 -6.744622e-01 -1.121882e+00 -3.034836e-01 -5.426364e-01 -3.477703e-02 -1.632593e-02 2.317632e-01 5.502034e-01 5.785110e-02 3.152030e-01 5.188726e-01 -5.006314e-01 -4.535897e-01 -7.263083e-02 -2.090230e-01 2.104561e-01 4.860105e-02 3.139834e-04
<VARIANCE> 39
 9.596505e-01 2.145159e+00 2.754412e+00 9.763203e+00 2.890244e+01 6.833081e+00 6.540084e+00 1.239043e+01 7.738925e+00 8.392702e+00 7.327238e+00 9.717474e+00 5.000000e-02 1.537653e-01 5.248009e-01 1.153705e+00 3.698747e-01 7.144977e-01 2.168874e+00 7.694140e-01 2.180585e+00 7.755576e-01 1.233328e+00 1.301973e+00 9.145487e-01 5.000000e-02 5.000000e-02 1.815296e-01 2.875438e-01 1.098908e-01 3.453554e-01 1.395688e-01 5.382916e-02 2.249424e-01 1.782387e-01 1.296647e-01 1.891082e-01 2.603363e-01 5.000000e-02
<GCONST> 6.015891e+01
<STATE> 26
<MEAN> 39
 4.946526e+00 -2.036293e+01 -1.862037e+01 -5.138822e+00 3.174204e+00 -3.329276e+00 1.474545e+00 -2.391268e+00 3.552486e-01 -6.696457e+00 -4.009821e+00 -1.348817e+00 4.667839e-01 -6.085280e-01 3.950381e-01 1.494790e+00 1.077313e+00 6.353357e-01 5.416990e-01 -8.296149e-01 -1.244516e-01 -8.030666e-02 -5.219083e-01 -9.844054e-02 -4.210877e-01 -3.292093e-02 -5.845137e-02 -2.053678e-01 6.137136e-02 -2.246523e-01 -6.661385e-02 -6.148728e-03 3.182979e-02 1.532172e-01 3.008181e-01 4.164853e-01 1.255188e-02 -1.586065e-01 3.045503e-04
<VARIANCE> 39
 2.550912e+00 1.835166e+00 5.968003e+00 7.697781e+00 4.698246e+01 1.955091e+01 3.572628e-01 2.110504e+01 1.223578e+01 3.439846e+00 1.013348e+01 1.089750e+01 5.000000e-02 1.011176e-01 9.605079e-01 1.556040e+00 8.719522e-01 5.674677e-01 3.049970e-01 3.772291e-01 9.883689e-01 7.974291e-01 3.923659e-01 1.011594e+00 1.581951e+00 5.000000e-02 7.251179e-02 1.374486e-01 3.373540e-01 1.068213e-01 5.074644e-01 6.207517e-01 7.435247e-02 7.429740e-01 2.907719e-01 9.912451e-02 1.890737e-01 6.186675e-02 5.000000e-02
<GCONST> 5.991122e+01
<STATE> 27
<MEAN> 39
 4.013323e+00 -1.962948e+01 -1.580186e+01 -4.189945e+00 3.150276e+00 -4.271496e+00 9.566600e-02 -2.266622e+00 2.148963e+00 -5.446805e+00 -4.335894e+00 -2.878199e+00 4.038227e-01 -6.922923e-01 -5.378219e-02 1.081114e+00 6.960250e-01 9.433805e-01 2.659336e-01 -5.558508e-01 -3.683029e-01 -1.598447e-01 -2.378508e-01 2.989313e-02 -7.008185e-01 -3.332161e-02 -4.999381e-03 -8.001882e-02 -1.626875e-01 -1.770865e-01 -6.658367e-02 1.632746e-01 2.953588e-01 -3.336538e-02 -4.391516e-02 6.727304e-02 4.369076e-01 2.665771e-01 2.543474e-03
<VARIANCE> 39
 3.102278e+00 5.986089e+00 5.748241e+00 3.565246e+00 1.957449e+01 1.116608e+01 1.231727e+01 1.229492e+01 9.442132e+00 1.192418e+01 8.602231e+00 5.558768e+00 5.000000e-02 4.007550e-01 5.097868e-01 9.733948e-01 7.567133e-01 2.265962e+00 1.940827e+00 1.115437e+00 1.909201e+00 8.891985e-01 7.854080e-01 5.425221e-01 1.059037e+00 5.000000e-02 5.000000e-02 2.088535e-01 1.884177e-01 1.153197e-01 1.066122e-01 1.601626e-01 1.451306e-01 2.364731e-01 1.919935e-01 2.587578e-01 2.187417e-01 2.903126e-01 5.000000e-02
<GCONST> 6.546816e+01
<STATE> 28
<MEAN> 39
 3.065639e+00 -2.008489e+01 -1.418955e+01 -1.347183e+00 4.172522e+00 -2.433285e+00 1.599989e+00 -1.322763e+00 1.469563e+00 -7.412593e+00 -4.168772e+00 -3.758885e+00 3.492064e-01 -4.290590e-01 4.003891e-01 9.739606e-01 8.803686e-01 1.087682e+00 1.054087e+00 1.041695e-01 -3.452603e-01 1.233290e-01 -7.705481e-02 1.075511e+00 -1.871545e-01 -2.366343e-02 3.489753e-02 1.702190e-01 -2.003244e-02 -1.484201e-01 -5.508847e-03 -1.090974e-01 -1.691923e-02 -6.519047e-02 -1.240327e-01 3.032314e-01 1.238813e-01 2.408898e-01 5.086103e-03
<VARIANCE> 39
 2.554937e+00 4.440195e+00 1.213713e+01 3.315177e+00 7.829053e+00 3.328657e+00 1.312439e+01 9.967626e+00 6.667808e+00 4.653645e+00 5.027901e+00 1.034409e+01 5.000000e-02 2.016835e-01 7.654099e-01 3.858326e-01 9.176923e-01 6.554379e-01 7.336574e-01 6.001863e-01 1.082427e+00 2.115163e+00 2.294154e+00 8.254713e-01 6.399509e-01 5.000000e-02 5.000000e-02 1.338899e-01 1.583434e-01 1.753852e-01 3.188568e-01 2.884503e-01 9.484392e-02 1.478280e-01 1.418588e-01 7.178871e-02 5.369176e-02 2.137166e-01 5.000000e-02
<GCONST> 5.690705e+01
<STATE> 29
<MEAN> 39
 1.371042e+00 -1.909545e+01 -1.287966e+01 -8.594431e-01 6.904819e+00 -9.634267e-01 7.584352e-01 -2.873445e+00 1.639625e+00 -4.436595e+00 -1.039577e+00 -2.412506e+00 3.111098e-01 -4.418216e-01 7.324978e-01 1.061592e+00 1.687570e-01 7.593004e-02 -4.001963e-01 -3.664249e-01 -4.500779e-01 -1.291906e+00 -1.807954e-01 8.116136e-01 9.297758e-01 -1.608742e-02 3.798860e-02 1.553817e-01 -1.094648e-02 -2.439748e-01 -4.052684e-01 -4.978949e-01 -1.187105e-02 1.868697e-01 -1.151778e-01 -5.140261e-02 -2.621017e-01 1.960853e-02 -1.230234e-03
<VARIANCE> 39
 2.469867e+00 3.645317e+00 9.670671e+00 1.939103e+01 1.322832e+01 8.956426e+00 6.979674e+00 8.653407e+00 1.668395e+01 2.719610e+00 9.147432e+00 5.029692e+00 5.000000e-02 3.800161e-01 3.838540e-01 7.182213e-01 6.036021e-01 1.536564e+00 5.293742e-01 2.509304e-01 2.327005e-01 2.155629e-01 8.619052e-01 5.056853e-01 7.080175e-01 5.000000e-02 6.731875e-02 1.174544e-01 5.901233e-02 1.564693e-01 1.051456e-01 1.735838e-01 1.061958e-01 3.073579e-01 4.795849e-01 2.893705e-01 9.527545e-02 9.752192e-02 5.000000e-02
<GCONST> 5.451860e+01
<STATE> 30
<MEAN> 39
 1.256732e+00 -1.650883e+01 -1.048145e+01 -2.797323e+00 4.342897e+00 -4.340705e+00 8.123670e-02 -3.797211e+00 -1.619706e+00 -6.848935e+00 -5.737972e-01 -1.884655e+00 2.875981e-01 -3.707256e-01 8.590233e-01 6.021485e-01 -1.108084e-01 8.680834e-02 -6.156424e-01 1.395758e-01 2.312797e-01 -3.077452e-01 8.974746e-01 2.020900e-01 -2.967777e-01 -2.267315e-02 -8.430245e-02 1.952264e-03 -2.754598e-02 1.010086e-01 3.060158e-01 3.453525e-01 9.116912e-02 2.432582e-01 7.009463e-01 2.865801e-01 -1.823772e-01 -2.278931e-01 -4.169099e-03
<VARIANCE> 39
 2.734705e+00 3.763925e+00 3.783289e+00 8.294248e+00 8.691234e+00 8.716039e+00 4.979142e+00 2.861733e+00 2.743150e+00 1.620028e+01 5.319374e+00 4.988437e+00 5.000000e-02 9.466782e-02 5.537400e-01 4.317737e-01 2.438900e-01 8.250420e-01 1.929757e+00 1.064517e+00 1.244933e+00 1.347152e+00 1.324339e+00 5.299940e-01 4.911589e-01 5.000000e-02 6.756010e-02 5.000000e-02 1.855774e-01 1.312857e-01 2.442069e-01 3.065718e-01 7.491983e-02 7.614224e-02 5.000000e-02 1.621689e-01 5.000000e-02 1.099649e-01 5.000000e-02
<GCONST> 5.012297e+01
<STATE> 31
<MEAN> 39
 3.850769e-01 -1.639120e+01 -1.032415e+01 -2.044860e+00 6.222505e+00 -1.940379e+00 8.437367e-01 -3.197543e+00 -1.546203e+00 -4.255527e+00 5.504767e-01 -2.287506e+00 2.482586e-01 -6.705207e-01 9.528463e-01 8.882436e-01 2.068767e-01 2.722153e-01 -3.196573e-02 1.812994e-01 5.036662e-01 1.276796e+00 8.140430e-01 3.518398e-01 -2.557645e-02 -3.550395e-02 -3.797213e-02 1.554098e-01 1.643642e-01 8.211397e-02 -1.460778e-01 2.530615e-03 -1.139145e-01 -1.495499e-01 4.079453e-01 -1.568532e-01 -4.219238e-02 -7.246706e-02 -4.218000e-03
<VARIANCE> 39
 1.462714e+00 7.755838e+00 3.794510e+00 1.613800e+01 1.090364e+01 3.955103e+00 1.704040e+01 2.083995e+01 4.766252e+00 1.570335e+01 8.905635e+00 1.683033e+01 5.000000e-02 2.344190e-01 2.834283e-01 9.153852e-01 1.438216e+00 9.181177e-01 1.473495e+00 2.789502e-01 9.274493e-01 7.429585e-01 4.526799e-01 2.002150e-01 2.611969e-01 5.000000e-02 5.000000e-02 1.539810e-01 9.014323e-02 2.457216e-01 4.291076e-01 3.035764e-01 4.309613e-01 4.781652e-01 1.896419e-01 3.352687e-01 9.300972e-02 1.544364e-01 5.000000e-02
<GCONST> 6.137579e+01
<STATE> 32
<MEAN> 39
 -7.153164e-01 -1.386909e+01 -7.877145e+00 -1.256222e+00 5.646318e+00 -4.404616e+00 1.027925e+00 -5.027137e-01 2.284303e+00 -3.980267e+00 -3.948241e-01 -2.158760e+00 1.589935e-01 -7.897853e-01 1.117036e+00 1.406294e+00 3.285387e-01 6.279788e-02 2.531339e-01 -5.454692e-01 -1.146870e-01 6.983048e-01 -1.270420e-01 -3.001516e-01 -4.537633e-01 -3.736311e-02 -6.652363e-02 4.810121e-02 8.456738e-02 4.935130e-02 -6.339334e-03 4.176682e-01 6.887076e-02 -2.977619e-01 -5.856497e-01 -3.368026e-01 1.967438e-01 1.072437e-01 -2.195932e-03
<VARIANCE> 39
 4.553386e-01 7.241787e+00 8.969845e+00 1.902715e+01 1.742326e+01 1.390919e+01 4.528337e+00 5.027795e+00 6.329321e+00 3.187835e+00 6.551728e+00 1.624495e+00 5.000000e-02 1.390239e-01 9.322079e-01 7.923282e-01 2.445929e+00 3.578921e+00 2.015093e+00 1.851309e+00 2.436724e+00 9.064550e-01 8.770730e-01 4.880693e-01 4.594464e-01 5.000000e-02 5.000000e-02 1.145870e-01 1.730684e-01 2.328511e-01 4.016422e-01 3.584805e-01 1.800222e-01 2.374598e-01 7.692212e-02 5.000000e-02 1.152045e-01 8.621310e-02 5.000000e-02
<GCONST> 5.974749e+01
<STATE> 33
<MEAN> 39
 -2.435998e+00 -1.140119e+01 -4.968108e+00 -4.539618e-01 6.957784e+00 -8.980939e-01 -5.351825e-01 -4.363245e+00 1.932927e+00 -3.496007e+00 6.090400e-01 -2.793707e+00 1.012182e-01 -6.607469e-01 9.942304e-01 7.450507e-01 -1.758170e-01 -6.649138e-01 4.874230e-01 6.301358e-01 -2.423197e-01 -9.072245e-01 -3.069805e-01 6.752568e-01 6.960024e-01 -3.771374e-02 9.178489e-02 -2.275875e-01 -2.595576e-01 -2.711272e-01 -3.567106e-01 -2.672894e-01 2.047147e-01 2.003605e-01 -2.233467e-01 7.182744e-02 -8.948791e-03 8.452068e-02 4.703782e-03
<VARIANCE> 39
 1.415756e+00 4.755335e+00 4.553694e+00 8.448298e+00 1.723153e+01 1.061467e+01 7.402512e+00 7.360493e+00 9.019563e+00 1.109412e+01 1.031985e+01 4.214370e+00 5.000000e-02 8.152079e-02 5.269887e-01 4.804617e-01 6.005331e-01 1.008625e+00 1.287190e+00 7.655177e-01 7.530277e-01 7.340854e-01 4.237052e-01 8.711403e-01 2.198852e-01 5.000000e-02 5.000000e-02 1.185682e-01 9.651906e-02 2.635073e-01 4.178219e-01 1.587043e-01 2.450361e-01 2.952021e-01 3.883479e-01 6.635670e-02 1.580897e-01 7.369989e-02 5.000000e-02
<GCONST> 5.608100e+01
<STATE> 34
<MEAN> 39
 -4.240663e+00 -1.061448e+01 -3.930929e+00 -1.083531e+00 4.020721e+00 -3.361173e+00 2.970223e+00 -2.867244e+00 -9.513637e-01 -4.937580e+00 2.001437e+00 -1.706055e+00 2.079637e-02 -5.125322e-01 4.531740e-01 4.749584e-01 -5.860274e-01 -1.002221e+00 -3.295132e-01 2.671788e-01 2.078901e-01 -3.878305e-01 8.917326e-02 4.829263e-01 1.466164e-01 -2.680449e-02 2.068728e-01 -1.390025e-01 -2.267088e-01 -1.475668e-01 1.846481e-01 -1.963813e-01 -2.266016e-01 -2.060724e-02 4.748411e-01 3.694915e-01 -2.322832e-01 -3.579310e-01 9.196945e-03
<VARIANCE> 39
 2.765116e-01 1.094636e+00 2.176532e+00 1.135662e+01 7.990765e+00 5.350400e+00 7.558561e+00 1.154846e+01 8.499294e+00 1.580696e+01 3.695713e+00 3.026870e+00 5.000000e-02 1.210405e-01 4.263406e-01 1.824282e-01 8.014948e-01 1.529581e+00 1.184109e+00 1.260391e+00 1.574412e+00 1.878007e+00 6.074520e-01 1.067617e+00 4.615024e-01 5.000000e-02 5.000000e-02 5.000000e-02 7.999235e-02 8.911574e-02 1.225431e-01 3.275319e-01 7.729471e-02 1.255798e-01 6.625602e-02 6.317900e-02 1.337440e-01 7.028142e-02 5.000000e-02
<GCONST> 4.713004e+01
<TRANSP> 35
 0.000000e+00 1.000000e+00 0.000000e+00 0.000000e+00 0.000000e+00 0.000000e+00 0.000000e+00 0.000000e+00 0.000000e+00 0.000000e+00 0.000000e+00 0.000000e+00 0.000000e+00 0.000000e+00 0.000000e+00 0.000000e+00 0.000000e+00 0.000000e+00 0.000000e+00 0.000000e+00 0.000000e+00 0.000000e+00 0.000000e+00 0.000000e+00 0.000000e+00 0.000000e+00 0.000000e+00 0.000000e+00 0.000000e+00 0.000000e+00 0.000000e+00 0.000000e+00 0.000000e+00 0.000000e+00 0.000000e+00
 0.000000e+00 5.454236e-01 4.545765e-01 0.000000e+00 0.000000e+00 0.000000e+00 0.000000e+00 0.000000e+00 0.000000e+00 0.000000e+00 0.000000e+00 0.000000e+00 0.000000e+00 0.000000e+00 0.000000e+00 0.000000e+00 0.000000e+00 0.000000e+00 0.000000e+00 0.000000e+00 0.000000e+00 0.000000e+00 0.000000e+00 0.000000e+00 0.000000e+00 0.000000e+00 0.000000e+00 0.000000e+00 0.000000e+00 0.000000e+00 0.000000e+00 0.000000e+00 0.000000e+00 0.000000e+00 0.000000e+00
 0.000000e+00 0.000000e+00 5.015383e-01 4.984617e-01 0.000000e+00 0.000000e+00 0.000000e+00 0.000000e+00 0.000000e+00 0.000000e+00 0.000000e+00 0.000000e+00 0.000000e+00 0.000000e+00 0.000000e+00 0.000000e+00 0.000000e+00 0.000000e+00 0.000000e+00 0.000000e+00 0.000000e+00 0.000000e+00 0.000000e+00 0.000000e+00 0.000000e+00 0.000000e+00 0.000000e+00 0.000000e+00 0.000000e+00 0.000000e+00 0.000000e+00 0.000000e+00 0.000000e+00 0.000000e+00 0.000000e+00
 0.000000e+00 0.000000e+00 0.000000e+00 5.822330e-01 4.177670e-01 0.000000e+00 0.000000e+00 0.000000e+00 0.000000e+00 0.000000e+00 0.000000e+00 0.000000e+00 0.000000e+00 0.000000e+00 0.000000e+00 0.000000e+00 0.000000e+00 0.000000e+00 0.000000e+00 0.000000e+00 0.000000e+00 0.000000e+00 0.000000e+00 0.000000e+00 0.000000e+00 0.000000e+00 0.000000e+00 0.000000e+00 0.000000e+00 0.000000e+00 0.000000e+00 0.000000e+00 0.000000e+00 0.000000e+00 0.000000e+00
 0.000000e+00 0.000000e+00 0.000000e+00 0.000000e+00 3.754309e-01 6.245691e-01 0.000000e+00 0.000000e+00 0.000000e+00 0.000000e+00 0.000000e+00 0.000000e+00 0.000000e+00 0.000000e+00 0.000000e+00 0.000000e+00 0.000000e+00 0.000000e+00 0.000000e+00 0.000000e+00 0.000000e+00 0.000000e+00 0.000000e+00 0.000000e+00 0.000000e+00 0.000000e+00 0.000000e+00 0.000000e+00 0.000000e+00 0.000000e+00 0.000000e+00 0.000000e+00 0.000000e+00 0.000000e+00 0.000000e+00
 0.000000e+00 0.000000e+00 0.000000e+00 0.000000e+00 0.000000e+00 3.746911e-01 6.253089e-01 0.000000e+00 0.000000e+00 0.000000e+00 0.000000e+00 0.000000e+00 0.000000e+00 0.000000e+00 0.000000e+00 0.000000e+00 0.000000e+00 0.000000e+00 0.000000e+00 0.000000e+00 0.000000e+00 0.000000e+00 0.000000e+00 0.000000e+00 0.000000e+00 0.000000e+00 0.000000e+00 0.000000e+00 0.000000e+00 0.000000e+00 0.000000e+00 0.000000e+00 0.000000e+00 0.000000e+00 0.000000e+00
 0.000000e+00 0.000000e+00 0.000000e+00 0.000000e+00 0.000000e+00 0.000000e+00 3.749966e-01 6.250034e-01 0.000000e+00 0.000000e+00 0.000000e+00 0.000000e+00 0.000000e+00 0.000000e+00 0.000000e+00 0.000000e+00 0.000000e+00 0.000000e+00 0.000000e+00 0.000000e+00 0.000000e+00 0.000000e+00 0.000000e+00 0.000000e+00 0.000000e+00 0.000000e+00 0.000000e+00 0.000000e+00 0.000000e+00 0.000000e+00 0.000000e+00 0.000000e+00 0.000000e+00 0.000000e+00 0.000000e+00
 0.000000e+00 0.000000e+00 0.000000e+00 0.000000e+00 0.000000e+00 0.000000e+00 0.000000e+00 5.333418e-01 4.666581e-01 0.000000e+00 0.000000e+00 0.000000e+00 0.000000e+00 0.000000e+00 0.000000e+00 0.000000e+00 0.000000e+00 0.000000e+00 0.000000e+00 0.000000e+00 0.000000e+00 0.000000e+00 0.000000e+00 0.000000e+00 0.000000e+00 0.000000e+00 0.000000e+00 0.000000e+00 0.000000e+00 0.000000e+00 0.000000e+00 0.000000e+00 0.000000e+00 0.000000e+00 0.000000e+00
 0.000000e+00 0.000000e+00 0.000000e+00 0.000000e+00 0.000000e+00 0.000000e+00 0.000000e+00 0.000000e+00 3.170736e-01 6.829264e-01 0.000000e+00 0.000000e+00 0.000000e+00 0.000000e+00 0.000000e+00 0.000000e+00 0.000000e+00 0.000000e+00 0.000000e+00 0.000000e+00 0.000000e+00 0.000000e+00 0.000000e+00 0.000000e+00 0.000000e+00 0.000000e+00 0.000000e+00 0.000000e+00 0.000000e+00 0.000000e+00 0.000000e+00 0.000000e+00 0.000000e+00 0.000000e+00 0.000000e+00
 0.000000e+00 0.000000e+00 0.000000e+00 0.000000e+00 0.000000e+00 0.000000e+00 0.000000e+00 0.000000e+00 0.000000e+00 4.386173e-01 5.613828e-01 0.000000e+00 0.000000e+00 0.000000e+00 0.000000e+00 0.000000e+00 0.000000e+00 0.000000e+00 0.000000e+00 0.000000e+00 0.000000e+00 0.000000e+00 0.000000e+00 0.000000e+00 0.000000e+00 0.000000e+00 0.000000e+00 0.000000e+00 0.000000e+00 0.000000e+00 0.000000e+00 0.000000e+00 0.000000e+00 0.000000e+00 0.000000e+00
 0.000000e+00 0.000000e+00 0.000000e+00 0.000000e+00 0.000000e+00 0.000000e+00 0.000000e+00 0.000000e+00 0.000000e+00 0.000000e+00 4.485521e-01 5.514479e-01 0.000000e+00 0.000000e+00 0.000000e+00 0.000000e+00 0.000000e+00 0.000000e+00 0.000000e+00 0.000000e+00 0.000000e+00 0.000000e+00 0.000000e+00 0.000000e+00 0.000000e+00 0.000000e+00 0.000000e+00 0.000000e+00 0.000000e+00 0.000000e+00 0.000000e+00 0.000000e+00 0.000000e+00 0.000000e+00 0.000000e+00
 0.000000e+00 0.000000e+00 0.000000e+00 0.000000e+00 0.000000e+00 0.000000e+00 0.000000e+00 0.000000e+00 0.000000e+00 0.000000e+00 0.000000e+00 4.438488e-01 5.561513e-01 0.000000e+00 0.000000e+00 0.000000e+00 0.000000e+00 0.000000e+00 0.000000e+00 0.000000e+00 0.000000e+00 0.000000e+00 0.000000e+00 0.000000e+00 0.000000e+00 0.000000e+00 0.000000e+00 0.000000e+00 0.000000e+00 0.000000e+00 0.000000e+00 0.000000e+00 0.000000e+00 0.000000e+00 0.000000e+00
 0.000000e+00 0.000000e+00 0.000000e+00 0.000000e+00 0.000000e+00 0.000000e+00 0.000000e+00 0.000000e+00 0.000000e+00 0.000000e+00 0.000000e+00 0.000000e+00 4.444514e-01 5.555485e-01 0.000000e+00 0.000000e+00 0.000000e+00 0.000000e+00 0.000000e+00 0.000000e+00 0.000000e+00 0.000000e+00 0.000000e+00 0.000000e+00 0.000000e+00 0.000000e+00 0.000000e+00 0.000000e+00 0.000000e+00 0.000000e+00 0.000000e+00 0.000000e+00 0.000000e+00 0.000000e+00 0.000000e+00
 0.000000e+00 0.000000e+00 0.000000e+00 0.000000e+00 0.000000e+00 0.000000e+00 0.000000e+00 0.000000e+00 0.000000e+00 0.000000e+00 0.000000e+00 0.000000e+00 0.000000e+00 6.141160e-01 3.858840e-01 0.000000e+00 0.000000e+00 0.000000e+00 0.000000e+00 0.000000e+00 0.000000e+00 0.000000e+00 0.000000e+00 0.000000e+00 0.000000e+00 0.000000e+00 0.000000e+00 0.000000e+00 0.000000e+00 0.000000e+00 0.000000e+00 0.000000e+00 0.000000e+00 0.000000e+00 0.000000e+00
 0.000000e+00 0.000000e+00 0.000000e+00 0.000000e+00 0.000000e+00 0.000000e+00 0.000000e+00 0.000000e+00 0.000000e+00 0.000000e+00 0.000000e+00 0.000000e+00 0.000000e+00 0.000000e+00 3.803159e-01 6.196842e-01 0.000000e+00 0.000000e+00 0.000000e+00 0.000000e+00 0.000000e+00 0.000000e+00 0.000000e+00 0.000000e+00 0.000000e+00 0.000000e+00 0.000000e+00 0.000000e+00 0.000000e+00 0.000000e+00 0.000000e+00 0.000000e+00 0.000000e+00 0.000000e+00 0.000000e+00
 0.000000e+00 0.000000e+00 0.000000e+00 0.000000e+00 0.000000e+00 0.000000e+00 0.000000e+00 0.000000e+00 0.000000e+00 0.000000e+00 0.000000e+00 0.000000e+00 0.000000e+00 0.000000e+00 0.000000e+00 4.425016e-01 5.574985e-01 0.000000e+00 0.000000e+00 0.000000e+00 0.000000e+00 0.000000e+00 0.000000e+00 0.000000e+00 0.000000e+00 0.000000e+00 0.000000e+00 0.000000e+00 0.000000e+00 0.000000e+00 0.000000e+00 0.000000e+00 0.000000e+00 0.000000e+00 0.000000e+00
 0.000000e+00 0.000000e+00 0.000000e+00 0.000000e+00 0.000000e+00 0.000000e+00 0.000000e+00 0.000000e+00 0.000000e+00 0.000000e+00 0.000000e+00 0.000000e+00 0.000000e+00 0.000000e+00 0.000000e+00 0.000000e+00 3.756628e-01 6.243371e-01 0.000000e+00 0.000000e+00 0.000000e+00 0.000000e+00 0.000000e+00 0.000000e+00 0.000000e+00 0.000000e+00 0.000000e+00 0.000000e+00 0.000000e+00 0.000000e+00 0.000000e+00 0.000000e+00 0.000000e+00 0.000000e+00 0.000000e+00
 0.000000e+00 0.000000e+00 0.000000e+00 0.000000e+00 0.000000e+00 0.000000e+00 0.000000e+00 0.000000e+00 0.000000e+00 0.000000e+00 0.000000e+00 0.000000e+00 0.000000e+00 0.000000e+00 0.000000e+00 0.000000e+00 0.000000e+00 4.452285e-01 5.547715e-01 0.000000e+00 0.000000e+00 0.000000e+00 0.000000e+00 0.000000e+00 0.000000e+00 0.000000e+00 0.000000e+00 0.000000e+00 0.000000e+00 0.000000e+00 0.000000e+00 0.000000e+00 0.000000e+00 0.000000e+00 0.000000e+00
 0.000000e+00 0.000000e+00 0.000000e+00 0.000000e+00 0.000000e+00 0.000000e+00 0.000000e+00 0.000000e+00 0.000000e+00 0.000000e+00 0.000000e+00 0.000000e+00 0.000000e+00 0.000000e+00 0.000000e+00 0.000000e+00 0.000000e+00 0.000000e+00 5.463162e-01 4.536838e-01 0.000000e+00 0.000000e+00 0.000000e+00 0.000000e+00 0.000000e+00 0.000000e+00 0.000000e+00 0.000000e+00 0.000000e+00 0.000000e+00 0.000000e+00 0.000000e+00 0.000000e+00 0.000000e+00 0.000000e+00
 0.000000e+00 0.000000e+00 0.000000e+00 0.000000e+00 0.000000e+00 0.000000e+00 0.000000e+00 0.000000e+00 0.000000e+00 0.000000e+00 0.000000e+00 0.000000e+00 0.000000e+00 0.000000e+00 0.000000e+00 0.000000e+00 0.000000e+00 0.000000e+00 0.000000e+00 4.974121e-01 5.025879e-01 0.000000e+00 0.000000e+00 0.000000e+00 0.000000e+00 0.000000e+00 0.000000e+00 0.000000e+00 0.000000e+00 0.000000e+00 0.000000e+00 0.000000e+00 0.000000e+00 0.000000e+00 0.000000e+00
 0.000000e+00 0.000000e+00 0.000000e+00 0.000000e+00 0.000000e+00 0.000000e+00 0.000000e+00 0.000000e+00 0.000000e+00 0.000000e+00 0.000000e+00 0.000000e+00 0.000000e+00 0.000000e+00 0.000000e+00 0.000000e+00 0.000000e+00 0.000000e+00 0.000000e+00 0.000000e+00 3.761228e-01 6.238772e-01 0.000000e+00 0.000000e+00 0.000000e+00 0.000000e+00 0.000000e+00 0.000000e+00 0.000000e+00 0.000000e+00 0.000000e+00 0.000000e+00 0.000000e+00 0.000000e+00 0.000000e+00
 0.000000e+00 0.000000e+00 0.000000e+00 0.000000e+00 0.000000e+00 0.000000e+00 0.000000e+00 0.000000e+00 0.000000e+00 0.000000e+00 0.000000e+00 0.000000e+00 0.000000e+00 0.000000e+00 0.000000e+00 0.000000e+00 0.000000e+00 0.000000e+00 0.000000e+00 0.000000e+00 0.000000e+00 2.857825e-01 7.142175e-01 0.000000e+00 0.000000e+00 0.000000e+00 0.000000e+00 0.000000e+00 0.000000e+00 0.000000e+00 0.000000e+00 0.000000e+00 0.000000e+00 0.000000e+00 0.000000e+00
 0.000000e+00 0.000000e+00 0.000000e+00 0.000000e+00 0.000000e+00 0.000000e+00 0.000000e+00 0.000000e+00 0.000000e+00 0.000000e+00 0.000000e+00 0.000000e+00 0.000000e+00 0.000000e+00 0.000000e+00 0.000000e+00 0.000000e+00 0.000000e+00 0.000000e+00 0.000000e+00 0.000000e+00 0.000000e+00 4.444658e-01 5.555342e-01 0.000000e+00 0.000000e+00 0.000000e+00 0.000000e+00 0.000000e+00 0.000000e+00 0.000000e+00 0.000000e+00 0.000000e+00 0.000000e+00 0.000000e+00
 0.000000e+00 0.000000e+00 0.000000e+00 0.000000e+00 0.000000e+00 0.000000e+00 0.000000e+00 0.000000e+00 0.000000e+00 0.000000e+00 0.000000e+00 0.000000e+00 0.000000e+00 0.000000e+00 0.000000e+00 0.000000e+00 0.000000e+00 0.000000e+00 0.000000e+00 0.000000e+00 0.000000e+00 0.000000e+00 0.000000e+00 5.455971e-01 4.544029e-01 0.000000e+00 0.000000e+00 0.000000e+00 0.000000e+00 0.000000e+00 0.000000e+00 0.000000e+00 0.000000e+00 0.000000e+00 0.000000e+00
 0.000000e+00 0.000000e+00 0.000000e+00 0.000000e+00 0.000000e+00 0.000000e+00 0.000000e+00 0.000000e+00 0.000000e+00 0.000000e+00 0.000000e+00 0.000000e+00 0.000000e+00 0.000000e+00 0.000000e+00 0.000000e+00 0.000000e+00 0.000000e+00 0.000000e+00 0.000000e+00 0.000000e+00 0.000000e+00 0.000000e+00 0.000000e+00 4.997757e-01 5.002244e-01 0.000000e+00 0.000000e+00 0.000000e+00 0.000000e+00 0.000000e+00 0.000000e+00 0.000000e+00 0.000000e+00 0.000000e+00
 0.000000e+00 0.000000e+00 0.000000e+00 0.000000e+00 0.000000e+00 0.000000e+00 0.000000e+00 0.000000e+00 0.000000e+00 0.000000e+00 0.000000e+00 0.000000e+00 0.000000e+00 0.000000e+00 0.000000e+00 0.000000e+00 0.000000e+00 0.000000e+00 0.000000e+00 0.000000e+00 0.000000e+00 0.000000e+00 0.000000e+00 0.000000e+00 0.000000e+00 2.856293e-01 7.143707e-01 0.000000e+00 0.000000e+00 0.000000e+00 0.000000e+00 0.000000e+00 0.000000e+00 0.000000e+00 0.000000e+00
 0.000000e+00 0.000000e+00 0.000000e+00 0.000000e+00 0.000000e+00 0.000000e+00 0.000000e+00 0.000000e+00 0.000000e+00 0.000000e+00 0.000000e+00 0.000000e+00 0.000000e+00 0.000000e+00 0.000000e+00 0.000000e+00 0.000000e+00 0.000000e+00 0.000000e+00 0.000000e+00 0.000000e+00 0.000000e+00 0.000000e+00 0.000000e+00 0.000000e+00 0.000000e+00 5.465541e-01 4.534459e-01 0.000000e+00 0.000000e+00 0.000000e+00 0.000000e+00 0.000000e+00 0.000000e+00 0.000000e+00
 0.000000e+00 0.000000e+00 0.000000e+00 0.000000e+00 0.000000e+00 0.000000e+00 0.000000e+00 0.000000e+00 0.000000e+00 0.000000e+00 0.000000e+00 0.000000e+00 0.000000e+00 0.000000e+00 0.000000e+00 0.000000e+00 0.000000e+00 0.000000e+00 0.000000e+00 0.000000e+00 0.000000e+00 0.000000e+00 0.000000e+00 0.000000e+00 0.000000e+00 0.000000e+00 0.000000e+00 4.986535e-01 5.013465e-01 0.000000e+00 0.000000e+00 0.000000e+00 0.000000e+00 0.000000e+00 0.000000e+00
 0.000000e+00 0.000000e+00 0.000000e+00 0.000000e+00 0.000000e+00 0.000000e+00 0.000000e+00 0.000000e+00 0.000000e+00 0.000000e+00 0.000000e+00 0.000000e+00 0.000000e+00 0.000000e+00 0.000000e+00 0.000000e+00 0.000000e+00 0.000000e+00 0.000000e+00 0.000000e+00 0.000000e+00 0.000000e+00 0.000000e+00 0.000000e+00 0.000000e+00 0.000000e+00 0.000000e+00 0.000000e+00 4.986962e-01 5.013038e-01 0.000000e+00 0.000000e+00 0.000000e+00 0.000000e+00 0.000000e+00
 0.000000e+00 0.000000e+00 0.000000e+00 0.000000e+00 0.000000e+00 0.000000e+00 0.000000e+00 0.000000e+00 0.000000e+00 0.000000e+00 0.000000e+00 0.000000e+00 0.000000e+00 0.000000e+00 0.000000e+00 0.000000e+00 0.000000e+00 0.000000e+00 0.000000e+00 0.000000e+00 0.000000e+00 0.000000e+00 0.000000e+00 0.000000e+00 0.000000e+00 0.000000e+00 0.000000e+00 0.000000e+00 0.000000e+00 3.772875e-01 6.227126e-01 0.000000e+00 0.000000e+00 0.000000e+00 0.000000e+00
 0.000000e+00 0.000000e+00 0.000000e+00 0.000000e+00 0.000000e+00 0.000000e+00 0.000000e+00 0.000000e+00 0.000000e+00 0.000000e+00 0.000000e+00 0.000000e+00 0.000000e+00 0.000000e+00 0.000000e+00 0.000000e+00 0.000000e+00 0.000000e+00 0.000000e+00 0.000000e+00 0.000000e+00 0.000000e+00 0.000000e+00 0.000000e+00 0.000000e+00 0.000000e+00 0.000000e+00 0.000000e+00 0.000000e+00 0.000000e+00 3.745823e-01 6.254177e-01 0.000000e+00 0.000000e+00 0.000000e+00
 0.000000e+00 0.000000e+00 0.000000e+00 0.000000e+00 0.000000e+00 0.000000e+00 0.000000e+00 0.000000e+00 0.000000e+00 0.000000e+00 0.000000e+00 0.000000e+00 0.000000e+00 0.000000e+00 0.000000e+00 0.000000e+00 0.000000e+00 0.000000e+00 0.000000e+00 0.000000e+00 0.000000e+00 0.000000e+00 0.000000e+00 0.000000e+00 0.000000e+00 0.000000e+00 0.000000e+00 0.000000e+00 0.000000e+00 0.000000e+00 0.000000e+00 4.446929e-01 5.553071e-01 0.000000e+00 0.000000e+00
 0.000000e+00 0.000000e+00 0.000000e+00 0.000000e+00 0.000000e+00 0.000000e+00 0.000000e+00 0.000000e+00 0.000000e+00 0.000000e+00 0.000000e+00 0.000000e+00 0.000000e+00 0.000000e+00 0.000000e+00 0.000000e+00 0.000000e+00 0.000000e+00 0.000000e+00 0.000000e+00 0.000000e+00 0.000000e+00 0.000000e+00 0.000000e+00 0.000000e+00 0.000000e+00 0.000000e+00 0.000000e+00 0.000000e+00 0.000000e+00 0.000000e+00 0.000000e+00 5.833195e-01 4.166804e-01 0.000000e+00
 0.000000e+00 0.000000e+00 0.000000e+00 0.000000e+00 0.000000e+00 0.000000e+00 0.000000e+00 0.000000e+00 0.000000e+00 0.000000e+00 0.000000e+00 0.000000e+00 0.000000e+00 0.000000e+00 0.000000e+00 0.000000e+00 0.000000e+00 0.000000e+00 0.000000e+00 0.000000e+00 0.000000e+00 0.000000e+00 0.000000e+00 0.000000e+00 0.000000e+00 0.000000e+00 0.000000e+00 0.000000e+00 0.000000e+00 0.000000e+00 0.000000e+00 0.000000e+00 0.000000e+00 0.000000e+00 1.000000e+00
 0.000000e+00 0.000000e+00 0.000000e+00 0.000000e+00 0.000000e+00 0.000000e+00 0.000000e+00 0.000000e+00 0.000000e+00 0.000000e+00 0.000000e+00 0.000000e+00 0.000000e+00 0.000000e+00 0.000000e+00 0.000000e+00 0.000000e+00 0.000000e+00 0.000000e+00 0.000000e+00 0.000000e+00 0.000000e+00 0.000000e+00 0.000000e+00 0.000000e+00 0.000000e+00 0.000000e+00 0.000000e+00 0.000000e+00 0.000000e+00 0.000000e+00 0.000000e+00 0.000000e+00 0.000000e+00 0.000000e+00
<ENDHMM>
